{"version":"0.7.0","metadata":{"date":{"year":2026,"month":7,"day":13,"hour":23,"minute":23,"second":30},"loudness":-22.19018317516103,"gain":0.8163306212906104,"name":"green-tone9","modeled_by":"delt","gear_type":"amp","gear_make":"VOX amplug2 metal","gear_model":"VOX amplug2 metal","tone_type":"vox","trainer":"TONE3000"},"architecture":"SlimmableContainer","config":{"submodels":[{"max_value":0.5,"model":{"version":"0.7.0","metadata":{"date":{"year":2026,"month":7,"day":13,"hour":23,"minute":23,"second":29},"loudness":-22.20891906078115,"gain":0.7999966706420863},"architecture":"WaveNet","config":{"layers":[{"input_size":1,"condition_size":1,"head":{"out_channels":1,"kernel_size":16,"bias":true},"channels":3,"kernel_sizes":[6,6,6,6,6,6,6,6,6,6,6,6,6,6,15,15,6,6,6,6,6,6,6],"dilations":[1,3,7,17,41,101,239,1,3,7,17,41,101,239,1,13,1,3,7,17,41,101,239],"activation":[{"type":"LeakyReLU","negative_slope":0.01},{"type":"LeakyReLU","negative_slope":0.01},{"type":"LeakyReLU","negative_slope":0.01},{"type":"LeakyReLU","negative_slope":0.01},{"type":"LeakyReLU","negative_slope":0.01},{"type":"LeakyReLU","negative_slope":0.01},{"type":"LeakyReLU","negative_slope":0.01},{"type":"LeakyReLU","negative_slope":0.01},{"type":"LeakyReLU","negative_slope":0.01},{"type":"LeakyReLU","negative_slope":0.01},{"type":"LeakyReLU","negative_slope":0.01},{"type":"LeakyReLU","negative_slope":0.01},{"type":"LeakyReLU","negative_slope":0.01},{"type":"LeakyReLU","negative_slope":0.01},{"type":"LeakyReLU","negative_slope":0.01},{"type":"LeakyReLU","negative_slope":0.01},{"type":"LeakyReLU","negative_slope":0.01},{"type":"LeakyReLU","negative_slope":0.01},{"type":"LeakyReLU","negative_slope":0.01},{"type":"LeakyReLU","negative_slope":0.01},{"type":"LeakyReLU","negative_slope":0.01},{"type":"LeakyReLU","negative_slope":0.01},{"type":"LeakyReLU","negative_slope":0.01}],"bottleneck":3,"head1x1":{"active":false,"out_channels":1,"groups":1},"layer1x1":{"active":true,"groups":1},"groups_input":1,"groups_input_mixin":1,"conv_pre_film":{"active":false,"shift":true,"groups":1},"conv_post_film":{"active":false,"shift":true,"groups":1},"input_mixin_pre_film":{"active":false,"shift":true,"groups":1},"input_mixin_post_film":{"active":false,"shift":true,"groups":1},"activation_pre_film":{"active":false,"shift":true,"groups":1},"activation_post_film":{"active":false,"shift":true,"groups":1},"layer1x1_post_film":{"active":false,"shift":true,"groups":1},"head1x1_post_film":{"active":false,"shift":true,"groups":1},"gating_mode":["none","none","none","none","none","none","none","none","none","none","none","none","none","none","none","none","none","none","none","none","none","none","none"],"secondary_activation":[null,null,null,null,null,null,null,null,null,null,null,null,null,null,null,null,null,null,null,null,null,null,null],"slimmable":null}],"head":null,"head_scale":0.005935153997138116},"weights":[-0.5895630717277527,-0.843341588973999,-1.252259612083435,-0.04165579378604889,-0.09320192784070969,-0.06851688772439957,-0.16013985872268677,0.022534454241394997,0.056386735290288925,-0.07961045205593109,-0.16685009002685547,-0.009125442244112492,-0.1817771941423416,-0.22727902233600616,0.01857641711831093,-0.1357998549938202,-0.02770460955798626,-0.08257787674665451,0.12844526767730713,-0.3015979528427124,0.16642175614833832,-0.11483519524335861,0.23968078196048737,-0.042663201689720154,-0.1651460826396942,0.29514279961586,0.26524949073791504,-0.03732840344309807,-0.08338625729084015,-0.015059632249176502,-0.11410609632730484,-0.024945968762040138,0.22571353614330292,-0.010152062401175499,0.03186085820198059,0.16641409695148468,0.13250099122524261,0.2645580768585205,0.21560916304588318,-0.2930731177330017,-0.15736566483974457,-0.20532089471817017,0.022512033581733704,0.06776563823223114,-0.057322267442941666,-0.2892097234725952,0.12513302266597748,-0.19718164205551147,0.06825385987758636,0.28195470571517944,0.07022737711668015,-0.341165691614151,0.008368141949176788,-0.03936682268977165,-0.003341924399137497,0.07026277482509613,-0.05559858679771423,0.3295992314815521,0.4992004334926605,0.3188464939594269,0.2659688889980316,0.3704119026660919,0.22090888023376465,-0.5459772944450378,0.5310636162757874,-0.10245534032583237,0.7931281924247742,0.26535314321517944,-0.026857959106564522,-0.7197307348251343,0.5574750900268555,-0.4224059581756592,0.267326295375824,-0.43618080019950867,-0.15563169121742249,0.22060008347034454,-0.051817696541547775,0.36649826169013977,0.30976980924606323,0.2048167586326599,-0.17643451690673828,0.46763238310813904,0.2542145848274231,0.5468677878379822,-0.06698063760995865,-0.1818215698003769,-0.8599374890327454,0.3905309736728668,0.020931780338287354,-0.05050017684698105,0.12221669405698776,-0.13658413290977478,-0.4332799017429352,0.03307943046092987,0.19170862436294556,0.05047554150223732,-0.23364879190921783,0.30756619572639465,-0.3556801378726959,-0.53645920753479,-0.2505153715610504,-0.278045117855072,-0.27478304505348206,0.18143096566200256,0.06330833584070206,-0.057249851524829865,0.16130079329013824,0.027546051889657974,0.13742762804031372,-0.049340490251779556,-0.47366082668304443,0.25320467352867126,0.2509327530860901,0.08294106274843216,0.27257606387138367,0.15957005321979523,-0.15671560168266296,-0.22117842733860016,0.18256638944149017,0.04749668762087822,-0.04503761604428291,-0.260109007358551,-0.7218097448348999,0.3158567547798157,0.05993015691637993,0.00006231997394934297,-0.0883760154247284,0.151312455534935,-0.3075234293937683,0.34395042061805725,0.2743537724018097,0.2019892781972885,0.8365883827209473,0.7263398766517639,1.730922818183899,-0.6383699178695679,0.20714055001735687,-0.6963661909103394,0.10490450263023376,0.4687092900276184,0.37814170122146606,-0.5788350701332092,-0.5804665684700012,-0.46238696575164795,0.4123297333717346,-0.26261401176452637,0.25803959369659424,0.25690510869026184,0.2574270963668823,0.39624977111816406,0.18836721777915955,-0.060155466198921204,-0.174996480345726,-0.2868445813655853,-0.2541879415512085,0.37357592582702637,0.2528458833694458,0.027735164389014244,-0.1741967499256134,-0.015722688287496567,0.3358054757118225,0.4725172221660614,0.20901769399642944,0.08199263364076614,-0.45000699162483215,-0.41871827840805054,-0.3096849024295807,-0.46513810753822327,-0.4363662302494049,0.08358130604028702,0.5241387486457825,-0.10169986635446548,0.28328555822372437,0.4409768283367157,-0.2045915424823761,-0.07385368645191193,-0.5336593389511108,-0.16076932847499847,-0.4344041645526886,-0.4485219120979309,-0.10306801646947861,-0.05291328579187393,0.06072194501757622,-0.22727835178375244,-0.15272657573223114,-0.24753427505493164,0.049889154732227325,-0.19813957810401917,-0.048150599002838135,0.06550426781177521,0.4557555913925171,-0.005221337545663118,-0.1597634106874466,-0.05385352671146393,0.20651620626449585,0.2557489573955536,0.016559453681111336,0.07020913809537888,0.1895407736301422,0.18913520872592926,0.19625745713710785,-0.0727892741560936,-0.10893071442842484,0.07147112488746643,-0.484358549118042,-0.09555093199014664,-0.651912271976471,-0.6016561388969421,0.46071961522102356,-0.29989540576934814,-0.06689292192459106,0.06764597445726395,-0.32916244864463806,-0.5796799659729004,0.4101693034172058,-0.05144711211323738,0.12844088673591614,-0.14811979234218597,0.31452029943466187,-0.040231894701719284,0.012859293259680271,0.306359201669693,-0.16415943205356598,0.04151304066181183,-0.24651983380317688,-0.03301678225398064,0.49109122157096863,0.014109082520008087,-1.1588274240493774,0.11592313647270203,0.10334191471338272,0.061332326382398605,0.0491185188293457,-0.19615943729877472,-0.026347443461418152,-0.08595281839370728,-0.5194029211997986,-0.032057832926511765,-0.05910993367433548,0.20218342542648315,-0.024520255625247955,-0.031763531267642975,-0.5842607021331787,0.06896727532148361,-0.07796449959278107,-0.0947439968585968,0.35544219613075256,1.4229438304901123,0.36341699957847595,0.054050493985414505,0.041640203446149826,-0.22978617250919342,0.08538161218166351,0.288156121969223,-0.3339088559150696,0.15688349306583405,0.08003398776054382,-0.17589494585990906,-0.36608433723449707,-0.12353505939245224,0.07334616035223007,-0.21196170151233673,0.01259343046694994,0.8338080644607544,0.11517732590436935,0.06784991174936295,0.07901060581207275,-0.17026597261428833,-0.06981751322746277,0.2852897047996521,0.44672396779060364,-0.05328129231929779,-0.11485815048217773,-0.10252765566110611,-0.20187729597091675,-0.20765544474124908,-0.7335031032562256,-0.8281827569007874,-0.5215644240379333,0.09791284799575806,0.4363076090812683,-0.6059110164642334,-0.19184282422065735,0.16072779893875122,0.28048786520957947,0.1769634336233139,0.5671941041946411,-0.4910934269428253,-0.3219492733478546,-0.42330724000930786,0.3451225459575653,-0.01261722669005394,-0.011002433486282825,-0.12084013223648071,0.3029555082321167,0.36418092250823975,-0.25453320145606995,0.1224084123969078,-0.014613536186516285,-0.07771757990121841,-0.07700403034687042,0.15205544233322144,-0.11611264944076538,0.014463737607002258,-0.012669467367231846,0.19873951375484467,-0.33879178762435913,0.2913130223751068,-0.2443588227033615,0.005511103197932243,0.03987265005707741,-0.012371010147035122,-0.13995936512947083,0.03942274674773216,-0.7213650345802307,-0.043019890785217285,-0.06042366474866867,0.004589166957885027,-0.06355378031730652,-0.5310655832290649,-0.045187808573246,-0.012410099618136883,-0.049247048795223236,0.010541960597038269,0.19370689988136292,0.07249646633863449,-0.7649563550949097,0.06023907661437988,-0.03334925323724747,0.006760791409760714,0.2816188335418701,-0.14925424754619598,-0.5761728286743164,-0.09609057009220123,0.14562411606311798,0.010518382303416729,0.12282320857048035,0.009813183918595314,-0.04536188766360283,-0.07045674324035645,0.04136977717280388,0.013354333117604256,-0.3004467487335205,0.2651345133781433,-0.4526318311691284,-0.07303125411272049,0.14268039166927338,0.24007681012153625,-0.3245030343532562,0.4815486669540405,-0.30907782912254333,0.2871556282043457,-0.3480497896671295,-0.035249363631010056,0.13975480198860168,-0.29613828659057617,0.1287192702293396,-0.08641133457422256,-0.9553971290588379,-0.482135146856308,-0.19849377870559692,0.030155837535858154,0.28387245535850525,-0.05821031332015991,-0.027676712721586227,0.005078638903796673,0.00685433903709054,-0.2426435649394989,-0.051482174545526505,0.08870828151702881,-0.07704973965883255,-0.06749533116817474,0.03010614588856697,0.05634584650397301,-0.007984038442373276,0.01754380576312542,0.009930547326803207,-0.016548316925764084,-0.022016236558556557,0.10829295217990875,0.5760208964347839,-0.006518139038234949,0.017796598374843597,0.03386826068162918,0.01835464872419834,-0.10187629610300064,-1.0038237571716309,0.04620680212974548,0.043352629989385605,0.08065676689147949,0.10795282572507858,0.01298418827354908,0.09138567000627518,0.0006757961236871779,-0.011115684174001217,-0.02371915429830551,-0.013914238661527634,0.07178843021392822,-0.7171948552131653,-0.029543353244662285,0.01090239454060793,-0.02838071808218956,-0.023892952129244804,-0.13029178977012634,-0.8211674690246582,0.1279640644788742,0.11313531547784805,0.21003708243370056,0.18690763413906097,0.10051167756319046,0.018652282655239105,0.02074485644698143,-0.004175710957497358,0.019550267606973648,0.013707934878766537,0.09517938643693924,-0.9160282015800476,-0.03382710739970207,0.39994877576828003,0.1692221760749817,0.5462800860404968,0.3529283404350281,-0.04183318093419075,0.3901647925376892,-0.22102126479148865,0.051440149545669556,-0.20520442724227905,0.21905089914798737,-0.15006746351718903,-0.2206098884344101,-0.6236016750335693,1.4592090845108032,-0.3516145646572113,0.12325563281774521,-0.4174391031265259,-0.02885260619223118,-0.021602099761366844,-0.014709682203829288,-0.03316514939069748,0.005655970890074968,-0.13487577438354492,-0.07348074018955231,-0.08007390797138214,0.028106410056352615,-0.18907073140144348,0.18181370198726654,-0.2577601373195648,0.050011660903692245,0.06583540141582489,0.0644642636179924,0.05420778691768646,0.08101130276918411,0.05934658646583557,0.009487657807767391,0.01108583714812994,0.03094540163874626,0.020093031227588654,0.015018364414572716,0.8560661673545837,-0.05574294924736023,-0.0655430480837822,-0.0651421770453453,-0.11041828989982605,-0.2712976932525635,0.23972676694393158,-0.04147660732269287,-0.05684217810630798,-0.06282595545053482,-0.07002099603414536,-0.08616100251674652,0.6909568905830383,0.011900212615728378,0.003671512007713318,0.011188661679625511,0.023659348487854004,-0.007113977801054716,0.6722301244735718,-0.00516531290486455,-0.008584502153098583,-0.07988601922988892,-0.04383965954184532,-0.22696565091609955,-0.12403768301010132,-0.019706718623638153,-0.024738619104027748,-0.03607669845223427,-0.042933493852615356,-0.03902243450284004,0.4096508026123047,-0.04112858697772026,0.11296007037162781,0.3117888569831848,0.23138046264648438,-0.1467052549123764,0.4614042341709137,0.05961272493004799,-0.03414409980177879,-0.01936362311244011,0.11421560496091843,-0.13382086157798767,0.1317203789949417,0.03620494157075882,-0.6346324682235718,0.37157750129699707,0.2997949421405792,-0.16015756130218506,0.05287681892514229,-0.2257579267024994,-0.2998822331428528,0.037648797035217285,-0.03179456666111946,-0.7122642397880554,-0.4367386996746063,0.045426011085510254,0.036560311913490295,-0.056129083037376404,-0.08643873035907745,0.23122966289520264,0.10475869476795197,-0.15237553417682648,-0.3536989390850067,0.011808836832642555,0.2489975094795227,0.022447999566793442,-0.0408218652009964,-0.30690819025039673,0.12565742433071136,-0.2515551745891571,-0.1725229024887085,-0.07683563977479935,-0.1205473318696022,-0.011768854223191738,-0.05957312509417534,-0.14172500371932983,0.00017080584075301886,0.08478860557079315,-0.24398665130138397,-0.3749588131904602,-0.2686935365200043,-0.3478856384754181,-0.009667109698057175,0.10068969428539276,0.15784384310245514,-0.044723864644765854,0.06474777311086655,-0.09322605282068253,0.056773990392684937,-0.23397134244441986,-0.32626208662986755,-0.22884781658649445,0.025353439152240753,-0.07193804532289505,-0.16991019248962402,0.03194563835859299,-0.03586236760020256,-0.028988001868128777,-0.05479279160499573,-0.01878865621984005,0.09548427909612656,-0.22698846459388733,-0.18738533556461334,0.04695960879325867,-0.09593366086483002,-0.05786500126123428,0.340474009513855,0.27201274037361145,0.8598245978355408,0.07636690884828568,0.534659206867218,-0.08369133621454239,0.5246489644050598,-0.27756601572036743,-0.40938809514045715,-0.21364888548851013,-0.13508568704128265,-0.7667789459228516,-0.1149788573384285,-0.12038380652666092,0.2835824489593506,-0.16671118140220642,0.18459299206733704,-0.3014164865016937,-0.059293318539857864,0.019595395773649216,-1.3265621662139893,0.007850476540625095,0.07013939321041107,0.06919383257627487,-0.0061710309237241745,0.053765036165714264,0.09456575661897659,0.11734732240438461,-0.01682807132601738,0.13228611648082733,0.18741309642791748,0.10368630290031433,-0.5735176205635071,-0.029544660821557045,-0.01797201670706272,-0.07529525458812714,0.18685591220855713,0.11675233393907547,0.16483767330646515,-0.03959149122238159,0.07303204387426376,-0.23742520809173584,-0.20242677628993988,0.12475138157606125,-0.02862248755991459,-0.22604504227638245,-0.02880522981286049,0.09528055042028427,0.42770862579345703,0.28625157475471497,-0.4043145477771759,0.1374206393957138,-0.21384893357753754,0.11106526106595993,-0.22218897938728333,0.3392142951488495,-0.34811440110206604,-0.19599716365337372,0.0048724147491157055,0.11032858490943909,-0.10886087268590927,0.04825908690690994,0.13541822135448456,-0.08063382655382156,-0.19084323942661285,-0.2426447570323944,-0.2125125229358673,0.07197777926921844,0.1563495248556137,0.15683265030384064,-0.10408774018287659,0.09299622476100922,1.2727843523025513,0.5529699921607971,-0.9915264248847961,-0.121566541492939,-0.5077816247940063,0.38557156920433044,0.2088230699300766,0.09063191711902618,-0.0070677329786121845,-1.0554736852645874,-0.0941556841135025,-0.17097187042236328,0.04651707410812378,0.13510635495185852,0.020063893869519234,0.016960615292191505,-0.05329646170139313,-0.012403803877532482,-0.04518834874033928,-0.02931232936680317,-1.0715597867965698,-0.024375073611736298,-0.001884722732938826,0.0202180128544569,0.1652718037366867,0.2223747968673706,-0.07427393645048141,-0.026112116873264313,0.004602737724781036,0.02165180630981922,0.04742470756173134,-0.021513639017939568,-0.32218605279922485,-0.38555124402046204,-0.541262149810791,-0.2122257649898529,0.09614292532205582,-0.1431562304496765,0.2768442928791046,-0.4350520074367523,0.0075663975439965725,0.1948966532945633,0.08349844068288803,0.11622829735279083,-0.12423908710479736,0.01258437242358923,0.18147717416286469,-0.18566268682479858,-0.10101054608821869,-0.028992189094424248,-0.2664351761341095,0.04108787328004837,0.37247925996780396,0.3396599292755127,0.37171849608421326,0.3239566385746002,-0.12591774761676788,-0.04734206572175026,-0.10180290788412094,0.060570862144231796,0.16291947662830353,0.3979280889034271,0.9895632266998291,0.08626794815063477,-0.12915846705436707,-0.046940188854932785,-0.06369275599718094,0.02906769886612892,0.05089830979704857,0.008624701760709286,-0.2825668156147003,-0.37546488642692566,0.11103770136833191,-0.5710188746452332,-0.2929341495037079,0.279060423374176,-0.5097793936729431,0.4644027650356293,0.027193158864974976,0.11472512036561966,-0.6869357228279114,0.6960731148719788,0.11729662865400314,0.45591747760772705,0.07072900980710983,0.009228961542248726,0.42097944021224976,-0.06593659520149231,-0.023455388844013214,0.09022041410207748,0.060542356222867966,0.11936770379543304,0.6280049681663513,-0.1664450466632843,-0.10662633925676346,0.06269261240959167,-0.20397783815860748,-0.24368973076343536,-0.46176061034202576,-0.030378300696611404,-0.048853110522031784,-0.13110923767089844,-0.17884023487567902,-0.13216787576675415,-0.3949909806251526,-0.22730058431625366,-0.1920279860496521,-0.1366635262966156,-0.15490393340587616,0.0018668373813852668,-0.11629275977611542,-0.116694875061512,-0.0868048146367073,-0.04927356168627739,-0.04868030920624733,0.40911370515823364,0.14652667939662933,0.09731342643499374,0.12802377343177795,0.11762374639511108,0.13096240162849426,0.20098936557769775,-0.7458406686782837,0.005040239542722702,0.1010013297200203,0.03798753023147583,0.1601496934890747,0.4154447615146637,0.2117781639099121,-0.09850810468196869,0.07729538530111313,-0.09429845213890076,-0.08709585666656494,0.1062215119600296,-0.15505482256412506,-0.07816129922866821,-0.05950622633099556,-0.04308604449033737,-0.19843247532844543,-0.20773468911647797,1.0032824277877808,0.27857592701911926,-0.0578371062874794,-0.006692131981253624,-0.8686243295669556,0.3138124346733093,-0.5419410467147827,-0.8242121338844299,0.7923076748847961,0.6682796478271484,0.5213772654533386,-0.48224854469299316,0.6078534722328186,0.17849653959274292,-0.497263103723526,-0.18306444585323334,0.24074481427669525,0.40474674105644226,-0.33137133717536926,0.07289309799671173,0.09276024997234344,0.16825245320796967,0.19971002638339996,0.3168984353542328,0.20590388774871826,-0.12314334511756897,-0.16746221482753754,-0.260801762342453,-0.18310362100601196,-0.03470177203416824,0.48748254776000977,0.0056504979729652405,0.01881219819188118,0.02172151952981949,-0.00882511492818594,-0.14819836616516113,-0.31375277042388916,-0.05987202003598213,-0.05672435835003853,-0.03847677260637283,-0.028827497735619545,0.30626073479652405,-0.12306760996580124,0.09629493206739426,0.10637646913528442,0.08549240976572037,0.19606101512908936,0.29570138454437256,-0.3152308464050293,0.001353374682366848,-0.0038471082225441933,-0.010846939869225025,-0.060370072722435,-0.19712971150875092,0.06734909117221832,-0.006568372715264559,-0.033485133200883865,-0.03930957242846489,-0.03548603877425194,-0.1234433576464653,0.14217372238636017,0.042993005365133286,0.07006277143955231,0.09275155514478683,0.18488267064094543,0.1907508373260498,0.32493671774864197,-0.026994982734322548,-0.015511634759604931,-0.008801819756627083,-0.007709071971476078,-0.019443731755018234,0.7786057591438293,0.02577074244618416,-0.3482392132282257,0.15901051461696625,-0.4398677349090576,-0.9219773411750793,-1.2776870727539062,0.09161734580993652,0.32686880230903625,0.3736725151538849,-0.9002832770347595,0.5759262442588806,0.626225471496582,-0.25449860095977783,-0.3458268642425537,0.5880188941955566,-0.5351935625076294,0.24598616361618042,0.04344327002763748,-0.044501230120658875,-0.0326269306242466,-0.034125663340091705,-0.13600611686706543,-0.2134981006383896,-0.26513609290122986,0.04810687154531479,-0.013310280628502369,-0.04387436807155609,0.2287655472755432,0.11474797129631042,-0.702170193195343,-0.005958383437246084,0.031098617240786552,0.05162953585386276,-0.08448188006877899,0.08265048265457153,0.11191213130950928,0.027851367369294167,0.0353960320353508,0.06561785936355591,0.09301542490720749,0.09797099977731705,-0.6664947271347046,-0.064747653901577,-0.052344437688589096,-0.1152510792016983,-0.17696711421012878,-0.00316303176805377,-0.1959078311920166,0.023953061550855637,0.010835204273462296,0.03399599343538284,0.04900171980261803,-0.06787557154893875,0.2529370188713074,-0.01711447723209858,-0.040338169783353806,-0.010182870551943779,-0.10982445627450943,-0.08275645971298218,0.16398607194423676,-0.059583861380815506,-0.024314895272254944,-0.0696510598063469,0.21031047403812408,0.1301659494638443,-0.8734933137893677,0.023990748450160027,0.04796815663576126,0.02100943773984909,-0.06406474113464355,0.10025705397129059,0.18712422251701355,0.1837637573480606,0.5938935279846191,0.21082618832588196,0.34842464327812195,0.09685272723436356,-0.9165409207344055,-0.4435928165912628,0.19830043613910675,0.973779559135437,-0.17362184822559357,-0.251581609249115,-0.4436728060245514,-0.21205250918865204,-0.862410306930542,0.016607703641057014,-0.0403829962015152,-0.652121365070343,0.4916903078556061,0.007649751380085945,0.030533311888575554,0.0019626261200755835,0.02680298686027527,0.007055656518787146,-0.7441016435623169,-0.0345865860581398,-0.04459307715296745,-0.04128022491931915,-0.0491790734231472,-0.14921243488788605,-0.9985658526420593,0.018990451470017433,0.009525960311293602,0.023116618394851685,0.014431550167500973,0.07765036821365356,0.2774137854576111,0.015141602605581284,0.024605493992567062,0.011953054927289486,0.02502499893307686,0.05051422119140625,-0.45039102435112,-0.048179127275943756,-0.06371112912893295,-0.07193142920732498,-0.10339053720235825,-0.24327023327350616,0.04005253314971924,0.02401062846183777,0.02607135847210884,0.03726552054286003,0.050274793058633804,0.11362345516681671,0.5800083875656128,0.012529238127171993,0.0069765313528478146,0.015615899115800858,0.006205817684531212,0.016024835407733917,-0.17101404070854187,-0.01879766583442688,-0.027616707608103752,-0.03135567903518677,-0.038002822548151016,-0.0337371863424778,-0.7274279594421387,0.00300456490367651,0.012683335691690445,0.011963512748479843,0.017850307747721672,0.005758310668170452,-0.5993523001670837,0.06335514783859253,0.1409497708082199,-0.20288881659507751,0.11245148628950119,0.5429571866989136,-1.2651499509811401,0.9902768731117249,0.1741652488708496,-0.06829772889614105,0.13368871808052063,-0.5489327311515808,0.5404270887374878,-0.353857159614563,-0.42136889696121216,0.961024820804596,-0.13821615278720856,-0.29904359579086304,-0.19850029051303864,0.12442371994256973,-0.05943494290113449,-0.05574956163764,0.06997516006231308,-0.032318610697984695,-0.04139252379536629,0.06897926330566406,-0.01583639532327652,-0.07752811163663864,0.01377404760569334,-0.1442905217409134,-0.009546151384711266,0.07298753410577774,0.03171199932694435,0.1958308070898056,0.10415637493133545,-0.007227363530546427,0.14051340520381927,0.024485813453793526,0.11156830936670303,0.13947710394859314,0.0316738560795784,0.20085564255714417,0.0026671248488128185,0.0397132933139801,0.11309975385665894,0.09885217994451523,0.008438164368271828,0.16463124752044678,0.650987446308136,-0.11178043484687805,0.0326867513358593,-0.007290330249816179,-0.043691620230674744,-0.03264268487691879,-0.018189072608947754,-0.06437569111585617,-0.05618041008710861,-0.1047794297337532,0.07788478583097458,-0.050274576991796494,-0.039961960166692734,0.027876941487193108,0.24718919396400452,0.792015552520752,-0.17963173985481262,-0.16931946575641632,-0.0801449790596962,-0.07261768728494644,0.06989004462957382,0.005590368993580341,-0.04089581221342087,0.32910922169685364,-0.12963657081127167,-0.23707465827465057,0.1059563010931015,-0.17899729311466217,-0.12634025514125824,0.1406734734773636,-0.3234739601612091,-0.09360845386981964,-0.293051540851593,-0.14995859563350677,-0.02812017872929573,-0.05552264302968979,-0.16816926002502441,-0.06014235317707062,0.10096463561058044,-0.22561615705490112,0.05513157695531845,0.17201702296733856,0.03101314976811409,-0.10144739598035812,0.0851307064294815,-0.33820921182632446,0.12725800275802612,0.07723364233970642,-0.09062480926513672,0.057018548250198364,0.11924926936626434,-0.1339855045080185,-0.2339724600315094,0.3901831805706024,0.08524446934461594,0.017194051295518875,0.25926682353019714,0.1533646285533905,-0.14741332828998566,0.32929545640945435,-0.24194984138011932,-0.1452995240688324,-0.008691461756825447,0.0838342010974884,0.07725667953491211,0.05009137839078903,0.029829269275069237,0.06652548164129257,-0.20924949645996094,-0.17207859456539154,-0.12140975147485733,-0.1087239533662796,-0.2571825683116913,-0.1059454157948494,-0.2884265184402466,0.15075628459453583,0.029351485893130302,-0.09209499508142471,-0.058218132704496384,0.010339291766285896,-0.048100873827934265,0.011832053773105145,-0.19553808867931366,-0.15098045766353607,-0.30442705750465393,-0.4178941547870636,-0.09246829897165298,-0.1381281316280365,-0.16275447607040405,-0.14405256509780884,-0.03867292404174805,0.07645337283611298,0.21414418518543243,-0.13112834095954895,-0.00027426332235336304,0.05417685583233833,-0.12438616156578064,-0.09657826274633408,-0.12256564944982529,-0.2871549427509308,-0.09972250461578369,-0.02950599044561386,0.06777873635292053,0.06105503439903259,-0.07828979194164276,-0.02206975780427456,-0.29691770672798157,-0.1147974506020546,-0.1336391270160675,2.2216410636901855,0.16454005241394043,-0.40529128909111023,-0.8336527347564697,0.6654683947563171,-0.3689548373222351,-0.23972178995609283,0.22970718145370483,-0.395811527967453,-0.2363244742155075,-0.4679999351501465,0.15304431319236755,-0.3269665241241455,-0.3144984245300293,-0.021666333079338074,0.008891704492270947,-0.007717996835708618,0.01388993114233017,-0.02847195230424404,-0.045361150056123734,-0.05554667115211487,-0.05453164875507355,-0.13383278250694275,-0.07750535756349564,-0.10112222284078598,-0.11368697136640549,-0.26647961139678955,-0.23917031288146973,-0.06503906100988388,0.607036828994751,-0.02814001962542534,-0.034203242510557175,0.027135411277413368,-0.07851129025220871,-0.016870349645614624,-0.02322559989988804,-0.09215188771486282,-0.016390571370720863,-0.08786077052354813,-0.06387533992528915,-0.14628683030605316,-0.2000522017478943,-0.22644108533859253,-0.27644678950309753,0.16237014532089233,-0.002083041938021779,0.024662896990776062,0.03142917528748512,0.004925529472529888,-0.018808864057064056,-0.015934526920318604,-0.04853745177388191,-0.05767570063471794,-0.06415527313947678,-0.06669611483812332,-0.0713641420006752,-0.10327546298503876,-0.08555823564529419,0.01494718249887228,0.3019172251224518,-0.12478204071521759,-0.0765945240855217,-0.11431258171796799,-0.07816652953624725,-0.132717564702034,-0.051396217197179794,-0.09932537376880646,0.022762645035982132,-0.00024372585176024586,-0.007678041700273752,0.1632148176431656,0.04389866068959236,0.41982725262641907,-0.125762477517128,0.17583125829696655,-0.04565412178635597,-0.054868146777153015,-0.242204949259758,-0.08239321410655975,-0.11860235035419464,-0.006240388844162226,0.10074348747730255,-0.2344687134027481,0.010138257406651974,0.04884757474064827,-0.26003414392471313,-0.22099848091602325,-0.3126354515552521,-0.5641767978668213,-0.4216775894165039,-0.08997432887554169,-0.15549521148204803,-0.19267305731773376,-0.1316491812467575,-0.14554396271705627,-0.08647187799215317,-0.08504923433065414,-0.0340004600584507,-0.008218277245759964,-0.12065563350915909,0.3159044682979584,0.09996543079614639,0.15316639840602875,0.09505678713321686,0.135208860039711,-0.04089520126581192,-0.04138026759028435,-0.05586740002036095,-0.03760764002799988,-0.07153109461069107,-0.07820397615432739,-0.08743447810411453,-0.12931357324123383,-0.06856393814086914,-0.11345367878675461,-0.19452950358390808,-0.13038618862628937,-0.1664261817932129,-0.22695377469062805,0.7215531468391418,0.044038280844688416,0.046278130263090134,0.029910113662481308,0.020447498187422752,0.017621658742427826,0.02581835724413395,0.010652770288288593,0.016773249953985214,-0.08285484462976456,-0.11621406674385071,-0.1222279891371727,-0.13319286704063416,-0.3239511549472809,-0.3836800456047058,-0.16727901995182037,-0.03804032504558563,-0.04372415319085121,-0.04967205226421356,-0.057838357985019684,-0.0718068927526474,-0.06130325421690941,-0.04929177463054657,-0.11815519630908966,-0.11814705282449722,-0.09284990280866623,-0.12008289992809296,-0.09364145249128342,-0.19012048840522766,-0.09953880310058594,0.9040443897247314,0.5113956332206726,0.3241238296031952,-0.2609802484512329,1.1633681058883667,0.8716837763786316,0.21088223159313202,-0.9797433018684387,-0.30919674038887024,-0.4626751244068146,0.06458040326833725,0.18086548149585724,0.42464330792427063,0.22520877420902252,-0.046028848737478256,0.6036338806152344,-0.41631802916526794,-0.834521472454071,-0.46662598848342896,0.0520852729678154,0.015128404833376408,0.024801604449748993,0.018607137724757195,0.020881889387965202,0.10016165673732758,-0.05895404517650604,-0.129132941365242,0.28401654958724976,-0.025529658421874046,0.047792669385671616,-0.04291096329689026,0.1437573879957199,0.046456724405288696,-0.07783985882997513,-0.08269757032394409,0.08673008531332016,0.3885500729084015,-0.09664764255285263,-0.25205934047698975,0.26156550645828247,0.016166318207979202,0.04866413399577141,0.04014379531145096,0.20213793218135834,0.1143040806055069,0.3163451850414276,-0.2497907429933548,-0.36245742440223694,0.28689661622047424,0.07469064742326736,-0.16392160952091217,0.19128096103668213,0.1358460932970047,0.15501269698143005,1.4243402481079102,-0.791341245174408,-0.22967728972434998,0.0006245286203920841,0.4545774459838867,0.3214966356754303,0.22892367839813232,-0.10226499289274216,-0.22464390099048615,0.24465933442115784,0.06436154246330261,0.46692290902137756,0.17673169076442719,-0.21849776804447174,-0.0028197448700666428,0.23189188539981842,0.29638004302978516,1.0864410400390625,1.0708695650100708,1.5388678312301636,-0.022905923426151276,0.18321393430233002,-0.07999008148908615,-0.3363441824913025,-1.1727278232574463,-0.9336368441581726,1.294224739074707,1.1147315502166748,-0.3307431638240814,0.8395768404006958,1.0607303380966187,-1.3386046886444092,1.0828053951263428,1.9309438467025757,-1.1297354698181152,0.11840082705020905,-0.5805693864822388,0.03842003270983696,0.12453828752040863,-0.09669935703277588,-0.3270209729671478,-0.9740675091743469,0.21425938606262207,0.04479624330997467,-0.010035859420895576,-0.07112246751785278,0.04402368888258934,-1.0616227388381958,0.37946829199790955,-0.05104229971766472,-0.03159279376268387,0.06661329418420792,0.05113648623228073,-1.5647987127304077,-0.3655523657798767,-0.08357924222946167,-0.25859811902046204,0.08696015179157257,0.256612628698349,0.19899992644786835,0.009924937970936298,0.03310627490282059,0.10377299785614014,0.015499155968427658,-0.07606158405542374,0.2508457601070404,0.2913149297237396,0.04975345358252525,0.07428199052810669,-0.12307538837194443,-0.05025558918714523,-0.1768910139799118,0.5060346126556396,0.07918361574411392,-0.08977489173412323,-0.4727866053581238,-0.5559401512145996,0.2701166272163391,-0.04395902529358864,0.025437818840146065,0.10292325913906097,-0.7199227213859558,-0.06880605965852737,0.1240570992231369,-0.08934774249792099,-0.12080753594636917,0.07742939889431,-1.098091721534729,-0.12911777198314667,0.07700736075639725,0.016931233927607536,1.0560296773910522,-0.27277305722236633,0.5967939496040344,0.2544173300266266,0.560316264629364,-0.5047829747200012,-0.6041299104690552,-0.6956439018249512,0.6437793374061584,-0.5529124736785889,-0.6424533128738403,-0.024018768221139908,0.7915470004081726,-0.8704586625099182,-0.05663307011127472,-0.9989756941795349,-0.2205667495727539,0.08442339301109314,-0.10561960935592651,-0.1305759698152542,-0.23584462702274323,-0.5646349191665649,0.4029269814491272,0.3923790454864502,-0.03647734597325325,-0.14430655539035797,-0.2655254304409027,-0.523848831653595,-0.02010529115796089,-0.21140801906585693,0.1844613254070282,-0.11694139242172241,0.07223338633775711,0.04207216575741768,-0.2561822235584259,0.38386985659599304,0.0689186081290245,0.05102978274226189,0.14350786805152893,0.21430540084838867,-0.045977164059877396,-0.24705937504768372,-0.001531137153506279,0.1680690348148346,0.030230991542339325,0.5330373644828796,-0.11090189963579178,0.03484001010656357,-0.10287841409444809,0.15714386105537415,-0.04096724092960358,-0.10475900024175644,0.3006562888622284,-0.2973930835723877,0.13831700384616852,-0.49684542417526245,-0.015803517773747444,-0.13280849158763885,-0.6084945797920227,-0.21303921937942505,0.1010255515575409,-0.2594088017940521,0.039140358567237854,0.041110970079898834,-0.19838598370552063,0.1698416769504547,0.011477706953883171,0.11118922382593155,0.12224256247282028,0.012379992753267288,0.2697400152683258,-0.17257815599441528,0.2769326865673065,-0.4327425956726074,0.5756986737251282,-0.6308642029762268,0.19090528786182404,0.5684659481048584,-0.3374979794025421,0.8366274237632751,0.36665859818458557,-0.36689430475234985,0.3826325833797455,0.14565670490264893,-0.12630631029605865,-0.09127581119537354,0.18487754464149475,0.1965838372707367,0.06614069640636444,0.061575815081596375,0.05335676297545433,0.1215168833732605,0.40405207872390747,0.27779293060302734,0.5274251103401184,-0.5415571928024292,-0.139668807387352,-0.14930182695388794,-0.3108167052268982,-0.30451124906539917,-0.16346946358680725,-0.26697084307670593,-0.06571591645479202,0.036080241203308105,0.059630587697029114,-0.12871944904327393,-0.27337053418159485,0.1436500996351242,0.011261888779699802,-0.11194669455289841,-0.11159840226173401,-0.37644392251968384,0.07671201974153519,0.1263953000307083,-0.12017608433961868,-0.07413426041603088,-0.27296721935272217,-0.34639254212379456,-0.8226558566093445,0.16854307055473328,0.02907716855406761,0.05088602751493454,0.18268877267837524,-0.017880553379654884,0.5993446111679077,0.20775572955608368,-0.08206936717033386,-0.13718335330486298,-0.4282759130001068,-0.2671075165271759,-0.5444891452789307,0.5965707302093506,0.15554115176200867,0.1637967973947525,0.329424649477005,0.3187759220600128,0.13864417374134064,0.24999766051769257,0.07141037285327911,-0.03560018911957741,-0.0660400465130806,0.10562951862812042,0.24632097780704498,-0.20308558642864227,0.2690378725528717,0.660337507724762,0.5415216088294983,-0.09649112820625305,-0.6230920553207397,0.29879194498062134,0.4117286801338196,-0.1892169564962387,-0.8984050154685974,-0.4017869234085083,-0.8811882138252258,0.043150391429662704,0.05820923298597336,-0.04603199288249016,-0.49692827463150024,-0.5641763806343079,-0.47975707054138184,-0.6348710656166077,-0.2645106017589569,-0.4145745038986206,-0.40335896611213684,-0.17695946991443634,-0.022488033398985863,-0.5403124690055847,0.047075916081666946,0.31916263699531555,0.2571406960487366,0.1177590936422348,-0.014124752022325993,-0.31683349609375,-0.051770128309726715,0.05317866429686546,0.084736168384552,0.05188004672527313,0.01795809343457222,0.915347695350647,-0.2082713097333908,-0.2332054227590561,-0.1499527543783188,0.021373536437749863,0.14953429996967316,-0.1986471712589264,0.029828350991010666,0.09562657028436661,-0.04274817183613777,-0.17916704714298248,-0.3175694942474365,0.07434108108282089,0.01301119290292263,0.05392621085047722,0.06734699755907059,0.06103597953915596,0.006231184583157301,-0.39447537064552307,0.2803873121738434,0.3029955327510834,0.3007934093475342,0.1378420889377594,0.05593358725309372,0.3063250184059143,-0.09488022327423096,-0.2224753051996231,-0.1964053213596344,-0.08767758309841156,-0.018781960010528564,0.2729451060295105,-0.024960655719041824,-0.03659486398100853,-0.0682244822382927,-0.045382846146821976,-0.03211117908358574,-0.6235672235488892,0.03268113732337952,0.3000864088535309,-0.2480233609676361,-0.2703397870063782,-0.3494780659675598,0.02020091935992241,0.10689030587673187,0.6469385027885437,-0.21725934743881226,-0.30764156579971313,-0.8844701647758484,-0.39685291051864624,-0.840565025806427,0.6960261464118958,0.8364930748939514,0.029117420315742493,-0.3630722165107727,-0.07993434369564056,0.07910799980163574,-0.01798110455274582,0.015307377092540264,-0.24586796760559082,-0.02270336262881756,-0.25017091631889343,0.023929646238684654,-0.06694681942462921,-0.0566725991666317,0.24454817175865173,0.20399388670921326,0.1017148345708847,-0.15887345373630524,0.026287170127034187,0.1266758143901825,0.06437455117702484,-0.2470770925283432,-0.13372263312339783,-0.02802444063127041,-0.0737883448600769,-0.0135013647377491,0.058202844113111496,-0.28892529010772705,0.050305768847465515,-0.030070826411247253,-0.0756787657737732,-0.10758049041032791,0.06026628240942955,0.021746834740042686,-0.1178513616323471,0.11174239218235016,0.135528102517128,0.10738235712051392,0.028141599148511887,0.14918513596057892,-0.4751880168914795,-0.015798985958099365,-0.031168818473815918,-0.010949851013720036,0.156087726354599,0.10518214106559753,0.4850519895553589,-0.05099178105592728,0.04235491901636124,0.09074629843235016,-0.10195846110582352,-0.39444077014923096,-0.09251225739717484,0.11482983082532883,-0.008784428238868713,-0.14527282118797302,-0.07446767389774323,0.6270508766174316,-0.04273058474063873,0.004860724322497845,0.08985898643732071,0.5687773823738098,-0.026052312925457954,-0.11323979496955872,0.40044981241226196,-0.017309555783867836,-0.0007447127136401832,-0.6930561661720276,0.021467790007591248,0.5035433173179626,0.3693937361240387,-0.40469276905059814,0.10408554971218109,0.5494154691696167,0.0558592788875103,0.16879822313785553,-0.04422258585691452,-0.008481122553348541,0.03674854710698128,-0.05931730940937996,0.1294361799955368,-0.2764815390110016,-0.48796188831329346,-0.005431172903627157,0.005740530323237181,-0.01888696849346161,0.0002822487731464207,-0.022515591233968735,-0.11235380172729492,0.014624941162765026,-0.03905634954571724,0.07620801776647568,-0.09794755280017853,0.26299017667770386,-0.03263045847415924,-0.020035216584801674,-0.07576175034046173,-0.01743728667497635,-0.004932962357997894,-0.17726540565490723,-0.21085545420646667,-0.0440424308180809,0.030789503827691078,-0.0667620599269867,0.05514604225754738,-0.07332675158977509,-0.06258948147296906,0.06998945027589798,0.029064415022730827,0.10628493875265121,-0.04060276597738266,0.28036007285118103,-0.37083375453948975,0.07641927897930145,0.06949962675571442,0.1146010085940361,0.006373597774654627,0.1102188304066658,0.09116656333208084,0.05391239374876022,0.10529852658510208,0.05520761385560036,0.14984111487865448,0.06623165309429169,-0.002795145381242037,-0.014988659881055355,-0.00045293502626009285,-0.11015206575393677,0.09757190197706223,-0.15066400170326233,0.03200625628232956,-0.06811719387769699,0.05359470099210739,0.0015044501051306725,-0.184884175658226,-0.13273784518241882,0.003284923965111375,0.4162098467350006,-0.00858832336962223,0.5327888131141663,0.11612158268690109,0.18631941080093384,-0.07476914674043655,-0.32249006628990173,-0.3899204134941101,-0.36959829926490784,-0.3457287847995758,0.4948616325855255,-0.35605674982070923,0.029706576839089394,0.06658494472503662,0.07282878458499908,0.048771221190690994,-0.011568964459002018,-0.09290862083435059,-0.16034908592700958,-0.18562228977680206,-0.16112112998962402,-0.1124102771282196,-0.05695587024092674,-0.018111664801836014,0.0016425689682364464,0.006816581357270479,0.0036209155805408955,0.00015747349243611097,-0.019126182422041893,-0.04112054780125618,-0.0566246435046196,-0.061284322291612625,-0.05374898016452789,-0.03478756174445152,-0.010607914999127388,0.012155408971011639,0.03173045441508293,0.03308242931962013,0.028762437403202057,0.008259331807494164,-0.006314455531537533,-0.016783257946372032,-0.01395228412002325,0.0007752827950753272,-0.030602816492319107,-0.055942364037036896,-0.05946841835975647,-0.010252309963107109,0.0632505789399147,0.15833836793899536,0.22545479238033295,0.23506152629852295,0.1898176223039627,0.12228479981422424,0.05490705370903015,0.01363263837993145,0.0004999240045435727,0.001905200071632862,0.0073006730526685715,0.00015444192104041576,0.1296776384115219,0.005935153864477087],"sample_rate":48000}},{"max_value":1,"model":{"version":"0.7.0","metadata":{"date":{"year":2026,"month":7,"day":13,"hour":23,"minute":23,"second":29},"loudness":-22.19018317516103,"gain":0.8163306212906104},"architecture":"WaveNet","config":{"layers":[{"input_size":1,"condition_size":1,"head":{"out_channels":1,"kernel_size":16,"bias":true},"channels":8,"kernel_sizes":[6,6,6,6,6,6,6,6,6,6,6,6,6,6,15,15,6,6,6,6,6,6,6],"dilations":[1,3,7,17,41,101,239,1,3,7,17,41,101,239,1,13,1,3,7,17,41,101,239],"activation":[{"type":"LeakyReLU","negative_slope":0.01},{"type":"LeakyReLU","negative_slope":0.01},{"type":"LeakyReLU","negative_slope":0.01},{"type":"LeakyReLU","negative_slope":0.01},{"type":"LeakyReLU","negative_slope":0.01},{"type":"LeakyReLU","negative_slope":0.01},{"type":"LeakyReLU","negative_slope":0.01},{"type":"LeakyReLU","negative_slope":0.01},{"type":"LeakyReLU","negative_slope":0.01},{"type":"LeakyReLU","negative_slope":0.01},{"type":"LeakyReLU","negative_slope":0.01},{"type":"LeakyReLU","negative_slope":0.01},{"type":"LeakyReLU","negative_slope":0.01},{"type":"LeakyReLU","negative_slope":0.01},{"type":"LeakyReLU","negative_slope":0.01},{"type":"LeakyReLU","negative_slope":0.01},{"type":"LeakyReLU","negative_slope":0.01},{"type":"LeakyReLU","negative_slope":0.01},{"type":"LeakyReLU","negative_slope":0.01},{"type":"LeakyReLU","negative_slope":0.01},{"type":"LeakyReLU","negative_slope":0.01},{"type":"LeakyReLU","negative_slope":0.01},{"type":"LeakyReLU","negative_slope":0.01}],"bottleneck":8,"head1x1":{"active":false,"out_channels":1,"groups":1},"layer1x1":{"active":true,"groups":1},"groups_input":1,"groups_input_mixin":1,"conv_pre_film":{"active":false,"shift":true,"groups":1},"conv_post_film":{"active":false,"shift":true,"groups":1},"input_mixin_pre_film":{"active":false,"shift":true,"groups":1},"input_mixin_post_film":{"active":false,"shift":true,"groups":1},"activation_pre_film":{"active":false,"shift":true,"groups":1},"activation_post_film":{"active":false,"shift":true,"groups":1},"layer1x1_post_film":{"active":false,"shift":true,"groups":1},"head1x1_post_film":{"active":false,"shift":true,"groups":1},"gating_mode":["none","none","none","none","none","none","none","none","none","none","none","none","none","none","none","none","none","none","none","none","none","none","none"],"secondary_activation":[null,null,null,null,null,null,null,null,null,null,null,null,null,null,null,null,null,null,null,null,null,null,null],"slimmable":null}],"head":null,"head_scale":0.005935153997138116},"weights":[-0.4633331298828125,-0.009093085303902626,0.4146115183830261,0.5196195840835571,-0.8974595665931702,-0.35870641469955444,0.16118797659873962,0.906514585018158,-0.13160309195518494,-0.06798966974020004,-0.1931903064250946,0.09832435101270676,0.19276507198810577,0.11509682238101959,-0.007090731058269739,0.00010171816393267363,0.0018734458135440946,-0.0013601916143670678,-0.007005591411143541,0.002150943735614419,0.10712742805480957,0.13207288086414337,0.22958314418792725,-0.0762912854552269,-0.09748339653015137,-0.16156944632530212,0.010165272280573845,0.18040920794010162,0.20756301283836365,-0.09829722344875336,-0.15123388171195984,-0.1180141344666481,-0.11650199443101883,-0.09263977408409119,-0.2178393453359604,0.10750746726989746,0.18796701729297638,0.13156184554100037,-0.05509534478187561,-0.06366132944822311,-0.15786179900169373,0.069823257625103,0.08949398249387741,0.16843058168888092,0.042132701724767685,0.03564346954226494,0.10084616392850876,-0.07836423069238663,-0.039627548307180405,-0.1030634418129921,0.16405557096004486,0.053747210651636124,0.2820638418197632,0.03187445551156998,-0.12662547826766968,-0.16764013469219208,0.036635689437389374,-0.09543359279632568,-0.1080782562494278,-0.09117401391267776,-0.17268219590187073,0.06023896485567093,-0.004833113867789507,-0.004357423633337021,-0.0032053254544734955,-0.0018086613854393363,-0.0034724038559943438,0.0009514731937088072,0.12758681178092957,0.13148927688598633,0.018936537206172943,0.016526788473129272,0.09046953916549683,-0.15647192299365997,-0.015744756907224655,0.14703823626041412,0.1562405526638031,0.09500124305486679,0.21472711861133575,-0.13790839910507202,-0.05483993515372276,0.06458775699138641,-0.1638641059398651,0.06837695837020874,-0.12967929244041443,0.14170095324516296,-0.10376513004302979,-0.012186048552393913,-0.17557364702224731,-0.05004558339715004,-0.11376949399709702,0.06286703050136566,0.10425322502851486,0.10597502440214157,0.12169762700796127,0.0651935487985611,0.1395798772573471,-0.052244145423173904,-0.020720086991786957,0.005680868402123451,0.08920173346996307,-0.024866627529263496,0.22463840246200562,-0.013914234936237335,-0.06628740578889847,-0.08063144236803055,0.03687441721558571,-0.00040225914563052356,-0.10957878828048706,0.0677269920706749,-0.00905096810311079,-0.008006924763321877,-0.00047841458581387997,-0.010448997840285301,-0.011943533085286617,-0.0008832289604470134,0.13891497254371643,-0.001450076699256897,0.07547114044427872,-0.05764203891158104,0.0760241150856018,-0.12967029213905334,0.19827215373516083,-0.007263493724167347,-0.0578378364443779,0.1025925725698471,0.11071966588497162,-0.08632680773735046,-0.011962728574872017,-0.21135549247264862,0.03225114941596985,-0.13737426698207855,0.01567249745130539,0.09041130542755127,-0.12129989266395569,-0.08808930963277817,-0.08797944337129593,-0.054124437272548676,-0.10542184114456177,0.04603828862309456,0.09683656692504883,0.05782078579068184,-0.004650342743843794,0.009426305070519447,-0.038373444229364395,-0.1629766970872879,0.1702517569065094,0.17700254917144775,0.07409052550792694,-0.03359951451420784,0.054168496280908585,-0.15841637551784515,0.03722548857331276,0.06695874780416489,0.10833967477083206,0.016877898946404457,0.02898816205561161,0.08359014987945557,0.004414125811308622,0.003413992468267679,0.00303947483189404,0.0029425793327391148,0.0027683544903993607,0.00211348757147789,-0.018510494381189346,-0.013892989605665207,-0.0815582424402237,-0.06320461630821228,-0.05169275403022766,-0.02112441696226597,-0.1527203470468521,-0.017379481345415115,-0.07760284096002579,-0.14769786596298218,-0.07810092717409134,-0.12391570955514908,0.10449761897325516,0.005999547429382801,-0.000987516948953271,0.08157002925872803,0.07905030250549316,0.1491331160068512,0.07087291032075882,0.08182279765605927,0.05568983778357506,0.0468645840883255,0.10034527629613876,0.060787905007600784,-0.04006814584136009,-0.038129400461912155,-0.03186803683638573,-0.040735598653554916,-0.041146330535411835,-0.04305284097790718,-0.09518615156412125,-0.1374446153640747,-0.0843624472618103,-0.039309803396463394,-0.17276784777641296,-0.1632787138223648,-0.09518975019454956,-0.12689250707626343,0.015856919810175896,-0.04119931533932686,-0.01965535245835781,0.08593243360519409,-0.00906806904822588,-0.012452494353055954,0.0009558346937410533,-0.010497257113456726,-0.015274790115654469,-0.00175213732291013,0.10730044543743134,0.04182838648557663,-0.05854415521025658,0.07572285830974579,0.04210953041911125,-0.20970770716667175,0.0164499469101429,0.14235110580921173,-0.032320354133844376,0.12138859927654266,0.1318930983543396,-0.12687447667121887,-0.08190564811229706,-0.1398225873708725,-0.003500712104141712,-0.04557103291153908,-0.1425543576478958,0.1268392652273178,-0.12885716557502747,-0.05708596110343933,-0.03800902143120766,0.010241479612886906,-0.06935934722423553,0.09011992067098618,0.05856627970933914,0.0710943192243576,-0.0016304358141496778,0.03108663484454155,-0.013993889093399048,-0.09467874467372894,0.049421604722738266,0.05598893389105797,0.06065117195248604,0.13407258689403534,-0.02812979370355606,-0.16428761184215546,-7.835305382286606e-7,-0.000023360338673228398,0.00005046541991760023,-0.00005605006299447268,0.00008772453293204308,0.000081200385466218,0.00000179364303676266,0.0000013770597888651537,0.0000023987745407794137,3.759127480407187e-7,0.0000028992803891014773,0.0000025410029138583923,-0.000012180016710772179,0.00000879206072568195,-0.000053742362069897354,0.00004312714372645132,-0.00008363422966795042,-0.00007488381379516795,0.000005096465883980272,0.000028828226277255453,-0.00005731327837565914,0.00006462687451858073,-0.00009630162821849808,-0.00009211806172970682,-0.00008444263221463189,-0.00010062923684017733,0.00010199649113928899,-0.00010686345922295004,0.00018269043357577175,0.00021604973881039768,0.000014395234757103026,-0.0000036025926419824827,0.000049272777687292546,-0.00003195475437678397,0.0000775722146499902,0.00006761367694707587,-0.00002008214869420044,-0.00001172545125882607,-0.00003292481414973736,0.0000021184171146160224,-0.00004737804556498304,-0.00004147072468185797,0.00008385095134144649,0.00010309553908882663,-0.00010069408017443493,0.00011350065324222669,-0.0001781688624760136,-0.00021570017270278186,0.00012376770609989762,0.00010526184632908553,0.00015947890642564744,-0.00002876273174479138,0.00022627187718171626,0.00000861388889461523,0.000002871019660233287,0.0000026528025500738295,0.0000035201539958507055,-7.641583721351708e-8,0.000004565533799905097,5.840037147208932e-7,-0.00011587256449274719,-0.00009933740511769429,-0.00014549506886396557,0.00002479848262737505,-0.00020181701984256506,-0.000006260531336010899,-0.00014088225725572556,-0.00011930343316635117,-0.00018066453048959374,0.00003307054430479184,-0.00025303804432041943,-0.000008817918569548056,0.0002414477348793298,0.00019643406267277896,0.0003188655828125775,-0.00006554386345669627,0.00043689858284778893,0.00001680424793448765,0.00009966924699256197,0.00008706082007847726,0.00012730011076200753,-0.000018032975276582874,0.00017724341887515038,0.000008094141776382457,-0.000045962333388160914,-0.000041158898966386914,-0.00005859807424712926,0.000006053329343558289,-0.00008179302676580846,-0.000006559360372193623,-0.00024994637351483107,-0.00019935487944167107,-0.0003193248121533543,0.00007392934639938176,-0.00043348449980840087,-0.000011623522368608974,-0.06520772725343704,0.0641321912407875,0.08443807810544968,-0.02402859926223755,0.045786164700984955,0.03941169008612633,0.005083112977445126,0.011561432853341103,0.0033267659600824118,0.010944381356239319,0.0037092557176947594,-0.00047437826287932694,0.02673880197107792,-0.12914124131202698,0.05176841840147972,-0.053115036338567734,-0.11964212357997894,0.02726609632372856,-0.08063947409391403,0.04528716951608658,-0.06385334581136703,-0.1477183699607849,-0.1180567666888237,0.09322033822536469,0.07821781933307648,0.06129046529531479,-0.05576704815030098,-0.017609011381864548,0.05782315135002136,-0.15161222219467163,0.13210467994213104,-0.04300861805677414,-0.07738151401281357,-0.012814673595130444,0.07428243011236191,0.027175240218639374,0.053828898817300797,-0.13660050928592682,0.012246852740645409,-0.0014668595977127552,-0.021120509132742882,0.15445643663406372,-0.05245953053236008,-0.15030407905578613,0.10702764987945557,-0.1071823239326477,-0.011699296534061432,0.06772208958864212,0.29741171002388,0.28877511620521545,0.17308436334133148,-0.4336642026901245,0.08648263663053513,-0.018257804214954376,-0.020418992266058922,0.5195857286453247,-0.3285022974014282,0.013739556074142456,-0.24468587338924408,0.21139439940452576,-0.6456629037857056,-0.00027873506769537926,-0.00003030086554645095,-0.4700058102607727,-0.04030238837003708,0.11065176129341125,0.10106220096349716,-0.018739456310868263,0.3886476755142212,0.00038198509719222784,-0.00023114161740522832,-0.09330680966377258,-0.025798628106713295,-0.26524269580841064,0.20136940479278564,0.031349558383226395,0.49554258584976196,0.00018678861670196056,0.00017413408204447478,0.10452869534492493,0.06569838523864746,0.31796953082084656,0.1902988702058792,0.025172721594572067,0.21696418523788452,0.0024101717863231897,0.00022920467017684132,-0.36635124683380127,0.4265659749507904,0.04254480451345444,0.09538792818784714,-0.11777453869581223,-0.06013194099068642,-0.0010075870668515563,0.000859624648001045,-0.12983424961566925,0.06640732288360596,-0.11776599287986755,0.1345318704843521,0.13977517187595367,0.11641984432935715,0.0015114976558834314,0.0005112981307320297,0.4316560626029968,0.5259523391723633,0.11834629625082016,0.37857598066329956,-0.33109843730926514,0.2815024256706238,0.0018571956316009164,0.0008561597787775099,-0.1995266079902649,-0.3116099238395691,-0.003252346534281969,-0.13714353740215302,0.023050786927342415,-0.13408730924129486,-0.00007028938853181899,0.0011570622446015477,-0.43737858533859253,-0.2733575701713562,0.013196408748626709,0.19692061841487885,-0.24376486241817474,-0.055062416940927505,0.005527100060135126,0.0015515285776928067,-0.5042266845703125,-0.21397268772125244,0.1955273449420929,-0.26232898235321045,-0.15539255738258362,-0.07429100573062897,-0.21123917400836945,-0.07279729843139648,0.0575026199221611,0.010126777924597263,0.010532722808420658,0.010906320996582508,0.011017924174666405,0.010937218554317951,0.010693210177123547,-0.009183954447507858,-0.008642389439046383,-0.00855429656803608,-0.008440665900707245,-0.00831038411706686,-0.008594040758907795,0.003490213770419359,0.0035719014704227448,0.0034223098773509264,0.0032397338654845953,0.003087300341576338,0.0029445241671055555,-0.001674316474236548,-0.0015136089641600847,-0.001732672331854701,-0.0018584488425403833,-0.0019259948749095201,-0.002171367174014449,0.00024968464276753366,0.0006711124442517757,0.0012857766123488545,0.0013534973841160536,0.001212434028275311,0.0009063549223355949,-0.0014469114830717444,-0.0005205175839364529,-0.000429028645157814,0.00022428808733820915,0.0003994852304458618,-0.0007103342213667929,0.011451476253569126,0.011081336066126823,0.010717181488871574,0.010793739929795265,0.010953028686344624,0.011089194566011429,0.0008648233488202095,0.00043670227751135826,0.000017589793060324155,-0.00004794023698195815,0.00014369311975315213,0.0005321504431776702,-0.03771788254380226,0.007050768006592989,0.007158229127526283,-0.10291744023561478,0.06611485034227371,-0.17793510854244232,0.19330167770385742,-0.004200503695756197,0.03321484476327896,0.03765431046485901,0.15420156717300415,-0.12747345864772797,-0.30300116539001465,-0.2113536149263382,-0.11389682441949844,0.04793741554021835,-0.057672902941703796,0.23857636749744415,-0.20663578808307648,-0.20419616997241974,-0.002288704039528966,-0.008285511285066605,0.14036068320274353,0.5045177936553955,0.10096941888332367,0.21725930273532867,0.13791018724441528,-0.05169718712568283,-0.030196737498044968,-0.46628764271736145,-0.12107471376657486,0.2133445143699646,0.0424317941069603,-0.08667606115341187,0.23198151588439941,-0.1557658165693283,-0.30088990926742554,-0.15362171828746796,-0.1454174518585205,-0.022119488567113876,-0.1807260513305664,0.1683942824602127,-0.18410076200962067,-0.21492017805576324,-0.2099994421005249,-0.2014414519071579,0.01749628596007824,0.4648590385913849,-0.004130080807954073,0.08445807546377182,-0.013833120465278625,-0.03813599422574043,0.014998809434473515,0.006826270371675491,0.012370373122394085,0.053907085210084915,0.00043495185673236847,0.04287860915064812,0.003975612577050924,-0.003395507112145424,0.09195035696029663,0.005073876585811377,0.04876094311475754,0.06915193796157837,0.05545327439904213,-0.01371852308511734,0.07345025986433029,-0.02833562158048153,0.04366697371006012,0.026907123625278473,0.03971012309193611,0.008805208839476109,-0.07498493045568466,-0.029271678999066353,-0.028569286689162254,-0.11316785216331482,-0.09430843591690063,0.003961609210819006,0.056270428001880646,-0.037670109421014786,-0.006431929301470518,0.0032358462922275066,-0.03891667351126671,0.040991902351379395,0.07354085892438889,0.003770281560719013,0.010748349130153656,0.07685229182243347,0.04522979259490967,-0.05368055775761604,0.11395657807588577,0.026113351806998253,0.10194499045610428,0.07802484184503555,0.026844851672649384,-0.04175538942217827,-0.009128650650382042,0.019881192594766617,0.04965614899992943,-0.041847873479127884,0.030306372791528702,0.06943384557962418,-0.008805663324892521,-0.01254435908049345,0.025029607117176056,-0.0015676411567255855,0.017136890441179276,0.03150495886802673,0.20831474661827087,0.1275588423013687,0.06474167108535767,0.03905634954571724,0.05140966549515724,-0.06060946360230446,0.15317067503929138,0.085903100669384,0.061478160321712494,0.023018930107355118,0.01828768476843834,-0.02073812298476696,-0.2042800635099411,-0.04346681386232376,-0.03516809642314911,-0.0509769432246685,0.012764185667037964,0.0730886235833168,0.0893075093626976,0.10982448607683182,0.18086275458335876,-0.049625616520643234,0.13013947010040283,0.10421140491962433,0.032054103910923004,-0.06382961571216583,-0.05929608270525932,0.0434422604739666,-0.03961988911032677,-0.0668632909655571,0.18849651515483856,0.002198140136897564,0.007405320648103952,0.08968298882246017,-0.014459343627095222,-0.10920674353837967,0.0010384265333414078,0.0009819662664085627,0.001051606028340757,0.000913978845346719,0.000974364927969873,0.0012904522009193897,-0.000893570831976831,-0.0009622348588891327,-0.0008985587628558278,-0.0009576199809089303,-0.0009099049493670464,-0.0006782892742194235,0.0014072803314775229,0.0015316794160753489,0.0014073505299165845,0.001124202855862677,0.001091630314476788,0.0011287761153653264,0.000025849869416560978,0.00018583035853225738,0.0001995416241697967,0.00006009915887261741,-0.0001685112074483186,-0.0002092722279485315,-0.000665796862449497,-0.0006538129528053105,-0.0004400442121550441,-0.00027941790176555514,-0.00012760395475197583,0.00032719815499149263,-0.00011929790343856439,-0.00011500038090161979,-0.000041240069549530745,-0.00014982694119680673,-0.00016738291014917195,0.0003202389052603394,0.0026798758190125227,0.0025606616400182247,0.002389023080468178,0.0022902090568095446,0.0023262433242052794,0.0021597815211862326,0.0011764505179598927,0.0011625465704128146,0.0008593180682510138,0.0006097990553826094,0.0004904524539597332,0.00008919132960727438,-0.03209832310676575,-0.09833718836307526,-0.12891936302185059,-0.1463136225938797,-0.11536873131990433,-0.2627580761909485,0.1899995356798172,-0.09589003026485443,-0.1744009554386139,-0.06593339145183563,-0.13401299715042114,0.002421581419184804,-0.2256959080696106,-0.000017772896171663888,-0.23939728736877441,-0.14301401376724243,0.061324797570705414,0.33420032262802124,-0.3784395754337311,-0.04102764278650284,-0.04870753362774849,0.04070392623543739,-0.05723033845424652,0.355232298374176,0.11246195435523987,-0.05142243579030037,0.08043203502893448,0.148886039853096,-0.12479604780673981,-0.20516437292099,-0.47056737542152405,-0.1035737618803978,-0.03939790651202202,-0.0517229400575161,-0.22788311541080475,-0.03340891748666763,-0.08653911203145981,-0.15281492471694946,-0.07606301456689835,-0.17984072864055634,-0.11845315247774124,0.14726057648658752,-0.2686063051223755,-0.13221518695354462,-0.02035875990986824,-0.20324069261550903,0.0977003201842308,0.17745603621006012,0.0014711907133460045,0.0014218295691534877,0.0011599468998610973,0.0012412252835929394,0.0014236626448109746,0.0010155561612918973,-0.0010760118020698428,-0.001236142823472619,-0.0014023383846506476,-0.0014516913797706366,-0.0012997008161619306,-0.0013509854907169938,0.0013649071333929896,0.0014526346931234002,0.0013563006650656462,0.0013001379556953907,0.001265861326828599,0.001315533765591681,0.000026683348551159725,0.0002574989921413362,0.00025790478684939444,0.00016408151714131236,0.00006231384759303182,0.00021344843844417483,-0.00006906313501531258,-0.00017832411685958505,-0.0003392741782590747,-0.00012174311996204779,0.00012757049989886582,-0.0005216480931267142,0.0000073446026362944394,0.00021394768555182964,-0.0002511712664272636,-0.0001533223839942366,0.0000724822239135392,-0.0004959531943313777,0.00285183428786695,0.0027304303366690874,0.0028825225308537483,0.0028139417991042137,0.0027181070763617754,0.00315448478795588,0.0005272902781143785,0.0005842315731570125,0.0005873097688890994,0.00034566986141726375,0.0000042962747102137655,0.0007166746072471142,0.003335495013743639,0.1964038610458374,0.1997302621603012,0.12687304615974426,0.03773183375597,-0.009089148603379726,-0.13029906153678894,-0.04107895866036415,-0.06561704725027084,0.0012285698903724551,-0.034114666283130646,-0.09780441969633102,-0.23076176643371582,-0.05357782542705536,-0.09439007937908173,0.007830019108951092,0.002581739565357566,0.2943997085094452,-0.3529953956604004,-0.10521840304136276,-0.09997285157442093,0.051308773458004,0.059560999274253845,0.3004986643791199,0.30798453092575073,0.16570939123630524,0.1717880815267563,-0.01099309790879488,0.046486951410770416,-0.5356054902076721,-0.3875502347946167,0.05245668441057205,0.05329534411430359,0.09618900716304779,0.08261042088270187,-0.15720604360103607,-0.03669220209121704,0.051929548382759094,-0.04907204955816269,0.009462864138185978,0.1096949502825737,0.24994929134845734,-0.13528762757778168,-0.11987734586000443,-0.23785187304019928,-0.047697946429252625,0.008796604350209236,0.6182675361633301,-0.022911062464118004,-0.023416919633746147,0.07581411302089691,-0.09743645787239075,-0.008497721515595913,0.12402405589818954,-0.009643088094890118,-0.21839357912540436,-0.004846035502851009,0.8023883104324341,0.20449575781822205,-0.02269713394343853,-0.0009424950112588704,0.8569315671920776,-0.0002870996540877968,0.13015876710414886,0.017014233395457268,-0.10303890705108643,-0.2916342616081238,-0.37898826599121094,0.0008699243771843612,0.1439763754606247,0.0006823058356530964,0.34365880489349365,0.005925363395363092,-0.2744753658771515,-0.0875934585928917,-0.0982658639550209,-0.001482905587181449,0.03984273970127106,-0.002054527634754777,0.4336544871330261,-0.014714146964251995,0.21751858294010162,-0.22090297937393188,-0.12013712525367737,0.00663073780015111,0.153298482298851,0.002718905918300152,-0.07524501532316208,-0.010799598880112171,0.29925236105918884,0.17367210984230042,0.18726535141468048,0.0034790639765560627,0.16683267056941986,0.002155775437131524,-0.4877512753009796,0.011030095629394054,-0.04120040312409401,0.17051726579666138,0.09170477092266083,-0.0002795809705276042,-0.15774519741535187,-0.0018280450021848083,0.4609104096889496,0.01383485272526741,-0.04642971232533455,0.14643794298171997,0.1086171567440033,0.0014842377277091146,0.2997904419898987,-0.000806983734946698,-0.5432742834091187,-0.010008160956203938,0.6305904984474182,-0.052635982632637024,-0.06811588257551193,0.0006169131374917924,0.3529672622680664,0.005437416490167379,0.2111269235610962,-0.013294118456542492,0.16337862610816956,0.11926164478063583,-0.13057160377502441,0.0009907314088195562,0.3351818919181824,-0.0009003501036204398,-0.15654581785202026,-0.0313338078558445,-0.03549336642026901,0.044582199305295944,-0.2716731131076813,0.21535581350326538,-0.25592800974845886,-0.14567705988883972,-0.19648359715938568,0.10504644364118576,0.10397345572710037,0.16833850741386414,0.030848009511828423,0.016493897885084152,0.003947531804442406,0.01829623617231846,-0.011930087581276894,0.07930448651313782,-0.024586357176303864,-0.07673320919275284,-0.09396873414516449,-0.06595248728990555,0.09301044046878815,-0.02040000446140766,-0.08508913964033127,-0.01576918177306652,-0.03633654862642288,0.0685654804110527,0.026154551655054092,-0.013331065885722637,0.06985455006361008,0.030413776636123657,0.10425541549921036,0.09249339997768402,-0.13376222550868988,0.1849411129951477,-0.054116684943437576,0.01855691336095333,-0.12123343348503113,0.2224522829055786,0.0547686405479908,0.04462258517742157,0.10406535863876343,0.007058861665427685,-0.0813400074839592,0.21152222156524658,0.22498862445354462,0.037403710186481476,-0.08919768780469894,0.05264260619878769,0.2149367481470108,-0.017373893409967422,0.17865213751792908,-0.14146541059017181,0.11074459552764893,-0.012846697121858597,0.1739630401134491,0.5731673836708069,0.4663938879966736,0.3483666777610779,0.3201424479484558,0.10498937219381332,0.2689410448074341,0.016003157943487167,-0.02278868481516838,0.07977571338415146,0.0819760262966156,-0.17597685754299164,0.017351876944303513,-0.30675745010375977,-0.1737394481897354,-0.1019345298409462,-0.056315165013074875,0.2740470767021179,-0.05460060015320778,-0.3711191415786743,-0.1927279680967331,-0.1433483213186264,-0.08770694583654404,0.24162201583385468,0.08508157730102539,-0.0015557127771899104,0.04938722401857376,-0.0766945406794548,0.011214076541364193,-0.39589759707450867,0.08401963114738464,-0.38960811495780945,-0.06776214390993118,-0.003876251168549061,0.1813707947731018,-0.013017097488045692,0.25321656465530396,0.17021051049232483,-0.005585559643805027,-0.018124988302588463,0.08791923522949219,0.3941715955734253,0.07580583542585373,-0.19728527963161469,-0.10802838206291199,0.09110597521066666,-0.06525756418704987,0.399821937084198,-0.02930128574371338,-0.02749401330947876,0.08904915302991867,0.22925563156604767,0.2446439266204834,0.14579753577709198,-0.09648079425096512,-0.05783677101135254,-0.005165581125766039,0.04587339237332344,0.07205035537481308,0.03022965043783188,-0.03478415310382843,0.0017770256381481886,0.016687855124473572,0.018156949430704117,0.15194979310035706,0.10724357515573502,-0.4192546308040619,0.038294218480587006,0.06836395710706711,-0.1026623472571373,-0.10123255848884583,-0.023890305310487747,-0.1619020402431488,-0.22295427322387695,-0.13587942719459534,-0.0401863269507885,-0.2095128297805786,-0.049249570816755295,0.1849525272846222,0.08122289180755615,0.18678627908229828,-0.06066058203577995,-0.0674724355340004,-0.03610841929912567,-0.052233777940273285,-0.30881544947624207,-0.12890370190143585,0.08677066117525101,0.023204468190670013,-0.0050157904624938965,-0.11600129306316376,0.12492912262678146,0.03556475415825844,0.0689903199672699,0.17781740427017212,0.10139613598585129,-0.2428622990846634,-0.04791777953505516,0.016622869297862053,-0.10510541498661041,-0.0422571562230587,-0.12444808334112167,-0.283275842666626,0.08057384938001633,-0.04246537759900093,-0.08312211185693741,-0.08746814727783203,0.012251235544681549,-0.2746758460998535,-0.06712409108877182,-0.09995683282613754,-0.2801911234855652,0.021574879065155983,0.030962267890572548,0.3052899241447449,-0.16957706212997437,-0.09700888395309448,-0.24053670465946198,-0.07769029587507248,-0.011264175176620483,0.4456978738307953,0.0073938011191785336,0.3632573187351227,0.056007277220487595,0.06326433271169662,0.21281211078166962,-0.20989684760570526,-0.08280255645513535,-0.19990681111812592,-0.30848929286003113,-0.09473606944084167,-0.007242170162498951,0.12564191222190857,-0.011922312900424004,-0.07612812519073486,-0.2614317536354065,-0.06348729133605957,-0.006683620158582926,0.5668008327484131,-0.084098681807518,-0.1749938428401947,-0.12907379865646362,-0.0291883684694767,0.06168365478515625,0.3561725616455078,0.12801936268806458,0.008301332592964172,0.13933120667934418,0.04811988025903702,0.12724988162517548,0.06755995750427246,0.09902600198984146,0.06693726778030396,0.044710852205753326,-0.02629641816020012,-0.093656986951828,0.10179894417524338,0.1630641222000122,0.1395731121301651,0.28220081329345703,0.08878523111343384,0.10350313037633896,-0.1357705295085907,-0.09508462995290756,0.24102798104286194,0.32615333795547485,0.055054835975170135,0.07311280071735382,-0.25436753034591675,-0.05642327666282654,-0.31744086742401123,-0.3199390172958374,-0.20681771636009216,-0.11089064180850983,0.3834349513053894,-0.003588397754356265,0.042147211730480194,0.2361304759979248,0.04814571887254715,0.1905459314584732,0.12486186623573303,0.10786712914705276,0.13496801257133484,0.15065258741378784,0.061472900211811066,0.046991005539894104,-0.31161031126976013,0.030795017257332802,0.06754690408706665,0.2654130458831787,0.05812220647931099,0.07308772951364517,-0.08022367209196091,-0.009877520613372326,-0.04665525257587433,0.14187760651111603,0.2696048319339752,0.4898952543735504,0.3719143569469452,-0.08385302871465683,-0.23429828882217407,-0.28151071071624756,-0.11760494112968445,0.04646890237927437,0.11010094732046127,0.09111789613962173,0.08725440502166748,0.09690599143505096,0.21277457475662231,-0.04242105036973953,-0.3480014204978943,0.32220083475112915,0.2747785151004791,0.3313733637332916,0.08449900150299072,0.0699443593621254,-0.08567795902490616,-0.5372874140739441,-0.41596895456314087,-0.13765567541122437,-0.006277984008193016,0.331787645816803,0.43800976872444153,0.43160876631736755,0.2886505126953125,0.3842785656452179,0.2002451866865158,0.2207646518945694,-0.05387627333402634,-0.197797030210495,-0.1566491425037384,0.057970497757196426,0.20175513625144958,0.20509786903858185,0.20055261254310608,0.21678948402404785,0.30781376361846924,0.09438153356313705,-0.08737535774707794,-0.1902797520160675,-0.3851635158061981,-0.08437781035900116,0.03889428824186325,0.021981902420520782,-0.23019614815711975,-0.06366611272096634,-0.06882482022047043,0.041081834584474564,0.06188800185918808,-0.00903376191854477,0.08254498988389969,0.06572762131690979,0.20620475709438324,0.03853223845362663,0.0991818904876709,0.1286116987466812,-0.023682639002799988,0.2014586329460144,-0.037785496562719345,-0.018918849527835846,-0.13303875923156738,-0.08852626383304596,-0.04908253625035286,0.285356730222702,-0.14132201671600342,0.20956672728061676,0.06657281517982483,0.10963087528944016,-0.07641637325286865,-0.08122282475233078,0.2618963122367859,-0.16706161201000214,-0.24106918275356293,-0.2644176781177521,-0.26699164509773254,-0.3033604323863983,-0.3686026334762573,-0.0030265976674854755,0.018652204424142838,0.1773054450750351,0.20033428072929382,0.45034730434417725,-0.025228267535567284,0.05268390104174614,0.06838380545377731,0.08005799353122711,0.00986565463244915,0.17631208896636963,0.037241533398628235,-0.05980558693408966,-0.13862253725528717,-0.04128231108188629,-0.14733663201332092,0.038268838077783585,-0.09899306297302246,-0.12462200224399567,-0.10029692947864532,0.0693085640668869,0.14273977279663086,0.02059137634932995,-0.1516321450471878,-0.059277407824993134,-0.2589612305164337,-0.4677010476589203,-0.06489142775535583,0.0003855266550090164,0.05134860798716545,0.05969054251909256,-0.2534623146057129,-0.18191245198249817,-0.06939931213855743,0.008151592686772346,0.09530027955770493,0.13537302613258362,0.1935846209526062,0.009448662400245667,0.20901349186897278,0.06563641130924225,-0.13342233002185822,-0.06365564465522766,-0.17180468142032623,-0.30784136056900024,-0.1429741382598877,0.0751909539103508,-0.19294628500938416,0.017705686390399933,-0.07090512663125992,-0.1412813365459442,-0.17790137231349945,-0.21457891166210175,0.19082771241664886,-0.13432568311691284,-0.1921105980873108,-0.14876550436019897,-0.15705563127994537,0.10390155017375946,0.17787550389766693,-0.27404311299324036,-0.5511391162872314,-0.2981654405593872,0.003319711424410343,-0.09092889726161957,-0.2887757420539856,0.1828910857439041,0.049293193966150284,-0.15809546411037445,-0.09000847488641739,-0.2359905242919922,-0.14818134903907776,-0.16238288581371307,-1.1620131731033325,0.30882877111434937,0.4100109040737152,0.1327919214963913,-0.4988259971141815,0.649288535118103,0.1864023208618164,0.035297248512506485,0.6260391473770142,-0.13595065474510193,0.12534865736961365,-0.036020971834659576,0.7286741733551025,-0.2855542302131653,0.045468833297491074,-0.29828134179115295,-0.7239487767219543,-0.5087835788726807,0.272654265165329,0.2451438158750534,-0.10806262493133545,-0.14487288892269135,0.253776878118515,-0.008672434836626053,1.101858377456665,0.11044256389141083,0.274793416261673,-0.0023934568744152784,-0.31979334354400635,-0.07189825177192688,0.40023884177207947,-0.1559012234210968,-0.034359756857156754,-0.13247257471084595,-0.07556424289941788,-0.20904552936553955,0.18108439445495605,0.2721134424209595,-0.20973888039588928,-0.032673027366399765,-0.3717973232269287,-0.2984011471271515,-0.4486825168132782,0.27839162945747375,-0.26844948530197144,-0.2155359983444214,0.06235572695732117,-0.38241225481033325,0.2702001631259918,0.26362496614456177,0.21953846514225006,-0.08823113143444061,0.7881889343261719,0.060895223170518875,0.5111037492752075,-0.12138625979423523,0.060292281210422516,-0.2545548677444458,-0.045148756355047226,0.1417086273431778,-0.16309984028339386,-0.35516732931137085,0.1570487916469574,-0.4406198561191559,-0.4563080966472626,-0.05988290160894394,0.1524970978498459,0.1587204933166504,0.06089198961853981,-0.2328207790851593,0.06563755869865417,0.23484806716442108,-0.11032325774431229,0.03775067254900932,0.03552671894431114,-0.061744626611471176,0.029911531135439873,-0.041990987956523895,0.0683494582772255,0.05038541555404663,0.0061816684901714325,-0.05199060216546059,0.1792580485343933,0.1614745557308197,0.0961582288146019,0.054092008620500565,-0.10812605917453766,-0.01925443485379219,-0.07818372547626495,0.04902418330311775,-0.09165264666080475,-0.04296199232339859,0.05239305645227432,-0.06976358592510223,0.002381937112659216,0.022937852889299393,0.11092756688594818,0.07909733802080154,-0.054108016192913055,0.20150472223758698,0.0801149383187294,-0.15208952128887177,-0.07288505882024765,-0.28417712450027466,-0.11696545034646988,0.07026349008083344,-0.12431403994560242,-0.030101681128144264,-0.1983291655778885,0.08827091753482819,0.07485940307378769,0.13703621923923492,0.05662471428513527,0.16220001876354218,-0.05960940197110176,-0.3144541084766388,0.01879148930311203,-0.012972871772944927,0.020792396739125252,0.17749860882759094,0.10016173124313354,0.05949142947793007,0.03840351477265358,0.015802236273884773,0.06131424009799957,0.008136141113936901,0.3205661177635193,0.15790945291519165,-0.05915412679314613,0.04832443222403526,0.08946093171834946,0.07807629555463791,0.03223787993192673,0.5517546534538269,-0.2389298528432846,0.02880546823143959,-0.05043242499232292,-0.015159857459366322,-0.11535273492336273,-0.162586510181427,0.6520180702209473,0.05047282576560974,-0.08313043415546417,-0.09963737428188324,-0.013321254402399063,-0.1600976437330246,0.37962475419044495,0.05192184820771217,0.032795462757349014,-0.04272780567407608,0.14861100912094116,0.2820219099521637,-0.6458436846733093,0.020764682441949844,0.05260143056511879,0.09872713685035706,-0.04482670873403549,-0.20818208158016205,-0.04781052842736244,-0.03616157919168472,0.059591855853796005,-0.00932970829308033,-0.025049319490790367,0.10607034713029861,0.5596858859062195,0.01073759701102972,-0.006722391117364168,0.053722891956567764,-0.04537130147218704,-0.02432689629495144,0.3565494418144226,0.05025495961308479,0.14657701551914215,0.081926628947258,-0.0025098028127104044,0.2645063102245331,-0.0744365006685257,-0.04712957143783569,-0.09770187735557556,-0.2533005177974701,-0.2433883398771286,0.08322478085756302,0.008741073310375214,-0.044786497950553894,0.018836461007595062,0.08051633089780807,-0.00456196628510952,-0.1304263472557068,-0.5021008253097534,-0.07213477045297623,0.07774925976991653,-0.020758006721735,0.05924210324883461,0.022556381300091743,-0.426328182220459,-0.15653644502162933,-0.10074490308761597,0.08898060023784637,-0.17747899889945984,-0.08408764004707336,0.30753976106643677,0.0491386316716671,0.02146463468670845,0.002535582985728979,0.04643678665161133,0.08112116903066635,-0.015205904841423035,-0.10803136974573135,-0.1125752404332161,0.13782058656215668,0.087490975856781,-0.09772248566150665,-0.3200143575668335,0.09190037101507187,0.0601227842271328,-0.17547868192195892,-0.08399718999862671,-0.07300099730491638,-0.17383788526058197,-0.0003731652395799756,-0.09813859313726425,0.17415207624435425,-0.06098505109548569,-0.24981635808944702,0.01438459288328886,-0.04109389707446098,0.22100254893302917,0.021679367870092392,-0.03067972883582115,0.10762946307659149,0.1346374750137329,0.035451918840408325,-0.09765820950269699,-0.031015636399388313,0.04673020541667938,-0.32250407338142395,0.12937234342098236,0.03022671304643154,-0.06120298430323601,-0.1527334749698639,-0.23862917721271515,0.11945269256830215,0.13749960064888,0.09286386519670486,0.09773208200931549,-0.12753303349018097,-0.29610979557037354,-0.10199032723903656,-0.28501197695732117,0.03147786483168602,0.11870754510164261,-0.009869598783552647,0.12017722427845001,-0.31999436020851135,0.27083873748779297,0.04457063600420952,0.10256334394216537,0.10691199451684952,-0.05427343398332596,-0.1896020919084549,0.35879966616630554,-0.04409288987517357,-0.15308627486228943,-0.1948658972978592,-0.2217777967453003,0.409124493598938,0.26731717586517334,0.11701857298612595,0.07585416734218597,-0.12515057623386383,-0.09157626330852509,-0.055547311902046204,-0.08959498256444931,0.041482411324977875,-0.022760290652513504,-0.2436985820531845,-0.16069597005844116,0.17528648674488068,-0.03513457626104355,-0.029274245724081993,-0.07155777513980865,0.040325116366147995,-0.08390911668539047,-0.6130604147911072,-0.10418704152107239,-0.06730538606643677,-0.21394647657871246,0.08750055730342865,0.04128964990377426,-0.06739557534456253,0.22087222337722778,0.08439420908689499,0.19823648035526276,0.15045295655727386,0.2053239792585373,0.3787913918495178,0.07158437371253967,-0.03977580741047859,-0.08267819881439209,-0.07873128354549408,-0.03622736409306526,-0.36087265610694885,-0.2942417860031128,0.11837980151176453,0.07336332648992538,-0.1116986870765686,-0.2559957802295685,-0.2724715769290924,0.0216835867613554,-0.11485841870307922,0.01250251941382885,0.049799270927906036,-0.050599295645952225,-0.13314242660999298,0.12256264686584473,0.0062682731077075005,-0.0001598106318851933,-0.12128660827875137,-0.17633293569087982,-0.5279386043548584,0.019411778077483177,0.017216648906469345,-0.04524275287985802,0.17155908048152924,0.10061411559581757,-0.3073583245277405,0.24845001101493835,0.012181599624454975,0.07924604415893555,0.022030826658010483,0.031725890934467316,0.10902097821235657,-0.5258200168609619,0.05925214663147926,-0.03993424028158188,-0.0034561106003820896,-0.07223620265722275,0.11434676498174667,-0.17721779644489288,0.029753806069493294,0.09308790415525436,0.12139759212732315,-0.160310760140419,-0.18076162040233612,0.6942138075828552,0.058294303715229034,0.020112929865717888,-0.12691707909107208,-0.08450302481651306,0.16797146201133728,-0.20349355041980743,-0.02025679312646389,-0.014492357149720192,0.0450533851981163,-0.06600046902894974,-0.2891916334629059,-0.5639976859092712,0.009753501042723656,0.04143495857715607,-0.07722599804401398,0.1698659509420395,0.34429678320884705,-0.2750932574272156,0.08211290091276169,0.20467470586299896,0.02964240498840809,-0.11146533489227295,-0.041869331151247025,0.11318732798099518,0.050800807774066925,0.13548395037651062,0.0932297483086586,0.0487702451646328,0.016205215826630592,0.08023206144571304,-0.18689806759357452,0.05515822023153305,0.0466897189617157,-0.08674909919500351,0.04223497211933136,-0.025053486227989197,-0.04534203186631203,0.04410933703184128,0.1872728168964386,0.08181709796190262,-0.04409411549568176,-0.2446899265050888,-0.029968002811074257,-0.19485945999622345,-0.4126358926296234,-0.022558923810720444,-0.2737787961959839,-0.05350117385387421,0.03457407280802727,-0.010864467360079288,0.22478991746902466,0.251579225063324,0.25106436014175415,0.21339918673038483,0.19702132046222687,0.2934732437133789,0.296123743057251,0.14597150683403015,-0.014255132526159286,0.0018634514417499304,-0.0508253313601017,0.09930181503295898,0.11085015535354614,0.18201284110546112,0.02801886387169361,-0.0876823365688324,-0.04490642622113228,0.042622797191143036,0.0176224485039711,0.08899162709712982,-0.026330629363656044,0.029923617839813232,0.11646934598684311,-0.038483329117298126,0.06569694727659225,0.3236832916736603,0.4185124635696411,0.3518665134906769,0.03762082755565643,0.058768924325704575,0.045050181448459625,-0.08986539393663406,0.07593990117311478,0.28258684277534485,0.07494741678237915,-0.052511874586343765,0.0780613049864769,-0.10185368359088898,0.08445028960704803,0.4057132303714752,0.05091933161020279,0.08427880704402924,0.22152815759181976,0.21694298088550568,-0.06277642399072647,-0.4030107259750366,-0.021157030016183853,0.03729160875082016,-0.03097512200474739,-0.26324597001075745,-0.30310744047164917,0.0543004609644413,-0.020307907834649086,0.06835580617189407,0.05264297500252724,0.19369719922542572,0.18359576165676117,0.29873421788215637,-0.04669959098100662,-0.12421434372663498,-0.14498086273670197,-0.08198554813861847,0.08787211775779724,0.3246927261352539,-0.5304741859436035,0.16032674908638,-0.10318973660469055,-0.37863531708717346,0.058204103261232376,0.15063989162445068,0.10384160280227661,-0.07337185740470886,0.006214600522071123,0.36720067262649536,0.4468759596347809,0.061608701944351196,0.4498912990093231,-0.0867384523153305,-0.06802264600992203,0.5273623466491699,0.1371374875307083,0.2927354574203491,-0.005350058898329735,-0.20416969060897827,0.0002745050296653062,-0.09894010424613953,0.028847482055425644,-0.0854061171412468,-0.28618472814559937,0.17674095928668976,0.16284993290901184,-0.3371647596359253,-0.041215263307094574,-0.38928964734077454,-0.17702269554138184,-0.1664692908525467,-0.1912948191165924,0.45008596777915955,0.13538813591003418,-0.621317446231842,0.22955697774887085,-0.3720819652080536,-0.06046586483716965,0.46602663397789,-0.1881069391965866,0.4870929718017578,0.241945281624794,-0.32747846841812134,-0.3801605999469757,-0.6464194059371948,0.1754591166973114,-0.17427384853363037,-0.24055229127407074,0.2700105905532837,0.13041868805885315,-0.27679699659347534,-0.11841700226068497,0.0945274606347084,0.46999865770339966,0.18342633545398712,-0.07530760020017624,-0.3109269440174103,-0.29811152815818787,-0.028001150116324425,0.4345647096633911,-0.03202302008867264,-0.16430814564228058,0.5642902255058289,-0.23109696805477142,0.61070716381073,0.3187340199947357,0.030582375824451447,0.08945784717798233,-0.09928938746452332,-0.06256137788295746,-0.17894059419631958,-0.11827260255813599,0.533764123916626,-0.02132970280945301,-0.37669050693511963,0.05981539934873581,-0.46361303329467773,0.0741627886891365,-0.06675995886325836,-0.01194422971457243,0.011245070956647396,0.033117953687906265,0.11564791202545166,-0.14855800569057465,-0.07362837344408035,-0.243057519197464,0.20720265805721283,0.016051966696977615,0.012042699381709099,0.03105434961616993,0.05127505958080292,-0.5583962202072144,-0.013750859536230564,0.0075706723146140575,-0.026532521471381187,0.005508610513061285,-0.0526469424366951,-0.20281407237052917,-0.15501628816127777,0.008242331445217133,0.010553961619734764,0.011033203452825546,0.14572402834892273,0.12162084877490997,-0.5061689615249634,-0.06837887316942215,0.002124655758962035,-0.02109750546514988,-0.07395751774311066,-0.03131822124123573,-0.25457024574279785,0.03355344012379646,0.03326514735817909,-0.04710345342755318,0.030226977542042732,-0.04082441329956055,0.12139131873846054,0.013914770446717739,0.013251387514173985,0.05646904557943344,-0.11448360234498978,-0.1020149514079094,-0.01961001381278038,-0.02019936591386795,-0.016246065497398376,-0.03150300681591034,-0.18028569221496582,0.006140150595456362,-0.6892051696777344,0.06665214896202087,0.023826997727155685,0.02199038304388523,0.12111885100603104,0.3022327721118927,-0.3159758746623993,-0.07293181121349335,0.12027297168970108,0.011717122979462147,0.029476145282387733,-0.10825815051794052,-0.29264482855796814,0.08000530302524567,-0.10639435797929764,0.10482566058635712,0.06369449943304062,0.07992259413003922,-0.03696301206946373,-0.043078046292066574,-0.05649171397089958,-0.015656854957342148,0.018709195777773857,-0.053001172840595245,-0.40846648812294006,0.1120932400226593,0.1445906162261963,0.12418906390666962,0.13323134183883667,0.2755903899669647,-0.3821566700935364,-0.0843312069773674,-0.17159315943717957,-0.1432337760925293,0.013169527053833008,-0.0745002031326294,0.16968926787376404,-0.060282979160547256,-0.15120822191238403,-0.1218431293964386,-0.20979517698287964,-0.20314636826515198,-0.050300199538469315,0.0028468105010688305,-0.06640102714300156,0.0222561527043581,-0.06846802681684494,0.009050771594047546,-0.24962659180164337,-0.0976511761546135,-0.011828090064227581,-0.11053392291069031,-0.029542695730924606,-0.013478776440024376,-0.19636328518390656,0.10533786565065384,0.0667407289147377,0.009420569986104965,0.021016525104641914,0.00566386291757226,0.400707483291626,0.03498340770602226,-0.08424732834100723,-0.03233102336525917,-0.018723685294389725,-0.07129201292991638,-0.03803382068872452,-0.03492855280637741,-0.06149641424417496,0.0011154564563184977,-0.11222568154335022,0.043281711637973785,0.45204299688339233,0.02420053817331791,-0.03706122934818268,-0.012860425747931004,-0.05449065566062927,-0.17974035441875458,0.3338627517223358,-0.09852812439203262,-0.13367725908756256,-0.14948146045207977,-0.15326644480228424,-0.20097362995147705,-0.07222896069288254,0.041110046207904816,0.05668884888291359,0.16947965323925018,0.14606821537017822,0.03312080726027489,0.3879390358924866,-0.014961768873035908,0.05086010694503784,0.00952764693647623,-0.01252759899944067,0.10441593825817108,0.5162346363067627,-0.048159945756196976,-0.049418412148952484,-0.09106355905532837,-0.024787012487649918,-0.09599333256483078,0.20464086532592773,0.13648343086242676,0.19164182245731354,0.026673462241888046,-0.3469938635826111,-0.06578241288661957,-0.20605245232582092,0.17268730700016022,-0.015959853306412697,0.029480397701263428,0.031479306519031525,-0.12426543235778809,0.13846145570278168,-0.22132737934589386,0.07001062482595444,0.014847461134195328,-0.100431427359581,0.13399390876293182,-0.015757089480757713,0.04560581222176552,-0.26239481568336487,-0.1964946687221527,-0.01339357253164053,-0.31316739320755005,-0.011945362202823162,-0.01452549546957016,0.028279535472393036,-0.12121090292930603,-0.3967263102531433,-0.33242854475975037,0.12549526989459991,0.11103175580501556,0.1547035574913025,0.3603729009628296,0.2885402739048004,0.6434229016304016,0.01852286234498024,0.12278123944997787,-0.14345434308052063,-0.030050290748476982,-0.17563088238239288,-0.36506304144859314,0.05193043500185013,-0.04742264375090599,0.16619743406772614,-0.039657317101955414,-0.0906117707490921,0.06659314781427383,0.08204707503318787,-0.016705013811588287,0.07981891930103302,0.06478101760149002,-0.061262354254722595,-0.27083778381347656,-0.07889167964458466,0.02176017500460148,0.047908008098602295,0.060547299683094025,0.016872696578502655,-0.004287418909370899,-0.16840922832489014,0.0009586499072611332,-0.057643547654151917,-0.018671909347176552,-0.10382447391748428,-0.1054816022515297,-0.5534631013870239,0.0900876447558403,0.04588087275624275,0.05558457598090172,0.0090523986145854,0.15805397927761078,-0.27580225467681885,-0.03298705071210861,-0.023548157885670662,0.05606571584939957,-0.08082111924886703,-0.06683420389890671,0.29036426544189453,-0.09023915976285934,-0.018546057865023613,-0.07347839325666428,-0.1566939502954483,-0.0896151214838028,-0.211158886551857,-0.023655127733945847,0.005501131527125835,-0.052233777940273285,0.005068478174507618,0.08317098766565323,-0.6455719470977783,-0.02589302323758602,-0.014388235285878181,0.042259588837623596,0.16188779473304749,0.06631600856781006,-0.22975915670394897,-0.031875453889369965,0.06025748699903488,0.1358272284269333,0.11026883125305176,0.07260008901357651,0.009096565656363964,0.07159044593572617,0.06012444570660591,0.16673074662685394,0.12790840864181519,0.09234864264726639,0.1692214459180832,-0.014378007501363754,-0.03412232920527458,0.02443397045135498,0.01753990165889263,0.0008483062847517431,0.19013991951942444,-0.020517434924840927,0.02772335149347782,-0.008966084569692612,0.031013935804367065,0.003954469691962004,0.20249606668949127,-0.026094580069184303,-0.010222628712654114,-0.05280034616589546,0.004483014345169067,0.019419025629758835,0.11501593142747879,-0.10443850606679916,0.006039187777787447,-0.006599228363484144,-0.1723807007074356,-0.029610522091388702,-0.11111506819725037,-0.012981186620891094,0.00830004457384348,-0.14897491037845612,-0.17763693630695343,-0.18085475265979767,0.2531628906726837,0.08533938974142075,-0.006404289975762367,0.10396743565797806,0.044964853674173355,0.10297106951475143,0.0759778693318367,0.007505133748054504,0.004069140180945396,-0.08594967424869537,-0.11913076043128967,0.4602658748626709,-0.011325609870254993,-0.003000039141625166,0.03623582795262337,-0.10328732430934906,-0.014143281616270542,0.02741936780512333,0.20174910128116608,0.017341984435915947,0.004814098123461008,-0.035972218960523605,-0.010517923161387444,0.14101627469062805,0.07056238502264023,0.03528270125389099,0.021772973239421844,0.09828342497348785,0.03181358426809311,0.05387140065431595,0.25480249524116516,0.02849709428846836,0.020726259797811508,-0.15383708477020264,-0.10327453911304474,0.054821789264678955,-0.2690434455871582,0.008657684549689293,0.028645293787121773,-0.025010377168655396,0.05457893759012222,-0.012279655784368515,-0.03119419328868389,0.012770025990903378,-0.006632743403315544,-0.020955346524715424,0.012329848483204842,0.040891144424676895,0.14414666593074799,-0.06332898139953613,-0.04217257723212242,-0.019363265484571457,-0.024151483550667763,-0.4546649158000946,0.07679727673530579,0.04982012137770653,0.004687075037509203,-0.04987237975001335,0.08906129747629166,-0.0321958065032959,-0.007610737811774015,-0.001945714233443141,-0.15097002685070038,-0.08871862292289734,0.2622184753417969,-0.2707348167896271,-0.3982391655445099,-0.06721573323011398,-0.06732282787561417,-0.11205699294805527,0.13786330819129944,0.07175523787736893,-0.02566789649426937,-0.10432709008455276,-0.07531091570854187,-0.18385206162929535,-0.13573366403579712,-0.030200093984603882,0.12234072387218475,0.0023195778485387564,-0.09542065858840942,0.007794908247888088,0.23558753728866577,0.2614288926124573,1.0127753019332886,0.06993838399648666,0.008352595381438732,0.20520170032978058,-0.02349088527262211,0.05561305582523346,-0.2687562108039856,0.04185022786259651,0.09469833225011826,0.054425664246082306,0.03355444595217705,0.019599076360464096,-0.24271422624588013,0.0026216842234134674,0.032370228320360184,0.17139950394630432,-0.07750736176967621,0.05586307868361473,0.13691793382167816,0.08680452406406403,-0.12456589937210083,-0.10259074717760086,0.17204053699970245,0.048475977033376694,0.18510177731513977,-0.001975123304873705,-0.10197669267654419,-0.4785849153995514,0.15919475257396698,0.05108027160167694,0.01858854666352272,-0.24434201419353485,0.23774012923240662,-0.1206691712141037,-0.09034229069948196,-0.0016247218009084463,0.4084102511405945,-0.4012444317340851,0.03451334312558174,0.054492462426424026,0.2465672791004181,-0.3201189339160919,-0.01710512489080429,-0.1797821819782257,0.0007492859731428325,-0.07825279235839844,0.2973327040672302,-0.2669120132923126,-0.13555176556110382,-0.04910445958375931,0.1729794591665268,-0.0142647884786129,0.07443021237850189,-0.5429511070251465,0.23082587122917175,0.06508895009756088,-0.01933499239385128,-0.062041182070970535,0.10887368768453598,-0.05203655734658241,0.0527549684047699,-0.4737482964992523,-0.040529489517211914,-0.02978014200925827,-0.03438815847039223,0.09039880335330963,-0.20265743136405945,-0.1277620941400528,0.27436476945877075,-0.20481909811496735,-0.5879302620887756,0.12958060204982758,0.06060660257935524,-0.07091716676950455,-0.45181384682655334,-0.0819554403424263,-0.5426550507545471,0.1484033763408661,-0.12271616607904434,0.2624202370643616,0.07795137912034988,0.16715526580810547,0.1789543330669403,-0.016584783792495728,0.1439768522977829,-0.38102710247039795,-0.15519362688064575,-0.13995769619941711,0.22838576138019562,0.2883675992488861,0.16201165318489075,-0.46244320273399353,0.25789493322372437,-0.15361472964286804,-0.10121346265077591,-0.27940160036087036,0.22130899131298065,0.10611159354448318,-0.027095291763544083,-0.1363711953163147,0.14790067076683044,-0.14287197589874268,0.03815660998225212,0.049205340445041656,0.1638859510421753,0.056200429797172546,0.0629832074046135,-0.06133061647415161,0.049733128398656845,-0.048964135348796844,-0.07033674418926239,0.009279907681047916,-0.07415756583213806,0.013787304982542992,-0.027458220720291138,0.04179402068257332,0.06517602503299713,0.4696803390979767,0.03128037601709366,-0.06756016612052917,0.061956893652677536,0.024875378236174583,0.07856152206659317,0.054690852761268616,0.020299091935157776,-0.029437296092510223,-0.042852580547332764,-0.08256151527166367,0.012796559371054173,0.12328561395406723,-0.12122594565153122,-0.10700619220733643,-0.08253589272499084,-0.06434005498886108,-0.1898716688156128,0.12197303026914597,0.019745545461773872,0.017041167244315147,-0.0551726259291172,-0.04194390028715134,-0.04115763306617737,-0.2854597270488739,-0.10515987128019333,-0.07834469527006149,-0.11212068796157837,-0.07884244620800018,-0.06502436101436615,-0.11323298513889313,-0.054875798523426056,0.03044457733631134,0.052732210606336594,0.035038817673921585,-0.04322819411754608,0.15114107728004456,0.1112360805273056,0.020180555060505867,-0.05232130363583565,-0.035567112267017365,0.02692868746817112,-0.03456523269414902,0.009428126737475395,0.07622761279344559,0.02042180858552456,-0.015785345807671547,-0.04926060512661934,-0.08638086915016174,0.15129762887954712,-0.11432616412639618,-0.09090381115674973,-0.05723113194108009,0.00978936068713665,0.01987556368112564,-0.3909095823764801,0.048494212329387665,0.012095713056623936,-0.12698742747306824,0.05587736889719963,0.06650657951831818,-0.03346695378422737,-0.1742442399263382,-0.05493634566664696,0.057137630879879,0.03871943801641464,-0.3283824920654297,0.25445953011512756,-0.05059151351451874,-0.012904342263936996,0.03418305888772011,0.009779090993106365,-0.0706012025475502,-0.08818592131137848,0.05650496482849121,0.02531472034752369,-0.0024529395159333944,-0.04304547235369682,0.06693801283836365,0.04697500914335251,-0.07624854892492294,-0.028006382286548615,0.05387815833091736,0.013563321903347969,-0.14837594330310822,-0.13846515119075775,0.07912705838680267,0.033422332257032394,0.05734556168317795,-0.010106928646564484,-0.013038801029324532,-0.043996598571538925,0.002783224917948246,0.04374467581510544,0.046342652291059494,0.005429770797491074,0.07942736148834229,-0.13411687314510345,-0.06579695641994476,-0.06526736915111542,-0.07336543500423431,0.021981092169880867,-0.12798179686069489,-0.4123305380344391,0.016246171668171883,0.059602703899145126,0.09671856462955475,-0.03750959038734436,-0.039857469499111176,-0.1738918572664261,-0.05125180631875992,-0.04230806231498718,-0.07986733317375183,-0.024438994005322456,0.11085038632154465,0.1395658701658249,0.01920578069984913,0.03443761169910431,-0.011071744374930859,-0.07722658663988113,-0.13235540688037872,0.08422456681728363,-0.03938036039471626,0.0700501799583435,0.07117578387260437,0.014628048986196518,0.09975363314151764,-0.12290631234645844,0.016048675402998924,-0.051779381930828094,-0.06671330332756042,0.04845409840345383,0.08321774750947952,-0.10304490476846695,0.014271731488406658,0.08596089482307434,0.05404611676931381,0.07787899672985077,0.06907575577497482,0.034171175211668015,-0.022856568917632103,-0.06016211211681366,-0.0030828246381133795,-0.03342729061841965,-0.05507342517375946,-0.26249706745147705,-0.021502278745174408,-0.04226663336157799,0.018665097653865814,-0.05724569037556648,-0.08538269996643066,-0.29755476117134094,0.07582801580429077,0.0438476987183094,0.0842696949839592,0.10549867153167725,0.10343650728464127,-0.3164556920528412,0.03939557820558548,0.14793293178081512,0.08964835852384567,0.10387244075536728,0.13886690139770508,0.4136829972267151,-0.039413414895534515,0.00980257149785757,0.047955382615327835,0.033604566007852554,0.012834407389163971,-0.08947087079286575,0.01663055829703808,0.03823548182845116,0.05614510551095009,0.026249419897794724,0.04358473792672157,-0.3522563874721527,0.0029492073226720095,0.05373801290988922,-0.029854344204068184,0.003379788249731064,0.02733571268618107,-0.4093676805496216,-0.016715016216039658,-0.009422607719898224,-0.08493814617395401,-0.08478724211454391,-0.11698698252439499,0.21452657878398895,0.05339455604553223,0.03361460566520691,0.00326740019954741,0.06757539510726929,0.08986006677150726,0.27863433957099915,-0.1031603068113327,-0.13173288106918335,-0.18641339242458344,-0.2613784372806549,-0.2700132727622986,0.10567177832126617,0.10197519510984421,0.10630252957344055,0.04972071945667267,0.16160409152507782,0.17800769209861755,0.1732182651758194,0.03847190737724304,-0.01374637521803379,0.030903473496437073,0.14443489909172058,-0.04832559823989868,-0.14850978553295135,0.010712889023125172,-0.05033617094159126,-0.02237601764500141,0.009792854078114033,0.0136587955057621,-0.2180274873971939,-0.07615596801042557,-0.011131123639643192,-0.09679879248142242,-0.14490680396556854,-0.010755814611911774,-0.04242253303527832,0.019285190850496292,0.018307160586118698,0.13737930357456207,0.07864301651716232,0.020839916542172432,0.08007639646530151,0.03419449180364609,0.010946045629680157,0.02121368609368801,-0.07560062408447266,-0.07179858535528183,-0.05615922808647156,0.005272414535284042,0.001558782416395843,0.022477539256215096,0.019710715860128403,0.06820521503686905,0.5110649466514587,-0.06460742652416229,-0.08498203754425049,-0.050133928656578064,0.014464283362030983,-0.06591419875621796,0.2506810128688812,-0.0054163821041584015,0.011463131755590439,-0.008485914207994938,-0.006068041082471609,-0.027342652902007103,0.31685683131217957,-0.0028791730292141438,-0.046760763972997665,-0.06394745409488678,-0.09295861423015594,-0.06056830286979675,-0.407990962266922,0.06594803184270859,0.015931976959109306,0.02093695104122162,0.02331564947962761,-0.004516139160841703,-0.024444429203867912,-0.02502715028822422,-0.04641043394804001,-0.04263314604759216,-0.07417868077754974,-0.09570448100566864,0.4165518283843994,0.00565246632322669,0.02493562363088131,-0.005578633863478899,-0.02036653459072113,0.031851645559072495,0.186933234333992,-0.04851652681827545,-0.033342014998197556,0.028678569942712784,-0.07880327850580215,0.12894584238529205,0.1477159708738327,-0.014026390388607979,-0.02186211757361889,-0.05592569708824158,-0.04482615739107132,-0.04766876623034477,0.40773773193359375,0.04901302605867386,0.11244861781597137,-0.009158357977867126,0.00008489430183544755,0.008063295856118202,0.08898230642080307,0.0070586614310741425,-0.042798321694135666,0.033034294843673706,-0.004071203991770744,-0.0012809140607714653,0.25909292697906494,-0.07314317673444748,0.006819749251008034,-0.0009335618233308196,0.009131457656621933,-0.060206834226846695,-0.21976156532764435,-0.039095573127269745,0.024704238399863243,0.056513283401727676,-0.00642304215580225,0.025263916701078415,-0.08377736806869507,-0.020595533773303032,-0.013535543344914913,-0.06375434249639511,-0.021951813250780106,0.03982042521238327,0.40624135732650757,-0.007473356556147337,-0.005994323641061783,0.03539980575442314,0.0345473475754261,-0.009700259193778038,0.1207733079791069,-0.09206473082304001,0.012734654359519482,0.025689294561743736,-0.1970847249031067,-0.05632593855261803,0.15999040007591248,0.0170692577958107,-0.014142334461212158,0.01029207929968834,0.023213805630803108,0.18176786601543427,