{"version":"0.7.0","metadata":{"date":{"year":2026,"month":7,"day":13,"hour":23,"minute":29,"second":7},"loudness":-28.292572943710958,"gain":0.826466192531221,"name":"green-tone5","modeled_by":"delt","gear_type":"amp","gear_make":"VOX amplug2 metal","gear_model":"VOX amplug2 metal","tone_type":"vox","trainer":"TONE3000"},"architecture":"SlimmableContainer","config":{"submodels":[{"max_value":0.5,"model":{"version":"0.7.0","metadata":{"date":{"year":2026,"month":7,"day":13,"hour":23,"minute":29,"second":5},"loudness":-28.158780066513692,"gain":0.8195770569212458},"architecture":"WaveNet","config":{"layers":[{"input_size":1,"condition_size":1,"head":{"out_channels":1,"kernel_size":16,"bias":true},"channels":3,"kernel_sizes":[6,6,6,6,6,6,6,6,6,6,6,6,6,6,15,15,6,6,6,6,6,6,6],"dilations":[1,3,7,17,41,101,239,1,3,7,17,41,101,239,1,13,1,3,7,17,41,101,239],"activation":[{"type":"LeakyReLU","negative_slope":0.01},{"type":"LeakyReLU","negative_slope":0.01},{"type":"LeakyReLU","negative_slope":0.01},{"type":"LeakyReLU","negative_slope":0.01},{"type":"LeakyReLU","negative_slope":0.01},{"type":"LeakyReLU","negative_slope":0.01},{"type":"LeakyReLU","negative_slope":0.01},{"type":"LeakyReLU","negative_slope":0.01},{"type":"LeakyReLU","negative_slope":0.01},{"type":"LeakyReLU","negative_slope":0.01},{"type":"LeakyReLU","negative_slope":0.01},{"type":"LeakyReLU","negative_slope":0.01},{"type":"LeakyReLU","negative_slope":0.01},{"type":"LeakyReLU","negative_slope":0.01},{"type":"LeakyReLU","negative_slope":0.01},{"type":"LeakyReLU","negative_slope":0.01},{"type":"LeakyReLU","negative_slope":0.01},{"type":"LeakyReLU","negative_slope":0.01},{"type":"LeakyReLU","negative_slope":0.01},{"type":"LeakyReLU","negative_slope":0.01},{"type":"LeakyReLU","negative_slope":0.01},{"type":"LeakyReLU","negative_slope":0.01},{"type":"LeakyReLU","negative_slope":0.01}],"bottleneck":3,"head1x1":{"active":false,"out_channels":1,"groups":1},"layer1x1":{"active":true,"groups":1},"groups_input":1,"groups_input_mixin":1,"conv_pre_film":{"active":false,"shift":true,"groups":1},"conv_post_film":{"active":false,"shift":true,"groups":1},"input_mixin_pre_film":{"active":false,"shift":true,"groups":1},"input_mixin_post_film":{"active":false,"shift":true,"groups":1},"activation_pre_film":{"active":false,"shift":true,"groups":1},"activation_post_film":{"active":false,"shift":true,"groups":1},"layer1x1_post_film":{"active":false,"shift":true,"groups":1},"head1x1_post_film":{"active":false,"shift":true,"groups":1},"gating_mode":["none","none","none","none","none","none","none","none","none","none","none","none","none","none","none","none","none","none","none","none","none","none","none"],"secondary_activation":[null,null,null,null,null,null,null,null,null,null,null,null,null,null,null,null,null,null,null,null,null,null,null],"slimmable":null}],"head":null,"head_scale":0.004277285347471545},"weights":[-0.6209165453910828,-0.5288864970207214,-0.8885442018508911,-0.2092709243297577,-0.10728995501995087,-0.028668178245425224,-0.13683070242404938,0.0548580139875412,-0.04927369952201843,-0.2254556119441986,-0.18360453844070435,0.024685505777597427,-0.15729014575481415,-0.2032468467950821,-0.07305261492729187,-0.27344492077827454,-0.026790158823132515,-0.04956558719277382,0.13925489783287048,-0.28035855293273926,0.06918012350797653,-0.36961743235588074,0.19650898873806,-0.09566046297550201,-0.23144982755184174,0.2670745551586151,0.3913874328136444,-0.3025553226470947,-0.1287308931350708,-0.04986539110541344,-0.15493784844875336,-0.03218052163720131,0.3642579913139343,-0.29696688055992126,-0.022452782839536667,0.10244506597518921,0.08161812275648117,0.21943135559558868,0.33244767785072327,-0.14978651702404022,-0.16289591789245605,-0.11097404360771179,0.056921351701021194,0.22875115275382996,0.18287336826324463,-0.14944812655448914,-0.028230836614966393,-0.10707397758960724,0.07333005964756012,0.3129770755767822,0.23324641585350037,-0.22676344215869904,-0.0990874171257019,-0.018006980419158936,0.039392635226249695,0.23750028014183044,0.20432814955711365,0.4146920144557953,0.0690445527434349,-0.09807422012090683,0.3806877136230469,0.20364706218242645,-0.10105670988559723,-0.5172008872032166,0.19049014151096344,-0.10009151697158813,0.6925211548805237,0.4996064007282257,0.15881770849227905,-0.5291008353233337,0.23794838786125183,-0.15503446757793427,0.31456679105758667,-0.3688531517982483,-0.1047687828540802,0.25933748483657837,0.1675555258989334,0.40588730573654175,0.24238789081573486,0.10371391475200653,-0.18653930723667145,0.20475560426712036,0.037640273571014404,0.3053184449672699,-0.13826996088027954,-0.3455387055873871,-0.34484001994132996,0.32687658071517944,0.10192260891199112,-0.06478489190340042,0.0173116996884346,-0.2804450988769531,-0.3390059769153595,-0.18388445675373077,0.11536853760480881,0.023698778823018074,-0.29148635268211365,0.08184594660997391,-0.07989120483398438,-0.06502194702625275,-0.28500062227249146,-0.33007678389549255,-0.1527540683746338,-0.33425581455230713,0.14784036576747894,-0.25242096185684204,0.06934645026922226,0.034564822912216187,0.1028377115726471,-0.21299132704734802,-0.27761343121528625,0.31307411193847656,0.46248263120651245,0.0883546993136406,0.20579320192337036,0.10340981930494308,-0.18978042900562286,-0.17599909007549286,0.04076365381479263,-0.09080866724252701,0.13675090670585632,-0.20280656218528748,-0.4460495412349701,0.23654457926750183,0.15690575540065765,-0.0032857118640094995,-0.18787483870983124,0.03256009891629219,-0.25594547390937805,0.27248409390449524,0.20648029446601868,0.27494028210639954,0.5259336233139038,0.40889251232147217,1.5387142896652222,-0.6193171739578247,0.23436516523361206,-0.8575077056884766,0.0011369172716513276,0.25021424889564514,0.3144732415676117,-0.5091999769210815,-0.5067335367202759,-0.3016710877418518,0.4244507849216461,-0.20628954470157623,0.17079342901706696,-0.3076881766319275,-0.016399366781115532,0.17252814769744873,0.13826490938663483,-0.09126346558332443,-0.21657545864582062,0.10916998982429504,0.18299636244773865,0.15851129591464996,0.7075828313827515,0.08801352232694626,-0.4004458487033844,0.4626118242740631,0.5787904858589172,0.5344670414924622,0.02056036703288555,-0.11673309653997421,-0.43063369393348694,-0.11621078103780746,-0.27181968092918396,-0.3506489098072052,-0.11438491940498352,0.18554863333702087,0.639815628528595,-0.0846891850233078,0.12968358397483826,0.6179232597351074,-0.30267056822776794,-0.11844255775213242,-0.5259878039360046,-0.1726510226726532,-0.4725450873374939,-0.45111188292503357,0.0636005774140358,-0.08039035648107529,-0.02008076012134552,0.14833775162696838,0.1703956574201584,-0.01905211992561817,-0.48632609844207764,-0.5206412672996521,-0.10415871441364288,0.3320572078227997,0.266172856092453,0.4972979724407196,0.3463183343410492,0.17505434155464172,0.05104948207736015,-0.2190389633178711,-0.21569405496120453,-0.038833726197481155,0.43413591384887695,0.5798306465148926,-0.08447207510471344,0.17159070074558258,0.06965374201536179,0.24771495163440704,-0.7118076086044312,-0.35609129071235657,-1.0000444650650024,-0.6258622407913208,0.5497187972068787,-0.3331492245197296,-0.27525636553764343,0.18724946677684784,-0.10808486491441727,-0.7832064032554626,0.4196162521839142,1.399461269378662,0.20847243070602417,-0.16605056822299957,0.3358229100704193,-0.07303261756896973,-0.06120920926332474,0.11424407362937927,0.048229046165943146,-0.011941705830395222,-0.3598959743976593,-0.12202119082212448,-0.2623595595359802,-0.18955838680267334,-0.14799579977989197,-0.08039531856775284,-0.14233459532260895,0.14434924721717834,0.15403881669044495,0.04631190747022629,0.20979651808738708,-0.23555678129196167,-0.9420394897460938,-0.0639270767569542,-0.005824653431773186,-0.24972504377365112,0.2070637345314026,-0.011430359445512295,-0.4110555052757263,0.04019095376133919,-0.21141687035560608,-0.12980198860168457,0.4332393407821655,0.06464336067438126,0.10625220835208893,0.11623091250658035,-0.03469844534993172,-0.2577541768550873,-0.288516640663147,0.0035223239101469517,0.34401655197143555,0.07396353036165237,0.13950514793395996,-0.06600243598222733,0.05243799835443497,0.3457840085029602,-0.06297246366739273,-0.021990207955241203,-0.30552685260772705,0.04719872027635574,-0.1352248638868332,-0.11744348704814911,0.16945160925388336,-0.08075526356697083,-0.1631464809179306,0.031152671203017235,0.3423493802547455,-0.01623399928212166,-0.7426058053970337,-0.07694154232740402,-0.41811585426330566,0.04374032840132713,0.04475819692015648,0.004154243040829897,-0.6354220509529114,-0.13249510526657104,0.37022799253463745,-0.6178381443023682,0.2831418812274933,-0.00483662448823452,0.030062174424529076,0.33988630771636963,0.22157354652881622,-0.08289393037557602,-0.2371009737253189,-0.3791545331478119,0.3392632007598877,-0.051133278757333755,-0.07069338113069534,-0.03799227625131607,-0.07179417461156845,-0.13769571483135223,-0.17587271332740784,-0.04025236517190933,0.13077563047409058,0.0795796811580658,0.09669419378042221,0.46647289395332336,0.008357456885278225,0.04564763978123665,0.13990545272827148,0.08997508883476257,0.15243902802467346,-0.0903761088848114,-0.2623559236526489,0.0011299938196316361,0.025522949174046516,-0.0022558742202818394,0.003725448390468955,-0.06921496987342834,-1.0080074071884155,0.013513593003153801,-0.07458138465881348,-0.003928707912564278,-0.1507398784160614,-0.5866671204566956,-0.04720984771847725,0.0023642887827008963,-0.06557130068540573,-0.0007921087089926004,0.08146066218614578,0.3137073516845703,-0.44857099652290344,0.029924606904387474,-0.009327322244644165,0.017186954617500305,-0.02127002738416195,-0.11696580797433853,-0.48079681396484375,0.024645386263728142,0.16394852101802826,0.04792148619890213,0.06403497606515884,-0.22787319123744965,0.010643967427313328,-0.05999809131026268,0.056501589715480804,-0.03313697502017021,0.06394165754318237,0.4027967154979706,-0.4602470099925995,-0.10562484711408615,0.08002307265996933,0.24267542362213135,-0.09109298884868622,0.8870478868484497,0.25421881675720215,-0.01795446127653122,-0.5299590229988098,-0.36108821630477905,-0.4451781213283539,-0.479850709438324,-0.15092787146568298,0.6242511868476868,-0.9086325764656067,-0.4518621265888214,-0.1262393742799759,0.03182903304696083,0.32076483964920044,-0.04582793265581131,0.005417823791503906,0.047175098210573196,-0.0726655051112175,0.04831256717443466,-0.658122718334198,0.010823918506503105,-0.12794984877109528,-0.19572888314723969,-0.11683306097984314,-0.035968903452157974,-0.059253793209791183,0.04952635243535042,0.023618629202246666,-0.006771773099899292,0.09391338378190994,-0.09027207642793655,0.42877212166786194,-0.02837647870182991,0.010345501825213432,0.01199406012892723,-0.06491512805223465,-0.04357349872589111,-1.5708564519882202,0.028166569769382477,0.0797308161854744,0.10574781149625778,0.019016876816749573,-0.1996980458498001,-0.07753206789493561,0.02530396729707718,-0.03521443530917168,-0.04908798635005951,0.06434563547372818,0.12163754552602768,-0.3419605493545532,-0.09492658823728561,-0.033278342336416245,-0.0850861519575119,-0.11150045692920685,-0.2137201875448227,-0.9953048229217529,0.12500861287117004,0.07212625443935394,0.1940818578004837,0.22565878927707672,0.05523817241191864,-0.04554695263504982,0.06648891419172287,0.02041359432041645,0.03366801515221596,0.05507170036435127,0.22575485706329346,-0.6372326612472534,-0.07671389728784561,0.347865492105484,0.15422634780406952,-0.0031667989678680897,0.49101510643959045,-0.5107285380363464,0.2614670395851135,-0.2578465938568115,-0.4156871736049652,0.25734084844589233,-0.010383457876741886,0.24778224527835846,-0.24597175419330597,-0.4705573320388794,1.2373968362808228,-0.30313730239868164,-0.043333299458026886,-0.36283642053604126,0.0012478124117478728,0.005161531735211611,-0.0006564774666912854,-0.005628435406833887,-0.00429886719211936,0.8669497966766357,-0.037698958069086075,-0.06727364659309387,-0.08211681991815567,-0.13006098568439484,-0.14071422815322876,-0.07434751838445663,-0.018317341804504395,-0.026887033134698868,-0.007487396709620953,0.005767442286014557,-0.012668709270656109,0.5623635649681091,-0.003227862296625972,-0.0043081119656562805,-0.00021264106908347458,0.0007993292529135942,0.0013398482697084546,-0.843498945236206,0.010609262622892857,-0.03691304475069046,-0.008992516435682774,0.004476119764149189,-0.00003480893064988777,0.4366961419582367,-0.003832463175058365,0.024342721328139305,0.008287761360406876,-0.0002484559081494808,-0.016633138060569763,-0.08171417564153671,-0.002178697846829891,-0.0023943460546433926,-0.0034816418774425983,-0.005319318734109402,-0.020530784502625465,0.5982073545455933,-0.03984032943844795,-0.042292747646570206,-0.05167694389820099,-0.10516632348299026,-0.16231568157672882,-0.09098707139492035,0.00688744243234396,0.0069107431918382645,0.0048541356809437275,0.01871197298169136,0.03191832825541496,0.4406217634677887,-0.10691345483064651,-0.4260863959789276,0.4582730531692505,0.46672922372817993,-0.3389291763305664,0.13218608498573303,-0.274015337228775,0.9763475060462952,0.44332772493362427,0.11615964770317078,-0.14198638498783112,0.14440706372261047,-0.8597578406333923,0.12429412454366684,0.09182979166507721,0.31852275133132935,-0.2403295934200287,-0.003539342200383544,-0.5040059685707092,-0.2273208498954773,0.015732496976852417,0.017388535663485527,-0.07069244980812073,-0.29797059297561646,-0.09450262784957886,-0.08203212916851044,-0.1591212898492813,-0.17165376245975494,0.14408627152442932,0.011173618957400322,-0.38579902052879333,-0.46431055665016174,-0.06566910445690155,0.2534535825252533,0.35853344202041626,0.31477972865104675,0.11846838891506195,0.2629189193248749,-0.03855090215802193,-0.03463703766465187,-0.11965475976467133,-0.5742899775505066,0.08504848927259445,0.029854806140065193,-0.025767182931303978,0.1334165632724762,0.23077982664108276,-0.10010389983654022,-0.006543029565364122,-0.11546068638563156,0.011378997936844826,0.31496068835258484,0.6109703183174133,0.7591196894645691,-0.26926615834236145,0.17935112118721008,0.05986796319484711,0.09233841300010681,-0.12228833138942719,-0.4398217499256134,-0.33487313985824585,0.054942384362220764,-0.06908118724822998,-0.1446875035762787,0.003964556381106377,-0.12028403580188751,-0.08396155387163162,-0.01581655442714691,-0.060724299401044846,0.10985711216926575,-0.08977480232715607,-0.19284041225910187,0.10188369452953339,-0.28465503454208374,-0.23956622183322906,-0.03435320779681206,-0.3308607339859009,0.38643190264701843,0.24132756888866425,-0.0036173826083540916,-0.1581871658563614,0.27688366174697876,0.17563307285308838,0.02418169192969799,-0.2877441942691803,-1.0524568557739258,-0.6796712875366211,-0.1031850129365921,-0.20830515027046204,0.10590421408414841,-0.045522842556238174,-0.09478328377008438,0.04920467734336853,0.07980108261108398,0.07737516611814499,-0.8724387288093567,-0.11186040192842484,0.0833497941493988,0.08603434264659882,-0.007495634723454714,0.011343497782945633,-0.05077812075614929,0.33070284128189087,0.03580553084611893,0.17522042989730835,0.20317432284355164,0.09574081003665924,-0.44002124667167664,-0.17374013364315033,-0.08894610404968262,-0.124834343791008,-0.18720516562461853,-0.06367941200733185,-0.059294238686561584,-0.08512301743030548,0.08695601671934128,-0.2248707413673401,-0.1913241147994995,0.13057561218738556,-0.010852562263607979,-0.17330296337604523,-0.15180693566799164,0.15517771244049072,0.46183979511260986,0.09794572740793228,-0.06775679439306259,0.2041201889514923,-0.06564050912857056,0.028977220878005028,0.0428963266313076,-0.053345248103141785,-0.45469900965690613,0.46025505661964417,0.0023739170283079147,-0.07134635746479034,-0.03106953576207161,0.3301257789134979,0.23929092288017273,0.23335886001586914,-0.014267505146563053,-0.10884393751621246,0.08364996314048767,0.058772116899490356,0.3573119342327118,0.19719240069389343,-0.08025776594877243,0.08053809404373169,0.43172919750213623,0.32719898223876953,-0.37893420457839966,-0.4519147574901581,-0.24486249685287476,0.6084276437759399,0.47538691759109497,-0.12364733964204788,0.5061317086219788,-0.4044651687145233,-0.32798489928245544,0.8126429915428162,0.10712306201457977,0.2514835596084595,0.04972020164132118,-0.3618812561035156,-0.11476995050907135,-0.11473985761404037,-0.12381266057491302,0.03928204998373985,-0.6105401515960693,0.13658127188682556,-0.1222229078412056,-0.23378796875476837,0.0941692590713501,0.028879832476377487,-0.10564050823450089,0.41348540782928467,0.17174813151359558,0.15983083844184875,0.19189468026161194,0.15741078555583954,-0.6573908925056458,0.022327058017253876,0.08085465431213379,0.14981988072395325,-0.08205354958772659,-0.18471287190914154,-0.09429287910461426,-0.12767495214939117,-0.08087936043739319,0.07109739631414413,0.12521745264530182,-0.08509088307619095,-0.3427123725414276,-0.055756982415914536,-0.2419237494468689,-0.38274309039115906,-0.06643649190664291,-0.051087066531181335,0.6743844747543335,-0.006530267186462879,0.06749517470598221,0.1414363533258438,-0.041930150240659714,0.07502137869596481,-0.02712935395538807,0.12239380925893784,0.12187303602695465,0.20447224378585815,0.18946093320846558,0.10860640555620193,0.6023679375648499,0.06329219788312912,-0.008966232649981976,-0.08084017038345337,0.03339637070894241,-0.03933814540505409,-0.3849526643753052,-0.0920332670211792,-0.12047134339809418,-0.18634748458862305,0.40817657113075256,-0.4545341432094574,-0.6198433637619019,-0.17572376132011414,0.027519401162862778,0.6008460521697998,-0.12665973603725433,0.6210344433784485,-0.22525136172771454,1.0134260654449463,0.01613539271056652,1.0494914054870605,0.09664749354124069,0.18881544470787048,0.4157807528972626,-0.03133131191134453,0.0063819256611168385,-0.025681305676698685,-0.025693928822875023,-0.02264249697327614,-0.5355299711227417,-0.0031384401954710484,0.008856548927724361,-0.007059745490550995,0.0335613451898098,-0.0789056122303009,-0.5570821166038513,0.0959349274635315,0.07936244457960129,0.16281546652317047,0.278266042470932,0.18449626863002777,-0.6740097999572754,0.027369501069188118,0.0026111749466508627,-0.01899043843150139,0.09193751215934753,0.011858618818223476,-0.726712167263031,-0.08158066123723984,-0.020969202741980553,-0.0529310517013073,-0.09850040823221207,-0.0022124391980469227,0.01323182787746191,0.13959789276123047,0.2371097356081009,0.29514938592910767,0.2525479793548584,0.3539130389690399,-1.0714097023010254,0.00031611291342414916,-0.019102420657873154,-0.04720241576433182,-0.06293420493602753,-0.028645314276218414,0.04219484701752663,-0.1056184247136116,0.05738832429051399,0.08816518634557724,0.028123732656240463,0.08223699033260345,-0.23398661613464355,0.03437363728880882,-0.14320985972881317,-0.2495458871126175,-0.2996934652328491,-0.1905461996793747,0.7085580229759216,0.174367755651474,-0.3185938596725464,0.1801004558801651,0.31513625383377075,0.40290138125419617,-0.32938286662101746,-0.6280955076217651,-0.22076785564422607,0.32869669795036316,0.8121330142021179,-0.03668465465307236,0.6245563626289368,0.1183478832244873,1.1596190929412842,-0.40635719895362854,0.23166637122631073,0.22775688767433167,-0.37359416484832764,0.01338928285986185,0.026287609711289406,0.0328092984855175,0.06959515064954758,0.057208336889743805,0.38949260115623474,-0.15219023823738098,-0.11656145006418228,-0.03276572376489639,0.019661597907543182,0.33524245023727417,-0.1473083347082138,0.0581982359290123,0.12665286660194397,0.11953052133321762,0.13199177384376526,0.08039575070142746,-0.3725045621395111,0.004363367799669504,0.00008010749297682196,-0.017117563635110855,-0.032801009714603424,0.13696877658367157,0.0018488112837076187,0.0016686820890754461,0.015521134249866009,0.19003024697303772,0.1716076284646988,0.2586703598499298,-0.5434245467185974,-0.07815371453762054,-0.048618339002132416,-0.12587065994739532,-0.12952135503292084,0.33454975485801697,0.025242196395993233,-0.00907689705491066,0.003093992592766881,0.005386658012866974,0.012919213622808456,-0.023796405643224716,0.6319769620895386,-0.01153093483299017,0.04864238202571869,0.07732091099023819,0.15090464055538177,0.20144705474376678,-0.7452186942100525,-0.03245989978313446,-0.035733167082071304,-0.0535234771668911,-0.07742316275835037,-0.20974047482013702,0.05371372401714325,-0.3424545228481293,-0.2767249047756195,0.07228400558233261,0.04659755527973175,-0.31447216868400574,-0.6628279089927673,-0.4837771952152252,0.32107672095298767,0.1614852398633957,-0.43298205733299255,0.5478894114494324,0.560410737991333,0.4753091633319855,-0.36818137764930725,0.3286691904067993,-0.2609812617301941,0.10314826667308807,-0.1328791230916977,0.004317362792789936,-0.0008269260288216174,-0.012893853709101677,-0.007152204401791096,-0.004156654234975576,-0.4021417200565338,0.0029423122759908438,-0.002996273571625352,0.038734421133995056,0.057660527527332306,0.19343265891075134,-0.7103667259216309,-0.07997249811887741,-0.07577217370271683,-0.12790130078792572,-0.16926589608192444,-0.3409007787704468,0.07707957923412323,-0.0008458641241304576,0.005918475333601236,0.008928205817937851,0.006158266682177782,0.018101388588547707,0.35681256651878357,-0.02538985200226307,-0.05405579134821892,-0.08442381024360657,-0.0957079753279686,-0.13233421742916107,-0.47129014134407043,0.03739134967327118,0.05923748388886452,0.0883452445268631,0.08096113801002502,0.15208815038204193,-0.23849961161613464,-0.0027065370231866837,-0.012975000776350498,-0.0004280500579625368,-0.02947806939482689,-0.04010807350277901,-0.42246124148368835,0.04646680876612663,0.06540386378765106,0.0657803863286972,0.14453822374343872,0.37388938665390015,0.17147305607795715,-0.016506480053067207,-0.031005773693323135,-0.015025148168206215,-0.053689178079366684,-0.18656376004219055,1.03016996383667,0.3175645172595978,0.6787444353103638,-0.006362613290548325,0.2633184790611267,0.10515814274549484,0.6208359003067017,-0.17258813977241516,-0.5253314971923828,0.2859518527984619,-0.39007675647735596,-0.76509690284729,0.0019524904200807214,-0.18793034553527832,-0.3837049603462219,-0.5743503570556641,-0.13642950356006622,-0.38978850841522217,0.5330636501312256,-0.004318326245993376,0.002207745099440217,0.00332043063826859,0.013536975719034672,-0.0049512023106217384,-0.09832485765218735,-0.011467089876532555,-0.009053404442965984,-0.02039470337331295,-0.0433659590780735,-0.04019055888056755,-1.679626226425171,0.006159110460430384,0.016671907156705856,0.003929052967578173,-0.005216911435127258,0.02858811803162098,-0.5794944167137146,-0.005432626232504845,-0.010147293098270893,-0.024596864357590675,-0.035761039704084396,-0.06973505765199661,-0.1315106749534607,-0.006846731994301081,-0.0194082111120224,-0.02155158668756485,-0.02190042845904827,-0.07288427650928497,-0.8643072247505188,0.02027195133268833,0.033081214874982834,0.05640924349427223,0.09440843760967255,0.23164811730384827,0.08825308829545975,0.019078779965639114,0.02624242939054966,0.03389005735516548,0.03828233480453491,0.08184120804071426,0.4378778040409088,0.11947765201330185,0.052123989909887314,0.07121239602565765,0.11075415462255478,0.2034318894147873,-0.21053354442119598,-0.11409874260425568,-0.12649215757846832,-0.15176185965538025,-0.1774897426366806,-0.31218937039375305,-0.6352547407150269,0.03658956289291382,0.09987077862024307,-0.1199377179145813,-0.3593619167804718,0.3606657087802887,-0.09951641410589218,0.4834648668766022,-0.23211953043937683,0.5819575190544128,1.2038164138793945,-0.0212447177618742,0.598363995552063,-0.45094165205955505,-0.4899630844593048,0.15232163667678833,-0.17586034536361694,-0.05752795562148094,-0.30428680777549744,-0.04621957987546921,-0.042173583060503006,-0.018441462889313698,0.019745025783777237,0.030908800661563873,-0.0911923199892044,0.0073105162009596825,0.054135337471961975,-0.056102778762578964,-0.06551912426948547,-0.16818678379058838,0.059792835265398026,0.1341610997915268,0.2842452824115753,0.5503469705581665,0.13338859379291534,-0.009832237847149372,0.027554314583539963,-0.09318987280130386,0.02365715615451336,0.051108382642269135,-0.005603313911706209,0.011231786571443081,0.011105486191809177,-0.028044238686561584,0.04813969507813454,0.00032810395350679755,0.036546505987644196,0.34305351972579956,0.7717212438583374,-0.29464247822761536,0.031424228101968765,0.07291335612535477,-0.0022175880149006844,0.08204375207424164,-0.01487759966403246,-0.10135906934738159,0.031928420066833496,-0.08903182297945023,-0.15126945078372955,-0.14100147783756256,-0.10265332460403442,-0.19681009650230408,0.37401333451271057,0.6588441133499146,-0.14695708453655243,-0.012277503497898579,0.023942159488797188,-0.010200703516602516,0.02042153850197792,-0.04300479218363762,-0.017939230427145958,-0.037465695291757584,-0.1106439083814621,-0.054801713675260544,-0.022331764921545982,-0.04269412159919739,0.07136817276477814,0.22159162163734436,0.8422352075576782,0.11103204637765884,-0.0369727723300457,-0.07882676273584366,-0.094047911465168,0.04921366646885872,-0.001514418050646782,0.0732923075556755,-0.06437718123197556,-0.11299698799848557,-0.1274206042289734,-0.18620134890079498,-0.15549206733703613,-0.03011021949350834,0.031623899936676025,-0.2684265673160553,-0.009721877984702587,0.1123795136809349,-0.11775373667478561,-0.11047601699829102,-0.08238934725522995,-0.13253451883792877,-0.2313867211341858,-0.04514417052268982,-0.11033753305673599,-0.16011062264442444,-0.3128686547279358,-0.07843335717916489,-0.1985885053873062,-0.07042861729860306,0.39870014786720276,-0.040031276643276215,0.07631516456604004,0.025246942415833473,-0.041572168469429016,0.04676106572151184,-0.08936168998479843,0.03694596514105797,-0.2573336660861969,-0.15455813705921173,-0.05598904937505722,0.019437488168478012,0.0018164758803322911,0.11664772778749466,0.07601015269756317,-0.00020713376579806209,-0.38854989409446716,-0.19570986926555634,-0.021532908082008362,0.052173372358083725,-0.009205370210111141,0.011799522675573826,-0.20231659710407257,-0.07346677780151367,-0.04908647760748863,-0.059465713798999786,0.03701161593198776,-0.021131042391061783,-0.21803292632102966,-0.3557312786579132,-0.14419801533222198,0.2369471937417984,0.21222081780433655,-0.1272870898246765,-0.09977567195892334,-0.05783986672759056,-0.37065714597702026,-0.36215728521347046,-0.2725886404514313,-0.2758150100708008,-0.1679319441318512,-0.0905761793255806,0.050337571650743484,-0.05758780986070633,0.024103663861751556,0.025554541498422623,-0.07910318672657013,-0.021224245429039,0.05045967176556587,0.5472756624221802,-0.5057737231254578,-0.8466708064079285,-0.4218483865261078,0.664537250995636,-0.22980929911136627,-0.5375639796257019,0.3185347616672516,-0.5966066122055054,-0.5755539536476135,0.35050949454307556,-0.29234060645103455,-0.15672151744365692,0.10978361964225769,-0.09932218492031097,-0.016635043546557426,-0.0025251777842640877,-0.011106139980256557,-0.028683165088295937,-0.02380882389843464,-0.012050003744661808,-0.016952190548181534,0.008210018277168274,0.018192827701568604,0.004938229452818632,0.02909747324883938,-0.012745894491672516,-0.09962138533592224,-0.025576375424861908,-0.02157551981508732,0.022204572334885597,0.06947369128465652,0.0537334606051445,0.031601980328559875,0.019072789698839188,0.04745104908943176,0.042537666857242584,0.04409705847501755,0.0512893944978714,0.014430759474635124,0.0309589896351099,0.0036092300433665514,0.03955068066716194,0.0972297191619873,-0.2446315884590149,0.015599384903907776,0.01570921204984188,0.025072244927287102,0.03363499417901039,0.032715871930122375,0.03704644367098808,0.04563017934560776,0.04149375855922699,0.018086345866322517,0.09902562946081161,-0.0038592005148530006,-0.06017302721738815,0.18233197927474976,0.2377629578113556,-0.020995192229747772,0.008085669949650764,0.009420567192137241,0.004431974142789841,0.013709903694689274,0.013971062377095222,0.013289064168930054,0.008899112232029438,0.0142013905569911,0.02642236463725567,0.02535559982061386,0.027182243764400482,0.037972014397382736,0.06229299679398537,0.05841686576604843,-1.2532789707183838,0.017713841050863266,0.0204479917883873,0.01891159452497959,0.028072381392121315,0.03802920877933502,0.03859996050596237,0.03815082833170891,0.03296581655740738,0.046425335109233856,0.04339446499943733,0.045333895832300186,0.041450340300798416,0.01682317815721035,0.11313825845718384,-0.4884170889854431,0.006676257122308016,-0.003364581847563386,0.006350258830934763,0.011114307679235935,0.006282239221036434,0.008445466868579388,0.050457343459129333,0.04947519302368164,0.04938540607690811,0.09328186511993408,0.11585794389247894,0.11733966320753098,0.22736598551273346,0.09243247658014297,-0.5923212170600891,-0.02937701903283596,-0.02638801746070385,-0.02084094099700451,-0.053662288933992386,-0.04205279052257538,-0.04335225373506546,-0.025613797828555107,-0.037286657840013504,-0.06928553432226181,-0.0668967068195343,-0.06935428828001022,-0.12352809309959412,-0.21233715116977692,-0.08312145620584488,0.6049270629882812,-0.029864676296710968,-0.0019682603888213634,-0.025498535484075546,-0.04856249690055847,-0.05275895446538925,-0.052196040749549866,-0.08366396278142929,-0.06183147802948952,-0.07127034664154053,-0.08293519169092178,-0.10390257835388184,-0.09756208211183548,0.05395444482564926,-0.12018477916717529,-0.225870743393898,-0.05918903276324272,-0.02597562037408352,-0.031108656898140907,-0.06846992671489716,-0.08118778467178345,-0.05493902042508125,-0.14800003170967102,-0.17863279581069946,-0.14966504275798798,-0.3222789466381073,-0.41145995259284973,-0.38427746295928955,-0.7024093270301819,-0.3026127815246582,0.15948744118213654,0.3629213571548462,-0.2935728132724762,0.15290261805057526,0.7887634634971619,0.2546927034854889,-0.24670512974262238,-0.2398459017276764,0.7969943881034851,-0.20373693108558655,0.403842955827713,0.5380219221115112,0.1877090483903885,-0.09886304289102554,-0.24984651803970337,0.7575852274894714,-0.4764479696750641,0.025098131969571114,-0.1775657683610916,0.08034280687570572,-0.19806334376335144,-0.4011197090148926,-0.37767380475997925,-0.49952706694602966,-0.22671999037265778,-0.07024624943733215,-0.15409281849861145,-0.14432820677757263,-0.233504056930542,-0.26463356614112854,-0.5518107414245605,-0.15626820921897888,-0.014646977186203003,-0.41277360916137695,-0.11388487368822098,-0.22598977386951447,-0.024122176691889763,-0.025817057117819786,-0.14085549116134644,0.4046329855918884,0.007038377225399017,0.26192018389701843,0.1364227682352066,0.300565242767334,-0.05051718279719353,-0.25012922286987305,-0.4235292077064514,-0.45261168479919434,-0.18533706665039062,0.3089340627193451,-0.006276446860283613,0.2542804181575775,0.23016457259655,0.44322043657302856,0.6184658408164978,-0.37796348333358765,0.0020896417554467916,0.22475232183933258,0.4332140386104584,0.6945992708206177,0.5386282801628113,0.6093375086784363,0.1115252748131752,0.05116860568523407,-0.05315836891531944,-0.27358362078666687,-0.813248336315155,0.2932114005088806,0.08424839377403259,0.2790756821632385,0.051839202642440796,0.7269681692123413,0.7366184592247009,0.29167622327804565,0.29450446367263794,0.7605112195014954,0.10685037821531296,-0.49677708745002747,-0.22379153966903687,-0.4097500145435333,1.2087427377700806,1.11400306224823,0.31204864382743835,-0.02997269108891487,0.1374383270740509,-1.0226905345916748,1.2068487405776978,1.4916303157806396,-0.7824041247367859,0.4410780966281891,-0.5529600381851196,-0.07469403743743896,0.16412784159183502,-0.05512326583266258,-0.41923314332962036,-1.5442274808883667,0.2708504796028137,0.22695337235927582,-0.05944523215293884,0.1428859382867813,-0.09700240194797516,-0.21152685582637787,0.4568621814250946,0.07886757701635361,-0.14767538011074066,0.09149879962205887,0.3731476962566376,-1.1993603706359863,-0.1430206298828125,0.05945196747779846,-0.1498149335384369,0.04670938476920128,-0.012179076671600342,0.1257631480693817,0.8908317685127258,-0.046495284885168076,-0.06858132779598236,0.08628422766923904,-0.19507619738578796,-0.02430453523993492,0.07973039895296097,-0.0034765612799674273,-0.004988397005945444,0.0649152398109436,0.010612085461616516,-0.2078602910041809,0.474989116191864,-0.02922009490430355,-0.1513739973306656,-0.9438559412956238,-0.5331620573997498,0.18693090975284576,0.022589145228266716,0.23207156360149384,0.05400628224015236,0.29531535506248474,0.08065617829561234,0.18243816494941711,-0.031878601759672165,-0.03028513677418232,0.45764562487602234,-1.2389497756958008,-0.0380876399576664,0.07961157709360123,-0.054926540702581406,0.9381335377693176,-0.5638605356216431,0.5132750272750854,0.0814085304737091,-0.5901505947113037,-0.030426932498812675,-0.47979483008384705,-0.6699079275131226,0.4046769142150879,-0.6601145267486572,-0.161216139793396,-0.5762324333190918,0.7174583673477173,-0.7009593844413757,-0.30942440032958984,-0.31822916865348816,-0.3882305324077606,-0.19400745630264282,-0.21524903178215027,0.23114579916000366,-0.2884558141231537,-0.43847331404685974,0.40985968708992004,-0.10143451392650604,-0.15915893018245697,-0.011283050291240215,-0.10234744846820831,-0.3715682923793793,-0.23920276761054993,0.2061816155910492,0.13537554442882538,-0.250235915184021,0.17417576909065247,-0.2626153230667114,-0.2468755841255188,0.28188738226890564,-0.14831887185573578,0.29794973134994507,0.2786676585674286,-0.11047972738742828,0.21189437806606293,0.11114499717950821,-0.0304291769862175,0.1529056429862976,0.12444346398115158,0.03181188181042671,0.11202780902385712,-0.17754031717777252,-0.06255657970905304,0.299173504114151,-0.17052315175533295,-0.027606859803199768,0.06013097986578941,-0.05754493921995163,0.1770273745059967,-0.25580132007598877,0.24047663807868958,0.5046514868736267,-0.24431124329566956,0.1429053694009781,0.09845505654811859,0.017865385860204697,0.11416248232126236,0.3793482184410095,0.16267268359661102,-0.21867577731609344,-0.07538145035505295,0.11349204927682877,-0.09643548727035522,0.23521074652671814,0.11872783303260803,-0.30734455585479736,0.44076600670814514,0.10391627252101898,-0.009452386759221554,0.24220387637615204,0.16902564465999603,-0.32894840836524963,-0.3744533061981201,-0.39148226380348206,0.5443689823150635,-0.3678562045097351,0.41629278659820557,0.6477899551391602,-0.49039819836616516,0.3813287019729614,0.15680137276649475,-0.0601169727742672,0.008318130858242512,-0.024640319868922234,0.0765674039721489,0.0550471656024456,0.1530013084411621,-0.06855172663927078,0.09323791414499283,-1.0171005725860596,0.05053327977657318,-0.006849236320704222,-0.19406422972679138,-0.12244971096515656,0.011708478443324566,-0.5696688890457153,-0.020654531195759773,0.0001420445041731,0.08550111949443817,-0.09287676960229874,0.03906601667404175,0.8485037088394165,-0.03875226899981499,-0.16516196727752686,-0.03527577966451645,-0.2179291844367981,0.14404520392417908,-0.5054646134376526,-0.11508376896381378,-0.24976344406604767,-0.3133690059185028,-0.3554041385650635,-0.4411638379096985,0.33335012197494507,-0.025503961369395256,-0.11028280109167099,-0.19527485966682434,-0.33878833055496216,-0.07263191789388657,-0.15543434023857117,0.07528191059827805,0.15978845953941345,0.10541535913944244,0.3269009292125702,-0.10796921700239182,0.6491022109985352,0.13490420579910278,0.3973647356033325,0.3339959681034088,0.4581865668296814,0.5282909274101257,-0.3093756139278412,0.057820986956357956,0.07313091307878494,0.3236912190914154,0.2805311381816864,0.11251107603311539,-0.18089458346366882,0.4005507230758667,0.6909727454185486,0.4615287482738495,-0.11354172229766846,-0.11332014948129654,-0.3413340449333191,0.18327178061008453,0.046062029898166656,-0.5521910786628723,0.28539904952049255,-1.0224781036376953,0.7722182273864746,-0.5232250690460205,0.006859052926301956,-0.13585464656352997,-0.6326499581336975,-0.5669982433319092,-0.5127511024475098,-0.17812705039978027,-0.0005657341098412871,-0.07248202711343765,-0.09497907012701035,0.05461418256163597,-0.3147182762622833,-0.032074518501758575,0.06386024504899979,0.11059288680553436,0.05820554122328758,-0.037906285375356674,-0.20476746559143066,0.11588043719530106,0.028930693864822388,-0.006945090368390083,-0.0057725743390619755,-0.3256308138370514,-0.026674974709749222,-0.06092846393585205,-0.02076852321624756,0.04737575352191925,-0.03305826708674431,-0.02711557410657406,-0.4313028156757355,-0.00993116945028305,0.08943666517734528,-0.09517153352499008,-0.27357763051986694,-0.5061160326004028,0.04632142186164856,0.01961580663919449,-0.11604804545640945,-0.16013996303081512,-0.09581438452005386,0.03175577521324158,-0.21938565373420715,0.11049434542655945,0.006903850007802248,0.07145364582538605,0.04648061469197273,-0.028785083442926407,0.345182329416275,0.024659577757120132,-0.04045924171805382,-0.08204609900712967,-0.039830662310123444,0.030856860801577568,0.16401894390583038,-0.08162348717451096,-0.03918233886361122,-0.019147569313645363,0.011592828668653965,0.2514270544052124,0.005930474493652582,0.1482241302728653,0.38636869192123413,0.06071748584508896,-0.015149124898016453,0.36509808897972107,0.044695865362882614,-0.22603186964988708,0.5778587460517883,0.1965307891368866,0.04073697701096535,-1.2056846618652344,-0.09287606924772263,-0.27550244331359863,0.3567003905773163,0.43974214792251587,-0.0334014855325222,-0.47310739755630493,-0.3231985867023468,-0.09221889823675156,0.13681578636169434,0.28665873408317566,-0.04105016961693764,-0.3388108015060425,-0.6192778944969177,0.006664627231657505,-0.14370980858802795,-0.2392454594373703,0.36142775416374207,0.724094808101654,0.2235613763332367,-0.09451828896999359,-0.008816396817564964,0.14702251553535461,0.06331302225589752,-0.4907073974609375,-0.2545880377292633,-0.15104220807552338,-0.049428366124629974,0.055985111743211746,0.16497090458869934,-0.01728634536266327,-0.2703315317630768,0.047323986887931824,0.04787629842758179,-0.0912223532795906,-0.116566963493824,-0.10769437998533249,0.028072820976376534,0.1146622747182846,-0.04492328688502312,-0.037279464304447174,0.11440379172563553,-0.019264379516243935,-0.24512669444084167,-0.010787881910800934,-0.09669314324855804,-0.15580213069915771,-0.027369702234864235,0.40737485885620117,0.5968308448791504,-0.0458427295088768,0.10865768045186996,0.231135755777359,-0.2347172647714615,-0.616553783416748,-0.19266556203365326,0.12020837515592575,-0.0271892286837101,-0.2843951880931854,0.06875808537006378,0.43064403533935547,0.17645996809005737,-0.05180846154689789,0.09341755509376526,0.5639013051986694,-0.06330855190753937,-0.16443879902362823,0.003967528231441975,0.3394452929496765,0.2913333773612976,-0.6778117418289185,-0.10638073086738586,0.06556804478168488,0.39946672320365906,-0.8813807368278503,-0.3001829981803894,0.292718768119812,0.09256666153669357,0.3854745924472809,-0.1604028046131134,-0.022737577557563782,0.01931842789053917,-0.061669498682022095,0.11501527577638626,-0.1315275877714157,-0.33567190170288086,0.0076599870808422565,0.008232537657022476,-0.014288823120296001,0.0057120006531476974,-0.05946444347500801,-0.12961728870868683,-0.006557649467140436,-0.014951650984585285,0.03545626997947693,-0.05376575514674187,0.10775618255138397,-0.020981142297387123,-0.01729283295571804,-0.012323527596890926,-0.046575360000133514,0.12843665480613708,-0.20805862545967102,-0.491230309009552,-0.05462859198451042,0.012417696416378021,-0.054019372910261154,0.014722785912454128,-0.050921481102705,-0.016043463721871376,0.05879548564553261,-0.0004656790988519788,0.07968507707118988,-0.040026966482400894,0.23105178773403168,-0.4151836931705475,-0.014513925649225712,0.0372786782681942,0.04159770533442497,0.06357218325138092,0.03120451420545578,0.030399631708860397,-0.019276518374681473,0.02151619642972946,-0.0037439363077282906,0.06610570847988129,-0.08240510523319244,0.013087534345686436,-0.0171455517411232,-0.007980075664818287,-0.03903786838054657,-0.04981560260057449,-0.01879706233739853,-0.01853499561548233,-0.07660842686891556,0.03483390808105469,0.138112410902977,0.17362147569656372,-0.130698099732399,-0.17789624631404877,0.4162098467350006,-0.00858832336962223,0.5327888131141663,0.11612158268690109,0.18631941080093384,-0.07476914674043655,-0.32249006628990173,-0.3899204134941101,-0.36959829926490784,-0.3457287847995758,0.4948616325855255,-0.35605674982070923,0.02047009952366352,0.027233289554715157,0.005641155410557985,-0.01996045932173729,-0.07457786053419113,-0.13587160408496857,-0.17813603579998016,-0.18228159844875336,-0.14360201358795166,-0.07483824342489243,-0.017363667488098145,0.015654712915420532,0.020116304978728294,0.01174352876842022,0.0015613660216331482,0.0005398167413659394,-0.011261864565312862,-0.02173984795808792,-0.03142957389354706,-0.05867284908890724,-0.07357779890298843,-0.07249712944030762,-0.05965406075119972,-0.02368767373263836,-0.004162323661148548,0.007329877931624651,0.003756273537874222,0.00039073487278074026,-0.0035752388648688793,-0.0012483502505347133,0.000016777335986262187,-0.00115008105058223,-0.0003141498891636729,0.019116336479783058,0.05070732161402702,0.10676158219575882,0.1535291075706482,0.18098868429660797,0.18482302129268646,0.14431749284267426,0.09960000216960907,0.04946892708539963,0.019669199362397194,0.0018513539107516408,-0.0011978641850873828,-0.0033136482816189528,-0.0006305122515186667,0.00082775839837268,0.2245166152715683,0.0042772852518667675],"sample_rate":48000}},{"max_value":1,"model":{"version":"0.7.0","metadata":{"date":{"year":2026,"month":7,"day":13,"hour":23,"minute":29,"second":6},"loudness":-28.292572943710958,"gain":0.826466192531221},"architecture":"WaveNet","config":{"layers":[{"input_size":1,"condition_size":1,"head":{"out_channels":1,"kernel_size":16,"bias":true},"channels":8,"kernel_sizes":[6,6,6,6,6,6,6,6,6,6,6,6,6,6,15,15,6,6,6,6,6,6,6],"dilations":[1,3,7,17,41,101,239,1,3,7,17,41,101,239,1,13,1,3,7,17,41,101,239],"activation":[{"type":"LeakyReLU","negative_slope":0.01},{"type":"LeakyReLU","negative_slope":0.01},{"type":"LeakyReLU","negative_slope":0.01},{"type":"LeakyReLU","negative_slope":0.01},{"type":"LeakyReLU","negative_slope":0.01},{"type":"LeakyReLU","negative_slope":0.01},{"type":"LeakyReLU","negative_slope":0.01},{"type":"LeakyReLU","negative_slope":0.01},{"type":"LeakyReLU","negative_slope":0.01},{"type":"LeakyReLU","negative_slope":0.01},{"type":"LeakyReLU","negative_slope":0.01},{"type":"LeakyReLU","negative_slope":0.01},{"type":"LeakyReLU","negative_slope":0.01},{"type":"LeakyReLU","negative_slope":0.01},{"type":"LeakyReLU","negative_slope":0.01},{"type":"LeakyReLU","negative_slope":0.01},{"type":"LeakyReLU","negative_slope":0.01},{"type":"LeakyReLU","negative_slope":0.01},{"type":"LeakyReLU","negative_slope":0.01},{"type":"LeakyReLU","negative_slope":0.01},{"type":"LeakyReLU","negative_slope":0.01},{"type":"LeakyReLU","negative_slope":0.01},{"type":"LeakyReLU","negative_slope":0.01}],"bottleneck":8,"head1x1":{"active":false,"out_channels":1,"groups":1},"layer1x1":{"active":true,"groups":1},"groups_input":1,"groups_input_mixin":1,"conv_pre_film":{"active":false,"shift":true,"groups":1},"conv_post_film":{"active":false,"shift":true,"groups":1},"input_mixin_pre_film":{"active":false,"shift":true,"groups":1},"input_mixin_post_film":{"active":false,"shift":true,"groups":1},"activation_pre_film":{"active":false,"shift":true,"groups":1},"activation_post_film":{"active":false,"shift":true,"groups":1},"layer1x1_post_film":{"active":false,"shift":true,"groups":1},"head1x1_post_film":{"active":false,"shift":true,"groups":1},"gating_mode":["none","none","none","none","none","none","none","none","none","none","none","none","none","none","none","none","none","none","none","none","none","none","none"],"secondary_activation":[null,null,null,null,null,null,null,null,null,null,null,null,null,null,null,null,null,null,null,null,null,null,null],"slimmable":null}],"head":null,"head_scale":0.004277285347471545},"weights":[-0.48825207352638245,-0.14676259458065033,0.6650805473327637,0.48073267936706543,-0.7384438514709473,-0.3112173080444336,0.39291802048683167,0.9934034943580627,-0.14995260536670685,-0.0741543248295784,-0.07075517624616623,0.07113932818174362,0.194406196475029,0.10196490585803986,-0.030920254066586494,-0.03724444657564163,-0.023031773045659065,-0.00484922481700778,-0.000005270590463624103,0.05099055916070938,0.1511479765176773,0.15956738591194153,0.13577990233898163,-0.052982229739427567,-0.12185391038656235,-0.15843042731285095,0.04610959812998772,0.1759413182735443,0.0791710615158081,-0.07265321165323257,-0.15610350668430328,-0.10741008818149567,-0.1473298966884613,-0.09132016450166702,-0.06936201453208923,0.08070798218250275,0.18619953095912933,0.11545424908399582,-0.07455331087112427,-0.07193649560213089,-0.05762544646859169,0.03415030241012573,0.08925174921751022,0.14574414491653442,0.0748867318034172,0.08849433064460754,0.09323848783969879,-0.09786586463451385,-0.11276721954345703,-0.15300169587135315,0.19934511184692383,0.058774642646312714,0.13906821608543396,0.05387888848781586,-0.13423435389995575,-0.15270723402500153,0.005678389221429825,0.003738345578312874,0.043187614530324936,-0.0696798712015152,-0.10329202562570572,-0.027155961841344833,-0.01950276643037796,-0.004163806326687336,0.013022671453654766,-0.009631247259676456,-0.01756836101412773,0.005151106510311365,0.13311797380447388,0.03013479709625244,-0.11961435526609421,0.021621422842144966,0.05594488978385925,-0.04376384615898132,0.00804990530014038,0.03528651222586632,-0.007607548497617245,0.07952473312616348,0.1415446698665619,-0.01879078522324562,-0.06912241876125336,0.12921170890331268,0.006645503453910351,0.041173044592142105,-0.08438930660486221,0.011382861994206905,-0.07639693468809128,0.05015112832188606,-0.010095755569636822,-0.03481917083263397,-0.05637631192803383,-0.017593789845705032,0.12119120359420776,0.034628696739673615,0.012986299581825733,0.07843732833862305,0.13337069749832153,0.027712775394320488,0.007528232876211405,-0.0847933441400528,-0.07577010989189148,-0.014946349896490574,0.16510120034217834,0.09318079799413681,-0.12993048131465912,-0.1037522703409195,0.04310145601630211,0.04535122215747833,-0.028137922286987305,0.058730144053697586,-0.084986612200737,-0.1049070954322815,-0.04896419495344162,-0.02447386085987091,0.013883048668503761,0.11351080983877182,0.23048725724220276,0.030314095318317413,0.08735217899084091,-0.1015797033905983,0.011279711499810219,-0.10739059001207352,0.26421865820884705,0.021419215947389603,-0.058347225189208984,0.06683582067489624,0.036451876163482666,-0.06210815906524658,-0.08903743326663971,-0.24114465713500977,0.029722250998020172,-0.10585355013608932,0.08767680078744888,0.05341889336705208,-0.17290541529655457,-0.1039198711514473,-0.08301002532243729,-0.011704347096383572,-0.03881720080971718,0.03142464905977249,0.20002098381519318,0.09644568711519241,-0.0024976374115794897,-0.035131026059389114,-0.131646990776062,-0.20004186034202576,0.2467879056930542,0.20584851503372192,0.06949092447757721,-0.07628636062145233,-0.027695858851075172,-0.13155706226825714,-0.0003399824781809002,-0.00031249120365828276,-0.00033904920564964414,-0.00032207390177063644,-0.000281290034763515,-0.00027625085203908384,-0.00010712546645663679,-0.0000990471089608036,-0.00010704566375352442,-0.0001016262176563032,-0.00008910613541956991,-0.00008720003825146705,0.00045301069621928036,0.0004153685295023024,0.00045176837011240423,0.0004292739031370729,0.00037404688191600144,0.0003675252664834261,0.0003339465765748173,0.0003068037622142583,0.000333078030962497,0.0003163866058457643,0.00027637486346066,0.00027134656556881964,-0.0004985377308912575,-0.0004565821145661175,-0.0004970310837961733,-0.0004722091543953866,-0.0004106451233383268,-0.00040349308983422816,-0.00022174394689500332,-0.00020436753402464092,-0.00022126069234218448,-0.00021022527653258294,-0.0001841072808019817,-0.00018060005095321685,0.00027616461738944054,0.00025409116642549634,0.0002754784363787621,0.0002617114223539829,0.00022881968470755965,0.00022449632524512708,0.0006564187351614237,0.0005994908278807998,0.0006537684239447117,0.0006206513498909771,0.0005367660778574646,0.0005281120538711548,-0.16378070414066315,-0.07540705800056458,-0.04654445871710777,0.012989549897611141,0.028099864721298218,0.1804991215467453,-0.045120321214199066,-0.023747354745864868,-0.007214559707790613,0.003092716448009014,0.00710085965692997,0.04871901497244835,0.23216643929481506,0.10195169597864151,0.0682751014828682,-0.01695350930094719,-0.0443735234439373,-0.2534938156604767,0.17224206030368805,0.078659288585186,0.049158692359924316,-0.013054313138127327,-0.030172891914844513,-0.19118717312812805,-0.26447629928588867,-0.11594913899898529,-0.07872025668621063,0.01882338710129261,0.05009856075048447,0.28273823857307434,-0.10238617658615112,-0.049659233540296555,-0.025179333984851837,0.008314917795360088,0.015597568824887276,0.11355425417423248,0.1352885663509369,0.06344792246818542,0.036712367087602615,-0.010741263628005981,-0.02237069606781006,-0.15055055916309357,0.35065963864326477,0.14730335772037506,0.10560193657875061,-0.019913803786039352,-0.07836247980594635,-0.36657583713531494,0.00003392186772543937,0.00004281812289264053,0.00009867401968222111,0.00015633193834219128,0.0001561530225444585,0.00016832163964863867,0.000011005658961948939,0.000014281826224760152,0.00003109405952272937,0.00004814403291675262,0.00004835631625610404,0.00005138913184055127,-0.00004177424852969125,-0.000051577288104454055,-0.0001271621003979817,-0.0002058378013316542,-0.00020460189261939377,-0.0002232952683698386,-0.000033629126846790314,-0.00004197235466563143,-0.00009678793867351487,-0.00015341260586865246,-0.0001530440931674093,-0.00016516237519681454,0.000043528190872166306,0.00005337593029253185,0.00013721868162974715,0.00022476592857856303,0.00022273107606451958,0.00024465046590194106,0.000023262518880073912,0.000029689115763176233,0.0000654409232083708,0.00010201061377301812,0.00010222553828498349,0.00010928411938948557,-0.000028561211365740746,-0.000036234887375030667,-0.00008130712376441807,-0.00012758918455801904,-0.00012758257798850536,-0.00013685021258424968,-0.000049172482249559835,-0.00005742398934671655,-0.00016980427608359605,-0.0002890569157898426,-0.00028410673257894814,-0.00031919474713504314,0.00022603690740652382,0.00019211445760447532,0.0001621832197997719,0.00010830259270733222,0.0000641375154373236,0.00006010741708450951,0.00006562234193552285,0.00005554308881983161,0.000046247361751738936,0.000029462884413078427,0.000015630646885256283,0.000013795075574307702,-0.00031440448947250843,-0.0002682756748981774,-0.00022832573449704796,-0.00015636846364941448,-0.00009707311983220279,-0.00009225938265444711,-0.0002239909372292459,-0.00019052594143431634,-0.0001611763727851212,-0.00010827415098901838,-0.00006492697866633534,-0.00006094441778259352,0.00035186781315132976,0.000300760060781613,0.00025685346918180585,0.00017755519365891814,0.00011197618732694536,0.00010691848729038611,0.00014157900295685977,0.00011988262122031301,0.00010055370512418449,0.00006550869147758931,0.00003690043740789406,0.0000338458594342228,-0.00018069568614009768,-0.00015337746299337596,-0.0001291263324674219,-0.00008551905193598941,-0.00004971127418684773,-0.00004617625745595433,-0.00048309058183804154,-0.000414602312957868,-0.00035699631553143263,-0.00025200407253578305,-0.00016464375948999077,-0.00015861212159506977,-0.04139329865574837,-0.00033078668639063835,0.08688811957836151,-0.0418899804353714,0.015323823317885399,0.028203073889017105,0.010421780869364738,0.04241795465350151,0.008317160420119762,0.017358841374516487,0.0058998423628509045,-0.07283474504947662,-0.009788993746042252,-0.0676918476819992,0.026409706100821495,-0.03189273551106453,-0.09187787026166916,0.021089652553200722,-0.08988729119300842,0.09136882424354553,-0.07901652902364731,-0.11775275319814682,-0.09012360125780106,0.06962153315544128,0.09690415859222412,0.0025526774115860462,-0.0226944237947464,-0.025138825178146362,0.041447706520557404,-0.11552949994802475,0.11587592959403992,-0.08982494473457336,-0.05529583618044853,-0.036320239305496216,0.036777056753635406,0.015098768286406994,0.03308608755469322,-0.08722278475761414,-0.0069325887598097324,0.021624036133289337,-0.004870714154094458,0.16013331711292267,-0.07643739134073257,-0.08106741309165955,0.07829588651657104,-0.08405187726020813,0.005347780883312225,0.04299220070242882,0.2233991175889969,0.22459492087364197,0.3592049479484558,-0.010746764950454235,-0.11475534737110138,-0.01781540736556053,-0.007088151760399342,0.4989456832408905,-0.3060739040374756,0.11762216687202454,-0.21845176815986633,0.0005314457230269909,-0.40105384588241577,-0.0003203728119842708,-0.00015915922995191067,-0.45841243863105774,0.03193281218409538,0.10022345185279846,0.23295465111732483,-0.00003691119127324782,-0.164018452167511,0.000363363535143435,0.00011651332897599787,-0.09501134604215622,0.2595107853412628,-0.27724793553352356,0.25972408056259155,0.00007885399099905044,0.1123395562171936,0.00014805597311351448,0.0000018985564338436234,0.1565341055393219,0.06789617240428925,0.29503652453422546,0.4148428738117218,0.0002748493570834398,0.5473325848579407,0.0019058354664593935,-0.00003388984259800054,-0.30105793476104736,0.3320831060409546,-0.04592950642108917,0.06988515704870224,-0.00011860961967613548,-0.41111618280410767,0.0003843338927254081,0.00010884214862016961,-0.019545521587133408,0.18022169172763824,-0.12144191563129425,0.027251072227954865,0.0000014066649782762397,0.5330526828765869,0.0001630908955121413,9.125500355366967e-8,0.3811021149158478,0.4544626772403717,-0.06077267602086067,0.4951450824737549,0.00025045766960829496,-0.28761744499206543,0.0000718901792424731,0.0000272350571322022,-0.09699207544326782,-0.19451077282428741,-0.04372873902320862,0.010108818300068378,-0.00007377287693088874,0.20241409540176392,0.0003115705621894449,-0.00007765324698993936,-0.4136493504047394,-0.2059195637702942,0.027721494436264038,0.2734839618206024,0.0001966805721167475,0.22702473402023315,-0.001606368343345821,-0.00005667651566909626,-0.4837226867675781,-0.23874443769454956,0.20607300102710724,-0.1663244068622589,-0.031146660447120667,-0.207752525806427,-0.15735864639282227,-0.053031086921691895,0.11591087281703949,0.0013329334324225783,0.0018345107091590762,0.0018261452205479145,0.0017115161754190922,0.0016984245739877224,0.0013082049554213881,-0.004780124872922897,-0.0038458637427538633,-0.00396573543548584,-0.004238188732415438,-0.004554316867142916,-0.005219684448093176,-0.0011063306592404842,-0.0004567917494568974,-0.0008308175601996481,-0.0011416657362133265,-0.0012258222559466958,-0.0006526295910589397,-0.000881480926182121,-0.0007917380426079035,-0.0005589991342276335,-0.0005330658750608563,-0.000497387140057981,-0.00018611963605508208,0.0006469533545896411,0.0013721437426283956,0.0008849184378050268,0.0006852204678580165,0.00019094152958132327,-0.0010171037865802646,0.00004799512680619955,0.0005342180957086384,0.00016647616575937718,0.00010231939086224884,-0.0000975134753389284,-0.0005474151694215834,0.0018458139384165406,0.0016051485436037183,0.001546377083286643,0.0015419323462992907,0.0016752495430409908,0.0023020990192890167,-0.0007557332282885909,-0.0008286767988465726,-0.0008662643376737833,-0.0009441790753044188,-0.0007370831444859505,0.0004415454459376633,-0.07793476432561874,-0.021504318341612816,-0.0631043016910553,-0.22358733415603638,-0.07549913972616196,-0.26098886132240295,0.04436041787266731,0.01983724720776081,0.11966858059167862,0.16031982004642487,0.29199469089508057,-0.09199728816747665,-0.32855483889579773,-0.28885844349861145,-0.12173329293727875,0.029496721923351288,-0.057467903941869736,0.21325691044330597,-0.15849237143993378,-0.18537092208862305,0.03553259000182152,0.03433217853307724,0.16026091575622559,0.49389269948005676,0.09210559725761414,0.22098685801029205,0.11182259768247604,-0.0481935478746891,-0.047245804220438004,-0.4161083698272705,-0.31513872742652893,-0.016846923157572746,0.046004824340343475,-0.17805145680904388,0.18426582217216492,-0.2929028272628784,-0.4245900511741638,-0.23200027644634247,-0.12307331711053848,-0.020753419026732445,-0.019283616915345192,0.2665308117866516,-0.18760189414024353,-0.22323064506053925,-0.15243729948997498,-0.15231046080589294,0.09045597165822983,0.4199918210506439,0.014640524052083492,0.08812057971954346,-0.08039844036102295,0.0015561779728159308,-0.038430750370025635,0.05204012989997864,-0.06486426293849945,0.09413549304008484,-0.08160006254911423,0.1142197698354721,-0.11398488283157349,-0.044724203646183014,0.0028341785073280334,-0.01689944416284561,-0.1361892819404602,0.011702061630785465,0.07030638307332993,-0.22973346710205078,-0.0019182170508429408,0.13262541592121124,-0.06983847916126251,0.10168029367923737,-0.0537744015455246,-0.005732327233999968,-0.032626718282699585,-0.07313761860132217,0.04688145965337753,-0.042095962911844254,-0.2869536280632019,0.059251174330711365,-0.10351493209600449,0.14108160138130188,-0.5113421678543091,0.2854265570640564,-0.5932952165603638,0.08820008486509323,0.05395737290382385,-0.01545767579227686,-0.05914308875799179,-0.007901599630713463,0.1376332938671112,-0.1967545449733734,0.008116142824292183,0.08309335261583328,0.00047848187386989594,-0.02625867910683155,0.06541094183921814,-0.18009105324745178,0.014285541139543056,0.024702278897166252,0.019062994047999382,0.01993539370596409,0.002678573364391923,-0.021183408796787262,-0.010038238018751144,0.0005754834273830056,-0.012207446619868279,0.00624131178483367,-0.024837946519255638,-0.04607847332954407,0.0890827551484108,0.04074151813983917,-0.009315110743045807,0.009232575073838234,-0.01301651168614626,0.018646011129021645,0.021413529291749,0.03437023609876633,0.01811118982732296,-0.011306636035442352,-0.020216483622789383,-0.006488622631877661,-0.049100108444690704,-0.03377144783735275,-0.025046249851584435,0.02889786660671234,-0.005533517338335514,-0.05348013713955879,0.03253075107932091,0.05636240914463997,0.02367475815117359,0.0385524220764637,-0.01169248204678297,-0.0811113566160202,0.04051997512578964,0.00876415241509676,-0.008110999129712582,-0.012470516376197338,0.0023528209421783686,0.034801460802555084,0.08492307364940643,0.04103069007396698,0.003698343876749277,-0.009084568358957767,0.0032892809249460697,0.049420952796936035,-0.007590781431645155,-0.005390160717070103,-0.0029242620803415775,-0.0032906390260905027,0.0014392317971214652,-0.0046446495689451694,-0.0004452289722394198,0.0025634358171373606,0.009973608888685703,0.00827434379607439,0.01593393087387085,0.0047868601977825165,0.001853402005508542,0.00440905150026083,0.014121918939054012,0.008968825452029705,0.007359772454947233,-0.006310890428721905,0.005911422893404961,0.0036102826707065105,-0.002559978747740388,-0.004618387203663588,-0.011143628507852554,-0.0070214709267020226,-0.008447806350886822,-0.003869911190122366,0.012209183536469936,0.011301661841571331,0.02919863909482956,0.011672313325107098,-0.003563307225704193,0.0009893309324979782,0.012169701047241688,0.0036917112302035093,0.016451187431812286,0.00010203260171692818,0.0037423616740852594,0.003066341858357191,0.0007320298464037478,-0.001773057272657752,-0.008417296223342419,-0.006042018067091703,0.006817251909524202,0.006590339355170727,0.005216353572905064,0.0018125508213415742,-0.008920203894376755,-0.008330922573804855,-0.0278185922652483,-0.0014653140679001808,-0.10439720004796982,-0.13276705145835876,-0.27646178007125854,-0.1319868266582489,-0.018387163057923317,-0.0336289145052433,-0.07784444838762283,0.06636252999305725,-0.18440020084381104,0.07069750875234604,-0.1305561661720276,0.01718856394290924,-0.21858026087284088,-0.1290735900402069,0.06863342225551605,0.306810587644577,-0.23992489278316498,0.0032355773728340864,-0.06196313723921776,0.03269607573747635,-0.060570865869522095,0.3146716058254242,0.05091178044676781,-0.03830629214644432,0.10219263285398483,0.19871461391448975,-0.16884365677833557,-0.12537811696529388,-0.19377601146697998,0.12403734028339386,-0.09825325012207031,0.08499132841825485,-0.6091640591621399,0.1847183257341385,-0.1071215569972992,-0.1981319636106491,-0.06317175924777985,-0.1757117211818695,-0.005036577582359314,0.1207427978515625,-0.23513340950012207,-0.15891976654529572,-0.031886205077171326,-0.2129622846841812,0.1581708788871765,0.10996662080287933,0.09872280061244965,0.1424824297428131,0.17467430233955383,0.10518673807382584,0.12203595042228699,0.001864089397713542,-0.12048239260911942,-0.16959908604621887,-0.14346876740455627,-0.09789921343326569,-0.08313893526792526,-0.27201583981513977,-0.6216113567352295,-0.18373732268810272,-0.11173626780509949,-0.08508250117301941,-0.008139981888234615,0.36960434913635254,-0.03827676177024841,-0.05449819564819336,0.06393256038427353,0.11862554401159286,0.014554047025740147,0.1346435695886612,0.08157190680503845,0.16921256482601166,0.14328926801681519,0.10865531116724014,0.0761682465672493,-0.46667689085006714,-0.39538082480430603,0.08654560148715973,0.1724289357662201,0.1494346559047699,0.1874716877937317,-0.36604833602905273,-0.27072373032569885,-0.07520120590925217,-0.11494504660367966,-0.07071597874164581,0.06119225174188614,0.516680121421814,-0.2565329074859619,-0.10872470587491989,-0.09729419648647308,-0.13878662884235382,-0.07011908292770386,0.5161998867988586,-0.021606873720884323,0.03615543991327286,0.08067494630813599,-0.05619456619024277,-0.10409706830978394,0.038366980850696564,-0.06949467957019806,-0.05492449924349785,-0.01343065220862627,-0.06012961268424988,-0.07147613167762756,-0.041622307151556015,-0.1786690503358841,-0.087307870388031,-0.03130803629755974,0.09297788888216019,0.12811784446239471,0.15354570746421814,-0.1362982541322708,-0.146902933716774,-0.051886122673749924,0.08505605906248093,0.09279881417751312,0.05468026176095009,0.21007010340690613,0.16810297966003418,0.16735631227493286,-0.14318811893463135,-0.20624122023582458,-0.13368162512779236,-0.16350649297237396,-0.09935452789068222,0.09437280893325806,-0.0987948626279831,-0.15793290734291077,-0.013415065594017506,-0.11752916872501373,-0.022308435291051865,-0.08480042964220047,0.06948027014732361,0.17698951065540314,0.11802418529987335,-0.14930316805839539,-0.13317503035068512,-0.15264198184013367,0.11989229917526245,0.24526023864746094,0.20332637429237366,-0.019711626693606377,0.13696758449077606,0.09441103041172028,-0.03154946118593216,-0.00007500001083826646,0.19762635231018066,-0.24919170141220093,-0.10152070224285126,0.00036137699498794973,0.746462881565094,0.2865545451641083,0.042225196957588196,-0.006662426982074976,0.6780553460121155,0.6578091382980347,-0.1010584831237793,-0.0035993061028420925,0.06823965162038803,-0.06346500664949417,-0.05347256734967232,0.002715872600674629,0.15840637683868408,0.24440176784992218,0.30426841974258423,-0.0004309176292736083,-0.46601399779319763,0.16979818046092987,-0.03830120339989662,0.0052563827484846115,0.17263536155223846,0.6358395218849182,0.1571539044380188,0.001596366404555738,0.14007268846035004,-0.28168004751205444,-0.06067736819386482,-0.0015022037550807,-0.047056879848241806,-0.3249850869178772,0.1823302060365677,-0.0011419153306633234,0.23451276123523712,0.4519824981689453,0.06557048112154007,-0.005359312519431114,0.11242743581533432,-0.5513970851898193,-0.2653605341911316,-0.00029138222453184426,-0.20619355142116547,0.1418478637933731,-0.01851649209856987,0.004313941113650799,0.02741352841258049,0.5051544308662415,0.09087437391281128,0.008088641799986362,-0.028111552819609642,0.055514898151159286,0.061539944261312485,0.005280765704810619,0.04622511565685272,-0.7657238841056824,-0.2415369153022766,0.005139163229614496,0.5833814740180969,0.036604829132556915,0.018027592450380325,0.008335127495229244,0.40554511547088623,-0.3566749095916748,-0.3165420591831207,-0.00007569324952783063,0.20816433429718018,0.12915152311325073,0.026646357029676437,0.0035330727696418762,0.3049737215042114,-0.33017924427986145,-0.06443453580141068,-0.047845736145973206,-0.03011852502822876,0.11014494299888611,-0.16047236323356628,0.10037481039762497,-0.17110487818717957,-0.13972195982933044,-0.1651965081691742,0.21054284274578094,0.20390021800994873,0.045056793838739395,0.10452983528375626,0.16872824728488922,0.22527150809764862,0.01021538209170103,0.05074237287044525,0.016448676586151123,-0.06887861341238022,-0.08122791349887848,-0.012238462455570698,0.30835968255996704,0.08390684425830841,-0.012144992128014565,-0.07882687449455261,0.0021786021534353495,-0.05730957165360451,-0.045948754996061325,-0.130022332072258,-0.057987336069345474,-0.0674075335264206,-0.0880015641450882,-0.08398251980543137,-0.00026497020735405385,0.02867301180958748,0.09213749319314957,0.054066941142082214,0.03381693735718727,-0.04204776883125305,0.07723066210746765,-0.09566483646631241,0.05796688795089722,-0.009248669259250164,-0.02186240255832672,-0.16917406022548676,0.101091168820858,0.0054685380309820175,-0.09466042369604111,0.0765233263373375,0.036254432052373886,0.026913439854979515,0.17703135311603546,0.11530479788780212,-0.08231569081544876,-0.017445605248212814,-0.0076590972021222115,0.07952875643968582,-0.029698966071009636,0.21576747298240662,0.17923974990844727,0.22416280210018158,-0.07828252017498016,0.033791158348321915,-0.09240090101957321,0.050131771713495255,0.25930255651474,0.05430304631590843,0.02854350209236145,-0.06219562888145447,0.022765465080738068,-0.13111332058906555,0.02114049531519413,-0.044657252728939056,0.036050669848918915,0.07395560294389725,0.022230343893170357,-0.16284598410129547,-0.19113732874393463,-0.09033443033695221,-0.027942966669797897,0.13736394047737122,-0.016879180446267128,0.13678209483623505,0.1233842596411705,0.07893141359090805,0.06475869566202164,-0.19224241375923157,0.09446299076080322,-0.052278291434049606,-0.10033639520406723,0.005299756769090891,0.15244200825691223,-0.0791194960474968,0.1235058605670929,0.17920561134815216,0.21950331330299377,0.02666151337325573,-0.19477583467960358,0.18020227551460266,-0.0052664391696453094,0.014650387689471245,0.09976163506507874,-0.020704584196209908,-0.0425751730799675,0.20809072256088257,-0.09459123015403748,-0.09761092066764832,-0.0015394362853839993,0.1456717848777771,0.011349308304488659,-0.11245028674602509,0.017291294410824776,0.02791052870452404,0.030340520665049553,-0.10106965154409409,-0.0881459191441536,-0.39856311678886414,0.25228622555732727,0.1377614438533783,0.1797323226928711,-0.16794443130493164,-0.24232923984527588,-0.07847585529088974,-0.02171090617775917,0.05412447080016136,-0.021663416177034378,-0.1709788590669632,-0.01851477101445198,0.21280650794506073,-0.12925903499126434,0.013363877311348915,0.17225685715675354,0.24662235379219055,0.08461286127567291,-0.029389917850494385,0.05173509195446968,0.20349256694316864,0.12445987015962601,-0.011848547495901585,-0.05215023458003998,0.6675990223884583,-0.07695561647415161,0.0733414962887764,0.1866564303636551,0.056162573397159576,0.02655802108347416,0.03842294216156006,0.21314120292663574,0.12713421881198883,0.07284501940011978,-0.16561906039714813,-0.09840013831853867,-0.12526944279670715,0.0008803404052741826,-0.04928084462881088,-0.011544011533260345,0.03417918086051941,0.025840863585472107,-0.043824706226587296,0.04038215056061745,-0.07394672930240631,0.02506163902580738,0.01712776906788349,-0.004697110969573259,-0.005615126341581345,0.15386465191841125,0.21876677870750427,0.14503377676010132,0.11038713902235031,-0.10244862735271454,-0.4378555417060852,0.07403963059186935,0.15756593644618988,0.10154327005147934,0.03373214229941368,-0.020834241062402725,-0.3937683403491974,-0.15570609271526337,-0.2347898781299591,-0.19315095245838165,-0.008234946057200432,0.001515198266133666,0.5224217176437378,-0.024849096313118935,0.04511570557951927,0.11181951314210892,-0.15947286784648895,-0.07323598116636276,0.17210069298744202,0.05996059998869896,0.17752639949321747,0.26409345865249634,0.09541109204292297,0.045746516436338425,-0.8698087930679321,0.09456148743629456,0.17828166484832764,0.25401046872138977,0.2022777795791626,0.028705637902021408,-0.5693950653076172,0.05424220487475395,0.023789972066879272,0.13190403580665588,0.16737011075019836,0.2762010097503662,0.25245577096939087,-0.12420321255922318,-0.07193239033222198,-0.11851882934570312,-0.0996747836470604,-0.05701739713549614,-0.008617264218628407,0.19047006964683533,0.1543292999267578,0.1870991736650467,0.040060434490442276,-0.07018966972827911,-0.18659763038158417,-0.030849071219563484,0.1321360021829605,0.08175278455018997,-0.12500272691249847,-0.16355109214782715,-0.439994215965271,-0.2063169628381729,-0.22978083789348602,-0.10625787079334259,0.019247034564614296,0.2504279315471649,0.48625248670578003,0.20729239284992218,0.23188741505146027,0.23995253443717957,0.12472039461135864,0.16694380342960358,0.17732876539230347,0.0070790634490549564,-0.029399434104561806,0.03781983628869057,0.14344975352287292,0.11015072464942932,0.01715913973748684,0.14090238511562347,0.21226026117801666,0.2817755937576294,0.10920243710279465,-0.03260565921664238,-0.14876492321491241,-0.004124353639781475,-0.09675289690494537,0.08195925503969193,-0.1729477345943451,-0.11434853821992874,0.0626433715224266,0.07727887481451035,0.16493438184261322,0.22294119000434875,-0.013771386817097664,0.07015390694141388,0.3633698523044586,0.2081599086523056,0.2612936794757843,0.27466461062431335,0.23337560892105103,-0.11848113685846329,-0.5590689182281494,0.18894974887371063,0.14463384449481964,0.39715543389320374,0.11172709614038467,0.13493195176124573,-0.27817395329475403,-0.15243253111839294,-0.16711629927158356,-0.125343456864357,-0.2171887308359146,0.05692100524902344,0.4731822609901428,-0.08853039145469666,-0.016727132722735405,0.06858543306589127,0.010230179876089096,-0.11156545579433441,0.030869342386722565,-0.02192089892923832,0.2854020297527313,0.40799885988235474,0.03410407155752182,0.1222701147198677,-0.5431291460990906,0.12427858263254166,0.32687538862228394,0.2512275278568268,0.12204430997371674,0.10328499972820282,-0.45414993166923523,-0.09974260628223419,0.12712113559246063,0.030670296400785446,-0.08236563950777054,-0.05553566664457321,-0.057148005813360214,-0.053752247244119644,-0.010521745309233665,-0.04442410543560982,-0.1030813455581665,-0.14793255925178528,0.1680215299129486,-0.10688018053770065,0.027551403269171715,0.006441858597099781,-0.049301959574222565,0.11622834950685501,0.055097565054893494,0.03130454197525978,-0.14112426340579987,-0.13324712216854095,-0.10147005319595337,0.23387686908245087,-0.15968595445156097,0.1821480691432953,0.06657128781080246,0.07554186135530472,-0.16940554976463318,-0.19492508471012115,0.2027967870235443,-0.1548849195241928,-0.17463111877441406,-0.20548881590366364,-0.19358807802200317,-0.21054451167583466,-0.09770649671554565,-0.031793396919965744,-0.04521619528532028,0.04779613018035889,0.05188344791531563,0.26361018419265747,-0.05893072485923767,0.02046998031437397,-0.02454287000000477,0.010076642967760563,-0.031387463212013245,0.08396317809820175,0.027136560529470444,-0.021405259147286415,-0.03177153319120407,0.010441204532980919,-0.052058394998311996,0.03300289064645767,-0.08638826012611389,-0.06052330881357193,-0.03554879128932953,0.04423711076378822,0.18873505294322968,0.016278542578220367,-0.18631455302238464,-0.09261253476142883,-0.13250507414340973,-0.26661416888237,0.018212908878922462,0.1466362327337265,0.28034093976020813,0.1557706743478775,-0.17710590362548828,-0.15144893527030945,0.0005246690125204623,0.08703897148370743,0.3026669919490814,0.148461252450943,0.2441924661397934,0.05709261819720268,0.2156849354505539,0.02801976166665554,-0.35855305194854736,-0.02161436527967453,-0.16759443283081055,-0.2540017068386078,-0.18339578807353973,-0.039627593010663986,-0.1775897741317749,-0.0040989532135427,-0.10034608095884323,-0.23699426651000977,-0.07530365139245987,-0.10226871073246002,0.3364162743091583,-0.15729065239429474,-0.1770433634519577,-0.1398967057466507,-0.09658361226320267,0.13399650156497955,0.30246293544769287,-0.26649919152259827,-0.27061328291893005,-0.15370577573776245,-0.11354035884141922,-0.3569284677505493,0.05069317668676376,0.2401599884033203,-0.011408818885684013,0.04080038517713547,0.2102159857749939,-0.14968302845954895,-0.2832842767238617,-0.391232967376709,-1.0042301416397095,0.24969688057899475,0.4077044427394867,0.0280256699770689,0.24966028332710266,0.6366333365440369,0.0031697340309619904,0.20110930502414703,0.09201965481042862,-0.053722601383924484,0.10274352878332138,0.03521125391125679,-0.24125578999519348,0.4430183172225952,0.26428914070129395,-0.8158023953437805,-0.3042660653591156,-0.32992830872535706,0.276791512966156,-0.029254715889692307,0.15480095148086548,0.4219174087047577,0.11541053652763367,0.5458493232727051,-0.04121723771095276,0.1583206206560135,0.32695016264915466,0.35527944564819336,-0.04503486678004265,0.2867256700992584,0.6506866216659546,0.2685331404209137,-0.6470161080360413,-0.0975983738899231,-0.25900062918663025,-0.19765952229499817,-0.30023708939552307,0.0035990308970212936,-0.2358553409576416,0.21678343415260315,0.5297036170959473,-0.3533623218536377,-0.3012544810771942,0.39126020669937134,0.27455800771713257,-0.2449312061071396,-0.5625696778297424,-0.3226090371608734,0.3285885453224182,0.04522458463907242,0.16913774609565735,0.37853994965553284,0.3013722002506256,-0.2477109134197235,0.5457137227058411,0.20237451791763306,-0.6273473501205444,-0.13156750798225403,0.22742818295955658,0.23043936491012573,-0.10204403102397919,-0.35170164704322815,0.41427505016326904,-0.2272106409072876,-0.5155165195465088,-0.028902674093842506,0.22717668116092682,0.06920391321182251,0.09159429371356964,-0.14548683166503906,0.13708795607089996,0.08941926062107086,-0.009886208921670914,0.12093973904848099,0.08528316020965576,0.13838538527488708,0.06930793076753616,0.11751940846443176,0.07951948046684265,-0.04411778599023819,-0.1221325471997261,-0.01720602437853813,0.3190058171749115,0.10027189552783966,0.21056577563285828,-0.13602431118488312,0.06108616665005684,-0.027625950053334236,-0.12170439958572388,0.01952941343188286,0.08924034982919693,0.048290397971868515,-0.026603247970342636,-0.07214822620153427,-0.06449190527200699,-0.2698259949684143,-0.14292196929454803,-0.10064604133367538,-0.021450547501444817,0.0012365083675831556,-0.033277932554483414,0.057702481746673584,-0.25760945677757263,-0.20952661335468292,-0.18408457934856415,-0.06987684220075607,-0.09040820598602295,0.08015456795692444,-0.1316668689250946,0.20088288187980652,0.1510525792837143,-0.052522361278533936,0.0175541490316391,0.07881834357976913,-0.30113640427589417,-0.1118316501379013,-0.03223215416073799,0.024500539526343346,-0.042092494666576385,0.02156333439052105,0.054137587547302246,0.09759130328893661,0.03092583641409874,0.0015752764884382486,-0.06817410886287689,-0.11361782997846603,-0.004023929592221975,0.11946795880794525,-0.23047538101673126,0.061346884816884995,0.07886338979005814,0.11707112193107605,0.06909245252609253,0.48098695278167725,-0.1261991262435913,-0.03322407603263855,-0.13133513927459717,0.02668168395757675,-0.2597425580024719,-0.2591313421726227,0.27545633912086487,-0.008453864604234695,-0.09466803073883057,-0.04084715619683266,0.06568289548158646,0.02900070883333683,0.5752643346786499,0.0529668889939785,0.07290094345808029,-0.07850830256938934,0.21602825820446014,0.21556933224201202,-0.5567090511322021,0.013030032627284527,0.07331164181232452,0.2199482023715973,-0.16811105608940125,0.04993214085698128,-0.22291597723960876,0.028080862015485764,0.12011308968067169,0.01646982505917549,-0.10366152226924896,-0.14013607800006866,0.6364251971244812,-0.04220094159245491,-0.04693905636668205,-0.02149317041039467,0.002177826128900051,-0.06594165414571762,0.3599708080291748,0.06074417382478714,-0.013664480298757553,0.1648414582014084,0.23099157214164734,0.0583503320813179,0.11727837473154068,-0.002999652875587344,-0.10729621350765228,-0.07035884261131287,-0.2893202602863312,-0.055890683084726334,-0.0771084576845169,0.03448674827814102,-0.002908859634771943,0.04939555004239082,0.0769866332411766,-0.4114621877670288,0.20434144139289856,-0.028324471786618233,-0.27178657054901123,-0.10475792735815048,-0.18895375728607178,-0.12732923030853271,-0.0641976147890091,-0.017358984798192978,-0.0015191403217613697,0.052095625549554825,0.08389685302972794,0.18446289002895355,-0.013407221995294094,-0.10506412386894226,0.05910409986972809,-0.05046219378709793,-0.025511639192700386,0.4193095862865448,-0.19816622138023376,-0.16966217756271362,-0.04788941517472267,0.015163333155214787,-0.24951227009296417,-0.3301751911640167,-0.05329826474189758,0.1378968507051468,0.0006604400696232915,0.024305546656250954,-0.09961078315973282,-0.13126687705516815,0.11693045496940613,0.07942681014537811,-0.039304301142692566,0.06375667452812195,0.3098766803741455,0.15588262677192688,-0.004711289890110493,0.09600873291492462,0.07652920484542847,-0.09320591390132904,-0.12195739150047302,0.0768444836139679,0.3269882798194885,-0.06214870139956474,-0.17284634709358215,0.09015040844678879,-0.23810844123363495,-0.008402069099247456,0.44282713532447815,-0.07645414769649506,-0.22708256542682648,-0.10690780729055405,0.171499565243721,0.024197885766625404,0.5766336917877197,0.03596556931734085,0.0512399822473526,-0.10005401074886322,0.12175274640321732,0.2670964300632477,-0.6890876889228821,0.09302669763565063,0.11290701478719711,0.2289702445268631,-0.25453099608421326,-0.11668018996715546,-0.41368281841278076,-0.04551002010703087,0.10889258980751038,-0.048510875552892685,-0.18186697363853455,-0.10616042464971542,0.6146183609962463,0.01035565696656704,-0.0310727059841156,0.006728898733854294,-0.0491618774831295,-0.10929333418607712,0.4409393072128296,0.029232315719127655,-0.14907823503017426,-0.04077089950442314,0.0517754927277565,0.23270119726657867,-0.13342911005020142,-0.052243512123823166,-0.0017150925705209374,-0.012937682680785656,0.16863395273685455,0.5868991017341614,-0.009478077292442322,-0.026072150096297264,-0.010972201824188232,0.25865089893341064,0.03927009925246239,-0.37312743067741394,-0.29448530077934265,0.07970093935728073,0.1500992327928543,-0.09760159999132156,0.11016038805246353,0.19869433343410492,-0.05851044878363609,-0.024564584717154503,0.09806319326162338,-0.01084140408784151,0.02663666568696499,0.11120498180389404,-0.028817877173423767,-0.028383681550621986,-0.012367047369480133,-0.086843341588974,-0.14431975781917572,-0.20828084647655487,0.07174400240182877,-0.049899689853191376,0.14732955396175385,0.0955665186047554,0.09532315284013748,0.13597999513149261,0.20591776072978973,0.07373496145009995,-0.014863377436995506,0.004394697491079569,-0.07525854557752609,-0.13673502206802368,-0.05387610197067261,0.007237063255161047,-0.054696593433618546,-0.10102616250514984,-0.15621067583560944,-0.2807617783546448,0.022791432216763496,-0.004119489807635546,-0.08965877443552017,0.2306550294160843,-0.005849204957485199,-0.3498457968235016,0.1383090764284134,-0.006565815303474665,0.011747726239264011,-0.040882259607315063,0.04721227288246155,0.2853385806083679,-0.19132177531719208,0.04859443008899689,0.1127278283238411,-0.07509128004312515,-0.15850719809532166,0.0323810875415802,-0.15460555255413055,-0.021351980045437813,0.1197013184428215,0.07737553864717484,-0.20047977566719055,-0.23606814444065094,0.48960497975349426,0.0634245052933693,0.10320401936769485,-0.080026775598526,0.13059476017951965,0.07622219622135162,0.11549568176269531,-0.02254747599363327,-0.042735788971185684,-0.0037778543774038553,-0.11007975786924362,-0.16875913739204407,-0.35075142979621887,0.008176029659807682,0.16190698742866516,-0.018896330147981644,0.1466289758682251,0.2549838423728943,-0.1994810253381729,0.05511665344238281,0.02901441976428032,-0.11591938883066177,-0.03619786351919174,-0.3210587799549103,-0.015379361808300018,-0.15102601051330566,0.005722240544855595,-0.06349101662635803,-0.17518819868564606,0.017230980098247528,-0.1307787001132965,0.08113072067499161,-0.061651114374399185,-0.014154719188809395,-0.08167761564254761,-0.1331205815076828,-0.057012010365724564,-0.0004732420202344656,-0.031071001663804054,0.0422922782599926,0.12565523386001587,0.3286021947860718,-0.32342883944511414,-0.002889626193791628,-0.0902480036020279,-0.06467314809560776,-0.002812863327562809,-0.32984307408332825,0.0009883673628792167,-0.02071319706737995,0.03956311196088791,0.06575476378202438,-0.03658183664083481,0.1108710840344429,0.2925316095352173,0.06800385564565659,-0.050521690398454666,-0.05383231118321419,0.1519368439912796,-0.030415639281272888,-0.25801846385002136,-0.04978598281741142,0.09715008735656738,0.05042075365781784,0.060340460389852524,0.02731439098715782,-0.187632754445076,-0.00804892834275961,0.06424061954021454,-0.04722447320818901,0.11869420111179352,0.08027723431587219,-0.03582638502120972,-0.0827518031001091,-0.04241499304771423,0.23681455850601196,0.27059850096702576,0.07396628707647324,0.16184329986572266,0.007310525514185429,0.05019598454236984,-0.3070000112056732,-0.09977011382579803,0.23317784070968628,-0.08223851770162582,-0.08166561275720596,0.03160325437784195,-0.00672276271507144,-0.18605461716651917,-0.5887052416801453,0.476997435092926,0.1278088539838791,-0.022249877452850342,0.21186958253383636,0.07138340920209885,-0.004162940196692944,-0.13034947216510773,0.07609836012125015,-0.05808023363351822,0.04438791051506996,-0.027372226119041443,0.23351754248142242,-0.1718338131904602,0.2214542031288147,0.013686494901776314,0.1515631377696991,-0.07830099761486053,-0.13783757388591766,0.17727093398571014,-0.13134638965129852,-0.09223206341266632,-0.06808150559663773,-0.05230480059981346,0.2169462889432907,0.2368432879447937,-0.2383885532617569,0.18762773275375366,0.05795612186193466,-0.09757784008979797,0.14634685218334198,0.16211821138858795,0.001196076162159443,-0.07300307601690292,0.013905469328165054,0.2058115154504776,0.3662656545639038,-0.34659141302108765,0.6433345675468445,0.06295912712812424,-0.21674397587776184,0.5488770604133606,0.16032801568508148,0.37086033821105957,-0.452039510011673,-0.48654478788375854,0.26644957065582275,-0.0627577155828476,0.21249963343143463,-0.13998542726039886,-0.22556114196777344,0.16454356908798218,0.27623799443244934,-0.282299280166626,-0.10226032882928848,-0.28008130192756653,-0.05040813237428665,-0.25831156969070435,-0.08644811064004898,0.5978419184684753,-0.029943076893687248,-0.7020683288574219,0.4141831398010254,-0.3136143982410431,0.17812277376651764,0.18723125755786896,-0.07085803896188736,0.12545190751552582,0.23790617287158966,-0.27367329597473145,-0.07191852480173111,-0.5016984939575195,-0.08292396366596222,-0.008017094805836678,0.3155744671821594,0.08849985897541046,-0.11650431156158447,0.4687770903110504,-0.029394395649433136,0.2153002917766571,0.3578979969024658,0.027380704879760742,0.13583242893218994,-0.5804933309555054,0.19927877187728882,0.6200629472732544,0.30722668766975403,0.10645889490842819,-0.46597495675086975,0.7611212134361267,-0.33576515316963196,0.50371915102005,0.20372283458709717,-0.33891284465789795,0.12886516749858856,-0.0828382596373558,-0.02245250530540943,0.08130330592393875,-0.37757405638694763,0.549665629863739,-0.18021026253700256,-0.549869954586029,0.26421189308166504,-0.40640172362327576,-0.1727234125137329,-0.2195495367050171,0.03915966674685478,-0.015346471220254898,0.12462751567363739,0.12219613045454025,-0.20233184099197388,-0.15650388598442078,-0.21595151722431183,0.19811515510082245,-0.021258143708109856,0.07364492118358612,0.07217942923307419,-0.05829562246799469,-0.11534382402896881,-0.026697803288698196,-0.025379609316587448,-0.0033037588000297546,-0.07072218507528305,-0.0013025262160226703,-0.17225144803524017,-0.22584524750709534,-0.003899040399119258,0.05335695669054985,0.10034313797950745,0.16946983337402344,0.2092895209789276,-0.4081239104270935,-0.0007147571886889637,0.04108528792858124,0.05490349605679512,-0.07831065356731415,-0.26434841752052307,-0.369371622800827,0.0020849083084613085,0.003377562155947089,0.06275197863578796,0.07849269360303879,-0.10915911197662354,0.16276313364505768,-0.018487542867660522,-0.03353801742196083,-0.015460905618965626,-0.10050218552350998,-0.174809530377388,0.1685146540403366,-0.017518851906061172,0.019402658566832542,-0.022877145558595657,-0.05234289914369583,-0.03874341771006584,-0.7526031136512756,0.05665329843759537,-0.028426889330148697,0.03481821343302727,0.15291190147399902,0.35993772745132446,-0.27924206852912903,0.09508709609508514,0.06295803934335709,-0.01496992539614439,0.2574290931224823,-0.1779605597257614,-0.07433480024337769,0.04833156615495682,-0.027756793424487114,-0.12331018596887589,0.004856644663959742,-0.07049871236085892,0.24949465692043304,0.09636177867650986,-0.0388575941324234,0.02190828137099743,0.09244224429130554,-0.11501476168632507,-0.18340741097927094,-0.08167427778244019,-0.16055607795715332,0.06184850633144379,0.04081915691494942,-0.30667150020599365,0.037420500069856644,-0.11774063110351562,-0.07189875841140747,-0.031539950519800186,0.10458197444677353,0.20314843952655792,-0.23793090879917145,-0.02847771905362606,-0.10511449724435806,-0.09504669159650803,-0.15508082509040833,0.2995588481426239,-0.18106183409690857,-0.003079520072788,0.0759752094745636,0.05475812405347824,0.00036698777694255114,-0.08978312462568283,-0.09354089945554733,-0.021768741309642792,0.08407997339963913,0.041726622730493546,0.08668143302202225,-0.16293396055698395,-0.06782997399568558,0.07370145618915558,-0.004397654440253973,-0.053127631545066833,0.02763865701854229,0.19221115112304688,0.12251710146665573,-0.04326900839805603,0.02880609966814518,0.05352124944329262,-0.06383565068244934,-0.013983295299112797,-0.05746613070368767,-0.04375113546848297,0.02852853387594223,0.012649048119783401,-0.030259031802415848,0.09094498306512833,0.2914198338985443,0.04499882459640503,-0.08786924183368683,-0.006284328643232584,-0.11906488984823227,0.036231156438589096,-0.05015513300895691,-0.041846178472042084,-0.06886719912290573,-0.014255467802286148,-0.10624735802412033,0.07965268194675446,0.06508565694093704,0.005953860469162464,0.12236985564231873,0.06690237671136856,0.08110969513654709,0.08547613024711609,0.17538799345493317,0.03940408676862717,-0.006132151000201702,-0.01867484860122204,-0.029687343165278435,0.08710942417383194,0.29375001788139343,-0.06167956814169884,-0.05182790011167526,-0.02894425392150879,0.032612450420856476,-0.2028340846300125,0.12769851088523865,0.010124638676643372,-0.10392418503761292,-0.1280587613582611,-0.27242133021354675,-0.20305711030960083,0.3032521903514862,0.09889759868383408,0.047045785933732986,-0.009338589385151863,-0.05471555143594742,0.014616121537983418,0.4288766384124756,-0.174974724650383,-0.13751327991485596,-0.21002906560897827,-0.2748934328556061,-0.225046768784523,0.13208749890327454,-0.08438350260257721,-0.06084060296416283,0.04858388751745224,-0.0051447125151753426,0.058050576597452164,0.35287201404571533,-0.14553692936897278,-0.05179945379495621,-0.12696947157382965,-0.09370571374893188,0.08024991303682327,-0.12457927316427231,0.1125003769993782,0.12439796328544617,0.12256192415952682,0.07253795862197876,0.13337089121341705,-0.37651482224464417,0.06864266842603683,-0.08656997233629227,0.00772765651345253,0.009549285285174847,0.028769804164767265,0.31840306520462036,-0.03744477778673172,0.0990917980670929,-0.04177621006965637,0.03648402914404869,0.02097303792834282,0.11903724819421768,0.06309770792722702,0.05485918000340462,-0.046462252736091614,-0.10620331019163132,0.12005995959043503,-0.2012331485748291,0.0191709753125906,0.03386319428682327,0.018538963049650192,-0.05121499300003052,0.257315069437027,-0.2663968801498413,0.05215728282928467,0.034996457397937775,-0.03718387708067894,0.036139633506536484,-0.17736320197582245,-0.06952491402626038,0.014610856771469116,-0.035479772835969925,0.01893411949276924,-0.036510780453681946,0.18505212664604187,0.06338531523942947,0.028640031814575195,-0.03421930968761444,-0.01140047237277031,-0.013331444934010506,0.17191193997859955,-0.5246270298957825,0.04496501386165619,0.02556518092751503,-0.015497184358537197,0.04559532552957535,0.07859130948781967,0.7309553623199463,-0.02140667848289013,0.004451313987374306,0.019359195604920387,-0.055173736065626144,-0.04700323939323425,0.0643443837761879,-0.005221153609454632,-0.03384818136692047,-0.035027120262384415,0.07005220651626587,-0.18611657619476318,-0.26304006576538086,-0.1645532250404358,0.01178840920329094,0.013580041006207466,0.10604187846183777,0.4392993450164795,-0.25170257687568665,-0.07930109649896622,0.007623367011547089,-0.05017576739192009,0.1792319416999817,0.18739768862724304,0.07626350224018097,0.00048684250214137137,0.13940271735191345,0.23086947202682495,0.1848323941230774,0.1158786341547966,-0.11287165433168411,0.017223859205842018,0.04502271115779877,0.07466884702444077,-0.016762875020503998,0.03667382895946503,0.09738587588071823,0.01511094905436039,0.00799847673624754,0.08048591017723083,0.11086618155241013,-0.11438737064599991,-0.139256089925766,-0.08827298879623413,-0.13848288357257843,-0.08444653451442719,-0.11711620539426804,-0.35313740372657776,-0.012568636797368526,-0.058793481439352036,0.007574183400720358,-0.04016508907079697,0.033975597470998764,0.0752352848649025,0.0032536257058382034,0.13243010640144348,-0.031122127547860146,0.03166523203253746,0.012284168042242527,0.10445597767829895,-0.04291112720966339,0.10055448114871979,0.0009814022341743112,-0.02570415660738945,0.03979327529668808,0.23244638741016388,0.5341377854347229,-0.06819137185811996,0.04019588604569435,-0.08241301774978638,0.08549205958843231,-0.1184426099061966,-0.10478713363409042,-0.040447257459163666,-0.09356054663658142,-0.1244177371263504,-0.02526702918112278,-0.14293809235095978,-0.1779390424489975,0.029259774833917618,-0.08400029689073563,-0.05245869979262352,-0.12028230726718903,0.06715992093086243,0.013099339790642262,-0.03896481916308403,-0.04572917893528938,-0.14374449849128723,-0.03668203949928284,0.17164194583892822,-0.07780444622039795,-0.023781584575772285,0.045405276119709015,-0.024487147107720375,0.11879897862672806,-0.13231676816940308,-0.18412327766418457,0.0015581841580569744,-0.012351670302450657,0.01230225432664156,0.02416386641561985,0.0347520150244236,-0.04779735580086708,0.013607600703835487,0.06498732417821884,0.06316403299570084,-0.06598743796348572,-0.27023983001708984,-0.0004439121694304049,0.03117675893008709,0.02466556616127491,0.03803197294473648,-0.02646717242896557,0.21509070694446564,-0.1262960284948349,-0.007468609604984522,-0.02049376256763935,-0.08244301378726959,-0.03722555935382843,-0.3694724142551422,-0.18779167532920837,0.02543334662914276,0.053051382303237915,0.11142756789922714,0.16972550749778748,0.2525397539138794,-0.09175930917263031,0.029464373365044594,0.0803101509809494,-0.0005807446432299912,-0.12191591411828995,-0.011917429976165295,-0.2621174454689026,0.035313915461301804,0.003665007883682847,0.0057176887057721615,-0.009281628765165806,0.108321912586689,0.21955083310604095,0.010155233554542065,0.006848494987934828,-0.031169874593615532,-0.04671267792582512,-0.11135316640138626,0.4924907088279724,0.00891941785812378,0.015048841014504433,-0.014821586199104786,0.00927735771983862,0.10699944943189621,-0.0759197548031807,0.012844191864132881,-0.06719175726175308,0.012433468364179134,0.02054767683148384,-0.04030990228056908,-0.11789312958717346,0.059277378022670746,-0.134704127907753,-0.2926141619682312,0.03147347271442413,-0.12215592712163925,0.07893328368663788,-0.09094315022230148,-0.1545376479625702,-0.2957212030887604,0.09328117966651917,0.002028422662988305,0.024967845529317856,0.023049168288707733,0.14970718324184418,-0.23310109972953796,-0.3311413824558258,-0.01009097509086132,0.4446059763431549,-0.3577093183994293,-0.3227066397666931,0.4435098171234131,0.48873579502105713,-0.4987976551055908,0.1289980262517929,-0.30549558997154236,-0.2401697039604187,0.12192857265472412,-0.12636476755142212,-0.11236975342035294,-0.24308380484580994,0.2629643678665161,0.16687121987342834,0.05027354508638382,-0.2704158425331116,-0.307234525680542,0.2904607951641083,0.5589202046394348,-0.15263576805591583,0.22042842209339142,0.06202640384435654,0.02571391873061657,-0.08630364388227463,-0.0838824212551117,0.3621417284011841,-0.048799723386764526,-0.14989228546619415,0.1459384560585022,-0.07081757485866547,-0.15827441215515137,0.05050738900899887,0.20128841698169708,-0.0700317844748497,0.3035276532173157,0.07316256314516068,0.05223473906517029,0.046626269817352295,0.2429037243127823,0.09896599501371384,-0.18763405084609985,0.4432871341705322,0.19703474640846252,0.07145126909017563,0.14765478670597076,-0.33008381724357605,-0.0357622355222702,0.22256234288215637,-0.34047600626945496,-0.1142214760184288,0.02978607453405857,0.138465017080307,0.02192479744553566,0.33424070477485657,-0.5518670082092285,-0.023717721924185753,-0.23614047467708588,-0.12553822994232178,0.15492944419384003,0.20627620816230774,0.04449720308184624,0.06787651032209396,-0.2576614022254944,0.13912411034107208,-0.1959727555513382,0.008517985232174397,0.026321297511458397,0.15305261313915253,0.00035729119554162025,0.07870972901582718,-0.13733381032943726,-0.06946326792240143,-0.10014011710882187,-0.03980225697159767,-0.019791379570961,0.010676108300685883,-0.022221451625227928,0.03200380131602287,-0.05790344625711441,0.039944909512996674,0.3493765592575073,0.06911905109882355,-0.041755110025405884,0.11247860640287399,-0.02460782788693905,0.07042977958917618,-0.30437666177749634,-0.016963321715593338,-0.022267432883381844,-0.0563027448952198,0.038552023470401764,0.042182374745607376,-0.04122012108564377,-0.02117420732975006,-0.07313753664493561,-0.10759188234806061,-0.12067478895187378,-0.10454250127077103,0.11017617583274841,-0.025290096178650856,-0.03770807385444641,0.02020573429763317,-0.012788597494363785,0.05325711891055107,-0.2635614275932312,0.06530310213565826,-0.003114390652626753,-0.06752330809831619,-0.019748369231820107,-0.011102188378572464,-0.05577448382973671,-0.07226468622684479,-0.007365829311311245,-0.018605787307024002,-0.010798504576086998,-0.07656724005937576,0.18464471399784088,0.04034225642681122,0.15463922917842865,0.17420995235443115,0.04601535201072693,0.05192255973815918,-0.027147548273205757,-0.22279095649719238,-0.037405479699373245,-0.004624246619641781,-0.1406918466091156,-0.14078514277935028,-0.0023247706703841686,0.08628400415182114,-0.03982428088784218,-0.024002406746149063,-0.04515845701098442,0.030336225405335426,-0.029564183205366135,0.1545913964509964,0.016194863244891167,0.054138459265232086,-0.08823829889297485,0.017450090497732162,0.04949469864368439,0.11222159117460251,0.001510098110884428,0.004139346536248922,-0.023300742730498314,-0.10207255929708481,-0.028819158673286438,-0.12504197657108307,0.008477695286273956,0.03601376712322235,-0.08125750720500946,0.13676118850708008,0.041744332760572433,0.11601973325014114,0.06452075392007828,0.03386668115854263,0.07010088860988617,0.06152070686221123,0.10625962167978287,-0.06712223589420319,0.01688816212117672,0.01462196372449398,0.0526326447725296,-0.10166671127080917,-0.04792456328868866,-0.09843672811985016,0.033063024282455444,0.02574770525097847,0.03888898715376854,0.05454675108194351,0.005328603554517031,-0.19539543986320496,0.02687654457986355,0.04743102565407753,0.03210397809743881,-0.006504309829324484,0.007095076143741608,-0.15236639976501465,-0.03373352438211441,-0.00849389098584652,-0.042098402976989746,-0.04165641590952873,-0.025532256811857224,-0.37509530782699585,0.04493594542145729,0.05870459973812103,0.0937892347574234,-0.0026648882776498795,-0.08596375584602356,-0.17509031295776367,0.04424411803483963,0.028890671208500862,0.07518318295478821,-0.025161780416965485,0.0254394318908453,0.09551907330751419,-0.013587597757577896,0.03824879974126816,-0.029946930706501007,-0.03501152992248535,-0.04080655053257942,0.013810480944812298,-0.052524060010910034,-0.0037405970506370068,0.014160792343318462,0.020330097526311874,0.030510570853948593,-0.33835723996162415,0.009827823378145695,-0.02973002754151821,-0.011477002874016762,0.0017143110744655132,0.06308338046073914,-0.08110782504081726,0.12765821814537048,0.10977692902088165,0.19094915688037872,0.23452451825141907,0.3058178424835205,0.3310892879962921,-0.02044450305402279,0.031503770500421524,-0.018071692436933517,0.08615420758724213,0.03635015711188316,-0.3579728901386261,-0.02712029218673706,0.01667138747870922,-0.03014425002038479,-0.02598254755139351,-0.0034728306345641613,-0.16093948483467102,-0.04794060066342354,-0.05874155834317207,-0.01731085777282715,-0.03521723300218582,-0.11072986572980881,-0.31352460384368896,-0.0373714342713356,-0.07031740993261337,-0.02273557335138321,0.030359957367181778,0.055662982165813446,0.11163591593503952,-0.024690305814146996,-0.05082470551133156,-0.006738082505762577,-0.046776313334703445,-0.018775053322315216,0.4790589213371277,0.0675797089934349,0.07878556102514267,0.07274270802736282,0.07381293922662735,0.1029801219701767,-0.22373364865779877,-0.008461137302219868,-0.04845227301120758,0.005579332355409861,0.003921055234968662,0.03558167442679405,-0.393204003572464,-0.06359625607728958,-0.011187932454049587,0.12518751621246338,0.04592331498861313,0.004402722232043743,-0.009468276053667068,-0.055840667337179184,-0.034300073981285095,0.0676807090640068,0.15898624062538147,-0.17667922377586365,-0.050436779856681824,0.01584603264927864,-0.0008078955579549074,0.0482269711792469,-0.15136753022670746,0.12897469103336334,0.07070928812026978,0.045172177255153656,0.06856409460306168,0.05436403304338455,0.046534813940525055,-0.10304826498031616,-0.04689474403858185,-0.0065414393320679665,-0.047728102654218674,0.073885478079319,0.07219644635915756,-0.11330384016036987,-0.067818783223629,-0.09497244656085968,0.021180573850870132,0.01021374762058258,-0.118251733481884,0.09314347803592682,-0.05979994311928749,-0.0039898729883134365,0.03918115422129631,0.0020743177738040686,0.15442274510860443,0.08411043137311935,-0.13004566729068756,0.005331230815500021,-0.03632203862071037,-0.0028181509114801884,-0.13320723176002502,-0.03073180839419365,0.07338055223226547,0.028916245326399803,-0.001773119787685573,0.009068576619029045,-0.07153496891260147,-0.1322663277387619,-0.14293132722377777,0.010725896805524826,-0.05584700033068657,0.008002622053027153,-0.051774024963378906,-0.03391916677355766,0.29276007413864136,-0.015921836718916893,0.004578326363116503,0.017705094069242477,0.0143380556255579,-0.09749361127614975,-0.050392791628837585,0.022415118291974068,0.08596012741327286,0.041754208505153656,-0.020653920248150826,0.05277801305055618,0.16934522986412048,-0.017414461821317673,0.013234642334282398,0.026717202737927437,-0.0062757437117397785,0.07008892297744751,-0.029551727697253227,-0.0049146502278745174,-0.00783189944922924,-0.021845374256372452,-0.07505321502685547,-0.08159558475017548,-0.29511547088623047,-0.03069952502846718,-0.05305619165301323,-0.017185023054480553,-0.052068401128053665,-0.1109490916132927,0.4365544021129608,0.006978428456932306,0.014353265054523945,0.00513389240950346,0.038579199463129044,0.10158216208219528,0.13255593180656433,-0.01856832019984722,-0.035034991800785065,-0.07435676455497742,0.008030149154365063,-0.00668241735547781,-0.20937621593475342,0.015118223614990711,0.04970667138695717,-0.041416529566049576,-0.015834307298064232,0.008579789660871029,0.028045054525136948,0.005763244349509478,0.04769641533493996,-0.029839595779776573,-0.006728107109665871,0.06070633977651596,-0.1169753149151802,0.045059289783239365,-0.0057321954518556595,-0.002575859660282731,0.03067188523709774,0.09172802418470383,-0.010239209048449993,0.07567723840475082,-0.017042873427271843,0.01003956701606512,-0.05822615697979927,0.01759357750415802,-0.3327447474002838,0.012122076004743576,0.05471941456198692,-0.022834034636616707,0.08501044660806656,0.03441419452428818,-0.1646469235420227,-0.05378197506070137,-0.007978706620633602,0.0031233876943588257,0.00415781419724226,0.02258117124438286,0.21252408623695374,0.015111309476196766,-0.026647215709090233,0.015885530039668083,-0.00941797811537981,-0.0915142223238945,0.062319982796907425,