{"version":"0.7.0","metadata":{"date":{"year":2026,"month":7,"day":13,"hour":23,"minute":26,"second":37},"loudness":-20.287680043545727,"gain":0.8208941686719977,"name":"red-tone9","modeled_by":"delt","gear_type":"amp","gear_make":"VOX amplug2 metal","gear_model":"VOX amplug2 metal","tone_type":"vox","trainer":"TONE3000"},"architecture":"SlimmableContainer","config":{"submodels":[{"max_value":0.5,"model":{"version":"0.7.0","metadata":{"date":{"year":2026,"month":7,"day":13,"hour":23,"minute":26,"second":36},"loudness":-20.304151906338696,"gain":0.8248269676283048},"architecture":"WaveNet","config":{"layers":[{"input_size":1,"condition_size":1,"head":{"out_channels":1,"kernel_size":16,"bias":true},"channels":3,"kernel_sizes":[6,6,6,6,6,6,6,6,6,6,6,6,6,6,15,15,6,6,6,6,6,6,6],"dilations":[1,3,7,17,41,101,239,1,3,7,17,41,101,239,1,13,1,3,7,17,41,101,239],"activation":[{"type":"LeakyReLU","negative_slope":0.01},{"type":"LeakyReLU","negative_slope":0.01},{"type":"LeakyReLU","negative_slope":0.01},{"type":"LeakyReLU","negative_slope":0.01},{"type":"LeakyReLU","negative_slope":0.01},{"type":"LeakyReLU","negative_slope":0.01},{"type":"LeakyReLU","negative_slope":0.01},{"type":"LeakyReLU","negative_slope":0.01},{"type":"LeakyReLU","negative_slope":0.01},{"type":"LeakyReLU","negative_slope":0.01},{"type":"LeakyReLU","negative_slope":0.01},{"type":"LeakyReLU","negative_slope":0.01},{"type":"LeakyReLU","negative_slope":0.01},{"type":"LeakyReLU","negative_slope":0.01},{"type":"LeakyReLU","negative_slope":0.01},{"type":"LeakyReLU","negative_slope":0.01},{"type":"LeakyReLU","negative_slope":0.01},{"type":"LeakyReLU","negative_slope":0.01},{"type":"LeakyReLU","negative_slope":0.01},{"type":"LeakyReLU","negative_slope":0.01},{"type":"LeakyReLU","negative_slope":0.01},{"type":"LeakyReLU","negative_slope":0.01},{"type":"LeakyReLU","negative_slope":0.01}],"bottleneck":3,"head1x1":{"active":false,"out_channels":1,"groups":1},"layer1x1":{"active":true,"groups":1},"groups_input":1,"groups_input_mixin":1,"conv_pre_film":{"active":false,"shift":true,"groups":1},"conv_post_film":{"active":false,"shift":true,"groups":1},"input_mixin_pre_film":{"active":false,"shift":true,"groups":1},"input_mixin_post_film":{"active":false,"shift":true,"groups":1},"activation_pre_film":{"active":false,"shift":true,"groups":1},"activation_post_film":{"active":false,"shift":true,"groups":1},"layer1x1_post_film":{"active":false,"shift":true,"groups":1},"head1x1_post_film":{"active":false,"shift":true,"groups":1},"gating_mode":["none","none","none","none","none","none","none","none","none","none","none","none","none","none","none","none","none","none","none","none","none","none","none"],"secondary_activation":[null,null,null,null,null,null,null,null,null,null,null,null,null,null,null,null,null,null,null,null,null,null,null],"slimmable":null}],"head":null,"head_scale":0.006916206548720774},"weights":[-0.5646109580993652,0.28976306319236755,-1.0522127151489258,-0.24758099019527435,-0.018014004454016685,-0.07698255032300949,-0.3057842552661896,-0.057326823472976685,-0.021235698834061623,-0.08816827833652496,0.06155945733189583,0.12561753392219543,-0.2635163366794586,-0.44892358779907227,-0.5170131325721741,-0.34669438004493713,0.05230530723929405,-0.08939136564731598,0.010503396391868591,-0.38248494267463684,0.11810288578271866,-0.17239174246788025,-0.09330569207668304,-0.28713494539260864,-0.17681418359279633,0.3878367245197296,0.7121115922927856,-0.04021256044507027,0.0366470143198967,0.1733303964138031,0.2543490529060364,0.2408067137002945,0.20496226847171783,-0.05628683790564537,-0.3497083783149719,-0.09504406154155731,0.13187353312969208,0.30904707312583923,0.6332013607025146,0.15907983481884003,0.14209704101085663,0.14749057590961456,0.1343814581632614,0.05843104422092438,-0.019525030627846718,0.06305448710918427,0.2089466154575348,-0.04496997967362404,0.03966863453388214,0.32085564732551575,0.41821208596229553,0.1330789476633072,0.3132682144641876,0.3116486072540283,0.04774881899356842,0.007254929281771183,-0.06192375347018242,0.4731288254261017,0.31888827681541443,0.16197334229946136,0.33874574303627014,-0.024804579094052315,0.27421924471855164,-0.6102766394615173,0.5113776922225952,0.09264607727527618,0.9800848364830017,0.09815416485071182,-0.5987110137939453,-0.5512371063232422,0.7178617715835571,0.10444648563861847,0.49275267124176025,-0.516474187374115,-0.025087421759963036,0.23170293867588043,0.12533149123191833,0.4951714873313904,0.3665827214717865,0.12507186830043793,-0.2616371214389801,-0.3308095932006836,-0.13429418206214905,0.05064208433032036,-0.19300353527069092,-0.1144278421998024,0.29400792717933655,0.2774202823638916,0.07728483527898788,0.06431633234024048,0.1629728525876999,-0.20498299598693848,-0.5514408946037292,0.12330635637044907,0.2395840287208557,0.0931534543633461,-0.14911839365959167,0.14403493702411652,-0.5768322348594666,-0.17260655760765076,-0.09364417940378189,-0.038865093141794205,0.1138031855225563,-0.019174126908183098,0.4301893413066864,0.2474704086780548,0.330421507358551,0.1905418038368225,0.3380270302295685,0.04856761917471886,-0.5058923363685608,0.2524082660675049,0.38929077982902527,0.09395650774240494,0.19891564548015594,0.04880451038479805,-0.21801479160785675,-0.6028569936752319,0.0696571096777916,-0.20315976440906525,0.10664267092943192,-0.16322529315948486,0.07844501733779907,0.23313191533088684,0.12174394726753235,0.061188746243715286,-0.16388683021068573,0.04327966645359993,-0.4806104004383087,0.3533172905445099,0.13415353000164032,0.27337101101875305,0.7543039321899414,0.7971101999282837,1.8486735820770264,-0.7458757758140564,-0.1638241559267044,-0.6834816932678223,0.1063818708062172,-0.047158367931842804,0.4833943843841553,-0.6683268547058105,-0.25090715289115906,-0.4046633839607239,0.4780130088329315,-0.2095496654510498,0.3061608076095581,0.08881033957004547,0.1294509768486023,0.31156355142593384,0.10405029356479645,-0.0664515495300293,-0.2613527476787567,-0.18290509283542633,-0.32166245579719543,-0.31438514590263367,0.08441190421581268,0.07321644574403763,0.29940804839134216,0.15589657425880432,0.2854955196380615,0.08999568223953247,-0.06514383852481842,-0.11090511828660965,-0.11376746743917465,-0.27166011929512024,-0.2980213761329651,-0.35213136672973633,-0.09367021918296814,0.1539907604455948,0.26617518067359924,0.16708078980445862,0.46656090021133423,0.8719536066055298,-0.09375916421413422,-0.07793315500020981,-0.5110223889350891,-0.14562375843524933,-0.27090203762054443,-0.18254394829273224,0.06596968322992325,0.10798310488462448,-0.01544742751866579,0.20106661319732666,0.2588436007499695,0.014773535542190075,-0.0437731109559536,-0.4038093090057373,-0.3254876136779785,0.4373995065689087,0.4341941773891449,0.39924800395965576,0.5186920762062073,0.10590026527643204,-0.28948554396629333,-0.08887381106615067,-0.20631594955921173,0.0018686378607526422,0.11769384890794754,0.376102477312088,0.21095961332321167,0.04717382416129112,-0.12165965139865875,-0.13412277400493622,-0.31054648756980896,0.14503510296344757,-1.1543234586715698,-0.6884066462516785,0.4284866750240326,-0.30795422196388245,0.1873488426208496,-0.08140238374471664,0.5159522891044617,-0.3285883665084839,0.13809271156787872,0.9739600419998169,0.23492226004600525,-0.0422128364443779,0.35162296891212463,0.01184424851089716,0.12777496874332428,0.17214708030223846,-0.03732883557677269,-0.3644781708717346,-0.2896755337715149,0.2115900218486786,0.3312864899635315,-0.18324266374111176,-0.007387313526123762,0.19579683244228363,0.18980681896209717,0.10819892585277557,-0.051828231662511826,-0.29298192262649536,-0.019594868645071983,0.44062137603759766,-0.33147889375686646,-0.03648637607693672,-0.04338296130299568,-0.08381254971027374,0.0455729179084301,-0.26794347167015076,-0.9969689249992371,-0.1226121261715889,-0.1665746122598648,0.01814643293619156,0.1958089917898178,-0.0872112438082695,0.2468244582414627,0.021804772317409515,-0.045098718255758286,-0.004404774401336908,-0.019795535132288933,0.2750949263572693,-0.6901328563690186,-0.017512567341327667,0.031593430787324905,-0.05802369862794876,-0.19489310681819916,-0.024294372648000717,1.061076283454895,0.06863225996494293,0.1984737664461136,0.24973982572555542,0.02666240558028221,-0.0022477000020444393,0.14245902001857758,0.012231692671775818,0.011049546301364899,0.18530912697315216,0.26040396094322205,-0.00715721445158124,-0.09048588573932648,0.016067776829004288,-0.05877355486154556,-0.23673562705516815,-0.9052690863609314,-0.2183445692062378,-0.9703946709632874,0.18799662590026855,0.4822958707809448,-0.42193716764450073,-0.2737483084201813,0.0923585370182991,-0.21284443140029907,0.05014725401997566,0.38818228244781494,-0.45558539032936096,-0.20785284042358398,-0.4045649766921997,0.38771453499794006,0.053250957280397415,0.05443296208977699,0.0032675182446837425,0.07584960758686066,0.34731751680374146,-0.29814887046813965,0.037332918494939804,0.09589416533708572,0.09197352826595306,0.13114367425441742,0.30084428191185,0.10180406272411346,-0.0445999875664711,-0.015690593048930168,0.08657723665237427,0.18890394270420074,0.005380456801503897,-0.17561596632003784,0.026335235685110092,0.003358737099915743,0.0032329619862139225,-0.11755550652742386,-0.2659322917461395,-1.8633567094802856,0.03396628424525261,-0.0010651593329384923,-0.010591620579361916,-0.21902897953987122,-0.4334487020969391,0.20920276641845703,0.006987227592617273,0.009295755065977573,-0.0020166777539998293,0.07563170790672302,0.20788313448429108,-0.6438372135162354,0.04639400169253349,0.073735311627388,0.04522489011287689,0.2313195765018463,0.03552492707967758,-1.361557126045227,-0.006258189212530851,0.07966014742851257,0.12997598946094513,0.08662276715040207,-0.0813121572136879,0.09076050668954849,-0.09975555539131165,-0.04860161617398262,0.04804648086428642,-0.06677775830030441,0.48623478412628174,-0.4682452976703644,0.04377884045243263,0.033206891268491745,0.15706142783164978,-1.636969804763794,0.7758737206459045,-0.061630986630916595,1.1362873315811157,-0.023534318432211876,-0.6953725218772888,-0.43105781078338623,-0.2495989352464676,0.31201255321502686,-0.18644051253795624,-1.2054057121276855,-0.09869154542684555,-0.09053104370832443,-0.12214220315217972,0.3270266652107239,0.0007787193753756583,-0.07218444347381592,-0.06550723314285278,-0.2447335422039032,0.07592279464006424,-0.8764006495475769,-0.06152252480387688,-0.11374782025814056,-0.17337290942668915,-0.24450275301933289,-0.1727617084980011,-0.19137628376483917,-0.04648824781179428,-0.007900701835751534,-0.0547972247004509,0.014306122437119484,-0.19195406138896942,0.14273515343666077,0.0022554981987923384,0.04693160951137543,0.043269965797662735,0.08270756155252457,-0.12652505934238434,-1.2271090745925903,0.042886584997177124,0.08056540042161942,0.11265933513641357,0.09926646947860718,-0.0798589438199997,0.1020614430308342,0.01674002781510353,-0.0016515159513801336,0.018898876383900642,0.00412055803462863,0.16595415771007538,-0.6899630427360535,-0.03282821923494339,0.04848837852478027,-0.07403123378753662,-0.0626416727900505,-0.3154377043247223,-0.7126280665397644,0.07447536289691925,0.14531993865966797,0.25927817821502686,0.307142972946167,0.16114206612110138,0.2704649865627289,0.06400953978300095,0.06473314762115479,0.18665103614330292,0.21518613398075104,0.40273377299308777,-0.6848243474960327,-0.10410624742507935,0.4075532555580139,0.016815897077322006,-0.6274749040603638,0.06489297747612,-0.468269407749176,0.19052499532699585,-0.26308944821357727,1.0683693885803223,0.26977136731147766,0.20579826831817627,-0.4088793098926544,-0.1494114100933075,-0.4549000561237335,1.048660397529602,-0.29513466358184814,-0.07965973764657974,-0.22308939695358276,-0.07421191036701202,-0.021502062678337097,0.04368400201201439,-0.06306719779968262,-0.06914455443620682,0.23405829071998596,-0.026094358414411545,-0.10579495131969452,-0.057826604694128036,-0.09799636155366898,-0.07941059023141861,-0.39743512868881226,-0.022068163380026817,-0.06784890592098236,-0.08594432473182678,-0.03790703043341637,-0.10885767638683319,0.43093621730804443,0.07471679896116257,0.012127305381000042,0.04901330545544624,0.08358461409807205,0.04561343789100647,-0.44869524240493774,0.017840703949332237,0.009284380823373795,0.0959644764661789,0.022840337827801704,0.12829387187957764,0.4686519205570221,0.0018213634612038732,0.04756711423397064,0.05312572047114372,0.027278801426291466,0.0872182846069336,-0.4593329131603241,-0.019665217027068138,-0.02160828560590744,-0.04363982751965523,-0.06111495941877365,-0.0687885582447052,0.4394870698451996,0.00004513280146056786,0.010798215866088867,0.008013894781470299,0.0055730994790792465,0.01957540772855282,-0.09981255233287811,0.016798488795757294,0.021252308040857315,0.033577755093574524,0.03776741027832031,0.05973060801625252,0.5077768564224243,-0.03349211439490318,-0.09297870099544525,0.3229466378688812,0.4141347110271454,-0.24569480121135712,0.9096335768699646,0.3203110098838806,0.2651221752166748,0.5529638528823853,0.1546797752380371,-0.3349851965904236,-0.11430736631155014,0.11480281502008438,0.37244486808776855,0.2717526853084564,0.36332520842552185,-0.3148367702960968,0.14552685618400574,-0.14638271927833557,0.1012808084487915,0.012345665134489536,-0.1117960661649704,-0.5452379584312439,-0.47321200370788574,-0.016707509756088257,-0.04791120067238808,-0.1580123007297516,-0.19751989841461182,0.11576290428638458,-0.01591186784207821,0.02858087420463562,-0.09267530590295792,0.035238709300756454,0.1815754473209381,-0.09116029739379883,-0.08795031160116196,-0.0742601826786995,0.37964871525764465,-0.1435224860906601,-0.2003653198480606,-0.3392532169818878,-0.42321911454200745,-0.001968034077435732,-0.07434900104999542,-0.15673258900642395,-0.0479380264878273,0.011032111011445522,-0.3427415192127228,-0.3758314549922943,-0.06789238005876541,-0.22145161032676697,0.1717560887336731,0.22300384938716888,0.39059337973594666,0.03913040831685066,0.13460120558738708,0.08646567910909653,0.06930255889892578,-0.21779216825962067,-0.22088374197483063,-0.22041819989681244,0.14132452011108398,0.005708816461265087,-0.12540163099765778,0.04844345524907112,-0.09514462202787399,-0.0647190734744072,-0.12421660870313644,0.01936175674200058,0.2583082318305969,-0.22030948102474213,-0.10529005527496338,0.013780198991298676,-0.10035589337348938,-0.033243075013160706,0.42186209559440613,0.28025203943252563,-0.11554782837629318,0.06740882247686386,0.8746015429496765,-0.07676812261343002,0.5583862662315369,-0.17192977666854858,-0.08650702983140945,-0.03048582747578621,0.3145807683467865,-0.3688972294330597,-0.17996345460414886,-0.2150745987892151,0.20198054611682892,0.39100244641304016,-0.01110974233597517,-0.04822647571563721,0.021487751975655556,0.11213301122188568,1.0591709613800049,0.2356790155172348,0.03095979057252407,0.13908132910728455,-0.018904317170381546,0.08368606865406036,0.06853941828012466,-0.2581555247306824,-0.06329353898763657,-0.11311868578195572,-0.12235341966152191,-0.1031518429517746,0.26036956906318665,-0.3242718577384949,-0.10153781622648239,0.13103753328323364,-0.016540365293622017,0.03293854370713234,0.1776222437620163,-0.1833714246749878,-0.06845760345458984,-0.2045406848192215,-0.18181586265563965,0.061474427580833435,0.04792076721787453,0.3267475366592407,0.16930091381072998,0.15700596570968628,0.12195724993944168,-0.08690039813518524,-0.09054335951805115,-0.3690524697303772,-0.17109158635139465,-0.05547274276614189,-0.06130490079522133,0.3164743185043335,-0.589085578918457,-0.4050915241241455,-0.10368207842111588,0.00720468582585454,-0.17485959827899933,0.16116231679916382,0.5166783332824707,0.07943714410066605,0.1565438061952591,0.13646236062049866,-0.010461029596626759,0.018569570034742355,-0.14592641592025757,0.3103086054325104,0.18488678336143494,-0.0074312142096459866,-0.4551127851009369,0.32693952322006226,0.002043477725237608,-0.23601850867271423,-0.44046449661254883,0.7188887596130371,0.45879384875297546,-0.3184221088886261,-0.6758760809898376,-0.5005995035171509,-0.1636950671672821,0.3165302276611328,0.1786021888256073,0.3010168969631195,-0.15051628649234772,-0.0349382720887661,0.004193033557385206,0.0396459698677063,0.15403038263320923,0.26843002438545227,-1.2853623628616333,-0.0462183803319931,0.08825350552797318,-0.024567781016230583,0.13635843992233276,0.09280019253492355,-0.4366234838962555,0.0642993301153183,0.0777880996465683,0.12478911131620407,-0.02996416576206684,-0.2559630274772644,-0.014989720657467842,-0.2747405469417572,-0.7098347544670105,-0.7778255939483643,-0.6998013257980347,-0.6351791024208069,0.45149075984954834,0.003429933451116085,0.17260555922985077,0.16426263749599457,0.21029256284236908,0.23559725284576416,-0.7685043811798096,-0.0005221555475145578,0.06137240678071976,-0.03406480699777603,-0.14241769909858704,-0.012588218785822392,0.04940909519791603,-0.05349126085639,-0.15235865116119385,0.09829287230968475,0.2557711899280548,0.17395880818367004,0.0586523599922657,0.07381486147642136,-0.08924822509288788,-0.3886723816394806,0.15235380828380585,0.48823782801628113,0.3905069828033447,-0.228414848446846,-0.05184746906161308,0.17658044397830963,0.1558760553598404,0.08551187813282013,-0.023206183686852455,-0.24849332869052887,0.03985005244612694,0.17033693194389343,0.16688016057014465,-0.16258911788463593,0.480349063873291,0.32513895630836487,0.057334527373313904,0.6583566665649414,-0.14416512846946716,0.5469150543212891,-0.16888028383255005,0.5142738223075867,0.16101771593093872,0.10528270155191422,0.11027823388576508,0.25194233655929565,0.272745817899704,-0.009548508562147617,-0.14400827884674072,-0.04411938041448593,0.25626882910728455,-0.0025492259301245213,0.4840220808982849,-0.1655840426683426,-0.061286427080631256,-0.21117442846298218,-0.2636566758155823,-0.3397425413131714,-0.3463129699230194,0.0606231614947319,0.22877974808216095,0.21285411715507507,0.09499768912792206,0.05213356390595436,-0.6705983281135559,0.07128763943910599,0.0430157333612442,0.09435001760721207,0.16351017355918884,0.46239107847213745,0.0013500708155333996,-0.02567868120968342,-0.05924593284726143,-0.022974655032157898,-0.17317187786102295,-0.30358657240867615,-0.4645021855831146,-0.024909846484661102,-0.011946492828428745,-0.0684342309832573,-0.08525145053863525,-0.0888870432972908,-0.6584038734436035,0.07412509620189667,0.09316829591989517,0.02598840929567814,-0.07219696789979935,0.1943073868751526,0.47693952918052673,0.028823764994740486,0.06199752166867256,0.07338130474090576,0.15335428714752197,0.23800578713417053,-0.2846624255180359,-0.05605219677090645,-0.1187993735074997,-0.05206235870718956,-0.11683783680200577,-0.15349708497524261,1.0591434240341187,0.17280395328998566,-0.23564787209033966,0.11680496484041214,0.7952865958213806,0.4705648422241211,-0.6776508688926697,-0.629304826259613,-0.19513802230358124,0.524406909942627,0.2708965241909027,0.963461697101593,0.9334685802459717,0.5488229990005493,-0.4383564293384552,0.34033122658729553,0.2770797610282898,0.07372834533452988,-0.7293820977210999,-0.1037077009677887,-0.05635758116841316,-0.1199040487408638,-0.04992076754570007,-0.17331677675247192,0.8476378917694092,0.08445075154304504,0.1332690417766571,0.1455397754907608,0.15284165740013123,0.3139011561870575,-0.19333826005458832,0.09850703924894333,0.06145070865750313,0.1168176531791687,0.09354303777217865,0.13419002294540405,0.0006490737432613969,-0.054922912269830704,0.0011198637075722218,-0.06197108328342438,-0.07366915047168732,-0.13921219110488892,-0.8359029293060303,0.023739343509078026,0.024847419932484627,0.01924121379852295,0.06093024089932442,0.1568114310503006,-0.2278713434934616,0.0760032907128334,0.011811391450464725,0.09451532363891602,0.0877724215388298,0.12054803222417831,-0.43921542167663574,0.04132767766714096,0.060592204332351685,0.06731418520212173,0.16085751354694366,0.1879480481147766,0.90650874376297,0.009464780800044537,0.027704741805791855,0.029738174751400948,0.005604528356343508,0.03089369647204876,-0.6658280491828918,-0.06919748336076736,-0.09093540161848068,-0.10152868926525116,-0.17303748428821564,-0.27794042229652405,0.6686670780181885,-0.3030509352684021,-0.29911768436431885,0.5807012915611267,-0.20999498665332794,0.19701719284057617,-0.5830038189888,-0.9571664333343506,0.06604922562837601,1.152433156967163,-0.6278009414672852,0.9742600321769714,0.6411904692649841,0.43892067670822144,0.479984313249588,0.44419437646865845,-0.4909692406654358,0.1530672311782837,-0.2638263404369354,-0.006524357013404369,0.008684210479259491,-0.03594953566789627,-0.0014253840781748295,-0.10104288905858994,-0.8924620747566223,-0.041677076369524,-0.03989085182547569,-0.030415592715144157,-0.020163800567388535,0.013164677657186985,-0.08873250335454941,0.04347782954573631,0.025103166699409485,0.08273948729038239,0.04173117130994797,0.20726139843463898,-0.6326218843460083,0.03891592472791672,0.028156165033578873,-0.002033931203186512,0.013792091980576515,0.19793623685836792,-0.6729676127433777,-0.01959589682519436,-0.03719515725970268,-0.06141376495361328,-0.08752994984388351,-0.19536921381950378,-0.3020229935646057,-0.03091300092637539,-0.04798589274287224,0.01460262667387724,-0.02267465367913246,-0.2798941433429718,-0.2823655903339386,0.106386199593544,0.07046239823102951,0.15837471187114716,0.19950301945209503,0.23791319131851196,0.3468332290649414,-0.025069255381822586,-0.03651290386915207,-0.07812102884054184,-0.09665580093860626,-0.09769096225500107,-0.17505766451358795,-0.10865908116102219,-0.0965486392378807,-0.18889176845550537,-0.2540837228298187,-0.2890153229236603,0.15391039848327637,0.17416365444660187,0.25307002663612366,0.3111502230167389,0.44776928424835205,-0.23267285525798798,0.45287445187568665,-0.3151707649230957,0.41560396552085876,0.6591797471046448,0.419577956199646,0.049357589334249496,0.02863910235464573,-0.2995637357234955,-0.8029467463493347,-0.7764822244644165,-0.19919373095035553,-0.6246618628501892,0.405347615480423,-0.025653580203652382,-0.016183393076062202,-0.054801397025585175,-0.07756849378347397,-0.1357583850622177,-0.21194757521152496,0.013677279464900494,-0.0014961404958739877,0.015870792791247368,0.02734733745455742,0.04172010347247124,-1.2909832000732422,0.032989751547575,0.017790626734495163,0.06867248564958572,0.09394335001707077,0.170119047164917,-0.17439180612564087,0.05156203359365463,0.02923586219549179,0.08661951869726181,0.13578391075134277,0.18688975274562836,-0.6433647871017456,-0.06037627533078194,-0.028892891481518745,-0.03992600366473198,-0.08602434396743774,-0.11069993674755096,-0.6040557622909546,-0.0716049000620842,-0.03970891609787941,-0.10823042690753937,-0.16728952527046204,-0.2499140501022339,-0.16196009516716003,-0.004900483414530754,-0.007233004551380873,-0.0027352459728717804,-0.015363963320851326,-0.040032848715782166,-0.034611545503139496,-0.004791862331330776,0.004258860368281603,0.007418145425617695,0.00468329107388854,-0.010988946072757244,-2.2271430492401123,-0.00012589746620506048,0.006881639827042818,0.0009692516177892685,0.010965351946651936,0.03193924203515053,-0.5314165949821472,0.19453178346157074,0.37335067987442017,0.11389950662851334,0.38943150639533997,-0.11240426450967789,0.10114455968141556,-0.21723587810993195,0.05548689514398575,-0.9244083166122437,-0.16590142250061035,0.0973663404583931,1.7316397428512573,-1.0144314765930176,-0.7318732738494873,1.0137782096862793,-0.3034181594848633,-0.34669938683509827,-0.11133439838886261,0.2312045842409134,0.09182815253734589,0.004452549386769533,0.044740960001945496,-0.014531895518302917,0.08512703329324722,0.12801861763000488,0.0003256997442804277,0.04370192438364029,0.032210469245910645,0.09504824876785278,0.13850970566272736,-0.05150439217686653,0.46055153012275696,0.8046367168426514,-0.11300104856491089,-0.06497377902269363,0.035505250096321106,0.015141329728066921,0.046823639422655106,-0.062416091561317444,0.03528016433119774,-0.12058994174003601,-0.07138743251562119,-0.04803040623664856,0.048680663108825684,-0.09461626410484314,0.15260593593120575,-0.07460539042949677,0.12849974632263184,-0.2782171666622162,-0.0731799528002739,-0.020991114899516106,-0.03840694576501846,-0.0032884234096854925,-0.011257624253630638,-0.13214291632175446,-0.08947965502738953,-0.025122810155153275,-0.11968991905450821,-0.164662167429924,-0.008631186559796333,-0.06188040226697922,0.37594902515411377,0.6416694521903992,-0.1498059779405594,-0.0698639526963234,-0.0462430864572525,-0.08150973916053772,-0.012008501216769218,-0.08080094307661057,-0.07186916470527649,0.039449211210012436,-0.15980033576488495,-0.14623326063156128,0.0436602346599102,-0.10392309725284576,0.021274033933877945,0.07569243013858795,-0.07554096728563309,-0.009310835041105747,-0.1448654979467392,0.03959835693240166,0.06825428456068039,-0.15087231993675232,-0.3348963260650635,-0.2871152460575104,-0.32457101345062256,-0.16483107209205627,-0.06382528692483902,-0.12527409195899963,-0.17277713119983673,-0.16195683181285858,-0.14958800375461578,0.006611218675971031,0.09757645428180695,0.27804821729660034,-0.09101060032844543,-0.13230523467063904,-0.003663712879642844,-0.10692039877176285,-0.2040279060602188,-0.09360508620738983,-0.18739165365695953,-0.1938854306936264,-0.30589592456817627,-0.08467885106801987,-0.10982081294059753,0.0814221203327179,0.06963630020618439,-0.21690097451210022,-0.11101014912128448,-0.06368140131235123,-0.24083705246448517,-0.23944397270679474,-0.3722221553325653,0.01630842126905918,-0.2602251172065735,0.005492956843227148,0.1012103259563446,0.0627719834446907,0.01821190118789673,0.19452594220638275,0.08521326631307602,0.08636531978845596,-0.16888724267482758,0.14898745715618134,-0.26729241013526917,-0.1981126070022583,0.01485492940992117,0.1642291247844696,-0.2431492954492569,-0.04637046530842781,-0.1703292280435562,-0.06574685871601105,-0.12715494632720947,0.008285901509225368,-0.20578458905220032,0.1465713381767273,0.14449743926525116,0.10861548781394958,0.06870413571596146,-0.20654986798763275,-0.20599189400672913,-0.23491626977920532,-0.6623268723487854,-0.023089013993740082,0.008626979775726795,0.20388340950012207,0.14793027937412262,0.025186941027641296,-0.009994199499487877,0.025162935256958008,-0.09518685936927795,0.13432708382606506,0.2143908441066742,-0.4474301040172577,0.056440018117427826,-0.22286032140254974,1.5083974599838257,-0.02177034132182598,-0.3582521677017212,0.6390867829322815,-0.35364484786987305,-0.7239030003547668,-0.30901288986206055,-0.48130491375923157,-0.4369896948337555,-0.434790700674057,0.11188042908906937,-0.6111912131309509,-0.6370012760162354,-0.11568421870470047,-0.0020856009796261787,-0.0030281073413789272,0.0005862505058757961,-0.0015511858509853482,-0.061707984656095505,0.0032325750216841698,0.005162891466170549,0.022821076214313507,-0.056578848510980606,-0.06015125662088394,0.06645461916923523,-0.03980239853262901,-0.1822258085012436,-0.3343088626861572,0.2675108015537262,-0.01616261526942253,0.010982084088027477,-0.0024686423130333424,0.00045121641596779227,0.025458291172981262,-0.009290183894336224,0.028203915804624557,0.014338351786136627,0.024688607081770897,0.027264563366770744,0.05376584827899933,0.004807138349860907,-0.003241132013499737,-0.2310587614774704,-0.4378431737422943,-0.006691501475870609,0.013106402941048145,0.00991789624094963,0.015110164880752563,0.07072628289461136,0.037060994654893875,0.008025053888559341,-0.04171179607510567,0.015171896666288376,-0.0544842854142189,-0.06591784209012985,-0.10586289316415787,-0.0021813653875142336,-0.021921172738075256,-0.46115678548812866,-0.049320317804813385,-0.00956788007169962,-0.07035631686449051,-0.0923023670911789,0.04084669053554535,-0.06683021783828735,-0.13116997480392456,-0.175601065158844,-0.04155200719833374,-0.04638349264860153,0.023611104115843773,-0.2114073783159256,0.4433531165122986,-0.25213953852653503,-0.42506110668182373,-0.026243848726153374,-0.04383688420057297,0.003171792021021247,-0.07351817935705185,-0.07867380231618881,0.08378640562295914,-0.03454167768359184,0.04747345298528671,0.12127206474542618,-0.01640991121530533,0.14591409265995026,-0.060783714056015015,0.1210588663816452,-0.18487896025180817,-1.3083288669586182,0.04393085464835167,-0.0037962044589221478,-0.0721098780632019,-0.013760886155068874,0.05886777862906456,-0.16149431467056274,-0.16832216084003448,-0.10089847445487976,-0.19287312030792236,-0.2569427192211151,-0.07769771665334702,-0.2644621729850769,0.11383414268493652,-0.19382575154304504,0.5322461128234863,-0.0015463900053873658,0.0036247584503144026,0.014977272599935532,0.013144178315997124,0.030529160052537918,0.019145851954817772,0.024808427318930626,0.029725579544901848,0.031637176871299744,0.06722935289144516,0.04361100122332573,0.07832630723714828,0.0321916900575161,0.1270025223493576,0.8292506337165833,-0.009305187501013279,-0.010918847285211086,-0.018865834921598434,-0.026034867390990257,-0.04437204822897911,-0.05887817591428757,-0.06281110644340515,-0.04222269356250763,-0.055121567100286484,-0.08000589907169342,-0.1700618714094162,-0.12632426619529724,-0.1099562868475914,-0.12925288081169128,-0.4252348840236664,-0.02954346127808094,-0.02209872007369995,-0.027493279427289963,-0.04429733008146286,-0.06987686455249786,-0.04978406801819801,-0.05668843537569046,-0.06683670729398727,-0.11036467552185059,-0.09288112074136734,-0.1517495959997177,-0.17125698924064636,-0.24671213328838348,-0.1404867023229599,0.8261222839355469,0.5918080806732178,0.20939502120018005,-0.03747377544641495,0.9328026175498962,-0.003421531757339835,1.1182981729507446,-0.473312646150589,-0.02787759155035019,-0.04271775856614113,0.5166397094726562,0.038044434040784836,0.40954717993736267,0.25405290722846985,0.08701959252357483,0.8021795153617859,-1.2493866682052612,-0.5859667062759399,-0.0685841515660286,-0.15799273550510406,-0.10555338859558105,-0.07513295859098434,-0.03709115460515022,-0.04640331119298935,0.2941473126411438,-0.25254693627357483,-0.31740447878837585,-0.14133726060390472,-0.014819834381341934,0.2352292537689209,0.17464858293533325,-0.1318790167570114,-0.04581077769398689,-0.28863659501075745,0.243657186627388,0.37574270367622375,0.444612056016922,0.12795686721801758,-0.15567585825920105,0.10190753638744354,-0.24320311844348907,-0.2261800616979599,-0.36895567178726196,-0.14849406480789185,-0.08727393299341202,0.20790095627307892,-0.45015400648117065,0.1735633760690689,0.17624995112419128,-0.014066057279706001,0.21123665571212769,-0.5782361030578613,-0.20627522468566895,-0.1884055733680725,0.6853792071342468,-0.26300862431526184,0.03544861823320389,-0.007421527989208698,0.21223877370357513,0.27329131960868835,0.11208651959896088,-0.007103513926267624,0.014223886653780937,0.1868477761745453,0.17814010381698608,0.0993395745754242,0.14721238613128662,0.19846981763839722,0.12810657918453217,0.2305174320936203,0.420973539352417,1.3820198774337769,0.9238916039466858,1.7644814252853394,-0.23598501086235046,0.38766488432884216,0.03413091599941254,-0.066351518034935,-0.5940313935279846,-0.5752798914909363,1.0219708681106567,0.4891471564769745,0.2375050038099289,-0.07653991132974625,1.2653712034225464,-1.0901626348495483,-0.36235564947128296,0.8640132546424866,-1.244250774383545,0.6210554838180542,-0.6817453503608704,-0.5068864226341248,-0.3879932463169098,-0.21125337481498718,-0.7464751601219177,-0.8071924448013306,-0.14662416279315948,-0.23233212530612946,-0.10979624092578888,1.0217432975769043,-0.11648962646722794,-0.34522125124931335,1.2203781604766846,-0.024226564913988113,0.13297291100025177,0.43829792737960815,-0.5130376815795898,-0.3883119821548462,-0.3538355529308319,0.022509604692459106,0.00481005571782589,0.22125399112701416,0.37593895196914673,1.000524878501892,-0.8136895895004272,0.005669611040502787,-0.08228132873773575,-0.06220294162631035,-0.21310104429721832,0.30555665493011475,0.34173357486724854,-0.058503683656454086,0.04996258392930031,0.004398170858621597,0.1613825261592865,0.055872585624456406,0.5145460963249207,-0.2849748134613037,-0.05279522016644478,-0.26855796575546265,-0.31704816222190857,-0.1271193027496338,-0.1300613433122635,0.07998628169298172,0.32692593336105347,0.01027192547917366,0.24638696014881134,-0.06332837790250778,0.32592344284057617,0.12755966186523438,-0.25175905227661133,-0.6239795088768005,-0.3807593584060669,-0.44799068570137024,0.15153339505195618,0.6767362356185913,-0.7850897908210754,0.41951972246170044,0.2772808074951172,-0.4830732047557831,0.02159077115356922,-0.04452776163816452,-0.6022231578826904,0.17234444618225098,-0.4680309295654297,-1.2642691135406494,-0.005334361456334591,0.1576775759458542,-0.7614874243736267,-0.7905283570289612,-0.1229356974363327,0.22436799108982086,-0.8543749451637268,-0.11863864958286285,0.0529254786670208,-0.3901025056838989,-0.485704243183136,0.5463806986808777,-0.030406007543206215,-0.2878980040550232,0.3543568253517151,0.04963814839720726,-0.29089394211769104,1.1953063011169434,-0.27604496479034424,-0.27023258805274963,-0.24399927258491516,0.14068345725536346,-1.0184171199798584,0.42452389001846313,-0.5237396359443665,-0.1514338105916977,-0.15238815546035767,-0.09800096601247787,-0.04582160338759422,-0.12504439055919647,-0.19164390861988068,0.16290736198425293,-0.026889417320489883,-0.16617350280284882,-0.08957210183143616,0.4202698767185211,-0.4442640244960785,0.21156874299049377,0.28730958700180054,0.23230962455272675,0.01367693580687046,0.4978518486022949,0.2303764820098877,-0.006812138017266989,-0.2261044979095459,0.059583816677331924,0.08695424348115921,-0.18993248045444489,0.03692338243126869,0.09845267981290817,-0.030682992190122604,0.061939604580402374,0.1324988156557083,-0.14440487325191498,0.06599270552396774,0.15302254259586334,0.1123136579990387,-0.06327865272760391,0.23206399381160736,-0.1823381930589676,0.039033181965351105,0.7200779914855957,0.09614663571119308,0.3807213008403778,0.27878642082214355,-0.13135847449302673,-0.004808331374078989,-0.49412965774536133,0.27414563298225403,-0.18120387196540833,-0.5007376074790955,0.3844117224216461,0.37651416659355164,0.2509364187717438,-0.2869129478931427,-0.41147392988204956,0.2070470005273819,0.37263819575309753,-0.2073906660079956,0.004976571071892977,0.05366405099630356,0.23172864317893982,0.024202626198530197,0.03744782879948616,-0.7614821195602417,-0.04027911648154259,-0.08690131455659866,-0.18536101281642914,-0.09433584660291672,0.2301580011844635,-0.6278025507926941,-0.03749790042638779,-0.10172427445650101,-0.34133583307266235,-0.26616138219833374,-0.5470455884933472,0.2325269877910614,-0.028561769053339958,-0.003547733649611473,-0.0015177830355241895,0.019091930240392685,0.09101386368274689,-0.1985003799200058,-0.09538397938013077,-0.18411603569984436,-0.17482897639274597,-0.21849270164966583,-0.2505975067615509,0.7093737125396729,-0.10385221987962723,-0.23717400431632996,-0.1557707041501999,-0.18116465210914612,-0.1348089575767517,-0.6142796277999878,-0.15736430883407593,-0.1643660068511963,-0.21338053047657013,0.026554007083177567,-0.034721698611974716,0.07787436991930008,0.07034110277891159,0.10560601204633713,0.17750468850135803,0.07049790769815445,-0.1513095200061798,0.08833077549934387,-0.039296336472034454,-0.0888381078839302,0.07446110993623734,-0.21987000107765198,-0.10502774268388748,-0.09264843165874481,0.19901485741138458,-0.12058492004871368,0.30559101700782776,0.32010090351104736,-0.7098252773284912,-0.27772343158721924,0.3721683621406555,0.12231164425611496,-0.20132341980934143,-0.1304122507572174,-1.0216429233551025,-0.040931206196546555,-0.011107894591987133,0.5650988221168518,0.05883696302771568,-0.5662174820899963,-0.2007114291191101,-0.3359440565109253,-0.2918183207511902,-0.17953412234783173,-0.3243867754936218,-0.1541880965232849,-0.13425880670547485,-0.024349438026547432,0.18291953206062317,0.10305371135473251,0.040672581642866135,0.05518403276801109,0.027190957218408585,-0.12562663853168488,-0.1406591832637787,-0.0323420874774456,-0.08298667520284653,-0.07576338946819305,-0.06534060835838318,-0.07988069206476212,-0.06684352457523346,-0.07992365956306458,0.05060999467968941,0.15979643166065216,0.23840896785259247,-0.3437856435775757,0.05615069717168808,0.03753337636590004,-0.09078747034072876,-0.2421928346157074,-0.37835267186164856,0.17778128385543823,-0.01997552253305912,-0.05126749351620674,-0.007385245990008116,0.05354856327176094,0.1685522496700287,-0.3396605849266052,0.05959858372807503,-0.05354883149266243,0.1538623720407486,0.06352254748344421,-0.05611533671617508,0.014286953024566174,0.13442805409431458,-0.19419704377651215,0.07858928292989731,0.11319003999233246,0.027541855350136757,0.22993679344654083,0.12494123727083206,-0.19613142311573029,-0.2550168037414551,0.11458465456962585,-0.5121662020683289,-0.029182543978095055,0.1931152194738388,0.016208937391638756,-0.010658753104507923,-0.020948361605405807,0.0516432486474514,-0.0026715132407844067,0.3577049970626831,0.6668593287467957,0.24555610120296478,0.01650790311396122,-0.799178957939148,0.14873336255550385,-1.027755618095398,0.563420832157135,-0.0665171816945076,-0.21954192221164703,-0.12848693132400513,-0.3495904505252838,0.017231302335858345,0.004123510327190161,0.016482777893543243,0.05386866629123688,0.05949501320719719,-0.047191765159368515,0.017318369820713997,0.021426154300570488,0.035749759525060654,-0.030936792492866516,0.12415093928575516,0.07811993360519409,0.03985795006155968,-0.0413333885371685,-0.039652250707149506,-0.008393185213208199,-0.1186460629105568,-0.01715540885925293,0.045507896691560745,0.12862256169319153,0.20527629554271698,-0.017422063276171684,-0.09710077941417694,-0.3924500048160553,-0.0330999419093132,-0.10442574322223663,-0.141630619764328,0.038062624633312225,0.0004665675514843315,-0.20930340886116028,0.06268302351236343,0.10908956080675125,0.08336548507213593,-0.06702262163162231,-0.02916795201599598,-0.6932342052459717,0.06184575706720352,-0.0643107071518898,-0.13250058889389038,0.09278066456317902,0.5342763662338257,0.6942622661590576,-0.030947048217058182,0.06804825365543365,0.0631643533706665,-0.19762620329856873,-0.43063098192214966,0.08575456589460373,0.06523746252059937,-0.06083429977297783,-0.1342170089483261,0.11450199782848358,0.5314818620681763,-0.3277410566806793,-0.004674907308071852,0.2293720543384552,0.23959597945213318,0.003441963577643037,-0.3931194245815277,0.04290018230676651,-0.01755506359040737,-0.05890115723013878,-0.7374266386032104,0.0018441984429955482,0.15867125988006592,0.09758221358060837,0.008270669728517532,-0.5031096935272217,1.2893104553222656,-0.11918985843658447,0.11704352498054504,-0.03700089454650879,-0.0006112701375968754,0.09833443909883499,-0.0364592969417572,0.14791563153266907,-0.19108247756958008,0.14033518731594086,0.00913864653557539,-0.03317601978778839,0.12126754224300385,-0.15565843880176544,0.10727614164352417,0.0427531935274601,0.008164937607944012,0.00012320470705162734,-0.028100522235035896,0.05800018832087517,-0.03746119514107704,-0.018604138866066933,-0.02427760511636734,-0.008734711445868015,-0.09666699171066284,0.29676878452301025,-0.27911123633384705,-0.4978291690349579,-0.03666789084672928,0.014078190550208092,-0.08630280941724777,0.028055718168616295,-0.016319341957569122,-0.19952458143234253,0.03644750639796257,-0.005516730714589357,0.13625569641590118,-0.07860534638166428,0.23206374049186707,-0.39753803610801697,0.0023282812908291817,-0.009841607883572578,0.05201858654618263,-0.10959570109844208,0.14898928999900818,0.12105810642242432,-0.0039105964824557304,-0.001114223850890994,-0.0012976066209375858,0.03058549202978611,-0.0020380571950227022,0.06381070613861084,-0.01310692634433508,-0.0007277335971593857,-0.04689249023795128,0.015236390754580498,-0.0826432853937149,0.1250094175338745,-0.031344860792160034,0.2520349323749542,0.07961716502904892,0.033345844596624374,-0.29352977871894836,-0.029258880764245987,0.4162098467350006,-0.00858832336962223,0.5327888131141663,0.11612158268690109,0.18631941080093384,-0.07476914674043655,-0.32249006628990173,-0.3899204134941101,-0.36959829926490784,-0.3457287847995758,0.4948616325855255,-0.35605674982070923,0.0432240292429924,0.07428460568189621,0.06688133627176285,0.05395198240876198,0.014204398728907108,-0.079437255859375,-0.17341594398021698,-0.2145601063966751,-0.20757369697093964,-0.17658206820487976,-0.09096240252256393,0.007739837281405926,0.060287702828645706,0.08496836572885513,0.08471933752298355,0.04702791944146156,-0.007392615079879761,0.001783954561688006,-0.014768276363611221,-0.0825084000825882,-0.11472674459218979,-0.11170703172683716,-0.07338058203458786,0.015910116955637932,0.06457420438528061,0.09246491640806198,0.08901768177747726,0.0164625383913517,-0.04460037872195244,-0.08203834295272827,-0.07602491974830627,-0.045313820242881775,-0.010776257142424583,0.012493372894823551,0.04031458497047424,0.10387495905160904,0.14885194599628448,0.18192756175994873,0.18615470826625824,0.15185460448265076,0.12673868238925934,0.11110251396894455,0.08840705454349518,0.04153861850500107,-0.020758043974637985,-0.05501215159893036,-0.05514846369624138,-0.014772052876651287,-0.0759790912270546,0.006916206394131511],"sample_rate":48000}},{"max_value":1,"model":{"version":"0.7.0","metadata":{"date":{"year":2026,"month":7,"day":13,"hour":23,"minute":26,"second":36},"loudness":-20.287680043545727,"gain":0.8208941686719977},"architecture":"WaveNet","config":{"layers":[{"input_size":1,"condition_size":1,"head":{"out_channels":1,"kernel_size":16,"bias":true},"channels":8,"kernel_sizes":[6,6,6,6,6,6,6,6,6,6,6,6,6,6,15,15,6,6,6,6,6,6,6],"dilations":[1,3,7,17,41,101,239,1,3,7,17,41,101,239,1,13,1,3,7,17,41,101,239],"activation":[{"type":"LeakyReLU","negative_slope":0.01},{"type":"LeakyReLU","negative_slope":0.01},{"type":"LeakyReLU","negative_slope":0.01},{"type":"LeakyReLU","negative_slope":0.01},{"type":"LeakyReLU","negative_slope":0.01},{"type":"LeakyReLU","negative_slope":0.01},{"type":"LeakyReLU","negative_slope":0.01},{"type":"LeakyReLU","negative_slope":0.01},{"type":"LeakyReLU","negative_slope":0.01},{"type":"LeakyReLU","negative_slope":0.01},{"type":"LeakyReLU","negative_slope":0.01},{"type":"LeakyReLU","negative_slope":0.01},{"type":"LeakyReLU","negative_slope":0.01},{"type":"LeakyReLU","negative_slope":0.01},{"type":"LeakyReLU","negative_slope":0.01},{"type":"LeakyReLU","negative_slope":0.01},{"type":"LeakyReLU","negative_slope":0.01},{"type":"LeakyReLU","negative_slope":0.01},{"type":"LeakyReLU","negative_slope":0.01},{"type":"LeakyReLU","negative_slope":0.01},{"type":"LeakyReLU","negative_slope":0.01},{"type":"LeakyReLU","negative_slope":0.01},{"type":"LeakyReLU","negative_slope":0.01}],"bottleneck":8,"head1x1":{"active":false,"out_channels":1,"groups":1},"layer1x1":{"active":true,"groups":1},"groups_input":1,"groups_input_mixin":1,"conv_pre_film":{"active":false,"shift":true,"groups":1},"conv_post_film":{"active":false,"shift":true,"groups":1},"input_mixin_pre_film":{"active":false,"shift":true,"groups":1},"input_mixin_post_film":{"active":false,"shift":true,"groups":1},"activation_pre_film":{"active":false,"shift":true,"groups":1},"activation_post_film":{"active":false,"shift":true,"groups":1},"layer1x1_post_film":{"active":false,"shift":true,"groups":1},"head1x1_post_film":{"active":false,"shift":true,"groups":1},"gating_mode":["none","none","none","none","none","none","none","none","none","none","none","none","none","none","none","none","none","none","none","none","none","none","none"],"secondary_activation":[null,null,null,null,null,null,null,null,null,null,null,null,null,null,null,null,null,null,null,null,null,null,null],"slimmable":null}],"head":null,"head_scale":0.006916206548720774},"weights":[-0.4751058518886566,-0.1628270298242569,0.4367249608039856,0.5719226002693176,-0.5809136033058167,-0.388396680355072,0.22554261982440948,0.8194591403007507,-0.1891302913427353,-0.03969964757561684,-0.08006567507982254,0.05089246854186058,0.1878032684326172,0.0844130888581276,-0.038013312965631485,-0.035443950444459915,0.002155838767066598,-0.0016551673179492354,-0.0003286826249677688,0.031236711889505386,0.152682825922966,0.12571337819099426,0.1294454038143158,-0.03638464957475662,-0.07866363227367401,-0.1686425656080246,0.025926697999238968,0.17834417521953583,0.07891111075878143,-0.0565660186111927,-0.1280391961336136,-0.0989900752902031,-0.15676313638687134,-0.050929173827171326,-0.05992978811264038,0.051172737032175064,0.137144073843956,0.09716413915157318,-0.09144563227891922,-0.05389517918229103,-0.06696221232414246,0.015068495646119118,0.0705266147851944,0.17522576451301575,0.0779271200299263,0.06233726814389229,0.1010957658290863,-0.0848185122013092,-0.06239456683397293,-0.1416867971420288,0.21331320703029633,0.0070108999498188496,0.13874122500419617,0.1125192791223526,-0.07039796561002731,-0.14527125656604767,-0.05411631613969803,-0.1500847488641739,-0.1370445042848587,-0.12138985842466354,-0.11844614893198013,0.044543445110321045,-0.05018213391304016,-0.0394052118062973,-0.0315781831741333,0.005887605249881744,0.004857468884438276,0.0522228367626667,0.2381322830915451,0.1955890953540802,0.04733622446656227,0.04795785993337631,0.03869307413697243,-0.14257144927978516,0.0772073045372963,0.20486357808113098,0.18625853955745697,0.1225401982665062,0.15477539598941803,-0.12918996810913086,-0.15642185509204865,0.008978896774351597,-0.19170597195625305,0.0356779508292675,-0.06756623834371567,0.1119048222899437,-0.19171667098999023,-0.04427642002701759,-0.2039276659488678,-0.06865827739238739,-0.05583253875374794,0.056091904640197754,0.22829513251781464,0.18900559842586517,0.200504869222641,0.1280371993780136,0.1573835015296936,-0.028421662747859955,0.08085731416940689,0.05965171381831169,0.11552371829748154,0.002582647604867816,0.16324010491371155,0.012851297855377197,-0.11741309612989426,-0.1320130079984665,0.015717092901468277,0.009173776023089886,-0.05313275754451752,0.08712960034608841,-0.04253131523728371,-0.07746654748916626,-0.035872556269168854,-0.03295062854886055,0.0031990220304578543,0.08706597983837128,0.19867770373821259,0.03549199551343918,0.11640182882547379,-0.07750258594751358,0.017658185213804245,-0.15797920525074005,0.25678765773773193,0.029223991557955742,-0.04145282134413719,0.10407128930091858,0.04139561206102371,-0.1160285621881485,-0.053687646985054016,-0.2663680911064148,0.00529498839750886,-0.1452804058790207,0.09115644544363022,0.10364927351474762,-0.1732397824525833,-0.13395600020885468,-0.12925752997398376,-0.05085568502545357,-0.05566085875034332,0.06395768374204636,0.17988556623458862,0.11526882648468018,0.02886374667286873,0.004784711170941591,-0.1177561953663826,-0.23204486072063446,0.21972081065177917,0.22805148363113403,0.1026153564453125,-0.04606647044420242,-0.023014936596155167,-0.18529103696346283,0.10203728824853897,0.11079930514097214,0.14491061866283417,0.06078393757343292,0.04734136164188385,0.027602972462773323,0.015568314120173454,0.016622483730316162,0.025447165593504906,0.023027613759040833,0.013660515658557415,-0.030337095260620117,-0.0834331214427948,-0.06760869175195694,-0.12409486621618271,-0.09089792519807816,-0.06362839043140411,0.023039137944579124,-0.20386375486850739,-0.07490526139736176,-0.12994307279586792,-0.15736664831638336,-0.08151038736104965,-0.056851789355278015,0.1548064798116684,0.06772604584693909,0.0728515014052391,0.10048853605985641,0.07511793822050095,0.06253709644079208,0.11869209259748459,0.1141633465886116,0.1004757434129715,0.07491298764944077,0.10106414556503296,0.010259545408189297,-0.10444094985723495,-0.09480313956737518,-0.09282660484313965,-0.08915559202432632,-0.07718487828969955,-0.03716827556490898,-0.16387693583965302,-0.18476998805999756,-0.1451636403799057,-0.07597310096025467,-0.1584959328174591,-0.08530502021312714,0.046268150210380554,0.14376485347747803,0.11457262933254242,0.08537306636571884,0.07671120762825012,-0.19780945777893066,0.026793908327817917,0.07065257430076599,0.013228758238255978,0.019664594903588295,0.0040772282518446445,-0.07737814635038376,-0.0031971691641956568,-0.22049720585346222,-0.14024809002876282,-0.00768095999956131,-0.015616580843925476,0.04358059912919998,-0.12952077388763428,-0.12039415538311005,-0.12394524365663528,0.021728286519646645,0.07624996453523636,0.15995639562606812,0.06222765892744064,0.13559330999851227,0.08742987364530563,0.08090705424547195,-0.0683458223938942,-0.16582384705543518,-0.012491295114159584,0.2174026072025299,0.02898109145462513,0.1460232138633728,-0.0033695176243782043,-0.1789918839931488,-0.028425781056284904,-0.14290468394756317,-0.031019648537039757,-0.03273375332355499,-0.10799285024404526,0.15442828834056854,-0.09670300036668777,-0.22794421017169952,-0.02043427713215351,0.026190590113401413,-0.11993035674095154,0.13251912593841553,-0.11619550734758377,-0.06111864373087883,-0.026233375072479248,-0.05199141427874565,-0.04837016761302948,0.013168844394385815,-0.029751485213637352,-0.011876343749463558,-0.02002430334687233,-0.011458482593297958,-0.000139969153678976,0.008138647302985191,0.1436333954334259,0.08721612393856049,0.051965802907943726,0.03550101816654205,0.040345098823308945,-0.01100700069218874,0.19234362244606018,0.034564677625894547,0.010620560497045517,0.035065267235040665,0.06838065385818481,0.010901731438934803,-0.13681116700172424,-0.11391711235046387,-0.03558046370744705,-0.05097847804427147,-0.022849058732390404,0.02083132043480873,-0.1069103479385376,-0.05832202360033989,-0.044495511800050735,-0.04392380267381668,-0.0258970707654953,0.01313816849142313,0.08324537426233292,0.05134657397866249,0.03321298211812973,0.02566050924360752,0.01683969609439373,-0.00895925983786583,0.17387768626213074,0.08765644580125809,0.05395703762769699,0.043841708451509476,0.09335237741470337,0.05517672747373581,-0.1933797001838684,-0.07030148059129715,0.006659463047981262,-0.03062550537288189,0.031232237815856934,0.20522981882095337,-0.03430456295609474,-0.01992528699338436,0.0037156185135245323,-0.01552837248891592,0.0018118511652573943,0.05271431803703308,0.17339403927326202,0.06226339563727379,-0.014486211352050304,0.02142520807683468,-0.028801988810300827,-0.20019936561584473,0.234861359000206,0.09059352427721024,-0.025488238781690598,0.018982261419296265,-0.05612799525260925,-0.25753867626190186,-0.25021326541900635,-0.10309731215238571,0.008290216326713562,-0.012572119012475014,0.053829967975616455,0.2715001404285431,-0.13251914083957672,-0.051484499126672745,0.0053347377106547356,-0.027840491384267807,0.013249573297798634,0.1515134871006012,0.0731232762336731,0.03278001397848129,-0.0031270831823349,0.022427091374993324,-0.0021105469204485416,-0.09743796288967133,0.3449926972389221,0.11068885028362274,-0.014030152931809425,-0.00591106154024601,-0.0617116317152977,-0.3436864912509918,-0.08749742060899734,-0.03656381368637085,0.08858616650104523,-0.07107511162757874,0.06979576498270035,0.05159531161189079,-0.0005827996064908803,0.009344445541501045,0.009095504879951477,-0.010021527297794819,0.028535906225442886,-0.0745026022195816,0.03907626494765282,-0.037191666662693024,0.024809082970023155,-0.005400355439633131,-0.14209894835948944,0.0014793181326240301,-0.05366409569978714,0.13916131854057312,-0.07317504286766052,-0.08308935165405273,-0.13528946042060852,0.06808008998632431,0.0511484295129776,-0.03633298724889755,-0.029408102855086327,-0.05766971781849861,0.0865090861916542,-0.1099025160074234,0.09154538810253143,-0.14086291193962097,-0.06357044726610184,-0.061981555074453354,0.09092266857624054,0.03125419467687607,0.07771510630846024,-0.05183335021138191,-0.0050912583246827126,0.040342073887586594,-0.05450502783060074,0.12492498755455017,-0.027698194608092308,-0.04551486298441887,0.08278537541627884,-0.050122760236263275,-0.04592074826359749,0.03367733582854271,0.2463136464357376,0.3145988881587982,0.2883296012878418,-0.3369247615337372,0.21194688975811005,-0.2597072720527649,-0.07520051300525665,0.38087528944015503,-0.32450318336486816,0.040518518537282944,-0.28116074204444885,0.2451716959476471,-0.440657377243042,0.2519850730895996,-0.21853241324424744,-0.4774062931537628,-0.07753153145313263,0.12357418239116669,0.1349620223045349,0.11709927022457123,-0.09744347631931305,0.12620727717876434,0.27177709341049194,-0.08433416485786438,0.16359536349773407,-0.13827301561832428,0.46664369106292725,0.1451629102230072,-0.1399652510881424,0.08824564516544342,0.10582128912210464,0.21724039316177368,-0.06219135969877243,0.43874314427375793,0.25881850719451904,-0.048755597323179245,0.25169309973716736,0.14506717026233673,0.446210652589798,-0.2186044603586197,0.18986567854881287,0.17296135425567627,0.24263128638267517,-0.23570095002651215,-0.436568945646286,0.13057391345500946,-0.3410308361053467,-0.18915320932865143,0.1768459528684616,0.059801388531923294,0.2417382448911667,-0.011997077614068985,-0.045747432857751846,0.08281654119491577,-0.28567802906036377,0.2969863712787628,0.4553510546684265,0.06489653140306473,0.4081767201423645,-0.447433739900589,-0.21534517407417297,-0.02626708149909973,-0.07508784532546997,-0.07611653953790665,-0.19670768082141876,-0.002764641772955656,-0.14474087953567505,0.08728184551000595,0.19789038598537445,0.0231978427618742,-0.3808285593986511,-0.45329535007476807,-0.35752713680267334,0.03568372502923012,0.22085264325141907,-0.2244892418384552,-0.16001065075397491,0.029939910396933556,0.1488359421491623,-0.43553534150123596,-0.27256813645362854,0.14455917477607727,-0.2167002260684967,-0.11972452700138092,-0.19304928183555603,-0.1896088570356369,-0.07443173974752426,0.08910229802131653,0.00844555627554655,0.00842088833451271,0.008532820269465446,0.008390027098357677,0.008197549730539322,0.00823641661554575,-0.0084231523796916,-0.008550035767257214,-0.008326450362801552,-0.008537856861948967,-0.008646410889923573,-0.00853896327316761,-0.0002607523638289422,0.00011516155063873157,0.00025560110225342214,0.000460053444840014,0.0007146628340706229,0.000851788034196943,-0.0015696827322244644,-0.0013065472012385726,-0.0009071676759049296,-0.0006951693212613463,-0.0003488807997200638,-0.00013498510816134512,0.0006694677867926657,0.0005631247186101973,0.0008214028202928603,0.00032060130615718663,-0.00005401331145549193,-0.00004431930574355647,-0.0013660280965268612,-0.0011995566310361028,-0.000843795423861593,-0.0014223584439605474,-0.0015884394524618983,-0.0012965700589120388,0.007329920772463083,0.007442775182425976,0.007197808474302292,0.007393901236355305,0.007455249782651663,0.007321539334952831,-0.0016489550471305847,-0.0012648318661376834,-0.0011354736052453518,-0.0006630424177274108,-0.00032974823261611164,-0.00018441399151924998,-0.1840907335281372,-0.04092855378985405,-0.04362296685576439,-0.13222792744636536,-0.01618277095258236,-0.20583805441856384,0.1012248545885086,0.0837029442191124,0.09946539998054504,-0.02344132401049137,0.2926166355609894,-0.012002237141132355,-0.34819141030311584,-0.2096308022737503,-0.08369798213243484,0.06914014369249344,-0.05018177628517151,0.2190374881029129,-0.24079161882400513,-0.23283423483371735,-0.029332399368286133,-0.05167480558156967,0.07303501665592194,0.44608333706855774,0.06814733892679214,0.24635975062847137,0.1362113654613495,-0.09704571962356567,-0.003079585963860154,-0.4307573437690735,-0.2756558656692505,0.06331408023834229,0.01883477345108986,-0.08148612827062607,0.11990679800510406,-0.18405781686306,-0.32027795910835266,-0.1054362878203392,-0.15140263736248016,0.07749917358160019,-0.20261843502521515,0.20205940306186676,-0.16644573211669922,-0.19288915395736694,-0.1743539720773697,-0.1483367681503296,0.05895838513970375,0.436708927154541,0.04822411388158798,0.07726722955703735,0.014006546698510647,-0.014352251775562763,0.048379845917224884,-0.01559776347130537,-0.049514904618263245,-0.017967408522963524,-0.07197043299674988,0.008472897112369537,-0.01960812322795391,-0.08253441751003265,0.19413723051548004,0.04557444155216217,0.051557887345552444,0.0171536635607481,-0.0030787598807364702,-0.12314917147159576,0.1325482577085495,0.08573660999536514,0.10159312933683395,0.03392498195171356,0.023364176973700523,0.0786300078034401,-0.00659584766253829,-0.06616535782814026,-0.01709735207259655,-0.014389385469257832,0.01165872160345316,-0.005212986376136541,0.0688900277018547,-0.07180798798799515,-0.04261191561818123,-0.0010373493423685431,0.11835689842700958,0.005009971559047699,0.09367677569389343,0.1424410343170166,0.09609733521938324,0.08213287591934204,0.013049379922449589,0.04387194290757179,0.13449186086654663,0.1402408927679062,0.10584839433431625,0.00679671298712492,-0.05402112007141113,-0.008605744689702988,-0.0005858891527168453,-0.000405867729568854,-0.0004934912431053817,-0.0003798882244154811,-0.00037142777000553906,-0.0004798312729690224,-0.00047831673873588443,-0.00015500708832405508,-0.00020103610586374998,-0.000010352078788855579,0.00000257744454756903,-0.0001999020460061729,-0.0007719608838669956,-0.0006686640554107726,-0.0006460099248215556,-0.0006169747211970389,-0.000742172182071954,-0.0009070756495930254,0.000009641297765483614,0.00011004201951436698,0.00017432172899134457,0.00022233155323192477,0.000048676138248993084,-0.0001631053164601326,-0.000288364477455616,-0.00009891319496091455,-0.0001640912378206849,0.00004036223981529474,0.00010622672562021762,0.00002076611781376414,0.0002978780248668045,0.0007200473337434232,0.0006887537892907858,0.0009592315182089806,0.0009620849159546196,0.0006612819852307439,0.00004333920878707431,-0.000327839981764555,-0.00021319861116353422,-0.00039884253055788577,-0.0004500861978158355,-0.00022353578242473304,0.0003498982696328312,0.0002900372783187777,0.0004152463225182146,0.0002475365763530135,0.00006867846968816593,-0.0000062564454310631845,0.009094610810279846,0.008966196328401566,0.008866788819432259,0.008719110861420631,0.008843056857585907,0.008738166652619839,-0.010482690297067165,-0.010902703739702702,-0.010900708846747875,-0.010900162160396576,-0.010180650278925896,-0.010358688421547413,0.000574451289139688,0.00005261599289951846,-0.0006619498017244041,-0.001324169454164803,-0.0009625260136090219,-0.0005538066616281867,0.0028411399107426405,0.002259881002828479,0.0012996698496863246,0.0007743558380752802,0.0015056757256388664,0.0024976911954581738,0.00023111794143915176,0.00025914626894518733,0.000756599591113627,0.0006616039900109172,0.0005534552037715912,0.0006542544579133391,0.0009082684409804642,0.0006534548010677099,0.001009459258057177,0.00032111688051372766,-0.00008953810902312398,0.0003481761086732149,0.006086434703320265,0.005720445886254311,0.005479023791849613,0.006132571026682854,0.006236288696527481,0.005960842128843069,0.0024309679865837097,0.001986673567444086,0.0009116327855736017,0.0008186476770788431,0.0015308402944356203,0.00237537850625813,-0.1272784024477005,-0.11364024132490158,-0.15721993148326874,-0.057035308331251144,-0.1840323507785797,-0.20302516222000122,-0.028102364391088486,-0.017770584672689438,-0.2532725930213928,0.022442353889346123,-0.22818416357040405,0.15812963247299194,-0.1779942363500595,0.0678437128663063,-0.16549958288669586,-0.11101458966732025,0.08372560143470764,0.31616875529289246,-0.3131636083126068,0.003829158376902342,-0.0955984890460968,-0.035471029579639435,-0.10209091007709503,0.28997427225112915,0.00007279650890268385,-0.04355686530470848,0.01825089566409588,0.12933345139026642,-0.14679473638534546,-0.10514969378709793,-0.27071741223335266,-0.0038826726377010345,-0.07715097814798355,-0.012547574006021023,-0.34510746598243713,-0.009970941580832005,-0.04135185107588768,-0.06600141525268555,0.02049613557755947,-0.11415863037109375,0.022981971502304077,0.04182428866624832,-0.2152779996395111,-0.10730420053005219,-0.013692934066057205,-0.21155115962028503,0.13302020728588104,0.11438599228858948,-0.12779061496257782,0.06446436047554016,0.11258947849273682,-0.011739135719835758,0.14209316670894623,0.1311848908662796,-0.10824651271104813,-0.20320455729961395,-0.14608332514762878,-0.08264782279729843,-0.03991850093007088,-0.19620414078235626,-0.5848355293273926,-0.26332882046699524,-0.15361852943897247,-0.09369492530822754,-0.012276635505259037,0.2508287727832794,-0.2701225280761719,-0.018769966438412666,-0.16740430891513824,-0.10708413273096085,-0.06629618257284164,0.525734007358551,0.18596072494983673,0.25815853476524353,0.22538629174232483,0.1515926867723465,0.004864352289587259,-0.6350969672203064,-0.5121574997901917,0.08906379342079163,0.06498730182647705,0.03417560085654259,0.17285583913326263,-0.04882039874792099,0.35378992557525635,0.1233832910656929,-0.010471447370946407,0.07393668591976166,0.0709543526172638,0.3950490951538086,-0.21906134486198425,-0.1682882010936737,-0.13471953570842743,-0.12312915176153183,-0.12992802262306213,0.6622146964073181,-0.00015515841369051486,-0.0000027283563213131856,0.00038369311369024217,-0.0001160215397248976,-0.00037616610643453896,-0.00024122036120388657,-0.00014034875493962318,0.00011669398372760043,0.0006458840798586607,-0.00012026879994664341,-0.0005227908841334283,-0.00024591555120423436,0.0003037233545910567,0.00035810930421575904,-0.0000817730397102423,-0.0005732391146011651,-0.00044424107181839645,0.00002638809928612318,0.0006574090803042054,0.0005335935275070369,0.000027819458409794606,-0.0006052345270290971,-0.0003058766305912286,0.00022239831741899252,-0.00010425767686683685,-0.0001353929692413658,0.0005566416657529771,0.00013465675874613225,-0.00017685269995126873,-0.0001194789947476238,0.0002348865964449942,0.00029322353657335043,0.0009485469781793654,0.00002870126991183497,-0.0005248173838481307,-0.00017474833293817937,0.00004309899304644205,-0.00023745113867335021,-0.0009583974606357515,-0.0001082474336726591,0.0004918139893561602,0.00024053716333582997,0.0005486618611030281,0.00046021302114240825,-0.0005229220842011273,-0.0005078200483694673,-0.00006216182373464108,0.00021931617811787874,-0.020338570699095726,0.07535243779420853,0.033477019518613815,-0.0068946960382163525,-0.02617761492729187,0.18948718905448914,-0.20219771564006805,-0.0066944919526577,-0.0014988785842433572,0.8230182528495789,0.20749950408935547,-0.0001461353967897594,-0.0003170144045725465,0.774243175983429,1.0170693397521973,0.00026995266671292484,-0.0022578726056963205,0.09454386681318283,-0.211050346493721,-0.00010720266436692327,0.002054870128631592,0.3187998831272125,0.1279972493648529,0.0001127135765273124,-0.007361162453889847,-0.46520501375198364,0.05704700946807861,0.00005908837920287624,0.002181138377636671,0.20365677773952484,-0.43662551045417786,0.0023906524293124676,-0.003494295058771968,0.13475435972213745,-0.22461161017417908,-0.0010756624396890402,-0.0022177458740770817,0.0008563706651329994,0.18661652505397797,-0.0007268793997354805,-0.004863983951508999,0.3191725015640259,0.14911121129989624,-0.0006354801589623094,-0.0005840308731421828,0.11739645153284073,-0.8648426532745361,-0.0018445969326421618,-0.00468293996527791,-0.16279692947864532,0.15508627891540527,-0.0006605960079468787,0.0026537177618592978,-0.04193251207470894,0.9199404716491699,-0.000276203645626083,-0.008943263441324234,0.032991182059049606,0.12723927199840546,-0.00020952986960764974,0.0045115407556295395,0.1887139230966568,-0.5722741484642029,0.00044031889410689473,0.0072045642882585526,0.561540424823761,-0.0033382298424839973,-0.001312906271778047,-0.005924645811319351,0.27600011229515076,0.009439150802791119,0.002080156933516264,0.00031834974652156234,0.19197726249694824,0.10529271513223648,0.0011809550924226642,-0.005134326405823231,0.33790290355682373,-0.26603928208351135,0.0009604397928342223,-0.061336494982242584,-0.08780311793088913,0.04741945117712021,-0.2277907282114029,0.12371495366096497,-0.2354239970445633,-0.1499296873807907,-0.18229460716247559,-0.004164336249232292,-0.016008976846933365,0.056214284151792526,0.396572083234787,0.5024769902229309,0.510159432888031,0.09961482137441635,0.024325944483280182,0.03937686234712601,-0.04114873334765434,-0.062234751880168915,0.0635371059179306,0.14260341227054596,0.038336846977472305,0.007666220422834158,0.14409279823303223,0.25429201126098633,-0.20897804200649261,0.08014359325170517,0.20672805607318878,0.36305952072143555,0.008169587701559067,-0.04825897514820099,-0.29243648052215576,0.11261051148176193,0.03276440128684044,-0.06368127465248108,-0.03733820095658302,0.11012806743383408,0.2620471715927124,0.036430876702070236,0.2141745388507843,0.3414130210876465,0.2906566560268402,0.1760956197977066,-0.19132326543331146,0.04647915065288544,-0.014712930656969547,0.05332863703370094,0.018825562670826912,0.16242708265781403,-0.08936668187379837,0.16642779111862183,0.27054068446159363,0.12863574922084808,0.1578376144170761,-0.1856079250574112,-0.20944634079933167,0.3216595947742462,0.20514656603336334,0.18443557620048523,0.3647885322570801,0.1436627358198166,0.0806955099105835,-0.26576942205429077,-0.326250284910202,-0.23051971197128296,-0.08060166984796524,-0.10889651626348495,-0.13054385781288147,0.08199407160282135,-0.16174918413162231,0.06518625468015671,0.14026828110218048,-0.10247688740491867,-0.09472182393074036,-0.0005377460620366037,-0.12649834156036377,0.021873686462640762,0.07313556969165802,-0.2070683091878891,-0.06246597692370415,0.25259166955947876,0.10466612130403519,-0.11716286838054657,0.0436224564909935,0.12345224618911743,-0.03627821058034897,0.30019891262054443,0.1702595055103302,0.18097133934497833,0.36055174469947815,-0.03388335183262825,-0.172023743391037,0.1930515319108963,0.031430020928382874,0.3737621009349823,0.15277011692523956,-0.006448052823543549,0.08304398506879807,-0.001867564395070076,-0.11447136849164963,0.10416439920663834,0.08652956783771515,-0.08440840989351273,-0.031321726739406586,0.09767983108758926,0.03434333577752113,0.049812816083431244,0.003426556708291173,-0.0835360661149025,0.058446627110242844,-0.23936273157596588,-0.19459043443202972,-0.005497986450791359,-0.02566540241241455,-0.08668117225170135,-0.05516520142555237,-0.0687251091003418,0.005200378596782684,0.14361271262168884,-0.1526307612657547,-0.26540690660476685,-0.09436719119548798,-0.3377617299556732,-0.055019035935401917,0.15674073994159698,0.007782320026308298,-0.11208049952983856,0.01806257851421833,0.21098193526268005,0.15042157471179962,-0.18240781128406525,-0.01198374480009079,-0.0836351215839386,0.012504485435783863,-0.045625098049640656,0.01968114636838436,0.22881555557250977,0.14584334194660187,-0.04594709351658821,0.2399904429912567,-0.30221500992774963,-0.07553952187299728,-0.11852605640888214,-0.12009111046791077,-0.1269211620092392,-0.12276136130094528,0.0026446410920470953,0.019891638308763504,0.19351503252983093,-0.08482664823532104,-0.041731372475624084,-0.10157425701618195,-0.061430398374795914,-0.06506868451833725,-0.1287604719400406,-0.09038908779621124,-0.16206210851669312,-0.23996800184249878,0.19816350936889648,-0.06330504268407822,-0.13088200986385345,-0.13298742473125458,0.028199126943945885,-0.15862911939620972,0.07902822643518448,-0.007508702576160431,-0.23099470138549805,0.13784615695476532,0.04433077946305275,0.2660145163536072,-0.13296949863433838,-0.09918112307786942,-0.34515708684921265,-0.09493182599544525,-0.11586173623800278,0.28443723917007446,-0.08987662196159363,0.26747074723243713,0.026118705049157143,0.1367209106683731,0.2602771818637848,-0.12793584167957306,-0.14418897032737732,-0.2758828401565552,-0.40956321358680725,-0.20208615064620972,-0.15079528093338013,-0.05004250258207321,0.06436498463153839,-0.08924925327301025,-0.1243930533528328,0.021441860124468803,0.02894165925681591,0.45040860772132874,0.025525132194161415,-0.1238500252366066,-0.1260475218296051,-0.013538422994315624,-0.011491530574858189,0.2575315535068512,0.007617039140313864,0.039409708231687546,0.0497300922870636,0.1544521301984787,0.13965170085430145,-0.04464586824178696,-0.13774581253528595,0.09014632552862167,0.1284824013710022,0.012171796523034573,-0.05884353443980217,0.16210901737213135,0.028487341478466988,0.14389754831790924,0.22060982882976532,0.17301346361637115,-0.019623545929789543,-0.17811763286590576,0.0002385069674346596,0.2463914453983307,0.2391669750213623,-0.018917182460427284,-0.165293887257576,-0.2768350839614868,-0.1128351241350174,-0.2653598487377167,-0.11641183495521545,-0.027414456009864807,0.19290784001350403,0.34224411845207214,0.09396598488092422,0.0938434898853302,0.07173262536525726,0.2466161847114563,-0.10435745120048523,0.042690206319093704,0.006495942827314138,0.048043519258499146,0.09554201364517212,0.12085290998220444,0.0676359236240387,-0.4174579977989197,-0.012296733446419239,0.06300241500139236,0.20262280106544495,0.13332663476467133,-0.028764978051185608,-0.14931507408618927,-0.040094099938869476,-0.007534889969974756,0.0772436335682869,-0.16912595927715302,-0.056775495409965515,-0.015342333354055882,-0.002092755166813731,0.23553939163684845,0.15943194925785065,0.0021408365573734045,0.09516949951648712,0.30102527141571045,0.15904833376407623,0.22232405841350555,0.24527870118618011,0.22501517832279205,-0.0885300412774086,-0.4321680963039398,0.19195222854614258,0.15465010702610016,0.3791355788707733,0.08394744992256165,0.03189299628138542,-0.40389764308929443,-0.02679487131536007,-0.04045203700661659,-0.0030867925379425287,-0.22242042422294617,0.09535129368305206,0.3785347640514374,-0.042357590049505234,-0.05666861683130264,0.07266435772180557,0.04901037737727165,-0.15016725659370422,-0.21558590233325958,0.04235683009028435,0.22929002344608307,0.18825536966323853,0.1335335373878479,0.0935034230351448,-0.5446527600288391,0.018782030791044235,0.2690035402774811,0.17137554287910461,0.11993130296468735,0.0838661640882492,-0.4044492244720459,-0.13851264119148254,0.051871560513973236,-0.005734344478696585,-0.2010766565799713,-0.012188691645860672,-0.0033025932498276234,-0.03992610424757004,-0.09732387959957123,-0.09049321711063385,-0.11020080745220184,-0.13699154555797577,0.12956614792346954,0.001728337723761797,0.1792212277650833,0.17681285738945007,0.0050429971888661385,0.1517670601606369,0.02137567102909088,-0.01740696094930172,-0.0903400108218193,-0.08464531600475311,-0.0698433518409729,0.2745361030101776,-0.22605763375759125,0.13362209498882294,0.07412558048963547,0.06598678231239319,-0.1996839940547943,-0.19543325901031494,0.2468196302652359,-0.08494044095277786,-0.07856744527816772,-0.2012946605682373,-0.19262175261974335,-0.16630588471889496,-0.2629789113998413,-0.06966322660446167,0.009776543825864792,0.11670740693807602,0.19635991752147675,0.41274335980415344,-0.01770859956741333,0.05786065012216568,0.08954055607318878,0.10974211990833282,0.025730863213539124,0.14039096236228943,0.004810535814613104,0.02125554531812668,-0.1557539701461792,0.013591121882200241,-0.19827573001384735,-0.03643636032938957,-0.02660227008163929,-0.092642642557621,-0.18690402805805206,0.023233231157064438,-0.02385874092578888,-0.06841538101434708,-0.19792069494724274,-0.06725238263607025,-0.17566803097724915,-0.3541373014450073,-0.016378602012991905,-0.004341887775808573,0.14705321192741394,0.07846379280090332,-0.2198595404624939,-0.21607887744903564,-0.0770757794380188,0.09891481697559357,0.22842150926589966,0.07876162230968475,0.11944618076086044,-0.023662300780415535,0.16133734583854675,-0.08939225971698761,-0.2566373646259308,-0.04992552474141121,-0.22890408337116241,-0.21999765932559967,-0.20238371193408966,0.09032370895147324,-0.1480892300605774,-0.01140547450631857,-0.06050681322813034,-0.1672143191099167,-0.1258103996515274,-0.09329269081354141,0.3164190351963043,-0.10163766145706177,-0.12691067159175873,-0.1278575360774994,-0.15666823089122772,0.0973595678806305,0.24567411839962006,-0.33597803115844727,-0.5779523849487305,-0.2130098044872284,0.01951686479151249,-0.020930100232362747,0.039123330265283585,0.1689048856496811,-0.0140967583283782,-0.90765380859375,0.096158966422081,-0.06746093183755875,-0.154283344745636,-0.13343718647956848,-0.9475190043449402,0.2473536729812622,0.4563273787498474,0.24563856422901154,-0.15963302552700043,-0.2869061827659607,0.23002314567565918,0.14939406514167786,0.2535248398780823,-0.18724073469638824,-0.14261053502559662,-0.42401647567749023,0.7591899037361145,0.44319790601730347,0.1347426027059555,-0.12123934179544449,-0.32727548480033875,-0.336757093667984,0.24159649014472961,0.2732691168785095,0.22639501094818115,-0.09629768133163452,0.1940661370754242,-0.21417354047298431,0.1789274960756302,0.09483764320611954,0.30383071303367615,0.11369593441486359,0.039596881717443466,-0.14095757901668549,0.39111068844795227,0.061028625816106796,-0.6510133147239685,-0.22536791861057281,-0.08014201372861862,-0.7868877053260803,-0.25603964924812317,0.1772524118423462,-0.09188541769981384,-0.08671516180038452,0.29226425290107727,-0.303463339805603,-0.38248521089553833,0.7663695216178894,0.11100885272026062,0.10172104090452194,0.15180104970932007,-0.611693799495697,0.16529668867588043,0.19081324338912964,0.16339613497257233,-0.2851196825504303,0.31620144844055176,0.0788978710770607,0.37228497862815857,-0.23632383346557617,-0.45097553730010986,-0.23852603137493134,-0.05429680645465851,-0.07014775276184082,0.3020046353340149,0.44311830401420593,0.17713062465190887,-0.09287681430578232,-0.3443385362625122,0.017739465460181236,0.23772549629211426,0.07028240710496902,0.07617543637752533,-0.2913845181465149,0.07533518224954605,0.21604007482528687,-0.00475699407979846,0.03339630365371704,-0.0029778662137687206,-0.0721135064959526,-0.07267477363348007,-0.16082054376602173,0.37710458040237427,0.8555551171302795,0.48466312885284424,0.022091789171099663,0.034396689385175705,0.0053873066790401936,-0.4358074963092804,-0.5337731242179871,0.004792988765984774,0.06443558633327484,0.03120223432779312,0.025303596630692482,-0.04121891409158707,0.1405191272497177,0.22236545383930206,0.02123883366584778,-0.02328389883041382,-0.03539048507809639,0.17156998813152313,-0.07527182251214981,0.26607778668403625,0.09751631319522858,0.05548107624053955,-0.36386358737945557,-0.1486482173204422,0.04385204613208771,-0.39596542716026306,-0.09116072207689285,0.0894324854016304,0.3535171151161194,0.0815591812133789,0.0596444234251976,0.2530413568019867,-0.029501911252737045,0.00379341677762568,-0.13561147451400757,-0.09968901425600052,0.024894367903470993,0.5406807065010071,0.01760322041809559,0.032878778874874115,0.054502539336681366,-0.05462856963276863,-0.14893963932991028,-0.006701144389808178,-0.03414301201701164,0.023846570402383804,-0.0022843298502266407,0.08051175624132156,0.2720693051815033,-0.13775676488876343,0.03312959522008896,0.07491424679756165,0.07582707703113556,0.07936728745698929,0.4173627197742462,-0.010843264870345592,0.07900883257389069,0.0017956248484551907,0.07092148065567017,-0.2816857695579529,-0.21109700202941895,0.3812834620475769,-0.00277532241307199,-0.03164248540997505,-0.03722509741783142,-0.07844917476177216,-0.1538439393043518,0.731332540512085,0.07560566067695618,0.09576737880706787,-0.052280768752098083,0.09825363010168076,0.2530139982700348,-0.5974248051643372,-0.057892829179763794,0.013290957547724247,0.17570436000823975,-0.15268218517303467,-0.2841106355190277,-0.010017824359238148,0.012238835915923119,0.041546180844306946,0.037253476679325104,-0.03433084860444069,0.0747271180152893,0.7147881388664246,-0.023610061034560204,0.004588129464536905,-0.059126559644937515,-0.03478631749749184,-0.09033513814210892,0.4213716685771942,-0.13958613574504852,0.00987025536596775,-0.08761335164308548,-0.03563115745782852,0.029015514999628067,-0.029312744736671448,-0.08034110069274902,0.05877033621072769,-0.02744417078793049,-0.05454869195818901,0.04650285467505455,0.006217075511813164,-0.1106296107172966,0.08531192690134048,-0.031564079225063324,-0.19646355509757996,-0.2289900779724121,-0.15572161972522736,-0.016339682042598724,-0.14365459978580475,-0.08508589118719101,0.052933964878320694,0.13227316737174988,0.17646156251430511,0.04778231680393219,-0.2169940173625946,-0.04542963579297066,-0.14203321933746338,-0.06819888949394226,0.025651926174759865,0.07653586566448212,0.11941840499639511,0.08582865446805954,-0.03359641879796982,0.08544094860553741,0.051340214908123016,0.169861301779747,0.05187192186713219,0.06929688155651093,-0.09219227731227875,-0.04495079442858696,0.09737669676542282,0.010404245927929878,-0.07142256945371628,0.08348588645458221,-0.0016520118806511164,0.0024880787823349237,-0.017424119636416435,-0.12984685599803925,-0.1081736758351326,0.10299458354711533,0.6185683012008667,0.14409659802913666,0.4876786768436432,-0.10433410108089447,-0.15497200191020966,-0.2834644615650177,-0.35033535957336426,0.39678239822387695,-0.21307453513145447,0.013219565153121948,0.07834889739751816,-0.0032262704335153103,0.12098988890647888,-0.20684777200222015,0.06589284539222717,0.11146282404661179,0.07126137614250183,0.03714114800095558,-0.06468387693166733,-0.053502630442380905,-0.4727807343006134,-0.04916844889521599,-0.22687408328056335,-0.09178338199853897,-0.43994787335395813,-0.5440335273742676,0.08712513744831085,-0.004037919919937849,0.19371506571769714,0.23617145419120789,0.30210617184638977,-0.12287911772727966,0.06298790872097015,-0.12094517797231674,-0.07753268629312515,0.012933837249875069,0.005704220850020647,-0.09240458160638809,-0.2555263638496399,0.07621444016695023,0.01563834771513939,0.09873934835195541,-0.08614048361778259,-0.10644885152578354,-0.16871029138565063,-0.028957150876522064,0.017343929037451744,-0.18414108455181122,0.11151255667209625,0.045411594212055206,-0.10352626442909241,-0.07630760222673416,-0.005013554356992245,-0.011909940280020237,-0.12779510021209717,0.4834356904029846,-0.1253257691860199,-0.12581706047058105,-0.16067630052566528,0.04687127098441124,-0.0660136342048645,-0.523558497428894,-0.15741576254367828,-0.06519962847232819,-0.026012416929006577,0.10372788459062576,-0.08151419460773468,-0.02064378932118416,0.17514817416667938,0.020803900435566902,0.11392471194267273,-0.039677053689956665,-0.012417244724929333,0.2055768519639969,-0.12010127305984497,-0.07897424697875977,-0.11396510154008865,-0.22764575481414795,0.29748207330703735,-0.08452562987804413,-0.19806988537311554,-0.01254375372081995,0.06254461407661438,0.01059400849044323,-0.018688078969717026,-0.011173119768500328,0.181895911693573,0.17638692259788513,0.04743972420692444,0.12349171936511993,-0.09456643462181091,-0.2212374359369278,0.20127975940704346,-0.030037404969334602,-0.040115904062986374,-0.02100493386387825,0.15729595720767975,-0.19060344994068146,-0.00038897464401088655,0.014657074585556984,0.04059270769357681,0.10572932660579681,0.04679526761174202,-0.15447477996349335,0.10772448033094406,-0.009542993269860744,-0.04768527299165726,0.0043173786252737045,0.2863505482673645,0.2515215277671814,-0.20812515914440155,-0.007550432812422514,0.01132041122764349,-0.029230566695332527,-0.06094497814774513,0.11246795952320099,-0.2767151892185211,0.009100105613470078,0.004142687655985355,0.1023169457912445,-0.13112977147102356,-0.24363553524017334,0.32890260219573975,-0.04126273840665817,0.0972205400466919,-0.11594760417938232,0.050197046250104904,0.1971147060394287,0.03332587331533432,-0.012556605972349644,-0.08235349506139755,0.010682591237127781,-0.029240215197205544,-0.1671704351902008,-0.16921557486057281,0.03643966466188431,0.0972604751586914,-0.0248794574290514,0.11963067203760147,0.2583736777305603,-0.194197416305542,0.023062214255332947,-0.060497432947158813,0.30510440468788147,-0.2547684609889984,-0.06475222855806351,0.1882970780134201,0.011774537153542042,0.1911218911409378,0.007320750039070845,0.15655547380447388,-0.010509107261896133,0.2240736037492752,0.05444561690092087,0.15044189989566803,0.25700661540031433,0.1997136026620865,0.21907088160514832,0.050587739795446396,-0.0052742850966751575,-0.0730200931429863,-0.17920592427253723,-0.025040730834007263,-0.009202458895742893,0.32424840331077576,0.1678437888622284,0.1028774082660675,-0.1313149631023407,0.16057027876377106,-0.11957799643278122,-0.47109970450401306,-0.09747519344091415,-0.2533259391784668,-0.017556702718138695,-0.03827163204550743,-0.1185273677110672,0.03033408522605896,0.08894553035497665,-0.045176129788160324,0.01974942535161972,-0.10116570442914963,0.009652024134993553,0.27929607033729553,-0.10919663310050964,0.11568736284971237,0.06774868071079254,0.034454766660928726,-0.011320249177515507,0.2173512876033783,-0.022563884034752846,0.02415178343653679,0.10417250543832779,0.05485324561595917,0.2952546775341034,-0.2639596462249756,0.030017631128430367,-0.11944201588630676,0.11656184494495392,0.14793293178081512,0.07178718596696854,0.22258210182189941,0.15964128077030182,0.004559279885143042,-0.29163071513175964,-0.03448174521327019,0.35679784417152405,-0.18547657132148743,0.007954227738082409,0.011061741039156914,-0.03829273581504822,-0.32084590196609497,-0.3331727385520935,0.5768565535545349,0.1063559427857399,0.05384444072842598,0.21666504442691803,0.25195789337158203,0.21148893237113953,-0.49372294545173645,0.119533970952034,0.21798092126846313,0.16349974274635315,-0.21714593470096588,-0.029699964448809624,-0.3074662983417511,0.09057383984327316,0.012262444943189621,0.006994829047471285,0.1982790231704712,0.029589874669909477,0.2080736756324768,-0.16711075603961945,-0.12115388363599777,-0.12838855385780334,-0.10516270250082016,0.047177430242300034,0.42039650678634644,-0.7221876978874207,0.18598350882530212,-0.029247377067804337,-0.08667756617069244,0.09087567031383514,0.14786086976528168,-0.27980005741119385,-0.13082505762577057,-0.3411135971546173,0.31951746344566345,0.25384458899497986,-0.1501123458147049,0.7028108835220337,0.03012486733496189,-0.2763809859752655,0.7555782794952393,-0.4508557915687561,-0.024854687973856926,-0.1063695028424263,-0.5567400455474854,0.2674490809440613,-0.05901357904076576,0.10227038711309433,0.6416398882865906,-0.5036826133728027,0.30878427624702454,0.09012754261493683,0.285746693611145,-0.052903976291418076,-0.2580587565898895,-0.457266241312027,-0.20449551939964294,-0.2867351770401001,0.4974307417869568,-0.0656680166721344,-0.0408656969666481,0.29730135202407837,-0.0712578296661377,-0.036884188652038574,0.4420273005962372,-0.3194906413555145,0.1654619574546814,0.2745571434497833,0.23908941447734833,-0.22654414176940918,-0.4124055504798889,-0.21374540030956268,-0.08995670825242996,0.40506646037101746,-0.0363684743642807,0.08801265060901642,0.519955575466156,0.1372624784708023,0.1604738086462021,0.28790879249572754,0.37839624285697937,-0.13331753015518188,-0.4603366255760193,-0.2052430361509323,-0.12683279812335968,0.39942288398742676,-0.07646790146827698,0.24233222007751465,0.4538116157054901,-0.4090610444545746,0.6689426898956299,-0.02852470800280571,0.4261520206928253,0.11366725713014603,0.04626987874507904,-0.17822030186653137,-0.29642415046691895,-0.48284754157066345,0.38756319880485535,0.1318349540233612,0.06603364646434784,-0.006642991676926613,-0.1250794380903244,-0.19652554392814636,0.021961316466331482,-0.04652376472949982,-0.03945108875632286,0.01852177083492279,0.1523345410823822,-0.1855313926935196,-0.08658327162265778,-0.26590120792388916,0.17746151983737946,0.013682207092642784,0.015326596796512604,-0.027599278837442398,-0.14180684089660645,-0.2541886568069458,-0.12695249915122986,0.011986743658781052,0.051167212426662445,0.03818187490105629,0.1282791644334793,-0.144730806350708,-0.12859423458576202,-0.02199062705039978,0.014227617532014847,0.04245996102690697,0.08398135006427765,0.11688685417175293,-0.5216732621192932,-0.028026318177580833,0.03217608109116554,0.030040759593248367,-0.06308818608522415,0.017144955694675446,-0.24052035808563232,-0.00653046602383256,0.025062525644898415,0.030053650960326195,0.0009386824094690382,-0.029547473415732384,0.3121556341648102,-0.030105432495474815,-0.06251148879528046,-0.03821535035967827,-0.07713142782449722,-0.04819703847169876,-0.10877814888954163,-0.01793730817735195,0.0034730620682239532,-0.0012618040200322866,-0.113958440721035,-0.051983702927827835,-0.9077053070068359,0.07271629571914673,-0.027346037328243256,-0.016569528728723526,0.2020878791809082,0.31754350662231445,-0.2806699275970459,0.19304682314395905,-0.0746215358376503,0.39519381523132324,0.056022804230451584,0.04248446226119995,0.036006588488817215,-0.05146263912320137,-0.13391925394535065,-0.36393919587135315,0.04171391949057579,-0.14790701866149902,0.19587792456150055,-0.05724381282925606,-0.1029701754450798,-0.16671743988990784,-0.16208167374134064,0.0017130428459495306,0.0075317625887691975,-0.08578035235404968,0.0580623522400856,-0.15535753965377808,-0.03397560864686966,-0.08518058061599731,0.0035118539817631245,-0.10873427242040634,-0.11016938835382462,-0.031942203640937805,-0.11865785717964172,-0.05411016196012497,-0.34039294719696045,0.11085677146911621,-0.06019210442900658,-0.05453142151236534,0.08934061974287033,-0.07979638129472733,0.18281498551368713,0.07151221483945847,0.06062868982553482,0.02993456833064556,-0.04860588163137436,-0.05502037703990936,-0.030144663527607918,-0.04904170706868172,0.07321196049451828,-0.1422373503446579,-0.03255285695195198,0.00443260557949543,0.05043128877878189,0.03786303102970123,-0.04611014947295189,0.00010648557508829981,0.0475640706717968,0.05957704409956932,0.5312830805778503,0.0012165106600150466,-0.09624723345041275,-0.06739801913499832,-0.13805986940860748,-0.09437301754951477,0.2496076375246048,-0.021086230874061584,0.007327379658818245,0.030934885144233704,-0.1766156256198883,0.16326257586479187,0.3828251361846924,0.06004376336932182,-0.038668904453516006,0.07142746448516846,-0.03520920127630234,-0.0418238528072834,0.3366958200931549,0.013124343939125538,-0.021839335560798645,-0.053172945976257324,0.010444117709994316,-0.055691979825496674,0.031687937676906586,0.05077594146132469,0.10363593697547913,0.06567078083753586,0.2289736419916153,0.09544559568166733,0.1148405447602272,0.03542008623480797,0.05940300598740578,0.04873284325003624,0.19038230180740356,-0.06946589797735214,0.37319135665893555,-0.09825222194194794,-0.03431481495499611,-0.16304589807987213,-0.09195977449417114,-0.07626263797283173,0.17218637466430664,0.15542635321617126,0.03376900404691696,0.24566322565078735,-0.23348598182201385,0.2621028423309326,0.07013051211833954,0.05286829546093941,0.06485515832901001,0.03606873378157616,-0.2050536423921585,-0.10511269420385361,-0.02983247861266136,-0.15948201715946198,-0.055911581963300705,-0.1903969794511795,-0.322725772857666,-0.4857756793498993,0.014620054513216019,-0.05308976396918297,-0.01644509844481945,0.1777225136756897,0.3442695140838623,0.16066661477088928,0.14876386523246765,0.054493170231580734,0.014066649600863457,0.09555240720510483,-0.035145342350006104,-0.07585108280181885,0.13460224866867065,-0.047388847917318344,-0.0401185005903244,0.09623724967241287,-0.017861930653452873,0.33971235156059265,-0.21942418813705444,0.09698980301618576,-0.22086024284362793,-0.10855862498283386,-0.21240779757499695,-0.3781536817550659,-0.012822727672755718,0.00839680153876543,0.22989735007286072,-0.0688314288854599,-0.07385605573654175,0.08405568450689316,0.06665221601724625,-0.09592333436012268,0.04690663143992424,-0.08070696145296097,-0.11745947599411011,-0.15121009945869446,-0.2136412262916565,-0.05218509957194328,0.08861219137907028,0.015569520182907581,-0.06731744855642319,-0.058457840234041214,-0.13203929364681244,-0.021504320204257965,-0.10378839075565338,-0.09919273853302002,-0.07882176339626312,-0.1704549491405487,-0.32817915081977844,0.0798167735338211,-0.07589031755924225,0.016884231939911842,-0.05672384798526764,0.12964001297950745,-0.2066912204027176,0.002399422926828265,-0.048438090831041336,0.08539903908967972,-0.029651878401637077,-0.038800135254859924,0.09939442574977875,0.0024134600535035133,-0.028508996590971947,-0.061745066195726395,0.022410115227103233,-0.17816181480884552,-0.11979939788579941,0.04499206691980362,0.07735098153352737,0.04404221475124359,0.06127599999308586,0.1616308093070984,-0.5124781727790833,-0.022727617993950844,0.00967251043766737,0.14025795459747314,0.12300656735897064,0.07884584367275238,-0.1649370640516281,-0.06090947613120079,0.0024390975013375282,-0.10207580775022507,-0.06846772879362106,-0.22903743386268616,-0.07265069335699081,-0.037175823003053665,0.15170256793498993,0.131092369556427,0.31337621808052063,0.33141717314720154,0.10115675628185272,-0.04472153261303902,0.019399089738726616,0.026343636214733124,-0.019972283393144608,-0.012652148492634296,-0.023697704076766968,0.03182554244995117,0.04263757914304733,0.06815844774246216,-0.12345105409622192,0.09188928455114365,0.26861467957496643,0.007542881183326244,-0.002461377764120698,0.07808233797550201,-0.035368453711271286,-0.1447916030883789,-0.19121916592121124,-0.074928417801857,-0.11798831075429916,-0.12549546360969543,-0.21631377935409546,-0.407797634601593,-0.1226360872387886,-0.04522537440061569,0.017780806869268417,-0.02601170912384987,0.06918619573116302,-0.06217195838689804,0.1432376652956009,0.1514798402786255,-0.04260848090052605,0.09617636352777481,0.020356852561235428,0.1272198110818863,-0.03275144100189209,-0.12553103268146515,-0.15324799716472626,0.18411093950271606,0.00905255414545536,0.17540842294692993,0.22137175500392914,-0.14004142582416534,-0.05271371454000473,0.06740197539329529,-0.17540377378463745,0.16731040179729462,0.07047666609287262,-0.2964684069156647,-0.40497449040412903,0.0274489838629961,-0.3463922142982483,0.01127757877111435,0.048073749989271164,0.14699403941631317,0.2984045743942261,-0.06059851124882698,0.154068261384964,0.1204962357878685,-0.005733145400881767,-0.3546043038368225,-0.16883252561092377,0.24680350720882416,-0.3373858332633972,0.12413229048252106,0.16437694430351257,-0.06315980106592178,0.08401211351156235,-0.06041792035102844,0.04202665761113167,0.04840623959898949,-0.18115711212158203,0.0065660905092954636,-0.08964648097753525,0.08391713351011276,-0.18734373152256012,-0.015841878950595856,-0.08185547590255737,-0.04174533486366272,-0.01908756233751774,-0.05210649594664574,-0.12255352735519409,-0.07738832384347916,0.028098752722144127,-0.17600838840007782,-0.1525958776473999,-0.2895243763923645,-0.1534239798784256,-0.3370707929134369,0.01066783256828785,-0.04508449137210846,0.13505874574184418,0.07643216848373413,0.07487668842077255,-0.04542510583996773,-0.5254837274551392,0.017787931486964226,-0.08065812289714813,-0.0678638145327568,0.0504283681511879,-0.08923903107643127,-0.32010945677757263,0.03707018122076988,0.12356641888618469,-0.0017740043113008142,0.0580725371837616,0.0719836950302124,-0.48138654232025146,-0.16612876951694489,0.07885975390672684,0.032764993607997894,-0.10804665833711624,-0.13293792307376862,0.2821919322013855,0.11102809011936188,-0.04011969640851021,0.0021075543481856585,-0.11076083034276962,-0.32965806126594543,0.17690247297286987,0.12400873750448227,0.12503623962402344,0.12563280761241913,0.0605887807905674,0.24701933562755585,-0.49798721075057983,-0.0885416567325592,-0.02936401031911373,0.06896687299013138,-0.08047372102737427,0.07056324928998947,-0.3076903820037842,0.13828405737876892,-0.06641493737697601,-0.12260708212852478,0.1036757230758667,0.06277678161859512,0.05751030147075653,0.02903757058084011,-0.10428368300199509,-0.5376555323600769,0.07508721947669983,0.005427716765552759,0.0011413306929171085,-0.2210610806941986,0.3785320520401001,-0.08102612942457199,0.20731587707996368,-0.014091508463025093,0.5115879774093628,-0.29405802488327026,-0.3271046578884125,0.11394902318716049,0.2920938730239868,-0.2995355427265167,0.37019819021224976,-0.2967635989189148,-0.2411545217037201,0.051055993884801865,0.22157245874404907,-0.14770732820034027,-0.1838204264640808,0.26210644841194153,0.10934323072433472,0.10554672032594681,-0.17311258614063263,-0.36370837688446045,0.2021874040365219,0.1312686651945114,-0.12988904118537903,0.2675352692604065,-0.23930248618125916,-0.23548036813735962,0.09887458384037018,-0.35922056436538696,-0.1219821348786354,-0.07051318138837814,0.01818145625293255,-0.213579460978508,0.4026101231575012,-0.10428419709205627,0.2447708249092102,-0.2202768176794052,-0.32746973633766174,-0.08393268287181854,0.11481108516454697,-0.42102178931236267,0.12819619476795197,0.14144466817378998,0.08946103602647781,0.2089347094297409,-0.2069087028503418,0.15733455121517181,0.05099567398428917,-0.23367825150489807,-0.1707751750946045,-0.08784757554531097,-0.03645774722099304,-0.28607165813446045,-0.01866164617240429,-0.12485671788454056,0.1937917321920395,-0.10184048116207123,0.38704803586006165,-0.4682844877243042,0.052664488554000854,-0.09429135918617249,-0.15561430156230927,-0.1924717128276825,0.21445895731449127,-0.057806044816970825,0.08203012496232986,-0.20339606702327728,0.15342305600643158,-0.2187686711549759,-0.011622121557593346,0.02271544560790062,0.06716049462556839,0.054017916321754456,0.07191301137208939,0.041101258248090744,0.10933192074298859,0.018365060910582542,-0.023727528750896454,-0.14569725096225739,0.16813990473747253,0.09559734165668488,-0.06359739601612091,0.0733264833688736,0.0510869026184082,0.3269132673740387,0.09806700050830841,0.01359488908201456,-0.00040586336399428546,0.0993950366973877,0.026100222021341324,-0.4224366545677185,-0.009326476603746414,0.08764363080263138,0.04695793613791466,0.011939451098442078,0.06693456321954727,0.29653075337409973,-0.1534966230392456,-0.13275748491287231,-0.11160039156675339,-0.10751514136791229,-0.30129334330558777,-0.03476469963788986,-0.13230091333389282,0.009532999247312546,-0.13376852869987488,0.000929825589992106,0.129658505320549,-0.004828818142414093,0.011321150697767735,-0.15384787321090698,-0.03474742919206619,-0.04904358834028244,-0.07073235511779785,-0.003964032977819443,0.058666858822107315,-0.047510430216789246,-0.022727573290467262,-0.05361856147646904,-0.07071448117494583,0.09118960797786713,-0.0022918470203876495,0.08524835854768753,0.1141500324010849,0.049362558871507645,0.22263458371162415,0.2529667615890503,-0.19216777384281158,-0.12984493374824524,-0.07496824860572815,-0.03117615543305874,-0.05196923762559891,-0.06635290384292603,-0.33868399262428284,-0.09877227246761322,-0.09021700173616409,-0.14069557189941406,-0.1506296843290329,-0.09072627872228622,-0.1529279500246048,0.0474962443113327,0.048968296498060226,-0.014472530223429203,0.10820865631103516,0.1974908858537674,-0.2555081248283386,-0.053718581795692444,-0.0030067083425819874,0.07974816113710403,0.13319401443004608,0.1369548887014389,0.1547529250383377,-0.016755361109972,-0.07254502177238464,0.026379678398370743,-0.029159311205148697,0.05928822606801987,-0.2732314467430115,0.10697232186794281,0.11214953660964966,0.1109471544623375,0.059985775500535965,0.08818599581718445,-0.33981138467788696,0.0044153970666229725,0.008753105066716671,0.060375433415174484,0.027220573276281357,0.009000345133244991,-0.33239802718162537,0.0719221904873848,0.1010877713561058,0.1640365719795227,0.02564922161400318,0.1078183576464653,-0.2164555937051773,-0.02300388552248478,0.05785606428980827,0.09946524351835251,-0.021470138803124428,-0.18824166059494019,0.04590905085206032,-0.001239761128090322,0.03767639398574829,-0.1586555689573288,-0.014531946741044521,-0.05296337977051735,0.03379187732934952,0.027461890131235123,0.05661095678806305,0.07674945145845413,-0.0038934426847845316,0.05524685978889465,0.007896124385297298,-0.08700772374868393,0.015558870509266853,-0.10100733488798141,-0.028602857142686844,-0.01954551786184311,-0.05286498740315437,-0.04493183642625809,0.037444084882736206,-0.11417847871780396,0.013653213158249855,-0.05238034576177597,-0.21161110699176788,-0.014753256924450397,-0.04281844198703766,-0.0360909067094326,0.028181133791804314,0.03860129043459892,-0.14978212118148804,-0.025035947561264038,-0.06623106449842453,-0.07374672591686249,-0.02713625691831112,0.13648076355457306,-0.022180737927556038,-0.04738721251487732,-0.02879962883889675,-0.008942806161940098,0.00877972599118948,-0.02742120809853077,0.7121308445930481,-0.040752310305833817,0.019610898569226265,-0.022290008142590523,0.07718954980373383,-0.0370728075504303,-0.256047785282135,0.009982936084270477,0.0754590705037117,0.0033647986128926277,0.0020143722649663687,0.06728807091712952,0.1752871423959732,0.031807128340005875,0.03207632154226303,0.04215578734874725,-0.050146933645009995,0.1031087264418602,-0.4328800141811371,0.014006158336997032,-0.012735940515995026,0.005849561654031277,0.09418970346450806,0.039362628012895584,-0.06209320202469826,0.04886217787861824,-0.008675280027091503,0.005570757202804089,0.009543994441628456,-0.03707047924399376,0.24994908273220062,0.03575079143047333,0.01267607044428587,0.05466664209961891,-0.042230501770973206,0.026709001511335373,-0.4191466271877289,-0.024038584902882576,-0.05957717448472977,-0.03142544999718666,0.019412336871027946,-0.03699842467904091,-0.16282568871974945,-0.024533728137612343,0.05371120199561119,-0.05834507569670677,-0.07248535752296448,-0.10761658102273941,0.11816943436861038,0.056366074830293655,0.08713413774967194,-0.01123364269733429,-0.08505772054195404,0.06053095683455467,0.3113051652908325,-0.06552645564079285,-0.05498692765831947,-0.03290534019470215,0.0024024085141718388,0.017384164035320282,0.180482417345047,0.0009115358116105199,0.08499760180711746,-0.06108132377266884,0.08105941116809845,-0.016179580241441727,0.538714587688446,-0.06041897088289261,-0.008492535911500454,-0.056955486536026,-0.15106715261936188,0.03248455375432968,0.05412328615784645,0.05344519764184952,0.06124759092926979,0.02655794285237789,-0.00799730233848095,0.0002473658532835543,-0.2948313355445862,-0.012617185711860657,-0.06289544701576233,-0.14297495782375336,-0.1851176619529724,-0.08046987652778625,0.09285879135131836,-0.0001668923068791628,-0.04061025753617287,0.10065034031867981,0.061829131096601486,-0.05108071118593216,0.11034747958183289,0.00639977864921093,-0.025465460494160652,-0.03046085126698017,-0.023603450506925583,-0.02585580013692379,-0.25397634506225586,0.012768751941621304,0.033025700598955154,0.013718687929213047,0.014947721734642982,0.0807344913482666,0.26589086651802063,-0.002572385361418128,-0.007464710157364607,-0.03558366745710373,0.05377848446369171,-0.08635726571083069,0.18363219499588013,-0.02440115436911583,-0.01893153227865696,-0.03688465803861618,-0.06821537017822266,-0.07718794792890549,0.2024567872285843,-0.056137565523386,-0.02778911218047142,-0.060701556503772736,-0.06100150942802429,0.022303571924567223,-0.20888781547546387,0.025188209488987923,0.08303104341030121,0.004416128154844046,0.08033932000398636,-0.00827797781676054,-0.24313972890377045,0.021351918578147888,0.01623072288930416,-0.009233854711055756,-0.009600593708455563,-0.04373272880911827,0.45812228322029114,-0.021531015634536743,-0.021722711622714996,-0.0003104657807853073,-0.014583507552742958,0.01838064193725586,0.08374530076980591,-0.03078249655663967,0.004284115508198738,-0.0016091871075332165,-0.014268709346652031,-0.009022524580359459,-0.06097400188446045,0.00004321354936109856,-0.040172699838876724,-0.03135758638381958,-0.00022158751380629838,0.09222334623336792,0.285697340965271,0.0020038161892443895,0.021185753867030144,0.04221012815833092,-0.0418965183198452,0.07729703187942505,0.214896097779274,-0.0014190159272402525,-0.014117632061243057,-0.006118391174823046,0.032877471297979355,-0.046848446130752563,0.2530280351638794,0.04184636101126671,0.011313211172819138,0.0258644986897707,-0.021477699279785156,-0.07575119286775589,-0.2140931934118271,-0.005649141501635313,-0.10796015709638596,-0.02404661290347576,-0.0637134537100792,0.02911357209086418,-0.18182875216007233,-0.03369809314608574,-0.06583350896835327,-0.024614453315734863,-0.07190655171871185,-0.1286846548318863,0.5827127695083618,0.025870032608509064,0.05312107875943184,0.036510881036520004,0.023784413933753967,-0.0012036768021062016,0.14479538798332214,-0.10100960731506348,-0.0003575455630198121,-0.15989269316196442,-0.09407899528741837,-0.26358428597450256,-0.025242280215024948,0.0610351599752903,0.008239894174039364,-0.003083104733377695,0.07459916174411774,0.3398287296295166,-0.0746232196688652,-0.032318707555532455,0.0242986548691988,0.003938283305615187,-0.026703324168920517,0.11089373379945755,-0.14948056638240814,-0.12145600467920303,-0.19109709560871124,-0.19602537155151367,-0.21563506126403809,-0.1813795119524002,