{"version":"0.7.0","metadata":{"date":{"year":2026,"month":7,"day":13,"hour":23,"minute":23,"second":33},"loudness":-30.345186951024367,"gain":0.8280015964065999,"name":"red-tone1","modeled_by":"delt","gear_type":"amp","gear_make":"VOX amplug2 metal","gear_model":"VOX amplug2 metal","tone_type":"vox","trainer":"TONE3000"},"architecture":"SlimmableContainer","config":{"submodels":[{"max_value":0.5,"model":{"version":"0.7.0","metadata":{"date":{"year":2026,"month":7,"day":13,"hour":23,"minute":23,"second":31},"loudness":-30.478264572484328,"gain":0.8289309841592585},"architecture":"WaveNet","config":{"layers":[{"input_size":1,"condition_size":1,"head":{"out_channels":1,"kernel_size":16,"bias":true},"channels":3,"kernel_sizes":[6,6,6,6,6,6,6,6,6,6,6,6,6,6,15,15,6,6,6,6,6,6,6],"dilations":[1,3,7,17,41,101,239,1,3,7,17,41,101,239,1,13,1,3,7,17,41,101,239],"activation":[{"type":"LeakyReLU","negative_slope":0.01},{"type":"LeakyReLU","negative_slope":0.01},{"type":"LeakyReLU","negative_slope":0.01},{"type":"LeakyReLU","negative_slope":0.01},{"type":"LeakyReLU","negative_slope":0.01},{"type":"LeakyReLU","negative_slope":0.01},{"type":"LeakyReLU","negative_slope":0.01},{"type":"LeakyReLU","negative_slope":0.01},{"type":"LeakyReLU","negative_slope":0.01},{"type":"LeakyReLU","negative_slope":0.01},{"type":"LeakyReLU","negative_slope":0.01},{"type":"LeakyReLU","negative_slope":0.01},{"type":"LeakyReLU","negative_slope":0.01},{"type":"LeakyReLU","negative_slope":0.01},{"type":"LeakyReLU","negative_slope":0.01},{"type":"LeakyReLU","negative_slope":0.01},{"type":"LeakyReLU","negative_slope":0.01},{"type":"LeakyReLU","negative_slope":0.01},{"type":"LeakyReLU","negative_slope":0.01},{"type":"LeakyReLU","negative_slope":0.01},{"type":"LeakyReLU","negative_slope":0.01},{"type":"LeakyReLU","negative_slope":0.01},{"type":"LeakyReLU","negative_slope":0.01}],"bottleneck":3,"head1x1":{"active":false,"out_channels":1,"groups":1},"layer1x1":{"active":true,"groups":1},"groups_input":1,"groups_input_mixin":1,"conv_pre_film":{"active":false,"shift":true,"groups":1},"conv_post_film":{"active":false,"shift":true,"groups":1},"input_mixin_pre_film":{"active":false,"shift":true,"groups":1},"input_mixin_post_film":{"active":false,"shift":true,"groups":1},"activation_pre_film":{"active":false,"shift":true,"groups":1},"activation_post_film":{"active":false,"shift":true,"groups":1},"layer1x1_post_film":{"active":false,"shift":true,"groups":1},"head1x1_post_film":{"active":false,"shift":true,"groups":1},"gating_mode":["none","none","none","none","none","none","none","none","none","none","none","none","none","none","none","none","none","none","none","none","none","none","none"],"secondary_activation":[null,null,null,null,null,null,null,null,null,null,null,null,null,null,null,null,null,null,null,null,null,null,null],"slimmable":null}],"head":null,"head_scale":0.004201715933523333},"weights":[-0.6257651448249817,-0.6913281679153442,-1.1103198528289795,-0.3152956962585449,-0.1919008046388626,0.05369775742292404,-0.06422360241413116,0.11380890756845474,0.015957685187458992,-0.34848666191101074,-0.2877712845802307,0.08563171327114105,-0.09563440084457397,-0.1523888111114502,-0.024083467200398445,-0.3881305456161499,-0.12769335508346558,0.027118410915136337,0.19988004863262177,-0.22535671293735504,0.12338077276945114,-0.3899657726287842,0.11635106056928635,-0.2088068425655365,-0.23513273894786835,0.3637469410896301,0.48537561297416687,-0.3119193911552429,-0.23821496963500977,-0.1458258181810379,-0.1526196300983429,0.016403280198574066,0.44747719168663025,-0.2992748022079468,-0.12522128224372864,0.014170768670737743,0.11861851066350937,0.3013261556625366,0.3966265618801117,-0.04001764953136444,-0.07161572575569153,-0.0451216846704483,-0.06425824761390686,-0.10895133018493652,-0.07968472689390182,-0.037095531821250916,0.037006866186857224,-0.04727047681808472,-0.04824013262987137,-0.0327487587928772,-0.03785491734743118,-0.07065487653017044,0.006416619755327702,0.020417792722582817,-0.10806151479482651,-0.1598442792892456,-0.12214258313179016,0.29100242257118225,0.09753762930631638,-0.04321228340268135,0.29727351665496826,0.19594165682792664,0.2006162405014038,-0.5323065519332886,0.3063860237598419,-0.08338753879070282,0.6958562135696411,0.35071149468421936,-0.08713071793317795,-0.5369802117347717,0.40336349606513977,0.058262865990400314,0.24071620404720306,-0.3804456293582916,-0.1672167330980301,0.1891336888074875,0.10916848480701447,0.33000731468200684,0.15095461905002594,-0.010850914753973484,-0.1743108630180359,0.0077662598341703415,-0.145979642868042,0.12109120935201645,-0.2737049460411072,-0.447403222322464,-0.4028710722923279,0.38144803047180176,0.15557058155536652,-0.020136108621954918,0.019990693777799606,-0.3029060363769531,-0.3201289176940918,-0.3514408767223358,-0.049994293600320816,-0.10098502784967422,-0.22284215688705444,0.29774728417396545,-0.04016341269016266,0.4727720618247986,-0.080268993973732,-0.10761404782533646,-0.14695428311824799,-0.17491421103477478,-0.04287748411297798,-0.40069779753685,-0.07660864293575287,-0.07780030369758606,0.08584199845790863,-0.14773696660995483,-0.274087131023407,0.23620785772800446,0.4026550054550171,0.030828125774860382,0.17074544727802277,0.04843936488032341,-0.13890181481838226,-0.24104216694831848,0.027797989547252655,-0.13795724511146545,0.0940457433462143,-0.3266375958919525,-0.585822582244873,0.24503031373023987,0.15595638751983643,-0.012757961638271809,-0.1597052663564682,0.0705123320221901,-0.20935240387916565,0.19625414907932281,0.3456777334213257,0.27953460812568665,0.639002799987793,0.4179013669490814,1.4917045831680298,-0.5104925036430359,0.13487346470355988,-0.6495630741119385,0.01854061335325241,0.5030167102813721,0.2731088101863861,-0.6744465231895447,-0.7662155628204346,-0.7346349954605103,0.4316290616989136,-0.20537754893302917,0.28933483362197876,-0.11897224187850952,0.033187005668878555,0.26067066192626953,0.14798365533351898,-0.09522326290607452,-0.15452876687049866,-0.2581021189689636,-0.18266727030277252,-0.011485806666314602,-0.08088914304971695,0.0628056451678276,-0.16676431894302368,0.19306200742721558,0.7274681329727173,0.683994710445404,0.3175707161426544,-0.14640334248542786,-0.4280683696269989,-0.04618147388100624,-0.316000759601593,-0.6289412975311279,-0.3451307415962219,0.03963897377252579,0.42056500911712646,0.16686028242111206,0.5097436904907227,0.517807126045227,-0.05459984764456749,-0.21851670742034912,-0.5509800910949707,-0.16093172132968903,-0.49208956956863403,-0.47709283232688904,-0.16134124994277954,-0.06485762447118759,0.10377704352140427,-0.04274898022413254,-0.17999805510044098,-0.1305544227361679,-0.27222007513046265,-0.34200626611709595,0.04511760547757149,-0.38384780287742615,-0.15135039389133453,0.4414438009262085,0.19369475543498993,0.3627949059009552,0.03808068484067917,0.4381580650806427,0.44853970408439636,0.22672398388385773,-0.00005768422124674544,-0.010446946136653423,-0.2616157531738281,0.05892297253012657,-0.12452617287635803,-0.14649765193462372,-0.601894736289978,-0.613866925239563,0.22928941249847412,-0.38945555686950684,0.3346480429172516,-0.10325364768505096,-0.02071981318295002,-0.07822807878255844,0.6400048136711121,-0.6502281427383423,0.5376142263412476,-0.505075991153717,0.1534891128540039,0.009272017516195774,0.3427816331386566,0.031326934695243835,-0.08235417306423187,0.4231584072113037,0.0819336399435997,-0.07912833988666534,-0.3170579671859741,0.10623298585414886,-0.19758300483226776,0.1684057116508484,-0.2586979866027832,-0.3278157711029053,0.052038539201021194,0.018290074542164803,0.08990215510129929,-0.21897341310977936,-0.05047940835356712,-0.016221988946199417,-0.6942113637924194,-0.02873467095196247,0.11818239092826843,0.016906308010220528,-0.009770713746547699,-0.19047094881534576,-0.6311131715774536,-0.10069762170314789,0.06291444599628448,0.000422894605435431,0.193324476480484,0.17131662368774414,0.20581543445587158,0.04752489924430847,-0.10357432067394257,-0.1636655181646347,0.24834641814231873,0.42320695519447327,-1.3702880144119263,0.05711859092116356,0.13023172318935394,-0.15939933061599731,-0.042998988181352615,0.25095584988594055,-0.15167269110679626,-0.08408625423908234,0.05014445632696152,-0.02588403970003128,-0.08580301702022552,-0.15651805698871613,0.25718745589256287,-0.019232409074902534,-0.10147326439619064,0.007808897644281387,0.2372741997241974,0.001061011804267764,-1.1434141397476196,-0.14970289170742035,0.041630830615758896,0.03176233172416687,-0.38012227416038513,-0.43725207448005676,-0.7359323501586914,0.1910042017698288,0.5844201445579529,-0.7605206370353699,0.0011734666768461466,0.43766430020332336,-0.5663448572158813,0.4034547507762909,0.5157492756843567,-0.7638612389564514,-0.23211407661437988,-0.24999301135540009,0.3759600818157196,0.0685921311378479,0.19109994173049927,0.050331614911556244,0.11082684993743896,-0.3051850199699402,-0.12531059980392456,-0.003467219416052103,0.0439969040453434,0.2348698526620865,-0.10521576553583145,0.030032852664589882,0.09142179787158966,-0.10666204243898392,-0.20230485498905182,-0.03805727884173393,-0.028398633003234863,0.06845840811729431,-0.12677285075187683,0.13061468303203583,0.16307947039604187,0.011461974121630192,0.007989425212144852,0.05710630118846893,-0.6279165744781494,-0.08379017561674118,-0.12328559160232544,-0.05854401737451553,0.011061545461416245,-0.26405152678489685,-0.05552319437265396,-0.0889335349202156,-0.13329379260540009,-0.025170356035232544,-0.024654392153024673,0.16991771757602692,-0.5944199562072754,0.29845741391181946,0.034786440432071686,0.10305262356996536,0.15403664112091064,-0.14811228215694427,-0.413514107465744,-0.05272756516933441,0.24833431839942932,0.16264799237251282,0.16696825623512268,-0.03149694949388504,-0.11841616034507751,-0.2014465183019638,-0.036500487476587296,-0.042801257222890854,-0.05162057653069496,0.23907312750816345,-0.29329538345336914,0.09834086894989014,0.21045595407485962,0.2700687646865845,-0.5793590545654297,0.6197459101676941,-0.14768289029598236,0.40774908661842346,-0.023795556277036667,-0.3531627357006073,-0.09823181480169296,-0.2265111654996872,0.12590403854846954,-0.036705344915390015,-0.6090404391288757,-0.01802661083638668,-0.18310418725013733,0.05825802683830261,0.26499566435813904,0.09132332354784012,-0.003289438085630536,0.10528529435396194,-0.2125515341758728,-0.18887199461460114,-0.20009562373161316,0.005203002132475376,-0.17367315292358398,-0.1971605122089386,-0.22148703038692474,-0.15143629908561707,-0.15780726075172424,-0.09348347038030624,-0.012117356993258,-0.12390735745429993,0.1073237881064415,-0.03632067143917084,0.3954537808895111,-0.01638118177652359,0.05344732105731964,0.18024004995822906,-0.059417348355054855,-0.12944912910461426,-1.1948938369750977,0.06363115459680557,0.054201483726501465,0.06681903451681137,0.12923972308635712,-0.018977981060743332,-0.05926407873630524,-0.00009031712397700176,-0.044576600193977356,-0.12724722921848297,-0.006116269156336784,0.14450959861278534,-0.5565727949142456,-0.023286012932658195,-0.032403524965047836,-0.05865411460399628,-0.15906129777431488,-0.22541068494319916,-0.760891854763031,0.0718020349740982,0.07232008129358292,0.12791910767555237,0.20285676419734955,0.13112963736057281,-0.003727871924638748,0.009893125854432583,0.02364860475063324,0.03222529962658882,0.08661634474992752,0.15272404253482819,-0.6751447319984436,-0.03640957921743393,0.4426952004432678,0.08083167672157288,0.2793137729167938,0.48409292101860046,-0.25187039375305176,0.29686176776885986,-0.21948717534542084,0.5136340260505676,0.3113918900489807,0.07613863795995712,0.13287121057510376,-0.420217901468277,-0.2657475769519806,1.1928952932357788,-0.34061524271965027,0.05106830969452858,-0.3372141420841217,-0.004903879016637802,0.0787932351231575,0.007097195368260145,0.03279757499694824,0.2003302127122879,0.5444052219390869,0.03909346088767052,-0.016778456047177315,0.011896941810846329,-0.1267460435628891,-0.22163696587085724,-0.20991213619709015,-0.04047286882996559,-0.08726462721824646,-0.013035289943218231,-0.04207345098257065,-0.22728146612644196,0.4470883011817932,-0.015617146156728268,-0.056051380932331085,0.03575674444437027,-0.08000423014163971,-0.01806407794356346,-0.25974953174591064,0.03301282599568367,0.04573328047990799,-0.056976351886987686,0.003645575139671564,-0.0821981355547905,0.3013898432254791,0.02081931196153164,-0.015370450913906097,-0.02276453748345375,0.007172980811446905,-0.5288498401641846,0.12696537375450134,-0.011425897479057312,-0.0006365660228766501,-0.015038281679153442,0.002267515519633889,-0.0006734922062605619,0.6925442218780518,-0.007958308793604374,-0.005118513945490122,0.006983745377510786,-0.020712917670607567,0.015697766095399857,-0.048711147159338,0.006483766250312328,-0.004682269878685474,0.0052343932911753654,-0.001376225147396326,-0.02817053534090519,0.35034286975860596,-0.07713747024536133,-0.26992085576057434,0.370288610458374,0.3047487139701843,-0.4894643723964691,-0.4465258717536926,-0.17186571657657623,0.5206161141395569,0.47313204407691956,0.21795125305652618,0.29087013006210327,0.05828407406806946,-0.7231919765472412,-0.5323259830474854,0.06081017479300499,0.2490718513727188,-0.19936427474021912,0.02639387920498848,-0.46013739705085754,-0.16947032511234283,-0.10048580169677734,-0.12728093564510345,-0.36659398674964905,-0.5473383069038391,-0.06694985181093216,-0.047530464828014374,-0.1443750560283661,-0.17594511806964874,0.10437062382698059,-0.042240746319293976,-0.023528022691607475,-0.17549604177474976,-0.009179690852761269,0.0988154485821724,-0.0049920701421797276,-0.15858043730258942,-0.599741518497467,0.3066665828227997,-0.10146220773458481,-0.011281168088316917,0.10709086060523987,-0.08974531292915344,-0.03270604461431503,-0.06452522426843643,-0.11942150443792343,0.021193474531173706,0.1264570951461792,-0.18792018294334412,-0.4028377830982208,-0.018252048641443253,-0.27276816964149475,0.1322776973247528,0.16464707255363464,0.01719154790043831,-0.15235112607479095,0.13106770813465118,0.14004558324813843,0.23254771530628204,-0.4733310639858246,-0.48932981491088867,-0.22852951288223267,0.09074654430150986,-0.06897398829460144,-0.18972371518611908,-0.1795087307691574,-0.3913927972316742,-0.00036298722261562943,-0.1078522801399231,0.0372089147567749,0.10852940380573273,-0.448325514793396,-0.3156161904335022,0.17223450541496277,-0.02741347625851631,0.05932524800300598,-0.0021185786463320255,-0.4225791096687317,0.4482283592224121,0.1351216584444046,0.614878237247467,-0.150367870926857,0.5553319454193115,-0.14730042219161987,-0.2867145538330078,-0.32995304465293884,-0.1808248609304428,-0.8408647179603577,-0.08446988463401794,-0.07901899516582489,0.31061622500419617,-0.5694516897201538,-0.16677717864513397,0.08908659219741821,0.06983602046966553,0.21083635091781616,-0.7712729573249817,-0.13598540425300598,0.002131636021658778,-0.04356756433844566,-0.1662152111530304,-0.06492051482200623,-0.052961885929107666,0.41011595726013184,0.07961957901716232,0.18416382372379303,0.10866707563400269,0.06784003973007202,-0.6490672826766968,0.1146879643201828,0.21480625867843628,0.21344394981861115,0.0823068916797638,0.010585024952888489,-0.15541021525859833,0.01859106868505478,0.07935158908367157,-0.2477879822254181,-0.21063102781772614,0.08179205656051636,-0.05142008513212204,-0.12143814563751221,-0.11894267797470093,0.18274667859077454,0.3807350695133209,-0.016897637397050858,-0.2596392035484314,-0.4633157253265381,-0.3729826807975769,0.0796404778957367,0.049723636358976364,-0.12075868248939514,-0.7895103096961975,-0.08933354169130325,0.10369083285331726,0.15634086728096008,-0.05293159931898117,0.020833393558859825,0.2096702605485916,0.2911642789840698,0.16021828353405,0.12854695320129395,-0.025716343894600868,-0.15901479125022888,-0.29373568296432495,-0.014753328636288643,-0.05979934334754944,0.09758937358856201,0.26329898834228516,0.31716734170913696,-0.0881325751543045,-0.00851386971771717,-0.24948328733444214,-0.18172109127044678,0.6006361842155457,-0.3095865547657013,-0.5471316576004028,-0.7080355882644653,-0.2627207338809967,0.848449170589447,0.04089514911174774,0.2630048394203186,0.1925583928823471,-0.47110000252723694,-0.26584407687187195,-0.23838327825069427,0.01837991550564766,-0.1319587677717209,-0.18603655695915222,0.08635381609201431,-0.03126055747270584,-0.17456217110157013,-0.04125307872891426,0.21448515355587006,0.23896953463554382,0.2539466917514801,0.11361537873744965,0.04357829689979553,-0.012376477010548115,0.03756450489163399,-0.46924641728401184,-0.01637371815741062,-0.015373831614851952,0.15119129419326782,-0.035236332565546036,0.054798685014247894,-0.3928527534008026,-0.1402217447757721,-0.1829136610031128,-0.09079154580831528,0.3786926567554474,0.21040008962154388,-0.35399067401885986,-0.017500566318631172,0.03939256817102432,-0.11746092885732651,-0.1353033035993576,0.41182681918144226,-0.27626004815101624,0.06487645953893661,0.06861178576946259,0.04778802767395973,0.12336327880620956,0.15762369334697723,-0.5118260383605957,-0.06629744917154312,-0.07981420308351517,0.006054256577044725,-0.09837815165519714,-0.20562465488910675,0.6028095483779907,-0.0042366222478449345,-0.047396134585142136,0.05608699098229408,0.023227021098136902,0.20610935986042023,-0.20477159321308136,-0.11410654336214066,-0.3278520107269287,-0.059861116111278534,0.010603027418255806,-0.08711030334234238,-0.12153605371713638,-0.1715671718120575,0.09594223648309708,0.4654187262058258,-0.2733904719352722,0.5378015637397766,-0.38965046405792236,0.7400913238525391,0.11571116745471954,0.43722662329673767,0.02327154390513897,0.20543928444385529,0.5425641536712646,-0.037294674664735794,-0.06433196365833282,-0.04207906126976013,0.06644127517938614,-0.15618252754211426,0.43729421496391296,-0.07030560076236725,-0.1162574514746666,-0.18832771480083466,-0.31333109736442566,0.19778110086917877,-0.5202359557151794,0.007732870988547802,0.056961361318826675,0.04092290252447128,0.02874753624200821,0.12430635094642639,-0.3795185089111328,-0.16609777510166168,-0.18066708743572235,-0.11025560647249222,-0.015643686056137085,-0.23422078788280487,-0.4096006751060486,0.045134369283914566,-0.13014574348926544,-0.30073943734169006,-0.30769553780555725,0.04378890618681908,0.12021050602197647,0.13566361367702484,0.17646512389183044,0.15939101576805115,0.16413986682891846,0.23888933658599854,-0.8087237477302551,0.14616218209266663,-0.04368479922413826,0.01882895641028881,0.14815334975719452,0.18907476961612701,0.03866785764694214,-0.1311732828617096,0.004617542494088411,0.14398421347141266,0.26053568720817566,0.19211529195308685,-0.6072424650192261,-0.09417139738798141,-0.08379758149385452,-0.14053359627723694,-0.32895705103874207,-0.324881911277771,0.8411735892295837,0.2471350133419037,-0.2689923346042633,0.07708155363798141,0.5249950885772705,0.2195582091808319,-0.30164340138435364,-0.6795693635940552,0.6068328619003296,0.6296792030334473,0.5104758739471436,-0.7430258393287659,1.016715407371521,0.04615694284439087,-0.04291892424225807,-0.33676081895828247,0.18925704061985016,0.3329246938228607,-0.15213985741138458,0.05160002037882805,0.09902980923652649,0.12586940824985504,0.3427673280239105,0.2098364233970642,0.7405232787132263,-0.18766635656356812,-0.14396721124649048,-0.11433130502700806,-0.27017712593078613,-0.11069135367870331,0.06130805239081383,0.12113247066736221,0.07934562116861343,0.0782749354839325,0.0206928588449955,-0.22154130041599274,-0.15949977934360504,-0.1489757001399994,-0.05670702084898949,0.019217506051063538,0.06808952987194061,0.09009011834859848,0.14754101634025574,0.2175421267747879,0.142548605799675,0.16631561517715454,0.1868339627981186,-0.2570123076438904,-0.33557337522506714,-0.07221454381942749,-0.07381246984004974,-0.22145085036754608,0.06787664443254471,-0.07191536575555801,0.040467023849487305,-0.059796229004859924,-0.05370941758155823,-0.08077400177717209,-0.1359354555606842,-0.07476779818534851,0.2122899740934372,0.10658670216798782,0.1385657638311386,0.18645979464054108,0.2327016443014145,0.2720923125743866,-0.26736360788345337,-0.0164426788687706,-0.04632219299674034,-0.05554179102182388,-0.08160099387168884,-0.19199107587337494,0.5955718159675598,-0.05747278779745102,-0.31923386454582214,-0.0051039885729551315,-0.17832104861736298,-0.2943413257598877,-0.5492300987243652,-0.11532685905694962,0.2709708511829376,0.637139618396759,-0.524207353591919,0.5514450073242188,0.3259976804256439,-0.1666335165500641,-0.2694772481918335,-0.3754691481590271,-0.46194177865982056,0.23595084249973297,0.04476267844438553,-0.027198096737265587,-0.06776987761259079,0.0348406620323658,-0.025448434054851532,-0.17129932343959808,-0.6031576991081238,0.05443017929792404,0.07215651124715805,0.012402833439409733,-0.0585140697658062,-0.13193310797214508,-0.30420204997062683,-0.0631253719329834,-0.1104157418012619,-0.20770768821239471,-0.032232869416475296,0.1317732036113739,0.10767539590597153,0.03606950491666794,0.017534762620925903,0.02474558912217617,0.041472576558589935,0.11113270372152328,-0.4100669324398041,-0.0779053196310997,-0.007497000508010387,-0.01267035398632288,-0.10109246522188187,-0.3320605158805847,-0.20299546420574188,0.01919476129114628,0.026696007698774338,0.004469926003366709,0.08524633944034576,0.20645728707313538,-0.3881746828556061,-0.05830976366996765,0.02431919425725937,-0.03208976611495018,-0.061941903084516525,-0.0598754957318306,-0.3326936364173889,0.05508223921060562,-0.031981006264686584,-0.05462649092078209,0.2144741714000702,0.18423724174499512,-0.037227023392915726,0.1031329557299614,0.1768496334552765,0.29219117760658264,-0.04681140556931496,0.12180056422948837,0.161006897687912,0.35335785150527954,0.26085907220840454,0.40730828046798706,0.3031967580318451,0.4370627701282501,0.5981131196022034,0.219707190990448,0.3912944495677948,-0.0025130233261734247,-0.11044231802225113,-0.6010107398033142,-0.18741349875926971,-0.3517088294029236,-0.024248365312814713,0.002244212431833148,-0.1502808928489685,-0.550680935382843,0.4367675185203552,0.009979819878935814,0.00422333599999547,0.00663293432444334,0.0060400525107979774,0.0049774181097745895,-0.8884739875793457,-0.017416605725884438,-0.011951599270105362,-0.017841942608356476,-0.008510429412126541,-0.0439622700214386,-0.6226240396499634,-0.0031758786644786596,-0.002385849365964532,0.009518750943243504,-0.006572636775672436,0.029785748571157455,0.1768767088651657,0.0746263638138771,0.05457809194922447,0.034994907677173615,0.11337573081254959,0.04567708820104599,-0.4377997815608978,-0.11801448464393616,-0.08323794603347778,-0.07269419729709625,-0.15458345413208008,-0.08103436976671219,-0.5741111040115356,0.016765324398875237,0.01008984912186861,0.027701959013938904,0.009707392193377018,-0.002555836457759142,0.043407075107097626,0.027194174006581306,0.023706303909420967,0.03398606553673744,0.0366300530731678,-0.008191708475351334,0.17618529498577118,-0.06269282847642899,-0.06495217978954315,-0.08920943737030029,-0.20151109993457794,-0.13772200047969818,-0.21230044960975647,0.016699781641364098,-0.005092136561870575,0.05501876398921013,0.11261877417564392,0.0922408476471901,0.4582272171974182,0.3546237051486969,-0.04834188520908356,-0.028393248096108437,0.6850302815437317,0.07798118144273758,0.44129452109336853,0.43731844425201416,0.37026122212409973,-0.28324851393699646,0.29607969522476196,-0.1590518206357956,-0.09345708042383194,-0.7985466718673706,0.1714298129081726,0.10215801745653152,-0.21733784675598145,-0.37541455030441284,-0.3194473087787628,-0.03180379047989845,0.06015261262655258,-0.0012338595697656274,0.04132520779967308,-0.08931151777505875,-0.14338387548923492,-0.07230639457702637,-0.3241784870624542,-0.1970597207546234,-0.258681982755661,-0.24540932476520538,-0.18771235644817352,-0.1861722469329834,-0.030608469620347023,0.18262997269630432,0.10163544863462448,-0.0693189799785614,-0.1074414998292923,-0.2645522654056549,0.04497284069657326,0.11707264930009842,0.04058443382382393,0.24069428443908691,0.23013263940811157,0.017965227365493774,0.116435207426548,0.018995169550180435,-0.22830115258693695,-0.3020951449871063,-0.4052239656448364,0.08204440772533417,0.07901424169540405,-0.04294757917523384,-0.08890555799007416,0.07924661040306091,0.005076059140264988,-0.08323784917593002,-0.07007180899381638,0.004963053856045008,-0.06711471080780029,-0.06626544892787933,0.05949438735842705,-0.08933869004249573,0.020596228539943695,0.13978251814842224,-0.24306409060955048,-0.21845827996730804,-0.019337449222803116,0.026658963412046432,0.004562376998364925,-0.45057857036590576,-0.23333312571048737,0.40776434540748596,-0.17259521782398224,-0.26708653569221497,0.18877770006656647,-0.1924777626991272,-0.08530960977077484,-0.00908553134649992,-0.2896617650985718,0.28590571880340576,0.2685146629810333,0.30107778310775757,0.23163765668869019,0.0559217631816864,-0.08823554962873459,0.03447886183857918,-0.019651055335998535,-0.12196173518896103,0.023595118895173073,0.1422232836484909,0.12490065395832062,0.14964647591114044,0.15639783442020416,0.3849981129169464,-0.17297571897506714,0.03423827514052391,-0.06121500954031944,0.0532461479306221,0.15004244446754456,-0.01793334074318409,-0.10337942838668823,0.2862240970134735,0.21340277791023254,0.056945156306028366,0.01415333990007639,-0.004436256363987923,-0.005791488103568554,0.059098098427057266,0.048469580709934235,-0.03452259302139282,-0.001737708691507578,-0.06598919630050659,0.0010507929837331176,-0.022801125422120094,-0.02718297764658928,0.005336792208254337,-0.05700191855430603,0.0200981292873621,0.057749807834625244,-0.01771795190870762,-0.01922629028558731,-0.015024688094854355,-0.19662262499332428,0.2523778975009918,0.24450688064098358,0.2165141999721527,0.03213193267583847,0.06417567282915115,0.07243774086236954,0.08804632723331451,0.00987919420003891,0.07068794965744019,0.013623171485960484,0.051609307527542114,0.16960012912750244,0.07444017380475998,0.08647271990776062,0.03810311481356621,-0.08640248328447342,-0.06978471577167511,-0.0697241872549057,0.024800090119242668,-0.043958231806755066,-0.046266358345746994,0.018406467512249947,-0.09128833562135696,-0.01811911165714264,-0.03879168629646301,-0.08836068212985992,0.022595690563321114,0.08200515806674957,-0.04447063431143761,-0.03540969640016556,0.5832917094230652,-0.045797958970069885,-0.23176626861095428,-0.2701411247253418,0.6853747367858887,-0.46886950731277466,0.30739015340805054,-0.2535167634487152,0.4823665916919708,-0.9767199158668518,0.2962849736213684,-0.4421396553516388,-0.25260958075523376,0.159836083650589,-0.40722423791885376,-0.714333176612854,-0.3083127737045288,-0.1533370316028595,0.4709737300872803,-0.0023955805227160454,-0.06550578027963638,0.011163891293108463,-0.029691418632864952,-0.08354535698890686,-0.0675496757030487,-0.13507556915283203,-0.1254226118326187,-0.1862083077430725,-0.029754484072327614,0.030198492109775543,0.03299621492624283,0.071634441614151,-0.017466722056269646,0.03266461566090584,0.08949411660432816,0.1692395806312561,-0.04567142203450203,0.07955678552389145,0.08068190515041351,0.04531848430633545,0.113126739859581,0.11932951211929321,0.06344688683748245,-0.09391680359840393,-0.12961076200008392,0.06727674603462219,-0.32883238792419434,-0.181194007396698,0.1705002784729004,-0.02100433222949505,-0.06080801412463188,0.05849109962582588,0.009264407679438591,0.07233785837888718,0.08608140796422958,0.0881214514374733,0.11259186267852783,0.07299821078777313,0.10132741928100586,0.17417582869529724,0.09662897884845734,0.29496586322784424,0.185792937874794,0.35113808512687683,-0.015965431928634644,-0.07173507660627365,0.011152824386954308,-0.029914146289229393,-0.06664493680000305,-0.05161402374505997,-0.09288386255502701,-0.09146948158740997,-0.18462730944156647,-0.12620140612125397,-0.1533036082983017,-0.2938166856765747,-0.2191302329301834,-0.13914325833320618,0.2062089592218399,0.04108317941427231,0.005670678801834583,0.004665909335017204,0.011883540078997612,0.13975279033184052,0.09428209811449051,0.24689513444900513,0.2336425930261612,0.2874049246311188,0.3299817442893982,0.311810702085495,0.24968500435352325,0.6588875651359558,0.7486016750335693,-0.23023103177547455,0.015902820974588394,0.0024585688952356577,0.03034253790974617,0.02801510877907276,0.015304126776754856,-0.003894725814461708,-0.007825790904462337,0.0018951407400891185,-0.04486880078911781,-0.0863121971487999,-0.09217479079961777,0.017193028703331947,-0.34034815430641174,-0.19079259037971497,1.3159170150756836,-0.02906542271375656,-0.026089878752827644,-0.04552949219942093,-0.05142081901431084,-0.035003747791051865,-0.06564842164516449,-0.10207555443048477,-0.15436960756778717,-0.07829170674085617,-0.12723317742347717,-0.149638831615448,-0.23916296660900116,-0.2508588135242462,-0.18953442573547363,0.3534160554409027,0.07792852818965912,0.13017043471336365,0.06569172441959381,0.16401930153369904,-0.01347584743052721,0.09384576231241226,0.20708930492401123,0.25577017664909363,0.10131470859050751,0.21687214076519012,0.31579312682151794,0.4779333770275116,0.1944056749343872,0.44036030769348145,-0.1329207867383957,-0.019908644258975983,-0.013220041058957577,-0.015291052870452404,-0.06501638889312744,-0.019561026245355606,0.029332291334867477,-0.01658378727734089,-0.06963752210140228,0.02185504138469696,-0.07097695767879486,-0.04602403566241264,-0.22120530903339386,-0.18511688709259033,-0.11862228065729141,0.8174853324890137,0.36243364214897156,-0.2507816553115845,0.20640020072460175,0.617744505405426,-1.230238914489746,0.7522755265235901,-0.3718116879463196,0.6084346771240234,-0.012840104289352894,0.3223073482513428,0.3455061614513397,0.30854710936546326,-0.32064300775527954,0.636341392993927,0.6610584259033203,-0.8089996576309204,-0.3740668296813965,0.1216883659362793,0.07407791912555695,-0.09651558101177216,-0.20518650114536285,-0.13143500685691833,-0.15706445276737213,0.2318640649318695,-0.01072110515087843,-0.0525243766605854,-0.005780573934316635,-0.21414880454540253,-0.3050890266895294,-0.20192597806453705,0.09416937083005905,0.1623114049434662,-0.3525870442390442,-0.20827838778495789,-0.15392108261585236,0.8677300214767456,0.18835388123989105,-0.310261607170105,0.0871812179684639,0.09954547882080078,0.2829047441482544,0.19458100199699402,0.12490186840295792,-0.004320984240621328,0.10791479796171188,0.2962903380393982,0.4041137397289276,0.5067791938781738,0.13648459315299988,-0.22403620183467865,-0.27130699157714844,0.10887275636196136,0.30898213386535645,0.16094058752059937,-0.17312933504581451,0.07666318118572235,0.11838100105524063,0.4938237965106964,0.3842601478099823,0.17537513375282288,0.21440532803535461,-0.18149584531784058,-0.35898566246032715,0.31266820430755615,0.7037287950515747,-0.7879082560539246,0.5153633952140808,0.49453556537628174,0.23462161421775818,0.8071993589401245,1.3178837299346924,0.1759898066520691,0.3661249577999115,-0.4893799126148224,0.6221914887428284,0.5113524198532104,-0.5301890969276428,-0.18202312290668488,-0.6515021324157715,-0.8098309636116028,1.035537838935852,0.08992708474397659,-0.6891210079193115,-0.003837347961962223,-0.7881726622581482,-0.41761142015457153,0.8981608748435974,-0.8152247667312622,0.29816734790802,-0.11347655951976776,0.06407974660396576,0.06739039719104767,-0.11624634265899658,-0.48405611515045166,-1.0530519485473633,0.1819429099559784,0.08658909797668457,0.07232214510440826,0.1390497386455536,0.17882978916168213,0.12122471630573273,0.20169928669929504,-0.0672139823436737,-0.09326133877038956,0.2982274889945984,0.21450935304164886,-0.6835741996765137,-0.08177400380373001,0.14066959917545319,-0.052167780697345734,0.07834530621767044,-0.032133933156728745,0.17112909257411957,0.9312381744384766,0.05037509649991989,0.13326065242290497,0.17440354824066162,0.11337053030729294,0.20754706859588623,0.057190246880054474,-0.11868429183959961,-0.05409545078873634,0.02443402074277401,0.018843306228518486,-0.08726435154676437,0.44102203845977783,-0.22690816223621368,-0.2227826565504074,-0.78550124168396,-0.7915545701980591,0.12826776504516602,0.06643996387720108,0.051723286509513855,-0.027556974440813065,0.22027793526649475,0.06019594147801399,-0.06138542667031288,0.11764772236347198,0.1938783824443817,0.3911474049091339,-0.6472469568252563,-0.3627312481403351,0.17513711750507355,-0.05714971572160721,0.8080318570137024,-0.5072159767150879,0.5116967558860779,-0.441924512386322,-0.21147915720939636,-0.42285746335983276,-0.3447358012199402,-0.659910261631012,0.36030882596969604,-0.5204517841339111,0.04409705102443695,-0.5329822301864624,0.8309292793273926,-0.585482656955719,-0.19416828453540802,-0.37330642342567444,-0.4552180767059326,-0.039689529687166214,-0.23989804089069366,0.16408787667751312,-0.3913618326187134,-0.813875675201416,0.17664827406406403,-0.11710533499717712,-0.16033512353897095,0.026157084852457047,-0.21427935361862183,-0.4238361716270447,0.06304071098566055,-0.10803733766078949,0.19253869354724884,-0.27380460500717163,0.09773312509059906,0.11528608947992325,-0.3062014877796173,0.5409337282180786,-0.08587908744812012,0.3217807710170746,0.0986114963889122,-0.1557328999042511,0.07875950634479523,0.037683360278606415,-0.08408653736114502,0.22293391823768616,-0.16286523640155792,0.24556869268417358,0.05170317366719246,-0.07906593382358551,-0.05980946496129036,0.21519577503204346,-0.31076323986053467,0.08106265217065811,0.0641355887055397,0.03327687457203865,-0.03454705327749252,-0.28750675916671753,0.081462562084198,-0.5788968801498413,-0.21850794553756714,0.13798174262046814,-0.1425366848707199,0.12918947637081146,0.14379915595054626,0.17547248303890228,0.15127608180046082,0.04661111533641815,0.05832473933696747,0.1979423314332962,0.03140202537178993,0.1590292751789093,-0.099533312022686,-0.09481631964445114,0.7394152283668518,-0.1057470515370369,0.2732342779636383,-0.063296377658844,0.1010352149605751,0.20344588160514832,-0.38379886746406555,-0.2591763436794281,-0.04841990768909454,-0.47954732179641724,0.26022741198539734,0.41931450366973877,-0.24250300228595734,-0.13546468317508698,0.11386454850435257,0.055500131100416183,0.04802822321653366,0.1132492795586586,0.032494399696588516,0.058753278106451035,0.10688935220241547,0.17285069823265076,0.052524667233228683,-0.7595216631889343,0.09070979058742523,0.05751023069024086,-0.182491272687912,-0.26644423604011536,-0.03146699443459511,-0.4878474473953247,-0.05817870423197746,-0.006295929662883282,-0.06700944900512695,-0.1102847009897232,0.2269713431596756,0.7299100756645203,-0.13751141726970673,-0.12863066792488098,-0.049713533371686935,-0.08577772229909897,0.04179701209068298,-0.4852691888809204,-0.019187012687325478,-0.24442724883556366,-0.3574180603027344,-0.41526275873184204,-0.569553017616272,0.2486478090286255,-0.03963674604892731,-0.11019949615001678,-0.21906079351902008,-0.1676190346479416,0.1658618003129959,-0.004555236082524061,0.07448295503854752,-0.004983108956366777,-0.1579093337059021,-0.10589633136987686,-0.22811871767044067,0.01744968444108963,0.29479074478149414,0.08576513081789017,0.39521798491477966,0.3013823926448822,0.22684626281261444,0.3889714181423187,0.4508749842643738,0.07644852250814438,0.2786506414413452,0.18939374387264252,0.22433902323246002,0.2637103796005249,0.10252869129180908,0.29585450887680054,0.1892191767692566,-0.5953251719474792,0.3444925844669342,-0.0018772805342450738,0.24338708817958832,0.04669599235057831,-1.1271007061004639,0.37026533484458923,-0.8618316650390625,-0.09406691044569016,-0.7300329804420471,0.15303964912891388,0.04555965214967728,-0.7575187683105469,-0.5847954750061035,-0.254543274641037,-0.2827942669391632,-0.07387229800224304,-0.1821403056383133,-0.04021918401122093,0.0677269920706749,-0.3182998597621918,-0.08943312615156174,0.13062699139118195,0.09324079751968384,0.06108970195055008,-0.11707429587841034,-0.2644112706184387,-0.08839856088161469,-0.07155592739582062,-0.03184115141630173,-0.07981721311807632,-0.20415398478507996,0.014733550138771534,-0.1895139217376709,0.018419843167066574,0.02777097374200821,0.046599697321653366,0.01663028448820114,-0.7106223702430725,0.013546640984714031,0.13341467082500458,0.005002968013286591,-0.17898783087730408,-0.5237715840339661,-0.010977215133607388,0.026166027411818504,-0.13933627307415009,-0.15011991560459137,-0.12321914732456207,0.005701960064470768,-0.22411304712295532,-0.027604401111602783,0.0013474604347720742,0.032467592507600784,-0.04442305862903595,0.004917301703244448,0.10995259881019592,-0.05316587910056114,-0.033472172915935516,-0.008431139402091503,0.024625161662697792,0.04189971834421158,0.04780205711722374,0.1058502122759819,0.06988859921693802,0.0018157014856114984,0.07356784492731094,0.044590748846530914,0.15789814293384552,0.17344622313976288,0.10911538451910019,0.012560968287289143,-0.420153945684433,0.04684941843152046,0.015428855083882809,-0.30285245180130005,0.47697576880455017,-0.25714364647865295,0.0771578922867775,-0.9336647391319275,-0.03471347317099571,-0.6129763126373291,0.488733172416687,0.661091148853302,-0.22626273334026337,-0.5182127952575684,-0.21230989694595337,0.24357275664806366,0.17347851395606995,0.33005183935165405,-0.12789799273014069,-0.20986557006835938,-0.16025307774543762,-0.01692638359963894,-0.1392589509487152,-0.039422713220119476,0.4437272548675537,0.5611210465431213,0.04779825359582901,-0.23599322140216827,0.07833704352378845,0.10485823452472687,0.005601373501121998,-0.32319632172584534,0.06696119159460068,-0.05471932142972946,0.004154378082603216,-0.08079177141189575,-0.2164764404296875,-0.3424765169620514,-0.6208245754241943,0.020071299746632576,-0.1678992211818695,-0.16514788568019867,-0.14597880840301514,0.10200582444667816,0.025022588670253754,-0.06944146007299423,0.1113881841301918,0.20995362102985382,0.15686257183551788,-0.22680823504924774,0.12209299206733704,-0.1082758978009224,-0.19331340491771698,-0.21330392360687256,-0.16679663956165314,0.28655925393104553,-0.03933444246649742,0.0008455594070255756,0.07492173463106155,0.08446072787046432,-0.5147436857223511,-0.5697208046913147,-0.0010693456279113889,0.08312080800533295,-0.045366156846284866,-0.21292315423488617,0.08873952180147171,0.47315290570259094,-0.03546759858727455,-0.061153627932071686,0.12616614997386932,0.4742104709148407,0.045869696885347366,-0.15523919463157654,0.10687873512506485,0.22581273317337036,0.5950819849967957,-0.41809800267219543,-0.5549314618110657,-0.3060603141784668,-0.13387471437454224,-0.2793925106525421,-0.6031934022903442,0.3676792085170746,0.08411956578493118,0.2991003692150116,-0.021282993257045746,0.01009026262909174,0.07598409056663513,-0.026098094880580902,0.062049467116594315,-0.08129852265119553,0.06066998466849327,0.04068014770746231,-0.034959301352500916,0.1275961697101593,-0.14384591579437256,0.12299899756908417,-0.0011249121744185686,-0.0330362468957901,0.0028994930908083916,-0.09258192777633667,0.03896785154938698,-0.0935710221529007,0.011783086694777012,-0.06428048759698868,-0.05008966475725174,-0.12550130486488342,0.015839410945773125,-0.36233505606651306,-0.37363067269325256,-0.08370213955640793,-0.02542230486869812,-0.08128374069929123,-0.0463968925178051,0.02427545376121998,0.03668655455112457,0.1099875345826149,0.0448274128139019,0.05609508231282234,0.07289579510688782,0.08293518424034119,-0.3046025037765503,-0.016532551497220993,-0.04007243737578392,0.0006972551927901804,-0.18492379784584045,0.06418436020612717,-0.1438678801059723,-0.03708040341734886,-0.016012219712138176,-0.043456774204969406,0.008965837769210339,-0.11099321395158768,-0.15194900333881378,0.041563067585229874,0.03325346112251282,-0.04411499202251434,0.09707850217819214,-0.06984848529100418,0.15528586506843567,-0.09919442236423492,0.03580963611602783,0.2379636913537979,0.017628733068704605,-0.055222783237695694,0.01929614506661892,0.4162098467350006,-0.00858832336962223,0.5327888131141663,0.11612158268690109,0.18631941080093384,-0.07476914674043655,-0.32249006628990173,-0.3899204134941101,-0.36959829926490784,-0.3457287847995758,0.4948616325855255,-0.35605674982070923,0.009488046169281006,0.01590845361351967,0.018107546493411064,0.012014434672892094,-0.010444091632962227,-0.04483442381024361,-0.08533728122711182,-0.11414638161659241,-0.12974298000335693,-0.11503547430038452,-0.08275964856147766,-0.04761725291609764,-0.005963024217635393,0.010640233755111694,0.011454924941062927,0.0052408757619559765,-0.009193487465381622,-0.023804981261491776,-0.04571772739291191,-0.07190726697444916,-0.09540120512247086,-0.10134772956371307,-0.09275651723146439,-0.07863710820674896,-0.04427213594317436,-0.0314469076693058,-0.004982986021786928,0.00012255451292730868,-0.0034751289058476686,-0.006312442943453789,-0.005955635104328394,-0.006292484235018492,0.012988961301743984,0.032357294112443924,0.0660475492477417,0.09764110296964645,0.1256904900074005,0.13583293557167053,0.12795057892799377,0.1052265390753746,0.07552874088287354,0.0510994978249073,0.03228180855512619,0.02553854137659073,0.02329147234559059,0.01687968708574772,0.009094429202377796,0.005565866827964783,0.15793874859809875,0.004201715839607663],"sample_rate":48000}},{"max_value":1,"model":{"version":"0.7.0","metadata":{"date":{"year":2026,"month":7,"day":13,"hour":23,"minute":23,"second":32},"loudness":-30.345186951024367,"gain":0.8280015964065999},"architecture":"WaveNet","config":{"layers":[{"input_size":1,"condition_size":1,"head":{"out_channels":1,"kernel_size":16,"bias":true},"channels":8,"kernel_sizes":[6,6,6,6,6,6,6,6,6,6,6,6,6,6,15,15,6,6,6,6,6,6,6],"dilations":[1,3,7,17,41,101,239,1,3,7,17,41,101,239,1,13,1,3,7,17,41,101,239],"activation":[{"type":"LeakyReLU","negative_slope":0.01},{"type":"LeakyReLU","negative_slope":0.01},{"type":"LeakyReLU","negative_slope":0.01},{"type":"LeakyReLU","negative_slope":0.01},{"type":"LeakyReLU","negative_slope":0.01},{"type":"LeakyReLU","negative_slope":0.01},{"type":"LeakyReLU","negative_slope":0.01},{"type":"LeakyReLU","negative_slope":0.01},{"type":"LeakyReLU","negative_slope":0.01},{"type":"LeakyReLU","negative_slope":0.01},{"type":"LeakyReLU","negative_slope":0.01},{"type":"LeakyReLU","negative_slope":0.01},{"type":"LeakyReLU","negative_slope":0.01},{"type":"LeakyReLU","negative_slope":0.01},{"type":"LeakyReLU","negative_slope":0.01},{"type":"LeakyReLU","negative_slope":0.01},{"type":"LeakyReLU","negative_slope":0.01},{"type":"LeakyReLU","negative_slope":0.01},{"type":"LeakyReLU","negative_slope":0.01},{"type":"LeakyReLU","negative_slope":0.01},{"type":"LeakyReLU","negative_slope":0.01},{"type":"LeakyReLU","negative_slope":0.01},{"type":"LeakyReLU","negative_slope":0.01}],"bottleneck":8,"head1x1":{"active":false,"out_channels":1,"groups":1},"layer1x1":{"active":true,"groups":1},"groups_input":1,"groups_input_mixin":1,"conv_pre_film":{"active":false,"shift":true,"groups":1},"conv_post_film":{"active":false,"shift":true,"groups":1},"input_mixin_pre_film":{"active":false,"shift":true,"groups":1},"input_mixin_post_film":{"active":false,"shift":true,"groups":1},"activation_pre_film":{"active":false,"shift":true,"groups":1},"activation_post_film":{"active":false,"shift":true,"groups":1},"layer1x1_post_film":{"active":false,"shift":true,"groups":1},"head1x1_post_film":{"active":false,"shift":true,"groups":1},"gating_mode":["none","none","none","none","none","none","none","none","none","none","none","none","none","none","none","none","none","none","none","none","none","none","none"],"secondary_activation":[null,null,null,null,null,null,null,null,null,null,null,null,null,null,null,null,null,null,null,null,null,null,null],"slimmable":null}],"head":null,"head_scale":0.004201715933523333},"weights":[-0.38033434748649597,-0.03611035645008087,0.37183237075805664,0.60394686460495,-0.7783104777336121,-0.3495986759662628,0.18299545347690582,0.9949712157249451,0.014805885031819344,0.11036787927150726,0.013036126270890236,0.07454418390989304,0.16935749351978302,-0.12460464239120483,0.02412995882332325,0.02598653733730316,0.03295452520251274,0.022220490500330925,0.030007394030690193,-0.0025589403230696917,-0.02383655123412609,-0.02815082110464573,0.044193848967552185,-0.04481620714068413,-0.0663284957408905,0.07731108367443085,-0.14291228353977203,-0.000008040873581194319,-0.006761138793081045,-0.08034830540418625,-0.12530206143856049,0.1330498903989792,0.04230812191963196,0.11783000081777573,0.026746375486254692,0.08436329662799835,0.14426110684871674,-0.1326458752155304,0.08367729187011719,0.09874608367681503,0.017534229904413223,0.04686371237039566,0.07897820323705673,-0.04228424280881882,-0.06865043938159943,-0.06640800833702087,0.0026407556142657995,-0.07961573451757431,-0.06263364851474762,0.061050109565258026,0.010701880790293217,-0.15684638917446136,0.048730120062828064,0.07094264030456543,-0.07514926046133041,0.10173524171113968,0.1673697531223297,0.18266257643699646,0.13574400544166565,-0.010814630426466465,-0.1648198515176773,-0.2021009474992752,0.023098615929484367,0.05052449554204941,0.0497274324297905,0.04368751123547554,0.024088067933917046,0.0025970761198550463,-0.09237145632505417,-0.16854047775268555,-0.18063880503177643,-0.020073670893907547,0.13714955747127533,0.16548366844654083,-0.20143985748291016,-0.17349717020988464,-0.12375757098197937,0.030199358239769936,0.23078061640262604,0.19439932703971863,0.16755053400993347,0.3210412859916687,0.12682802975177765,0.06924065202474594,-0.1932797133922577,-0.21452495455741882,0.09760808199644089,0.22757238149642944,0.09391932189464569,0.006294602993875742,-0.1415812224149704,-0.19652381539344788,-0.04896063730120659,-0.12273953855037689,-0.07853426039218903,-0.0004021239874418825,0.11417743563652039,0.14596830308437347,-0.24101737141609192,-0.293693482875824,-0.18888041377067566,-0.04473736882209778,0.27723562717437744,0.3185840845108032,-0.07231300324201584,-0.07253111898899078,0.03221873939037323,0.01110861822962761,-0.03299979493021965,0.06393144279718399,-0.02036827616393566,-0.029964670538902283,-0.027387816458940506,-0.022057050839066505,-0.01288111787289381,0.009443465620279312,0.12292913347482681,0.027594655752182007,0.03937505930662155,-0.043238840997219086,0.02167131006717682,-0.09485732764005661,0.18154208362102509,0.019818799570202827,-0.05720793828368187,0.0684138685464859,0.054734040051698685,-0.06156739220023155,-0.05016350373625755,-0.18480142951011658,0.043282292783260345,-0.10113731771707535,0.03408225253224373,0.05202852934598923,-0.10548382997512817,-0.07198244333267212,-0.04312257841229439,-0.018670877441763878,-0.03949920833110809,0.04674700275063515,0.07159450650215149,0.055110834538936615,0.007000745739787817,-0.0014007798163220286,-0.045563481748104095,-0.11930854618549347,0.1782291829586029,0.16356037557125092,0.03228573873639107,-0.03957856819033623,0.017969636246562004,-0.10967642813920975,-0.0004135472699999809,-0.0003933675470761955,-0.0003675645566545427,-0.0003472271782811731,-0.0003280630335211754,-0.00027392670745030046,-0.00004293041638447903,-0.000041545590647729114,-0.00003953927443944849,-0.00003796026430791244,-0.000036494890082394704,-0.0000315551005769521,0.00040411020745523274,0.00038439754280261695,0.00035917715285904706,0.0003392797370906919,0.00032053334871307015,0.0002676537842489779,0.0006355736986733973,0.0006010982324369252,0.0005582616431638598,0.00052469881484285,0.00049267039867118,0.00040689698653295636,-0.0008075188379734755,-0.0007615286158397794,-0.0007050223648548126,-0.0006612145225517452,-0.000618596444837749,-0.0005084022413939238,-0.00038158008828759193,-0.00036325023393146694,-0.0003396939137019217,-0.0003211367584299296,-0.00030368531588464975,-0.00025398112484253943,0.0002083037979900837,0.00019964881357736886,0.00018804517458193004,0.000178953428985551,0.0001704992464510724,0.00014468908193521202,0.0010214631911367178,0.0009601178462617099,0.0008856018539518118,0.0008294611470773816,0.0007731983787380159,0.0006338573293760419,0.005073816981166601,-0.11756834387779236,-0.1286809891462326,0.008375454694032669,0.04953445494174957,0.12179534137248993,-0.0072016422636806965,-0.022110875695943832,-0.026784520596265793,-0.013231854885816574,-0.009131022728979588,0.006353770848363638,-0.0009381371783092618,0.1031392514705658,0.12157855927944183,-0.001069850055500865,-0.0466761514544487,-0.15880681574344635,-0.024328600615262985,0.15832611918449402,0.14612022042274475,0.0077716149389743805,-0.03238396719098091,-0.16890931129455566,-0.001332683372311294,-0.1740456223487854,-0.17177648842334747,0.030722225084900856,0.03560534119606018,0.1832774430513382,-0.00701083755120635,-0.098980613052845,-0.13931027054786682,0.025087710469961166,0.03683413937687874,0.12266091257333755,-0.007515812758356333,0.06918611377477646,0.08864056318998337,0.0054390281438827515,-0.021208573132753372,-0.07758627086877823,-0.00623599486425519,0.15296083688735962,0.21978694200515747,0.015517729334533215,-0.13026653230190277,-0.2178311049938202,-0.007660683710128069,0.038531918078660965,0.02798338234424591,0.010034418664872646,0.031153680756688118,-0.06692627817392349,-0.0027023411821573973,0.004175279755145311,0.002618443686515093,0.00027792356559075415,0.0028658004011958838,-0.004429544322192669,0.006306981667876244,-0.03932524099946022,-0.02805032581090927,-0.010030599310994148,-0.030793162062764168,0.06858821958303452,-0.005640339106321335,-0.06161415949463844,-0.04195447266101837,-0.016980178654193878,-0.0420231968164444,0.11156085878610611,0.01824161224067211,0.07734256982803345,0.05079004913568497,0.020867593586444855,0.04902775585651398,-0.14170873165130615,-0.008163034915924072,0.03658081591129303,0.026305174455046654,0.009113308973610401,0.029405377805233,-0.063042052090168,0.011920678429305553,-0.020491234958171844,-0.01378315594047308,-0.003082203445956111,-0.016015661880373955,0.028917931020259857,-0.032528020441532135,-0.10203417390584946,-0.06129421293735504,-0.026053419336676598,-0.0532190315425396,0.18333172798156738,-0.05656908079981804,-0.03796132653951645,-0.035661280155181885,-0.027211328968405724,-0.013528243638575077,-0.032274603843688965,-0.0047933971509337425,-0.004055724013596773,-0.003534089308232069,-0.002101578749716282,-0.0004947013221681118,-0.003762640058994293,0.05749022960662842,0.038389939814805984,0.03536602109670639,0.02686787210404873,0.013873802497982979,0.031679362058639526,0.08652535825967789,0.06069672480225563,0.05251816287636757,0.04353063553571701,0.027642827481031418,0.04677418991923332,-0.10770449042320251,-0.08103666454553604,-0.07319547981023788,-0.053021110594272614,-0.04192271828651428,-0.0560782253742218,-0.05382766202092171,-0.03674169257283211,-0.033429838716983795,-0.02518724463880062,-0.012240597978234291,-0.03136654570698738,0.026294665411114693,0.019249174743890762,0.017043987289071083,0.012162325903773308,0.004558296874165535,0.01747911609709263,0.13840927183628082,0.08788884431123734,0.09026280045509338,0.06083954498171806,0.06845930963754654,0.06631038337945938,-0.018480246886610985,-0.021372441202402115,0.043237101286649704,-0.04887143895030022,0.06100120395421982,0.0041078832000494,0.011180540546774864,-0.0005131913931109011,0.011636320501565933,0.001768399029970169,0.023252177983522415,-0.007952352054417133,-0.010679525323212147,-0.028271112591028214,0.04786600545048714,-0.010007553733885288,-0.11830296367406845,0.038039516657590866,-0.09432289004325867,0.10452642291784286,-0.04399583116173744,-0.09399788826704025,-0.13284946978092194,0.08303576707839966,0.09883071482181549,-0.01868566870689392,-0.050825245678424835,-0.035141538828611374,0.09212538599967957,-0.12072240561246872,0.12093217670917511,-0.10902006179094315,-0.07828730344772339,-0.051584064960479736,0.07491244375705719,-0.007772767450660467,0.007429025135934353,-0.03006441332399845,0.011854827404022217,0.02506871521472931,-0.042233798652887344,0.11975757777690887,-0.07684153318405151,-0.05314211547374725,0.10544050484895706,-0.06605879217386246,-0.049901239573955536,0.05611933395266533,0.3727312684059143,0.17502489686012268,0.219259575009346,-0.01929550990462303,0.08675724267959595,-0.03335665166378021,-0.06496761739253998,0.3899078369140625,-0.07066328078508377,0.3379802405834198,-0.18186038732528687,0.0006364419241435826,-0.49966976046562195,0.19298681616783142,0.13005325198173523,-0.4102979898452759,-0.08512924611568451,0.09916896373033524,0.1953102946281433,-0.00014379229105543345,-0.0782320499420166,0.06829331815242767,0.12282777577638626,-0.1523432433605194,-0.06559550017118454,-0.5172579288482666,0.21884483098983765,-0.00002478462010913063,0.18977610766887665,-0.09058213233947754,-0.013993100263178349,0.11823012679815292,-0.012998639605939388,0.22367748618125916,0.284771203994751,0.00020563298312481493,0.4056420624256134,0.022434525191783905,0.2352459579706192,-0.14990754425525665,0.1573604792356491,-0.09845814108848572,0.13094021379947662,-0.00017950445180758834,0.00017601998115424067,-0.17953810095787048,0.08066947013139725,-0.07286889106035233,0.1430538147687912,-0.35868212580680847,0.10136334598064423,0.0002097842370858416,0.2986651659011841,-0.030069347470998764,0.23654937744140625,0.38064688444137573,0.32412517070770264,-0.043913546949625015,0.22788362205028534,-0.00027482962468639016,-0.2683301270008087,0.04613344371318817,-0.34082937240600586,0.017796803265810013,-0.39599817991256714,-0.35200557112693787,-0.001521371304988861,0.0001460832281736657,0.13538305461406708,-0.06832731515169144,-0.227499857544899,-0.32165709137916565,-0.4038030207157135,0.05765577033162117,0.2632931172847748,0.0001788722292985767,-0.2035388946533203,-0.16553309559822083,-0.0012566352961584926,-0.4740511476993561,-0.24579989910125732,0.191657155752182,-0.15345244109630585,0.00829441100358963,-0.14585639536380768,-0.09579383581876755,-0.011228133924305439,0.10785649716854095,0.0018621034687384963,0.0019014535937458277,0.0019221223192289472,0.0018814824288710952,0.0017876861384138465,0.0017192079685628414,-0.0020527278538793325,-0.0016881783958524466,-0.0012432315852493048,-0.0010867401724681258,-0.0014511393383145332,-0.0012856320245191455,-0.0014133722288534045,-0.00121233519166708,-0.0012205620296299458,-0.0014125362504273653,-0.0013518959749490023,-0.0012349745957180858,-0.0015512255486100912,-0.0014317963505163789,-0.0013162383111193776,-0.0012334174243733287,-0.0010657475795596838,-0.0009528559749014676,0.0005256301956251264,0.0006195254391059279,0.0008769247215241194,0.0009227349073626101,0.0002762860676739365,0.00018661527428776026,0.0015832525677978992,0.001407650881446898,0.001381732290610671,0.0014385904651135206,0.0013713318621739745,0.0012794430367648602,0.0016538535710424185,0.00207305746152997,0.0024329847656190395,0.0025004770141094923,0.002476942725479603,0.0027140434831380844,-0.0017448249273002148,-0.0014563248259946704,-0.0013227782910689712,-0.0011573052033782005,-0.0005690217949450016,-0.00009907611092785373,-0.008570645935833454,0.0037209149450063705,-0.01782560534775257,-0.1649813950061798,-0.09085187315940857,-0.14686177670955658,-0.039258923381567,0.048919737339019775,0.07561405748128891,0.0317266583442688,0.15495799481868744,-0.015099087730050087,-0.2704351544380188,-0.21919195353984833,-0.11322320997714996,0.08184144645929337,-0.03359704464673996,0.11151758581399918,-0.13342653214931488,-0.2350677102804184,-0.05614158883690834,-0.007984237745404243,0.10736614465713501,0.39592236280441284,0.08319108188152313,0.2527811527252197,0.16729962825775146,-0.049559205770492554,-0.029447227716445923,-0.4084744155406952,0.12363477051258087,0.03386671468615532,-0.043120793998241425,0.08725543320178986,0.013292765244841576,-0.238332599401474,-0.3095633387565613,-0.11303763091564178,-0.10199062526226044,-0.05726775527000427,-0.061083223670721054,0.1816605031490326,-0.18989549577236176,-0.22843796014785767,-0.1962776780128479,-0.16423901915550232,0.09021218121051788,0.4284610152244568,0.05354658514261246,0.11660166829824448,0.052011340856552124,0.03464977815747261,0.07849954068660736,0.05011659860610962,0.09528819471597672,0.018216893076896667,-0.03758949041366577,0.03345998004078865,-0.010706048458814621,-0.032550763338804245,0.1987205594778061,0.17551809549331665,0.1754024177789688,0.0747612938284874,0.031189046800136566,-0.06438357383012772,0.1337510049343109,0.08521076291799545,0.08577323704957962,-0.010585839860141277,-0.09591596573591232,-0.15215468406677246,0.015206136740744114,-0.08061139285564423,-0.03327297419309616,0.06322957575321198,0.14639197289943695,0.26511767506599426,-0.18317563831806183,-0.14805638790130615,-0.11122390627861023,-0.0751287192106247,-0.014684607274830341,0.048547085374593735,0.20941601693630219,0.06736379861831665,0.04225848242640495,0.07045761495828629,0.00652663316577673,-0.08062996715307236,0.2519655227661133,0.21163922548294067,0.19243420660495758,0.01317179761826992,-0.1958760917186737,-0.32725417613983154,0.008772249333560467,0.008462350815534592,0.008362269960343838,0.008918281644582748,0.010216419585049152,0.012259487994015217,0.006604834925383329,-0.004237380810081959,-0.007851296104490757,-0.0058152396231889725,-0.0033729495480656624,0.0006545726209878922,0.016655249521136284,0.019213488325476646,0.02227139286696911,0.025297433137893677,0.027389267459511757,0.026829902082681656,0.011738584376871586,0.01164394523948431,0.012009299360215664,0.013317347504198551,0.011231466196477413,0.004330013878643513,-0.004865216091275215,-0.015099961310625076,-0.019372019916772842,-0.01891271211206913,-0.012383662164211273,0.0022751716896891594,-0.01802494004368782,-0.018943702802062035,-0.02185586467385292,-0.024311581626534462,-0.02460712194442749,-0.020509187132120132,0.023128679022192955,0.016168177127838135,0.014245864003896713,0.015652058646082878,0.016206933185458183,0.015221131965517998,0.030618170276284218,0.031170425936579704,0.03257817402482033,0.034872736781835556,0.03186831995844841,0.018894322216510773,0.00014900192036293447,-0.000030660448828712106,0.00009071925160242245,0.00006855198444100097,0.0002032644988503307,0.0002459233801346272,-0.00011122950672870502,-0.00020038623188156635,-0.00027972596581093967,0.00018923637981060892,-0.00006381672574207187,0.00012851481733378023,-0.0001148415103671141,-0.00012242316734045744,-0.00009483522444497794,-0.00011055202048737556,-0.0002258592430735007,-0.00037255752249620855,-0.00019562650413718075,0.000020183990272926167,-0.00013580515224020928,-0.00007511500007240102,-0.00018985536007676274,-0.00038426517858169973,0.00013943375961389393,-0.0002454810601193458,-0.00018005617312155664,0.00031936753657646477,0.00008400482329307124,0.00044734569382853806,0.00009902985038934276,0.00008162349695339799,0.0001310733932768926,0.00012876414984930307,0.00025583719252608716,0.0003100142057519406,0.00025618443032726645,0.0002705571532715112,0.00024081469746306539,0.0005478865350596607,0.00028479378670454025,0.00043453607941046357,0.000031569103157380596,0.00033609766978770494,0.00023284777125809342,0.000007666168130526785,0.0001103425383917056,-0.0002771362487692386,-0.02195669710636139,-0.021864071488380432,-0.08200883865356445,-0.1761714220046997,-0.24202851951122284,-0.24099740386009216,-0.16455253958702087,-0.025032691657543182,-0.128784641623497,0.03400304913520813,-0.16516441106796265,0.1146392971277237,-0.14334438741207123,0.029098298400640488,-0.15187504887580872,-0.03164931759238243,0.10452224314212799,0.2501412630081177,-0.2692238390445709,-0.05580734461545944,-0.03699468448758125,0.06071266159415245,-0.03412622958421707,0.2766374349594116,0.08869246393442154,0.014270352199673653,0.08110922574996948,0.16351062059402466,-0.14981842041015625,-0.156166672706604,0.17193754017353058,0.10331498831510544,0.12135198712348938,0.05248146504163742,-0.12242267280817032,-0.14689497649669647,-0.14270347356796265,-0.16668589413166046,-0.053964607417583466,-0.14161616563796997,-0.10362008959054947,0.1394117921590805,-0.299698144197464,-0.2020113617181778,-0.016574857756495476,-0.1859351247549057,0.11898903548717499,0.11242910474538803,0.07892583310604095,0.07835573703050613,0.07052162289619446,0.06448505073785782,0.06091298162937164,0.048817459493875504,-0.35865867137908936,-0.06706031411886215,0.018254747614264488,-0.05389782786369324,0.02961011230945587,-0.15984314680099487,-0.2252344936132431,-0.08855380862951279,-0.09333455562591553,0.03727549687027931,0.050499506294727325,0.20381727814674377,-0.162234827876091,-0.026605449616909027,0.021238895133137703,-0.031130162999033928,0.005703290458768606,0.20164786279201508,0.07709687948226929,0.06513191759586334,0.16665953397750854,0.07919707894325256,0.06506115943193436,-0.43426844477653503,0.11774501949548721,0.012663757428526878,0.01755792275071144,-0.05812167376279831,-0.029225429520010948,-0.14291100203990936,-0.19503988325595856,0.023688679561018944,-0.0024945256300270557,0.03786959871649742,0.14393384754657745,0.1594635546207428,-0.3585967421531677,-0.11275971680879593,-0.13926570117473602,-0.06914027780294418,0.03228650614619255,0.43900492787361145,0.04348444566130638,0.023927439004182816,0.036501914262771606,0.02479376643896103,-0.01265012752264738,0.022679761052131653,0.01192088145762682,-0.06021896004676819,-0.07487454265356064,-0.06821262836456299,-0.1753162443637848,-0.01754842698574066,-0.05804392695426941,-0.05357232317328453,0.009285158477723598,0.044874709099531174,0.1421208381652832,0.11123356223106384,-0.10927247256040573,-0.03564824163913727,-0.03552865982055664,0.020253626629710197,0.07931264489889145,0.038165103644132614,0.2003391683101654,0.029547836631536484,0.04052598029375076,-0.06409678608179092,-0.26337680220603943,-0.08565694838762283,0.04700295254588127,0.03542757406830788,-0.011424745433032513,-0.031961020082235336,-0.08837871253490448,-0.06791059672832489,-0.04532963037490845,-0.015422827564179897,-0.026742585003376007,-0.01388155110180378,-0.0015561021864414215,0.08123794198036194,-0.23058710992336273,-0.10009175539016724,-0.0954265221953392,0.049940843135118484,0.21121905744075775,0.14560288190841675,-0.0159537922590971,0.07497666031122208,0.007444764021784067,-0.024309521540999413,-0.004710238426923752,0.19445085525512695,-0.1893773376941681,-0.10838766396045685,-0.0009232909651473165,0.7474151253700256,-0.07515843212604523,0.005676342640072107,-0.0006066820933483541,0.7828441262245178,0.3934817314147949,0.05979141965508461,-0.011195305734872818,0.13682283461093903,0.031638722866773605,-0.0007723711314611137,-0.0002644154301378876,0.16496962308883667,0.08615037798881531,0.16699674725532532,0.0010028282413259149,-0.27928227186203003,-0.0371302030980587,-0.0024395023938268423,0.0037234732881188393,0.010732041671872139,-0.2962069809436798,0.03812281787395477,-0.00468931719660759,0.2091761976480484,0.03733636438846588,0.011416723020374775,-0.0003532787668518722,0.0967690721154213,-0.1795627772808075,0.019086867570877075,-0.004290588665753603,0.15996800363063812,0.5564849972724915,0.008159906603395939,-0.0005695252912119031,-0.03421406447887421,-0.4416470229625702,-0.10967850685119629,-0.003893933491781354,-0.23321683704853058,0.10655666887760162,0.01421152800321579,0.0018452792428433895,-0.19781942665576935,0.3026551306247711,0.30168434977531433,-0.009082344360649586,-0.09889243543148041,0.3331938087940216,0.0011352187721058726,0.0001257941039511934,-0.07522036135196686,-0.4832701086997986,-0.3574065566062927,0.0008827319252304733,0.5324525237083435,-0.20818668603897095,-0.015773337334394455,-0.00003286186620243825,0.4625677168369293,-0.4448613226413727,-0.21313807368278503,0.005351179279386997,0.14855638146400452,-0.04676486551761627,-0.011584662832319736,-0.001304348697885871,0.2835389971733093,-0.27449366450309753,-0.06157949939370155,-0.04044397547841072,-0.032770320773124695,0.13286231458187103,-0.07519589364528656,0.14884357154369354,-0.14723192155361176,-0.10718853771686554,-0.16702817380428314,0.036845117807388306,0.025936031714081764,0.023375656455755234,0.023874720558524132,0.048614174127578735,0.06812607496976852,-0.008792695589363575,-0.0019388626096770167,-0.041643448173999786,-0.15498334169387817,0.014606079086661339,-0.07848642766475677,0.03490057960152626,0.0026598977856338024,-0.08859439939260483,-0.05024850368499756,-0.047957826405763626,-0.04332129284739494,0.057029839605093,0.008254436776041985,0.05239182338118553,-0.017896395176649094,0.004360158462077379,-0.007139698602259159,-0.08054342120885849,0.0034730248153209686,0.06855121999979019,-0.08995573967695236,0.006811016704887152,-0.08412052690982819,0.03104700706899166,0.03352490812540054,0.08878538012504578,0.05823931470513344,0.047726862132549286,-0.03169892355799675,0.12965276837348938,-0.03430622071027756,-0.1071680560708046,-0.13267965614795685,0.08989788591861725,0.07159438729286194,0.11396873742341995,0.011484183371067047,-0.10331977903842926,-0.015855107456445694,0.02005399949848652,0.11616481095552444,0.1436024010181427,0.09422586113214493,0.2800320088863373,0.03825557604432106,0.05129503458738327,0.0524362213909626,-0.11805232614278793,-0.24481186270713806,-0.22635610401630402,-0.01300090178847313,0.0419483482837677,0.019074581563472748,-0.02553289383649826,-0.016311798244714737,0.08051062375307083,-0.10484648495912552,-0.04539980739355087,-0.033949676901102066,-0.28249591588974,-0.092264324426651,0.045537687838077545,0.024763159453868866,-0.021268201991915703,-0.0363023579120636,0.07575169205665588,-0.060617733746767044,0.016911063343286514,0.043164294213056564,-0.015153549611568451,0.02200937643647194,-0.12273188680410385,-0.0940457135438919,-0.20650340616703033,0.09331534802913666,0.06303557008504868,0.02748216688632965,0.18452662229537964,-0.011142455972731113,0.12344855815172195,-0.14951957762241364,0.04092854633927345,-0.01720324717462063,-0.044566888362169266,-0.009382754564285278,0.10991409420967102,-0.028575217351317406,0.039051603525877,0.016076460480690002,-0.09216426312923431,0.000989763648249209,0.06721735745668411,0.020652052015066147,0.031119313091039658,0.06438218057155609,0.09911170601844788,-0.0028268219903111458,-0.15994374454021454,0.06862619519233704,0.06734466552734375,-0.041080292314291,-0.11987558007240295,-0.07750934362411499,-0.08062373101711273,-0.004443334415555,0.04349634796380997,-0.021184558048844337,0.2602059245109558,0.12136305868625641,0.05118798837065697,-0.06101679801940918,0.030934549868106842,0.16513119637966156,-0.08153107017278671,-0.012770257890224457,0.08879829943180084,0.01139894314110279,0.04405428096652031,0.21279045939445496,0.11028684675693512,0.11125847697257996,-0.1611960530281067,-0.17291946709156036,-0.07520467787981033,0.1479484587907791,-0.189728245139122,-0.12193658947944641,-0.22598224878311157,0.004017808940261602,0.013460078276693821,-0.09605490416288376,0.15549983084201813,-0.019140765070915222,-0.011774360202252865,0.11971447616815567,0.07259775698184967,-0.16308452188968658,0.10995388776063919,0.08217524737119675,0.10862037539482117,0.1684674322605133,0.17383641004562378,-0.0010920644272118807,-0.17328505218029022,-0.09926653653383255,-0.11021606624126434,-0.28328755497932434,0.012277078814804554,0.174730122089386,-0.0949077308177948,-0.006543237250298262,-0.07733791321516037,0.03994600474834442,-0.07509355247020721,-0.13956913352012634,-0.6614087820053101,-0.41236501932144165,-0.06747659295797348,0.02570735663175583,0.09813962876796722,0.04363786429166794,-0.09411197155714035,0.09351401776075363,0.06749977916479111,-0.11770480871200562,0.12765327095985413,-0.029864607378840446,-0.08739709854125977,-0.07141583412885666,-0.10503017902374268,-0.2399701178073883,-0.07266594469547272,0.06917409598827362,-0.08112960308790207,0.01925993524491787,0.0054416595958173275,0.09022551774978638,0.008449633605778217,-0.23117820918560028,-0.17357231676578522,-0.05066153407096863,0.0018039296846836805,0.14553220570087433,0.09491411596536636,0.19389352202415466,0.08196195214986801,-0.023258192464709282,0.04204072430729866,0.08765718340873718,0.08538887649774551,0.14741723239421844,-0.1486120969057083,0.14786720275878906,0.025469880551099777,0.10129916667938232,0.045528627932071686,-0.11685816198587418,-0.14288461208343506,-0.14142605662345886,-0.08667143434286118,0.014346632175147533,0.04758629947900772,0.23788192868232727,-0.03998914733529091,-0.44733428955078125,-0.15030883252620697,-0.11343139410018921,0.09318466484546661,0.2683626711368561,0.0883217453956604,0.09721942245960236,0.19159308075904846,0.11286935955286026,0.012581360526382923,-0.42437365651130676,0.14224430918693542,0.03707774356007576,0.0447269082069397,-0.054703593254089355,-0.0946265310049057,-0.16057749092578888,-0.04534553736448288,-0.10978086292743683,-0.36609411239624023,-0.041124336421489716,-0.1348409503698349,0.7055662870407104,-0.23378685116767883,-0.20051348209381104,-0.06507554650306702,-0.018501795828342438,0.08310151845216751,0.5302910208702087,0.08562532067298889,-0.04141226038336754,0.04740649089217186,0.14883635938167572,0.18193063139915466,0.1943703442811966,0.19377660751342773,0.17115014791488647,0.11969732493162155,-0.13792705535888672,-0.05348629504442215,-0.11203985661268234,0.025333600118756294,0.05013091862201691,-0.013121990486979485,0.034524254500865936,0.013096220791339874,-0.18055571615695953,0.15794388949871063,0.189412459731102,0.13243533670902252,0.11554770916700363,0.0740903988480568,-0.005836383905261755,-0.01473233476281166,-0.19587834179401398,-0.24622520804405212,-0.0020692283287644386,0.1435074657201767,0.2493888884782791,0.014276623725891113,0.13998943567276,0.17937013506889343,0.02526823617517948,0.04979809746146202,0.2892973721027374,0.015518433414399624,0.0417582206428051,0.0636073499917984,0.028499267995357513,0.06755005568265915,-0.10218045115470886,0.21730053424835205,0.314370721578598,0.2672552168369293,-0.00047501098015345633,-0.009756715968251228,-0.2622740864753723,-0.10647187381982803,0.05316149443387985,0.09750913083553314,-0.08739963173866272,0.004272119607776403,0.0234579686075449,0.0678996592760086,0.12655705213546753,0.2760028541088104,0.14238128066062927,0.15081921219825745,0.40578386187553406,0.12889233231544495,0.3849784731864929,0.28426915407180786,0.0692659467458725,0.08632389456033707,0.014509253203868866,-0.02379024773836136,0.0703672394156456,0.061888325959444046,-0.053119007498025894,0.12086746841669083,-0.2641783356666565,0.1934557557106018,-0.08852369338274002,-0.06447027623653412,-0.06771725416183472,0.023219387978315353,0.382656067609787,-0.23740637302398682,-0.09216458350419998,-0.30569756031036377,-0.09450893104076385,-0.15164293348789215,-0.06747299432754517,0.04750749468803406,0.19488579034805298,0.4625367522239685,-0.007403824012726545,0.05879109352827072,-0.04378936439752579,0.06886189430952072,0.16946247220039368,0.1695115864276886,-0.0802231952548027,-0.08784457296133041,-0.0955987498164177,0.003927330952137709,-0.01900215819478035,0.032277099788188934,-0.16677024960517883,-0.010661113075911999,-0.039258114993572235,-0.30420419573783875,-0.29798656702041626,-0.12012211978435516,0.009889467619359493,0.0693294033408165,-0.2774066925048828,-0.07279346883296967,-0.22530679404735565,-0.2802194654941559,0.05752154812216759,0.1403822898864746,0.47341665625572205,-0.012163187377154827,-0.3568860590457916,-0.3225826919078827,-0.02873626910150051,0.12741859257221222,0.40713757276535034,0.2411460280418396,0.33834126591682434,0.17209143936634064,0.22644641995429993,0.058181144297122955,-0.37857744097709656,0.030302315950393677,0.04508933797478676,0.04027184844017029,-0.14195604622364044,0.020557507872581482,-0.37683138251304626,-0.06728651374578476,-0.12433105707168579,-0.5413810610771179,-0.0916496068239212,-0.11810734122991562,0.5257932543754578,-0.23936565220355988,-0.20014168322086334,-0.19602520763874054,-0.15068183839321136,0.15902002155780792,0.4107244610786438,-0.1747593879699707,-0.1842959225177765,-0.19318120181560516,-0.372671514749527,-0.033408086746931076,-0.31498363614082336,0.1938789188861847,0.0703423023223877,0.047451604157686234,0.0036371336318552494,-0.1279800981283188,0.10343271493911743,0.14675289392471313,-0.634547233581543,0.027874352410435677,0.6300907731056213,0.04492994397878647,-0.03925963491201401,-0.024539213627576828,0.21516935527324677,-0.012723474763333797,0.4002534747123718,-0.11742980033159256,0.16814056038856506,-0.04606304317712784,-0.18383543193340302,-0.028541896492242813,-0.2703617215156555,-0.7259031534194946,-0.28190118074417114,-0.18705520033836365,0.5077202320098877,0.08006225526332855,0.1464649885892868,0.051351550966501236,0.0774017795920372,-0.6171299815177917,0.7710268497467041,-0.10474792867898941,0.41725099086761475,0.17781148850917816,0.4814126193523407,-0.4288038909435272,0.5350870490074158,-0.1437964141368866,-0.40227481722831726,-0.4671391546726227,0.07633491605520248,-0.08950558304786682,-0.17918209731578827,0.43018481135368347,-0.40429258346557617,0.4353175461292267,-0.2654505670070648,0.03927501663565636,-0.7704700231552124,-0.16677656769752502,-0.1107584685087204,0.049239058047533035,-0.5755125284194946,-0.14406134188175201,0.473387211561203,0.2824920415878296,0.05898518115282059,0.1835206001996994,0.12992997467517853,-0.11099982261657715,-0.19529496133327484,-0.5222366452217102,0.1669728010892868,-0.3495117723941803,0.2402435541152954,0.2853195071220398,-0.1384207159280777,-0.24737249314785004,-0.2560025453567505,-0.37209001183509827,0.10782016068696976,-0.17423002421855927,0.13749466836452484,0.13910603523254395,0.0619402714073658,-0.20845520496368408,0.2656250298023224,0.20212571322917938,0.014358446933329105,0.09967952221632004,0.1200074851512909,-0.014902399852871895,0.030387751758098602,-0.07138227671384811,-0.2922288179397583,-0.23437514901161194,-0.07601375877857208,0.010898849926888943,0.074223592877388,0.08269701153039932,-0.059434305876493454,-0.27357226610183716,0.10071682929992676,0.004471311345696449,-0.008692736737430096,-0.021796222776174545,-0.08351738750934601,0.03218917176127434,-0.4947214722633362,0.04977814108133316,-0.05466394126415253,-0.11389165371656418,0.4229719638824463,0.15803857147693634,-0.4483471214771271,0.022614717483520508,0.03272811323404312,0.07253265380859375,-0.05256209895014763,-0.11365152895450592,0.6930652260780334,0.011707835830748081,0.012975670397281647,-0.07589641213417053,-0.3934774398803711,0.04128151759505272,0.19607599079608917,0.03619694337248802,-0.03652371093630791,-0.17897522449493408,-0.10250098258256912,-0.02820247784256935,-0.38474538922309875,-0.03138886019587517,-0.008845645003020763,0.19633089005947113,0.14482064545154572,0.27835190296173096,-0.25841957330703735,-0.09496849775314331,-0.00034396041883155704,0.13333024084568024,0.14314530789852142,0.06361190229654312,0.1690814346075058,0.029279135167598724,0.1192023977637291,0.009219053201377392,0.06812168657779694,0.3745745122432709,0.027683593332767487,-0.015574001707136631,-0.11187458783388138,-0.09730483591556549,-0.19897179305553436,-0.11108601093292236,0.5690595507621765,-0.06707682460546494,-0.03264404088258743,0.1493213176727295,-0.21952494978904724,-0.2697736322879791,0.3471963405609131,0.0049329837784171104,0.0465155728161335,0.0685034841299057,0.07636117935180664,0.015766479074954987,-0.6649942994117737,-0.0904153510928154,-0.004118618089705706,-0.06455079466104507,0.08720392733812332,0.1560688316822052,-0.09887126088142395,-0.013036676682531834,0.06547627598047256,0.11674898117780685,-0.04462038725614548,-0.03167568892240524,0.3866425156593323,-0.04919877275824547,-0.005671487655490637,-0.11029630899429321,-0.0676983967423439,-0.11511388421058655,0.16072174906730652,0.06627222895622253,0.036479637026786804,-0.01980787143111229,-0.14834310114383698,0.2573390305042267,-0.07617995142936707,-0.0029560811817646027,-0.09506785124540329,-0.09606986492872238,-0.03101629763841629,-0.15193705260753632,-0.3220808804035187,0.0033797656651586294,0.08975043892860413,0.059754930436611176,-0.2230619341135025,0.2165348380804062,-0.06452548503875732,0.05195903405547142,-0.12586770951747894,-0.2635241746902466,0.4378657937049866,0.1211705207824707,-0.1666281521320343,-0.06279055774211884,0.010651485994458199,0.04858451709151268,-0.06128385290503502,-0.12453974783420563,0.23735389113426208,0.029022857546806335,0.16666464507579803,0.11220620572566986,-0.09593767672777176,-0.4600265324115753,-0.1934976875782013,-0.04329310730099678,0.04236530512571335,0.06054037809371948,0.04206439107656479,-0.3869328796863556,-0.45345544815063477,0.057663578540086746,0.1681637316942215,-0.1152791976928711,-0.19013826549053192,-0.2356724590063095,-0.23995552957057953,-0.055409397929906845,-0.09047849476337433,0.02859717234969139,-0.012437921948730946,0.3086402416229248,0.09814688563346863,0.01636553928256035,0.06094928830862045,-0.17219282686710358,-0.04534817487001419,-0.2482079714536667,0.21639306843280792,-0.021608952432870865,-0.15981289744377136,0.036818727850914,0.026661362498998642,0.5435320138931274,0.402076780796051,-0.05376208573579788,0.03590770438313484,0.1312989741563797,-0.2634213864803314,-0.15280009806156158,0.08268661797046661,0.03418987616896629,-0.06905538588762283,-0.011784037575125694,-0.1627025157213211,0.0752047449350357,0.13362321257591248,-0.06175480782985687,-0.034635573625564575,-0.023772569373250008,0.31152257323265076,0.4101305603981018,0.0455869697034359,-0.051991794258356094,0.0557638518512249,0.05458023026585579,-0.10016792267560959,-0.02251087687909603,0.5161225199699402,0.029495282098650932,-0.10209468007087708,-0.007052727974951267,0.2946035861968994,-0.10919465869665146,0.22035418450832367,-0.020786810666322708,0.07867114990949631,-0.10519279539585114,-0.0713818147778511,0.06814778596162796,0.0003565559454727918,0.08026480674743652,0.14288635551929474,0.13284938037395477,0.10989725589752197,0.44320887327194214,-0.06150730699300766,0.028957219794392586,0.29845812916755676,0.2191210240125656,0.3248375654220581,0.21509583294391632,-0.15056027472019196,0.07012401521205902,0.003260956844314933,0.003758030943572521,0.11946897208690643,0.14247217774391174,0.22411885857582092,-0.16006945073604584,-0.22339248657226562,-0.1563723087310791,-0.21271514892578125,-0.30214160680770874,0.10644154250621796,0.1284932792186737,0.20642200112342834,-0.050735048949718475,0.09591151028871536,-0.021099289879202843,-0.03200942277908325,-0.05306356027722359,0.04651573300361633,-0.042944882065057755,0.1714908480644226,0.1493750363588333,0.039545346051454544,-0.012862798757851124,-0.013912363909184933,-0.052951596677303314,-0.10413055121898651,-0.1861536055803299,-0.26949992775917053,0.028328415006399155,0.020277520641684532,-0.11134467273950577,-0.024465255439281464,-0.15444348752498627,-0.12472198903560638,-0.05680389702320099,-0.11875686794519424,0.13895541429519653,0.07429611682891846,-0.13551896810531616,0.0066334945149719715,-0.06489098072052002,0.18496543169021606,0.05819863826036453,0.05685465782880783,0.30041560530662537,-0.4435724914073944,-0.0032238278072327375,-0.0409529022872448,-0.10328540951013565,0.21250373125076294,0.26123902201652527,-0.12386296689510345,-0.0941941887140274,-0.006050588097423315,-0.09991232305765152,-0.12403938174247742,-0.23655417561531067,0.6124537587165833,-0.019640468060970306,0.23484045267105103,-0.08329630643129349,-0.22259311378002167,-0.0685291662812233,0.13664351403713226,-0.05499783530831337,0.06084722280502319,-0.13182075321674347,-0.14265134930610657,-0.03904273733496666,-0.49966108798980713,-0.009685898199677467,0.0750187337398529,-0.03938145190477371,0.06081298738718033,0.29445886611938477,-0.21904003620147705,0.09910877794027328,0.13420210778713226,0.06374765187501907,-0.0862802192568779,0.011599414981901646,-0.05454351752996445,-0.011416574008762836,0.09480469673871994,0.050323400646448135,0.11760254204273224,-0.03248206153512001,-0.06715928018093109,0.023591166362166405,0.16776832938194275,0.048935309052467346,-0.08636964112520218,-0.02879975363612175,-0.16748535633087158,-0.01153603196144104,0.015573738142848015,0.006409124005585909,-0.024918340146541595,-0.033328164368867874,-0.02949310466647148,0.06224510818719864,-0.16518576443195343,0.0007513350574299693,-0.022519659250974655,-0.17983807623386383,0.11684306710958481,-0.0996408760547638,-0.007546832785010338,0.11120857298374176,0.008599486202001572,0.03286680951714516,-0.010861638002097607,0.10588216781616211,0.062179502099752426,0.08559256792068481,0.06250398606061935,0.005313790403306484,0.051811181008815765,-0.1686960905790329,-0.056373704224824905,-0.07972197234630585,0.026671357452869415,-0.0354451984167099,0.17237631976604462,-0.008048576302826405,0.01308957114815712,0.17678865790367126,-0.004531409125775099,-0.10037294030189514,0.08077584952116013,-0.12347095459699631,0.01078016497194767,-0.06810825318098068,0.004534578416496515,0.04548971354961395,0.3893176019191742,0.011634502559900284,-0.03204508498311043,0.06787006556987762,-0.06694129854440689,-0.1719851940870285,0.20197351276874542,0.022779671475291252,0.09911958873271942,-0.12306731194257736,-0.06198596581816673,0.053850624710321426,0.4249846041202545,0.18246760964393616,0.18531586229801178,0.21902859210968018,0.1569770872592926,0.12224346399307251,-0.4577440321445465,-0.07909388095140457,-0.04771478846669197,-0.015309561043977737,-0.08541926741600037,-0.11706268787384033,0.04043271020054817,0.100653275847435,0.023935746401548386,0.05650173872709274,-0.1953207552433014,-0.20777955651283264,0.529286801815033,-0.18427956104278564,-0.17153914272785187,-0.1491622030735016,-0.08951842784881592,0.0207700002938509,0.3264528810977936,0.05403325334191322,0.15101605653762817,-0.3889998495578766,-0.16682903468608856,0.1832655370235443,0.1176566630601883,-0.02404450997710228,-0.10675070434808731,-0.0902939960360527,0.24113664031028748,0.22178082168102264,-0.15630099177360535,0.5364519953727722,-0.11698023974895477,-0.10824281722307205,0.3763220012187958,-0.06917363405227661,0.12313663959503174,0.10493522882461548,-0.24490131437778473,0.5038810968399048,-0.029616579413414,-0.12670575082302094,0.2556910812854767,-0.4604596197605133,0.13153043389320374,0.32652685046195984,-0.18376673758029938,-0.04970594495534897,-0.3626680374145508,0.05664430931210518,-0.1327323317527771,0.043233469128608704,0.332211434841156,0.35516759753227234,-0.20581360161304474,0.09200308471918106,-0.1695193201303482,0.14844068884849548,0.1864631474018097,-0.19308950006961823,0.08872230350971222,0.7563905715942383,-0.6582261323928833,-0.4341578483581543,-0.41718795895576477,0.26519182324409485,-0.05469910427927971,0.13607995212078094,0.23836293816566467,-0.4389915466308594,0.3093380033969879,0.3213490843772888,0.23242546617984772,-0.18576520681381226,-0.6021124124526978,0.4286116361618042,-0.2671404182910919,-0.19644883275032043,-0.05281200632452965,0.012306452728807926,0.047786545008420944,-0.15643858909606934,0.5055882930755615,-0.5757141709327698,0.42644253373146057,0.20729339122772217,-0.5218411087989807,0.18167322874069214,0.12944276630878448,-0.24169468879699707,-0.545073390007019,-0.5049080848693848,0.4751507341861725,0.3686407208442688,-0.7078610062599182,0.11940177530050278,-0.36014652252197266,-0.12412869930267334,-0.22142037749290466,-0.011664601974189281,-0.05095905065536499,0.06713242828845978,0.18992620706558228,-0.186081662774086,-0.0910603478550911,-0.03354690596461296,0.24533124268054962,0.06647970527410507,0.0649472177028656,0.09740367531776428,0.032059334218502045,0.004624652210623026,-0.18597722053527832,0.03080289252102375,0.013493831269443035,0.03814493119716644,-0.02968049794435501,-0.45568975806236267,-0.36886581778526306,0.03627946600317955,0.013371667824685574,0.02252919413149357,0.17896224558353424,0.1570766568183899,-0.5301998257637024,-0.011388787068426609,-0.0305110402405262,-0.050160057842731476,-0.04743066430091858,-0.05682913213968277,-0.3584015965461731,0.06468044966459274,0.03969535604119301,0.0575590543448925,0.1686851531267166,-0.03514797240495682,0.6273060441017151,-0.017719386145472527,-0.006974429823458195,-0.009335714392364025,-0.038966044783592224,-0.2246253490447998,0.21761177480220795,0.0006528425728902221,0.0215399581938982,0.010189463384449482,-0.040662020444869995,0.07093912363052368,-0.3774774968624115,-0.001065837568603456,0.01565699838101864,0.024208271875977516,0.13544610142707825,0.33795788884162903,-0.2834485173225403,0.05978096276521683,-0.009187024086713791,-0.03614981845021248,-0.08993705362081528,0.09979788959026337,-0.2527714967727661,-0.07467234879732132,0.028909282758831978,-0.01533290185034275,0.2572801113128662,-0.12861700356006622,0.04117567837238312,-0.05204484984278679,-0.008304654620587826,-0.034369464963674545,-0.057165469974279404,-0.17308884859085083,-0.09689213335514069,-0.08367791771888733,-0.034688178449869156,-0.023908071219921112,0.014859091490507126,-0.13650275766849518,0.15740160644054413,0.08789470046758652,0.08737792074680328,0.03739667311310768,0.1890202909708023,0.129390150308609,-0.04774066060781479,0.044308796525001526,-0.0075046163983643055,0.0279439315199852,-0.08262179046869278,-0.007919715717434883,0.0317697674036026,0.10030843317508698,0.032282277941703796,0.19470252096652985,0.2762596607208252,-0.05873492732644081,-0.04228116571903229,0.11801193654537201,0.11435259133577347,0.018826622515916824,0.10496683418750763,-0.13720272481441498,0.008691638708114624,0.013194403611123562,-0.03124040737748146,-0.046382930129766464,-0.030046675354242325,-0.05625172704458237,0.02974124252796173,0.0646766796708107,0.0355885773897171,0.07480727136135101,0.00466966675594449,0.07375466823577881,0.0502665638923645,0.016003448516130447,0.10833828151226044,-0.05527510493993759,-0.05073296278715134,0.05535121262073517,0.08064579218626022,-0.014478791505098343,-0.00027850884362123907,0.04814165085554123,0.06489687412977219,0.2790486812591553,0.02759750746190548,-0.04251113906502724,-0.06221039593219757,-0.05972956120967865,-0.07016776502132416,-0.1946711391210556,-0.18157902359962463,0.09635505080223083,-0.01378933060914278,0.016926409676671028,0.05762619897723198,-0.15741382539272308,0.003178483573719859,-0.021588819101452827,0.00952038075774908,-0.02054460532963276,-0.014322098344564438,-0.18221387267112732,-0.041791051626205444,0.01363217830657959,-0.1129632368683815,-0.064264677464962,-0.10176502913236618,-0.09600114822387695,0.1416468471288681,-0.040932539850473404,-0.0917302668094635,-0.055295273661613464,-0.1166769489645958,-0.2784726321697235,-0.10951650142669678,0.00968959741294384,0.027679704129695892,-0.11930747330188751,-0.001914009335450828,0.3336467146873474,-0.030083682388067245,-0.008010436780750751,0.021451089531183243,0.10522647202014923,0.029282454401254654,-0.08262427896261215,0.052237194031476974,-0.09222013503313065,-0.09897337108850479,0.019200921058654785,0.09102625399827957,0.2007451057434082,0.02001502551138401,-0.08952051401138306,-0.011597719043493271,0.04529670253396034,0.040865182876586914,0.2315390259027481,-0.04593038931488991,0.05391058325767517,0.06522916257381439,0.004525450058281422,-0.1625182032585144,-0.2842872142791748,-0.018815334886312485,0.0312211811542511,-0.08069349080324173,0.1155489906668663,0.03535385802388191,0.6299129128456116,0.05442635342478752,-0.02623039484024048,0.19194315373897552,0.03628448396921158,-0.04538789764046669,0.24626092612743378,-0.0683760717511177,-0.10407721251249313,-0.08136558532714844,-0.08199777454137802,-0.1053047701716423,-0.004820988979190588,0.03380182012915611,0.04703404754400253,0.039632849395275116,0.004895211663097143,-0.0341675691306591,-0.02762260101735592,-0.3571662902832031,-0.10248615592718124,-0.12127231061458588,-0.14301206171512604,-0.014285438694059849,-0.058571115136146545,-0.2707936465740204,0.005980066955089569,-0.031137779355049133,0.014234688133001328,0.030685262754559517,-0.03254847228527069,-0.31934356689453125,-0.08134274929761887,-0.011741322465240955,-0.024897776544094086,0.08319707214832306,0.22186501324176788,0.12211212515830994,-0.03294125944375992,-0.011030689813196659,0.07719983905553818,-0.10464250296354294,-0.1555572897195816,0.075966015458107,-0.03208659589290619,0.07577032595872879,0.0284004844725132,0.0872553139925003,0.25278422236442566,-0.22296768426895142,-0.005140353459864855,0.025358419865369797,0.15870675444602966,0.09739025682210922,0.1343730390071869,-0.09744765609502792,-0.07636544853448868,-0.057258810847997665,-0.1294175088405609,-0.22757266461849213,-0.16372652351856232,0.09416593611240387,-0.010601459071040154,-0.06272242963314056,0.022498175501823425,0.1637299358844757,0.10965289175510406,0.0008031669422052801,-0.0353146567940712,0.0008379759383387864,-0.029663117602467537,-0.04243222251534462,-0.12172132730484009,0.005034368019551039,0.016556408256292343,0.12963423132896423,0.09081274271011353,0.19348488748073578,-0.06690459698438644,-0.17067749798297882,-0.04035024717450142,0.01734032854437828,0.14362147450447083,0.04446784779429436,0.4329679608345032,0.013453342020511627,-0.03319799527525902,-0.09711507707834244,-0.09053323417901993,-0.03912597522139549,-0.24348440766334534,0.01246730051934719,-0.07769511640071869,0.04088824987411499,-0.020309429615736008,0.10619781166315079,0.17618556320667267,0.07113741338253021,0.07198140025138855,-0.0299163106828928,0.03578345105051994,0.08183823525905609,0.11894030123949051,-0.02234124392271042,0.04139387235045433,0.07381778210401535,0.10947319120168686,-0.016992824152112007,0.1710262894630432,-0.10728124529123306,0.01575712487101555,-0.06949778646230698,0.03740706667304039,0.007343817502260208,-0.06573252379894257,-0.10143585503101349,0.03777678310871124,0.026621367782354355,0.07092861086130142,-0.009209333918988705,0.28825080394744873,-0.267591655254364,0.04555260017514229,0.06800181418657303,-0.010569372214376926,-0.08385311812162399,-0.03719242662191391,0.022298719733953476,0.012453948147594929,0.05179547518491745,0.10039583593606949,-0.01970917172729969,0.10691887885332108,-0.07392481714487076,0.051588937640190125,0.038312334567308426,0.02204304188489914,-0.01181064173579216,0.15330837666988373,-0.20831017196178436,-0.05082845687866211,0.00264576799236238,0.0013191838515922427,0.05773000791668892,-0.128806009888649,0.03292226418852806,0.033149152994155884,0.02441658265888691,0.019770031794905663,-0.023110060021281242,0.04088498279452324,-0.08976633846759796,-0.005892351735383272,0.0283052958548069,0.04119638353586197,0.05655495449900627,0.13640841841697693,0.20107202231884003,-0.005824331659823656,0.01818329654633999,-0.01846819929778576,-0.007897328585386276,-0.0396394357085228,-0.31131529808044434,0.028380274772644043,0.011902382597327232,0.02349122427403927,0.13361331820487976,0.132960245013237,-0.040586818009614944,-0.037496160715818405,-0.07206961512565613,-0.10232824087142944,-0.12161717563867569,-0.2893233299255371,-0.3535841107368469,0.03739374130964279,0.0624920092523098,0.07455921918153763,0.1103648915886879,0.062431324273347855,0.3411014676094055,0.07980435341596603,0.0484582781791687,0.10435593128204346,-0.035613980144262314,-0.02928064577281475,0.3315049111843109,0.10525806248188019,0.05935264751315117,0.07988784462213516,0.17218345403671265,0.24596038460731506,-0.21451354026794434,0.04651547968387604,0.05948169156908989,0.17282259464263916,0.05249691382050514,0.1730976551771164,-0.1708526313304901,0.1297219693660736,-0.032017964869737625,-0.27555713057518005,0.11856181174516678,0.021691979840397835,0.05443067103624344,-0.1316891610622406,-0.22780373692512512,-0.5219354033470154,-0.002302079228684306,0.24001789093017578,-0.137632817029953,-0.11963661760091782,0.1689123958349228,-0.11973840743303299,-0.3363940119743347,-0.06743530929088593,0.3988581597805023,0.03245818242430687,0.47821271419525146,0.36413177847862244,0.32439252734184265,0.18095804750919342,0.31051281094551086,-0.5206151008605957,-0.15465280413627625,-0.22245825827121735,-0.06914158165454865,0.02448318339884281,-0.1400892436504364,0.06830242276191711,0.39443692564964294,-0.0031895660795271397,-0.08384114503860474,-0.21494996547698975,-0.014488915912806988,0.037433650344610214,-0.04695836454629898,0.10906169563531876,0.22209860384464264,-0.05094921588897705,-0.083929143846035,-0.3208922743797302,-0.03633063659071922,-0.04204006493091583,-0.10927195101976395,0.09972577542066574,-0.02937346138060093,-0.07941310107707977,0.04685329645872116,-0.012307274155318737,0.2593904435634613,0.10273526608943939,0.20648016035556793,-0.1240677759051323,0.21988457441329956,0.3657724857330322,0.0010905844392254949,0.287229984998703,-0.03698613867163658,0.3684421181678772,0.11735314875841141,0.3399256467819214,-0.4919312298297882,0.04278940334916115,-0.011027051135897636,0.053893234580755234,-0.04802246391773224,-0.023615259677171707,0.043825551867485046,0.22749462723731995,-0.04735897481441498,-0.3829144835472107,-0.05531876161694527,-0.2556685209274292,-0.015308670699596405,-0.07303155213594437,0.16880910098552704,0.04982549697160721,0.2669086754322052,-0.19444061815738678,0.14576363563537598,-0.15174880623817444,0.0039553106762468815,-0.05067753791809082,0.1356804221868515,0.06656850874423981,0.10282925516366959,-0.09380019456148148,-0.07390711456537247,-0.11109187453985214,-0.14440220594406128,-0.2446984350681305,0.054573800414800644,-0.05777484178543091,0.031457118690013885,-0.007578055839985609,0.07291185110807419,0.1993713527917862,0.1354619413614273,-0.01415317039936781,-0.026622042059898376,0.028584148734807968,-0.026398703455924988,-0.1302667260169983,-0.002854645252227783,0.029761232435703278,-0.0663522481918335,-0.11642538011074066,-0.09704737365245819,0.19891218841075897,-0.0957581028342247,-0.06119256466627121,-0.07753651589155197,-0.10782156139612198,-0.15261076390743256,0.03313912823796272,-0.04750540852546692,0.03878681734204292,0.08953024446964264,-0.025028368458151817,0.02820424921810627,-0.28799086809158325,0.08168358355760574,-0.07539132982492447,-0.026386041194200516,-0.04150348901748657,-0.07794446498155594,-0.03483481705188751,-0.06001890078186989,0.05022784322500229,0.029156534001231194,-0.0038815676234662533,-0.07613322883844376,0.1422853022813797,-0.03323609009385109,-0.02914542146027088,-0.013409876264631748,-0.0630018562078476,-0.2465524822473526,-0.3555523157119751,-0.0007531041046604514,0.0226212777197361,0.0081553990021348,-0.03692732751369476,-0.0702592059969902,0.34874340891838074,-0.06458801031112671,-0.016695350408554077,-0.1263427585363388,-0.04266972467303276,-0.2018072009086609,0.035582344979047775,-0.0037951229605823755,-0.04438208043575287,0.048965565860271454,0.04158762842416763,-0.015066994354128838,0.20245349407196045,-0.06441906094551086,-0.0477609746158123,-0.04557621851563454,-0.08637809753417969,-0.23222199082374573,-0.21654707193374634,-0.010908483527600765,0.006790305953472853,-0.06479024887084961,0.02904270775616169,0.0241702850908041,-0.18337535858154297,0.023392606526613235,0.07095056772232056,-0.008038817904889584,-0.031909696757793427,-0.029616842046380043,0.07081662118434906,-0.009090105071663857,-0.06137048080563545,-0.08301117271184921,-0.008131244219839573,-0.027563048526644707,0.14470702409744263,0.06835507601499557,-0.02303142100572586,-0.003690588055178523,0.009493728168308735,-0.03481261059641838,0.08187025785446167,-0.19270318746566772,0.02446015365421772,0.093785859644413,0.061204005032777786,-0.10135970264673233,0.0030130764935165644,-0.14488600194454193,-0.0676405057311058,-0.04414397105574608,-0.11390624940395355,-0.007526169531047344,-0.03566483408212662,-0.13603602349758148,0.041048429906368256,0.07001886516809464,-0.026302797719836235,-0.026283595710992813,0.013088751584291458,-0.1752767413854599,-0.009034184738993645,0.010167487896978855,-0.057218343019485474,-0.041000399738550186,0.1341690719127655,0.0025454291608184576,-0.013541934080421925,0.011023166589438915,-0.040713679045438766,-0.08276757597923279,-0.006543881259858608,0.11658266931772232,-0.0005840460653416812,0.024976646527647972,0.08552738279104233,-0.14147643744945526,0.055912259966135025,-0.06957784295082092,-0.048859599977731705,-0.10811953991651535,-0.10628162324428558,0.06457291543483734,0.05310164764523506,-0.04246175289154053,0.0523875392973423,0.09661310166120529,0.08721419423818588,0.11308874934911728,0.24477995932102203,0.23887835443019867,-0.04722556844353676,0.05251244828104973,0.11467799544334412,0.08882970362901688,0.13171352446079254,-0.1809341013431549,-0.029429135844111443,0.040542665868997574,-0.0604412816464901,-0.0022245447617024183,-0.08893608301877975,0.049966271966695786,0.008513192646205425,-0.036414217203855515,-0.028544770553708076,-0.004470336250960827,0.013098310679197311,-0.08790446817874908,0.049896035343408585,0.09289062023162842,0.03346702456474304,0.1777534782886505,0.1226014718413353,0.021137725561857224,-0.09636692702770233,-0.08996974676847458,0.03258301690220833,-0.01594707928597927,-0.033454470336437225,0.2661917507648468,-0.0816681981086731,-0.039516739547252655,0.021694106981158257,-0.013273165561258793,-0.0022265780717134476,-0.18736056983470917,0.05631880834698677,-0.012690807692706585,-0.006780686788260937,0.07461219280958176,0.0008036624640226364,-0.24324996769428253,0.08603277802467346,0.053268276154994965,0.04586620628833771,-0.03791717812418938,-0.11595074832439423,-0.09688740223646164,0.07285059243440628,0.07300422340631485,-0.022603468969464302,-0.07253190129995346,-0.01683579571545124,0.09120116382837296,-0.08810850977897644,-0.037681881338357925,-0.05978068336844444,-0.05781923979520798,0.02872583083808422,-0.04916474223136902,-0.0070016211830079556,-0.025393448770046234,-0.061144329607486725,-0.07822396606206894,-0.002442200668156147,0.0663556158542633,0.14029216766357422,0.05410262942314148,-0.011770103126764297,-0.06237136572599411,-0.06367924809455872,0.06054668501019478,0.03289511799812317,-0.05806939676403999,-0.04429469257593155,-0.08555469661951065,0.03828350082039833,-0.010393750853836536,-0.017548376694321632,0.09004566818475723,0.020908672362565994,-0.010085465386509895,-0.04773324728012085,-0.010667409747838974,0.07646898180246353,-0.060150131583213806,0.0253257155418396,-0.04030729830265045,0.12867657840251923,-0.08381059765815735,-0.007608538027852774,-0.04204915463924408,-0.0435338132083416,-0.07651115208864212,-0.09903165698051453,-0.1412375122308731,-0.025357350707054138,-0.017514754086732864,-0.07562817633152008,-0.023150011897087097,-0.09601940214633942,0.5163763761520386,-0.05516664683818817,-0.05901727452874184,-0.10626740008592606,-0.020558252930641174,-0.09650960564613342,-0.1338295191526413,0.0016680934932082891,-0.03287658467888832,0.02648557908833027,-0.011109495535492897,0.0017098046373575926,0.29507532715797424,0.005195223726332188,0.030100269243121147,-0.028638383373618126,0.02858944982290268,-0.0848207101225853,-0.10523364692926407,0.0023675188422203064,0.015438320115208626,-0.03434703126549721,-0.06446290016174316,0.06840994209051132,-0.30138492584228516,-0.0363897904753685,-0.08218962699174881,-0.08644907176494598,-0.09387046098709106,0.002360596554353833,0.1991274356842041,0.05119359493255615,0.11850651353597641,0.08793453127145767,0.037575554102659225,0.11089910566806793,0.14148737490177155,0.08125171065330505,0.006477511953562498,-0.03760800138115883,-0.023291153833270073,-0.17679764330387115,-0.20231884717941284,0.02503208816051483,0.03525139018893242,-0.06888037919998169,0.055713191628456116,-0.052401188760995865,0.08575944602489471,-0.08444730192422867,-0.06967248767614365,-0.018677128478884697,-0.11880269646644592,-0.04172911122441292,-0.10791619122028351,-0.07351779192686081,-0.08138175308704376,-0.06842847168445587,-0.02552122250199318,0.09616371244192123,0.08043193817138672,-0.03865118697285652,0.0017804686212912202,0.03677962347865105,0.011483235284686089,-0.11976577341556549,-0.20445698499679565,-0.002104253740981221,0.00009526286885375157,-0.01298554427921772,0.05827626213431358,0.10136866569519043,0.03887922316789627,-0.03812197968363762,-0.04339025542140007,-0.08349213004112244,-0.0439739003777504,-0.05036202073097229,-0.14485828578472137,0.04409346729516983,0.0513472817838192,0.12732689082622528,0.06892400979995728,0.027029750868678093,-0.13310807943344116,-0.1564125120639801,-0.12947136163711548,-0.18188020586967468,-0.20415976643562317,-0.5734395384788513,0.0678957998752594,-0.06845290213823318,-0.09398292005062103,-0.13722221553325653,-0.10841246694326401,-0.03589232265949249,-0.002040650462731719,0.015421168878674507,-0.022052763029932976,-0.047072410583496094,-0.23153863847255707,-0.006213699001818895,-0.003189670154824853,