{"version":"0.7.0","metadata":{"date":{"year":2026,"month":7,"day":13,"hour":23,"minute":23,"second":24},"loudness":-15.00085545233435,"gain":0.00038667154516893804,"name":"bypass","modeled_by":"delt","gear_type":"amp","gear_make":"VOX amplug2 metal","gear_model":"VOX amplug2 metal","tone_type":"vox","trainer":"TONE3000"},"architecture":"SlimmableContainer","config":{"submodels":[{"max_value":0.5,"model":{"version":"0.7.0","metadata":{"date":{"year":2026,"month":7,"day":13,"hour":23,"minute":23,"second":23},"loudness":-14.96567249945349,"gain":0.000027074359681815407},"architecture":"WaveNet","config":{"layers":[{"input_size":1,"condition_size":1,"head":{"out_channels":1,"kernel_size":16,"bias":true},"channels":3,"kernel_sizes":[6,6,6,6,6,6,6,6,6,6,6,6,6,6,15,15,6,6,6,6,6,6,6],"dilations":[1,3,7,17,41,101,239,1,3,7,17,41,101,239,1,13,1,3,7,17,41,101,239],"activation":[{"type":"LeakyReLU","negative_slope":0.01},{"type":"LeakyReLU","negative_slope":0.01},{"type":"LeakyReLU","negative_slope":0.01},{"type":"LeakyReLU","negative_slope":0.01},{"type":"LeakyReLU","negative_slope":0.01},{"type":"LeakyReLU","negative_slope":0.01},{"type":"LeakyReLU","negative_slope":0.01},{"type":"LeakyReLU","negative_slope":0.01},{"type":"LeakyReLU","negative_slope":0.01},{"type":"LeakyReLU","negative_slope":0.01},{"type":"LeakyReLU","negative_slope":0.01},{"type":"LeakyReLU","negative_slope":0.01},{"type":"LeakyReLU","negative_slope":0.01},{"type":"LeakyReLU","negative_slope":0.01},{"type":"LeakyReLU","negative_slope":0.01},{"type":"LeakyReLU","negative_slope":0.01},{"type":"LeakyReLU","negative_slope":0.01},{"type":"LeakyReLU","negative_slope":0.01},{"type":"LeakyReLU","negative_slope":0.01},{"type":"LeakyReLU","negative_slope":0.01},{"type":"LeakyReLU","negative_slope":0.01},{"type":"LeakyReLU","negative_slope":0.01},{"type":"LeakyReLU","negative_slope":0.01}],"bottleneck":3,"head1x1":{"active":false,"out_channels":1,"groups":1},"layer1x1":{"active":true,"groups":1},"groups_input":1,"groups_input_mixin":1,"conv_pre_film":{"active":false,"shift":true,"groups":1},"conv_post_film":{"active":false,"shift":true,"groups":1},"input_mixin_pre_film":{"active":false,"shift":true,"groups":1},"input_mixin_post_film":{"active":false,"shift":true,"groups":1},"activation_pre_film":{"active":false,"shift":true,"groups":1},"activation_post_film":{"active":false,"shift":true,"groups":1},"layer1x1_post_film":{"active":false,"shift":true,"groups":1},"head1x1_post_film":{"active":false,"shift":true,"groups":1},"gating_mode":["none","none","none","none","none","none","none","none","none","none","none","none","none","none","none","none","none","none","none","none","none","none","none"],"secondary_activation":[null,null,null,null,null,null,null,null,null,null,null,null,null,null,null,null,null,null,null,null,null,null,null],"slimmable":null}],"head":null,"head_scale":0.006561064478493273},"weights":[1.721955418586731,-0.5383021235466003,-1.1941325664520264,0.021457431837916374,0.16525083780288696,0.43370938301086426,0.28704074025154114,0.4956597685813904,-0.30071762204170227,-0.006589223630726337,0.09696925431489944,0.16911230981349945,-0.051725972443819046,0.0077209738083183765,0.6003185510635376,-0.018048258498311043,0.24998684227466583,0.14638803899288177,0.1617806851863861,-0.055470190942287445,0.7970176935195923,-0.013320074416697025,0.04505321383476257,-0.15933175384998322,-0.1613338589668274,-0.2742862403392792,0.2725256383419037,-0.042155370116233826,-0.026869039982557297,-0.057220879942178726,-0.08240465074777603,0.04557766392827034,-0.24176494777202606,-0.05940883979201317,0.026373937726020813,0.005206303205341101,0.02405165135860443,0.22705648839473724,-0.34885838627815247,-0.17389023303985596,-0.1532156616449356,-0.23591049015522003,-0.40076547861099243,-0.3979988992214203,0.5086424946784973,-0.13594140112400055,-0.03235477954149246,-0.22070319950580597,-0.04061403125524521,0.13870839774608612,-0.35791122913360596,-0.19177301228046417,-0.1464124619960785,-0.14173783361911774,-0.10911577939987183,-0.009104271419346333,-0.5427753329277039,0.28955650329589844,0.2907101511955261,0.29464685916900635,-0.45081624388694763,0.7005071640014648,0.6581852436065674,-0.8286519050598145,0.7928125262260437,0.43186694383621216,0.08161900192499161,-0.04185952618718147,0.07637598365545273,0.0488804392516613,0.27052339911460876,-0.3593899607658386,0.3064206540584564,-0.3185803294181824,-0.0006878109415993094,0.02713078446686268,-0.026098936796188354,0.0727778971195221,0.10799766331911087,0.1329672634601593,-0.0281040221452713,-0.09643066674470901,-0.14925990998744965,0.034855861216783524,-0.12183419615030289,-0.16449441015720367,0.1225341260433197,0.14528411626815796,0.05538339540362358,0.07921846956014633,0.20984451472759247,0.15090978145599365,0.29106956720352173,-0.08352219313383102,0.06073973327875137,0.027302289381623268,-0.07433713227510452,0.030971931293606758,-0.04500160738825798,-0.06270531564950943,-0.1643938571214676,-0.20902876555919647,-0.014005596749484539,-0.13565145432949066,0.06906986236572266,-0.1983097642660141,0.23342342674732208,0.1621115654706955,-0.03475485369563103,0.12486255168914795,-0.25616440176963806,0.03987179324030876,0.1630297303199768,-0.12870533764362335,-0.0006596249295398593,-0.04538971185684204,0.4541642963886261,-0.23695257306098938,0.10562530905008316,-0.213932603597641,0.12461564689874649,-0.1829020380973816,-0.24326929450035095,0.06399748474359512,0.13917966187000275,-0.0025907610543072224,-0.004257377237081528,0.18367314338684082,-0.041554082185029984,0.25763756036758423,0.24122101068496704,0.13112208247184753,-0.9973817467689514,0.9521246552467346,0.37977659702301025,-0.4659366011619568,0.3746148347854614,-0.025501219555735588,0.011366063728928566,0.13691627979278564,0.020104603841900826,-0.33941152691841125,-0.4078395366668701,-0.16592898964881897,0.49055051803588867,-0.38919004797935486,0.37119922041893005,0.03549196198582649,0.0023539774119853973,0.021920081228017807,0.0425441637635231,0.03228660672903061,0.11496686935424805,-0.14439097046852112,-0.2086942046880722,-0.10019084811210632,-0.23690925538539886,0.059423260390758514,0.15770138800144196,0.13617677986621857,0.03727355971932411,0.07792680710554123,0.12357424199581146,-0.061197154223918915,0.0519561804831028,-0.016192208975553513,0.00955952424556017,0.013182765804231167,0.010702185332775116,-0.030042128637433052,-0.6511080861091614,0.06372443586587906,0.13923116028308868,0.12613429129123688,0.0038092839531600475,0.04517308250069618,0.4138319492340088,-0.05784066021442413,-0.004012225195765495,-0.01564345322549343,-0.00022642273688688874,0.013856875710189342,0.01387232355773449,-0.04329710453748703,-0.03420569375157356,-0.039255160838365555,-0.06139085814356804,-0.04673986881971359,-0.05524689331650734,0.11438750475645065,0.08035440742969513,0.009606100618839264,0.1167655885219574,0.05808281525969505,0.04591570794582367,-0.01105778943747282,0.009704348631203175,-0.003311262233182788,0.03220416232943535,0.017821578308939934,-0.011812349781394005,0.1964089721441269,-0.05468123033642769,0.028959617018699646,-1.97551691532135,-0.6641288995742798,-0.030637044459581375,-0.6348551511764526,-0.42371681332588196,-0.2005671262741089,-0.01818985864520073,-0.06046636030077934,-0.03209812566637993,-0.48447325825691223,0.06590414047241211,0.17662249505519867,0.26713234186172485,-0.10887806117534637,0.5147533416748047,-0.018251493573188782,-0.02595100738108158,0.030536197125911713,-0.03825179487466812,-0.0672082006931305,-0.06442667543888092,-0.3171384930610657,-0.239806666970253,0.03783147409558296,-0.2422211915254593,-0.22253231704235077,0.07378143817186356,0.051569752395153046,-0.06306975334882736,0.12439846992492676,-0.08436623960733414,-0.02911784127354622,0.021604647859930992,0.012000874616205692,-0.023416347801685333,0.015198555774986744,0.02487410418689251,-0.08096475899219513,0.021231723949313164,0.01612853817641735,0.016925860196352005,0.022487672045826912,0.014648918993771076,0.02796349860727787,0.01436745747923851,-0.00954214297235012,-0.005920899100601673,-0.006534441839903593,-0.007728141266852617,-0.002176156733185053,-0.02209395356476307,0.012023622170090675,0.008868220262229443,-0.008969942107796669,-0.01853265054523945,0.029094817116856575,0.1281767040491104,0.08040116727352142,-0.18850645422935486,-0.1308135688304901,-0.012306899763643742,-0.04787694290280342,0.13952171802520752,0.074060820043087,0.1278456747531891,0.031235694885253906,-0.005515316501259804,-0.007874070666730404,-0.003313012421131134,0.009026887826621532,-0.03345492109656334,-0.08808909356594086,-0.9863854646682739,0.0021084740292280912,-0.8834050893783569,-0.12160797417163849,0.055777523666620255,-0.4396212100982666,0.04748600348830223,-0.05778413638472557,-0.07950982451438904,-0.46277865767478943,0.00652204779908061,-0.11428358405828476,-0.19231347739696503,-0.5207485556602478,0.5373108386993408,0.011717382818460464,0.007858624681830406,-0.000901071063708514,0.002583054592832923,0.008456127718091011,0.35586926341056824,0.21817880868911743,0.18049997091293335,0.07121054083108902,0.11712788045406342,0.16104739904403687,-0.04669662192463875,-0.015030773356556892,-0.018965985625982285,-0.009867802262306213,-0.00799974799156189,-0.030194979161024094,-0.44522321224212646,-0.004847722593694925,-0.002625410445034504,-0.002423117868602276,-0.0020019030198454857,-0.004204758442938328,-0.014395376667380333,0.0042108045890927315,0.004091876093298197,0.004182819742709398,0.00421960698440671,0.004249423276633024,0.005151327233761549,-0.0006645063986070454,-0.00044719644938595593,-0.0011946818558499217,-0.000813196471426636,-0.0006033302051946521,-0.00020676957501564175,-0.00939970649778843,-0.0060093579813838005,0.00006388370093191043,0.004148839972913265,0.0038413824513554573,0.43267622590065,-0.14020800590515137,-0.08428521454334259,-0.030309313908219337,0.009976844303309917,-0.028285585343837738,-0.06731097400188446,-0.0374617762863636,-0.020356660708785057,0.007935398258268833,0.005630037281662226,0.022277645766735077,0.10109535604715347,-0.06766396760940552,-0.0029999311082065105,0.17164933681488037,0.023576345294713974,-0.004322708118706942,0.2788996398448944,0.36028915643692017,0.013785010203719139,-0.09141724556684494,-0.09913032501935959,-0.006853241007775068,0.10223736613988876,-0.09226635843515396,-0.002178838010877371,-0.08275321871042252,-0.20477522909641266,-0.226272314786911,0.3102942705154419,0.001233694376423955,-0.0010567957069724798,-0.004966870881617069,-0.0010172106558457017,0.000959988625254482,-0.454022616147995,-0.029092103242874146,-0.12990212440490723,-0.17021220922470093,-0.11671552807092667,-0.0373537503182888,-0.14440107345581055,0.006629823241382837,0.005201078951358795,0.0008270578109659255,0.007970748469233513,0.004550773184746504,0.19407318532466888,0.006089434493333101,0.009119856171309948,0.005350310821086168,0.0027819457463920116,-0.004526049364358187,-0.3300158679485321,-0.014254940673708916,0.11258120089769363,0.0773414671421051,-0.005497773643583059,0.013407989405095577,0.2093096226453781,0.0006764685967937112,0.014094625599682331,-0.0021787818986922503,-0.01778961531817913,-0.016982100903987885,-0.10427922755479813,0.004014472011476755,-0.003962267190217972,0.006496282760053873,0.0022781756706535816,-0.009913697838783264,0.48708784580230713,0.20513498783111572,0.0016752079827710986,0.23290380835533142,0.190262570977211,0.07139641791582108,0.04161006584763527,-0.012874211184680462,-0.00742059713229537,0.0039803762920200825,-0.0024960145819932222,-0.008924704045057297,-0.5234311819076538,-0.026514222845435143,0.0199125949293375,-0.019678983837366104,0.2441895604133606,-0.027008548378944397,0.3677406311035156,0.1369365006685257,-0.17808698117733002,0.3284584879875183,0.3265770673751831,-0.020138675346970558,-0.15765666961669922,-0.23781009018421173,0.1237693652510643,0.04502985253930092,-0.4333353042602539,-0.144363135099411,-0.436373233795166,0.020163781940937042,0.013310405425727367,0.013011337257921696,0.008082455024123192,0.008806893602013588,0.004129497334361076,0.019516397267580032,0.018711304292082787,0.018508832901716232,0.016651548445224762,0.01610426977276802,0.017878038808703423,0.00327767850831151,0.009519868530333042,-0.003252994967624545,0.0015459285350516438,0.0032005319371819496,0.0008342611254192889,0.0005606705672107637,0.010563289746642113,0.013976024463772774,0.04518071934580803,0.06587476283311844,-0.033472977578639984,0.014577544294297695,0.01653333194553852,0.014902262948453426,0.01981392130255699,0.014984643086791039,0.02596479095518589,0.0018997867591679096,0.0032332432456314564,0.0006717417272739112,-0.05027195066213608,-0.05155524984002113,-0.0012259702198207378,-0.032132409512996674,-0.013778864406049252,-0.02072671800851822,0.017091207206249237,-0.04001748561859131,0.4156218469142914,-0.18619529902935028,-0.08309222757816315,-0.11774178594350815,0.08733561635017395,-0.2265460342168808,-0.1297338306903839,-0.014672714285552502,-0.004587434697896242,-0.003710841992869973,0.010856570675969124,-0.027703527361154556,-0.10081501305103302,-0.014587987214326859,-0.014661270193755627,0.2426397204399109,0.0008581913425587118,0.0018192725256085396,1.0992032289505005,0.091899573802948,-0.011273388750851154,0.5197291970252991,0.00963076576590538,0.03006192110478878,0.05802077054977417,0.00717149069532752,0.02492130734026432,0.43660852313041687,0.26271894574165344,-0.2980244755744934,0.007633870467543602,-0.02720094472169876,-0.027139876037836075,0.018416980281472206,0.0038113086484372616,0.05756162852048874,-0.3681057393550873,-0.17196321487426758,-0.15887176990509033,-0.21934418380260468,-0.22697709500789642,0.11092215776443481,0.03327848017215729,0.1127873882651329,-0.06375071406364441,0.008842377923429012,0.19244612753391266,0.2912123203277588,0.03333219140768051,-0.06417857855558395,0.06485798209905624,-0.03930022194981575,-0.0910530760884285,0.0401461087167263,0.4149025082588196,0.10064974427223206,0.08177192509174347,0.021283674985170364,0.11366842687129974,0.1676671952009201,-0.0838671550154686,-0.08698591589927673,-0.1226925328373909,-0.052741628140211105,-0.06592003256082535,-0.05829056724905968,-0.07443268597126007,-0.025902440771460533,-0.05691524222493172,0.09446195513010025,0.020980125293135643,0.14036925137043,0.6423540115356445,-0.2767173647880554,0.02358810044825077,-0.11134782433509827,-0.19989924132823944,-0.11698183417320251,-0.2525360584259033,0.019393444061279297,-0.09593727439641953,0.0974627137184143,0.09580563008785248,0.036205217242240906,0.27328625321388245,0.22343702614307404,-0.17556560039520264,0.03849368914961815,-1.318932056427002,0.1831345558166504,0.18920761346817017,-0.09049376845359802,0.3109443187713623,-0.1490260511636734,0.6534170508384705,-0.31365951895713806,-0.10992898792028427,-0.057678960263729095,-0.0007813011761754751,-0.2481703907251358,-0.13377408683300018,-0.21222913265228271,0.14323046803474426,-0.05024806037545204,-0.004217107314616442,-0.042413096874952316,-0.13254733383655548,-0.2291199415922165,-0.04312174394726753,-0.07908213883638382,-0.023948200047016144,0.013629232533276081,-0.0883437916636467,-0.012186065316200256,-0.08652526140213013,0.06498880684375763,0.1369430273771286,0.16664940118789673,0.10052936524152756,0.18303583562374115,-0.27797773480415344,-0.014667470008134842,0.017284629866480827,-0.09212034940719604,-0.046147819608449936,0.23124699294567108,-0.0585041306912899,-0.03495825454592705,0.037970516830682755,-0.2557618319988251,-0.24202272295951843,0.062981516122818,-0.0383753702044487,0.0036845647264271975,-0.03506524860858917,-0.06368552893400192,0.047829773277044296,0.10598897188901901,0.12092288583517075,-0.004304560367017984,0.07879433035850525,0.08224660158157349,0.006333478260785341,0.02494248002767563,0.3191694915294647,0.020376287400722504,0.10794246196746826,0.16337621212005615,0.0417976900935173,0.12486555427312851,0.0035902385134249926,-0.020158831030130386,0.02039555087685585,-0.020933762192726135,-0.03601448982954025,-0.07837249338626862,-0.2706047296524048,0.3326992988586426,-0.026731539517641068,-0.057850562036037445,0.8065626621246338,-1.4485875368118286,0.11406493932008743,0.19958625733852386,-0.3863452076911926,0.1334632933139801,-0.5789923667907715,-0.38908421993255615,-0.18132704496383667,-0.2773613929748535,-0.261567085981369,0.08302709460258484,0.09003064036369324,0.25965964794158936,-0.0495636984705925,0.07472316175699234,0.049935758113861084,0.015155931934714317,0.10879901796579361,0.056547924876213074,0.2825050950050354,0.18168501555919647,0.13035409152507782,0.0268592219799757,0.19289575517177582,0.12392338365316391,-0.1007511243224144,-0.02815733477473259,0.04230750724673271,0.004048811737447977,-0.0315922312438488,0.05716227367520332,-0.2573319971561432,0.03235302120447159,0.03322240710258484,0.07014238834381104,0.06498656421899796,0.06504224985837936,-0.6566150188446045,0.06970284134149551,0.09373815357685089,0.16558119654655457,0.12358915060758591,0.1097014844417572,0.4120979309082031,-0.0471944697201252,0.036153197288513184,-0.09533707797527313,0.09008432179689407,0.08593937754631042,-0.44579192996025085,-0.07102923095226288,-0.07575772702693939,-0.008117437362670898,0.01820531114935875,-0.06917662918567657,0.5908178687095642,-0.1473636031150818,-0.18739928305149078,-0.02178502082824707,0.04900820180773735,-0.11243011802434921,-0.17600873112678528,0.24043644964694977,-0.04003724828362465,0.10271111130714417,-0.22440025210380554,-0.2147303968667984,-0.08226565271615982,-0.07279833406209946,-0.2098505049943924,0.3672122061252594,0.117039255797863,-0.5666581988334656,1.075453758239746,0.2795504927635193,-0.345107764005661,0.02168283797800541,-0.4065857529640198,0.5504915118217468,-0.4585069715976715,0.1479196548461914,-0.028095122426748276,0.09227626770734787,0.13190388679504395,0.23718877136707306,0.2721303105354309,-0.1397865116596222,-0.11023739725351334,0.015322950668632984,-0.15280432999134064,-0.06668298691511154,-0.45851513743400574,-0.193765789270401,-0.15289893746376038,-0.001734674908220768,-0.18660447001457214,-0.08265653252601624,-0.2103266566991806,-0.05230807512998581,-0.07226863503456116,-0.12543095648288727,0.12347640842199326,0.0792582556605339,-0.039717357605695724,0.023434260860085487,0.023742105811834335,-0.04568299651145935,0.026759248226881027,0.010150083340704441,-0.11739268153905869,0.058268867433071136,0.04482771083712578,0.04652436450123787,0.020704489201307297,0.02249586582183838,0.05447929725050926,0.0015415700618177652,-0.006024608388543129,-0.0035299924202263355,-0.010181346908211708,-0.006302350200712681,-0.01694195717573166,-0.16711071133613586,0.0884380042552948,0.11053597182035446,-0.20539399981498718,-0.0779377669095993,0.45173028111457825,-0.2181440144777298,0.11561161279678345,0.11599481105804443,-0.27258580923080444,-0.08600962907075882,-0.3676617443561554,-0.021349137648940086,0.04726960137486458,-0.17483331263065338,-0.021048957481980324,0.009820527397096157,0.17793701589107513,0.19641880691051483,-0.0008670687093399465,0.028867406770586967,-1.7317017316818237,-0.01371387392282486,0.3931466042995453,-0.47880157828330994,-0.07372164726257324,0.4529693126678467,0.5106214284896851,0.019073259085416794,0.515495777130127,0.34360596537590027,0.005776295904070139,-0.1352158933877945,0.291640043258667,0.5875872373580933,-0.23234547674655914,0.017923546954989433,0.02073843404650688,0.04407433420419693,0.024336865171790123,0.0504654124379158,0.08136546611785889,0.035135507583618164,0.039875876158475876,0.10675010830163956,0.051666032522916794,0.10496901720762253,0.44806423783302307,0.01784243993461132,0.03834686428308487,0.017361188307404518,0.03454597666859627,0.024514975026249886,-0.028092965483665466,-0.037687912583351135,-0.006886277347803116,-0.025518903508782387,0.013118346221745014,0.0025783744640648365,-0.10632061213254929,-0.052915532141923904,0.009748886339366436,-0.02814457379281521,0.022932279855012894,0.01535049732774496,0.25412777066230774,-0.08017940074205399,-0.06750264018774033,-0.08856561779975891,-0.03788115456700325,-0.07629157602787018,-0.26297786831855774,-0.04379750415682793,-0.04284137114882469,-0.04298469424247742,-0.0433596596121788,-0.04288830608129501,0.1973351687192917,-0.09196273237466812,-0.09010973572731018,-0.0934537872672081,-0.08888795971870422,-0.0917373076081276,-0.2086511105298996,-0.03218181058764458,-0.04197530075907707,-0.04091553017497063,-0.04689831659197807,-0.04805085062980652,-0.10175453126430511,-0.03698955848813057,-0.3680301904678345,-0.30910322070121765,-0.0001333669642917812,0.1218346506357193,0.06469304114580154,-0.2772136628627777,-0.2724432945251465,-0.13037288188934326,-0.5661469101905823,-0.13535042107105255,0.11024732887744904,-0.055980581790208817,-0.03589705377817154,0.024188673123717308,-0.358701229095459,0.4136698842048645,-0.12048879265785217,0.08163128793239594,0.0996922105550766,0.09904865175485611,0.0838385745882988,0.07319612801074982,-0.24123816192150116,0.2639046013355255,0.3114844262599945,0.31138360500335693,0.28542327880859375,0.24170434474945068,0.6607130169868469,-0.08325895667076111,-0.08965779840946198,-0.0967700332403183,-0.14003077149391174,-0.128688782453537,-0.2796306312084198,0.02651328407227993,0.04185275360941887,0.04987487941980362,0.0031284529250115156,-0.00589897483587265,0.059730906039476395,0.06873147934675217,0.1105029359459877,0.13168145716190338,0.003124549984931946,-0.02456253208220005,0.3869130313396454,0.03126337006688118,0.030532600358128548,0.033691346645355225,0.008413214236497879,0.0005990748177282512,0.29068291187286377,-0.0747581422328949,-0.07711651176214218,-0.1018785610795021,-0.044302891939878464,-0.039401665329933167,0.22058507800102234,-0.25380852818489075,-0.2596830427646637,-0.3073834776878357,-0.16233505308628082,-0.10644862800836563,-0.44243675470352173,0.09352144598960876,0.09991519898176193,0.010587893426418304,0.0696735605597496,0.009700346738100052,0.1870037019252777,-0.09673131257295609,0.1397397220134735,0.03033824823796749,-0.19778326153755188,1.4577958583831787,0.06061422824859619,-0.10150694847106934,-0.15206526219844818,-0.12743785977363586,-0.24103794991970062,-0.682090699672699,0.00019371893722563982,0.14992497861385345,-0.33086150884628296,-0.16114629805088043,-0.08974605798721313,-0.47757071256637573,0.4108804166316986,-0.006422342266887426,0.008130457252264023,-0.019185082986950874,0.0266181118786335,-0.020949162542819977,-0.4293811321258545,-0.05495649203658104,-0.04690839722752571,-0.0851118415594101,-0.03477222099900246,-0.08881094306707382,-0.37855419516563416,0.05444830656051636,0.12153289467096329,0.012000358663499355,0.18680278956890106,0.02636493556201458,-0.0019621781539171934,0.00872526504099369,0.008261105045676231,0.00976130086928606,0.005506299901753664,0.0017789285629987717,-0.1079479232430458,0.0496571883559227,0.06559321284294128,0.05011847987771034,0.04219626635313034,0.03985407575964928,0.1747540384531021,-0.01085495576262474,-0.03036641888320446,-0.016769390553236008,-0.01731371134519577,-0.013898526318371296,-0.05084339156746864,0.016330868005752563,0.016228945925831795,0.018051045015454292,0.01753799431025982,0.035434357821941376,0.32784923911094666,0.1043601706624031,0.13390393555164337,0.12882712483406067,0.12411229312419891,0.16717611253261566,-0.13594172894954681,-0.05396086722612381,-0.10724343359470367,-0.09008863568305969,-0.08350840210914612,-0.06594987958669662,-0.17053328454494476,0.2795947790145874,-0.11754535883665085,-0.3577987253665924,-0.46575236320495605,0.013242215849459171,0.01546349748969078,0.30856525897979736,-0.0924159586429596,-0.10544972121715546,0.2399497926235199,-0.001960837049409747,-0.12049560993909836,-0.3366522789001465,-0.11350975185632706,0.020647451281547546,-0.07721076160669327,-0.22819751501083374,-0.38944903016090393,0.03179365023970604,0.0121694291010499,0.061022721230983734,0.026212522760033607,0.04565754532814026,0.03120221011340618,0.058212339878082275,0.03829865902662277,0.0228650514036417,0.019282694905996323,0.05447927862405777,0.03221050649881363,0.05986892431974411,0.19528214633464813,-0.30226632952690125,0.07984514534473419,0.03709082677960396,0.1719852238893509,0.0535140335559845,0.09738729894161224,0.053802650421857834,0.13024915754795074,0.06008491292595863,0.09801255166530609,0.06686141341924667,0.11903535574674606,0.05331692099571228,-0.042862050235271454,0.026737308129668236,0.3648851215839386,-0.04410287365317345,-0.03827336058020592,0.07925506681203842,-0.02828076295554638,-0.006309811491519213,-0.07229973375797272,0.044815633445978165,-0.01243279967457056,-0.10802255570888519,0.001909310813061893,0.05065835639834404,-0.0409126915037632,-0.10427936911582947,-0.00047591415932402015,0.03988449275493622,0.0037254123017191887,0.0306853037327528,0.02884739451110363,0.03962347283959389,0.012415471486747265,-0.0008508379687555134,-0.02263203263282776,-0.02526838146150112,0.015039285644888878,0.02658488228917122,0.07955170422792435,-0.02993032895028591,0.023346509784460068,-0.17893926799297333,0.22721822559833527,0.0574166402220726,0.08342856913805008,0.03817177563905716,0.07975873351097107,0.038646552711725235,0.05605694279074669,0.02857370860874653,0.09549341350793839,0.04514509439468384,0.04402215778827667,0.031728629022836685,0.05120823532342911,0.05394274741411209,0.18358831107616425,-0.11503569036722183,0.011572660878300667,0.05282235145568848,-0.010747464373707771,0.03626449778676033,-0.003425080329179764,0.052162230014801025,-0.03538218513131142,0.023140693083405495,0.03147542104125023,-0.004179847426712513,-0.012047197669744492,0.011033506132662296,0.011000861413776875,0.01351457554847002,-0.05555962771177292,-0.05960837006568909,0.00008340360363945365,-0.0971589982509613,-0.015394257381558418,-0.033115483820438385,-0.02190866880118847,-0.059155356138944626,-0.022317109629511833,-0.005231599789112806,-0.007273456547409296,0.031016459688544273,-0.11632838845252991,-0.06844251602888107,-0.056460052728652954,0.2366926670074463,-0.07587137073278427,-0.06661484390497208,-0.16720271110534668,-0.040981683880090714,-0.0710805281996727,-0.06371443718671799,-0.14379601180553436,0.013286031782627106,0.012407894246280193,-0.038262005895376205,0.03737688437104225,-0.05448409914970398,-0.17408405244350433,-0.06858611106872559,-0.41095441579818726,0.00610006507486105,-0.004492628388106823,-0.178944393992424,-0.07762891799211502,0.026099804788827896,0.038970571011304855,-0.055619750171899796,0.007739288732409477,-0.013694497756659985,-0.020321641117334366,-0.09148169308900833,-0.047025084495544434,-0.08322330564260483,-0.12537981569766998,-0.13334204256534576,-0.31476327776908875,-0.2362254559993744,0.1373046636581421,-0.05208723619580269,0.041289810091257095,1.2875635623931885,-0.33716148138046265,0.2532895505428314,-0.17564716935157776,0.15702588856220245,-0.2560136318206787,-0.4716308116912842,-0.1771986037492752,0.054149191826581955,0.14134792983531952,0.05939752236008644,-0.11731214076280594,0.14025111496448517,0.02620098739862442,0.05843205749988556,0.016404252499341965,0.06953129172325134,0.05175158381462097,0.03147557005286217,0.05450957641005516,0.0658574253320694,0.06877557933330536,0.05524864047765732,0.055998433381319046,0.05419128015637398,0.06009829044342041,0.041025690734386444,-0.5677907466888428,0.03521661460399628,0.08616816997528076,0.018937136977910995,0.1008647158741951,0.07437537610530853,0.04504048079252243,0.07556486129760742,0.09676583111286163,0.10754323750734329,0.07663765549659729,0.08912131935358047,0.08036094903945923,0.08269044756889343,0.0779629498720169,0.3583034574985504,-0.017888279631733894,-0.03994522988796234,-0.011222496628761292,-0.016480591148138046,0.006876547355204821,-0.004139397293329239,-0.01608048751950264,-0.05263061076402664,-0.021158568561077118,0.017937907949090004,-0.014502105303108692,0.04660726711153984,-0.034379441291093826,-0.0016105733811855316,-0.06674006581306458,-0.004631922580301762,-0.06749952584505081,-0.015409253537654877,-0.05457128584384918,-0.10073897242546082,-0.031200580298900604,-0.019980482757091522,-0.07266195863485336,-0.053770650178194046,-0.0015836382517591119,-0.034959401935338974,-0.05926600098609924,0.0031793343368917704,0.036303065717220306,-0.46716389060020447,-0.003574561793357134,-0.10952113568782806,-0.020238613709807396,-0.0804331824183464,-0.16011714935302734,-0.049227431416511536,-0.02853044867515564,-0.11488018184900284,-0.09380955249071121,0.007553273346275091,-0.057637427002191544,-0.08828321099281311,-0.0033871487248688936,0.038752660155296326,0.09609295427799225,0.005031141918152571,-0.0174140315502882,0.03895924240350723,0.03086382895708084,0.014740199781954288,0.009585946798324585,0.008044220507144928,-0.012141380459070206,-0.03570549935102463,0.01784786581993103,0.03137342631816864,0.05171249434351921,0.038514673709869385,0.0036602120380848646,-0.13689015805721283,-0.017832452431321144,-0.04568951204419136,-0.03627549856901169,-0.07387605309486389,-0.10352645069360733,-0.022186556831002235,-0.03638796880841255,-0.07367563247680664,-0.03712361678481102,-0.09649112075567245,-0.0606486052274704,-0.09328337013721466,-0.07701854407787323,-0.038406334817409515,0.5951749682426453,-0.024748045951128006,-0.06752392649650574,-0.05394189804792404,-0.11137688159942627,-0.16345524787902832,-0.03515781834721565,-0.0427071787416935,-0.1155131533741951,-0.057555731385946274,-0.1445886194705963,-0.09713801741600037,-0.14485390484333038,-0.10246492177248001,-0.07865002751350403,-0.4810132682323456,0.010080033913254738,0.03163410723209381,0.03809598088264465,0.040570154786109924,0.028074808418750763,0.024189108982682228,0.002691137371584773,0.03682972118258476,0.039481453597545624,0.00551404757425189,0.002648561028763652,-0.008686084300279617,-0.05489443242549896,-0.04670589789748192,-0.09983978420495987,-0.13835357129573822,0.13641372323036194,0.13740544021129608,-0.06060996651649475,-0.3081391751766205,0.531558096408844,-0.15517152845859528,-0.07718025147914886,0.02476566657423973,-0.10077294707298279,0.04301348701119423,0.2570689022541046,-0.43559709191322327,0.1363954097032547,0.39957574009895325,-0.1256539672613144,0.09536829590797424,0.21370944380760193,0.0013059480115771294,-0.08899618685245514,0.05808447673916817,-0.030857373028993607,-0.06841440498828888,-0.3970169425010681,-0.10662400722503662,-0.1594298630952835,0.06685657799243927,-0.1542506366968155,0.036564771085977554,-0.020559828728437424,0.11277543008327484,0.22633841633796692,-0.11853573471307755,0.1497882604598999,0.15499889850616455,0.12730953097343445,-0.05545683577656746,-0.2092789113521576,0.1368059664964676,-0.16994911432266235,-0.24962058663368225,-0.028925271704792976,-0.015577862039208412,-0.06183529645204544,0.21085141599178314,0.01974450796842575,-0.023856837302446365,-0.08398981392383575,0.09189868718385696,0.0016738648992031813,-0.08638658374547958,0.12119286507368088,0.06515376269817352,0.1636757105588913,-0.15759052336215973,-0.112153559923172,-0.10007600486278534,0.012344679795205593,-0.11422714591026306,0.420327752828598,-0.019496668130159378,-0.18015456199645996,-0.04508071020245552,0.03542309254407883,0.07399658113718033,-0.5188870429992676,0.10270984470844269,0.2112310528755188,0.015171939507126808,0.03953060135245323,0.17579993605613708,0.3193526268005371,0.1960846483707428,0.23688173294067383,0.11842434108257294,-1.5939797163009644,1.449364185333252,0.9537639617919922,-0.19385704398155212,0.4521808624267578,0.06493020802736282,0.31896838545799255,-0.45846039056777954,0.027975594624876976,-0.5519329309463501,0.24785500764846802,0.17894817888736725,0.23975728452205658,0.44077226519584656,0.5719326734542847,-0.005038582254201174,0.00526696490123868,-0.14338405430316925,-0.13311730325222015,0.04325743019580841,-0.0700787678360939,-0.06839727610349655,-0.12992575764656067,-0.052741311490535736,-0.14647109806537628,-0.044831257313489914,0.39799872040748596,-0.04477676749229431,-0.0581158883869648,0.24349507689476013,0.22922196984291077,0.07541021704673767,-0.03932393714785576,0.06329996138811111,0.011111672967672348,0.06782013177871704,-0.13821016252040863,0.09736564755439758,0.07802392542362213,-0.013414458371698856,0.010676993988454342,0.022519836202263832,0.13134725391864777,0.050964806228876114,0.03423139080405235,-0.09743143618106842,-0.033603958785533905,-0.04138597846031189,-0.15223434567451477,-0.09197041392326355,-0.015946470201015472,0.05063936114311218,0.036126479506492615,0.01716344989836216,-0.03340129554271698,-0.01891452632844448,0.7150704860687256,-0.06978820264339447,-0.06191309168934822,-0.037529606372117996,-0.14696606993675232,0.05103176087141037,-0.5042892098426819,-0.13869082927703857,-0.15986131131649017,-0.11726906150579453,-0.18882662057876587,-0.27399152517318726,-0.14477390050888062,0.2862864136695862,-0.13072945177555084,-0.6157024502754211,-1.1393427848815918,0.04707110673189163,0.07637869566679001,-0.3025911748409271,0.2493167370557785,0.4235236644744873,-0.20859764516353607,-0.2841157913208008,-0.14898768067359924,0.21956931054592133,0.005980091635137796,0.18529561161994934,0.1485481858253479,-0.02934739552438259,0.26739341020584106,-0.09735636413097382,-0.04353383928537369,-0.03704502433538437,0.006615590304136276,-0.03074536845088005,-0.4751594066619873,-0.051101602613925934,-0.23611487448215485,-0.03145362064242363,-0.025803962722420692,-0.04371355101466179,0.3835138976573944,0.1813957244157791,-0.08004432916641235,0.056463029235601425,0.012167260982096195,0.07304071635007858,0.2586512863636017,0.023115655407309532,0.013991262763738632,0.06335142254829407,0.04567214474081993,0.04713498055934906,-0.38724425435066223,-0.018680904060602188,-0.010115180164575577,-0.04037647321820259,-0.021491065621376038,-0.027369137853384018,0.38669252395629883,-0.057568132877349854,-0.038093481212854385,-0.17171896994113922,-0.11509362608194351,-0.08300676941871643,-0.3734768033027649,0.05066071078181267,0.041940491646528244,0.04520376771688461,0.010802606120705605,0.08007576316595078,0.43704256415367126,-0.030328143388032913,-0.006178582087159157,-0.05990062281489372,-0.04773751273751259,0.0032737264409661293,-0.3550023138523102,-0.13570356369018555,-0.09726079553365707,-0.15026459097862244,-0.0873054638504982,-0.182439386844635,-0.007310936693102121,0.24409374594688416,-0.14863789081573486,-0.1603820025920868,-0.45427972078323364,-0.06595008075237274,0.17506781220436096,-0.13414528965950012,-0.2821176052093506,0.12530159950256348,-0.3747330904006958,0.33193206787109375,0.19888733327388763,-0.2827100455760956,-0.2053903192281723,0.27582433819770813,0.4194941222667694,0.3709932863712311,0.09425975382328033,-0.06425440311431885,-0.11569150537252426,-0.20862843096256256,0.0054521397687494755,-0.02057299017906189,-0.5818284153938293,-0.09694182872772217,-0.020007828250527382,-0.10615444928407669,0.0027883274015039206,0.003430616110563278,-0.043701354414224625,0.0885203406214714,0.1893022209405899,0.3287332355976105,0.00918959267437458,0.055921707302331924,0.15026980638504028,-0.00006564983050338924,-0.007654683664441109,-0.005609231069684029,-0.00491791358217597,0.032174378633499146,0.03416910767555237,0.007761093787848949,0.005311522167176008,-0.0010375810088589787,0.014511332847177982,0.002462102333083749,0.05858950689435005,0.007336783222854137,-0.002327603055164218,0.017677651718258858,0.003484330838546157,-0.051625609397888184,-0.11263003945350647,-0.06939932703971863,-0.11405137926340103,-0.16317041218280792,-0.010392396710813046,-0.16434058547019958,0.5260031819343567,-0.03139340877532959,-0.2046121060848236,-0.10291510075330734,-0.12051918357610703,-0.14285758137702942,-0.31908801198005676,0.10659284144639969,0.14545544981956482,0.25395333766937256,-0.019504638388752937,0.22071348130702972,0.4050942063331604,0.075315922498703,-0.057548362761735916,0.15424826741218567,-0.4654930830001831,0.003922307398170233,0.5964781641960144,0.3489212989807129,0.023253625258803368,-0.29457372426986694,0.06626816838979721,-0.16533590853214264,-0.16329774260520935,-0.26670101284980774,-0.02324874885380268,-0.24218475818634033,-0.4350976347923279,-0.329907089471817,-0.3549363613128662,0.1422644406557083,0.1438034325838089,0.1511044055223465,0.15840046107769012,0.14378765225410461,-0.5979498028755188,0.1502474695444107,0.1415683627128601,0.13265354931354523,0.20921556651592255,0.16537918150424957,0.4043745994567871,-0.06791239976882935,-0.07266309857368469,-0.0858912467956543,-0.052329860627651215,-0.058540478348731995,-0.46398890018463135,-0.04791627451777458,0.017453603446483612,0.04588775709271431,-0.08280354738235474,-0.02613329328596592,0.2275889366865158,-0.0061353640630841255,0.017986251041293144,0.03434670716524124,-0.12676924467086792,0.000002970336481666891,-0.06848637759685516,0.049633871763944626,-0.01606360822916031,-0.04266345873475075,-0.013711797073483467,-0.005184145178645849,-0.19613704085350037,0.08077428489923477,0.09070877730846405,0.10508227348327637,0.15072213113307953,0.12658773362636566,0.5792719721794128,0.09515432268381119,0.06353115290403366,0.0958796888589859,0.09661304205656052,0.06336736679077148,-0.2236243635416031,-0.044470641762018204,-0.0696239098906517,-0.07072761654853821,-0.12251384556293488,-0.10547652095556259,0.08258821815252304,-0.4394392669200897,-0.1708822101354599,-0.40979212522506714,-0.23620399832725525,0.06467808037996292,0.14844679832458496,0.04271614924073219,0.22820518910884857,-0.02196618728339672,0.253470778465271,-0.29549700021743774,0.1698959618806839,-0.36258628964424133,0.06723059713840485,0.2298278659582138,-0.1887313723564148,-0.2685752213001251,-0.43792155385017395,0.05061079189181328,0.025634456425905228,0.04747330769896507,0.04239141196012497,0.05368905887007713,-0.18459321558475494,0.1309850662946701,0.0463297963142395,0.04757462814450264,0.09394785761833191,0.05437195301055908,0.38127076625823975,0.017650827765464783,0.001686515868641436,-0.021711772307753563,0.021671544760465622,-0.004911340773105621,-0.20873430371284485,-0.014373568817973137,0.025445178151130676,-0.01972316764295101,0.04576115682721138,0.0037789989728480577,-0.28016144037246704,-0.09775377810001373,-0.15497785806655884,-0.05098699405789375,-0.14045372605323792,-0.17584168910980225,0.005839658435434103,-0.04014493152499199,-0.112325020134449,-0.0025070481933653355,-0.13297921419143677,-0.10089224576950073,-0.4093502163887024,-0.021182280033826828,-0.007506506517529488,-0.03571898117661476,0.018809832632541656,-0.05236266925930977,0.4955337345600128,-0.0742841362953186,-0.11213705688714981,-0.07383464276790619,-0.07291267067193985,-0.19103121757507324,-0.2814207673072815,-0.02139444649219513,-0.05897762253880501,-0.008261234499514103,-0.06696557253599167,-0.06762918084859848,-0.1552278697490692,-0.08888041973114014,0.18728534877300262,0.20178908109664917,-0.07456451654434204,-0.15631350874900818,0.5062170624732971,0.010042998008430004,0.03519119322299957,-0.5231338143348694,0.2461278736591339,0.07269047945737839,-0.38523343205451965,-0.08842642605304718,-0.09335705637931824,0.06843402236700058,-0.08914545178413391,0.5130034685134888,0.03244824707508087,-0.18967725336551666,0.029710328206419945,-0.06434649974107742,-0.1295628398656845,-0.29590627551078796,-0.2786984145641327,-0.08322673290967941,-0.12415894865989685,0.02326584793627262,-0.10490290820598602,-0.21166281402111053,0.4033750295639038,0.07457911223173141,-0.10416892915964127,0.06181124970316887,0.008442551828920841,0.041386015713214874,-0.19749145209789276,-0.10877085477113724,0.08375345915555954,-0.02539040334522724,-0.11120133846998215,-0.2399311512708664,-0.454435795545578,-0.07485069334506989,-0.026163706555962563,-0.07438167184591293,-0.06418315321207047,-0.05440672114491463,0.09125030785799026,0.01978188008069992,-0.07452857494354248,-0.04235580563545227,0.025474021211266518,0.11491823941469193,-0.48494988679885864,-0.13392150402069092,0.07236367464065552,-0.015550531446933746,-0.09064611047506332,-0.19040125608444214,0.2273668795824051,-0.07706953585147858,-0.0787823498249054,-0.026767199859023094,-0.08481723815202713,-0.11307142674922943,-0.4931502640247345,0.038556937128305435,-0.10383118689060211,-0.010500950738787651,-0.0032032737508416176,0.04371136054396629,0.007568974979221821,0.2609928548336029,0.21865171194076538,0.2001468539237976,-0.7655373811721802,-0.10229883342981339,1.0514404773712158,0.4162098467350006,-0.00858832336962223,0.5327888131141663,0.11612158268690109,0.18631941080093384,-0.07476914674043655,-0.32249006628990173,-0.3899204134941101,-0.36959829926490784,-0.3457287847995758,0.4948616325855255,-0.35605674982070923,-0.030467066913843155,0.044575709849596024,-0.04907062277197838,0.03077773004770279,-0.023198455572128296,-0.01487477496266365,-0.04233541339635849,-0.07031377404928207,-0.07923063635826111,-0.12386282533407211,-0.15582963824272156,-0.21338152885437012,-0.12368597090244293,-0.13933877646923065,-0.6109503507614136,-0.0018095445120707154,0.013217306695878506,-0.08278130739927292,0.07837196439504623,-0.06344334781169891,0.026035921648144722,-0.05046636611223221,0.03597744181752205,0.04708679020404816,-0.03331237658858299,0.09025271981954575,0.1213017925620079,0.04899412393569946,-0.016277628019452095,-0.09134303778409958,-0.3655966520309448,-0.003546034451574087,0.001095069688744843,0.00799599103629589,-0.012028050608932972,0.01110202819108963,0.0009394828812219203,0.04798544570803642,0.0011410113656893373,0.023159518837928772,0.0719185620546341,0.021528391167521477,0.013799233362078667,0.171828493475914,0.10532460361719131,0.169582799077034,0.9390920996665955,-0.0012444369494915009,-0.11800683289766312,0.006561064331842053],"sample_rate":48000}},{"max_value":1,"model":{"version":"0.7.0","metadata":{"date":{"year":2026,"month":7,"day":13,"hour":23,"minute":23,"second":23},"loudness":-15.00085545233435,"gain":0.00038667154516893804},"architecture":"WaveNet","config":{"layers":[{"input_size":1,"condition_size":1,"head":{"out_channels":1,"kernel_size":16,"bias":true},"channels":8,"kernel_sizes":[6,6,6,6,6,6,6,6,6,6,6,6,6,6,15,15,6,6,6,6,6,6,6],"dilations":[1,3,7,17,41,101,239,1,3,7,17,41,101,239,1,13,1,3,7,17,41,101,239],"activation":[{"type":"LeakyReLU","negative_slope":0.01},{"type":"LeakyReLU","negative_slope":0.01},{"type":"LeakyReLU","negative_slope":0.01},{"type":"LeakyReLU","negative_slope":0.01},{"type":"LeakyReLU","negative_slope":0.01},{"type":"LeakyReLU","negative_slope":0.01},{"type":"LeakyReLU","negative_slope":0.01},{"type":"LeakyReLU","negative_slope":0.01},{"type":"LeakyReLU","negative_slope":0.01},{"type":"LeakyReLU","negative_slope":0.01},{"type":"LeakyReLU","negative_slope":0.01},{"type":"LeakyReLU","negative_slope":0.01},{"type":"LeakyReLU","negative_slope":0.01},{"type":"LeakyReLU","negative_slope":0.01},{"type":"LeakyReLU","negative_slope":0.01},{"type":"LeakyReLU","negative_slope":0.01},{"type":"LeakyReLU","negative_slope":0.01},{"type":"LeakyReLU","negative_slope":0.01},{"type":"LeakyReLU","negative_slope":0.01},{"type":"LeakyReLU","negative_slope":0.01},{"type":"LeakyReLU","negative_slope":0.01},{"type":"LeakyReLU","negative_slope":0.01},{"type":"LeakyReLU","negative_slope":0.01}],"bottleneck":8,"head1x1":{"active":false,"out_channels":1,"groups":1},"layer1x1":{"active":true,"groups":1},"groups_input":1,"groups_input_mixin":1,"conv_pre_film":{"active":false,"shift":true,"groups":1},"conv_post_film":{"active":false,"shift":true,"groups":1},"input_mixin_pre_film":{"active":false,"shift":true,"groups":1},"input_mixin_post_film":{"active":false,"shift":true,"groups":1},"activation_pre_film":{"active":false,"shift":true,"groups":1},"activation_post_film":{"active":false,"shift":true,"groups":1},"layer1x1_post_film":{"active":false,"shift":true,"groups":1},"head1x1_post_film":{"active":false,"shift":true,"groups":1},"gating_mode":["none","none","none","none","none","none","none","none","none","none","none","none","none","none","none","none","none","none","none","none","none","none","none"],"secondary_activation":[null,null,null,null,null,null,null,null,null,null,null,null,null,null,null,null,null,null,null,null,null,null,null],"slimmable":null}],"head":null,"head_scale":0.006561064478493273},"weights":[-1.0051889419555664,-0.0923314318060875,-0.4138334393501282,1.256956934928894,-1.5591262578964233,-0.12184631824493408,0.5441157817840576,1.7727640867233276,-0.022968925535678864,0.047342658042907715,0.016466781497001648,0.014968731440603733,-0.083454430103302,0.08666376769542694,0.005467086564749479,0.00029253444517962635,0.006326192058622837,0.00773164676502347,-0.014134600758552551,0.01900891400873661,0.006445748265832663,-0.004171306733042002,0.01147135253995657,0.024371137842535973,-0.017040763050317764,0.0014134045923128724,-0.046442754566669464,0.018877869471907616,-0.013017158955335617,-0.010354089550673962,0.1327347606420517,-0.10046516358852386,-0.018216503784060478,0.0570656955242157,0.027319010347127914,0.006651083938777447,-0.14194916188716888,0.1150643453001976,0.001872402266599238,-0.0026136136148124933,0.00221820967271924,0.006893283221870661,-0.00825877021998167,0.005086640361696482,-0.011782316491007805,-0.01762618124485016,-0.0025493893772363663,-0.030291492119431496,0.0916723683476448,-0.09206757694482803,0.05744720995426178,-0.08568975329399109,0.025009244680404663,0.10393892228603363,0.20106762647628784,-0.15014323592185974,0.00792960450053215,0.011063970625400543,-0.00021958678553346545,-0.08024750649929047,-0.0913444384932518,0.17259041965007782,-0.000641323218587786,0.00745006138458848,0.000027834139473270625,-0.0056084017269313335,-0.014768410474061966,0.015325482003390789,-0.0008384987595491111,0.013293213210999966,-0.00023654181859456003,-0.004189885687083006,-0.02029622346162796,-0.007838721387088299,-0.004879326093941927,0.011370120570063591,0.019166450947523117,0.10148034989833832,0.12089690566062927,-0.23584698140621185,-0.020706189796328545,0.0744946226477623,-0.02076907828450203,-0.049351852387189865,-0.09767619520425797,0.27473652362823486,-0.002059394959360361,0.00409299973398447,-0.0020207574125379324,-0.004983225371688604,-0.0127487201243639,-0.004653319250792265,0.021992241963744164,-0.007522927597165108,0.011209236457943916,0.046942297369241714,0.06849732249975204,-0.10323308408260345,-0.015232124365866184,-0.05052318796515465,-0.015054908581078053,0.0712786614894867,0.14852969348430634,-0.22974972426891327,-0.02912982366979122,0.022268030792474747,0.025020834058523178,0.04498140141367912,-0.03881403058767319,-0.040035076439380646,-0.0037956894375383854,0.0023740893229842186,0.004646952264010906,0.007118735928088427,0.002264271257445216,-0.0025642721448093653,-0.013869731687009335,0.005398384761065245,0.01193227432668209,0.02121349424123764,-0.0004567595315165818,-0.016474353149533272,0.04919099435210228,-0.03754958137869835,-0.03185977041721344,-0.034988898783922195,0.05703209340572357,0.04398086294531822,-0.026290642097592354,0.009179444052278996,0.034243300557136536,0.027480345219373703,-0.05323237553238869,-0.050079118460416794,-0.004558965563774109,0.00242798263207078,0.005156914237886667,0.00791023951023817,0.002767616882920265,-0.002550817094743252,0.020784052088856697,-0.011990794911980629,-0.015448703430593014,-0.030243875458836555,0.008586512878537178,0.020974766463041306,0.05996768921613693,-0.01559353806078434,-0.013365346007049084,-0.0676223635673523,0.07935492694377899,0.03198567032814026,-0.04115670546889305,-0.001667213742621243,0.02584528736770153,0.04998203366994858,0.077383853495121,0.2510020136833191,-0.002594027668237686,0.0002418105723336339,0.0027466421015560627,0.0061966413632035255,0.006734926253557205,0.025306273251771927,-0.014241483062505722,-0.002982431324198842,0.005974431987851858,0.02139144018292427,0.025855092331767082,0.09080115705728531,0.023608146235346794,0.01107871439307928,-0.02625727280974388,-0.09072650223970413,-0.10533206909894943,-0.30631211400032043,-0.039696186780929565,-0.016558492556214333,0.007283808197826147,0.08470704406499863,0.1231268122792244,0.36220720410346985,-0.003300872165709734,0.0001064768512151204,0.00320724630728364,0.007207155227661133,0.007666056044399738,0.02897217497229576,0.02225460857152939,0.002814872656017542,-0.009396929293870926,-0.03596588969230652,-0.04870099201798439,-0.15304145216941833,0.04405718296766281,-0.02640683762729168,-0.03693342208862305,-0.07648313045501709,-0.16934950649738312,-0.3976883590221405,0.02698957733809948,0.026655109599232674,0.015551707707345486,-0.09491116553544998,-0.17492124438285828,0.18940326571464539,0.009442056529223919,0.012842856347560883,0.004799357149749994,-0.017868394032120705,-0.04782756045460701,0.03992733359336853,0.02014775574207306,0.02444622293114662,0.009023253805935383,-0.025407055392861366,-0.08562195301055908,0.06996047496795654,-0.06749267131090164,-0.019025910645723343,-0.026002686470746994,0.15136386454105377,0.2546350657939911,-0.23991341888904572,0.03771315887570381,0.021841030567884445,0.005539946258068085,-0.11683955043554306,-0.2808459401130676,0.25940579175949097,0.008761195465922356,0.012131750583648682,0.0045090001076459885,-0.009725024923682213,-0.03881044313311577,0.028542712330818176,-0.019318683072924614,-0.02874826267361641,0.0053628599271178246,0.0790199413895607,0.1261233687400818,-0.13966572284698486,-0.05635709688067436,-0.07149411737918854,0.03525210916996002,0.18752436339855194,0.17981208860874176,-0.2969522476196289,0.00936248991638422,-0.010941125452518463,0.024447564035654068,0.09319061785936356,0.18666493892669678,-0.15222211182117462,-0.005631901789456606,-0.0013505953829735518,-0.008702557533979416,0.030870145186781883,0.08689652383327484,-0.06590814888477325,-0.021801292896270752,-0.02422638237476349,-0.0158053170889616,0.008627252653241158,0.07653503119945526,-0.006487491074949503,0.11459367722272873,-0.03411683812737465,-0.03855510801076889,-0.14195965230464935,-0.173331156373024,0.2439357489347458,-0.016301332041621208,-0.10093984752893448,-0.004440585616976023,0.12758930027484894,0.2857120931148529,-0.19281001389026642,-0.005331496242433786,-0.010931190103292465,-0.007227225229144096,0.00981731154024601,0.051260776817798615,-0.01566147245466709,0.019157331436872482,0.058077123016119,0.008461404591798782,-0.09257058054208755,-0.1767115592956543,0.11756332218647003,0.04810890182852745,0.033678583800792694,0.02797602489590645,-0.1603405773639679,-0.18784739077091217,0.34068503975868225,0.016471704468131065,-0.006682512816041708,-0.07362625002861023,-0.06454828381538391,-0.005321573931723833,0.3208142817020416,0.002844646805897355,0.0001410010299878195,-0.004847795702517033,-0.007214636541903019,-0.004805403295904398,0.03571717441082001,0.006875085644423962,-0.0038266568444669247,-0.022189395502209663,-0.025863856077194214,-0.014049801975488663,0.12617099285125732,-0.03393169865012169,0.013263599947094917,0.06801503896713257,0.06281352043151855,-0.006991183385252953,-0.38977184891700745,0.03736525774002075,-0.03187873959541321,-0.1140056699514389,-0.06033003330230713,0.0075059677474200726,0.46289196610450745,0.002603881759569049,-0.0006278795190155506,-0.0063533661887049675,-0.009175116196274757,-0.006534231826663017,0.041057050228118896,-0.012367959134280682,0.006269382778555155,0.03666584938764572,0.03603193536400795,0.013449552468955517,-0.2004953771829605,-0.025993969291448593,-0.002981554949656129,0.11985374987125397,0.05253666639328003,0.010431989096105099,-0.5050905346870422,-0.06542693078517914,0.024464797228574753,0.09893874078989029,-0.12678897380828857,-0.2660423815250397,0.25636300444602966,-0.016129769384860992,0.0064793541096150875,-0.026495618745684624,-0.036867655813694,-0.11646991223096848,0.07761932164430618,0.0028586769476532936,0.005856670439243317,0.032782308757305145,0.04448750242590904,-0.043865054845809937,-0.02908177115023136,-0.04144689068198204,0.04934559389948845,-0.10225667804479599,-0.016287511214613914,0.20512308180332184,-0.1814253181219101,0.04097631201148033,0.03218487277626991,0.010234949178993702,-0.1215646043419838,-0.269306480884552,0.15186478197574615,0.007769013289362192,-0.0015045165782794356,0.004268759395927191,-0.0018462708685547113,-0.04500501975417137,0.04793583229184151,0.05190488323569298,-0.08146854490041733,-0.03149687498807907,0.07280182093381882,0.2150002270936966,-0.07428054511547089,-0.017452439293265343,-0.10398425906896591,0.0351092554628849,0.02189396321773529,0.3121674656867981,-0.23107150197029114,0.09725942462682724,0.38213589787483215,0.16590015590190887,-0.11629247665405273,-0.2357916384935379,0.23037567734718323,-0.06962104141712189,0.18456406891345978,-0.23013533651828766,-0.1718835085630417,0.014056166633963585,-0.19210198521614075,-0.5042567253112793,0.5375096201896667,-0.26428747177124023,-0.6228944659233093,0.06996965408325195,0.18105082213878632,0.10813960433006287,-0.10241475701332092,-0.0814790204167366,-0.029683221131563187,-0.11063633114099503,-0.07398189604282379,0.034383345395326614,-0.09894271939992905,0.11315042525529861,0.12438185513019562,0.3309468626976013,-0.302484393119812,0.20599165558815002,0.15009629726409912,0.0485733263194561,0.4722922444343567,0.053707193583250046,-0.17481406033039093,0.06312371045351028,-0.5249371528625488,-0.2224620133638382,-0.03956297039985657,0.14320914447307587,-0.061411693692207336,0.03159572184085846,0.16934964060783386,-0.10794287174940109,0.2759849727153778,0.21683870255947113,-0.028420066460967064,0.2457856833934784,-0.0876578763127327,0.10344560444355011,0.06626918166875839,0.19433462619781494,-0.18661096692085266,0.08274287730455399,0.38041025400161743,0.10597251355648041,0.13391929864883423,0.08612342923879623,-0.29572224617004395,0.011532760225236416,-0.13055337965488434,-0.4130462408065796,-0.17014382779598236,-0.24596534669399261,-0.18542474508285522,-0.12022073566913605,-0.32084226608276367,-0.5302145481109619,0.25739526748657227,-0.43955129384994507,-0.3150233030319214,-0.31009167432785034,-0.11319803446531296,0.20875051617622375,-0.15029485523700714,-0.3604396879673004,0.007300537079572678,-0.19346784055233002,-0.45189169049263,-0.25705984234809875,0.06415112316608429,-0.08479665219783783,-0.03925934433937073,-0.11197551339864731,-0.030954550951719284,0.050476133823394775,0.0937492772936821,-0.09317473322153091,-0.1615181267261505,-0.17127081751823425,-0.16398607194423676,-0.1452087163925171,-0.07302384078502655,0.020540907979011536,0.030617233365774155,0.048072341829538345,0.051251862198114395,0.10989323258399963,0.08058047294616699,0.04654284194111824,0.054565027356147766,0.005840256344527006,-0.019040949642658234,-0.006933476310223341,-0.2532505691051483,0.05812782049179077,0.07120872288942337,0.07314613461494446,0.11192265152931213,0.15480613708496094,0.30362045764923096,-0.03924502804875374,-0.0916285291314125,-0.036068473011255264,-0.024353928864002228,-0.10283352434635162,-0.31501492857933044,0.0044454969465732574,0.013292248360812664,-0.043002184480428696,-0.07680129259824753,-0.13099707663059235,-0.1276443749666214,-0.12978321313858032,-0.13163700699806213,-0.06871666014194489,-0.07859310507774353,-0.057568199932575226,-0.023915082216262817,0.0322205051779747,0.03404092788696289,0.00708403717726469,0.007439037319272757,-0.0386333093047142,0.26971501111984253,-0.11527368426322937,-0.09541648626327515,-0.04670264944434166,-0.059203796088695526,0.026914192363619804,-0.060556162148714066,0.019204488024115562,0.01817023940384388,0.06689810007810593,0.09364239126443863,0.07132268697023392,-0.04621364176273346,-0.06080329418182373,-0.02498893439769745,-0.009741224348545074,-0.02400626800954342,-0.11639850586652756,-0.03640848398208618,-0.02315487340092659,0.017858529463410378,0.09819038957357407,0.041470516473054886,-0.023792829364538193,0.13987328112125397,-0.09040738642215729,0.000253378035267815,-0.025606850162148476,-0.09656491130590439,0.0563155859708786,-0.04571403190493584,-0.02858140505850315,-0.0051728724502027035,-0.07388891279697418,-0.002895897487178445,0.027598092332482338,-0.08455915004014969,-0.1282765120267868,-0.05236748233437538,-0.06535002589225769,-0.02922862395644188,-0.0976264476776123,-0.07516805827617645,-0.043648622930049896,-0.021194832399487495,-0.047528211027383804,-0.10475229471921921,-0.06640516221523285,0.001949957339093089,-0.05182312801480293,0.06885281205177307,-0.08120279014110565,-0.14124177396297455,-0.022413399070501328,-0.135948047041893,0.013981502503156662,0.12617380917072296,0.03817025572061539,0.14268717169761658,0.03552396222949028,0.02199658565223217,0.024360105395317078,-0.037409935146570206,0.005543365143239498,0.03993690758943558,-0.0380963496863842,-0.3571564853191376,0.03990400210022926,0.06391052156686783,0.12771064043045044,0.06949516385793686,0.07141109555959702,0.41344553232192993,-0.0011840199586004019,-0.04950480908155441,0.06496897339820862,-0.09972069412469864,-0.07977703213691711,-0.18852154910564423,-0.0799400731921196,0.008001469075679779,0.0690322145819664,-0.05200176313519478,-0.13913099467754364,-0.26699358224868774,0.03281721845269203,-0.08511842787265778,-0.1259005218744278,-0.026341430842876434,-0.05249767005443573,-0.17518068850040436,-0.01706203632056713,0.06606779247522354,0.06510934978723526,0.014778404496610165,-0.08195799589157104,0.08259916305541992,-0.044184476137161255,-0.056647855788469315,-0.06617435067892075,-0.06455852836370468,-0.0657617375254631,-0.028182508423924446,0.011066189967095852,0.007655039429664612,0.024693522602319717,0.017701424658298492,0.036097507923841476,0.05708495154976845,-0.06860503554344177,-0.07238762825727463,-0.07983113825321198,-0.09415754675865173,-0.11156092584133148,-0.04378083348274231,0.031123865395784378,0.030380040407180786,0.04493499919772148,0.044332247227430344,0.050228603184223175,0.004769082181155682,0.009207057766616344,0.0001345664932159707,-0.0035629726480692625,0.005234283395111561,0.023214321583509445,0.08952101320028305,-0.06911828368902206,-0.06931962072849274,-0.09049146622419357,-0.08958090841770172,-0.11839555948972702,-0.10144493728876114,-0.04505988955497742,-0.04607868939638138,-0.056035201996564865,-0.04987961798906326,-0.07860900461673737,-0.13695253431797028,-0.05328620597720146,-0.0445769838988781,-0.03577980399131775,-0.040170878171920776,-0.06551223248243332,-0.14570635557174683,0.0010378090664744377,0.0009228107519447803,0.0011592491064220667,0.0009546287474222481,0.0009494614787399769,0.0007706293836236,0.00009712472092360258,0.000002634421889524674,0.00017872014723252505,0.00012765447900164872,-0.00004246407843311317,-0.00013721561117563397,0.0002175365516450256,-0.00017680154996924102,0.00019466833327896893,-0.00007008493412286043,0.00012692503514699638,0.000011378898307157215,-0.00023270887322723866,0.00008646057540317997,-0.00021172664128243923,-0.00002656339347595349,-0.00020393662271089852,-0.00009341253462480381,0.00046217290218919516,0.00017902872059494257,0.0007190557080321014,0.00032072007888928056,0.00016450780094601214,-0.00011083509161835536,0.0004760271986015141,0.00007147940050344914,-0.00003838873089989647,-0.00005972991857561283,0.00017239490989595652,0.00014869026199448854,0.0009827320463955402,0.0007406566292047501,0.00007776078564347699,0.0006119132740423083,0.0007798734586685896,0.0009594612056389451,0.0002364779938943684,0.00015664170496165752,-0.0004858684551436454,0.00006654096068814397,0.00042298439075239,0.0008006080170162022,-0.1295878142118454,-0.08225022256374359,-0.09344063699245453,-0.06948187202215195,-0.15074336528778076,-0.2157713770866394,0.07593851536512375,0.004236881155520678,-0.007275289390236139,0.023099340498447418,-0.07058141380548477,0.10430698096752167,-0.011189373210072517,0.035813670605421066,-0.05633988231420517,-0.03556916117668152,0.05458803474903107,-0.2304791957139969,0.023934822529554367,0.13768765330314636,0.09457191824913025,0.13872574269771576,-0.07487563043832779,0.42306408286094666,-0.10381819307804108,-0.14762236177921295,0.0013775123516097665,0.005870104301720858,-0.05415056645870209,-0.12474659830331802,-0.04072817414999008,0.03387761116027832,0.054043129086494446,0.01727093756198883,-0.1076909750699997,-0.23845867812633514,-0.047631289809942245,-0.1660289615392685,-0.08368173241615295,-0.13483335077762604,-0.1297503560781479,-0.05616758018732071,-0.061659544706344604,-0.00165628083050251,0.028220776468515396,-0.016436917707324028,0.0186721570789814,0.037968508899211884,0.06795412302017212,0.039815012365579605,0.047626055777072906,0.08303803205490112,0.15217441320419312,-0.0543149895966053,-0.058213915675878525,-0.04001157358288765,-0.0416068360209465,-0.08055011183023453,-0.09934326261281967,0.004696924705058336,0.06680472195148468,0.08550012856721878,0.07746372371912003,0.09786959737539291,0.10382015258073807,-0.02802770398557186,-0.08764652907848358,-0.05850571393966675,-0.07693704217672348,-0.11880485713481903,-0.18805620074272156,0.19837477803230286,0.010917071253061295,0.016854597255587578,0.015168272890150547,0.059400323778390884,0.08745087683200836,-0.2104739099740982,0.07372007519006729,0.11943131685256958,0.10197170823812485,0.10616195201873779,0.14983417093753815,0.05144590884447098,0.1103917732834816,0.09080152213573456,0.10844603925943375,0.12772610783576965,0.10352467000484467,0.10744840651750565,0.002264993032440543,-0.00008771518332650885,0.03064407780766487,-0.027491996064782143,-0.14820876717567444,0.1706341654062271,-0.20445385575294495,-0.023474648594856262,-0.002030766336247325,-0.12106145918369293,-0.23714065551757812,0.041361335664987564,0.0383429117500782,0.10503251850605011,0.012174931354820728,0.11344388872385025,0.1676950305700302,0.24867622554302216,-0.15650776028633118,-0.09764490276575089,-0.1323040872812271,-0.14581848680973053,-0.21054072678089142,-0.15033003687858582,-0.03395766019821167,0.048899464309215546,0.10249847918748856,0.08012942969799042,0.1874765306711197,-0.02188144251704216,0.03788594529032707,-0.06076175346970558,-0.09676820039749146,-0.15931226313114166,-0.152552530169487,0.17042481899261475,-0.06364209949970245,-0.19626417756080627,-0.09466593712568283,-0.1627313494682312,-0.1670733392238617,-0.2004956156015396,-0.20075635612010956,-0.07229422777891159,-0.17283454537391663,-0.1374025195837021,-0.0693330392241478,-0.3459869921207428,0.06560380011796951,-0.008791346102952957,-0.07645007967948914,-0.014823704026639462,0.10607299208641052,-0.24160416424274445,0.09549903124570847,-0.05938706174492836,0.15719102323055267,-0.06662724912166595,-0.008320305496454239,0.06151442602276802,-0.09137540310621262,0.04971717298030853,0.2194737046957016,0.39669498801231384,0.8919742703437805,-0.07432051002979279,-0.00001801687540137209,0.810845673084259,0.33187136054039,-0.8552837371826172,0.11766771972179413,-0.17574261128902435,-0.24716275930404663,-0.005737053696066141,0.000793515529949218,-0.1593465656042099,-0.13152354955673218,0.32958659529685974,0.16056063771247864,-0.2176588475704193,-0.06379928439855576,-0.04427459090948105,-0.000006923394266777905,-0.07431693375110626,-0.05368513986468315,0.1540641486644745,-0.18672211468219757,-0.2508540749549866,-0.4020942151546478,-0.033571742475032806,-0.0008745029335841537,-0.2721502184867859,-0.19382163882255554,0.5429507493972778,-0.02387758158147335,0.10660278052091599,0.34034067392349243,0.08786267787218094,0.0009275448974221945,-0.0007734743994660676,0.2528512179851532,-0.2685667872428894,-0.0925465077161789,0.0008261626935563982,0.05480407178401947,0.04190567880868912,0.0003964005736634135,-0.055860549211502075,-0.08650421351194382,0.15106971561908722,-0.09713174402713776,-0.1052887961268425,0.1824142187833786,-0.007135849446058273,-0.00011751630518119782,0.08155755698680878,-0.10810491442680359,-0.04295855015516281,-0.23174278438091278,0.1035076156258583,0.07196151465177536,0.019638555124402046,0.0003023840836249292,0.18537084758281708,0.1821615993976593,-0.07864406704902649,0.026089485734701157,0.10845901072025299,0.16889867186546326,-0.01331731304526329,0.0009292103350162506,0.2906516194343567,0.3467865586280823,0.027319449931383133,-0.04973230138421059,-0.016487255692481995,0.2404617965221405,-0.14754033088684082,0.15693894028663635,-0.14404502511024475,-0.0293371994048357,-0.2288328856229782,0.0209346916526556,0.02425341121852398,0.022867590188980103,0.04186902567744255,0.05214003100991249,-0.0921025201678276,0.0017472654581069946,-0.004601766355335712,0.000283905683318153,0.0053097824566066265,0.015594881027936935,-0.07635719329118729,0.0004558520740829408,-0.0042183841578662395,-0.012004933319985867,0.014236261136829853,0.021991385146975517,-0.23343119025230408,0.007995550520718098,0.009474769234657288,0.013629915192723274,-0.0025346779730170965,-0.012944726273417473,0.16677775979042053,-0.009953933767974377,0.006126155145466328,-0.0071995994076132774,0.01530060637742281,0.04441835358738899,-0.13496047258377075,0.008598528802394867,0.0036204338539391756,0.0012012235820293427,-0.009505406022071838,-0.024655943736433983,0.007383112795650959,0.0030493170488625765,-0.002212009159848094,0.0007984264520928264,-0.015388095751404762,-0.045982372015714645,0.10900984704494476,0.008627966046333313,-0.004831251688301563,0.014766678214073181,-0.009718727320432663,-0.020697101950645447,0.21534627676010132,-0.00004872896897722967,0.015288375318050385,0.011401532217860222,0.014918035827577114,0.0036219896283000708,0.01868727244436741,-0.00933159701526165,0.00023840602079872042,0.0009997390443459153,-0.0033324130345135927,0.002200009301304817,-0.001857560477219522,-0.015438406728208065,0.0016560095828026533,-0.005742828361690044,0.00008391551818931475,-0.021946191787719727,-0.00548619544133544,0.012580963782966137,-0.004410523921251297,-0.0007204585708677769,-0.0028982101939618587,0.015360202640295029,0.0028953286819159985,-0.009043360128998756,0.007601744029670954,0.0022858332376927137,-0.002859201980754733,0.006875248160213232,0.005364807788282633,0.011688405647873878,0.001321687363088131,0.003310947446152568,0.004782526753842831,-0.011988472193479538,-0.005119446199387312,0.012316030450165272,-0.001973266713321209,-0.00285532814450562,0.0023561203852295876,-0.016874197870492935,-0.027814283967018127,0.016507886350154877,-0.004718823358416557,-0.0011125063756480813,-0.0015558807644993067,0.0035336927976459265,-0.0001030628482112661,0.006751261185854673,0.010860190726816654,0.010874236933887005,0.00905274972319603,0.007230428513139486,0.007657705340534449,0.0013862118357792497,0.005164659582078457,0.0025703073479235172,-0.0018037770641967654,-0.004651347175240517,0.001146785099990666,-0.0013612316688522696,0.003686239942908287,0.005263640079647303,0.002021543448790908,-0.0010542509844526649,-0.000878718274179846,0.0025891007389873266,-0.00328654982149601,-0.0037779558915644884,-0.000678827753290534,0.0014181184815242887,0.0014276114525273442,-0.0038290596567094326,0.002632752526551485,0.0022759821731597185,-0.0009919473668560386,-0.004254013299942017,-0.0002460176183376461,0.006190260406583548,0.003046763362362981,0.0040095956064760685,0.0061340294778347015,0.009912154637277126,0.005199085455387831,0.0004903540248051286,-0.004349358379840851,-0.0015770922182127833,0.0034833201207220554,0.007030794396996498,-0.001057810033671558,0.0033132012467831373,-0.003641480579972267,-0.004139747004956007,-0.0012707952409982681,0.0025204631965607405,0.001062135212123394,0.013495586812496185,0.009983126074075699,0.011069905012845993,0.007980619557201862,-0.008084776811301708,0.0422326922416687,-0.01278145145624876,-0.008339252322912216,-0.0029768499080091715,-0.006051630713045597,0.0012941441964358091,0.028674546629190445,0.012421607971191406,0.009099060669541359,0.008271388709545135,-0.0075399368070065975,-0.041559748351573944,0.038750458508729935,-0.010211403481662273,-0.0030581236351281404,-0.004191969055682421,0.0007935687317512929,0.028128445148468018,-0.02018474042415619,-0.00977973360568285,-0.012679880484938622,-0.008739861659705639,-0.00749753275886178,-0.021783003583550453,0.04685249179601669,0.023476524278521538,0.020488617941737175,0.01711183227598667,0.011059054173529148,0.003073733299970627,-0.020704977214336395,0.022992447018623352,0.020526288077235222,0.012570549733936787,0.008653330616652966,0.004581168293952942,-0.0575672872364521,-0.013086705468595028,-0.005346891935914755,-0.008773046545684338,-0.008627928793430328,0.02299296297132969,-0.05790373682975769,0.0033450594637542963,0.0036496855318546295,0.004229755140841007,0.006876103114336729,0.004554963670670986,0.0037703723646700382,-0.0008685975335538387,-0.0021840808913111687,-0.0006822908762842417,-0.00043035298585891724,-0.0011957032838836312,-0.0006719646044075489,-0.0006871011573821306,0.0000892207317519933,0.0004132777394261211,0.0038754409179091454,0.003356094006448984,0.0020909560844302177,0.000906186702195555,-0.0003288311418145895,-0.0007126382552087307,-0.002299289219081402,-0.0010169503511860967,-0.000041548730223439634,-0.0032550354953855276,-0.0036014344077557325,-0.0012858149129897356,0.00006532325642183423,-0.00258833565749228,-0.001332476967945695,0.004549953155219555,0.005739770829677582,0.0021498126443475485,0.0011062950361520052,0.004684622399508953,0.003052182961255312,0.0033977755811065435,0.006170621141791344,0.002372769871726632,0.0013991036685183644,0.003838069038465619,0.0025467639788985252,0.001147609669715166,0.000919006415642798,-0.0011955669615417719,-0.002978833159431815,-0.0010192428017035127,-0.0013775305123999715,0.010947374626994133,0.014913266524672508,0.05035392567515373,-0.009086450561881065,0.011733303777873516,0.026560282334685326,-0.0040375227108597755,0.002337613608688116,0.0017712259432300925,-0.0026665562763810158,0.002332189353182912,0.018576083704829216,-0.00752033619210124,-0.0018172140698879957,-0.010961298830807209,0.00034222728572785854,-0.0027423440478742123,-0.08901982754468918,0.001798466662876308,-0.003354594111442566,0.007829609327018261,-0.013262076303362846,-0.0126305241137743,-0.009879560209810734,-0.0042063104920089245,0.008991851471364498,0.0060658883303403854,0.0015827761963009834,0.016364840790629387,0.02656981348991394,0.014800194650888443,0.00427081435918808,0.024171587079763412,0.026090586557984352,-0.0020962152630090714,0.0031471410766243935,0.009442813694477081,0.027734365314245224,0.023949602618813515,-0.004575073253363371,0.027592463418841362,0.003682565875351429,0.0016975414473563433,0.004640541039407253,0.006669946480542421,-0.012942851521074772,0.003966024145483971,0.002945086918771267,-0.0013152388855814934,0.008411242626607418,0.007144342176616192,0.010371177457273006,0.005573348142206669,0.025737985968589783,-0.006626179441809654,0.00290776789188385,0.0038826961535960436,0.0016555569600313902,0.0000617281548329629,0.015362742356956005,-0.01689934730529785,-0.005596357397735119,-0.009273068979382515,-0.009727133437991142,-0.01011260598897934,0.019931484013795853,0.01789487898349762,0.007301156409084797,0.009887492284178734,0.007520198356360197,0.00944130215793848,-0.010875782929360867,-0.015287951566278934,-0.004443788900971413,0.0020616021938622,0.001010760897770524,-0.008542941883206367,0.017216846346855164,0.009158099070191383,0.003052276326343417,-0.002413533627986908,-0.0035390593111515045,0.006375234108418226,-0.0017597305122762918,0.011566977016627789,0.0004895166493952274,-0.007736985571682453,-0.0035073659382760525,0.005289257038384676,-0.027084361761808395,0.018773896619677544,0.0059502325020730495,0.0031878275331109762,0.004078334663063288,0.01578087918460369,-0.027765996754169464,0.0035852640867233276,0.0037543484941124916,0.0035637114197015762,0.002842252142727375,0.0030380384996533394,0.004107583314180374,-0.0010513836750760674,-0.0009389529004693031,-0.0006921750027686357,-0.0010056012542918324,-0.0006251452723518014,-0.00008759318734519184,-0.0011373008601367474,-0.00031002244213595986,0.00011171481310157105,0.0002902803535107523,0.00048630681703798473,0.001646260148845613,0.000673035392537713,0.00025576064945198596,-0.0000682322570355609,-0.00011622338206507266,-0.000570545147638768,-0.001539217191748321,-0.0021874101366847754,-0.0018858921248465776,-0.0015063255559653044,-0.0020380597561597824,-0.001323300995863974,0.0001959696674020961,0.0024925838224589825,0.002700248034670949,0.002678073476999998,0.0031992318108677864,0.0026110040489584208,0.0020628429483622313,0.003302163677290082,0.0031829013023525476,0.002881451742723584,0.003653945168480277,0.002764908829703927,0.001338151516392827,0.00039315741742029786,0.00017045473214238882,-0.0004491470754146576,-0.0006112254341132939,-0.001347191515378654,-0.0033344815019518137,-0.09704811871051788,-0.05497574061155319,-0.03457238897681236,-0.07458287477493286,-0.01931142434477806,-0.0284676905721426,-0.036818962544202805,-0.030434932559728622,0.04355750232934952,0.003213120624423027,-0.0011657609138637781,-0.01673070155084133,0.00019101046200376004,-0.030990146100521088,-0.005557200405746698,-0.001592182321473956,0.04249190911650658,-0.060452934354543686,0.0008157940465025604,0.025785185396671295,0.0002263533096993342,0.026575345546007156,0.0028443881310522556,-0.004898902960121632,-0.010596750304102898,0.017109613865613937,-0.009824727661907673,0.026940980926156044,-0.0012251381995156407,-0.01337415724992752,-0.005610629916191101,0.00003960216054110788,-0.2426781952381134,0.010772952809929848,-0.0021661578211933374,0.017122449353337288,0.0011080518597736955,0.0024320974480360746,0.024368859827518463,-0.0016588125145062804,-0.04379521682858467,0.1179703027009964,-0.024521155282855034,0.0600351057946682,0.0021673329174518585,-0.0848679393529892,0.00844117533415556,0.020653467625379562,0.15100079774856567,-0.01624520681798458,0.026340868324041367,0.039636462926864624,0.0020174917299300432,0.0774182379245758,0.03298359736800194,-0.012562255375087261,-0.034232813864946365,-0.01071466039866209,-0.011758634820580482,-0.0156447421759367,-0.0010132710449397564,-0.012781607918441296,-0.008648348972201347,-0.00047279498539865017,-0.15152621269226074,-0.007405645679682493,-0.005167325027287006,0.0004340209998190403,0.0007936925394460559,0.014438675716519356,0.018706155940890312,0.0028714470099657774,0.02573060803115368,-0.032798316329717636,-0.04925566911697388,0.05688776448369026,-0.0011933330679312348,0.030882753431797028,0.06039823591709137,0.038902126252651215,0.2308785766363144,-0.03515307605266571,-0.09266991913318634,0.07608290016651154,0.16227886080741882,0.14099037647247314,0.14192384481430054,0.03010283038020134,0.0025022453628480434,0.001712669851258397,0.0005473301862366498,0.0039044530130922794,0.0012697377242147923,-0.00757828401401639,-0.00256114499643445,-0.0036824727430939674,-0.003213715273886919,-0.002751567168161273,-0.0015176291344687343,0.0000434750945714768,0.00993909128010273,0.009722452610731125,0.00496069947257638,0.008850282989442348,0.005616116337478161,-0.00832312647253275,-0.005305180326104164,-0.005088550504297018,-0.002131249289959669,-0.005276191513985395,-0.0016789039364084601,0.007929235696792603,-0.015852879732847214,-0.01663294993340969,-0.015396835282444954,-0.013723786920309067,-0.011774818412959576,-0.019141491502523422,0.010653586126863956,0.011423569172620773,0.007860713638365269,0.005470133852213621,0.005846463609486818,0.005754159297794104,0.005472244694828987,0.008181778714060783,0.005507661495357752,0.003745080903172493,0.0016446359222754836,0.0040580290369689465,-0.0033146990463137627,-0.00199245847761631,0.0001698614505585283,-0.0011610245564952493,-0.000796578882727772,0.011747702024877071,0.004826734773814678,-0.008477326482534409,0.004809326957911253,-0.005773995071649551,0.006507318001240492,0.0639171376824379,-0.015784673392772675,-0.01763671077787876,-0.011424467898905277,-0.017367994412779808,-0.0007422541384585202,0.036648109555244446,0.02756824903190136,0.02173847146332264,0.024001145735383034,0.00007996918429853395,0.02810431458055973,0.07453905791044235,-0.014868665486574173,-0.0059812371619045734,-0.013612844981253147,-0.000016520440112799406,-0.014478607103228569,-0.03245353698730469,-0.03723260387778282,-0.047051653265953064,-0.04158357158303261,-0.05108530446887016,-0.0665532574057579,-0.002808604622259736,0.008254355750977993,0.01650393381714821,0.013822742737829685,0.011824914254248142,0.009581668302416801,-0.0021076900884509087,0.014842319302260876,0.02263582870364189,0.011236710473895073,0.014594612643122673,-0.0022974638268351555,-0.11736314743757248,-0.029453793540596962,-0.015941644087433815,-0.02374221757054329,-0.005477797705680132,-0.018379036337137222,-0.09070641547441483,0.03568031266331673,0.0074880304746329784,0.04440539330244064,-0.008490880951285362,0.042307451367378235,0.16059929132461548,-0.045805227011442184,0.0673658475279808,0.06408654898405075,-0.05098088085651398,0.03199301287531853,-0.0718495175242424,-0.0203244686126709,-0.01267881691455841,-0.04904085397720337,-0.0369490385055542,-0.05066858232021332,0.0450730174779892,0.07712246477603912,-0.005830857437103987,0.024893924593925476,0.026928739622235298,0.025960078462958336,0.09824948012828827,0.04445456713438034,-0.014635325409471989,0.021907834336161613,0.028437107801437378,-0.03521747142076492,0.08912139385938644,0.033885832875967026,-0.06046152114868164,-0.023383894935250282,0.036398980766534805,-0.03072712942957878,-0.16618570685386658,-0.04926557466387749,0.014705860055983067,0.019204409793019295,-0.1236727386713028,-0.11011344194412231,-0.18943268060684204,0.006935368292033672,0.014998966827988625,-0.012909593060612679,0.0118135716766119,-0.00016597728244960308,0.16071133315563202,-0.0956428200006485,-0.07780475914478302,-0.05411184951663017,-0.06816214323043823,-0.07705553621053696,0.3344799876213074,-0.0687456727027893,-0.08255231380462646,-0.04801531136035919,-0.13128995895385742,-0.06133982911705971,0.14883829653263092,-0.06302770972251892,-0.07835404574871063,-0.07069563120603561,-0.10984718799591064,-0.14360706508159637,0.29956692457199097,-0.014286638237535954,0.015622573904693127,-0.008601372130215168,-0.008604719303548336,0.02267168089747429,-0.2545264959335327,0.017937075346708298,0.04817839711904526,-0.009817328304052353,0.13073447346687317,0.14970143139362335,0.08695004880428314,-0.015603508800268173,-0.005575552117079496,-0.06001787632703781,-0.014760336838662624,-0.03376513347029686,-0.25786468386650085,-0.058729298412799835,-0.029999645426869392,-0.035195112228393555,-0.058673981577157974,-0.10507653653621674,-0.3343597948551178,-0.09809526801109314,-0.10478701442480087,-0.07257117331027985,-0.07684445381164551,-0.03879651427268982,-0.36557841300964355,0.0005890098982490599,0.00011690653627738357,-0.00006743027915945277,-0.00016829808009788394,0.00013859909086022526,-0.000042468189349165186,0.00031648771255277097,0.000362415739800781,0.000029376618840615265,-0.0007308630738407373,0.0005505895824171603,-0.000004980528046871768,0.002703691367059946,0.002003487665206194,0.0013818214647471905,0.0010407608933746815,0.0018130219541490078,0.0015966661740094423,-0.0009444806491956115,-0.00027373124612495303,-0.00003350956831127405,-0.00038103226688690484,-0.00044351263204589486,-0.00011461175017757341,-0.0005258906749077141,-0.0013091779546812177,-0.002559545449912548,-0.0041811661794781685,-0.0016011960105970502,-0.0018925362965092063,-0.000010784136975416914,-0.00015184568474069238,0.0002269205142511055,0.001199333812110126,-0.00019738289120141417,0.000134569316287525,-0.00035185000160709023,-0.0004963683313690126,0.0006661108927801251,0.0025338351260870695,-0.00013133743777871132,0.0006212731241248548,-0.00205372367054224,-0.0012968069640919566,-0.00011042680853279307,0.0006521483883261681,-0.0009824418229982257,-0.00048126571346074343,0.006838418077677488,0.0009083336917683482,-0.0012304398696869612,-0.0005227496149018407,-0.0019066205713897943,0.000039822571125114337,0.005863886792212725,0.012795438058674335,-0.00022659539536107332,0.008855319581925869,0.0031933358404785395,0.0036148240324109793,-0.0014817401533946395,-0.010226212441921234,-0.015619341284036636,-0.009594757109880447,-0.016460148617625237,-0.03349476680159569,-0.00032474269391968846,0.0061298394575715065,0.006658754777163267,0.0045332335866987705,0.0017117008101195097,0.008909319527447224,-0.010799892246723175,-0.0065680257976055145,-0.017126472666859627,-0.011730401776731014,-0.02168818563222885,-0.013944411650300026,-0.011018509045243263,-0.009729760698974133,-0.0006037603598088026,-0.005396416876465082,0.006882070563733578,-0.00032349611865356565,-0.00797225907444954,-0.01322826836258173,0.0027619455941021442,-0.005501427687704563,0.007252016104757786,0.0016369406366720796,0.0007163485861383379,0.015434356406331062,0.018335094675421715,0.02042527310550213,0.015457019209861755,0.032209791243076324,0.044017158448696136,0.021549390628933907,0.06629949063062668,-0.0497729554772377,0.025571737438440323,-0.016512829810380936,-0.053816959261894226,0.04687703400850296,0.0564686581492424,0.059774551540613174,0.0751175582408905,0.18444044888019562,-0.03432192653417587,-0.0032765117939561605,-0.05751742050051689,-0.08377963304519653,-0.0688520148396492,-0.2599080801010132,0.07750850915908813,-0.008106181398034096,0.02048736810684204,0.006748020648956299,0.019804876297712326,-0.1034797877073288,0.0784498080611229,-0.028967728838324547,0.022908290848135948,0.13859660923480988,-0.035896021872758865,0.12153461575508118,0.006561386864632368,-0.10374912619590759,-0.062490131705999374,0.027169223874807358,-0.03261130303144455,-0.04034680873155594,-0.027862004935741425,0.0008990901987999678,0.019476955756545067,-0.02853606827557087,-0.14662712812423706,-0.20197613537311554,-0.009678862988948822,0.02471034601330757,-0.017690133303403854,-0.01872064545750618,0.006217654328793287,-0.04415906220674515,0.002505776472389698,0.004101630765944719,-0.002138526178896427,0.0000452556305390317,0.0017078532837331295,0.05361860990524292,-0.02321121096611023,-0.007907084189355373,-0.012187388725578785,-0.020598886534571648,-0.005366124212741852,0.04730237275362015,0.019940771162509918,0.026935240253806114,0.017188474535942078,0.02001955173909664,0.01484826672822237,0.05379996448755264,-0.017474710941314697,-0.015348794870078564,-0.011370426043868065,-0.017296090722084045,-0.012121370062232018,-0.042301785200834274,-0.034504007548093796,-0.02337195910513401,-0.03100241720676422,-0.025253525003790855,-0.016445936635136604,0.037879422307014465,0.02126653678715229,0.009627062827348709,0.015800274908542633,0.013153783045709133,0.011001717299222946,-0.054742515087127686,0.02794378437101841,0.003499789396300912,0.008832430467009544,0.013632271438837051,-0.0008776787435635924,-0.08160378038883209,-0.014246729202568531,-0.023851541802287102,-0.007758045569062233,-0.015127409249544144,-0.007154972292482853,-0.0712510198354721,-0.034858521074056625,-0.12194845080375671,0.1690502017736435,0.09496083855628967,-0.010002653114497662,-0.03795734792947769,0.1609315276145935,-0.0642472356557846,0.005506017245352268,-0.006959077436476946,1.2331740856170654,-0.6641293168067932,-0.00011561687279026955,0.0036054025404155254,-0.9256971478462219,-0.040600135922431946,0.022846708074212074,-0.03491362929344177,-0.33002305030822754,-0.26465126872062683,0.0006404012092389166,-0.08143599331378937,0.11936967819929123,-0.02122371457517147,-0.0017859814688563347,0.12156162410974503,0.09078969061374664,0.3052625060081482,0.0001340649469057098,-0.01860346645116806,-0.0849156305193901,0.16904786229133606,0.007278945297002792,-0.033742789179086685,-0.20845144987106323,-0.22491690516471863,0.0001612296764506027,-0.13367818295955658,0.06059277057647705,0.009505442343652248,-0.024406760931015015,0.13950596749782562,0.3345107138156891,0.2578430473804474,-0.005727941170334816,-0.20482595264911652,-0.268869012594223,0.07848923653364182,0.02466222085058689,0.19524860382080078,-0.29397884011268616,0.39483630657196045,0.0017380696954205632,-0.02870984748005867,0.13272614777088165,0.0658278614282608,-0.0014371470315381885,-0.04611743986606598,0.10309922695159912,0.06692773103713989,-0.00008202148455893621,0.029064534232020378,-0.12353945523500443,-0.049556005746126175,-0.020808719098567963,0.019819755107164383,0.25349321961402893,0.20408214628696442,0.00011697362060658634,0.10647928714752197,-0.09176793694496155,0.0039604781195521355,-0.04099515080451965,0.04377160221338272,-0.10984738171100616,-0.26815053820610046,0.007588059641420841,-0.11394336819648743,-0.1295325756072998,0.046483587473630905,0.10590216517448425,-0.07013192772865295,0.1387597918510437,0.10211166739463806,-0.24446924030780792,-0.025605401024222374,-0.13194404542446136,0.2605512738227844,0.004971455316990614,-0.004855729173868895,-0.010966621339321136,-0.009377924725413322,-0.009080578573048115,-0.05553082749247551,-0.0003321234544273466,0.006924486719071865,0.013437587767839432,0.011563741602003574,0.009473789483308792,-0.016831127926707268,-0.002653595060110092,-0.018969357013702393,-0.026265757158398628,-0.025437941774725914,-0.01881706528365612,-0.09464094042778015,0.0024576843716204166,0.011281096376478672,0.01394668873399496,0.014086131937801838,0.011493716388940811,0.04956085607409477,0.000497302389703691,0.0032073459587991238,0.0056717051193118095,0.0022803323809057474,0.0002971049980260432,-0.031112391501665115,0.0022835733834654093,7.39940560379182e-7,-0.006394925061613321,-0.004959847778081894,0.0042538209818303585,0.01809399016201496,0.005535938777029514,0.0031145273242145777,-0.0018838149262592196,0.003709353506565094,0.011795781552791595,0.06770125031471252,0.00948044378310442,0.01711154542863369,0.009386807680130005,0.01265748031437397,0.011247125454246998,0.04745573177933693,0.00017612431838642806,0.004324799403548241,-0.0017419783398509026,0.004858136177062988,-0.00010240597475785762,0.001207362161949277,-0.007202131673693657,-0.001357759116217494,-0.006063246633857489,-0.0027824444696307182,-0.010473423637449741,0.00889158621430397,-0.00005034439527662471,0.005568409338593483,-0.0017158285481855273,0.006918034981936216,0.00007913469016784802,0.005348325707018375,-0.005262562073767185,-0.008842564187943935,-0.004727128427475691,-0.009744327515363693,-0.006041501183062792,-0.004445310216397047,-0.012336807325482368,-0.005870176013559103,-0.009390591643750668,-0.006613848265260458,-0.013064677827060223,0.0054297009482979774,0.0032375864684581757,0.0017287180526182055,0.006852617021650076,0.0028834082186222076,0.008223012089729309,0.006431956309825182,0.004181303549557924,0.00014989401097409427,0.006288033910095692,0.00024033540103118867,0.007483880501240492,-0.007042753044515848,0.003155107842758298,-0.003545063082128763,0.0010382416658103466,-0.0016775811091065407,0.0038621670100837946,-0.012389080598950386,0.05198904871940613,0.03949931636452675,0.04078730195760727,-0.044765058904886246,-0.00485895574092865,-0.14437143504619598,0.03254997357726097,0.03905930742621422,-0.024076150730252266,0.021862510591745377,-0.03436831757426262,0.15447711944580078,-0.06132020056247711,-0.08629859238862991,-0.0942700207233429,-0.04553835093975067,-0.05589931458234787,-0.1725873053073883,0.05106095224618912,-0.016162626445293427,0.03570397198200226,-0.03375352919101715,0.06550467759370804,0.30177998542785645,0.11748025566339493,0.08227934688329697,0.04479106143116951,0.09136313945055008,0.10641088336706161,0.12661200761795044,0.004967648535966873,0.04095018655061722,-0.08458299189805984,-0.021844618022441864,-0.08619806915521622,-0.15137244760990143,0.02942262403666973,-0.05484438315033913,0.026055116206407547,-0.05565191060304642,-0.03519678860902786,-0.026789670810103416,0.0899825170636177,0.07508312910795212,-0.014442957006394863,0.08145799487829208,0.04985378682613373,0.15470078587532043,-0.009140032343566418,0.002303776564076543,-0.004678588360548019,0.0035850938875228167,-0.011742079630494118,-0.08066822588443756,-0.016939464956521988,-0.022511836141347885,-0.022552913054823875,-0.017959704622626305,-0.008803549222648144,0.182484433054924,-0.013488730415701866,-0.02244253270328045,-0.0036112519446760416,-0.019395917654037476,-0.012722519226372242,-0.023628372699022293,0.040565721690654755,0.03523673117160797,0.028769131749868393,0.04098924994468689,0.034903544932603836,0.0791390985250473,0.046699196100234985,0.04249835014343262,0.03754563629627228,0.03737487643957138,0.03987731784582138,0.25251656770706177,-0.03402809053659439,-0.055422551929950714,-0.020669743418693542,-0.06451325863599777,-0.048537466675043106,-0.11674998700618744,0.004387064836919308,-0.02683950401842594,0.013568627648055553,-0.031122757121920586,-0.02431751973927021,-0.06263593584299088,0.010439204052090645,0.013624193146824837,0.015075607225298882,0.020200196653604507,0.025380978360772133,-0.10885263234376907,0.013122898526489735,0.04279347136616707,0.02782409079372883,-0.010967831127345562,0.04003642126917839,-0.060636602342128754,0.07112894207239151,0.0072364467196166515,0.048403579741716385,0.02272624522447586,0.073597751557827,0.13544413447380066,-0.050856657326221466,-0.07758388668298721,-0.027558326721191406,-0.029835032299160957,-0.04423011466860771,-0.15964002907276154,-0.0066160946153104305,0.013374269008636475,0.042417336255311966,-0.03050396777689457,0.09656164795160294,-0.009894718416035175,0.05469720438122749,0.06879562884569168,0.01740792952477932,0.14535483717918396,0.0663297027349472,-0.0207161046564579,-0.11318767815828323,0.007874318398535252,-0.05608794093132019,-0.009131224825978279,-0.10691958665847778,-0.10381019115447998,-0.06287194043397903,-0.02101993001997471,-0.07435853034257889,-0.014384263195097446,-0.001627101912163198,-0.140298530459404,0.1007310003042221,0.03946725279092789,0.03816089779138565,0.1461242139339447,0.06558887660503387,-0.07389626652002335,-0.05048520863056183,0.01244119182229042,-0.016662387177348137,-0.0026986352168023586,0.01739572547376156,-0.31925973296165466,0.02524460479617119,-0.04181337729096413,0.05308832600712776,0.01986663229763508,0.09168379753828049,0.12887385487556458,0.001521713798865676,-0.018103040754795074,-0.0034963726066052914,0.01796884462237358,-0.023664310574531555,-0.25870728492736816,0.007924359291791916,0.0744464248418808,-0.02169533632695675,0.07411836832761765,0.047700054943561554,0.27099987864494324,0.005403724033385515,0.04161069542169571,0.05490632727742195,0.0420958437025547,0.029525276273489,0.17887435853481293,-0.12769731879234314,-0.04921222850680351,0.02901146560907364,-0.0027812544722110033,-0.06908416748046875,-0.17481468617916107,-0.0750836655497551,-0.016667623072862625,-0.0968528613448143,-0.020867926999926567,-0.0020191397052258253,0.105837382376194,0.04541070759296417,0.006071708630770445,0.09618324786424637,0.050097718834877014,0.0643719807267189,0.034117478877305984,0.022850561887025833,0.012374002486467361,0.009584270417690277,0.02141798660159111,0.01587611436843872,0.00015249177522491664,-0.010535277426242828,-0.015947772189974785,-0.0046961428597569466,-0.008971474133431911,-0.015992317348718643,0.05478538200259209,0.02667391300201416,0.012066924013197422,0.008575627580285072,0.032779205590486526,0.026359613984823227,0.021395787596702576,-0.026766622439026833,-0.021729405969381332,-0.015013682655990124,-0.02866104245185852,-0.028035862371325493,-0.0021628430113196373,0.009137270972132683,0.0005373083986341953,0.009467032738029957,-0.002830717246979475,-0.008143159560859203,0.04203410446643829,-0.006105620414018631,-0.0023794465232640505,-0.008096999488770962,0.0008398582576774061,0.008395365439355373,0.004043362569063902,-0.007807480171322823,-0.0034358117263764143,-0.010106916539371014,-0.009160563349723816,-0.0019996892660856247,-0.05077998340129852,-0.027058754116296768,-0.018623897805809975,-0.0235309936106205,-0.024159202352166176,-0.015227454714477062,-0.09898898005485535,-0.05269276350736618,-0.0045044380240142345,-0.023675106465816498,-0.06241552159190178,-0.06363581120967865,-0.18142575025558472,-0.04888276755809784,-0.09244156628847122,-0.017155122011899948,0.007688501384109259,-0.007161397486925125,0.201256662607193,0.01391675602644682,-0.02082747034728527,-0.08213447034358978,0.04844680428504944,-0.04203621670603752,-0.18298077583312988,0.1165560856461525,0.12027838081121445,-0.07793137431144714,0.15125732123851776,0.025573421269655228,0.05926389619708061,0.11765606701374054,0.1311427801847458,0.19454333186149597,0.03529566526412964,0.15288059413433075,0.26052969694137573,-0.14914801716804504,-0.10688335448503494,-0.009398197755217552,-0.09529110789299011,-0.17564335465431213,-0.019365862011909485,-0.008965161629021168,-0.060777489095926285,-0.035835955291986465,-0.053395986557006836,-0.012129627168178558,-0.21149669587612152,0.06291358917951584,0.05235636979341507,0.14160746335983276,0.003646496217697859,0.11022781580686569,-0.07425471395254135,-0.021394900977611542,-0.03137839213013649,0.1269567906856537,0.04199961572885513,0.06438285857439041,0.11528981477022171,-0.07378097623586655,0.007710594218224287,0.017496440559625626,0.0021204655058681965,0.9528750777244568,-0.04108262434601784,-0.764198362827301,1.1430999040603638,-0.0009102115873247385,-0.7375359535217285,0.08116389065980911,-0.009992022998631,-0.3896324038505554,-0.01719576120376587,0.14694397151470184,0.08828074485063553,-0.06578802317380905,0.19691064953804016,-0.07576450705528259,-0.003936045803129673,-0.1187468022108078,0.06136641278862953,-0.07760859280824661,-0.16285768151283264,0.07941534370183945,0.07835923880338669,-0.0935928076505661,-0.017820294946432114,-0.2593456208705902,0.005545588675886393,0.2087363451719284,-0.20857222378253937,-0.05296323820948601,0.28504860401153564,-0.06710224598646164,0.020711904391646385,-0.2175680696964264,0.07284155488014221,-0.13454878330230713,0.014102062210440636,0.10854397714138031,0.07403245568275452,0.09716305881738663,-0.021000774577260017,-0.22529633343219757,-0.07097215205430984,0.07851707935333252,-0.1919080764055252,0.07788623869419098,0.12940296530723572,-0.0020943337585777044,0.0005852879257872701,0.09374310821294785,0.08514853566884995,0.16788887977600098,0.053162094205617905,-0.015469484962522984,-0.2472829520702362,-0.027406567707657814,0.02101440355181694,0.21412652730941772,-0.029721634462475777,-0.10292983055114746,0.30190709233283997,0.0781569555401802,-0.09169906377792358,-0.03786500170826912,0.0500921867787838,-0.031680427491664886,0.05189809948205948,-0.2894207835197449,0.42556560039520264,0.004689440131187439,0.009069650433957577,-0.14513666927814484,-0.007460641674697399,-0.16221854090690613,-0.1300165057182312,-0.05628516897559166,0.14217934012413025,-0.07481823116540909,0.042760565876960754,-0.018114784732460976,0.10941503196954727,-0.017156526446342468,0.023080794140696526,-0.02385956048965454,-0.13544566929340363,0.012544495984911919,0.04798849672079086,0.016780929639935493,0.05103246867656708,0.04989900812506676,-0.05903133377432823,-0.03818366304039955,-0.0693851113319397,-0.04673757776618004,-0.11971171200275421,-0.012705466710031033,-0.1628236174583435,-0.00006917263090144843,-0.0016071944264695048,0.014887736178934574,0.0056991553865373135,0.058662597090005875,0.13918110728263855,0.03651605546474457,0.015497878193855286,0.04505189135670662,0.05288820341229439,0.07834655791521072,-0.18338632583618164,-0.021753104403614998,-0.0480562262237072,-0.06534523516893387,0.025005538016557693,-0.01089402474462986,-0.013914081268012524,-0.039896976202726364,0.0061384947039186954,-0.05053895711898804,-0.058236014097929,-0.045184601098299026,0.25496938824653625,0.020156286656856537,0.023282190784811974,0.023383231833577156,-0.00432191276922822,0.08187641948461533,0.27111729979515076,-0.08620665967464447,0.004456265829503536,-0.09060486406087875,-0.06631724536418915,-0.05643896386027336,-0.03106456995010376,-0.0049139815382659435,-0.02862478978931904,-0.01425685454159975,-0.03742629289627075,0.015250496566295624,0.18377718329429626,0.007760691922158003,-0.02677464298903942,0.03979549556970596,-0.07769494503736496,0.015588050708174706,-0.12094730883836746,-0.06554646044969559,-0.02620897814631462,-0.04245791584253311,-0.0751064121723175,0.004086429253220558,0.035949304699897766,0.047304920852184296,0.06699907779693604,0.06321863830089569,0.07398577034473419,0.02734549343585968,0.22143281996250153,0.006271743681281805,0.010118832811713219,-0.06709221005439758,0.0006374102085828781,-0.004085981752723455,-0.07872164249420166,-0.020436104387044907,-0.01762525364756584,0.015219992026686668,-0.03330418840050697,0.01708732545375824,-0.0505969375371933,0.03561647608876228,0.03784557431936264,0.06239349767565727,-0.0013233175268396735,0.019203219562768936,-0.016478419303894043,0.004737237934023142,0.005315626505762339,0.004480864852666855,0.004916290752589703,0.0049583264626562595,0.00232732854783535,-0.005286796018481255,-0.002681873505935073,-0.0037238500081002712,-0.003067363752052188,-0.0012917515123263001,-0.0056377858854830265,0.005989039782434702,0.008635793812572956,0.005827882792800665,0.00930785946547985,0.00705825025215745,-0.008145960047841072,-0.0013242632849141955,-0.0008805571123957634,-0.00021254857711028308,-0.0009084990597330034,-0.0009375985246151686,0.0006857580156065524,-0.009127316065132618,-0.0063476585783064365,-0.00813553761690855,-0.008214940316975117,-0.005293907597661018,-0.006766241509467363,0.002005023881793022,0.0007902055513113737,0.0011120751732960343,0.0010868118843063712,-0.00005423924812930636,0.0026106105651706457,0.001970786601305008,0.00029288497171364725,0.0004412210255395621,-0.000552453740965575,-0.0011228786315768957,-0.0003042140742763877,-0.000004345643901615404,-0.002406521700322628,-0.0010891659185290337,0.0006609439151361585,-0.002062569372355938,-0.004326388239860535,-0.1380603015422821,-0.14937180280685425,-0.12813250720500946,-0.12889274954795837,-0.11748302727937698,0.12217525392770767,-0.10554870218038559,-0.09478861093521118,-0.09263810515403748,-0.08868696540594101,-0.05429638549685478,0.14024432003498077,0.03652599826455116,0.04026736691594124,0.00203143572434783,0.02551034651696682,-0.025551462545990944,0.14407198131084442,0.002260771580040455,-0.002421074314042926,0.0008358587510883808,-0.0026960899122059345,-0.006836008280515671,-0.07218891382217407,0.09346846491098404,0.08593869209289551,0.0990290716290474,0.10390311479568481,0.09700979292392731,0.3048219680786133,0.07695672661066055,0.08175278455018997,0.0843099057674408,0.06566251069307327,0.06251226365566254,-0.030305253341794014,-0.05309978500008583,-0.053604502230882645,-0.06426792591810226,-0.062310878187417984,-0.057858873158693314,-0.3153073191642761,0.016766440123319626,0.016009846702218056,-0.0002915172080975026,0.03661487624049187,0.006907882634550333,-0.19227120280265808,0.012055037543177605,0.010878944769501686,0.007207152433693409,0.006918523460626602,0.011773970909416676,0.006226722616702318,-0.003781174309551716,-0.0019015022553503513,-0.0025141634978353977,-0.008361387997865677,-0.001891978899948299,-0.002708116313442588,0.010969972237944603,0.008865512907505035,0.003965846262872219,-0.0003894746187143028,0.005347519647330046,0.005112112499773502,-0.0006951282266527414,-0.004147978033870459,0.0008849307196214795,0.006074555683881044,0.0011696385918185115,-0.00010471156565472484,-0.011998948641121387,-0.009716160595417023,-0.00990509707480669,-0.012207488529384136,-0.005000059958547354,-0.00601791450753808,-0.004031037446111441,-0.0017984361620619893,-0.0037100506015121937,-0.005040904972702265,-0.006033781450241804,-0.0033005066215991974,0.004784218035638332,0.001976190833374858,0.005993932485580444,0.010705020278692245,0.002132464200258255,0.0032130307517945766,-0.002602380933240056,-0.0016405730275437236,-0.0000778771864133887,0.0025249551981687546,-0.001376424916088581,0.0008324361988343298,-0.08992202579975128,-0.10152923315763474,-0.0760500505566597,-0.09007267653942108,-0.08307306468486786,-0.1783885657787323,-0.063738614320755,-0.05221838131546974,-0.05165918916463852,-0.05069080367684364,-0.04100115969777107,-0.12397051602602005,0.05910711735486984,0.03906576335430145,0.05215161293745041,0.057533569633960724,0.043853722512722015,-0.1350996196269989,-0.01367421355098486,0.008341068401932716,-0.007587802596390247,0.030316073447465897,0.0059715029783546925,0.18829980492591858,0.0438612662255764,0.04554815962910652,0.017163503915071487,0.0014211444649845362,0.0036952344235032797,-0.12182994931936264,0.09974545985460281,0.09311753511428833,0.09340880811214447,0.0947561264038086,0.08325532078742981,0.05692681297659874,-0.06593728810548782,-0.0626271516084671,-0.04864165559411049,