{"version":"0.7.0","metadata":{"date":{"year":2026,"month":7,"day":7,"hour":5,"minute":54,"second":12},"loudness":-39.79717895370117,"gain":0.7769959591497131,"name":"bassman-v2-fuzzonly-nocab","modeled_by":"delt","gear_type":"amp_cab","gear_make":"T3K-Null","gear_model":"T3K-Null","tone_type":"bass","trainer":"TONE3000"},"architecture":"SlimmableContainer","config":{"submodels":[{"max_value":0.5,"model":{"version":"0.7.0","metadata":{"date":{"year":2026,"month":7,"day":7,"hour":5,"minute":54,"second":11},"loudness":-40.14661762099853,"gain":0.7742029023983112},"architecture":"WaveNet","config":{"layers":[{"input_size":1,"condition_size":1,"head":{"out_channels":1,"kernel_size":16,"bias":true},"channels":3,"kernel_sizes":[6,6,6,6,6,6,6,6,6,6,6,6,6,6,15,15,6,6,6,6,6,6,6],"dilations":[1,3,7,17,41,101,239,1,3,7,17,41,101,239,1,13,1,3,7,17,41,101,239],"activation":[{"type":"LeakyReLU","negative_slope":0.01},{"type":"LeakyReLU","negative_slope":0.01},{"type":"LeakyReLU","negative_slope":0.01},{"type":"LeakyReLU","negative_slope":0.01},{"type":"LeakyReLU","negative_slope":0.01},{"type":"LeakyReLU","negative_slope":0.01},{"type":"LeakyReLU","negative_slope":0.01},{"type":"LeakyReLU","negative_slope":0.01},{"type":"LeakyReLU","negative_slope":0.01},{"type":"LeakyReLU","negative_slope":0.01},{"type":"LeakyReLU","negative_slope":0.01},{"type":"LeakyReLU","negative_slope":0.01},{"type":"LeakyReLU","negative_slope":0.01},{"type":"LeakyReLU","negative_slope":0.01},{"type":"LeakyReLU","negative_slope":0.01},{"type":"LeakyReLU","negative_slope":0.01},{"type":"LeakyReLU","negative_slope":0.01},{"type":"LeakyReLU","negative_slope":0.01},{"type":"LeakyReLU","negative_slope":0.01},{"type":"LeakyReLU","negative_slope":0.01},{"type":"LeakyReLU","negative_slope":0.01},{"type":"LeakyReLU","negative_slope":0.01},{"type":"LeakyReLU","negative_slope":0.01}],"bottleneck":3,"head1x1":{"active":false,"out_channels":1,"groups":1},"layer1x1":{"active":true,"groups":1},"groups_input":1,"groups_input_mixin":1,"conv_pre_film":{"active":false,"shift":true,"groups":1},"conv_post_film":{"active":false,"shift":true,"groups":1},"input_mixin_pre_film":{"active":false,"shift":true,"groups":1},"input_mixin_post_film":{"active":false,"shift":true,"groups":1},"activation_pre_film":{"active":false,"shift":true,"groups":1},"activation_post_film":{"active":false,"shift":true,"groups":1},"layer1x1_post_film":{"active":false,"shift":true,"groups":1},"head1x1_post_film":{"active":false,"shift":true,"groups":1},"gating_mode":["none","none","none","none","none","none","none","none","none","none","none","none","none","none","none","none","none","none","none","none","none","none","none"],"secondary_activation":[null,null,null,null,null,null,null,null,null,null,null,null,null,null,null,null,null,null,null,null,null,null,null],"slimmable":null}],"head":null,"head_scale":0.00054392697103068},"weights":[-0.2966846525669098,-0.6240126490592957,-1.1016688346862793,-0.05340017005801201,0.1188330426812172,0.1383364051580429,0.1061701849102974,0.2484297901391983,-0.10846447944641113,-0.2629337012767792,-0.01693459413945675,0.12465596944093704,-0.06985829770565033,0.12241166085004807,-0.22072190046310425,-0.30918559432029724,0.04337600991129875,0.07703617215156555,0.06861960142850876,0.09042200446128845,-0.21602070331573486,0.09482748061418533,0.20964571833610535,-0.16376370191574097,-0.29834750294685364,-0.24291294813156128,-0.2866840958595276,0.37336963415145874,0.13916023075580597,0.08538534492254257,-0.0392201729118824,-0.3276151716709137,-0.04777582734823227,0.43093737959861755,0.27367594838142395,0.2594645917415619,0.21380293369293213,-0.09201440960168839,-0.14360158145427704,-0.006755223497748375,-0.10706139355897903,-0.07964535802602768,0.033643513917922974,0.05782882496714592,0.3724890649318695,-0.15970700979232788,0.023902086541056633,-0.17788353562355042,-0.09636659175157547,0.013100593350827694,0.3056187331676483,-0.18800924718379974,-0.10570024698972702,-0.0026259340811520815,-0.19412128627300262,-0.251677542924881,0.17859147489070892,-0.022616684436798096,0.01674252189695835,0.2966514825820923,0.41668185591697693,0.7395824790000916,-0.008965366519987583,0.016597287729382515,0.4167163074016571,0.1868908703327179,0.20797498524188995,0.10060965269804001,-0.06972328573465347,-0.1333150416612625,0.18649452924728394,-0.26034054160118103,0.3356153070926666,-0.5308355093002319,-0.1542048156261444,-0.15172286331653595,-0.1425410509109497,0.1587861329317093,0.05273613706231117,0.17190492153167725,0.24401786923408508,-0.012408478185534477,-0.09765633940696716,-0.022193394601345062,-0.19107022881507874,-0.23980669677257538,-0.0313725508749485,-0.0026834390591830015,-0.0939299464225769,-0.3457798659801483,-0.2519761025905609,-0.24343323707580566,0.20837311446666718,0.07342706620693207,0.230960413813591,0.2717829644680023,0.01284073106944561,0.36011767387390137,0.03904720023274422,0.30834463238716125,0.0005175258265808225,-0.15936648845672607,-0.035025157034397125,-0.16030558943748474,-0.07967312633991241,-0.23792320489883423,-0.06772840023040771,-0.024403251707553864,-0.041534192860126495,0.02862033061683178,-0.132682204246521,-0.01536654494702816,0.19213725626468658,-0.10726530849933624,0.07684159278869629,0.13202513754367828,0.21446819603443146,-0.20191910862922668,0.12627342343330383,-0.2742616832256317,0.06656075268983841,-0.1790749728679657,-0.16016742587089539,-0.12712380290031433,-0.08247485756874084,-0.2811056077480316,-0.4730874300003052,0.17504598200321198,0.32511991262435913,0.19490067660808563,0.3796278238296509,0.16517916321754456,-0.15256430208683014,0.6659315824508667,0.7203879952430725,-0.3384951055049896,0.3411080539226532,-0.33013075590133667,0.03535403311252594,0.47519779205322266,0.18377703428268433,-0.514964759349823,-0.5197649598121643,-0.24628569185733795,0.58437579870224,-0.4425738751888275,0.2541736364364624,0.1813349723815918,-0.03276295214891434,-0.07206951081752777,-0.03462545573711395,-0.09565786272287369,0.1371825933456421,-0.29497042298316956,-0.29144981503486633,-0.2487729787826538,-0.15963183343410492,0.06535214185714722,0.1792379915714264,0.1331450641155243,-0.17106859385967255,-0.2898196280002594,-0.19502119719982147,-0.34323975443840027,0.13436833024024963,-0.09970622509717941,0.32458260655403137,-0.04858655110001564,-0.03925478458404541,0.1933971345424652,0.3432440459728241,0.16178777813911438,-0.06069932132959366,-0.023759258911013603,-0.09003513306379318,0.12473323941230774,-0.24831697344779968,0.08260493725538254,-0.36947134137153625,-0.37866199016571045,-0.2949555218219757,-0.05673181265592575,-0.14366473257541656,0.06612995266914368,0.002912108087912202,-0.21807251870632172,-0.03427975997328758,-0.17136509716510773,-0.08723913133144379,0.07956366240978241,0.08918367326259613,-0.0020353831350803375,0.17706234753131866,0.14998401701450348,0.08818107098340988,-0.15546143054962158,0.0652523934841156,0.04770420864224434,0.12775586545467377,0.6385761499404907,0.5580931305885315,0.05427058786153793,-0.013947001658380032,0.03996964544057846,-1.0296106338500977,0.2054671198129654,-0.5284705758094788,-0.5319799780845642,-0.18156413733959198,-0.12350913137197495,-0.056694794446229935,0.42425838112831116,-0.43108880519866943,-0.051197320222854614,0.5136935710906982,0.5827266573905945,0.4513327181339264,-0.4497167766094208,0.4694679081439972,-0.06178376451134682,0.04863649979233742,0.2116299271583557,0.12442036718130112,-0.03393559157848358,0.1950644552707672,-0.1974424421787262,-0.09989359974861145,-0.018565086647868156,-0.24389299750328064,-0.1965835988521576,0.06873057782649994,0.12126640230417252,0.3979416489601135,0.25729551911354065,0.05193452909588814,-0.12719525396823883,-0.0738796517252922,-0.001482982886955142,-0.07563037425279617,-0.16730068624019623,-0.29655900597572327,-0.17763037979602814,-0.14968444406986237,-0.12866389751434326,-0.11653685569763184,0.40716394782066345,0.7021029591560364,0.07204734534025192,-0.13665089011192322,-0.13050560653209686,-0.5210316777229309,-0.42859983444213867,0.2823707163333893,0.5454647541046143,-0.23747625946998596,-0.05237722024321556,0.04047497361898422,0.12888477742671967,0.292226642370224,0.11168811470270157,0.15591798722743988,0.13415023684501648,-0.06268630176782608,-0.31691354513168335,-0.5089935660362244,0.03246942162513733,0.17266450822353363,0.04236188158392906,0.37863197922706604,0.34384822845458984,-0.17510679364204407,-0.4735862612724304,0.07800080627202988,-0.4419358968734741,-0.13028717041015625,0.14197392761707306,0.11013080924749374,0.504403829574585,-0.677916407585144,-0.03488468751311302,0.5283104181289673,-0.7097960710525513,0.17412689328193665,-0.24345968663692474,0.2197093814611435,0.2661746144294739,-0.2666320502758026,0.30235981941223145,-0.16776055097579956,-0.4754989743232727,0.5857780575752258,-0.0285094752907753,0.014623301103711128,0.02934161387383938,0.02336311899125576,0.23841705918312073,-0.6170594096183777,-0.03393791988492012,0.21921157836914062,0.2717494070529938,0.23494099080562592,-0.10522294789552689,-0.14053377509117126,0.04868230223655701,-0.03825762867927551,-0.039435166865587234,0.12814965844154358,0.11010940372943878,-0.35336512327194214,-0.013517306186258793,0.11276894807815552,-0.17682427167892456,0.1529684066772461,-0.23098677396774292,0.12628941237926483,-0.04159994795918465,-0.49757543206214905,-0.15233878791332245,-0.02690792642533779,0.17656344175338745,-0.1901942789554596,-0.03664100170135498,0.11538995802402496,0.03416619449853897,0.057327985763549805,0.19860631227493286,0.42088139057159424,-0.03568718954920769,0.05047854036092758,0.190569669008255,-0.09697867184877396,-0.09634507447481155,-0.3667915463447571,-0.1365031599998474,-0.27667754888534546,-0.230112224817276,0.006160053890198469,0.15142248570919037,0.01128072664141655,0.03795063868165016,0.02333279326558113,0.09435561299324036,-0.0031538556795567274,-0.11725610494613647,-0.029218195006251335,0.21633805334568024,0.07229108363389969,0.3026401102542877,-0.5699048042297363,0.9510853290557861,-0.44062340259552,0.14156346023082733,0.32815131545066833,0.03646448999643326,-0.024403613060712814,-0.06995108723640442,0.3167426288127899,-0.04762718826532364,-0.5478774905204773,-0.14544281363487244,-0.18834976851940155,0.024073712527751923,0.3345174491405487,-0.007839763537049294,-0.003436173079535365,-0.044807374477386475,-0.029565349221229553,-0.10040735453367233,-0.11552601307630539,0.007287369575351477,-0.061755452305078506,-0.023213304579257965,0.12479895353317261,-0.5132868885993958,-0.2993833124637604,-0.00755623122677207,0.00963717419654131,-0.021453529596328735,-0.01195867545902729,0.43477195501327515,0.23950310051441193,-0.0018619815818965435,0.015697145834565163,-0.020690113306045532,0.05402597784996033,0.06853000819683075,0.5397969484329224,-0.03310169652104378,0.022639762610197067,0.10114064067602158,0.04413196071982384,-0.09056384861469269,0.0991477444767952,0.004692573565989733,0.014456506818532944,-0.09210962802171707,0.05618933588266373,0.23664237558841705,0.24891439080238342,0.07878673076629639,0.08015459775924683,0.10406851023435593,0.02853483520448208,0.09177751839160919,-1.3161442279815674,0.14651918411254883,0.19776542484760284,0.14062346518039703,0.015284115448594093,0.1138165146112442,0.09411033987998962,0.03133039176464081,0.01757175661623478,0.04579779878258705,0.019222205504775047,-0.039708804339170456,0.05559404566884041,0.16236691176891327,0.2180577516555786,0.11946716904640198,0.2187904417514801,1.000443458557129,-0.2667234241962433,0.3035944104194641,0.11368025094270706,0.15106216073036194,0.33867937326431274,-0.4295707046985626,-0.17023932933807373,-0.14917640388011932,-0.11737047135829926,0.4773153066635132,-0.4025653302669525,0.04204830899834633,-0.4520798921585083,0.005696333944797516,0.05825451761484146,0.013203779235482216,-0.031033292412757874,0.04184151068329811,-0.8329548835754395,-0.0006046694470569491,0.04694020748138428,0.0452781543135643,-0.01061223540455103,0.052361562848091125,0.39429470896720886,0.006699500605463982,0.03300764039158821,-0.006372628267854452,-0.01561790518462658,0.10255463421344757,-0.9057352542877197,0.020905019715428352,0.05449647456407547,-0.03693338856101036,0.06600520759820938,0.10667303204536438,-0.4829794466495514,0.03930823877453804,0.010024743154644966,-0.032787494361400604,0.038740068674087524,0.08506396412849426,0.5434491634368896,0.018067488446831703,-0.003375213360413909,0.0013369652442634106,0.025010082870721817,0.02453509159386158,-0.07336711883544922,0.12213998287916183,0.044306959956884384,0.04527668282389641,0.05743348225951195,0.1669555902481079,-0.16384416818618774,0.10112471878528595,-0.10972967743873596,0.01838870532810688,0.13786740601062775,0.14008845388889313,-0.06514189392328262,0.036817848682403564,0.04130362346768379,0.02153638005256653,-0.00813624169677496,0.038879331201314926,-0.05983640253543854,0.02870192378759384,-0.44746965169906616,-0.12080829590559006,1.3797763586044312,0.170340895652771,-0.22115647792816162,0.10637973994016647,-0.26989054679870605,0.13449691236019135,-0.19857095181941986,-0.6416849493980408,-0.08168461173772812,0.8475337028503418,-0.191354438662529,-0.049570318311452866,0.2954186201095581,-0.28906285762786865,0.10785064846277237,-0.1951027810573578,-0.15362484753131866,-0.021864527836441994,-0.3401550054550171,-0.4225192368030548,-0.048842042684555054,-0.17932245135307312,-0.049927376210689545,-0.10888038575649261,0.0037516087759286165,0.26081570982933044,-0.11289776116609573,0.01846292056143284,-0.09426408261060715,-0.08277809619903564,0.15190307796001434,0.16832426190376282,-0.09518342465162277,0.1572071611881256,0.3408142328262329,-0.0744553953409195,-0.04806456342339516,-0.044517457485198975,0.004291301593184471,-0.07801377773284912,-0.10589157789945602,-0.15885329246520996,-0.014290878549218178,0.1290043592453003,-0.18068617582321167,0.13072049617767334,0.022263340651988983,-0.12149296700954437,0.056916628032922745,0.05113288387656212,-0.5080839991569519,-0.0006728023872710764,0.30740395188331604,0.4717959463596344,0.5082515478134155,0.35414400696754456,-0.10542383044958115,-0.014355176128447056,0.15757904946804047,-0.0933818519115448,-0.33998560905456543,-0.19020989537239075,0.01759081333875656,-0.00028052052948623896,-0.12173529714345932,0.09088172018527985,-0.036316752433776855,-0.1805330216884613,0.48813197016716003,0.32579487562179565,-0.1885962039232254,0.003011843888089061,-0.2640365958213806,-1.7118183374404907,0.3739842474460602,-0.3577236831188202,0.009917967021465302,-0.17125467956066132,0.8373976349830627,-0.47622349858283997,-0.7277362942695618,0.15802344679832458,0.4612330198287964,-0.6226184964179993,-0.056456103920936584,-0.17462129890918732,0.24913091957569122,0.012435260228812695,0.20433355867862701,0.28333529829978943,0.18846067786216736,0.3386152684688568,-0.4918345510959625,0.031518056988716125,-0.02799900807440281,0.14000314474105835,0.17336226999759674,-0.19108116626739502,-0.07525552064180374,0.2648344039916992,-0.0028313379734754562,0.17447108030319214,-0.055782150477170944,-0.3142089247703552,-0.1514558643102646,-0.01874765194952488,0.17389141023159027,0.14230677485466003,0.26427483558654785,0.22885043919086456,0.39777758717536926,-0.11995060741901398,-0.18304835259914398,-0.2510356307029724,0.04100900888442993,0.22452642023563385,0.04880756139755249,0.17083464562892914,-0.11791834980249405,0.09841211885213852,0.3507077395915985,-0.06353962421417236,0.1599108874797821,-0.37220972776412964,-0.25883856415748596,-0.14630211889743805,-0.05021137371659279,0.3152802884578705,-0.05333155766129494,-0.13890530169010162,0.15006983280181885,0.31088927388191223,-0.10571885108947754,-0.1459226757287979,0.43804222345352173,-0.0782940462231636,-0.14080677926540375,0.10003341734409332,-0.032676346600055695,-0.002148685045540333,0.08661395311355591,0.22016902267932892,0.15369533002376556,0.2687284052371979,0.0613231398165226,0.6230657696723938,0.023852646350860596,0.46354949474334717,-0.5187602639198303,0.028495769947767258,-0.519027054309845,-0.5940716862678528,-0.3437879681587219,-0.20293407142162323,-0.2830318212509155,0.06153058633208275,0.08883654326200485,0.4300975501537323,0.039239734411239624,0.1205826848745346,-0.2354048639535904,0.15320776402950287,0.20781338214874268,-0.44209834933280945,0.7104083895683289,-0.010938883759081364,-0.1490461826324463,-0.05618801712989807,0.11259011179208755,0.1790933758020401,-0.30543389916419983,0.025908704847097397,-0.04719506949186325,0.26624011993408203,0.18925721943378448,0.3897057771682739,-0.5992628931999207,0.04399750381708145,-0.19999003410339355,-0.2596145570278168,-0.3552395701408386,-0.7476038336753845,0.13866578042507172,0.07954546064138412,0.15264058113098145,0.13381427526474,0.13936591148376465,0.45783838629722595,-0.39363154768943787,0.07104341685771942,0.05604585260152817,0.03343649581074715,0.07203373312950134,0.32842597365379333,-0.012254925444722176,0.01885375566780567,0.1651984304189682,0.3659532368183136,0.5473556518554688,0.3861631155014038,-0.3671826124191284,-0.0841890200972557,-0.25705036520957947,-0.13086475431919098,0.05338862165808678,-0.40022486448287964,0.2340008020401001,-0.011783774942159653,-0.04542712867259979,0.06658497452735901,-0.18390440940856934,-0.5092827677726746,-0.07834392040967941,-0.1664888709783554,-0.31724148988723755,0.32580438256263733,0.5844210386276245,-0.8818359971046448,0.795484185218811,0.326368510723114,-0.2574058175086975,0.12500379979610443,-0.18202491104602814,0.7152191400527954,-0.7678748965263367,0.6237713098526001,0.05906973406672478,-0.01962309330701828,-0.01422093529254198,0.30357202887535095,0.4364573657512665,-0.03690782189369202,-0.031887736171483994,-0.06135790795087814,-0.015902891755104065,-0.42986738681793213,0.010996767319738865,-0.09003876894712448,-0.07761849462985992,-0.11941298842430115,-0.12155833840370178,-0.16661448776721954,-0.12366874516010284,0.0021645252127200365,0.01490616612136364,0.032182592898607254,0.029170062392950058,0.21854658424854279,-0.006572043988853693,0.009787298738956451,0.06494275480508804,-0.08458408713340759,-0.2583073377609253,-0.08691851049661636,0.3894560933113098,-0.030118335038423538,-0.0051813009195029736,0.07656507194042206,0.11808478832244873,0.2554444670677185,-0.3486890196800232,0.08497638255357742,0.16747811436653137,0.024673692882061005,-0.03417741134762764,0.3147798776626587,-0.3034144341945648,-0.013236681930720806,0.010752986185252666,-0.013813266530632973,0.020319728180766106,-0.12200767546892166,-0.43421995639801025,-0.006625105626881123,0.04418586194515228,-0.015248602256178856,0.03615174815058708,0.05759768560528755,-0.4471019208431244,-0.17000265419483185,-0.29790034890174866,-0.18225008249282837,-0.2056901603937149,-0.1828310191631317,0.6864680647850037,0.2356254607439041,-0.06680852919816971,0.3835367262363434,-0.3559384346008301,0.5816662907600403,-0.5919344425201416,-0.433694064617157,-0.12533047795295715,0.4014125168323517,0.21117274463176727,0.06093740835785866,0.4676785171031952,0.3641051650047302,-0.01955980807542801,-0.5268495082855225,0.3454186022281647,0.5566845536231995,-0.40397611260414124,-0.09595170617103577,-0.17731191217899323,-0.20547832548618317,-0.21478299796581268,-0.2251022309064865,0.2557086944580078,-0.08109317719936371,-0.16515600681304932,-0.18530362844467163,-0.19463849067687988,-0.21077664196491241,0.3362026810646057,0.14909066259860992,0.30435749888420105,0.346723347902298,0.36091920733451843,0.37842291593551636,-0.6290966272354126,-0.02629648521542549,0.004050064831972122,-0.08864600211381912,-0.2001580148935318,-0.0695638656616211,0.6570446491241455,-0.020203378051519394,0.0031815404072403908,0.0038152525667101145,0.009696269407868385,0.1899079978466034,0.5073118805885315,-0.06930163502693176,-0.18000683188438416,-0.12584759294986725,-0.016122883185744286,-0.09240219742059708,0.04323214665055275,0.03834075853228569,0.13226106762886047,0.13392099738121033,0.07874853909015656,0.17977525293827057,-0.4608742594718933,0.041268907487392426,0.1236301064491272,0.11659058183431625,0.08880791813135147,0.10709711164236069,0.3870236277580261,-0.060004785656929016,-0.22378234565258026,-0.2051118016242981,-0.19166867434978485,-0.1922743022441864,0.09540462493896484,0.22805491089820862,0.02791406959295273,0.16677029430866241,-0.18313224613666534,-0.6051808595657349,0.02737334929406643,-0.24827876687049866,-0.7403802275657654,-0.1870104819536209,-0.4317319393157959,-0.16228841245174408,0.14242079854011536,0.8118727207183838,-0.3851262629032135,0.002674699295312166,-0.3359357714653015,0.4494636654853821,-0.35115957260131836,0.014730943366885185,0.1361606866121292,0.15426523983478546,0.12398552149534225,0.1424655020236969,-0.04494228959083557,0.01755567640066147,0.16338804364204407,0.18983307480812073,0.15187273919582367,0.1867063194513321,0.4894210398197174,-0.03289898857474327,-0.2932485044002533,-0.3471657335758209,-0.2801257073879242,-0.3262089192867279,0.01601514033973217,-0.025567131116986275,0.14228686690330505,0.1902967244386673,0.10110361874103546,0.204057514667511,0.3286915123462677,-0.0295668113976717,0.1757904440164566,0.2256365716457367,0.13339515030384064,0.25089430809020996,-0.1453387290239334,0.05749238282442093,-0.31300413608551025,-0.4118878245353699,-0.2483782172203064,-0.4470503628253937,-0.4834747314453125,-0.009223445318639278,0.15770381689071655,0.21163517236709595,0.10995209217071533,0.2179379016160965,0.02618550695478916,-0.004768102429807186,0.20703525841236115,0.2684931755065918,0.15571218729019165,0.2726080119609833,0.5385850667953491,0.0023258959408849478,-0.38902515172958374,-0.4929576516151428,-0.29782551527023315,-0.48706763982772827,-0.0378420352935791,-0.004271250683814287,0.11555720120668411,-0.2623758912086487,-0.02912798896431923,-0.17426876723766327,0.20985285937786102,-0.2558274567127228,0.3872528374195099,-0.24194230139255524,0.5234276652336121,-0.7328068614006042,0.6814001202583313,0.14581044018268585,-0.1394791454076767,0.28840988874435425,0.02174730971455574,-0.10868994146585464,0.05109540373086929,0.02041267417371273,0.04632765054702759,0.04264141991734505,0.08207909017801285,0.22216807305812836,0.3404037654399872,0.0299722608178854,0.052796561270952225,0.051620207726955414,0.09708274155855179,0.2572336792945862,-0.16785955429077148,-0.055968910455703735,-0.09804034978151321,-0.09092164039611816,-0.17940247058868408,-0.4709785580635071,-0.5460084080696106,0.04633805528283119,0.10462787002325058,0.04268286004662514,0.12773248553276062,0.23242171108722687,0.48280298709869385,0.06399684399366379,0.12716591358184814,0.07941269874572754,0.13161158561706543,0.29669156670570374,-0.09422583132982254,-0.12514963746070862,-0.23843665421009064,-0.17601437866687775,-0.22495202720165253,-0.5677527785301208,-0.5292584300041199,0.009711576625704765,0.03188849613070488,0.03895117715001106,0.07606979459524155,0.17355728149414062,0.10124175250530243,0.016489114612340927,0.036996252834796906,0.041395120322704315,0.08499220758676529,0.20956702530384064,0.5620503425598145,-0.028138287365436554,-0.06613145023584366,-0.07214157283306122,-0.15849053859710693,-0.3726002275943756,-0.18758969008922577,0.694070041179657,-0.15046560764312744,0.5835257768630981,-0.1068292036652565,-0.9737837910652161,-0.2509898543357849,-0.04870337247848511,-0.12803201377391815,-0.22520925104618073,-0.8617231845855713,-1.2197699546813965,0.5140268206596375,0.022037968039512634,0.07981424778699875,0.5139856934547424,0.09327717870473862,-0.004670560359954834,-0.5801619291305542,0.3161342144012451,0.13022364675998688,0.1767772138118744,0.22710740566253662,0.22783713042736053,0.14974930882453918,0.1106775626540184,0.1322879046201706,-0.035961948335170746,-0.3606072962284088,-0.40976086258888245,-0.19409257173538208,-0.32661867141723633,-0.18633770942687988,0.4825039505958557,0.09391650557518005,-0.06995870918035507,-0.19802643358707428,-0.43736532330513,-0.3505212068557739,-0.10406802594661713,-0.1878746747970581,-0.21833989024162292,0.26518699526786804,0.4609982371330261,0.6042113304138184,0.2478773444890976,0.19047066569328308,0.2498450130224228,-0.3254208564758301,-0.075371652841568,-0.0898730456829071,-0.26408398151397705,-0.31921589374542236,-0.2526792287826538,-0.09798720479011536,-0.1416471153497696,-0.2012120932340622,0.18537309765815735,0.4805070757865906,0.4243437647819519,0.16308094561100006,0.16529735922813416,0.17832711338996887,-0.1936783641576767,0.05680599808692932,0.07278518378734589,0.0860949456691742,-0.011656783521175385,0.06652329117059708,-0.11816418915987015,-0.02816847711801529,0.1124504953622818,-0.028165215626358986,0.11580555140972137,0.137376606464386,-0.09339764714241028,-0.23748721182346344,-0.35855138301849365,-0.39912816882133484,-0.02850012481212616,-0.04866401478648186,-0.0019495781743898988,0.108748659491539,0.015357444994151592,-0.07187095284461975,0.022893844172358513,0.010071758180856705,0.017605451866984367,-0.007623982150107622,0.1073804721236229,0.008930450305342674,-0.04044125974178314,-0.21799629926681519,-0.6271228194236755,0.026274673640727997,0.17664578557014465,-0.07905323058366776,-0.01473682839423418,0.06356307119131088,-0.034918833523988724,-0.15949755907058716,0.0757855474948883,0.05740473419427872,-0.10529814660549164,-0.04665668308734894,0.08676448464393616,0.1091332957148552,0.3229314088821411,0.29758167266845703,-0.12069879472255707,-0.15860219299793243,-0.2701527774333954,-0.16986757516860962,-0.15634267032146454,-0.3304918110370636,-0.1880795657634735,-0.20574623346328735,0.09261971712112427,0.12320287525653839,0.25549355149269104,0.19674740731716156,0.3164338171482086,0.2632012367248535,0.19858339428901672,0.6231898069381714,0.45036569237709045,0.3736722469329834,0.39737001061439514,0.40207570791244507,0.4346691370010376,0.3119746148586273,0.17635495960712433,-0.014074694365262985,-0.20816916227340698,-0.29749658703804016,-0.5340285301208496,-0.7172187566757202,-0.6896819472312927,-0.725813090801239,0.22646668553352356,0.27004170417785645,0.021261226385831833,0.14875102043151855,0.26132211089134216,0.10266350954771042,0.24150532484054565,0.2441302090883255,0.053485311567783356,0.019704313948750496,-0.253032922744751,-0.20976682007312775,-0.3065703809261322,-0.5194107890129089,-0.4752480089664459,0.6512399911880493,0.34137555956840515,0.18452242016792297,0.07266687601804733,-0.16240929067134857,-0.16246168315410614,-0.3604300916194916,0.08852917701005936,-1.7743204832077026,0.658832848072052,0.640109121799469,-1.672882080078125,0.3663409650325775,-0.5042413473129272,0.8110349178314209,-0.1544586718082428,0.2848086357116699,-0.3664582073688507,-0.1391046792268753,-0.10396885871887207,-0.1216275542974472,-0.08488009124994278,-0.11533165723085403,-0.09478192031383514,-0.07180774211883545,-0.1087145134806633,-0.1545395404100418,-0.1682315617799759,-0.0657738670706749,-0.03364097326993942,0.0921052023768425,-0.015655124559998512,-0.15076708793640137,0.05913512036204338,0.0463416688144207,0.028109677135944366,0.03000386618077755,0.025490686297416687,0.04596072807908058,0.036632340401411057,0.05171803757548332,0.09043759107589722,0.09972537308931351,0.10975414514541626,0.07649330794811249,0.0677475705742836,-0.02788664773106575,0.20979340374469757,-0.2517065107822418,-0.220505952835083,-0.319620817899704,-0.2738787531852722,-0.3276559114456177,-0.2796297073364258,-0.30051735043525696,-0.36990368366241455,-0.422885537147522,-0.4446676969528198,-0.23684540390968323,-0.2263989895582199,0.04637601599097252,-0.20502513647079468,0.4481082260608673,-0.012240404263138771,0.01966479793190956,0.01890913024544716,0.039407480508089066,-0.0606297105550766,0.011703984811902046,-0.01680881343781948,0.07319708913564682,-0.10789287835359573,-0.004443502984941006,-0.054067060351371765,0.00338173215277493,0.5057691335678101,-0.0623810701072216,0.4290640950202942,0.012247716076672077,-0.012771868146955967,-0.010784555226564407,-0.011061137542128563,0.00982093345373869,-0.007923631928861141,-0.023290535435080528,-0.03151186928153038,0.04269415885210037,-0.008567595854401588,0.010993924923241138,0.02800440602004528,0.5957431197166443,0.47032761573791504,-0.43378588557243347,-0.012116622179746628,0.014577175490558147,0.032883960753679276,0.052845217287540436,-0.10992439091205597,0.01924595981836319,-0.07026296108961105,0.10380358248949051,-0.07408551126718521,0.04184899479150772,-0.019427916035056114,-0.04771413654088974,0.1760353147983551,0.5916386842727661,-1.092427134513855,-0.15868429839611053,-0.13433387875556946,-0.17105437815189362,-0.1234997808933258,-0.17577219009399414,-0.13842836022377014,-0.17950458824634552,-0.12325204163789749,-0.08851829916238785,-0.12444005906581879,-0.0490269772708416,-0.05448037385940552,-0.10139935463666916,-0.1990167647600174,0.22664593160152435,0.08275981992483139,0.0664963647723198,0.0703614354133606,0.05894150212407112,0.08401914685964584,0.057772211730480194,0.1034795418381691,0.03135330602526665,0.07574883848428726,0.05820100009441376,0.03928757086396217,0.11716903001070023,0.10014079511165619,0.5202551484107971,-0.2887295186519623,-0.21803420782089233,-0.20453810691833496,-0.2929966151714325,-0.23482564091682434,-0.2964895963668823,-0.26517894864082336,-0.282509446144104,-0.2776463031768799,-0.18313495814800262,-0.27333590388298035,-0.11888950318098068,0.04678277671337128,-0.14751023054122925,0.3292490243911743,-0.7847785353660583,0.3327644169330597,-0.09397856891155243,0.16642756760120392,0.045640308409929276,-0.1654650717973709,0.1821940541267395,-0.1296425312757492,0.21043136715888977,0.19393959641456604,0.5152260661125183,0.11649425327777863,0.2548060119152069,0.3812127709388733,0.4723224639892578,0.600964367389679,-0.3915826976299286,0.5026246309280396,-0.13806042075157166,-0.03649461269378662,-0.1225145235657692,-0.13215340673923492,0.06514814496040344,0.04031410813331604,-0.25635409355163574,-0.008295634761452675,-0.06961212307214737,0.2535248100757599,0.19432558119297028,0.30338379740715027,-0.16879694163799286,-0.04838891699910164,0.039032138884067535,-0.3490646183490753,-0.1203637644648552,-0.22313539683818817,-0.3149316608905792,-0.02485957182943821,-0.12598548829555511,0.31152626872062683,0.13125383853912354,0.1346307247877121,0.34304606914520264,-0.17523391544818878,-0.120400570333004,0.1888062208890915,-0.16962309181690216,-0.13671782612800598,0.05969131365418434,0.34961390495300293,0.17597121000289917,-0.04324181750416756,-0.029361356049776077,0.027336349710822105,0.1905713528394699,-0.0666828528046608,0.11892732977867126,0.07826435565948486,-0.12031904608011246,-0.35183754563331604,0.8973367214202881,-0.04894842579960823,-0.2393295168876648,-0.070200115442276,-0.1343517154455185,0.11825619637966156,0.45710134506225586,0.28067266941070557,0.23069757223129272,-0.18632379174232483,-0.10309121012687683,-0.11166718602180481,-0.19635529816150665,1.1154484748840332,0.5254775881767273,-0.9357699751853943,0.07283250987529755,0.16998133063316345,0.2637079954147339,-0.15687204897403717,0.26400595903396606,-0.4920834004878998,0.8968909978866577,-0.5729153156280518,-0.702150285243988,-0.940564751625061,0.10250705480575562,-0.0964706614613533,0.10574784874916077,0.7294577956199646,0.7524803280830383,-0.02769256755709648,-0.13535603880882263,-0.2268742471933365,-0.051710162311792374,0.15273155272006989,0.4231942594051361,0.15968045592308044,0.12056317180395126,0.46889156103134155,0.09411770850419998,-0.38922029733657837,-0.5455438494682312,0.3470277786254883,0.0581575483083725,0.20850437879562378,-0.050639525055885315,-0.04920167475938797,-0.11865255236625671,-0.047623973339796066,0.000927222368773073,0.019571006298065186,0.1800582855939865,1.0303348302841187,1.1823556423187256,0.04933411255478859,-0.095309317111969,0.035246673971414566,-0.14068567752838135,0.3450146019458771,0.79095458984375,0.08789141476154327,-0.050884049385786057,0.0445314422249794,0.08168386667966843,-0.013341057114303112,-0.28787896037101746,-0.03692775219678879,0.06046301871538162,0.07388055324554443,-0.21816524863243103,0.18997126817703247,1.357211709022522,0.0058869230560958385,-0.03644542768597603,0.10361345112323761,-0.12426768988370895,-0.5288997292518616,0.956206738948822,0.03392864018678665,-0.10210012644529343,0.09994539618492126,-0.11020901054143906,0.16296127438545227,-0.247333824634552,0.42412659525871277,-0.24890275299549103,-0.541014552116394,-0.44001683592796326,0.4822288453578949,0.314420223236084,0.38126441836357117,0.4706285297870636,0.4120970070362091,-0.5965933203697205,1.0814875364303589,0.5464937090873718,1.1722391843795776,-0.5331825017929077,-0.626785933971405,0.2516040503978729,0.9709277749061584,0.3565112352371216,-0.15392570197582245,-0.028614839538931847,-0.7520483136177063,2.6654281616210938,-0.30495989322662354,0.3095601797103882,-0.02830045484006405,0.014075431041419506,0.30768057703971863,1.7454334497451782,0.06880220025777817,0.011005043983459473,-0.12799224257469177,-0.36086758971214294,-0.297208696603775,-1.0827765464782715,-0.13338106870651245,0.3388972580432892,0.0704524889588356,-0.010924560949206352,0.28903478384017944,0.27319905161857605,0.6691120862960815,-1.530336856842041,0.05933259800076485,0.13406315445899963,0.11005982011556625,0.09543554484844208,-0.20915773510932922,0.40822622179985046,0.13967135548591614,0.2015368789434433,0.23767495155334473,-0.19244149327278137,-0.20075258612632751,-0.7239562273025513,0.14939481019973755,0.2184540033340454,-0.07249805331230164,0.2787500023841858,0.06479252129793167,-0.2921499013900757,-0.09498818963766098,-0.1640334129333496,-0.0014374296879395843,-0.1262439638376236,0.1324840784072876,-0.06302699446678162,-0.028719263151288033,0.08467408269643784,0.18312932550907135,0.38660505414009094,0.12814515829086304,-0.4157092571258545,0.030347231775522232,0.3452690839767456,0.1005716547369957,-0.30220165848731995,-0.3950183689594269,0.07033346593379974,-1.0970802307128906,1.2295728921890259,0.7913163900375366,0.13799278438091278,1.1060534715652466,0.70417720079422,-0.7935010194778442,-0.6328628659248352,-0.017356516793370247,0.35796821117401123,2.7261223793029785,1.1413954496383667,-0.03952652961015701,-0.03504478186368942,-0.06223656237125397,-0.0654134601354599,0.20047719776630402,-0.9815660119056702,0.07679570466279984,0.026527006179094315,0.12935790419578552,0.02115616574883461,0.10734495520591736,0.16598714888095856,0.07170895487070084,0.050561852753162384,0.08505280315876007,0.09781146794557571,-0.2643776535987854,-0.5940342545509338,0.0571565106511116,0.016234323382377625,-0.08400507271289825,-0.1476416289806366,-0.1961963176727295,0.33250191807746887,-0.1740914136171341,-0.16136041283607483,-0.038070425391197205,0.11348458379507065,-0.26691266894340515,0.7819646000862122,-0.10502228140830994,-0.07930515706539154,0.09291743487119675,0.2139306366443634,0.11829793453216553,-0.4541884660720825,-0.12900614738464355,-0.06960154324769974,-0.026004144921898842,-0.1639288365840912,-0.15169134736061096,0.053479332476854324,0.31544962525367737,0.22898584604263306,0.30390167236328125,0.8512353301048279,1.3606936931610107,0.49289074540138245,0.36457890272140503,0.24277113378047943,0.37526553869247437,0.999481201171875,1.5394343137741089,0.8331297039985657,-0.25222504138946533,0.2835632264614105,0.8899661898612976,-0.4196840822696686,-0.20451100170612335,0.3514094054698944,-0.17354634404182434,0.23077353835105896,-0.0594208724796772,-0.1607416719198227,-0.03740613907575607,0.17792737483978271,0.1655436009168625,-1.1975891590118408,0.15214549005031586,0.03502028435468674,0.5942436456680298,-1.2269359827041626,-0.009471542201936245,-0.02083318866789341,-0.02653227187693119,-0.0024598015006631613,-0.06718095391988754,0.0530674010515213,0.024593083187937737,0.08671468496322632,0.08814974874258041,-0.016520245000720024,0.36629819869995117,-0.19527770578861237,0.007504041772335768,0.009012057445943356,0.04415437579154968,-0.038405537605285645,0.14523755013942719,-0.17108169198036194,-0.08458821475505829,-0.06504319608211517,0.28552284836769104,0.13416095077991486,-0.33651819825172424,-0.2959223687648773,0.0037119314074516296,0.027715981006622314,-0.07021183520555496,0.21360664069652557,1.071622371673584,0.01723686419427395,0.010597502812743187,0.018941983580589294,0.18594633042812347,0.4212033152580261,-0.07143694907426834,-0.15846195816993713,0.000545977964065969,0.014877447858452797,0.005102330353111029,0.006203014403581619,0.06116929650306702,1.5332046747207642,-0.01755945198237896,-0.03511825576424599,-0.020918190479278564,-0.022198734804987907,-0.11252611875534058,0.027549751102924347,0.003070502309128642,-0.0066739777103066444,-0.001551937428303063,0.026494605466723442,0.03413618355989456,0.47354406118392944,-0.4154195487499237,0.06410401314496994,-0.6990235447883606,-0.3184102475643158,-0.06051209196448326,0.5925588607788086,-0.4085707664489746,0.2213488519191742,0.8791792392730713,0.5876585245132446,0.0933976024389267,2.0903737545013428,0.883752167224884,0.27760714292526245,-2.1501150131225586,0.5179726481437683,0.7330124974250793,-1.1086381673812866,0.01888037472963333,0.015267518348991871,0.016123095527291298,0.030438270419836044,0.03756013140082359,0.14076390862464905,-0.07583781331777573,-0.06061014160513878,-0.07115250825881958,-0.10604429244995117,-0.13893727958202362,0.8386710286140442,-0.03481898084282875,-0.02910647913813591,-0.030154041945934296,-0.03679503872990608,-0.06506671756505966,-0.2942892014980316,0.018206119537353516,-0.07393883913755417,0.08545815199613571,0.049751363694667816,0.08058883994817734,0.11138280481100082,0.015093617141246796,0.04099093750119209,0.02073545940220356,-0.15608465671539307,-0.19726234674453735,0.5926634073257446,0.04275624454021454,-0.003232358256354928,-0.02593163214623928,-0.12304262071847916,-0.09559427946805954,-0.17480336129665375,0.01418139599263668,0.008508854545652866,0.01512781623750925,0.022663943469524384,0.029302960261702538,0.3656297028064728,-0.05107063800096512,-0.04205329343676567,-0.051093824207782745,-0.07570964097976685,-0.0925106555223465,0.7538496851921082,-0.02243199571967125,-0.019831223413348198,-0.02546371892094612,-0.028516603633761406,-0.04420628398656845,-0.5081875920295715,1.9537770748138428,0.23230460286140442,-0.970137357711792,0.0701109990477562,-0.20354491472244263,0.1225476786494255,0.5572000741958618,0.033934690058231354,-0.9978267550468445,0.7285308837890625,0.05280473083257675,-1.0853749513626099,-0.7198485732078552,-0.07330766320228577,1.176110863685608,1.0178897380828857,1.2019052505493164,-1.1014782190322876,0.005718103609979153,0.007524626795202494,0.004955158568918705,0.010082295164465904,0.0031283944845199585,1.599108338356018,-0.026333600282669067,-0.02754366025328636,-0.01322029810398817,-0.02308182418346405,0.00652807904407382,1.302538514137268,-0.012885653413832188,-0.01571361906826496,-0.006545082665979862,-0.01325712725520134,-0.0005602299352176487,-1.8653377294540405,0.010657001286745071,-0.005896898917853832,0.011355675756931305,-0.017680559307336807,0.007224295753985643,0.27910104393959045,-0.06148536130785942,0.030251022428274155,-0.08938953280448914,0.06758894771337509,-0.016995195299386978,0.33280643820762634,-0.03850617632269859,0.01705750823020935,-0.06769520789384842,0.004097883123904467,-0.17349593341350555,-0.2260170876979828,0.07441233843564987,0.11030935496091843,0.08049271255731583,0.10786059498786926,-0.00816928781569004,0.11549120396375656,-0.11806462705135345,-0.17935560643672943,-0.1048828512430191,-0.19392335414886475,-0.18850965797901154,-0.07663803547620773,-0.07642917335033417,-0.0859096422791481,-0.039552100002765656,-0.08331389725208282,-0.07577192038297653,0.07307349890470505,0.9897676110267639,0.289840430021286,-0.01350460760295391,0.03316590562462807,-0.1725529134273529,-0.0039726728573441505,0.4162098467350006,-0.00858832336962223,0.5327888131141663,0.11612158268690109,0.18631941080093384,-0.07476914674043655,-0.32249006628990173,-0.3899204134941101,-0.36959829926490784,-0.3457287847995758,0.4948616325855255,-0.35605674982070923,0.07408229261636734,0.22351916134357452,-0.16506849229335785,0.1231352835893631,0.03767656534910202,-0.08206865936517715,-0.11823716014623642,-0.19344449043273926,-0.12447869777679443,-0.1488793045282364,-0.1554616540670395,-0.1363670825958252,0.0938413217663765,0.32974255084991455,0.3031359910964966,0.03706581890583038,-0.06496573239564896,-0.03922252357006073,0.09670791029930115,-0.11915214359760284,0.01400600466877222,-0.07175435870885849,0.02917764149606228,0.04645831510424614,-0.11246196925640106,0.003639626083895564,0.07132649421691895,0.03110342286527157,-0.0489577017724514,-0.08463462442159653,0.008725842460989952,-0.054112110286951065,-0.21114495396614075,0.09390825778245926,-0.1597161591053009,-0.04629654064774513,0.1876508742570877,0.12730298936367035,0.008481822907924652,0.18924500048160553,0.26104605197906494,0.10645146667957306,0.03145631030201912,0.14415675401687622,-0.08809708803892136,-0.18064023554325104,-0.17076805233955383,-0.15296068787574768,0.2975047528743744,0.0005439269588729648],"sample_rate":48000}},{"max_value":1,"model":{"version":"0.7.0","metadata":{"date":{"year":2026,"month":7,"day":7,"hour":5,"minute":54,"second":11},"loudness":-39.79717895370117,"gain":0.7769959591497131},"architecture":"WaveNet","config":{"layers":[{"input_size":1,"condition_size":1,"head":{"out_channels":1,"kernel_size":16,"bias":true},"channels":8,"kernel_sizes":[6,6,6,6,6,6,6,6,6,6,6,6,6,6,15,15,6,6,6,6,6,6,6],"dilations":[1,3,7,17,41,101,239,1,3,7,17,41,101,239,1,13,1,3,7,17,41,101,239],"activation":[{"type":"LeakyReLU","negative_slope":0.01},{"type":"LeakyReLU","negative_slope":0.01},{"type":"LeakyReLU","negative_slope":0.01},{"type":"LeakyReLU","negative_slope":0.01},{"type":"LeakyReLU","negative_slope":0.01},{"type":"LeakyReLU","negative_slope":0.01},{"type":"LeakyReLU","negative_slope":0.01},{"type":"LeakyReLU","negative_slope":0.01},{"type":"LeakyReLU","negative_slope":0.01},{"type":"LeakyReLU","negative_slope":0.01},{"type":"LeakyReLU","negative_slope":0.01},{"type":"LeakyReLU","negative_slope":0.01},{"type":"LeakyReLU","negative_slope":0.01},{"type":"LeakyReLU","negative_slope":0.01},{"type":"LeakyReLU","negative_slope":0.01},{"type":"LeakyReLU","negative_slope":0.01},{"type":"LeakyReLU","negative_slope":0.01},{"type":"LeakyReLU","negative_slope":0.01},{"type":"LeakyReLU","negative_slope":0.01},{"type":"LeakyReLU","negative_slope":0.01},{"type":"LeakyReLU","negative_slope":0.01},{"type":"LeakyReLU","negative_slope":0.01},{"type":"LeakyReLU","negative_slope":0.01}],"bottleneck":8,"head1x1":{"active":false,"out_channels":1,"groups":1},"layer1x1":{"active":true,"groups":1},"groups_input":1,"groups_input_mixin":1,"conv_pre_film":{"active":false,"shift":true,"groups":1},"conv_post_film":{"active":false,"shift":true,"groups":1},"input_mixin_pre_film":{"active":false,"shift":true,"groups":1},"input_mixin_post_film":{"active":false,"shift":true,"groups":1},"activation_pre_film":{"active":false,"shift":true,"groups":1},"activation_post_film":{"active":false,"shift":true,"groups":1},"layer1x1_post_film":{"active":false,"shift":true,"groups":1},"head1x1_post_film":{"active":false,"shift":true,"groups":1},"gating_mode":["none","none","none","none","none","none","none","none","none","none","none","none","none","none","none","none","none","none","none","none","none","none","none"],"secondary_activation":[null,null,null,null,null,null,null,null,null,null,null,null,null,null,null,null,null,null,null,null,null,null,null],"slimmable":null}],"head":null,"head_scale":0.00054392697103068},"weights":[-0.5535081624984741,0.00019715203961823136,0.5991204380989075,0.7994707226753235,-0.959459125995636,-0.5699307918548584,0.5270376205444336,0.7974610328674316,-0.16479948163032532,0.10033346712589264,0.025671957060694695,0.23293741047382355,0.25290754437446594,-0.2005319744348526,0.002466748468577862,0.002238490153104067,0.0021716810297220945,0.0019776325207203627,0.0019465923542156816,0.002246707445010543,0.15326012670993805,-0.04565144702792168,0.0074516343884170055,-0.23551790416240692,-0.19533750414848328,0.15945979952812195,0.07121498882770538,-0.013832854107022285,-0.0390196330845356,-0.2813396453857422,-0.2588675022125244,0.22938109934329987,-0.1765715777873993,0.11317680776119232,0.05766735598444939,0.2920185625553131,0.2801741361618042,-0.24158687889575958,-0.1023007333278656,0.09370850771665573,0.03403845429420471,0.21485061943531036,0.18675048649311066,-0.13416361808776855,0.09792372584342957,-0.08379504829645157,-0.0050229779444634914,-0.2703085243701935,-0.18908101320266724,0.14883533120155334,0.217417910695076,-0.13488858938217163,0.0070768436416983604,-0.1528346687555313,-0.21150529384613037,0.20163029432296753,-0.11302866041660309,-0.2253383845090866,-0.19466204941272736,-0.26579999923706055,-0.20563773810863495,0.024826835840940475,0.000736788846552372,0.0012792444322258234,0.0018988767405971885,0.0024616613518446684,0.0027916226536035538,0.002757749054580927,0.30234768986701965,0.2929580509662628,0.13145709037780762,0.2194167524576187,0.15034300088882446,-0.11152292042970657,0.15363822877407074,0.3125515282154083,0.275695264339447,0.30494794249534607,0.27458831667900085,-0.09888822585344315,-0.22911694645881653,-0.10387575626373291,-0.279985636472702,-0.14386597275733948,-0.18359294533729553,0.08596932142972946,-0.2596611976623535,-0.14190053939819336,-0.2844915986061096,-0.2336115837097168,-0.1619149148464203,0.030364682897925377,0.2964812219142914,0.28177595138549805,0.2790791392326355,0.28818824887275696,0.26275336742401123,-0.02590211294591427,0.14778800308704376,0.16669529676437378,0.20031748712062836,0.18468843400478363,0.2765556871891022,0.04299748316407204,0.054933078587055206,0.0016494414303451777,-0.03909692168235779,-0.06268675625324249,-0.07523422688245773,0.04414518177509308,-0.0012279418297111988,-0.0006556794978678226,0.00005444572161650285,0.0008068608585745096,0.0014833289897069335,0.0018016063841059804,0.009607172571122646,-0.04786962270736694,0.1341875195503235,0.029288390651345253,0.06352853775024414,-0.09957098215818405,0.04933393374085426,-0.062025606632232666,0.036766692996025085,0.1751616895198822,0.08942999690771103,-0.06928956508636475,0.11196249723434448,-0.0973835438489914,-0.06069684401154518,-0.21048058569431305,0.02754831127822399,0.06293410062789917,0.015021915547549725,-0.00243167020380497,-0.12981607019901276,-0.10913334041833878,-0.08746688812971115,0.021363891661167145,-0.015244252979755402,-0.015846651047468185,0.05785643309354782,0.06010465696454048,-0.08326244354248047,-0.20738162100315094,0.017080266028642654,0.06938816606998444,0.13455833494663239,0.05695795640349388,0.03480449691414833,-0.13099052011966705,0.12384065240621567,0.21231211721897125,0.26657208800315857,0.15020477771759033,0.11864674091339111,0.021378424018621445,0.0013716891407966614,0.001066475990228355,0.0008915931102819741,0.0006239419453777373,0.0003482262836769223,0.00003170699346810579,-0.10950571298599243,-0.15514469146728516,-0.250485360622406,-0.22773942351341248,-0.16423778235912323,0.06310319900512695,-0.2943221628665924,-0.1711338758468628,-0.24730052053928375,-0.3391438126564026,-0.19662998616695404,-0.066593237221241,0.21805864572525024,0.16006526350975037,0.14830762147903442,0.24252334237098694,0.18682833015918732,0.07090608775615692,0.18707919120788574,0.259689599275589,0.21601352095603943,0.20407013595104218,0.254854679107666,0.017627477645874023,-0.17354494333267212,-0.23058882355690002,-0.20741060376167297,-0.24885083734989166,-0.2122536450624466,-0.07437829673290253,-0.20646750926971436,-0.30573228001594543,-0.2419155091047287,-0.18777801096439362,-0.2882430851459503,-0.08524157851934433,0.1418522745370865,0.13215933740139008,0.16895970702171326,0.3122273087501526,0.31271880865097046,-0.07085098326206207,0.00017464683332946151,-0.00036097169504500926,-0.0007763200555928051,-0.0013234429061412811,-0.0016851037507876754,-0.0019373713294044137,-0.12523430585861206,-0.22555050253868103,-0.21860244870185852,-0.2736230194568634,-0.28888237476348877,-0.07366961985826492,-0.25213733315467834,-0.1410040706396103,-0.21500606834888458,-0.26710641384124756,-0.22525610029697418,0.03248250484466553,0.18621449172496796,0.15196481347084045,0.17869046330451965,0.3646766245365143,0.23403114080429077,-0.04233361408114433,0.09019473195075989,0.21101835370063782,0.10337416082620621,0.3804997205734253,0.25133082270622253,-0.05999154970049858,-0.1303635537624359,-0.15116138756275177,-0.10307957977056503,-0.26944804191589355,-0.3610594570636749,0.07077959179878235,-0.2126661241054535,-0.23068872094154358,-0.11559441685676575,-0.2640775740146637,-0.406267374753952,0.007419268134981394,-0.12236505001783371,-0.15484920144081116,-0.14713965356349945,-0.3714976906776428,-0.34311342239379883,0.020658418536186218,-0.000839417742099613,-0.0009123273775912821,-0.0007066863472573459,-0.0005767589900642633,-0.0005921958945691586,-0.0006876136758364737,0.2309286743402481,0.25920531153678894,0.24483509361743927,0.35147538781166077,0.3500574231147766,-0.008686997927725315,0.30648189783096313,0.115701824426651,0.151676207780838,0.367704302072525,0.41589808464050293,0.0676489993929863,-0.17754891514778137,-0.2946401834487915,-0.21660885214805603,-0.4149177372455597,-0.30508798360824585,0.012371866963803768,-0.15109191834926605,-0.19411732256412506,-0.22089263796806335,-0.3966093063354492,-0.3288795053958893,0.005124249961227179,0.15293088555335999,0.23706616461277008,0.18294212222099304,0.32658517360687256,0.2949201762676239,-0.03647461161017418,0.2110154628753662,0.20656011998653412,0.24236220121383667,0.38026827573776245,0.4281991124153137,0.14544391632080078,-0.019301459193229675,-0.10299792885780334,-0.0016803559847176075,-0.008217206224799156,0.013582675717771053,0.08333862572908401,0.0004548821598291397,0.0002708013926167041,0.0001643864525249228,0.0001218875331687741,0.00009223225788446143,0.00006484826735686511,0.020439043641090393,0.1128591001033783,0.0017400115029886365,0.008915080688893795,-0.015702614560723305,-0.09032802283763885,0.0246798824518919,0.14907407760620117,0.002431896748021245,0.01176336407661438,-0.024726886302232742,-0.11597874015569687,-0.02790464088320732,-0.176770880818367,-0.00359402596950531,-0.014117041602730751,0.033149950206279755,0.13523928821086884,-0.019425779581069946,-0.10372772812843323,-0.0016933921724557877,-0.008239720948040485,0.01353286113590002,0.08405452966690063,0.01876191422343254,0.09885257482528687,0.0016548375133424997,0.007897705771028996,-0.012971654534339905,-0.08025118708610535,0.02533666603267193,0.15309029817581177,0.002840352011844516,0.012068035081028938,-0.026561861857771873,-0.1187649518251419,0.07523877918720245,0.2145134061574936,0.17742805182933807,0.2600584328174591,0.23010054230690002,0.08515036106109619,0.0011098040267825127,0.0008246724610216916,0.0007556246710009873,0.0004044857923872769,0.00022242039267439395,0.00029708753572776914,-0.11067526787519455,-0.27891573309898376,-0.11807024478912354,-0.33515313267707825,-0.3055500090122223,-0.058881718665361404,-0.18812108039855957,-0.1784934550523758,-0.21107399463653564,-0.4320346415042877,-0.32845383882522583,-0.011830385774374008,0.1908690631389618,0.260913610458374,0.13309979438781738,0.32758963108062744,0.2967251241207123,-0.02357003092765808,0.18710631132125854,0.1455700695514679,0.07758238166570663,0.25973981618881226,0.2481573075056076,0.07574264705181122,-0.07300644367933273,-0.2763417363166809,-0.12747296690940857,-0.276983380317688,-0.2280884087085724,0.05232977494597435,-0.16453957557678223,-0.3122760057449341,-0.08891502767801285,-0.4049130976200104,-0.2554774582386017,-0.03987063467502594,0.14006732404232025,0.1264989823102951,0.29778313636779785,-0.12224792689085007,0.03325248137116432,-0.04156525433063507,-0.0741964653134346,0.03571337088942528,0.07959835976362228,0.06560114771127701,-0.2270411103963852,0.367243230342865,-0.5217861533164978,0.45898157358169556,-0.140692800283432,-0.4580167829990387,0.004110482055693865,-0.04443664103746414,0.09882278740406036,0.002425938379019499,0.023213718086481094,-0.10935880988836288,-0.0011359306517988443,-0.16247524321079254,-0.2845420837402344,-0.12024503946304321,-0.03145766630768776,0.3072153329849243,-0.13165955245494843,-0.05371971055865288,-0.058121003210544586,0.05162453278899193,-0.252987802028656,0.3108174800872803,0.3508000373840332,-0.144586443901062,0.18118610978126526,-0.017994921654462814,-0.035013437271118164,-0.06138867884874344,0.14599297940731049,0.22497530281543732,0.2164473831653595,-0.17711281776428223,-0.12413537502288818,0.5284428596496582,0.1635243147611618,0.25842297077178955,-0.11453770846128464,-0.05972099304199219,0.2289566844701767,0.14973188936710358,-0.004447802435606718,-0.11618169397115707,0.4023268520832062,0.14231041073799133,0.35917210578918457,0.1818876713514328,0.29065725207328796,-0.484457403421402,-0.3414783179759979,-0.07588692009449005,0.0015720367664471269,-0.33667710423469543,-0.2669750452041626,0.014639833010733128,0.07710453867912292,0.06866591423749924,0.043312475085258484,0.0160368662327528,0.06184086203575134,-0.20442456007003784,-0.4101845324039459,0.26579707860946655,0.3581823706626892,-0.2386610507965088,-0.414763480424881,-0.08130545169115067,0.1365794837474823,-0.37919944524765015,-0.017314769327640533,0.07089952379465103,-0.1750471293926239,-0.048287369310855865,-0.12290486693382263,-0.08971083164215088,0.022281423211097717,0.05874541029334068,0.04430122673511505,0.020626990124583244,-0.05306662619113922,0.04969675466418266,0.06795582920312881,0.03801268711686134,0.014807692728936672,-0.05388361215591431,-0.09375952184200287,-0.131977379322052,-0.05152175575494766,-0.04628429561853409,-0.11834041774272919,0.11484124511480331,0.14583353698253632,-0.01975124701857567,-0.10640024393796921,-0.13230235874652863,-0.15921731293201447,0.1319773644208908,0.21197640895843506,0.002257856773212552,-0.031371261924505234,-0.025827324017882347,-0.0058876886032521725,-0.05571470037102699,-0.1291988044977188,0.020653136074543,0.05509740859270096,-0.0009315004572272301,0.07037263363599777,0.16373290121555328,0.1647357940673828,0.2612399756908417,0.1727571040391922,-0.047096382826566696,0.062276698648929596,0.06886112689971924,0.10350773483514786,-0.061857376247644424,-0.028196178376674652,-0.040264107286930084,-0.03921826183795929,0.11261126399040222,0.12504032254219055,-0.09930764883756638,-0.14523832499980927,-0.16768936812877655,-0.18791966140270233,0.054438285529613495,0.024391544982790947,-0.13156092166900635,-0.13616995513439178,-0.009375370107591152,0.14323852956295013,0.0960388332605362,0.25030478835105896,0.13452617824077606,0.10777381807565689,-0.106599360704422,0.01820913329720497,-0.17367006838321686,-0.1547938883304596,-0.036925509572029114,-0.07715275138616562,-0.01940491423010826,0.14766183495521545,-0.14699532091617584,-0.06690657883882523,-0.048662248998880386,0.10464448481798172,0.2874259352684021,-0.16119889914989471,0.08971594274044037,0.0876445323228836,-0.11700332164764404,-0.18547959625720978,-0.09917060285806656,-0.1367490440607071,-0.011971338652074337,-0.18707306683063507,-0.0038858517073094845,-0.00803363136947155,0.10856189578771591,-0.05752132087945938,-0.09106171876192093,-0.06335949152708054,0.005495578516274691,0.03331160917878151,-0.1747974008321762,0.06094695255160332,-0.1218804195523262,-0.15294426679611206,-0.18882092833518982,0.08215013146400452,0.14483985304832458,-0.03665647655725479,0.036420583724975586,0.00027890640194527805,-0.04972105845808983,0.05361770838499069,-0.13683085143566132,-0.1636769026517868,0.04905673488974571,-0.07816111296415329,0.10895634442567825,-0.04557507485151291,-0.1465930938720703,-0.017053164541721344,0.12238772958517075,0.12207306921482086,-0.15469105541706085,0.19941867887973785,0.18812406063079834,0.052888624370098114,0.10158812254667282,0.09666051715612411,-0.05154146999120712,0.22312140464782715,0.4248724579811096,-0.05453172326087952,-0.09223955869674683,0.19286099076271057,-0.03302640840411186,-0.1850506067276001,-0.18848194181919098,-0.11316461116075516,-0.014515596441924572,0.2651202380657196,0.016028497368097305,0.015622596256434917,-0.1771482527256012,-0.0038141533732414246,0.09316705167293549,-0.10669377446174622,0.056097619235515594,0.1287824809551239,-0.029078245162963867,-0.1599303036928177,-0.030900772660970688,-0.05842268466949463,-0.12513306736946106,0.014829695224761963,-0.0583198182284832,-0.024203237146139145,-0.035559751093387604,-0.0408368818461895,-0.0421818271279335,-0.036398161202669144,-0.0350610613822937,-0.04617832973599434,-0.0515187531709671,-0.06294014304876328,-0.06976799666881561,-0.05962605029344559,-0.04762076959013939,0.04992617666721344,0.059519123286008835,0.07066473364830017,0.07630562782287598,0.07309600710868835,0.06536352634429932,0.017994124442338943,0.024931756779551506,0.030022332444787025,0.03610917925834656,0.03601842746138573,0.027816083282232285,-0.0032811162527650595,-0.004526569042354822,-0.004797301720827818,-0.006028789561241865,-0.00039425562135875225,0.006302495952695608,-0.0031346650794148445,-0.035829272121191025,-0.02991958148777485,-0.010625967755913734,-0.018133189529180527,-0.05072125419974327,0.010992970317602158,0.011181138455867767,0.01760176010429859,0.02186848782002926,0.019984623417258263,0.013531235046684742,-0.002640499034896493,-0.007839280180633068,-0.0037328521721065044,0.0010593418264761567,0.0006850316422060132,-0.007591405417770147,-0.08649071305990219,-0.001861932803876698,-0.0025137418415397406,-0.0000924171254155226,-0.012489008717238903,0.07007677853107452,0.0228847898542881,-0.02324957214295864,0.01670629158616066,-0.05280404910445213,-0.007414984982460737,-0.012590155936777592,0.08532774448394775,0.02734222821891308,0.01033425610512495,0.026382863521575928,0.009071674197912216,-0.06105387583374977,0.18176360428333282,0.04141674190759659,-0.08024919033050537,0.06507416069507599,0.05469939112663269,-0.13570259511470795,0.011625509709119797,0.040117111057043076,-0.05127541348338127,0.030853115022182465,0.06563181430101395,0.12993361055850983,-0.10932669043540955,-0.02800143137574196,0.02898799069225788,0.04581359773874283,-0.04870893061161041,-0.03625108301639557,0.0018927915953099728,-0.018760142847895622,0.054245173931121826,-0.015208302065730095,-0.038661662489175797,-0.08209086954593658,-0.04919848591089249,-0.03694126382470131,0.06271286308765411,-0.000587805116083473,-0.08620023727416992,-0.09733256697654724,-0.08348096162080765,-0.04455273598432541,0.010922600515186787,-0.1201288029551506,-0.135366752743721,-0.09188785403966904,-0.08487632125616074,-0.01834520325064659,-0.06970234960317612,-0.03511960431933403,-0.06811310350894928,0.14391562342643738,-0.09639783948659897,0.02500792220234871,-0.22899676859378815,-0.2672377824783325,0.09051525592803955,0.1392923891544342,-0.09213156253099442,0.06434553116559982,-0.025404084473848343,-0.07427941262722015,-0.02981927990913391,0.09703347831964493,-0.07741730660200119,-0.1602223813533783,0.08659065514802933,0.0780646950006485,-0.10626047849655151,0.1499672532081604,0.007891668006777763,0.03298293799161911,0.14096982777118683,-0.023132840171456337,-0.1340264528989792,-0.19269540905952454,-0.025082405656576157,-0.057019636034965515,-0.08295506983995438,-0.09240790456533432,0.04057322442531586,-0.07608918100595474,-0.10314809530973434,0.040553320199251175,0.11937590688467026,-0.14932313561439514,0.24957861006259918,-0.13314753770828247,-0.0005663320771418512,0.12622800469398499,-0.11871229857206345,0.11223385483026505,-0.15698279440402985,-0.005275042727589607,-0.07689432799816132,-0.007431024219840765,0.05566798895597458,-0.07145734876394272,-0.09384913742542267,-0.14350834488868713,-0.07203416526317596,-0.06057607755064964,0.0505828820168972,0.012919374741613865,-0.2323201298713684,0.10706741362810135,-0.013621754013001919,-0.010672301054000854,0.07065248489379883,-0.08720875531435013,-0.09762340039014816,0.14946348965168,0.028184205293655396,0.023238059133291245,-0.15900488197803497,0.25570768117904663,-0.16019999980926514,-0.025463955476880074,0.09543446451425552,0.044764235615730286,0.017378611490130424,0.22337393462657928,-0.2731207013130188,0.23676720261573792,-0.019634107127785683,-0.1114189624786377,0.1721103936433792,-0.06553170084953308,-0.0762428343296051,-0.013790466822683811,-0.03833629563450813,-0.071187324821949,0.17324665188789368,-0.1073201522231102,-0.3094367980957031,0.34177106618881226,-0.011446190066635609,0.16278024017810822,0.0686374381184578,0.08404579013586044,-0.10553856194019318,0.05553270876407623,0.028706224635243416,-0.06647740304470062,-0.09486153721809387,-0.11134838312864304,-0.04086453840136528,-0.09967467933893204,-0.038559626787900925,-0.05748546123504639,-0.22649890184402466,-0.14787665009498596,-0.347771555185318,0.0028068753890693188,-0.09944784641265869,-0.039272114634513855,-0.09360945224761963,0.004535755142569542,0.03558330982923508,0.3073883354663849,0.08852412551641464,0.08460165560245514,0.04255657270550728,0.07516027241945267,-0.036428216844797134,-0.19551989436149597,-0.19294297695159912,0.014936445280909538,-0.1497296392917633,0.18501611053943634,-0.16884182393550873,0.1999073028564453,0.021617908030748367,-0.11316206306219101,-0.04564603790640831,-0.13356901705265045,0.010573125444352627,0.10924401879310608,0.1753222942352295,-0.02287021465599537,-0.15297380089759827,0.05732163414359093,-0.06879565119743347,0.3377276659011841,-0.1389806866645813,0.06118385121226311,0.029905756935477257,-0.06563226133584976,-0.09438219666481018,0.09177932143211365,-0.032649341970682144,-0.041085731238126755,0.01151320431381464,0.02818296104669571,0.37596407532691956,0.01726621761918068,-0.07821602374315262,0.07020790129899979,-0.006781785283237696,-0.05882663652300835,0.08295824378728867,-0.11817672848701477,-0.1893015205860138,-0.03869913890957832,0.0865020900964737,0.10072685778141022,-0.0015678869094699621,0.10882750153541565,0.33476683497428894,-0.05567426607012749,0.2872445583343506,0.05707480013370514,0.1363912969827652,0.05864241346716881,0.16101963818073273,0.05409354716539383,-0.022443296387791634,-0.02949514240026474,-0.3812445402145386,0.035198554396629333,0.14803987741470337,-0.19496433436870575,0.12519234418869019,0.2356407344341278,0.05855592340230942,0.14136967062950134,0.29165101051330566,0.0005924912984482944,-0.05749227851629257,0.08279191702604294,0.36125460267066956,-0.13032715022563934,0.07681258022785187,0.18496838212013245,0.28758394718170166,0.010955119505524635,-0.02208886109292507,0.09547921270132065,0.17883870005607605,-0.011757331900298595,0.025400204584002495,-0.21418596804141998,0.054786764085292816,-0.01824960485100746,-0.12126334756612778,0.1858891099691391,-0.40782538056373596,-0.08060168474912643,-0.48765829205513,0.519265353679657,-0.23637939989566803,-0.06223047897219658,0.1417393684387207,0.11806126683950424,0.1849525272846222,0.2583126127719879,0.045793045312166214,0.05105143412947655,-0.003130831755697727,-0.0008575727697461843,0.09048166871070862,0.02487148530781269,-0.22330066561698914,0.1372266262769699,-0.0018259079661220312,-0.015355704352259636,0.0900610089302063,-0.10462826490402222,0.0370265357196331,-0.08294299244880676,-0.0745365172624588,-0.14517620205879211,-0.19857481122016907,-0.0471663698554039,0.031644657254219055,0.018509192392230034,-0.12903481721878052,0.08087413758039474,0.09539119899272919,0.3144388794898987,0.10057204216718674,0.2944519519805908,0.20322631299495697,0.1248972937464714,-0.08921261131763458,-0.04712282866239548,0.0790538489818573,-0.03445969521999359,0.08266166597604752,0.006245796103030443,-0.055467963218688965,-0.11808653175830841,-0.007112989202141762,0.014457501471042633,0.09813173860311508,0.14627347886562347,0.21825002133846283,0.3614918887615204,0.14514042437076569,0.09123798459768295,0.07619339972734451,0.022489331662654877,-0.29655447602272034,-0.0941556990146637,-0.18534043431282043,-0.17168837785720825,-0.20256315171718597,-0.16608507931232452,0.04954829812049866,-0.09585433453321457,-0.02706110291182995,-0.06773277372121811,0.24871373176574707,-0.3287735879421234,-0.0725560188293457,-0.16064073145389557,-0.21781282126903534,0.0046201543882489204,0.04754756763577461,0.12646499276161194,-0.16112925112247467,-0.1911206990480423,-0.14054064452648163,-0.028766363859176636,-0.12879858911037445,0.1215389221906662,0.05560394749045372,0.16052208840847015,0.3905167281627655,0.13427183032035828,0.24433133006095886,-0.008472498506307602,-0.03447506204247475,0.10497032105922699,-0.1188928559422493,0.06724762171506882,-0.09857635945081711,0.12351147085428238,0.22055310010910034,-0.06056717038154602,-0.0925695076584816,-0.09041483700275421,-0.07204648852348328,0.16282552480697632,-0.0011365198297426105,0.2629243731498718,0.30761876702308655,0.058342061936855316,0.1648896485567093,-0.0059120855294167995,-0.10365500301122665,-0.18643352389335632,-0.21608960628509521,-0.06554960459470749,0.027652105316519737,-0.04004604369401932,-0.0588998980820179,-0.06570807844400406,-0.03656087815761566,0.03309337794780731,-0.13188624382019043,-0.35037556290626526,-0.06373944878578186,-0.1403338760137558,-0.1506359726190567,-0.02130415104329586,-0.06302651017904282,0.0704692155122757,-0.2298468053340912,0.006344738882035017,0.06815774738788605,-0.01848546788096428,0.07216597348451614,0.041630860418081284,0.019278869032859802,0.0885552391409874,0.05345285311341286,0.03473876044154167,-0.1252540647983551,0.006148268934339285,-0.13001811504364014,0.14159873127937317,0.034500233829021454,0.19594985246658325,-0.3766455054283142,-0.0856088399887085,0.12654170393943787,-0.018553700298070908,-0.3468818962574005,0.012010052800178528,-0.30766865611076355,-0.34855324029922485,0.18737687170505524,0.05738774314522743,-0.012138842605054379,-0.10667213052511215,0.114195317029953,-0.1779237985610962,-0.09982888400554657,-0.02708388678729534,0.1739698350429535,0.009641075506806374,0.03310563787817955,0.2826339900493622,0.5210593342781067,0.1891118884086609,-0.24588100612163544,0.038377389311790466,-0.6533516645431519,0.22081562876701355,-0.284036248922348,-0.049430664628744125,-0.1528744250535965,-0.003359415102750063,-0.36972227692604065,0.7187596559524536,0.011904390528798103,0.042800046503543854,-0.07341355830430984,-0.10144515335559845,-0.1547974795103073,0.3108989894390106,0.16670292615890503,0.004178022034466267,-0.058578237891197205,0.11774277687072754,0.07440480589866638,-0.23787429928779602,-0.01684718020260334,0.09095427393913269,-0.14113886654376984,0.049722861498594284,0.06549001485109329,0.14173270761966705,0.18013393878936768,-0.1081748828291893,-0.003874212969094515,0.20181366801261902,0.16574576497077942,-0.3719346225261688,-0.11465699970722198,0.10046219080686569,0.10680564492940903,0.02382400445640087,-0.15074095129966736,0.19272534549236298,0.06948427110910416,-0.08045614510774612,-0.14337269961833954,-0.1082717552781105,-0.06320936977863312,0.3884258270263672,-0.23764660954475403,0.23108930885791779,-0.09747146815061569,0.07919105142354965,0.27345356345176697,-0.08229999989271164,-0.02034839056432247,-0.09785107523202896,-0.14388838410377502,0.06511659175157547,0.17659370601177216,0.19543929398059845,-0.04087597876787186,-0.1197427362203598,0.035170625895261765,-0.060898251831531525,0.05860942229628563,-0.006364531349390745,-0.06781629472970963,-0.05712195858359337,0.021671447902917862,0.09534364938735962,0.03325141593813896,0.07494612783193588,0.22383925318717957,0.07441531866788864,0.06551669538021088,-0.07447781413793564,0.03982694819569588,-0.07444534450769424,0.08517646044492722,0.170775905251503,0.0916687548160553,-0.013343624770641327,-0.04960869997739792,-0.5081397294998169,-0.1850317418575287,-0.3227824866771698,-0.0642748773097992,0.14211420714855194,0.11536683887243271,0.07732170820236206,0.22209641337394714,0.16714449226856232,0.1976129412651062,0.05893735587596893,0.011657568626105785,0.017792990431189537,-0.16386593878269196,0.03596752882003784,0.005593710578978062,-0.28017663955688477,0.13736975193023682,0.275845468044281,0.5843964219093323,0.46614667773246765,0.41796591877937317,0.029447484761476517,0.35385367274284363,0.553022563457489,-0.12076471000909805,-0.19045887887477875,-0.08011353760957718,-0.31372103095054626,-0.1896422654390335,-0.31664279103279114,0.10781345516443253,0.14297395944595337,0.15444442629814148,0.21862217783927917,0.147910937666893,0.31043463945388794,0.09144710749387741,-0.003070396836847067,0.06353765726089478,0.15113919973373413,0.04000299051403999,-0.1923578530550003,0.2682778835296631,0.3033265173435211,0.39504724740982056,0.12511345744132996,0.117264524102211,-0.07221215963363647,0.08008862286806107,-0.003545733168721199,0.028686286881566048,-0.1290571242570877,0.11451169103384018,0.19784864783287048,-0.0007851473637856543,-0.05324065312743187,0.03695019707083702,0.010510683059692383,-0.18796110153198242,-0.25994035601615906,-0.07697751373052597,-0.012177751399576664,0.02691575139760971,-0.03222642466425896,0.027423474937677383,0.3476080596446991,-0.03628883510828018,0.17577201128005981,0.08154713362455368,0.09049108624458313,0.1382315307855606,-0.03001842275261879,-0.05140216276049614,0.17771752178668976,0.12235892564058304,0.12991301715373993,0.16876333951950073,0.03137337788939476,0.018959546461701393,0.16464214026927948,-0.001548072905279696,0.11101298034191132,0.020727941766381264,0.1300085037946701,-0.417938768863678,-0.03205716982483864,0.18780262768268585,0.23413291573524475,0.05667540431022644,-0.05263528227806091,0.22938351333141327,0.11287399381399155,-0.0803692638874054,-0.24690218269824982,-0.0581405945122242,0.04494161531329155,0.2516152262687683,0.35242047905921936,0.023408276960253716,0.08257506042718887,0.13813826441764832,-0.015095844864845276,0.3648015856742859,0.2959722578525543,-0.0012461214791983366,-0.11466323584318161,-0.002500480506569147,-0.015463602729141712,-0.4481651782989502,-0.1581914871931076,0.23628991842269897,0.23634454607963562,0.10043485462665558,0.06955241411924362,-0.004217999521642923,0.09607873857021332,0.055197205394506454,-0.06402059644460678,-0.0527089387178421,0.07376174628734589,-0.02695607580244541,-0.03668395057320595,0.012235475704073906,-0.004587371833622456,0.07240910828113556,0.15420125424861908,0.010900447145104408,0.04607613384723663,0.04270322620868683,0.04770924896001816,-0.03199588879942894,0.03975239023566246,0.0679287537932396,0.050274286419153214,0.03212793916463852,-0.024049118161201477,0.053343839943408966,0.056587353348731995,0.06312210857868195,0.07239542156457901,-0.0011432921746745706,0.01264107320457697,-0.09986398369073868,-0.18536196649074554,-0.11166853457689285,-0.07589530944824219,0.011523970402777195,0.03725466504693031,-0.07233618944883347,-0.015099088661372662,0.11607343703508377,0.09506867080926895,0.07939907908439636,0.010969891212880611,0.09450697898864746,0.09873878955841064,0.017547592520713806,-0.03562526777386665,-0.05433214455842972,-0.09841635078191757,0.02931065298616886,-0.009357960894703865,0.12133766710758209,0.11882519721984863,0.07723196595907211,0.022850899025797844,0.06139487028121948,0.058247361332178116,0.12266127020120621,0.01232659351080656,0.010421334765851498,0.004426377825438976,0.05985626205801964,0.11329221725463867,0.016247408464550972,0.015373104251921177,-0.5826504826545715,0.1982240229845047,-0.17454391717910767,-0.6882838606834412,0.3256053924560547,-0.6920006275177002,0.10188425332307816,-0.06642929464578629,-0.3480857014656067,-0.1487273871898651,-0.1250111609697342,-0.06016762927174568,-0.07165808975696564,0.4334694743156433,-0.08202140033245087,-0.13635839521884918,-0.04245710000395775,0.04570600762963295,0.08446747064590454,0.16414664685726166,0.07333613187074661,-0.2733319103717804,-0.08507953584194183,-0.06439268589019775,0.1744031012058258,-0.18874101340770721,-0.09060247987508774,0.005392611026763916,-0.07575690001249313,0.21744085848331451,0.06778288632631302,0.025436311960220337,0.10992079973220825,0.14004628360271454,0.4398961365222931,0.391750305891037,0.375192791223526,-0.3322414755821228,0.2812970280647278,-0.03785301744937897,-0.24437826871871948,0.10037031769752502,0.058930404484272,0.0960836336016655,0.08143390715122223,0.05485481396317482,-0.014310094527900219,-0.07054214179515839,0.044481340795755386,-0.048012055456638336,-0.39310285449028015,-0.48725438117980957,-0.38458919525146484,0.03508705645799637,-0.3527131676673889,0.13587506115436554,-0.01384048443287611,0.29979538917541504,-0.13052687048912048,-0.056366968899965286,-0.09350932389497757,-0.3528410494327545,0.019382579252123833,-0.0414549894630909,0.24346964061260223,0.04265774413943291,-0.36145204305648804,-0.32404494285583496,-0.3092954158782959,-0.2701014280319214,-0.3595215380191803,-0.005117146298289299,0.04319868981838226,0.04632588103413582,-0.08226003497838974,0.041378967463970184,0.07134491950273514,0.06494790315628052,0.04845384880900383,0.06802773475646973,0.2459741085767746,-0.14068976044654846,-0.2627841830253601,-0.07919274270534515,0.21327723562717438,0.17935596406459808,-0.01615656353533268,-0.04999173805117607,0.06365759670734406,0.1706780642271042,-0.20565129816532135,0.14352092146873474,-0.07233843207359314,-0.33338841795921326,-0.22239762544631958,0.09309665113687515,0.37081262469291687,0.07630652189254761,-0.08755804598331451,-0.29563814401626587,-0.2183236926794052,0.14535440504550934,0.20544502139091492,-0.2793785333633423,0.06575021892786026,0.10380029678344727,-0.11874379217624664,-0.1633230596780777,0.10506247729063034,0.04773970693349838,0.0705103725194931,0.03413897380232811,-0.02702893503010273,0.14101192355155945,0.2978762984275818,0.045964181423187256,-0.09195006638765335,0.19678805768489838,0.42278140783309937,0.11839418113231659,-0.20738868415355682,-0.061174117028713226,-0.0022607215214520693,-0.13550163805484772,0.025790996849536896,0.24961523711681366,0.025686034932732582,-0.1579335331916809,-0.23016302287578583,0.10413467139005661,0.31017622351646423,0.03265629708766937,-0.19218188524246216,-0.13908202946186066,0.0440855510532856,-0.011587871238589287,-0.08052948117256165,-0.24289573729038239,0.13252487778663635,-0.16030238568782806,0.04575111344456673,0.18370600044727325,0.20716552436351776,-0.07093379646539688,-0.4111126661300659,0.03258056938648224,0.05613981559872627,0.2041349560022354,0.1987229883670807,-0.16789959371089935,-0.14782066643238068,0.2692921757698059,-0.042659878730773926,-0.13206464052200317,0.11731908470392227,0.20353949069976807,-0.03263073414564133,-0.062321506440639496,-0.0674574077129364,-0.12227534502744675,0.06496462970972061,-0.19557365775108337,-0.1967790722846985,0.0068045975640416145,0.060152001678943634,-0.15441888570785522,-0.31977197527885437,-0.19815444946289062,0.21546633541584015,0.09830154478549957,0.006184632424265146,0.14495514333248138,-0.0654715970158577,-0.10837092250585556,-0.07696918398141861,0.10376942157745361,-0.07896027714014053,-0.011439021676778793,0.24955067038536072,-0.000005094676453154534,-0.0005163353052921593,0.12237566709518433,0.049767378717660904,-0.06876987218856812,-0.137540802359581,-0.08154206722974777,-0.058984436094760895,-0.23763251304626465,-0.037274319678545,0.18924923241138458,0.08386954665184021,0.15721768140792847,-0.049628693610429764,0.018041914328932762,0.11539779603481293,0.09489857405424118,0.035961490124464035,-0.16057565808296204,0.09526515007019043,-0.2855502963066101,-0.10231108218431473,-0.08020995557308197,0.12795516848564148,0.06514077633619308,-0.0029474578332155943,-0.18381130695343018,-0.012224163860082626,0.1252175122499466,-0.027221037074923515,-0.1753268837928772,-0.10167467594146729,0.351838082075119,0.02966165356338024,-0.13176122307777405,-0.08517774939537048,-0.0685778260231018,0.1363603174686432,0.057086411863565445,0.04023704305291176,-0.055885154753923416,-0.3078087270259857,-0.47170260548591614,-0.1116725280880928,0.11456701904535294,-0.10660324990749359,0.10383443534374237,-0.0503833144903183,-0.11059555411338806,-0.17074310779571533,0.32426542043685913,-0.01955243945121765,-0.1272856891155243,-0.20971208810806274,-0.013102976605296135,-0.2546490430831909,0.3538234829902649,0.3272840678691864,0.12309293448925018,0.05901765078306198,-0.13012686371803284,0.054868184030056,-0.22103725373744965,-0.12722107768058777,0.04300646111369133,-0.09045030176639557,-0.08149168640375137,0.2969476282596588,-0.3437815308570862,-0.2007860243320465,0.03217972069978714,-0.00989846047013998,-0.10347426682710648,-0.1804276704788208,-0.1863708645105362,-0.05761956050992012,0.042905986309051514,-0.04980313777923584,0.00849051121622324,0.05188275873661041,-0.08432457596063614,-0.1438906192779541,0.021533329039812088,0.1380028873682022,-0.011712486855685711,0.07021019607782364,-0.14707714319229126,0.14673662185668945,-0.057496920228004456,-0.10103501379489899,-0.012383053079247475,0.2293405830860138,0.00402706116437912,0.05911102518439293,-0.01665790006518364,-0.19143132865428925,-0.06523039937019348,-0.02222220040857792,-0.17160986363887787,0.0302316602319479,-0.07463424652814865,0.023949066177010536,0.09682459384202957,0.038172394037246704,0.12797971069812775,-0.00026093481574207544,-0.06497429311275482,0.08901654183864594,0.14497719705104828,-0.07679060101509094,-0.1960262805223465,-0.1884111762046814,-0.20216912031173706,0.011444250121712685,0.1062174066901207,-0.06236880645155907,0.07911252230405807,0.14803346991539001,0.12318026274442673,-0.058036696165800095,-0.037155259400606155,-0.10205940902233124,0.2882876396179199,-0.07027120143175125,-0.16616402566432953,-0.010587907396256924,0.26187649369239807,0.06857603788375854,-0.5060921907424927,-0.08276200294494629,0.2664840817451477,0.09333537518978119,-0.004944746382534504,-0.20246030390262604,-0.013217603787779808,0.03487874194979668,0.11634751409292221,0.2777390778064728,0.38561511039733887,0.17939530313014984,-0.1192847192287445,0.024826880544424057,-0.028336824849247932,-0.04259020835161209,0.04416325315833092,-0.06423913687467575,-0.07323868572711945,-0.002506597200408578,0.18159930408000946,0.1619129478931427,0.13758441805839539,-0.037028320133686066,0.2107863426208496,0.0550677627325058,-0.15307627618312836,0.016954908147454262,0.026106690987944603,0.2452004998922348,0.1370372474193573,-0.04160090908408165,0.07364272326231003,0.12684279680252075,-0.03719773516058922,-0.008228711783885956,0.03629443421959877,-0.08181440085172653,-0.10833565890789032,0.1454833745956421,-0.04987861216068268,0.02076427824795246,0.1476222723722458,0.05968398600816727,0.14130978286266327,0.10653358697891235,-0.1267739236354828,0.00006873739039292559,-0.07860293984413147,0.032230935990810394,-0.07756003737449646,-0.009624763391911983,-0.04859243333339691,-0.17236171662807465,0.11339934915304184,-0.03879868984222412,0.07192302495241165,-0.025410640984773636,0.09979911148548126,0.04692375287413597,0.004497235640883446,0.13898316025733948,-0.09963355958461761,-0.30095118284225464,-0.12142691016197205,-0.09046364575624466,-0.05307609587907791,0.005143143702298403,0.08689037710428238,0.028343655169010162,0.02325771562755108,0.1018739566206932,0.20694278180599213,0.04306519031524658,-0.0707864910364151,-0.1644488126039505,0.08165367692708969,0.2320118099451065,-0.12223926931619644,0.17907394468784332,0.034728147089481354,0.24650739133358002,0.405384361743927,0.27732065320014954,-0.1333889365196228,0.05020958185195923,0.0808277428150177,-0.01445422600954771,0.13737225532531738,-0.0043799071572721004,0.08652415871620178,-0.08779217302799225,-0.2619088292121887,-0.09011877328157425,-0.04492354765534401,-0.1256607323884964,0.08608485013246536,0.010956494137644768,0.11333952099084854,0.004020383581519127,0.01911170966923237,-0.2920742928981781,-0.025866899639368057,-0.2408478707075119,-0.07987863570451736,-0.012851064093410969,-0.015046070329844952,-0.07539710402488708,0.043841201812028885,-0.01690935716032982,0.02565542608499527,0.02269681915640831,-0.01121598668396473,0.03520604595541954,0.007415663916617632,0.02649223618209362,-0.0004986061831004918,-0.010520968586206436,-0.0993003398180008,-0.05557158589363098,-0.052743300795555115,0.1618453711271286,0.2143016755580902,0.10705336183309555,0.04640795290470123,0.09258075058460236,0.03930078074336052,0.1198752298951149,0.09215114265680313,0.06250067055225372,-0.03789660334587097,0.08468097448348999,0.26892220973968506,-0.06540453433990479,-0.007507954724133015,-0.04741485044360161,-0.08759842813014984,-0.03283930942416191,0.06674864143133163,0.015341157093644142,-0.012944996356964111,-0.0319100059568882,-0.04466596245765686,-0.07839134335517883,-0.1090722605586052,-0.018185846507549286,0.042806003242731094,0.11737824231386185,-0.005536372773349285,-0.06140098348259926,0.17470014095306396,-0.14363834261894226,-0.07414954900741577,-0.1820327192544937,-0.06439518183469772,0.0034586219117045403,-0.0038420867640525103,-0.23904569447040558,0.20091459155082703,-0.17587046325206757,-0.11661244928836823,0.18323910236358643,0.028361238539218903,0.17326942086219788,-0.4763830006122589,-0.13122957944869995,-0.053192052990198135,0.25820019841194153,0.09561943262815475,0.452681303024292,-0.18375475704669952,-0.4682803153991699,0.10177501291036606,-0.007658733520656824,0.011529680341482162,-0.15052875876426697,-0.011426951736211777,0.17982277274131775,-0.06195738539099693,0.15212669968605042,0.036845482885837555,0.03237411752343178,0.14257822930812836,0.14730894565582275,0.2336120456457138,-0.15947577357292175,-0.32311075925827026,-0.19817790389060974,0.15011480450630188,-0.28439125418663025,0.3152257800102234,-0.027713626623153687,0.31084057688713074,0.10891028493642807,0.02428686060011387,-0.06798014789819717,0.19434991478919983,-0.0947607010602951,0.18655620515346527,0.30874887108802795,0.19311931729316711,-0.32437682151794434,-0.08993881940841675,0.026157038286328316,-0.2639361023902893,-0.06808961182832718,0.24284857511520386,-0.21038852632045746,0.46401578187942505,0.20444494485855103,-0.0791078582406044,0.040127307176589966,0.12604720890522003,0.13614492118358612,-0.24854165315628052,-0.4614900052547455,0.08581634610891342,0.3540782332420349,0.0263079646974802,-0.43071895837783813,0.11350834369659424,-0.21190133690834045,0.24049389362335205,-0.09445447474718094,0.252587229013443,0.17342208325862885,0.22943659126758575,0.1115272268652916,-0.06372655183076859,-0.42348042130470276,0.47888651490211487,-0.1829567849636078,-0.3007313311100006,0.1560933142900467,-0.08993428200483322,-0.28609976172447205,0.17797651886940002,-0.007911013439297676,0.0070807673037052155,0.03628847748041153,0.11891882121562958,-0.16178062558174133,-0.07740819454193115,-0.22925002872943878,0.20803849399089813,-0.009417155757546425,0.2274852842092514,-0.10923079401254654,-0.18858914077281952,-0.3274132013320923,0.09563862532377243,-0.07857182621955872,-0.06763064116239548,0.12327149510383606,-0.03171224519610405,-0.08140160888433456,0.280638724565506,-0.028688043355941772,0.0960274189710617,-0.08814575523138046,-0.11251916736364365,0.2191554307937622,0.1479446291923523,-0.049580976366996765,0.06592540442943573,0.07184714823961258,-0.12025263160467148,0.12151144444942474,0.08776353299617767,0.149987131357193,0.08500634878873825,0.0655469000339508,0.20586758852005005,0.22323890030384064,0.1261240392923355,-0.07689455896615982,0.051638729870319366,-0.05327059328556061,-0.07005302608013153,-0.24193710088729858,-0.31574371457099915,-0.034905724227428436,-0.1496448814868927,0.0935511440038681,-0.033675387501716614,-0.04736660420894623,-0.24944326281547546,0.11405501514673233,-0.0010929967975243926,0.014930927194654942,0.07721713185310364,0.331617534160614,0.008367463015019894,-0.04240003228187561,0.058435361832380295,0.03658617287874222,0.08010348677635193,0.03720546141266823,-0.12292181700468063,0.03629811853170395,0.020462187007069588,0.0032502359244972467,0.05643835291266441,0.013773353770375252,-0.07793232798576355,0.027842771261930466,-0.07138106226921082,-0.031137270852923393,0.03544754907488823,0.12690873444080353,0.07478797435760498,-0.04261723905801773,-0.03756600618362427,0.00036572624230757356,-0.03847220912575722,0.014567055739462376,0.12758544087409973,-0.05371454730629921,0.10277005285024643,-0.013386993668973446,-0.0846799910068512,-0.0868239551782608,0.32272741198539734,0.03462386876344681,-0.03244806453585625,0.02461468055844307,0.04697754234075546,-0.017891444265842438,0.16915594041347504,-0.03875604271888733,0.01741756685078144,0.060572925955057144,0.02229068987071514,0.028021134436130524,0.4969555735588074,0.01633182354271412,0.06756400316953659,-0.025357982143759727,0.08645584434270859,-0.040265802294015884,0.039952352643013,-0.010301992297172546,-0.07460222393274307,0.014963396824896336,0.07855162769556046,0.13176262378692627,-0.00984029658138752,0.10313514620065689,0.06505031883716583,-0.06170829385519028,-0.03805023804306984,-0.17522698640823364,-0.14175322651863098,-0.060752786695957184,0.05952942371368408,0.050231561064720154,0.057037606835365295,-0.1152709499001503,-0.016270650550723076,-0.0523691289126873,-0.06057106703519821,-0.03567381203174591,0.11920566856861115,-0.12287894636392593,0.138161763548851,0.05755504220724106,0.13691174983978271,0.038025230169296265,0.3035176992416382,0.5200183391571045,0.07723696529865265,-0.09621358662843704,-0.07418876141309738,-0.1125519722700119,0.03487734869122505,-0.25850725173950195,0.07087378203868866,-0.08312157541513443,0.05039364844560623,-0.0529261976480484,-0.1447857916355133,-0.15098094940185547,0.021932801231741905,0.034429922699928284,0.07080188393592834,-0.02444244548678398,0.18305814266204834,-0.1556086242198944,0.09143713861703873,0.014792642556130886,0.0840810164809227,0.0024218217004090548,-0.0740526095032692,-0.3975698947906494,-0.04945392161607742,0.08236034214496613,0.09845352917909622,0.03809204697608948,0.3395512104034424,-0.0893998071551323,0.32258832454681396,-0.032205600291490555,-0.0026817077305167913,-0.11741241067647934,-0.5185497403144836,-0.0688052549958229,-0.17793965339660645,0.009849482215940952,-0.13509032130241394,0.007603107951581478,-0.1382768452167511,0.23094898462295532,-0.1776578575372696,-0.003700602101162076,0.012330899015069008,-0.10203134268522263,0.03193487226963043,0.18889057636260986,-0.12447554618120193,0.17423732578754425,-0.015089457854628563,0.015555979683995247,0.049586221575737,-0.12372855842113495,-0.1488720029592514,0.1364399641752243,-0.011410875245928764,-0.011633669957518578,-0.03242673724889755,-0.10008234530687332,0.30112019181251526,-0.029146697372198105,0.09247049689292908,0.000021979392840876244,0.08542695641517639,-0.10875044018030167,0.020210744813084602,0.0074605559930205345,0.0695306807756424,0.0099489726126194,-0.0774126946926117,-0.11420496553182602,0.1604732871055603,0.02750839665532112,0.06685031205415726,-0.10920851677656174,-0.06442271173000336,0.0014519637916237116,0.0675775557756424,-0.12890273332595825,-0.08360153436660767,-0.0385332889854908,-0.06885907053947449,-0.1037684753537178,0.08068259805440903,0.0449734702706337,-0.0017934743082150817,-0.06677518784999847,-0.17406237125396729,0.0527414008975029,-0.21955466270446777,-0.021220814436674118,-0.14226669073104858,-0.026600809767842293,-0.09125210344791412,0.05792142078280449,-0.03892098739743233,-0.03925473615527153,-0.0009210397256538272,-0.06461220234632492,-0.041019320487976074,-0.12953828275203705,-0.20385898649692535,-0.010737667791545391,-0.08156275004148483,-0.011249641887843609,-0.04801160469651222,0.10845763981342316,-0.31956326961517334,-0.013231849297881126,0.009841988794505596,0.07439666986465454,0.09311217069625854,0.1823834478855133,-0.069837287068367,0.0899757444858551,-0.09415197372436523,0.060526542365550995,0.013759879395365715,0.27745312452316284,-0.0636558085680008,-0.05619638413190842,-0.12167388200759888,0.04278143122792244,0.0048865326680243015,0.08231204003095627,-0.15672914683818817,-0.0714883953332901,-0.06754972040653229,-0.03243561461567879,-0.02906363271176815,-0.01586988940834999,-0.15306687355041504,-0.01216048002243042,-0.025581752881407738,0.05378623679280281,-0.004801033064723015,0.024962153285741806,0.1190754771232605,0.07276492565870285,0.1093234196305275,0.054804764688014984,-0.1198328509926796,-0.11898173391819,-0.03736415505409241,-0.0690588429570198,-0.011173972859978676,-0.04660148546099663,0.011348939500749111,-0.05788511782884598,0.1448701024055481,-0.06824467331171036,0.052887771278619766,-0.018050894141197205,-0.027720695361495018,-0.13752588629722595,0.34239378571510315,0.08519349992275238,0.023870591074228287,0.002805303316563368,0.051340438425540924,-0.000009226062502420973,0.11112886667251587,0.04783746600151062,-0.044112708419561386,0.19590505957603455,-0.12398187071084976,-0.07426051795482635,0.21603454649448395,0.023806992918252945,0.04459820315241814,0.09690874069929123,-0.26631611585617065,-0.3854587972164154,0.07150344550609589,0.053475406020879745,-0.04406385496258736,0.1377106010913849,-0.0343884713947773,-0.023611562326550484,-0.10018143802881241,-0.0388484001159668,-0.07083280384540558,-0.0037315364461392164,0.3933534324169159,0.33372262120246887,-0.24769698083400726,0.04867640882730484,-0.16643695533275604,-0.22812743484973907,0.09619525074958801,0.22064000368118286,-0.0910407155752182,0.1597975194454193,0.06519175320863724,0.16618864238262177,-0.03426728770136833,-0.10073178261518478,0.13423144817352295,0.1107972040772438,0.12346235662698746,0.05079914629459381,-0.03466958552598953,0.08157190680503845,-0.25168538093566895,-0.024352502077817917,-0.0005869289743714035,0.0745064914226532,-0.22322753071784973,-0.28988105058670044,0.016635451465845108,0.03369539976119995,-0.14637818932533264,-0.04084314405918121,0.0000664069812046364,0.18847423791885376,0.21249476075172424,0.11181548982858658,-0.09817669540643692,0.002966569969430566,0.14376503229141235,-0.26823875308036804,-0.09206027537584305,-0.13624116778373718,-0.050995875149965286,0.10792644321918488,0.08627872169017792,0.1777295023202896,-0.08482770621776581,0.17445865273475647,0.20895636081695557,0.08061525225639343,0.14503923058509827,0.34043315052986145,-0.2072671353816986,-0.011644515208899975,0.2626078128814697,0.06068088859319687,-0.02635156363248825,0.18870475888252258,-0.30220574140548706,-0.18546772003173828,-0.2626773416996002,-0.1509884148836136,-0.057434555143117905,-0.08510614186525345,0.4687597453594208,0.06325358152389526,0.1290387660264969,-0.1446821689605713,-0.030978331342339516,-0.08359066396951675,-0.40861937403678894,-0.13476641476154327,-0.20305107533931732,-0.02684197574853897,-0.129381000995636,-0.012556050904095173,0.2012663185596466,0.12808287143707275,-0.3705625832080841,0.06814392656087875,0.05560992658138275,0.1385381668806076,0.04946821182966232,0.001961121801286936,-0.07551320642232895,-0.45016852021217346,0.04758679121732712,0.5238871574401855,-0.10729397088289261,-0.4042988121509552,0.24444958567619324,-0.08154665678739548,-0.12330169230699539,0.20675794780254364,-0.010918719694018364,-0.35374805331230164,-0.14112234115600586,0.03235265612602234,0.10936591029167175,-0.2378600537776947,0.017904752865433693,-0.25272685289382935,-0.2786175608634949,0.1447679102420807,-0.11622493714094162,-0.0629824548959732,-0.09847725927829742,0.08331716805696487,0.042767155915498734,-0.027185462415218353,0.047621969133615494,0.04871115833520889,-0.05533476173877716,0.14208731055259705,-0.036104217171669006,-0.163494274020195,-0.06390263885259628,-0.10665334016084671,-0.2347905933856964,-0.006596982944756746,0.14932356774806976,-0.029292341321706772,0.06902856379747391,0.014003467746078968,0.03730902448296547,-0.026301555335521698,-0.17866018414497375,-0.18444059789180756,-0.3330650329589844,0.031245138496160507,0.028655851259827614,-0.09690166264772415,-0.006384111475199461,0.06955594569444656,-0.0675010085105896,0.056814536452293396,0.25432077050209045,0.07058604061603546,-0.035895686596632004,-0.3563959300518036,-0.45430922508239746,0.16412927210330963,-0.3921814262866974,0.12833049893379211,0.14997243881225586,0.025148460641503334,0.044678520411252975,0.39619287848472595,0.16552972793579102,-0.24936646223068237,0.1924898475408554,-0.084715835750103,-0.1829507201910019,-0.11976440250873566,0.1754801869392395,-0.3441494405269623,-0.1554080694913864,-0.13753192126750946,0.14643524587154388,-0.11479690670967102,-0.11766546219587326,0.05263562500476837,0.17758986353874207,-0.06437806785106659,0.041639018803834915,-0.4368697702884674,0.12395907938480377,0.0328591987490654,-0.048862673342227936,0.20686817169189453,0.044160474091768265,-0.64654940366745,0.09621372818946838,0.01159529760479927,-0.0726364403963089,0.12060023099184036,0.38343438506126404,0.36713841557502747,0.07086322456598282,-0.00831487774848938,0.047338422387838364,0.13533908128738403,0.10663463920354843,0.1633998453617096,-0.1022179126739502,-0.0800313651561737,-0.05137515813112259,-0.0872756838798523,-0.15129996836185455,0.311510294675827,0.072700135409832,0.010857033543288708,0.033873528242111206,-0.05054810643196106,-0.21974851191043854,-0.12738037109375,0.08938931673765182,0.05411665886640549,0.07925215363502502,0.08661501854658127,0.05181865394115448,-0.12565088272094727,0.05997735261917114,-0.0005191995878703892,-0.04392086714506149,-0.018903154879808426,0.007806194014847279,-0.11540105193853378,0.07970874756574631,0.07111238688230515,0.06992869824171066,0.13913072645664215,-0.08393777906894684,0.23791135847568512,0.03526747599244118,-0.040519606322050095,-0.06413071602582932,0.033550363034009933,0.08480480313301086,0.15953171253204346,0.04057534411549568,-0.030364003032445908,0.06293385475873947,-0.06727912276983261,-0.5678025484085083,-0.2150997668504715,-0.050287239253520966,-0.12074524909257889,0.00620047515258193,-0.20031245052814484,0.1864413470029831,-0.13350501656532288,-0.023834895342588425,-0.019914396107196808,-0.20208865404129028,-0.11046689003705978,0.03272648900747299,-0.35357189178466797,-0.016136324033141136,0.03608774021267891,-0.10998117178678513,-0.029473023489117622,0.01957557536661625,-0.07066495716571808,0.08690071105957031,0.08401300013065338,0.08759120851755142,0.08601459860801697,-0.29539141058921814,0.08683079481124878,-0.05457429587841034,-0.18236704170703888,-0.12068542838096619,-0.05287764593958855,-0.27364909648895264,0.1440993696451187,0.04600949212908745,0.09323962777853012,0.06304770708084106,0.2665439248085022,-0.13416042923927307,0.04751196876168251,0.04752572253346443,-0.12922464311122894,0.028496555984020233,-0.2800807058811188,0.017108077183365822,0.026772834360599518,0.057573962956666946,-0.061547815799713135,0.18423093855381012,0.20641851425170898,-0.17351026833057404,-0.07465524971485138,-0.08992692828178406,-0.019793033599853516,0.12203245609998703,0.01146006677299738,-0.0253103319555521,-0.004148403648287058,0.04543273150920868,-0.11933490633964539,0.06933736056089401,-0.07917257398366928,0.14542147517204285,0.06638474017381668,-0.011684486642479897,0.10072316229343414,-0.17813342809677124,0.07234962284564972,0.18893760442733765,-0.044225774705410004,-0.02541378140449524,-0.032487329095602036,0.018279187381267548,-0.1877915859222412,-0.20607587695121765,-0.028696846216917038,-0.012299942784011364,0.10019969940185547,-0.10867422819137573,-0.1885569542646408,-0.2487795203924179,0.05670494958758354,-0.00443206075578928,0.013655532151460648,-0.0568804107606411,-0.045473769307136536,-0.2824500799179077,-0.305316686630249,0.008565879426896572,0.025517409667372704,-0.08831582218408585,-0.08709681779146194,0.5603423714637756,-0.41151872277259827,0.05987124890089035,0.05225445702672005,-0.01209835521876812,-0.07420241087675095,-0.45155051350593567,0.24739249050617218,-0.09277012944221497,0.03009192645549774,-0.07778248190879822,-0.04738108441233635,-0.08635344356298447,0.1762745976448059,-0.03676808997988701,-0.037497133016586304,-0.09340671449899673,0.03717556223273277,0.1305963695049286,0.16869540512561798,0.027474569156765938,0.05860218033194542,0.06142835319042206,-0.1040765643119812,-0.039901003241539,-0.09717496484518051,0.043324608355760574,0.09048077464103699,-0.08033778518438339,0.07667216658592224,0.2973460853099823,-0.07479012757539749,-0.0011388660641387105,-0.012516501359641552,-0.09682068228721619,0.06404095888137817,0.17401950061321259,-0.1384497731924057,0.016314087435603142,0.030682804062962532,0.07469185441732407,-0.0502004474401474,0.1776777058839798,0.27177131175994873,0.038154225796461105,-0.12157271057367325,-0.042796723544597626,0.11873044073581696,-0.5302005410194397,0.2664468586444855,-0.012337693013250828,-0.15544246137142181,-0.13188938796520233,0.08831184357404709,0.016251346096396446,-0.2984507083892822,-0.28104367852211,0.09588444977998734,-0.009288257919251919,-0.02233547903597355,0.11337322741746902,-0.011339792981743813,-0.005250796675682068,-0.08672430366277695,-0.1024431511759758,-0.1913803070783615,0.33948394656181335,-0.1427273154258728,0.03553783893585205,0.10442391037940979,-0.11376597732305527,-0.0206092968583107,-0.3396899104118347,-0.019670410081744194,0.048728182911872864,0.10141438245773315,0.13419370353221893,0.0973205491900444,-0.0854857861995697,0.10742104053497314,-0.12816378474235535,-0.15200059115886688,-0.079454205930233,-0.29239216446876526,0.2204505354166031,0.08109207451343536,0.13034917414188385,0.105401910841465,0.17605142295360565,0.27422818541526794,-0.1639208346605301,-0.08724916726350784,0.13513775169849396,0.03882794454693794,0.05469478666782379,-0.19882631301879883,-0.3281438946723938,-0.1210394874215126,0.14743326604366302,0.038556378334760666,0.07635105401277542,-0.05726258456707001,-0.315371572971344,0.09408207982778549,0.03093266859650612,0.18014350533485413,0.06976329535245895,0.13032111525535583,-0.11105559021234512,0.04014076292514801,-0.054188985377550125,-0.054214850068092346,-0.07043053209781647,-0.2568622827529907,-0.11073850095272064,0.19206133484840393,0.09368173032999039,0.14395315945148468,0.04864955693483353,-0.018939027562737465,0.02089330181479454,0.010562828741967678,0.13983511924743652,0.16293269395828247,0.041135866194963455,0.05294903367757797,-0.0895073264837265,-0.06278282403945923,0.03131774440407753,0.08782199770212173,0.03729536384344101,0.09591934084892273,0.5321228504180908,-0.004907692316919565,0.059518638998270035,0.02336932346224785,0.04515347629785538,0.05494123697280884,-0.00302955717779696,-0.05040040984749794,0.12952297925949097,0.04428315535187721,-0.14785785973072052,0.027642251923680305,0.09683676809072495,-0.08759664744138718,0.1269531100988388,0.056513939052820206,-0.06354208290576935,-0.0840357318520546,0.07374155521392822,-0.09722170233726501,-0.1576458364725113,-0.1549862176179886,0.03236369043588638,-0.08395886421203613,0.08091862499713898,0.023183312267065048,-0.0632382184267044,-0.06801903992891312,-0.05546960234642029,-0.0025691052433103323,0.19094794988632202,0.0523606576025486,-0.10238698124885559,-0.01343803945928812,0.05287230759859085,0.2346329689025879,-0.4852953553199768,-0.10035017132759094,-0.011629310436546803,0.038226574659347534,0.112314373254776,-0.04693976789712906,-0.02940729819238186,-0.049542006105184555,-0.013435140252113342,-0.138682022690773,-0.044704265892505646,-0.02463092841207981,0.28594595193862915,0.042472004890441895,0.10140461474657059,0.10883521288633347,-0.033657874912023544,0.11447937786579132,0.21338866651058197,-0.08330805599689484,0.10183128714561462,-0.009618131443858147,-0.015605272725224495,0.09078669548034668,-0.09516913443803787,-0.18984220921993256,0.11565317958593369,-0.009772440418601036,0.025111403316259384,0.07935942709445953,0.31353646516799927,0.045708492398262024,-0.09627494215965271,-0.08804810792207718,0.012618646025657654,0.007020049262791872,0.05380283668637276,0.07409945875406265,-0.08477959781885147,-0.06297896057367325,-0.08883021771907806,-0.10576629638671875,-0.4905138909816742,-0.06690780073404312,-0.02087746001780033,0.13786786794662476,0.09259336441755295,0.14192605018615723,0.6494715809822083,-0.14522835612297058,0.1472734957933426,0.08798301964998245,0.168977752327919,0.08777381479740143,-0.08203687518835068,0.023917801678180695,-0.04939080774784088,-0.16676408052444458,-0.08996987342834473,-0.1608525812625885,-0.41353440284729004,-0.04296211153268814,0.09384968876838684,0.1286504715681076,0.09375739097595215,0.17294731736183167,0.040298111736774445,0.12156660109758377,-0.034520890563726425,0.250087171792984,-0.1365184783935547,-0.06618569791316986,