{"version":"0.7.0","metadata":{"date":{"year":2026,"month":7,"day":7,"hour":5,"minute":54,"second":11},"loudness":-18.784445829954915,"gain":0.45644253722431993,"name":"bassman-v2-clean+fuzz-cab","modeled_by":"delt","gear_type":"amp_cab","gear_make":"T3K-Null","gear_model":"T3K-Null","tone_type":"bass","trainer":"TONE3000"},"architecture":"SlimmableContainer","config":{"submodels":[{"max_value":0.5,"model":{"version":"0.7.0","metadata":{"date":{"year":2026,"month":7,"day":7,"hour":5,"minute":54,"second":9},"loudness":-18.570435591307454,"gain":0.4479378281526943},"architecture":"WaveNet","config":{"layers":[{"input_size":1,"condition_size":1,"head":{"out_channels":1,"kernel_size":16,"bias":true},"channels":3,"kernel_sizes":[6,6,6,6,6,6,6,6,6,6,6,6,6,6,15,15,6,6,6,6,6,6,6],"dilations":[1,3,7,17,41,101,239,1,3,7,17,41,101,239,1,13,1,3,7,17,41,101,239],"activation":[{"type":"LeakyReLU","negative_slope":0.01},{"type":"LeakyReLU","negative_slope":0.01},{"type":"LeakyReLU","negative_slope":0.01},{"type":"LeakyReLU","negative_slope":0.01},{"type":"LeakyReLU","negative_slope":0.01},{"type":"LeakyReLU","negative_slope":0.01},{"type":"LeakyReLU","negative_slope":0.01},{"type":"LeakyReLU","negative_slope":0.01},{"type":"LeakyReLU","negative_slope":0.01},{"type":"LeakyReLU","negative_slope":0.01},{"type":"LeakyReLU","negative_slope":0.01},{"type":"LeakyReLU","negative_slope":0.01},{"type":"LeakyReLU","negative_slope":0.01},{"type":"LeakyReLU","negative_slope":0.01},{"type":"LeakyReLU","negative_slope":0.01},{"type":"LeakyReLU","negative_slope":0.01},{"type":"LeakyReLU","negative_slope":0.01},{"type":"LeakyReLU","negative_slope":0.01},{"type":"LeakyReLU","negative_slope":0.01},{"type":"LeakyReLU","negative_slope":0.01},{"type":"LeakyReLU","negative_slope":0.01},{"type":"LeakyReLU","negative_slope":0.01},{"type":"LeakyReLU","negative_slope":0.01}],"bottleneck":3,"head1x1":{"active":false,"out_channels":1,"groups":1},"layer1x1":{"active":true,"groups":1},"groups_input":1,"groups_input_mixin":1,"conv_pre_film":{"active":false,"shift":true,"groups":1},"conv_post_film":{"active":false,"shift":true,"groups":1},"input_mixin_pre_film":{"active":false,"shift":true,"groups":1},"input_mixin_post_film":{"active":false,"shift":true,"groups":1},"activation_pre_film":{"active":false,"shift":true,"groups":1},"activation_post_film":{"active":false,"shift":true,"groups":1},"layer1x1_post_film":{"active":false,"shift":true,"groups":1},"head1x1_post_film":{"active":false,"shift":true,"groups":1},"gating_mode":["none","none","none","none","none","none","none","none","none","none","none","none","none","none","none","none","none","none","none","none","none","none","none"],"secondary_activation":[null,null,null,null,null,null,null,null,null,null,null,null,null,null,null,null,null,null,null,null,null,null,null],"slimmable":null}],"head":null,"head_scale":0.006701124642486677},"weights":[-0.561034619808197,-1.1951673030853271,-0.6968561410903931,-0.056810181587934494,-0.2877163589000702,0.3924981355667114,-0.3865131437778473,-0.5015572905540466,-0.1827310174703598,-0.12138235569000244,-0.43298986554145813,0.4919224679470062,-0.5302085876464844,-0.8001322746276855,-0.2594679296016693,-0.12209338694810867,-0.27948904037475586,0.3913973569869995,-0.2747480273246765,-0.7413156032562256,-0.13658244907855988,-0.0028056649025529623,0.3843313753604889,-0.3921602964401245,0.25566574931144714,0.668271541595459,0.3049803078174591,0.09746702760457993,0.27685022354125977,-0.39174938201904297,0.41769683361053467,0.6290175914764404,0.41535407304763794,0.09022088348865509,0.3081222474575043,-0.26036322116851807,0.5117172002792358,0.7048506736755371,0.2899106740951538,0.00155484932474792,0.06835424154996872,0.04834475740790367,0.11083118617534637,0.04098239913582802,-0.013046858832240105,-0.004374329000711441,0.14960892498493195,0.04538056254386902,0.15269163250923157,0.10069669038057327,0.025019904598593712,-0.004902717191725969,0.09370923787355423,0.07850421220064163,0.11031479388475418,0.03121718019247055,-0.017211267724633217,-0.005157044157385826,0.010271717794239521,0.06860912591218948,0.4148283302783966,0.08463899046182632,0.06747718155384064,-0.9564040303230286,0.17668625712394714,-0.01592172309756279,0.02967565879225731,0.024945182725787163,0.16367317736148834,-0.5115793943405151,0.9997212290763855,-0.15053685009479523,0.1837839037179947,-0.3895457684993744,-0.0982128456234932,-0.14753463864326477,-0.08518616110086441,0.1506408005952835,0.028614478185772896,0.038265980780124664,-0.19954752922058105,-0.14835090935230255,0.06113775819540024,0.11698592454195023,0.03198189660906792,-0.11803688853979111,-0.024040022864937782,0.01668647862970829,0.17781099677085876,0.07229730486869812,0.25359123945236206,0.07338827848434448,-0.15478982031345367,0.23783372342586517,0.18494680523872375,0.1506832391023636,0.026364270597696304,0.4878344237804413,-0.3285706043243408,-0.1749127358198166,-0.36940404772758484,-0.40957844257354736,-0.054647013545036316,-0.24931302666664124,-0.1529945731163025,-0.17494167387485504,0.01807958073914051,-0.11373271048069,0.19497759640216827,0.20861391723155975,-0.5085782408714294,-0.24241705238819122,-0.06443794071674347,-0.42095741629600525,-0.09487243741750717,0.14369209110736847,-0.12912440299987793,-0.1977773904800415,0.2309587448835373,-0.11106681078672409,0.2994120717048645,-0.0313212051987648,-0.2506002187728882,0.06342007219791412,0.142892986536026,-0.03538784757256508,-0.05581443011760712,0.579987645149231,-0.16503670811653137,0.2991897761821747,0.27212509512901306,0.16615474224090576,-0.11157363653182983,0.4157421588897705,0.8147739171981812,-0.2812342643737793,0.10547688603401184,-0.70576012134552,-0.12359125912189484,0.26484060287475586,-0.0407346747815609,-0.396314412355423,-0.7951822876930237,0.0678425058722496,0.3418523073196411,0.09836406260728836,0.30270445346832275,-0.05297572538256645,-0.0809231773018837,-0.1025119498372078,-0.1163969412446022,0.11265721917152405,0.19319061934947968,0.06310451030731201,0.031632013618946075,0.056587718427181244,0.3370886445045471,-0.166833758354187,0.03026234172284603,0.021424800157546997,0.021864453330636024,0.014856857247650623,-0.010886071249842644,0.0038682057056576014,0.41815510392189026,-0.30165931582450867,-0.24310559034347534,-0.39959797263145447,-0.13675424456596375,0.15298296511173248,0.22183552384376526,0.14056791365146637,0.2530735433101654,0.06021367385983467,0.12613481283187866,0.006087651941925287,-0.23543456196784973,-0.001899599563330412,-0.2698569595813751,-0.352568656206131,0.15235191583633423,0.09486526995897293,-0.3087676465511322,-0.010850598104298115,0.07399692386388779,-0.09485448151826859,-0.03405074402689934,-0.009814484044909477,-0.06754571944475174,-0.013967667706310749,-0.21496853232383728,-0.2801162600517273,0.19533410668373108,0.08326544612646103,-0.053609829396009445,0.1343832165002823,0.27282145619392395,0.26741328835487366,0.042261455208063126,0.04400254040956497,-0.4495600461959839,-0.04161810874938965,-0.05301614850759506,0.2571382522583008,-0.020963657647371292,0.20289236307144165,-0.4175660312175751,-0.14807604253292084,-0.3392956554889679,-0.606876015663147,-0.10994745790958405,-0.01490557100623846,-0.029024315997958183,-0.576336681842804,0.19687023758888245,0.5512814521789551,0.13864821195602417,-0.007120291702449322,0.4547227919101715,-0.26541295647621155,-0.17843744158744812,-0.14424198865890503,-0.14213137328624725,-0.09104006737470627,0.6569172739982605,-0.1833256632089615,-0.0013578147627413273,0.09675411880016327,-0.24651478230953217,-0.13988211750984192,0.005398184061050415,0.2718343436717987,0.0649527981877327,0.11771271377801895,0.29857319593429565,-0.036851219832897186,-0.73890221118927,-0.06941837817430496,-0.09217377007007599,-0.027220344170928,0.020649107173085213,-0.09013213962316513,-0.34511709213256836,-0.01671604998409748,0.10607884079217911,-0.005053701810538769,0.06597590446472168,0.11644779145717621,-0.10507655143737793,0.07026243209838867,0.03365718945860863,0.027460472658276558,0.047971729189157486,0.03700876981019974,-0.12539581954479218,0.003649994032457471,0.01992802880704403,-0.13715451955795288,-0.15164589881896973,0.06850627809762955,0.08703520148992538,-0.009578056633472443,-0.2929413616657257,-0.09292460232973099,-0.1556166559457779,-0.08773063123226166,0.05424629524350166,0.02259758673608303,0.18234044313430786,0.1159709170460701,-0.1370919644832611,0.3333800137042999,-0.24861294031143188,0.07946756482124329,-0.1633731722831726,0.061129435896873474,-0.3773480951786041,0.06659235805273056,-0.49209830164909363,-0.6372897624969482,0.5250111222267151,-0.42498013377189636,-0.032576922327280045,0.13218896090984344,0.017757222056388855,0.505288302898407,0.17478914558887482,0.25020062923431396,-0.2696334719657898,-0.2999204993247986,0.42516201734542847,0.26382389664649963,0.29876264929771423,0.021067069843411446,0.243478462100029,0.3818090856075287,0.20136074721813202,0.256999671459198,0.1964184194803238,0.09322579950094223,0.17071019113063812,0.19404838979244232,0.22511586546897888,-0.30802446603775024,-0.040548037737607956,-0.31031158566474915,-0.06558116525411606,-0.3504534959793091,0.3877123296260834,-0.14893513917922974,-0.0290687195956707,-0.05688375607132912,-0.08261588960886002,0.0007736917468719184,-0.5200088620185852,-0.06265859305858612,-0.05851716548204422,-0.04240240901708603,-0.06776724010705948,-0.0683918371796608,-0.046163737773895264,0.13717089593410492,0.055160507559776306,0.04451813921332359,0.10038860142230988,0.09326755255460739,-0.26840871572494507,-0.22767600417137146,-0.24125385284423828,-0.23043009638786316,-0.21284383535385132,-0.31529122591018677,0.04251207038760185,-0.22153662145137787,-0.0997907742857933,-0.020616259425878525,-0.011036773212254047,-0.018537232652306557,-0.20594839751720428,0.254734605550766,0.2455909252166748,0.22016459703445435,0.1971621960401535,0.31006497144699097,-0.04880034178495407,-0.17771247029304504,-0.1338067203760147,0.27398738265037537,-0.21335777640342712,0.2247055470943451,0.3323996365070343,0.813039243221283,0.3516789972782135,-0.2633783519268036,-0.23133884370326996,-0.014805826358497143,0.5529124140739441,0.6204950213432312,0.04047694802284241,-0.11786039918661118,-0.2499113827943802,-0.06396877020597458,0.16793334484100342,0.050170693546533585,0.060660477727651596,0.19344975054264069,0.21378947794437408,0.09991062432527542,-0.1033255085349083,-0.17404882609844208,-0.16149379312992096,-0.03200275078415871,0.007537783123552799,0.10033001750707626,-0.07133026421070099,0.0020449471194297075,-0.049079567193984985,0.07354193925857544,0.20729438960552216,0.283521831035614,-0.03819698840379715,-0.051674749702215195,0.16216039657592773,0.1328226625919342,0.13261520862579346,0.3883345425128937,-0.09136013686656952,0.029505090788006783,-0.02983616665005684,-0.21000638604164124,-0.3178042769432068,-0.2445114552974701,-0.34259334206581116,0.020499350503087044,-0.17246872186660767,-0.065712109208107,-0.1040787547826767,-0.2912777364253998,-0.6829729080200195,0.021197179332375526,-0.06688804924488068,-0.12032166868448257,-0.07185183465480804,-0.03192972019314766,-0.4872297942638397,-0.01343853771686554,-0.007121128961443901,0.177404522895813,0.2114311009645462,0.023705285042524338,0.2830349802970886,-0.004916770849376917,0.06755796819925308,0.06001725420355797,0.03576050326228142,0.03254610300064087,-0.3858332931995392,-0.20741510391235352,0.2758166491985321,0.22631491720676422,-0.11076346784830093,-0.13044621050357819,-0.3456832468509674,0.231651172041893,-0.004179662559181452,0.11259401589632034,0.19294998049736023,-0.1924036145210266,0.1607440710067749,-0.3171082139015198,-0.4005461037158966,0.5197136402130127,-0.37019848823547363,-0.07919121533632278,-0.30895522236824036,0.06848163157701492,0.04909053072333336,-0.04333237186074257,-0.04469560086727142,-0.23006105422973633,-0.12338406592607498,0.0326969251036644,0.04775753989815712,0.014739527367055416,-0.16296148300170898,-0.6542155146598816,0.2548941969871521,0.0046140593476593494,0.015080282464623451,0.014179760590195656,-0.11871486902236938,0.05792715772986412,0.49875232577323914,-0.00749261025339365,-0.0012327749282121658,0.01852266676723957,0.009739297442138195,-0.026946203783154488,-0.47140416502952576,0.00741142313927412,0.01422820147126913,-0.014277761802077293,-0.064675472676754,0.5045821666717529,0.33026352524757385,0.005295411217957735,-0.002073038136586547,-0.014259201474487782,0.028062529861927032,0.014536507427692413,-0.42567208409309387,-0.014280816540122032,-0.0011010458692908287,0.0006654575699940324,-0.019817575812339783,0.12137800455093384,0.1794186681509018,-0.019389787688851357,0.010662087239325047,0.002540404675528407,0.11570457369089127,-0.4378989338874817,0.031025532633066177,0.019825009629130363,-0.0005596650880761445,-0.00624871626496315,0.01372780092060566,-0.05083712562918663,0.35770341753959656,0.33069875836372375,-0.056494854390621185,0.251028835773468,-0.6070021390914917,-0.1290106624364853,-0.6819765567779541,0.611387312412262,0.3837011456489563,0.23629529774188995,-0.05881958827376366,-0.0382126159965992,-0.6747311353683472,-0.40144452452659607,0.21583248674869537,0.1498754620552063,0.20674331486225128,-0.18112123012542725,0.018355755135416985,-0.20595285296440125,-0.1460975557565689,-0.03904380276799202,-0.008762810379266739,0.21339966356754303,0.1758268028497696,-0.2251220941543579,-0.134787455201149,-0.12852594256401062,-0.13579000532627106,0.06645700335502625,-0.0858321562409401,0.017457734793424606,-0.25746268033981323,-0.11251001805067062,0.061793286353349686,0.2437058985233307,0.16222591698169708,0.10944155603647232,0.24119295179843903,0.16401824355125427,0.12455002218484879,0.012552275322377682,-0.0497877262532711,0.043618254363536835,0.02863648347556591,-0.05748164281249046,0.06596238911151886,0.19486916065216064,-0.08416864275932312,0.20264123380184174,0.13773983716964722,0.02555842325091362,0.15516719222068787,0.06612445414066315,-0.002593955025076866,-0.0018869689665734768,0.08396654576063156,0.10534530133008957,-0.0041623301804065704,-0.29093313217163086,-0.16298118233680725,-0.1475066989660263,0.14821721613407135,-0.025809891521930695,-0.15840229392051697,-0.048637714236974716,-0.22732582688331604,0.10744830965995789,-0.026916461065411568,0.02106209471821785,0.006905583199113607,-0.4230530858039856,-0.2086056023836136,0.13128171861171722,-0.2072666585445404,-0.17080849409103394,0.1735754907131195,-0.6669428944587708,0.34840676188468933,0.04916898533701897,-0.026190536096692085,-0.43390652537345886,0.5111572742462158,-0.19526879489421844,-0.009794330224394798,0.20244336128234863,-0.06584220379590988,-0.33517879247665405,-0.1636435091495514,-0.21381482481956482,0.22803805768489838,-0.005307215731590986,-0.047424763441085815,0.032474614679813385,-0.05390629172325134,-0.08396203815937042,-0.22198569774627686,0.004303055349737406,0.06007204204797745,0.014434944838285446,-0.1347736120223999,-0.16523225605487823,-0.2507314383983612,-0.028025325387716293,0.04118708148598671,0.01202113926410675,0.07068935036659241,-0.10346820205450058,-0.42132633924484253,0.09981778264045715,0.09096010029315948,0.19735132157802582,0.09789368510246277,-0.24770516157150269,-0.41269463300704956,0.007067334372550249,0.14886344969272614,-0.06099953502416611,-0.1244703158736229,0.24430587887763977,0.18158109486103058,0.26020658016204834,0.12527872622013092,0.34496834874153137,0.4242425858974457,0.021160049363970757,0.08415455371141434,-0.0217603649944067,0.05130146071314812,0.04279832914471626,-0.058340512216091156,0.062072914093732834,-0.5161644816398621,0.0031508991960436106,-0.012246723286807537,0.10270730406045914,0.05400291085243225,0.13453787565231323,0.3642732799053192,0.04303137958049774,0.06898708641529083,-0.0555887334048748,0.09698643535375595,0.034335337579250336,-0.26701605319976807,0.13418947160243988,0.33111700415611267,0.02892911061644554,0.4027404189109802,0.003496787743642926,-0.07824870944023132,-0.35793036222457886,-0.1285967230796814,0.29797160625457764,0.13486003875732422,-0.6037343144416809,-0.05004502460360527,-0.2916099727153778,-0.0908769816160202,0.14527860283851624,-0.03504529222846031,0.43957796692848206,0.025848183780908585,0.0639466941356659,0.11125247925519943,-0.05381302908062935,0.04151271656155586,0.28446558117866516,0.3020644187927246,0.036129698157310486,0.0863809660077095,-0.05188220366835594,0.1929517686367035,0.34401702880859375,0.02344517409801483,-0.23755644261837006,-0.04388319328427315,-0.32423582673072815,-0.12646949291229248,-0.20408257842063904,-0.7449741363525391,0.005047330167144537,0.030770722776651382,-0.026448579505085945,0.03451751917600632,-0.10639476031064987,-0.3030543327331543,-0.004283890128135681,0.059551361948251724,0.24048100411891937,0.016374055296182632,0.17241637408733368,0.11144831776618958,0.014741091057658195,0.18018049001693726,0.09745772182941437,0.15405890345573425,0.12547892332077026,-0.23835210502147675,0.12676383554935455,0.22773663699626923,0.2207603007555008,0.20797865092754364,0.2345198690891266,-0.6575649380683899,-0.1662859171628952,0.0026555086951702833,-0.025670848786830902,-0.05301336199045181,-0.0751042291522026,0.21070677042007446,0.17811964452266693,0.24661843478679657,0.21788620948791504,0.027008427307009697,-0.013188406825065613,-0.36198654770851135,0.10523198544979095,-0.49369674921035767,0.8378541469573975,-0.05833244323730469,0.08352608978748322,0.4056529998779297,0.10819914191961288,0.36214718222618103,-0.19286423921585083,-0.6218318343162537,-0.2386890947818756,-0.8879813551902771,0.313764750957489,0.18560881912708282,-0.24601130187511444,-0.0878550112247467,0.6502987742424011,0.20687557756900787,-0.13572639226913452,-0.18653222918510437,-0.2863250970840454,-0.16086144745349884,-0.3047332763671875,0.20138654112815857,0.07189608365297318,0.1518324762582779,0.13952092826366425,-0.012102299369871616,0.13792377710342407,-0.42865192890167236,-0.06052440032362938,-0.014755584299564362,-0.06313415616750717,0.00041599516407586634,0.022280901670455933,0.04289437457919121,0.26440829038619995,0.346950888633728,0.16674725711345673,0.020227864384651184,-0.0059157246723771095,-0.20272259414196014,0.03255001828074455,-0.0050731985829770565,0.03928132727742195,0.018692705780267715,0.05400985851883888,-0.2787244915962219,-0.20277082920074463,-0.13826178014278412,-0.13362689316272736,-0.04364835098385811,0.05825778841972351,-0.48017749190330505,-0.0018380747642368078,-0.0059439255855977535,-0.09009626507759094,-0.11643507331609726,-0.11143708229064941,0.1671210527420044,0.035379648208618164,0.0233586635440588,0.06734737008810043,0.043335091322660446,0.1611950546503067,-0.011664370074868202,-0.044200874865055084,-0.12583954632282257,-0.011710348539054394,-0.018008258193731308,-0.19203506410121918,0.3880838453769684,0.5016016364097595,0.08638341724872589,0.6098266839981079,0.08038567751646042,0.1734188348054886,-0.08615441620349884,-0.2790166735649109,0.07351581007242203,0.588847279548645,0.5798990726470947,0.23126384615898132,0.5006005764007568,0.6514934301376343,0.24318140745162964,0.0806945264339447,0.15465489029884338,0.6933304071426392,-0.54317307472229,-0.22347842156887054,-0.22672419250011444,-0.2050328105688095,-0.12153452634811401,0.2872260808944702,0.006889331620186567,0.212508887052536,0.2459324151277542,0.13863800466060638,0.017861125990748405,-0.3576444983482361,0.39761996269226074,0.18130943179130554,0.05132405087351799,0.1478060483932495,0.16016317903995514,0.3225891888141632,-0.7857018113136292,0.15457141399383545,0.06286754459142685,0.08558772504329681,0.06794044375419617,-0.2835392653942108,-0.09272357821464539,-0.33625325560569763,-0.06270349025726318,0.04986172169446945,-0.07930030673742294,0.14617478847503662,0.18871837854385376,-0.11647926270961761,-0.14710170030593872,-0.30143189430236816,-0.056946367025375366,-0.0984024778008461,0.0548778735101223,0.12244191020727158,0.05248691141605377,-0.04295392334461212,0.01376880519092083,-0.0025189993903040886,0.34697648882865906,-0.032590240240097046,-0.14771625399589539,0.08206294476985931,0.03470102697610855,0.026780417189002037,0.08988434076309204,-0.20751427114009857,0.11835357546806335,-0.07853059470653534,-0.006582653149962425,-0.1324070543050766,-0.03529134765267372,0.31588491797447205,-0.05416613072156906,0.19921235740184784,-0.18099844455718994,-0.11427175998687744,0.02339773438870907,-0.30415570735931396,-0.18798677623271942,0.31769511103630066,-0.8566823601722717,0.4316690266132355,0.1811281144618988,0.5192156434059143,0.144802063703537,0.012106254696846008,-0.4613271653652191,0.6320208311080933,-0.5028218626976013,-0.0960620641708374,-0.025895962491631508,0.02054966241121292,0.11648144572973251,0.10927832126617432,-0.2525275647640228,0.03187858313322067,0.023242507129907608,-0.014377129264175892,-0.0427408404648304,-0.16183510422706604,-0.2052965611219406,0.11886641383171082,-0.18224398791790009,-0.30471256375312805,-0.2271248996257782,-0.022457508370280266,-0.07876640558242798,0.059437770396471024,-0.11362746357917786,-0.2156621515750885,-0.1442902684211731,0.18239976465702057,-0.2973640263080597,0.034007903188467026,0.19651688635349274,0.23714371025562286,0.13055555522441864,-0.2113799899816513,0.0060354843735694885,-0.08470256626605988,-0.07683025300502777,-0.06345553696155548,-0.004766214173287153,0.31040945649147034,-0.08922715485095978,-0.3176223337650299,-0.10785435140132904,0.050759196281433105,-0.12725000083446503,-0.07771651446819305,0.15621399879455566,0.15249961614608765,-0.13699419796466827,-0.36970776319503784,0.24899166822433472,0.06880570203065872,-0.07316694408655167,0.09684022516012192,0.2043837606906891,0.05308016017079353,-0.08029970526695251,-0.09911759197711945,-0.3441371023654938,0.3241257667541504,0.3791925013065338,0.025216342881321907,-0.6904593706130981,0.4140465557575226,0.23050935566425323,-0.09950917959213257,-0.014076548628509045,0.0021642118226736784,-0.052154894918203354,-0.6803183555603027,0.10993503779172897,-0.4053393602371216,-0.2039157897233963,-0.21415725350379944,-0.27731096744537354,-0.25466176867485046,0.043774332851171494,-0.006908572278916836,-0.028064806014299393,0.001009139814414084,0.10693211108446121,0.04811367020010948,-0.11172965914011002,0.013717330060899258,0.008545774966478348,-0.03473213315010071,-0.036590222269296646,0.019687866792082787,-0.4548874795436859,-0.010308925993740559,0.0808618888258934,0.09382136911153793,-0.08273588120937347,-0.07171529531478882,-0.07840082794427872,0.00390911428257823,-0.0376625582575798,0.039763081818819046,0.1599576622247696,-0.07629407942295074,-0.32529398798942566,-0.009741918183863163,-0.013299820013344288,-0.03950062394142151,-0.029833760112524033,0.11628784984350204,-0.5534072518348694,0.022963544353842735,0.14327378571033478,0.01667526550590992,-0.2132694572210312,-0.14837615191936493,-0.2200736403465271,-0.07519228756427765,0.07777244597673416,-0.31557130813598633,-0.19517157971858978,-0.054133545607328415,-0.003374239197000861,0.05158859118819237,-0.07718587666749954,0.2831757068634033,0.2028142660856247,-0.4197652041912079,-0.22823601961135864,-0.10211291909217834,-0.22967003285884857,-0.22429803013801575,0.4165380001068115,0.10085780918598175,-0.0854584276676178,-0.7619670629501343,0.3714303970336914,0.05422692745923996,0.3008330166339874,0.20640519261360168,0.36543816328048706,0.5032958388328552,-0.32998034358024597,-0.15331241488456726,0.6289056539535522,-0.5802783966064453,0.2934645414352417,0.00855640135705471,-0.10486345738172531,-0.12391209602355957,-0.14258091151714325,-0.14617601037025452,-0.3834204077720642,-0.040103890001773834,0.050205767154693604,-0.045010779052972794,-0.02318054996430874,-0.04885869473218918,-0.007432886864989996,0.11836998909711838,-0.041030239313840866,-0.05146399140357971,-0.22465211153030396,-0.4764353036880493,-0.7206727862358093,-0.5984827876091003,-0.062474869191646576,0.4341142773628235,-0.04817105829715729,-0.04613267257809639,0.03903433680534363,-0.11537989974021912,0.07986088842153549,0.13132546842098236,-0.11160368472337723,0.07977169752120972,-0.05329200625419617,-0.2206011712551117,-0.2593230903148651,-0.4277248978614807,-0.4899651110172272,-0.17188386619091034,-0.07201319187879562,-0.24875688552856445,-0.22461220622062683,-0.08940012007951736,-0.08526907861232758,0.158574178814888,0.1949467957019806,0.09959955513477325,0.14095725119113922,0.10476875305175781,0.014448601752519608,-0.2858109772205353,-0.4783827066421509,-0.4397009015083313,-0.11479119956493378,0.23379555344581604,0.031231189146637917,0.059979092329740524,0.0809992179274559,0.03705069422721863,0.039112623780965805,0.009508886374533176,-0.021151985973119736,-0.014050784520804882,0.02151923067867756,0.17154306173324585,0.3527412414550781,0.38542428612709045,0.2874753773212433,0.08880697935819626,-0.19258715212345123,0.04093356803059578,0.011473756283521652,0.02185351401567459,0.0024850822519510984,-0.04216010496020317,-0.07590703666210175,-0.04627528041601181,-0.12287744134664536,-0.027391809970140457,0.14742378890514374,0.22873005270957947,0.295771986246109,0.2501235902309418,0.11121850460767746,-0.07813942432403564,0.03884190693497658,0.08816839009523392,0.03937973827123642,-0.01808180660009384,-0.03900928422808647,-0.0453350730240345,-0.08885344117879868,-0.09173235297203064,-0.036380667239427567,0.049240801483392715,0.13654668629169464,0.2053973227739334,0.13263724744319916,-0.00685993954539299,-0.19445902109146118,-0.00019325711764395237,-0.03307878226041794,0.014868361875414848,-0.15010780096054077,-0.09040042012929916,-0.12018373608589172,-0.0393524207174778,-0.1239752247929573,0.025679342448711395,0.03842487931251526,0.052061181515455246,-0.06107719987630844,0.10014615207910538,-0.24138964712619781,0.03252776339650154,0.00202345778234303,-0.10581463575363159,0.047067366540431976,-0.04187893494963646,-0.07326773554086685,-0.016472099348902702,-0.36590927839279175,-0.0422779843211174,-0.08305957168340683,-0.22821210324764252,-0.0332297645509243,-0.02729887142777443,-0.009386410005390644,0.004890516400337219,0.1688939481973648,0.0835886225104332,0.08590187877416611,-0.04255876690149307,-0.04271535575389862,0.04478519782423973,-0.18859761953353882,-0.1636810302734375,0.0751781240105629,0.02344965562224388,0.030994947999715805,-0.03818768635392189,0.10915551334619522,0.12985211610794067,-0.1371992826461792,-0.022974934428930283,0.652582049369812,0.205265611410141,0.1620652675628662,-0.13660097122192383,0.1653817892074585,-0.2102552205324173,-0.6221559047698975,0.7582696080207825,-0.09241807460784912,0.06677799671888351,-0.11384856700897217,-0.30214306712150574,0.11482828855514526,-0.046813007444143295,0.14638149738311768,0.39956462383270264,0.10764450579881668,0.33836063742637634,-0.15251187980175018,-0.1869499236345291,0.1289358288049698,0.0021699261851608753,0.01766214706003666,-0.021260743960738182,-0.13725925981998444,0.10048802196979523,0.051278673112392426,-0.07914309203624725,-0.2813802659511566,0.07298477739095688,0.07039479166269302,-0.10795771330595016,-0.16929373145103455,0.3704148828983307,0.1722608357667923,0.41885435581207275,0.05137252062559128,-0.17615845799446106,0.47712501883506775,-0.12429869920015335,0.3297765851020813,-0.4393545389175415,-0.28761428594589233,0.17895403504371643,0.0292173121124506,-0.06921669095754623,0.11134954541921616,0.31823134422302246,0.28065526485443115,-0.09745973348617554,0.09598858654499054,0.16967909038066864,0.31116360425949097,0.34286466240882874,-0.018183300271630287,0.2657656967639923,0.17516060173511505,0.4558701813220978,0.4370451867580414,0.020826110616326332,0.14626899361610413,0.058602362871170044,0.10627926141023636,0.2855675220489502,0.16889333724975586,0.2368348091840744,0.13920609652996063,0.2804688811302185,0.10069015622138977,-0.047068577259778976,0.049593206495046616,-0.14350947737693787,-0.05917433649301529,-0.0980401262640953,0.004980040714144707,0.02197379060089588,-0.09186995029449463,-0.00788135826587677,0.02959851548075676,0.027743540704250336,-0.022793922573328018,0.03861112520098686,0.003461221931502223,-0.06446392089128494,-0.04896754398941994,-0.22063048183918,-0.17237426340579987,-0.09034480154514313,0.02361534908413887,0.005379125010222197,-0.06764048337936401,-0.09087029099464417,0.17142154276371002,-0.14865657687187195,-0.11069588363170624,0.10773208737373352,0.050096917897462845,0.13803738355636597,0.1261872798204422,0.06825213879346848,0.22885043919086456,-0.02182883583009243,-0.004538621753454208,-0.1522204428911209,-0.061683300882577896,-0.0764513835310936,-0.060986682772636414,-0.06534972041845322,-0.38479092717170715,-0.18423746526241302,-0.28043133020401,-0.12827768921852112,-0.30934083461761475,-0.07994294911623001,0.018634501844644547,0.010471692308783531,0.1991666704416275,0.0312521755695343,0.05134943872690201,-0.03843747824430466,0.001839498057961464,0.14805452525615692,0.02241336926817894,-0.070151686668396,0.020287999883294106,-0.04391426220536232,0.0873226448893547,0.030835136771202087,0.00949348509311676,0.29597920179367065,0.07338607311248779,0.24799327552318573,0.18984739482402802,0.08847513049840927,-0.03461003303527832,-0.04843701049685478,0.012594438157975674,-0.17165961861610413,0.1858474612236023,0.0724017471075058,-0.26311978697776794,0.0010454930597916245,0.012450696900486946,-0.13073715567588806,-0.022266622632741928,-0.10140722244977951,-0.0030588095542043447,-0.06950944662094116,0.08068469911813736,0.11940823495388031,0.11187953501939774,0.10878409445285797,-0.09998419880867004,0.22590789198875427,0.21143315732479095,0.05797334015369415,0.011645887047052383,-0.24166135489940643,0.5148226618766785,-0.4843433201313019,-0.21669209003448486,0.09119746834039688,0.021838122978806496,-0.15894682705402374,0.24539360404014587,0.23883935809135437,-0.5006837844848633,0.5459832549095154,-0.14653566479682922,0.22735847532749176,0.1338748186826706,0.2958611845970154,0.09548423439264297,-0.1975092738866806,-0.10730764269828796,-0.4846339225769043,-0.1499771922826767,0.03942463919520378,-0.40464410185813904,-0.43241211771965027,-0.40289801359176636,-0.0457904115319252,-0.0340103916823864,0.006207867059856653,0.23105575144290924,-0.016424328088760376,0.2339583784341812,0.40421268343925476,0.2680492103099823,0.04832614213228226,-0.08481546491384506,0.15812744200229645,-0.0008225931669585407,0.14440315961837769,-0.09253274649381638,0.015297180972993374,0.13499504327774048,0.2688104808330536,0.10151838511228561,-0.07742657512426376,-0.1538100689649582,0.07456225901842117,-0.0488070473074913,-0.11785074323415756,0.04001050069928169,-0.016013875603675842,0.0780799463391304,-0.14554116129875183,0.047534264624118805,-0.12059074640274048,0.15595805644989014,-0.06641290336847305,0.17150625586509705,-0.09133148193359375,-0.11693757772445679,0.045483049005270004,0.0685238465666771,0.01715017482638359,-0.4856047034263611,0.1849760264158249,0.23058345913887024,0.004589765798300505,-0.015174671076238155,0.0603257454931736,0.13455913960933685,0.2834335267543793,0.5785932540893555,-0.12349048256874084,0.2857153117656708,-0.07139188796281815,0.41946664452552795,-0.2012280374765396,0.2218691110610962,0.1613680124282837,0.1135258674621582,0.11011489480733871,0.041412353515625,-0.5423229336738586,-0.015636466443538666,-0.13931284844875336,0.15876524150371552,0.5903224349021912,0.5162870287895203,-0.18179570138454437,-0.23861712217330933,-0.16342224180698395,-0.16915413737297058,-0.3045697510242462,-0.09616932272911072,-0.3731372058391571,-0.706278920173645,-0.6892220973968506,-0.6108879446983337,-0.7751891613006592,-0.06952919811010361,-0.25406816601753235,-0.08256027847528458,-0.23058705031871796,-0.42929741740226746,-0.12582406401634216,-0.2946580946445465,0.045090675354003906,-0.034129682928323746,-0.029167339205741882,-0.10277124494314194,0.07891637831926346,0.08126465231180191,0.03216876834630966,-0.09142935276031494,-0.03231048583984375,0.07701089233160019,0.024573642760515213,0.1501898169517517,0.0580633208155632,0.03160141780972481,-0.14817611873149872,-0.2122214138507843,-0.093623585999012,0.19534669816493988,0.0031304331496357918,0.16393889486789703,0.1776648610830307,-0.18828365206718445,0.11579404771327972,0.18135294318199158,0.11515958607196808,-0.008977090939879417,-0.08401376754045486,0.0667368471622467,0.2212890237569809,-0.19058695435523987,0.023618530482053757,0.05052412301301956,0.0958351418375969,-0.008316168561577797,-0.05062146484851837,-0.09976732730865479,-0.08032974600791931,0.05232066661119461,0.14415380358695984,-0.12350219488143921,-0.0166734978556633,-0.033602576702833176,-0.11184851080179214,0.1723693311214447,0.19218353927135468,-0.9639679789543152,-0.3478738069534302,0.22844982147216797,0.24253904819488525,0.0879630371928215,0.452785849571228,-0.0885445773601532,0.035635896027088165,-0.05252543464303017,-0.25117379426956177,-0.033563610166311264,-0.3221452832221985,-0.1352737694978714,0.09138918668031693,-0.5499616265296936,-0.05869234725832939,-0.1060757264494896,-0.009229791350662708,0.1740250587463379,-0.1285039484500885,0.7205437421798706,0.021416880190372467,-0.1387915015220642,-0.041597794741392136,0.03334084525704384,-0.03325960412621498,-0.3179241716861725,-0.027324669063091278,-0.03405705466866493,0.11022529006004333,0.09700806438922882,0.26205480098724365,-0.021585196256637573,0.02596583031117916,0.00799244549125433,-0.0404135100543499,0.21756328642368317,1.1614619493484497,-0.0810941532254219,0.09037317335605621,0.04600704833865166,0.028772441670298576,0.21539156138896942,-0.2753733992576599,0.02878016233444214,0.07721540331840515,-0.04506612941622734,0.11999322474002838,0.013605128042399883,-0.03272981941699982,0.07429476082324982,0.01855733059346676,0.0007348335930146277,-0.003938301932066679,0.027932774275541306,-0.05735856667160988,-0.0631076842546463,-0.0008558273548260331,-0.05943363904953003,0.03311513364315033,0.007875852286815643,-0.010244095697999,0.07657966017723083,0.19545210897922516,0.04043957591056824,0.00953437015414238,-0.04865434765815735,-0.2949484586715698,0.005840832367539406,-0.1723836064338684,-0.2518661320209503,0.051147233694791794,-0.6268604397773743,0.8611384034156799,0.03132745251059532,-0.21326538920402527,0.5331863760948181,0.09634682536125183,0.06460044533014297,0.1273166537284851,-0.002138720592483878,-0.12210595607757568,-0.3094640374183655,-0.05437002703547478,-0.19318324327468872,-0.1468859314918518,-0.819415271282196,0.08163263648748398,0.20056156814098358,0.21654027700424194,0.12230344116687775,0.014974701218307018,-0.12621988356113434,0.2176082730293274,0.3126237988471985,0.3199473023414612,0.4360177516937256,0.5455450415611267,-0.22344347834587097,-0.15196573734283447,-0.25181081891059875,-0.43371111154556274,-0.2263609915971756,-0.07710900157690048,0.04727587848901749,-0.01436091773211956,-0.21546268463134766,-0.11314866691827774,-0.07536030560731888,-0.3035857677459717,0.37431734800338745,-0.02650243230164051,-0.03615834563970566,0.08875317126512527,0.16842645406723022,0.05924886092543602,0.0797586664557457,-0.04868206009268761,-0.06950350850820541,-0.0845068022608757,-0.12930789589881897,-0.14356215298175812,0.1862359195947647,-0.03857695683836937,0.005471222568303347,0.10193359851837158,0.38789960741996765,0.16576576232910156,-0.16116391122341156,0.05970170721411705,0.01897236332297325,0.38282686471939087,0.10286398231983185,0.22705809772014618,-0.13289590179920197,0.10764172673225403,0.19204071164131165,-0.046693477779626846,0.3084855377674103,-0.13942117989063263,0.016877055168151855,0.2684665024280548,-0.08478668332099915,-0.6115515232086182,0.39648404717445374,-0.6446371674537659,0.41963663697242737,-0.390632688999176,-0.1725536286830902,-0.09363666921854019,-0.5129494667053223,0.03743894770741463,-0.5729596614837646,-0.15259452164173126,-0.1379031538963318,0.04492364451289177,-0.2434360682964325,-0.025504110381007195,-0.05747140944004059,0.16401317715644836,0.11821252852678299,-0.07412396371364594,0.10696046054363251,0.26781606674194336,-0.058685749769210815,0.05747849866747856,0.05425666272640228,-0.226933091878891,-0.05590842664241791,-0.08506838232278824,-0.6885785460472107,-0.08303550630807877,-0.18360857665538788,0.01186459418386221,-0.28900057077407837,-0.22555457055568695,-0.009330552071332932,0.17434871196746826,0.07707040011882782,0.16628648340702057,-0.25589945912361145,-0.27969709038734436,0.13306637108325958,-0.1289324313402176,-0.07386265695095062,-0.03810742124915123,-0.10805198550224304,0.10654375702142715,-0.21000105142593384,0.05175437778234482,0.12225013971328735,-0.013614146038889885,0.15694107115268707,0.10219419747591019,0.1378905177116394,-0.1186787411570549,-0.18478940427303314,0.001985930372029543,0.2282126247882843,0.20573322474956512,-0.1384473443031311,0.062024448066949844,0.0623709075152874,0.10647579282522202,0.2557138204574585,0.002278572879731655,0.16712456941604614,0.07235459983348846,0.0912824422121048,0.029557453468441963,0.011056337505578995,-0.1522638350725174,-0.02391667850315571,-0.42278751730918884,0.1489175260066986,0.05205300822854042,0.5375734567642212,-0.6548524498939514,0.3976123034954071,0.2806558907032013,0.25426435470581055,0.10538706183433533,-0.20042109489440918,-0.08443596959114075,-0.4507332146167755,-0.014065069146454334,0.0317445769906044,0.03135218843817711,0.06855633109807968,0.007244456093758345,0.08604548871517181,-0.022799916565418243,0.021092969924211502,-0.020235616713762283,0.007653939072042704,0.07858698815107346,0.008374039083719254,-0.09058929234743118,0.05017714947462082,-0.09405580163002014,0.06548880785703659,-0.03279055282473564,0.06908489018678665,0.026939580217003822,0.06950275599956512,-0.008771367371082306,0.11149322241544724,-0.14663061499595642,-0.174775168299675,-0.10828250646591187,-0.162528857588768,-0.07118406891822815,-0.021020250394940376,0.012658964842557907,-0.08993376791477203,-0.0638604685664177,-0.2671591639518738,-0.008334060199558735,0.008023207075893879,-0.013218633830547333,-0.05743458494544029,0.00011068857565987855,-0.034869059920310974,0.02053637057542801,-0.1913892924785614,-0.03159218281507492,0.018116969615221024,-0.015324936248362064,-0.13096626102924347,-0.3190213143825531,-0.3336866497993469,-0.23467569053173065,0.020014049485325813,0.0696362778544426,-0.05339140072464943,-0.18108932673931122,-0.3468087315559387,-0.08237496763467789,0.0289118904620409,0.002116427756845951,0.37057292461395264,0.07011295855045319,-0.019645672291517258,-0.1407880038022995,0.1408626139163971,0.004628207068890333,0.0559324212372303,-0.6783660054206848,0.11187703907489777,1.2663921117782593,-0.3612038791179657,0.14551812410354614,0.36030182242393494,0.6064102053642273,-0.17226946353912354,0.15754736959934235,-0.027878539636731148,0.07815983891487122,0.05434037372469902,-0.02719508670270443,0.244578018784523,0.13860996067523956,0.09889329969882965,-0.08580047637224197,-0.13348129391670227,0.05341026559472084,0.16491331160068512,-0.17136354744434357,0.25083813071250916,-0.12918789684772491,0.11675555258989334,0.22962068021297455,0.02604920230805874,-0.26425889134407043,0.008055399172008038,-0.01905142143368721,0.03983839228749275,0.031696684658527374,-0.03628862276673317,-0.1430440992116928,-0.24229133129119873,0.06162337586283684,0.0505450963973999,-0.032208796590566635,-0.060046419501304626,0.2071034461259842,-0.12598422169685364,0.08146265149116516,0.0029795500449836254,-0.1278330236673355,-0.09812548756599426,0.3189246654510498,-0.08683986216783524,-0.04884445294737816,0.035932011902332306,-0.024933015927672386,0.19171632826328278,0.004897449631243944,0.16554811596870422,-0.042557407170534134,-0.0466378889977932,-0.04192535579204559,-0.06717783957719803,0.015374874696135521,-0.12885403633117676,-0.012179253622889519,0.0010299334535375237,0.056085169315338135,0.06688245385885239,-0.07300645112991333,-0.07242906838655472,-0.018988633528351784,0.34390878677368164,-0.008988570421934128,-0.0020217299461364746,-0.11544506251811981,0.025710569694638252,0.4162098467350006,-0.00858832336962223,0.5327888131141663,0.11612158268690109,0.18631941080093384,-0.07476914674043655,-0.32249006628990173,-0.3899204134941101,-0.36959829926490784,-0.3457287847995758,0.4948616325855255,-0.35605674982070923,-0.008283419534564018,0.09212519228458405,-0.0011587992776185274,0.0838693231344223,0.010034942999482155,-0.01901300437748432,-0.0978572815656662,-0.19700521230697632,-0.156206876039505,-0.1396949291229248,-0.1484200656414032,-0.032678987830877304,0.17510022222995758,0.22058120369911194,0.30298930406570435,0.20193716883659363,-0.0850672721862793,-0.0609525665640831,0.028305938467383385,-0.19305509328842163,-0.11333932727575302,-0.16537165641784668,-0.08466887474060059,0.048061441630125046,-0.1367746740579605,0.03667272999882698,0.247524231672287,0.08470389246940613,-0.08836258947849274,-0.06981521099805832,-0.06934215873479843,-0.08595730364322662,0.03501742705702782,0.06834277510643005,-0.06606075912714005,0.10619526356458664,0.12739519774913788,0.05916288495063782,-0.060708507895469666,0.06144808605313301,0.1871749609708786,0.09001801162958145,0.036048468202352524,0.11190582811832428,-0.10717105865478516,-0.10393504053354263,0.06997621059417725,-0.032393936067819595,-0.21861062943935394,0.006701124492704869],"sample_rate":48000}},{"max_value":1,"model":{"version":"0.7.0","metadata":{"date":{"year":2026,"month":7,"day":7,"hour":5,"minute":54,"second":10},"loudness":-18.784445829954915,"gain":0.45644253722431993},"architecture":"WaveNet","config":{"layers":[{"input_size":1,"condition_size":1,"head":{"out_channels":1,"kernel_size":16,"bias":true},"channels":8,"kernel_sizes":[6,6,6,6,6,6,6,6,6,6,6,6,6,6,15,15,6,6,6,6,6,6,6],"dilations":[1,3,7,17,41,101,239,1,3,7,17,41,101,239,1,13,1,3,7,17,41,101,239],"activation":[{"type":"LeakyReLU","negative_slope":0.01},{"type":"LeakyReLU","negative_slope":0.01},{"type":"LeakyReLU","negative_slope":0.01},{"type":"LeakyReLU","negative_slope":0.01},{"type":"LeakyReLU","negative_slope":0.01},{"type":"LeakyReLU","negative_slope":0.01},{"type":"LeakyReLU","negative_slope":0.01},{"type":"LeakyReLU","negative_slope":0.01},{"type":"LeakyReLU","negative_slope":0.01},{"type":"LeakyReLU","negative_slope":0.01},{"type":"LeakyReLU","negative_slope":0.01},{"type":"LeakyReLU","negative_slope":0.01},{"type":"LeakyReLU","negative_slope":0.01},{"type":"LeakyReLU","negative_slope":0.01},{"type":"LeakyReLU","negative_slope":0.01},{"type":"LeakyReLU","negative_slope":0.01},{"type":"LeakyReLU","negative_slope":0.01},{"type":"LeakyReLU","negative_slope":0.01},{"type":"LeakyReLU","negative_slope":0.01},{"type":"LeakyReLU","negative_slope":0.01},{"type":"LeakyReLU","negative_slope":0.01},{"type":"LeakyReLU","negative_slope":0.01},{"type":"LeakyReLU","negative_slope":0.01}],"bottleneck":8,"head1x1":{"active":false,"out_channels":1,"groups":1},"layer1x1":{"active":true,"groups":1},"groups_input":1,"groups_input_mixin":1,"conv_pre_film":{"active":false,"shift":true,"groups":1},"conv_post_film":{"active":false,"shift":true,"groups":1},"input_mixin_pre_film":{"active":false,"shift":true,"groups":1},"input_mixin_post_film":{"active":false,"shift":true,"groups":1},"activation_pre_film":{"active":false,"shift":true,"groups":1},"activation_post_film":{"active":false,"shift":true,"groups":1},"layer1x1_post_film":{"active":false,"shift":true,"groups":1},"head1x1_post_film":{"active":false,"shift":true,"groups":1},"gating_mode":["none","none","none","none","none","none","none","none","none","none","none","none","none","none","none","none","none","none","none","none","none","none","none"],"secondary_activation":[null,null,null,null,null,null,null,null,null,null,null,null,null,null,null,null,null,null,null,null,null,null,null],"slimmable":null}],"head":null,"head_scale":0.006701124642486677},"weights":[-0.5534627437591553,-0.004572422243654728,0.36455434560775757,0.7687979340553284,-0.8650690913200378,-0.46800497174263,0.6066631078720093,0.9817277789115906,0.00568175595253706,0.06668055057525635,-0.022986775264143944,-0.0843861773610115,0.1377917230129242,0.04565233737230301,-0.0001232926588272676,0.00005910276740905829,-0.0003686617419589311,-0.0011644884943962097,0.000653615512419492,0.00012483775208238512,-0.002942751394584775,-0.029835563153028488,0.028350166976451874,0.0777660682797432,-0.08122482150793076,-0.037528663873672485,-0.06252555549144745,-0.0482257641851902,0.030039489269256592,0.08815891295671463,-0.16893020272254944,-0.07199864089488983,0.020350247621536255,0.10109655559062958,-0.02509978413581848,-0.09111037850379944,0.1883222907781601,0.07992492616176605,0.021098501980304718,0.05486181005835533,-0.01793001778423786,-0.0843602791428566,0.1005621924996376,0.05645541474223137,-0.03212631866335869,-0.0685187503695488,0.0360594242811203,0.0748942419886589,-0.1286928951740265,-0.07609719038009644,0.0028748800978064537,-0.12889787554740906,0.0612226203083992,0.16472215950489044,-0.17255756258964539,-0.10721581429243088,0.010204624384641647,0.000582754670176655,-0.01725642755627632,-0.020083768293261528,0.16532304883003235,0.09982733428478241,0.000011728277058864478,-0.00009302597754867747,0.00006725522689521313,0.0006950889946892858,0.002230555284768343,0.0008955778903327882,0.03166385740041733,0.0111205093562603,-0.0006496896967291832,0.003370885504409671,-0.14861749112606049,-0.09391967207193375,-0.015583448112010956,0.019010698422789574,0.037785645574331284,0.023323187604546547,-0.18479056656360626,-0.16203442215919495,-0.016266902908682823,0.08145666122436523,-0.03978540375828743,0.053805235773324966,0.2387770712375641,0.17093312740325928,-0.029308723285794258,0.023305414244532585,-0.03695335239171982,-0.008701357059180737,0.16332954168319702,0.0914696455001831,0.04959803819656372,0.01523943804204464,0.044207777827978134,0.026581957936286926,-0.16128528118133545,-0.10951988399028778,-0.027609815821051598,-0.058310192078351974,-0.0006114970310591161,-0.042912498116493225,-0.20749369263648987,-0.12184051424264908,-0.06990915536880493,-0.06516110897064209,-0.024437466636300087,-0.030928146094083786,0.09778197109699249,0.03894837945699692,-0.0013244597939774394,-0.0014076066436246037,-0.0010694131487980485,-0.0009712953469716012,0.0002587632625363767,-0.00008523170981789008,0.05019421875476837,0.044709429144859314,0.019953234121203423,0.0226201880723238,-0.07150222361087799,-0.03167928010225296,0.10818134248256683,0.07657362520694733,0.0243553277105093,0.04527417570352554,-0.12667737901210785,-0.04577469453215599,-0.09480464458465576,-0.11284073442220688,-0.028108391910791397,-0.054058074951171875,0.1547701209783554,0.045841798186302185,-0.06138593703508377,-0.056009698659181595,-0.02500115893781185,-0.029100757092237473,0.08557488024234772,0.035061612725257874,0.08133592456579208,0.07109735161066055,0.02729060873389244,0.03154660016298294,-0.11926718801259995,-0.05160101130604744,0.1301884949207306,0.11990358680486679,0.046540893614292145,0.02625300921499729,-0.15930959582328796,-0.06026090309023857,-0.0028612150344997644,-0.012843126431107521,-0.011491124518215656,-0.010915596038103104,-0.016337711364030838,-0.0013442548224702477,-0.0001421698834747076,-0.00025746188475750387,-0.0002023302804445848,-0.00018140779866371304,-0.00022217172954697162,-0.00008876857464201748,0.001862349803559482,0.009436802007257938,0.00846476573497057,0.0078016482293605804,0.011559431441128254,0.0013930408749729395,0.004241843242198229,0.01624608226120472,0.014429086819291115,0.014124028384685516,0.021258337423205376,0.0015381015837192535,-0.004862489644438028,-0.017565175890922546,-0.01556469313800335,-0.015414144843816757,-0.023211728781461716,-0.001713880687020719,-0.0023568663746118546,-0.011349869892001152,-0.010178529657423496,-0.009533809497952461,-0.014221626333892345,-0.001336399931460619,0.0032429529819637537,0.013788498006761074,0.012315403670072556,0.011803087778389454,0.01767537370324135,0.001387636293657124,0.005560971796512604,0.01900392957031727,0.01678444817662239,0.0168296005576849,0.025406865403056145,0.0019225376890972257,0.002193982247263193,0.004910813178867102,-0.08575167506933212,-0.13701215386390686,-0.011922226287424564,0.17118783295154572,0.0006803029682487249,0.0007746156770735979,0.0002471057523507625,-0.0004385142819955945,0.0007957766647450626,0.0023097554221749306,0.0012491012457758188,-0.003100398927927017,0.058892589062452316,0.09935776889324188,0.010437342338263988,-0.11915797740221024,-0.00816338136792183,-0.0009697381174191833,0.1260261982679367,0.19110551476478577,0.019062574952840805,-0.24238252639770508,0.005675282329320908,-0.001776942634023726,-0.14531481266021729,-0.20878760516643524,-0.022598659619688988,0.270082950592041,0.0004507073317654431,0.004881196189671755,-0.07280939072370529,-0.11849639564752579,-0.011233110912144184,0.14644837379455566,-0.0033146641217172146,-0.004638140555471182,0.1004491075873375,0.1550435870885849,0.012711463496088982,-0.1947868913412094,-0.009007151238620281,-0.001751464675180614,0.17013320326805115,0.23871178925037384,0.012919246219098568,-0.3059053421020508,0.0472177192568779,-0.03535568714141846,0.03405473008751869,-0.011426848359405994,-0.2385236918926239,-0.16426275670528412,-0.0005829082219861448,-0.0009179954067803919,-0.0006591244018636644,0.000017545547962072305,-0.002441101474687457,-0.0013187795411795378,-0.00992802157998085,0.051850322633981705,-0.003300291486084461,0.0034566011745482683,0.1952245533466339,0.1415664702653885,-0.004792431369423866,0.015486789867281914,-0.0479753203690052,0.013646014034748077,0.3204967677593231,0.23752912878990173,0.06715314090251923,-0.09326215088367462,0.022907553240656853,-0.037548720836639404,-0.29124346375465393,-0.21804006397724152,0.03202599287033081,-0.04157779738306999,0.014190747402608395,-0.011175205931067467,-0.21027222275733948,-0.15262870490550995,-0.043793871998786926,0.06532624363899231,-0.023085052147507668,0.004961702506989241,0.24980999529361725,0.17834417521953583,-0.056128621101379395,0.05710025876760483,-0.009165267460048199,0.028486579656600952,0.3736211061477661,0.3074650466442108,-0.011421756818890572,0.007358118426054716,-0.016407957300543785,0.001395176281221211,0.040380313992500305,-0.057492952793836594,0.0005335799069143832,0.0005154642276465893,0.0002510911726858467,0.00040503611671738327,0.0009024151368066669,-0.0003914584522135556,0.00958726555109024,-0.002668118104338646,0.012210121378302574,0.0013297636760398746,-0.029832903295755386,0.04129905626177788,0.010944710113108158,-0.0151363555341959,0.020020952448248863,-0.00783725455403328,-0.050203587859869,0.07623249292373657,-0.010031483136117458,0.0189572311937809,-0.021406633779406548,0.011531351134181023,0.05354652553796768,-0.08446191251277924,-0.010966191068291664,0.004810935351997614,-0.014751151204109192,-0.0003291084722150117,0.03563842177391052,-0.05023736506700516,0.01136793289333582,-0.009509953670203686,0.017433561384677887,-0.003053712658584118,-0.04327543079853058,0.06282861530780792,0.008442901074886322,-0.024062862619757652,0.023006968200206757,-0.016805341467261314,-0.056953225284814835,0.09474717825651169,-0.08752921223640442,0.034023310989141464,0.025467831641435623,-0.0018060504226014018,0.2502462863922119,0.21005605161190033,0.00047808015369810164,0.0012603747891262174,0.000083553881268017,0.0004544039838947356,0.003076538210734725,0.0009818170219659805,0.055140916258096695,-0.05719634145498276,0.025986244902014732,-0.03222120553255081,-0.2444978803396225,-0.15452677011489868,0.025087352842092514,0.02253456600010395,-0.03510197997093201,-0.11088160425424576,-0.34863418340682983,-0.19718822836875916,-0.03110823594033718,0.03750736266374588,-0.03671308979392052,0.015335368923842907,0.3281232416629791,0.17781728506088257,0.0035992346238344908,-0.014824667014181614,-0.047113046050071716,-0.00016580350347794592,0.24284884333610535,0.18566003441810608,0.10052697360515594,-0.0832994356751442,0.017600908875465393,-0.013323649764060974,-0.26840940117836,-0.12646013498306274,0.052055686712265015,-0.09429128468036652,0.0731419026851654,-0.09778786450624466,-0.31449854373931885,-0.24256400763988495,0.031239325180649757,0.3096437156200409,0.07520321756601334,-0.05935818701982498,-0.0027410269249230623,-0.04642098397016525,-0.01581619307398796,0.048110757023096085,-0.19290810823440552,-0.1164875477552414,-0.07906817644834518,0.001966343028470874,-0.3598024845123291,0.4778051972389221,0.0967087596654892,-0.5964754223823547,0.03243309631943703,0.20688940584659576,0.15788573026657104,-0.004782302770763636,-0.24026340246200562,-0.2257135510444641,0.025138936936855316,-0.024421915411949158,0.032704196870326996,-0.38156095147132874,0.05516497418284416,-0.01920764520764351,-0.26896587014198303,-0.027792099863290787,-0.10501262545585632,0.2435331791639328,-0.1368568241596222,0.3228156268596649,0.06012176349759102,-0.022578824311494827,-0.5100501179695129,-0.36272451281547546,-0.08673349022865295,-0.20413589477539062,0.15659579634666443,-0.07040801644325256,-0.01972923055291176,0.031736694276332855,0.07340972125530243,0.381022185087204,0.0004388027300592512,-0.013039421290159225,0.22450651228427887,-0.050671033561229706,0.12500856816768646,-0.010119453072547913,0.5046698451042175,-0.25657346844673157,0.10159328579902649,0.4185621738433838,0.2696034014225006,0.2782231271266937,0.2536594569683075,0.0313868373632431,0.11262442916631699,0.01650262251496315,0.018241748213768005,-0.10260283201932907,-0.11832299828529358,-0.16410835087299347,-0.18199913203716278,0.05538557842373848,0.0665738508105278,0.3743378520011902,-0.10081203281879425,-0.3812273442745209,-0.2769072651863098,-0.15095388889312744,0.19566239416599274,0.008666363544762135,0.05034364014863968,0.08345182240009308,-0.057479023933410645,-0.3816642165184021,-0.20795167982578278,0.1409926861524582,-0.0897464007139206,0.014131627045571804,-0.14449110627174377,-0.1308729648590088,0.0047964309342205524,0.11573491990566254,-0.008876457810401917,0.02542671374976635,-0.032417647540569305,-0.039872027933597565,0.02879541739821434,-0.008223501034080982,0.004118061158806086,-0.010802310891449451,-0.002344265580177307,-0.0034261932596564293,-0.022265102714300156,-0.007303763646632433,-0.03368052467703819,-0.003889127867296338,-0.04373324289917946,-0.09656812250614166,-0.030552830547094345,0.03995036706328392,0.010921729728579521,-0.020202646031975746,0.05438848212361336,0.03971228376030922,-0.03816794976592064,0.04340144619345665,0.017256280407309532,0.055819883942604065,-0.017560947686433792,0.03129524737596512,0.11523734778165817,-0.047622520476579666,0.0063349162228405476,0.024050064384937286,-0.01859111711382866,0.003593653906136751,0.05498780310153961,-0.007906317710876465,0.026835480704903603,-0.03382735699415207,0.053614433854818344,0.05441920831799507,-0.055426374077796936,0.036538977175951004,0.03770492970943451,-0.01807769387960434,0.01935284025967121,-0.0020863718818873167,-0.022589445114135742,0.05533149093389511,-0.10598916560411453,-0.09224073588848114,-0.027664262801408768,-0.040287233889102936,0.022567305713891983,-0.12436973303556442,0.05536254867911339,0.039176374673843384,0.0945989266037941,0.08327347785234451,0.0723041519522667,-0.059600841253995895,-0.03534648194909096,-0.07412872463464737,-0.0503116101026535,0.01962636224925518,-0.1685359627008438,-0.0002778299676720053,-0.03280589357018471,0.042968012392520905,-0.01613159477710724,-0.03681070730090141,-0.0726882815361023,0.15612934529781342,-0.06235070899128914,-0.03366433084011078,0.03338892012834549,-0.05842605233192444,0.14299450814723969,-0.2884630560874939,-0.04685453325510025,-0.05227208510041237,-0.06677431613206863,0.052803896367549896,0.1588345170021057,-0.14833800494670868,-0.2488548755645752,-0.06250651925802231,-0.1345389187335968,-0.07988763600587845,-0.16772376000881195,0.18022948503494263,-0.044133082032203674,0.007768438663333654,-0.06164206564426422,-0.08272957801818848,-0.09872840344905853,0.3321988582611084,-0.03541450574994087,0.06827887147665024,-0.05412345379590988,-0.10570552945137024,-0.010397275909781456,-0.07300619035959244,-0.024381546303629875,0.029587075114250183,-0.013578223995864391,0.03805297240614891,-0.024717915803194046,-0.054781559854745865,-0.0964539423584938,-0.10563062876462936,-0.14461801946163177,-0.00621771439909935,-0.07082757353782654,0.0457875020802021,0.06846169382333755,0.05118130147457123,0.1298343688249588,0.14262354373931885,0.10516472905874252,0.13895955681800842,0.03759137913584709,0.05910215154290199,0.11578831076622009,-0.1436900645494461,-0.031082917004823685,-0.01644047535955906,0.021760916337370872,0.06850208342075348,0.0955401211977005,-0.018168481066823006,-0.01105622760951519,-0.042610641568899155,0.1002073809504509,-0.0360410250723362,-0.026110725477337837,0.15239764750003815,0.043397121131420135,-0.008352868258953094,0.04430332034826279,0.00574283255264163,0.025937529280781746,0.10816289484500885,-0.05428352579474449,0.015017454512417316,0.013058525510132313,0.005813734605908394,0.0006296492647379637,0.008771421387791634,0.02132967673242092,-0.04965212196111679,-0.00623593432828784,-0.0041823615320026875,-0.0033751833252608776,0.004403754603117704,-0.002090387511998415,-0.009070020169019699,0.009319783188402653,-0.0016567989950999618,-0.01996181346476078,0.011087654158473015,0.0011087452294304967,0.043944552540779114,-0.031514186412096024,-0.03681083023548126,-0.026403073221445084,-0.021735724061727524,-0.03805066645145416,0.1097467690706253,0.02595910243690014,0.01755763404071331,0.01779605820775032,0.010574468411505222,0.033245477825403214,-0.11033326387405396,0.022453486919403076,0.02298985794186592,0.021845854818820953,0.01065971702337265,0.03427586331963539,-0.10007153451442719,-0.0313103161752224,-0.02175450697541237,-0.019286466762423515,-0.02228768914937973,-0.04876228794455528,0.12168796360492706,-0.037652671337127686,-0.03028438426554203,-0.027602486312389374,-0.024230830371379852,-0.050436049699783325,0.15460559725761414,0.11601588875055313,0.08376191556453705,0.048172857612371445,0.03509121388196945,0.05431368574500084,0.06789098680019379,-0.007432238664478064,-0.009361058473587036,-0.019790174439549446,-0.022309118881821632,-0.02583804540336132,-0.013170721009373665,-0.029779214411973953,-0.00460927514359355,0.01277412474155426,0.00374719500541687,-0.035362571477890015,-0.024242904037237167,-0.027708785608410835,0.009249418042600155,0.02188590168952942,0.023701949045062065,-0.00430250633507967,-0.007755354978144169,0.11966326087713242,0.02701651118695736,0.044478531926870346,0.07448073476552963,0.1106797456741333,0.07296346127986908,0.08137109875679016,0.03345745429396629,0.007570410147309303,0.007463711779564619,0.03557340428233147,0.03282708302140236,-0.04226302728056908,0.08164530992507935,0.07770641893148422,0.010351569391787052,-0.012842834927141666,0.028276560828089714,-0.12304331362247467,-0.028059985488653183,0.0174244474619627,-0.05261560156941414,-0.08303415775299072,-0.016402389854192734,-0.12720584869384766,-0.07312175631523132,-0.07669222354888916,-0.05230361968278885,-0.1670670211315155,-0.2002779096364975,0.030055200681090355,-0.011013575829565525,-0.034024111926555634,0.019936561584472656,-0.06794767826795578,0.018083415925502777,0.029317563399672508,0.05936300754547119,0.054394446313381195,0.017657442018389702,-0.013309609144926071,0.10147757828235626,-0.06672357022762299,0.006369815208017826,-0.06763098388910294,-0.041555099189281464,0.06695816665887833,0.11694766581058502,-0.060615960508584976,-0.09958983957767487,0.02792944386601448,0.09464030712842941,-0.11270885914564133,-0.12867790460586548,-0.025717508047819138,0.02207670360803604,0.031761374324560165,0.002319317078217864,-0.03570191562175751,-0.10793750733137131,-0.02644393965601921,-0.13481327891349792,-0.08200588822364807,-0.15167813003063202,-0.044747065752744675,0.14678703248500824,-0.03732352703809738,-0.00810864008963108,0.06971026957035065,-0.10075189173221588,0.12008680403232574,0.12284897267818451,-0.004837475251406431,0.045646149665117264,0.054052453488111496,0.020648334175348282,0.033651746809482574,-0.024892771616578102,-0.04417288675904274,-0.05275151878595352,-0.05318167060613632,-0.07577420026063919,-0.049353159964084625,-0.04117165505886078,-0.08461438119411469,-0.033036407083272934,0.01765301823616028,-0.07609077543020248,0.037373315542936325,-0.007956192828714848,0.09638725966215134,0.03618188947439194,0.017471445724368095,0.04105807840824127,0.04030830040574074,0.15690594911575317,0.02741994895040989,0.06679590046405792,0.030427074059844017,0.07568012177944183,-0.013781744986772537,-0.12359296530485153,0.0512319877743721,0.07239098846912384,0.05023130029439926,0.07364596426486969,0.02720252424478531,-0.006984621286392212,0.05474642664194107,-0.007176055107265711,0.019749756902456284,0.020664304494857788,0.05222311243414879,0.1472739577293396,-0.031133225187659264,-0.04955923184752464,-0.02762432210147381,-0.06333561986684799,0.03475390374660492,0.08119306713342667,-0.13286913931369781,-0.019135471433401108,-0.0363336019217968,-0.07324204593896866,-0.12447569519281387,0.08034871518611908,0.052327074110507965,0.06956762820482254,0.0023440455552190542,0.041994575411081314,0.05606190115213394,-0.028317125514149666,-0.0903002917766571,0.011130454018712044,0.02288479544222355,0.029654501006007195,0.03659547492861748,0.11115387827157974,0.03205723315477371,0.03416857123374939,0.11342906951904297,0.07451504468917847,0.04458094760775566,-0.1945737898349762,-0.013512746430933475,-0.08158863335847855,-0.1539630889892578,-0.13418257236480713,-0.08459298312664032,0.15693753957748413,-0.011591337621212006,-0.0750700831413269,-0.08501365035772324,-0.05845501273870468,-0.09042695164680481,0.048258520662784576,-0.03917384147644043,0.0002633925178088248,-0.012750928290188313,-0.08507243543863297,-0.02530045062303543,-0.2065761387348175,0.09363777190446854,0.04159568250179291,0.0064845094457268715,-0.01143783051520586,0.03576059266924858,-0.11532949656248093,-0.10342174023389816,0.007280890829861164,0.10860312730073929,-0.005869115702807903,-0.4339093565940857,0.12484700977802277,-0.2295137643814087,-0.005494222976267338,0.05144372954964638,0.3930024802684784,0.36678531765937805,0.14031793177127838,-0.0057142688892781734,0.4398261606693268,0.10606426000595093,-0.39921507239341736,0.06635087728500366,-0.30764979124069214,0.038947928696870804,-0.1325751543045044,0.22391612827777863,0.037153296172618866,0.0601193830370903,0.2617042064666748,-0.12383448332548141,-0.24095383286476135,-0.06458321958780289,-0.12390949577093124,-0.16432267427444458,-0.04052561894059181,-0.26840218901634216,0.2071133852005005,0.013857342302799225,0.01209766324609518,-0.19867168366909027,-0.07597250491380692,0.11254735291004181,0.0696767196059227,0.06057342141866684,-0.11917290091514587,-0.03978355601429939,0.20492133498191833,0.25851795077323914,0.0691724345088005,0.059770602732896805,0.026431340724229813,-0.09145617485046387,-0.22117476165294647,0.15071561932563782,0.004101472441107035,0.11021967977285385,0.08721021562814713,-0.05309417098760605,-0.11890944093465805,0.07650808244943619,0.15740056335926056,0.018058834597468376,0.20594312250614166,0.22418786585330963,0.006715300027281046,0.25694239139556885,0.28562548756599426,0.1164354458451271,0.11022139340639114,-0.16892452538013458,0.32481318712234497,0.06170788034796715,0.02563563920557499,0.24022696912288666,0.336832195520401,-0.15195992588996887,-0.03980293124914169,-0.07388626039028168,-0.13667432963848114,0.1477244794368744,-0.05384117364883423,0.07751436531543732,0.18230953812599182,-0.16377322375774384,0.1567004919052124,-0.025467146188020706,-0.02037968300282955,0.03827011585235596,-0.10256680846214294,0.12632472813129425,-0.17165358364582062,-0.09317135065793991,-0.19407881796360016,0.037419117987155914,0.019703680649399757,0.038607269525527954,0.06606201827526093,-0.012769795022904873,-0.06914674490690231,-0.03943205997347832,-0.010380735620856285,-0.015497744083404541,-0.041761577129364014,-0.05440516397356987,-0.06851256638765335,0.006268306169658899,-0.05988410487771034,0.029474075883626938,0.00906357355415821,0.030631089583039284,0.024098563939332962,-0.0215858556330204,-0.018784061074256897,-0.026425566524267197,-0.04500371217727661,-0.020429858937859535,0.11204437911510468,0.044445477426052094,0.0599125474691391,0.03022925928235054,0.059498485177755356,-0.04112718254327774,-0.09023358672857285,0.07573218643665314,0.034619368612766266,0.06914371997117996,0.04667673632502556,0.04010801762342453,0.012030115351080894,0.010558557696640491,-0.003862753976136446,-0.031445421278476715,-0.05065711960196495,0.08075935393571854,0.10799870640039444,0.02413756214082241,-0.0017982569988816977,-0.06959400326013565,-0.015330763533711433,0.0118297403678298,0.049821700900793076,-0.06136924773454666,-0.16971071064472198,-0.06102650612592697,-0.0023708599619567394,-0.04232577979564667,0.058183453977108,0.03354565054178238,0.08507252484560013,0.023549243807792664,0.029939083382487297,0.11059603840112686,0.045810144394636154,-0.0641314759850502,-0.11983710527420044,-0.09739867597818375,-0.06192115694284439,-0.07988862693309784,0.14675641059875488,0.20551849901676178,0.17470774054527283,0.08455923944711685,-0.03033512830734253,-0.09583021700382233,-0.15384991466999054,-0.0655781701207161,-0.009713498875498772,-0.005561069119721651,0.057455748319625854,0.1542876958847046,0.019699852913618088,0.004034135024994612,0.022456156089901924,-0.033943597227334976,-0.07281555235385895,-0.06519801914691925,-0.21851247549057007,0.14461204409599304,0.08958262950181961,0.13940928876399994,-0.04436139762401581,-0.19152632355690002,-0.12003710120916367,0.08592936396598816,0.12920738756656647,0.07795587927103043,-0.016673551872372627,-0.07463524490594864,-0.019093595445156097,-0.03249115124344826,0.009434456005692482,0.04548069089651108,-0.02301749773323536,-0.060569364577531815,0.02521219477057457,-0.10289981961250305,-0.08497896045446396,-0.042529620230197906,-0.06110835820436478,-0.105255626142025,-0.10100386291742325,0.019341368228197098,-0.11036453396081924,-0.06664976477622986,-0.04677296802401543,-0.0012858259724453092,0.2150285542011261,0.014292092993855476,-0.04015706479549408,-0.06988158822059631,0.05551929026842117,0.11055465787649155,-0.08709707111120224,0.030495060607790947,0.16168256103992462,0.17559604346752167,0.05591598525643349,-0.06361114233732224,-0.10124944895505905,0.07696985453367233,0.0911593809723854,0.06597590446472168,0.07327046990394592,0.04000147804617882,-0.05747436732053757,0.03258303552865982,-0.03144264221191406,-0.10446733236312866,0.05427873507142067,0.12048106640577316,0.04538223147392273,-0.0526457317173481,-0.09221241623163223,-0.12821823358535767,0.0074819098226726055,0.07527381926774979,0.1564508080482483,-0.08115380257368088,-0.06892453879117966,-0.1473715454339981,-0.11643136292695999,-0.09880484640598297,-0.14187124371528625,0.06569353491067886,-0.030986692756414413,-0.04861631244421005,0.0497572086751461,-0.020363135263323784,0.05761367455124855,-0.01071208342909813,0.10261179506778717,-0.059621624648571014,0.03033754974603653,-0.021302884444594383,0.1885857880115509,-0.08842604607343674,0.07135425508022308,-0.038008589297533035,-0.0012298965593799949,-0.1595386564731598,-0.06381246447563171,-0.06077297031879425,0.06564450263977051,-0.11575037986040115,-0.023055024445056915,0.1763245314359665,-0.09250464290380478,-0.1601521223783493,-0.1024957075715065,-0.13650865852832794,-0.1670386642217636,-0.05437016114592552,-0.1441047638654709,-0.03052259422838688,-0.0427703782916069,-0.010940405540168285,-0.0034666601568460464,-0.06561726331710815,-0.007582150399684906,0.0841178148984909,0.06987910717725754,0.12561297416687012,0.11693165451288223,0.11330825835466385,0.10576114803552628,0.015972871333360672,-0.05425633117556572,-0.015181083232164383,-0.024382568895816803,0.006567362695932388,-0.01944778859615326,0.11184566468000412,0.07127849757671356,0.10130830854177475,0.07010114938020706,0.11875095963478088,-0.08863069117069244,0.041324835270643234,0.04394928738474846,-0.023256968706846237,-0.026462692767381668,-0.07049451023340225,0.07488555461168289,-0.07064858824014664,-0.0232453141361475,0.05269912630319595,-0.03948608413338661,0.07768429070711136,-0.18202565610408783,-0.09033545851707458,-0.06541235744953156,-0.02334289439022541,-0.08281446248292923,-0.12674887478351593,0.23696181178092957,-0.11022244393825531,-0.06932935118675232,-0.036630433052778244,-0.00896771252155304,-0.05536797642707825,0.04008563235402107,0.029841814190149307,0.025035619735717773,0.046601831912994385,0.03896705433726311,-0.049155302345752716,-0.1398962438106537,0.018268682062625885,-0.002622728468850255,0.15965770184993744,0.03658357262611389,0.0591486357152462,-0.1708652675151825,-0.05955587700009346,-0.01802920550107956,0.059625957161188126,-0.1023356094956398,-0.047613900154829025,-0.01592089794576168,-0.05893119424581528,0.031518690288066864,0.05184361711144447,0.019383952021598816,0.04722284898161888,0.06608199328184128,-0.08460933715105057,-0.12106746435165405,-0.04478892311453819,0.01827975921332836,0.0047756377607584,-0.08894675970077515,-0.008162291720509529,-0.13773177564144135,0.02319507859647274,-0.10570462048053741,-0.04223587363958359,-0.018701769411563873,0.009132616221904755,0.09615635126829147,0.12284503132104874,-0.005878852214664221,0.042791642248630524,0.01768120750784874,0.004111724440008402,-0.024335425347089767,0.06316743791103363,0.08064743131399155,-0.0950249433517456,0.011081000789999962,-0.08053898811340332,0.01667998917400837,-0.04298882931470871,-0.035046324133872986,0.05923266336321831,0.027428071945905685,-0.11990558356046677,-0.04417863115668297,-0.12742257118225098,-0.07127844542264938,0.054390691220760345,0.02431027591228485,-0.05420020595192909,0.04125438630580902,-0.000692617439199239,-0.04196147248148918,-0.016676535829901695,0.08327815681695938,0.005138784181326628,0.01858879067003727,-0.006294559221714735,0.04272911325097084,0.0671738013625145,-0.1015055924654007,0.03808220103383064,0.005892786663025618,0.08369704335927963,0.006046633701771498,0.020805498585104942,0.09839354455471039,-0.037093572318553925,-0.025567682459950447,-0.021299852058291435,-0.09925269335508347,0.03522210568189621,-0.21891745924949646,0.0470137856900692,-0.034980904310941696,-0.0026215966790914536,0.044385842978954315,-0.10951487720012665,0.22189858555793762,-0.08104223012924194,-0.020930470898747444,-0.07823897153139114,0.005051269195973873,-0.0944664254784584,-0.022461706772446632,-0.060918014496564865,0.030516212806105614,0.030792661011219025,-0.06811265647411346,0.1023576408624649,-0.15625037252902985,0.07162556052207947,0.1026211529970169,0.01474017184227705,-0.04717080295085907,0.05827037990093231,-0.07814062386751175,0.0020106208976358175,0.0006353796925395727,0.0006232536397874355,0.0015649389242753386,0.001342014642432332,0.002107449108734727,0.00025877580628730357,-0.000028908280000905506,-0.00012276010238565505,-0.00003384477167855948,-0.0000022147889922052855,-0.000002828862989190384,-0.00030791241442784667,-0.00001350613274553325,0.0001653254294069484,-0.0005649180966429412,-0.0003185915993526578,-0.00002209716876677703,-0.0006789908511564136,0.0005576398107223213,0.00043092534178867936,-0.00048016413347795606,-0.00012453428644221276,-0.0006847353070043027,0.0009043865138664842,-0.0006559707107953727,-0.0006580196204595268,0.0009021243895404041,0.0001802178012439981,0.0008707280503585935,0.0005326757673174143,0.0001967643911484629,0.00010890451085288078,0.0005643008043989539,0.00044805798097513616,0.0003884866600856185,-0.000806983676739037,0.0010626567527651787,0.0011662706965580583,-0.0001474621967645362,0.0003124888171441853,-0.001137148356065154,0.0000615057215327397,0.0012488047359511256,0.0014951572520658374,0.0008413077448494732,0.0007198514649644494,0.00008640321175334975,-0.1304733157157898,-0.017545411363244057,-0.008469224907457829,0.06603211164474487,0.03644620254635811,0.05212265998125076,0.11994866281747818,-0.017198484390974045,0.048905160278081894,0.12185081094503403,0.04781686142086983,0.06534134596586227,-0.14730457961559296,-0.5011682510375977,-0.09424547851085663,-0.00013838008453603834,0.14376004040241241,0.10522004216909409,-0.087543785572052,0.40939369797706604,0.32785218954086304,0.021099887788295746,0.10130400210618973,0.0005939046968705952,-0.08970226347446442,-0.22851713001728058,-0.2035776823759079,0.08696728199720383,-0.19453632831573486,-0.1617036908864975,-0.1458224654197693,0.00018528183863963932,0.029416784644126892,-0.2205682247877121,-0.17792950570583344,0.1580154299736023,-0.24246416985988617,0.39663174748420715,0.0009458228596486151,-0.0005016591749154031,-0.2287132889032364,0.11731802672147751,0.19705034792423248,0.19772399961948395,0.08354595303535461,-0.08316906541585922,-0.2203880101442337,0.00012654121383093297,0.06482137739658356,0.09605108946561813,0.15959054231643677,0.01725027896463871,0.09626195579767227,0.0651126578450203,-0.11530693620443344,0.000042024959839181975,0.0641181468963623,0.16059699654579163,0.137390598654747,0.15235492587089539,-0.17245587706565857,0.1139887347817421,0.2210441529750824,0.0016287837643176317,-0.14608094096183777,0.028851762413978577,0.08108179271221161,0.24026939272880554,-0.1731714904308319,-0.029958343133330345,-0.2529709041118622,0.0018153784330934286,0.055690474808216095,0.056990090757608414,-0.17934869229793549,0.07369009405374527,0.04756554216146469,-0.17048244178295135,0.11385857313871384,0.00033697052276693285,0.07803073525428772,0.049304671585559845,-0.1493750363588333,0.03763507306575775,0.1516723781824112,-0.023955615237355232,0.04159201681613922,-0.0031566068064421415,0.09465324878692627,-0.051466118544340134,-0.004804299678653479,-0.06129138544201851,-0.034106913954019547,0.0729387179017067,-0.07844743132591248,-0.09979069977998734,-0.12253834307193756,-0.11436305940151215,0.015003670006990433,0.10802017152309418,-0.21995195746421814,-0.10858260095119476,-0.025548800826072693,0.04956711456179619,0.11536797136068344,0.09601877629756927,0.12391086667776108,0.065003901720047,-0.04353776574134827,-0.003220172366127372,-0.007079571485519409,-0.149944007396698,0.04242575168609619,0.05956494063138962,0.1260976642370224,-0.001870929030701518,-0.11211647838354111,-0.017911089584231377,0.05085483193397522,0.029223773628473282,0.050623174756765366,0.003719180356711149,-0.10385946929454803,-0.13949592411518097,0.017345234751701355,-0.02759038656949997,-0.10353613644838333,0.041589003056287766,0.09235988557338715,-0.01705733872950077,0.04039668291807175,-0.07706613838672638,-0.14998623728752136,0.014392132870852947,0.13195736706256866,0.07017380744218826,-0.016156841069459915,0.03856625407934189,0.04955856874585152,0.03553001210093498,0.08388213068246841,-0.12421753257513046,-0.030167102813720703,-0.026190659031271935,-0.07004240900278091,-0.03331175819039345,-0.10912317782640457,-0.08115677535533905,0.1079733818769455,-0.0074203903786838055,-0.004459123592823744,0.07501063495874405,0.045811042189598083,-0.014084200374782085,-0.07478804141283035,-0.024227607995271683,0.04595328867435455,0.045856453478336334,0.07244189083576202,0.14349272847175598,-0.029713984578847885,-0.007586698047816753,0.021257309243083,0.00801384262740612,-0.002012494718655944,-0.19372637569904327,-0.02500276267528534,0.014777741394937038,0.10314636677503586,0.0954926386475563,0.04715820774435997,0.04430271312594414,-0.029136009514331818,0.019954215735197067,-0.015300022438168526,-0.004550338257104158,-0.02131706103682518,0.1332971155643463,-0.03615850582718849,-0.04309779033064842,-0.09840167313814163,-0.08118724822998047,-0.130027636885643,0.11052121967077255,-0.040980562567710876,0.05025031045079231,0.13454560935497284,-0.11377047747373581,-0.011961668729782104,-0.14278659224510193,-0.08427229523658752,0.03150353953242302,0.04040775075554848,-0.12972919642925262,-0.12761624157428741,-0.13856709003448486,0.07365667819976807,-0.03381623327732086,-0.09904509782791138,0.05182027444243431,0.06869036704301834,0.14953148365020752,0.08881344646215439,-0.002505634678527713,-0.0032976462971419096,-0.051931582391262054,0.05501297116279602,0.07059121876955032,0.07800348103046417,0.05627789348363876,0.09795307368040085,0.0176529660820961,0.11649815738201141,-0.023612409830093384,-0.07800938189029694,-0.032396815717220306,-0.007187861483544111,0.012174920178949833,-0.04180944710969925,-0.06837262213230133,-0.017539598047733307,0.06389635056257248,0.10901503264904022,-0.0938134491443634,-0.04868065193295479,0.1476522833108902,-0.054607052356004715,-0.03227227181196213,-0.02960413135588169,-0.10146891325712204,-0.14099468290805817,0.08465571701526642,-0.05504024773836136,-0.15495665371418,-0.026278145611286163,-0.012249859981238842,-0.0017539914697408676,0.12475846707820892,-0.1401468813419342,-0.11105331033468246,-0.022051101550459862,-0.035206764936447144,-0.0025464030914008617,-0.027038991451263428,0.07327490299940109,0.1413557231426239,0.10269661247730255,0.07325304299592972,-0.048371657729148865,0.09043162316083908,-0.062198441475629807,-0.10640136152505875,-0.03269580751657486,0.07468301057815552,0.10393477231264114,0.0024757497012615204,-0.0040595997124910355,0.03817696124315262,-0.060909636318683624,-0.04727920517325401,0.017945891246199608,-0.12275803089141846,-0.001656859996728599,-0.03785018250346184,-0.08027850091457367,-0.06369992345571518,-0.04973282665014267,-0.07804065942764282,-0.04130081087350845,-0.016022033989429474,0.06208233907818794,0.11557231843471527,0.06718045473098755,0.20737606287002563,-0.11940818279981613,-0.07592666894197464,0.004095341544598341,0.11498074978590012,0.2369551658630371,0.242031991481781,0.012955496087670326,-0.027358775958418846,-0.060313817113637924,0.032801561057567596,0.12701469659805298,0.1381026953458786,0.0015197565080597997,0.004336229991167784,-0.08596109598875046,-0.09937921166419983,-0.06512881815433502,0.0256813932210207,-0.10339421033859253,-0.02613365650177002,0.010030439123511314,-0.04683133587241173,-0.13978900015354156,0.07753432542085648,0.061003055423498154,0.127099871635437,0.07238364219665527,0.03605393320322037,0.007349926978349686,-0.11590497195720673,0.06419584900140762,0.05999808385968208,0.04912190139293671,-0.006371065508574247,-0.0640588328242302,-0.029235268011689186,0.02721971645951271,-0.013244643807411194,0.017014488577842712,0.047478366643190384,-0.018843337893486023,-0.18401290476322174,-0.006946480832993984,0.09297394752502441,0.08927486091852188,-0.03422282636165619,-0.05273895710706711,-0.053572434931993484,0.060324594378471375,0.07309937477111816,0.08911111205816269,0.11124886572360992,0.14291541278362274,0.10668285191059113,-0.0003348211757838726,-0.018483096733689308,-0.14763367176055908,0.0386526957154274,0.03179141506552696,-0.10020516067743301,-0.05202268064022064,-0.05807163193821907,0.04046281427145004,0.043009743094444275,-0.09628850221633911,-0.006012363359332085,-0.010820156894624233,0.033794909715652466,0.01419882196933031,-0.07497383654117584,-0.07872948050498962,0.01663428172469139,-0.07485108077526093,-0.007501295767724514,-0.0770661011338234,-0.06924211978912354,-0.004304984118789434,0.11624718457460403,0.009310254827141762,0.12092414498329163,0.10248805582523346,0.09345729649066925,0.1450355350971222,0.023460548371076584,-0.022107208147644997,-0.0779823586344719,0.0008394588367082179,0.03861498087644577,0.10704140365123749,0.006873630452901125,0.0057549262419342995,-0.008612154982984066,0.005493735894560814,-0.12074293196201324,-0.16857467591762543,0.18842729926109314,-0.03306719660758972,-0.05709158629179001,-0.21099244058132172,-0.10408756881952286,-0.032784298062324524,0.10678098350763321,0.09282194823026657,0.02813611924648285,-0.05995092913508415,-0.03191350772976875,-0.07880695909261703,-0.03112972155213356,0.05856248363852501,-0.008748156949877739,0.0987817794084549,0.22620883584022522,0.15706507861614227,0.13429377973079681,0.002356067067012191,0.058747485280036926,0.07191751152276993,0.0707181841135025,0.05136863514780998,-0.020926566794514656,-0.03449500724673271,-0.03991924971342087,-0.03783872723579407,-0.031725384294986725,0.004379710648208857,-0.13530310988426208,-0.06460899114608765,-0.10448864847421646,-0.06004076823592186,0.012380484491586685,-0.16222231090068817,0.13773465156555176,-0.07158266007900238,-0.1124865934252739,-0.12014015018939972,-0.07499918341636658,-0.03875872865319252,-0.03012828715145588,0.004509268794208765,-0.007898202165961266,-0.04085720330476761,0.04449308663606644,-0.07351218163967133,-0.18982964754104614,0.04605473205447197,0.016870342195034027,-0.003138013416901231,0.04334816336631775,0.003959589172154665,-0.11107794940471649,0.006139097269624472,-0.011557478457689285,-0.12487076967954636,0.008308321237564087,-0.011026122607290745,-0.17020532488822937,-0.004891207441687584,-0.06139790266752243,-0.20204246044158936,-0.1444789171218872,-0.11919458210468292,-0.2231915295124054,-0.00045109461643733084,-0.08974312990903854,-0.14861813187599182,-0.14816319942474365,-0.10987700521945953,0.13625289499759674,0.07449501752853394,0.020300615578889847,0.12769640982151031,0.11552534997463226,0.10449583828449249,0.0007333160610869527,0.18935585021972656,0.1284599006175995,0.09544705599546432,0.12287686765193939,0.110134556889534,-0.2042926400899887,0.05808881297707558,-0.024401364848017693,-0.03555150702595711,0.08616075664758682,0.10323825478553772,-0.023585576564073563,0.060644976794719696,0.08156982809305191,-0.06415959447622299,0.053339071571826935,0.048482391983270645,-0.03726103901863098,0.02461150847375393,-0.06877436488866806,-0.09659644216299057,-0.10655498504638672,-0.05703580752015114,0.17973260581493378,-0.023896723985671997,-0.2863786518573761,0.21423101425170898,0.0836457908153534,0.05542978644371033,0.09437209367752075,0.17395304143428802,-0.09853440523147583,-0.018728984519839287,0.08214189857244492,0.7126771807670593,0.06287992000579834,0.14610649645328522,-0.06137118861079216,-0.42106837034225464,0.17716963589191437,0.001814375165849924,0.12115324288606644,-0.40702322125434875,-0.07920006662607193,0.036360569298267365,-0.07045130431652069,0.16075435280799866,0.1614120900630951,-0.024216176941990852,-0.20038320124149323,0.25804197788238525,0.12147743254899979,-0.1317376047372818,-0.1190015971660614,-0.2505911886692047,0.02588587999343872,-0.07255926728248596,0.19506041705608368,0.17757177352905273,-0.29912638664245605,0.0174830611795187,0.09562542289495468,-0.1409473717212677,-0.28843748569488525,0.08950519561767578,-0.05464419722557068,0.2358548939228058,0.15896828472614288,-0.04965566098690033,-0.14639759063720703,-0.21101786196231842,0.018793262541294098,0.06776566803455353,0.26538196206092834,-0.22087052464485168,0.09419678896665573,0.05096057057380676,0.06297042965888977,0.19053731858730316,0.30940619111061096,0.30430471897125244,0.15122584998607635,0.1744162142276764,0.16533619165420532,0.3779127895832062,0.04155910015106201,-0.19874051213264465,0.19913055002689362,0.04108649119734764,-0.014897067099809647,0.2583165466785431,0.040000706911087036,0.15233580768108368,0.3461635112762451,-0.08558870106935501,0.05225607380270958,-0.1420743465423584,0.15760384500026703,-0.2593924105167389,-0.3426494598388672,0.07755695283412933,-0.275361567735672,0.00023776623129379004,-0.24995723366737366,0.05050182715058327,-0.023263128474354744,0.06286866962909698,0.11989328265190125,-0.14649730920791626,-0.1272750049829483,-0.1912253499031067,0.23117110133171082,-0.004650893621146679,-0.00819598138332367,0.027042603120207787,0.07934633642435074,-0.1025213897228241,0.08078238368034363,0.11736267060041428,0.14435738325119019,0.0021773555781692266,-0.07544276118278503,-0.0910673439502716,0.05388490483164787,-0.1004469096660614,-0.10027357190847397,-0.2823987305164337,-0.20590385794639587,0.024366941303014755,0.14130601286888123,0.10724146664142609,0.13889698684215546,0.22242775559425354,-0.054447926580905914,-0.13635294139385223,-0.11212395131587982,-0.029710302129387856,-0.010107734240591526,0.12026189267635345,0.21477529406547546,0.1482945680618286,-0.030063655227422714,-0.05909203365445137,0.06647254526615143,0.15010933578014374,0.10265686362981796,0.04484504833817482,-0.0337032824754715,0.0020619716960936785,0.08664727956056595,0.0987015888094902,-0.009130134247243404,-0.027544524520635605,-0.010527640581130981,0.19792188704013824,0.032125089317560196,0.116404689848423,0.11833776533603668,-0.009434308856725693,-0.0010963584063574672,-0.05197921022772789,0.013469125144183636,-0.1800452023744583,-0.12902063131332397,-0.21844865381717682,0.024928878992795944,0.10180092602968216,0.043885037302970886,-0.031361836940050125,0.02625269815325737,0.3362332880496979,0.02922125533223152,-0.03159847483038902,0.002477476838976145,0.026504166424274445,-0.10404479503631592,0.0008585026953369379,-0.1784154176712036,-0.024059953168034554,0.03828249126672745,-0.043994445353746414,0.007432673126459122,0.2537595331668854,-0.07458513975143433,-0.019711948931217194,0.03775637969374657,0.048927005380392075,0.0427033007144928,0.11200569570064545,0.30250826478004456,-0.023974962532520294,-0.14767540991306305,-0.14234933257102966,0.020720839500427246,0.03248190879821777,-0.12652134895324707,-0.012709017843008041,-0.03980766609311104,-0.017424756661057472,-0.08911813050508499,0.10995938628911972,-0.23265604674816132,-0.011487171053886414,0.054853130131959915,0.0020661475136876106,0.05913976952433586,0.13240617513656616,0.04723967984318733,-0.027036963030695915,-0.08829621970653534,0.09874275326728821,0.023725401610136032,0.014954463578760624,-0.2242753803730011,-0.006921392399817705,-0.020800786092877388,0.05734239146113396,0.04410523548722267,-0.07525224983692169,-0.15954886376857758,-0.0059732007794082165,0.041987400501966476,-0.03092942200601101,0.010206176899373531,-0.010412388481199741,0.2624036371707916,0.0406620092689991,0.027300123125314713,0.10538247972726822,-0.008969219401478767,-0.059482548385858536,0.1532309204339981,0.05165896192193031,-0.05385592579841614,-0.026442192494869232,-0.046227481216192245,0.05631771311163902,-0.13787345588207245,-0.11157596856355667,-0.020082198083400726,-0.07580559700727463,-0.018432164564728737,-0.09744005650281906,-0.004561515990644693,-0.03439871966838837,-0.06112224981188774,-0.03311271592974663,0.020262908190488815,-0.09165868163108826,0.12856797873973846,0.08442039787769318,0.1003839373588562,0.018105540424585342,0.05185090750455856,-0.11502595990896225,0.07408392429351807,0.004937587771564722,-0.09595873951911926,-0.0981827825307846,-0.07398230582475662,0.08715254068374634,0.03536263480782509,0.043293990194797516,-0.08872245997190475,-0.064299575984478,0.14826080203056335,0.08129063993692398,-0.060013823211193085,-0.10358503460884094,-0.2316422015428543,-0.15678931772708893,0.07743436098098755,0.016347644850611687,0.15458568930625916,0.04227593541145325,-0.04262718930840492,-0.09137607365846634,-0.03963793069124222,-0.05453554540872574,-0.07256053388118744,0.1506883203983307,0.225159153342247,0.2790982723236084,0.02883533015847206,-0.031423456966876984,-0.051272183656692505,0.1501663774251938,0.14756709337234497,0.0902075245976448,0.02136431448161602,-0.00023987714666873217,-0.21227064728736877,-0.00009701561066322029,-0.032562006264925,-0.013733084313571453,0.026465870440006256,-0.0037910849787294865,-0.053556669503450394,-0.04985632747411728,-0.1479312926530838,-0.34582000970840454,-0.11952468752861023,0.09099936485290527,0.043288297951221466,-0.07376515865325928,0.044768624007701874,-0.056158311665058136,-0.08171585202217102,-0.10319244861602783,-0.032931286841630936,0.009218520484864712,0.08830810338258743,0.0834006816148758,0.136739581823349,0.09966132044792175,0.10446695238351822,-0.019435156136751175,-0.04891672357916832,-0.06709984689950943,0.020867371931672096,-0.03454010188579559,0.09780596941709518,0.036459941416978836,-0.01618499495089054,0.10255414247512817,0.007803230546414852,0.05433442071080208,-0.1128845289349556,-0.0019094168674200773,0.04433218017220497,-0.023062987253069878,0.06676066666841507,0.10462535172700882,0.029156360775232315,-0.17800070345401764,-0.06583558022975922,-0.058939430862665176,-0.0922393873333931,-0.06827197968959808,-0.07273746281862259,-0.06999491900205612,0.03456619009375572,-0.10338611155748367,-0.07173633575439453,-0.038358110934495926,-0.1482127457857132,0.08859824389219284,0.018104715272784233,0.07946465909481049,0.13613289594650269,-0.02772224135696888,-0.11679104715585709,-0.052365802228450775,-0.07273253798484802,0.018260205164551735,0.03179500624537468,0.07219701260328293,-0.12304060906171799,-0.009280823171138763,-0.029584480449557304,0.05281676724553108,0.02101363055408001,0.006275781895965338,0.10541072487831116,-0.028818154707551003,0.011006672866642475,0.007299757096916437,-0.0004518828936852515,0.0437624491751194,-0.12140924483537674,-0.0108655309304595,0.02517004683613777,-0.034021731466054916,-0.013192945159971714,0.0332149937748909,0.1570049226284027,-0.03537197411060333,-0.02221275120973587,-0.08794146776199341,-0.033990003168582916,-0.06528592109680176,-0.03783136606216431,-0.14844910800457,-0.11050228774547577,-0.0958801880478859,-0.10427433252334595,-0.16064512729644775,-0.15323035418987274,-0.026407534256577492,-0.04996956139802933,-0.016304390504956245,0.012041151523590088,0.02070443145930767,0.17652539908885956,0.01089702919125557,0.05420878529548645,0.05365794524550438,-0.00024618624593131244,0.10642918199300766,0.14453142881393433,0.07880564033985138,-0.09289776533842087,-0.03881843388080597,-0.10601824522018433,-0.029533326625823975,0.137635737657547,0.0156495813280344,0.08245529979467392,-0.043818097561597824,-0.018040210008621216,-0.05605529621243477,-0.03519155830144882,-0.022993111982941628,-0.0988885909318924,-0.12761855125427246,-0.09646020084619522,-0.10960030555725098,0.4008471369743347,-0.004600608255714178,0.017420442774891853,-0.07422509789466858,-0.023442881181836128,0.07475179433822632,-0.2237125188112259,0.047292307019233704,0.050237126648426056,0.10581173747777939,0.006908951792865992,0.16167052090168,-0.12335056066513062,0.14604370296001434,0.04828035831451416,0.07281842082738876,0.030185941606760025,0.13062375783920288,0.07477051764726639,0.07723450660705566,0.02920103445649147,0.12716712057590485,0.07227817922830582,0.04840061813592911,-0.12890484929084778,-0.08637908101081848,-0.13562467694282532,-0.10441615432500839,-0.124629445374012,-0.1550719439983368,-0.02441992424428463,-0.00521840387955308,0.04141126573085785,-0.07790841162204742,-0.005456515587866306,-0.09780897945165634,0.03432534262537956,-0.05914832651615143,-0.027283621951937675,-0.08569172024726868,-0.07617364078760147,-0.10968468338251114,-0.03157781437039375,0.05393516272306442,0.07558828592300415,0.0562821663916111,0.032357197254896164,0.02624085359275341,-0.15916524827480316,0.06571662425994873,0.04096560925245285,-0.05154300853610039,0.11860564351081848,0.047188617289066315,0.01595507748425007,0.028057964518666267,0.043808043003082275,0.05455450341105461,-0.00801216159015894,-0.013418088667094707,0.16208747029304504,-0.043334633111953735,-0.0937078595161438,0.004075413569808006,-0.08213216811418533,-0.14498916268348694,-0.006673577707260847,0.01657186634838581,0.008788350969552994,0.008725859224796295,-0.07945211231708527,-0.04280862584710121,-0.31869757175445557,-0.1080075278878212,-0.08005724102258682,-0.04594772309064865,-0.039380576461553574,0.18279679119586945,0.03498879820108414,0.011991550214588642,0.05401137098670006,0.12605684995651245,0.08520801365375519,0.15302269160747528,0.07661423087120056,0.07138513028621674,0.14628134667873383,0.006404623854905367,0.07020749896764755,0.3261483311653137,-0.0900874137878418,-0.42264774441719055,0.5375567674636841,-0.16155534982681274,-0.28178003430366516,0.11920823901891708,0.2820676863193512,-0.39078694581985474,0.1665378212928772,0.1772564798593521,-0.13352054357528687,0.16330839693546295,0.32426688075065613,-0.28382304310798645,-0.3604254722595215,0.17797590792179108,-0.14174261689186096,-0.32536178827285767,0.043313559144735336,0.12238281965255737,0.041051894426345825,0.0781998559832573,-0.21795910596847534,0.19367533922195435,0.08572457730770111,0.21881183981895447,0.015849150717258453,-0.013294302858412266,0.12656719982624054,0.07252375036478043,0.07275988161563873,-0.192652627825737,0.27540266513824463,-0.19705511629581451,-0.06275568157434464,0.10137294977903366,0.09434545040130615,-0.26889568567276,0.019073080271482468,-0.22674930095672607,-0.16334974765777588,0.0016926865791901946,-0.17257900536060333,-0.2674145996570587,0.24038496613502502,0.26943886280059814,-0.005082342308014631,0.0810985341668129,0.3618868589401245,0.041281167417764664,-0.006508719641715288,0.2892817258834839,-0.2279309183359146,0.12745985388755798,-0.03680774196982384,0.23940609395503998,0.03129164129495621,0.017602231353521347,0.2679905891418457,0.18678109347820282,-0.18080656230449677,-0.21602217853069305,0.11944841593503952,-0.14594335854053497,-0.145562082529068,-0.2625218331813812,0.34138020873069763,-0.05197266489267349,0.019336871802806854,-0.15264318883419037,0.07850095629692078,-0.11845338344573975,-0.059314604848623276,0.023486632853746414,0.14149677753448486,-0.031988173723220825,0.007406543008983135,-0.027444906532764435,0.09476056694984436,0.01372214313596487,0.10247158259153366,-0.09347598254680634,-0.014523171819746494,-0.0003760267572943121,0.0037198325153440237,0.07183204591274261,-0.036914099007844925,0.03993204981088638,0.1172952950000763,-0.014546860940754414,0.032735079526901245,-0.027736827731132507,0.01194657664746046,-0.05947120115160942,-0.025070158764719963,-0.03418339788913727,-0.08927300572395325,0.12004011869430542,-0.031038664281368256,0.08165622502565384,-0.022969890385866165,-0.05992652848362923,0.028939686715602875,-0.16820093989372253,0.16027629375457764,-0.020049944519996643,0.02518448606133461,-0.10315549373626709,-0.015805164352059364,0.027990927919745445,-0.06053106486797333,0.09021588414907455,-0.18026404082775116,-0.029663247987627983,-0.0011668066726997495,0.04817098379135132,-0.15042053163051605,-0.08642278611660004,-0.02601011097431183,-0.023022528737783432,0.02325398474931717,0.13380692899227142,-0.17824693024158478,-0.12874194979667664,0.025357685983181,-0.059974174946546555,-0.009752273559570312,0.05392711982131004,-0.02439420111477375,0.008060748688876629,-0.028950149193406105,-0.001450573094189167,0.015010924078524113,-0.11208333820104599,0.04565149173140526,-0.09124760329723358,0.10955488681793213,0.016834676265716553,-0.06379451602697372,0.07783066481351852,-0.06931676715612411,-0.010378751903772354,-0.04891176521778107,-0.019122853875160217,-0.08048316091299057,-0.07779230177402496,-0.0025313764344900846,-0.03232307359576225,-0.04162561893463135,-0.03469761833548546,-0.0007570854504592717,-0.02289554663002491,-0.054581739008426666,0.19892258942127228,-0.07594694197177887,-0.05962643027305603,-0.04677564650774002,-0.012814831919968128,0.034143831580877304,-0.09573495388031006,-0.06997627019882202,-0.09228605031967163,0.02058744803071022,-0.15895773470401764,-0.09166599065065384,-0.17704342305660248,-0.07534082978963852,0.014940295368432999,0.0019205284770578146,-0.1671838015317917,-0.1938437670469284,-0.37310880422592163,0.04680242761969566,-0.013734417036175728,0.016526032239198685,0.06051607057452202,0.028689827769994736,0.017091628164052963,-0.057184357196092606,0.0225188210606575,0.031646452844142914,-0.05033509433269501,0.009057600051164627,0.0736556351184845,0.10080055147409439,0.03152510151267052,0.05174759030342102,-0.005010527558624744,0.022269045934081078,-0.15774817764759064,-0.0581485778093338,-0.0022742280270904303,0.03181642293930054,-0.07433968037366867,-0.006991372909396887,0.2908248007297516,0.021052634343504906,-0.03463297337293625,-0.07907108962535858,0.003778752638027072,-0.09871795773506165,-0.06440839916467667,0.01941518858075142,-0.10256124287843704,-0.06589201092720032,0.08195466548204422,0.03853841871023178,0.2041691243648529,-0.15456154942512512,-0.030084511265158653,0.18134212493896484,-0.008914239704608917,-0.04097173735499382,0.08501508086919785,-0.08159364759922028,-0.04435952007770538,0.10250239819288254,-0.1709338277578354,-0.11650440841913223,0.16166779398918152,0.018810922279953957,-0.07022008299827576,-0.06862322241067886,-0.10632113367319107,-0.10866937041282654,-0.03600480034947395,0.2166541963815689,-0.04185309261083603,-0.06724970042705536,-0.08299759775400162,-0.08429969102144241,0.04248384013772011,-0.10381026566028595,-0.06471224129199982,0.0015118602896109223,0.024032164365053177,0.006576532498002052,-0.04315437003970146,-0.24982483685016632,-0.08453523367643356,-0.07825031876564026,-0.060976624488830566,-0.13036757707595825,-0.061362989246845245,0.11860309541225433,-0.02397085353732109,-0.05735819786787033,-0.031195448711514473,0.03972862288355827,0.0670672357082367,0.040542080998420715,-0.057196684181690216,-0.08115334808826447,-0.13191097974777222,-0.07438589632511139,0.03289344161748886,0.02482452057301998,-0.030291393399238586,-0.06382046639919281,-0.0833943784236908,0.0017255769344046712,0.046838462352752686,-0.15899430215358734,0.02696840837597847,0.03602193668484688,0.024563977494835854,-0.024681326001882553,-0.03821588680148125,0.15551027655601501,-0.03327168896794319,-0.043700672686100006,0.054208479821681976,-0.007768711540848017,-0.0011447452707216144,-0.02974889986217022,-0.0028610762674361467,-0.06756362318992615,-0.01937331072986126,0.18702250719070435,0.03816918656229973,0.0740852877497673,-0.045718543231487274,0.056654904037714005,-0.038584452122449875,-0.03792492300271988,-0.07581884413957596,-0.01978878490626812,0.009874836541712284,-0.04482352361083031,-0.0515415333211422,0.09700928628444672,0.1133318617939949,-0.012299111112952232,0.0255117230117321,0.12293776124715805,-0.050813548266887665,-0.2291691154241562,-0.12260879576206207,-0.03285425528883934,-0.017400173470377922,-0.12123975902795792,0.0930715799331665,0.05553657189011574,0.17221330106258392,-0.0087040476500988,-0.01749657467007637,-0.17589956521987915,-0.04785032197833061,0.0022303496953099966,0.02414212003350258,-0.07110141962766647,-0.02757137082517147,-0.26782211661338806,-0.007485377136617899,0.0372437946498394,0.011926645413041115,0.0025952605064958334,-0.0859684944152832,-0.04075982794165611,-0.042772188782691956,-0.11006942391395569,-0.13830424845218658,0.08024853467941284,-0.0620410330593586,-0.06870747357606888,-0.08150795847177505,-0.0258434247225523,-0.10160945355892181,0.032811492681503296,-0.15604998171329498,-0.1818976104259491,-0.004128850530833006,-0.004702151287347078,0.010499553754925728,-0.16225166618824005,-0.18500177562236786,-0.08261598646640778,0.00016535824397578835,-0.06534154713153839,-0.04219839349389076,0.10431689023971558,-0.10314811021089554,-0.1604483276605606,-0.15022717416286469,0.02195994183421135,-0.022618919610977173,-0.07848192751407623,-0.07354945689439774,0.13475561141967773,0.07879728823900223,-0.01972421631217003,0.02431422285735607,-0.15122158825397491,-0.03864102065563202,-0.04142983630299568,-0.10485530644655228,-0.07614003121852875,-0.06350748240947723,-0.17774473130702972,0.09285898506641388,0.011492053978145123,-0.15981195867061615,-0.2988932430744171,-0.16645577549934387,0.10841484367847443,-0.07520156353712082,-0.029030827805399895,0.08740846067667007,0.04009529948234558,0.03700939565896988,-0.048772845417261124,-0.0033362882677465677,0.06051008775830269,0.08239390701055527,0.06470045447349548,-0.06262268871068954,0.08432546257972717,-0.0551588349044323,-0.009943771176040173,-0.05625566467642784,-0.015899693593382835,0.04615452140569687,-0.06015005335211754,0.0023298305459320545,-0.01662151888012886,0.11135517060756683,0.0950506255030632,-0.028029056265950203,-0.04560878872871399,-0.01824198104441166,-0.07215679436922073,-0.23339514434337616,-0.22874678671360016,-0.016623904928565025,0.08602376282215118,-0.017902091145515442,-0.03674745559692383,0.06607812643051147,0.11785028129816055,0.1633785516023636,-0.09517829120159149,-0.07862581312656403,0.059968262910842896,0.17130886018276215,0.06021955609321594,-0.09480199217796326,0.01166748721152544,-0.03663766384124756,0.1381610780954361,0.21154209971427917,0.12153702974319458,-0.1146252304315567,-0.003501670667901635,0.029830116778612137,0.07651381194591522,0.10940808057785034,0.09464124590158463,0.06740463525056839,0.23621079325675964,