{"version":"0.7.0","metadata":{"date":{"year":2026,"month":7,"day":7,"hour":5,"minute":56,"second":10},"loudness":-18.894852179883788,"gain":0.45657402516040896,"name":"bassman-v2-clean","modeled_by":"delt","gear_type":"amp_cab","gear_make":"T3K-Null","gear_model":"T3K-Null","tone_type":"bass","trainer":"TONE3000"},"architecture":"SlimmableContainer","config":{"submodels":[{"max_value":0.5,"model":{"version":"0.7.0","metadata":{"date":{"year":2026,"month":7,"day":7,"hour":5,"minute":56,"second":9},"loudness":-18.967038649915526,"gain":0.43614543610515544},"architecture":"WaveNet","config":{"layers":[{"input_size":1,"condition_size":1,"head":{"out_channels":1,"kernel_size":16,"bias":true},"channels":3,"kernel_sizes":[6,6,6,6,6,6,6,6,6,6,6,6,6,6,15,15,6,6,6,6,6,6,6],"dilations":[1,3,7,17,41,101,239,1,3,7,17,41,101,239,1,13,1,3,7,17,41,101,239],"activation":[{"type":"LeakyReLU","negative_slope":0.01},{"type":"LeakyReLU","negative_slope":0.01},{"type":"LeakyReLU","negative_slope":0.01},{"type":"LeakyReLU","negative_slope":0.01},{"type":"LeakyReLU","negative_slope":0.01},{"type":"LeakyReLU","negative_slope":0.01},{"type":"LeakyReLU","negative_slope":0.01},{"type":"LeakyReLU","negative_slope":0.01},{"type":"LeakyReLU","negative_slope":0.01},{"type":"LeakyReLU","negative_slope":0.01},{"type":"LeakyReLU","negative_slope":0.01},{"type":"LeakyReLU","negative_slope":0.01},{"type":"LeakyReLU","negative_slope":0.01},{"type":"LeakyReLU","negative_slope":0.01},{"type":"LeakyReLU","negative_slope":0.01},{"type":"LeakyReLU","negative_slope":0.01},{"type":"LeakyReLU","negative_slope":0.01},{"type":"LeakyReLU","negative_slope":0.01},{"type":"LeakyReLU","negative_slope":0.01},{"type":"LeakyReLU","negative_slope":0.01},{"type":"LeakyReLU","negative_slope":0.01},{"type":"LeakyReLU","negative_slope":0.01},{"type":"LeakyReLU","negative_slope":0.01}],"bottleneck":3,"head1x1":{"active":false,"out_channels":1,"groups":1},"layer1x1":{"active":true,"groups":1},"groups_input":1,"groups_input_mixin":1,"conv_pre_film":{"active":false,"shift":true,"groups":1},"conv_post_film":{"active":false,"shift":true,"groups":1},"input_mixin_pre_film":{"active":false,"shift":true,"groups":1},"input_mixin_post_film":{"active":false,"shift":true,"groups":1},"activation_pre_film":{"active":false,"shift":true,"groups":1},"activation_post_film":{"active":false,"shift":true,"groups":1},"layer1x1_post_film":{"active":false,"shift":true,"groups":1},"head1x1_post_film":{"active":false,"shift":true,"groups":1},"gating_mode":["none","none","none","none","none","none","none","none","none","none","none","none","none","none","none","none","none","none","none","none","none","none","none"],"secondary_activation":[null,null,null,null,null,null,null,null,null,null,null,null,null,null,null,null,null,null,null,null,null,null,null],"slimmable":null}],"head":null,"head_scale":0.00668210852291632},"weights":[-0.36518728733062744,-1.528199553489685,-0.8460654020309448,-0.08422593027353287,-0.028550758957862854,0.03994723781943321,-0.2375190407037735,-0.030373161658644676,-0.22155869007110596,-0.17727214097976685,-0.1524437516927719,0.08261306583881378,-0.30292826890945435,-0.2688142657279968,-0.26252710819244385,-0.1903524249792099,0.0037687818985432386,0.002703227801248431,-0.023987246677279472,-0.3292659819126129,-0.13048404455184937,-0.0792466551065445,0.22546684741973877,-0.3014884889125824,-0.36320093274116516,0.3852091133594513,0.45349350571632385,0.0551140159368515,0.05482153967022896,-0.3033536970615387,-0.38576850295066833,0.18935342133045197,0.5876150727272034,0.051231708377599716,0.1337987780570984,-0.15186963975429535,-0.1392909735441208,0.392543226480484,0.4553612768650055,-0.11288756877183914,-0.1855052411556244,-0.19126103818416595,-0.13797062635421753,0.11053494364023209,0.10856043547391891,-0.1888171285390854,-0.04269203171133995,-0.30369725823402405,-0.1722370684146881,0.3264555335044861,0.2668788731098175,-0.18710127472877502,-0.13951262831687927,-0.14953923225402832,-0.2260899543762207,0.10209261626005173,0.11868023127317429,0.03714907541871071,0.09493262320756912,0.19353967905044556,0.5197826623916626,0.04554760083556175,0.017995689064264297,-0.7859309911727905,-0.020522406324744225,0.3235612213611603,0.1850472092628479,0.41738465428352356,0.48782551288604736,0.10415935516357422,0.6370793581008911,0.0359576977789402,0.17977651953697205,-0.4008531868457794,-0.09230019897222519,0.057753682136535645,-0.03847714141011238,0.22533772885799408,0.026875127106904984,-0.2046949565410614,0.20177552103996277,0.06649072468280792,-0.04626693204045296,0.1673562079668045,0.20644234120845795,0.05427868291735649,-0.5614635348320007,0.034241192042827606,0.015349200926721096,-0.0017095903167501092,0.18072308599948883,-0.04392644017934799,-0.20946770906448364,0.14388787746429443,0.19857314229011536,0.16855975985527039,0.1168397068977356,0.4853869080543518,0.1603110283613205,-0.19072706997394562,-0.38404983282089233,-0.4206801950931549,-0.15527716279029846,-0.2502501606941223,-0.24566322565078735,-0.25552991032600403,-0.002892717719078064,-0.10127139836549759,-0.0029947401490062475,0.17725946009159088,-0.20764434337615967,-0.15248490869998932,-0.04155556485056877,-0.2807455062866211,-0.06864909827709198,0.039971914142370224,0.2303115278482437,-0.008125132881104946,0.14350394904613495,0.03352416306734085,0.21854080259799957,0.12575973570346832,-0.4822791516780853,-0.03800329193472862,-0.06735625863075256,0.08757276833057404,-0.285653293132782,0.3601483404636383,0.09703729301691055,0.2520117461681366,0.20429927110671997,0.20090360939502716,0.47541943192481995,0.902224063873291,1.1537214517593384,-0.35333240032196045,0.2541812062263489,-0.5568937063217163,0.028445687144994736,0.4053739309310913,0.06708546727895737,-0.5389860272407532,-0.7450034022331238,-0.4509556293487549,0.36761000752449036,-0.10830897837877274,0.27398762106895447,-0.03073546290397644,0.16062447428703308,-0.03950102627277374,-0.28944969177246094,-0.05681711062788963,-0.059519797563552856,0.5036514401435852,0.12005925178527832,0.2810943126678467,0.3624054491519928,0.6640858054161072,0.35403570532798767,-0.059970673173666,-0.033614419400691986,0.0445137545466423,0.04736601561307907,0.22565941512584686,-0.14506976306438446,-0.4434179961681366,-0.21464604139328003,-0.20367027819156647,-0.1856536716222763,0.298401802778244,0.28843143582344055,-0.024903252720832825,0.3714439272880554,0.45201653242111206,-0.013051182962954044,-0.2253415733575821,-0.04865654557943344,-0.12802375853061676,-0.2142357975244522,-0.23414403200149536,0.09310370683670044,0.26984184980392456,-0.09716019779443741,-0.06984663009643555,-0.13142485916614532,-0.16348162293434143,-0.2065676748752594,-0.43624070286750793,0.06280137598514557,0.09461607784032822,-0.0715826153755188,-0.03313209116458893,0.08305517584085464,-0.022074585780501366,0.1397887021303177,-0.028709806501865387,0.11178369075059891,0.01699560508131981,-0.26174646615982056,-0.2187536060810089,-0.20385099947452545,0.12071403861045837,-0.01616804115474224,0.14108699560165405,-0.5937081575393677,-0.06683818250894547,-0.7633008360862732,-0.3919295072555542,-0.27220913767814636,-0.39309272170066833,-0.5796648263931274,-0.21591676771640778,-0.187013179063797,0.43638870120048523,0.31532996892929077,0.5675625205039978,0.16039735078811646,-0.1141396313905716,0.457990437746048,-0.029907872900366783,-0.08981652557849884,-0.07661757618188858,-0.05105748027563095,-0.14770786464214325,0.03218730911612511,-0.11718886345624924,-0.07529105246067047,-0.1406044363975525,-0.08732906728982925,-0.18403415381908417,-0.4619368612766266,0.006124341860413551,0.051430992782115936,0.0829736590385437,0.09576579183340073,0.11440994590520859,-0.21636134386062622,-0.08546049892902374,0.008597073145210743,0.009090054780244827,0.0017967282328754663,-0.06307951360940933,-0.28506240248680115,-0.06072201207280159,-0.12140701711177826,-0.12044177204370499,-0.1372140645980835,-0.11525405943393707,-0.4943391680717468,0.07254547625780106,0.032789889723062515,0.04115176945924759,0.008123403415083885,0.02937127836048603,-0.34165558218955994,-0.05918699502944946,-0.036487285047769547,-0.15081773698329926,-0.09301779419183731,0.1619178056716919,0.10927201062440872,-0.217420294880867,-0.38799071311950684,-0.2885255813598633,-0.2341325730085373,-0.244291752576828,0.22255319356918335,0.24381707608699799,0.2720784544944763,0.2638346254825592,0.19873088598251343,0.14098262786865234,-0.6233479976654053,0.1512843370437622,0.031431443989276886,0.07453096657991409,-0.05520901829004288,0.2166362702846527,-0.798572838306427,-0.27569282054901123,0.327639639377594,-0.4796878695487976,0.21213537454605103,0.0821547582745552,-0.1801425814628601,0.25314903259277344,0.10330480337142944,0.5357977151870728,-0.2656297981739044,-0.21589049696922302,0.39717403054237366,0.3386538624763489,0.1295180767774582,-0.1316055804491043,0.2713061571121216,0.21744659543037415,0.11133639514446259,0.3222086727619171,0.13191355764865875,-0.016209708526730537,0.10658296197652817,0.22083841264247894,0.18614462018013,-0.3871189057826996,-0.046633586287498474,0.01336453016847372,-0.17441846430301666,-0.22585763037204742,0.2108924835920334,0.07608728110790253,0.33335718512535095,0.11430840194225311,0.33055755496025085,0.5178495049476624,-0.2308349609375,0.1355343610048294,0.1172022819519043,0.19872325658798218,0.2286757528781891,0.059562887996435165,0.12189981341362,-0.28493356704711914,-0.20810768008232117,-0.348269522190094,-0.09721069782972336,-0.4188438355922699,0.32137331366539,-0.03567105531692505,-0.23871511220932007,-0.11342648416757584,-0.16531524062156677,-0.3748585283756256,0.027675621211528778,-0.24280226230621338,-0.16983529925346375,-0.174113929271698,-0.018288156017661095,0.06532790511846542,-0.38394612073898315,0.08158543705940247,0.2754414975643158,0.1674683839082718,0.14957258105278015,0.2020694464445114,-0.18672297894954681,-0.1271909922361374,-0.24882642924785614,0.29069557785987854,-0.6281851530075073,-0.13559839129447937,0.37192878127098083,0.31710317730903625,0.8392103910446167,-0.25166594982147217,0.0433492437005043,-0.6204308867454529,0.684181272983551,0.5683448910713196,0.016840441152453423,-0.015290618874132633,-0.20848962664604187,-0.006813670974224806,0.1394263654947281,0.021543219685554504,0.01036328636109829,-0.0709618628025055,-0.05841309577226639,-0.11126958578824997,0.15018528699874878,-0.058184269815683365,-0.05705803632736206,-0.1671363264322281,0.03182534873485565,-0.070090152323246,-0.24240872263908386,0.04938690364360809,0.06777731329202652,0.17516613006591797,0.2229907512664795,0.08673905581235886,0.045388445258140564,-0.012063916772603989,0.08049382269382477,0.09710151702165604,0.05591023340821266,0.10562216490507126,-0.26179200410842896,0.05565192922949791,-0.05272878333926201,-0.21509334444999695,-0.1619357019662857,-0.2062101513147354,-0.204972505569458,0.023171693086624146,-0.07244735211133957,-0.09148295223712921,-0.0808490589261055,-0.12606194615364075,-0.5335032343864441,0.01134112011641264,-0.08733198791742325,-0.09565179795026779,-0.14973323047161102,-0.14473187923431396,-0.4562820494174957,0.00978255458176136,0.06525886058807373,0.145356222987175,0.2065916657447815,0.09353742748498917,0.15949448943138123,-0.0068763610906898975,0.09409308433532715,0.08995312452316284,0.12156031280755997,0.15060150623321533,-0.2855750620365143,-0.2573111653327942,0.324017196893692,0.1763075441122055,0.6688716411590576,0.9758956432342529,-0.18800756335258484,-0.19149263203144073,-0.19240328669548035,0.3418826460838318,0.3304426968097687,-0.060064975172281265,0.22041580080986023,0.0598340779542923,-0.2558620572090149,0.5230051875114441,-0.3407755494117737,-0.002427908591926098,-0.45757007598876953,0.07204561680555344,0.06717782467603683,-0.07699497789144516,-0.027325212955474854,0.027070701122283936,0.023796310648322105,-0.03776536136865616,0.02166450209915638,0.037364184856414795,-0.049137454479932785,-0.10804103314876556,-0.1131194680929184,0.00878158025443554,0.021985158324241638,0.032149363309144974,-0.2026674896478653,0.05571012943983078,0.12827527523040771,0.01332812663167715,0.013908248394727707,-0.03680047020316124,-0.028881404548883438,0.057260870933532715,-0.21446578204631805,-0.007851281203329563,0.00175610336009413,0.025681473314762115,0.12732037901878357,-0.08919641375541687,0.7248815298080444,0.014430533163249493,0.008820291608572006,0.034714024513959885,0.0695817619562149,-0.08667813241481781,-0.15011882781982422,-0.00025066276430152357,-0.0038216819521039724,0.002532646292820573,0.022051777690649033,0.047684673219919205,0.17164680361747742,-0.005506903864443302,0.004112264607101679,-0.01138900127261877,0.054532647132873535,-0.1812470555305481,-0.2041635811328888,0.0036746039986610413,0.004032958298921585,-0.01085477415472269,0.009946431033313274,-0.07152514159679413,0.055961817502975464,0.10487296432256699,0.16830453276634216,0.06300268322229385,-0.15535950660705566,-0.8267881870269775,-0.9125176668167114,0.3134884834289551,0.15136471390724182,0.5002945065498352,0.08334900438785553,-0.6989149451255798,-0.036805883049964905,-0.24010245501995087,0.0904032364487648,0.32526203989982605,0.2966251075267792,-0.3611113131046295,0.06269259750843048,-0.22960767149925232,-0.2496088594198227,-0.1961991786956787,-0.15016113221645355,0.08357996493577957,0.16144196689128876,0.03559677302837372,0.06312376260757446,-0.05286933854222298,-0.1321067214012146,0.07088080048561096,-0.08396800607442856,-0.00016064202645793557,-0.3165723383426666,-0.1812649965286255,0.043580129742622375,0.14455871284008026,0.030513981357216835,0.018199071288108826,0.0417766198515892,-0.09522974491119385,-0.11513368785381317,-0.16371820867061615,-0.2656816840171814,-0.073631651699543,-0.07069279998540878,-0.059044212102890015,0.03703485429286957,0.11550596356391907,0.11992812901735306,0.07461652159690857,0.011105447076261044,-0.09466314315795898,-0.002320914063602686,-0.05822247639298439,-0.12186294794082642,0.04053998365998268,-0.07537592202425003,0.08396989852190018,0.15116338431835175,-0.19821488857269287,-0.14428864419460297,-0.18102899193763733,0.09245091676712036,-0.046261273324489594,-0.10325098037719727,0.05877065286040306,-0.12861186265945435,0.07707230001688004,-0.09062216430902481,0.02733469568192959,0.10407430678606033,-0.21409867703914642,-0.08732828497886658,0.38212406635284424,-0.24228672683238983,0.01497058104723692,-0.20046694576740265,0.1670052409172058,0.8988049626350403,-0.12247441709041595,0.11641983687877655,-0.5516458749771118,0.13434435427188873,0.07832935452461243,-0.26539549231529236,-0.005199991166591644,0.39477020502090454,-0.44405892491340637,-0.0357142873108387,-0.17703573405742645,0.2849429249763489,-0.16467219591140747,-0.1270851194858551,0.03593899682164192,-0.016898471862077713,0.02912481501698494,-0.1058344617486,0.03588767349720001,0.015495833940804005,-0.01791459321975708,-0.07230211794376373,-0.13479498028755188,-0.1487109512090683,0.027578633278608322,0.05300848186016083,-0.09282191842794418,0.044775187969207764,-0.028404271230101585,-0.5696861743927002,0.07103119045495987,0.06337088346481323,0.305039644241333,0.24346746504306793,0.07121831923723221,-0.3673006296157837,-0.07249746471643448,0.04904253035783768,-0.15195301175117493,-0.21176189184188843,-0.10699643194675446,-0.1946149617433548,0.23715469241142273,0.05455485358834267,0.3292468786239624,0.3430308997631073,0.011977246962487698,0.0557713620364666,-0.21436725556850433,-0.19288918375968933,0.010089170187711716,-0.19690924882888794,-0.04852518066763878,-0.1238003596663475,-0.12400860339403152,0.036740247160196304,0.10388650745153427,-0.059571731835603714,0.007508487906306982,0.08490645885467529,-0.10200589150190353,-0.1261616051197052,-0.17200538516044617,-0.2717876136302948,-0.24400876462459564,-0.18066295981407166,-0.17605750262737274,0.15998128056526184,-0.12940725684165955,0.20139120519161224,0.27010390162467957,-0.14422336220741272,-0.25362375378608704,0.008036956191062927,-0.15803936123847961,0.16207855939865112,-0.6431354284286499,0.46307286620140076,-0.24083568155765533,-0.1866864114999771,-0.26167869567871094,0.048193249851465225,0.4122299253940582,-0.0979769378900528,-0.005273798946291208,0.002640268299728632,0.025217685848474503,-0.0011147113982588053,0.19555340707302094,-0.15466338396072388,-0.03604397177696228,-0.029151376336812973,0.019019417464733124,0.1163937896490097,0.11809363961219788,0.1380985975265503,0.14985768496990204,0.16457276046276093,0.20624414086341858,0.05672160163521767,0.03147371858358383,-0.383312851190567,-0.062467511743307114,-0.023965122178196907,0.011271516792476177,0.0017768669640645385,0.016703469678759575,-0.1646476835012436,0.017997410148382187,-0.030552402138710022,0.0037652109749615192,0.03221582993865013,-0.04287271201610565,-0.09165959060192108,-0.0854019969701767,-0.14052441716194153,-0.20464928448200226,-0.11597003787755966,-0.17204079031944275,-0.5070496201515198,0.22637228667736053,0.25783148407936096,0.21753975749015808,0.22336819767951965,0.25303569436073303,-0.5706459879875183,-0.35361534357070923,-0.16557838022708893,-0.1871446967124939,-0.07745592296123505,-0.055714815855026245,0.13892562687397003,0.16033144295215607,0.25219953060150146,0.2779744267463684,0.06734432280063629,0.06488802284002304,-0.5424861311912537,0.10075240582227707,-0.2873093783855438,0.3545418977737427,0.20191434025764465,-0.19260020554065704,1.2684215307235718,0.19001391530036926,-0.4318694770336151,-0.12727327644824982,-0.08219697326421738,0.18431375920772552,-0.6796135902404785,0.3658323884010315,-0.2039162665605545,0.02074207365512848,0.004180734511464834,0.3636581599712372,0.22926539182662964,-0.0609029121696949,-0.13059818744659424,-0.19482500851154327,-0.1062532588839531,-0.24584856629371643,0.18715660274028778,0.0377824567258358,0.08471257239580154,0.1744462549686432,0.04632512852549553,0.1574815809726715,-0.49305275082588196,-0.015547708608210087,-0.06129181385040283,-0.10892220586538315,-0.027705634012818336,-0.11345714330673218,0.3261229395866394,0.08848148584365845,0.020372191444039345,0.02634667418897152,0.018147718161344528,-0.04247384890913963,-0.46485909819602966,0.007481792476028204,0.018607694655656815,0.0189202893525362,0.03728736191987991,0.09007686376571655,-0.2766493260860443,0.20825503766536713,0.17843694984912872,0.26515108346939087,0.24917666614055634,0.08314776420593262,-0.21270091831684113,-0.04773382842540741,0.005590558517724276,0.04589207470417023,0.042362652719020844,0.0363735593855381,0.0437626987695694,-0.12531419098377228,-0.007612853776663542,0.1392357498407364,0.23120804131031036,0.3045305013656616,0.35918954014778137,0.08925338834524155,0.04388901963829994,0.020518997684121132,-0.00435144267976284,-0.0007582666585221887,-0.03127807006239891,0.6551616191864014,-0.39095234870910645,0.027245162054896355,-0.19375285506248474,0.9368850588798523,-0.012620080262422562,-0.31156694889068604,0.08966047316789627,-0.2258429080247879,0.8360704779624939,0.08690323680639267,-0.12388496845960617,0.38222870230674744,0.03725555166602135,0.20883183181285858,0.21176666021347046,0.7309613823890686,-0.5615572333335876,0.0694846585392952,-0.3001890778541565,-0.2167166769504547,-0.1332038789987564,0.08305597305297852,0.017308713868260384,-0.1138276532292366,0.16611379384994507,0.13745498657226562,-0.0028324744198471308,-0.25394412875175476,0.06477268785238266,-0.041427385061979294,-0.08154759556055069,-0.030410366132855415,0.11029168218374252,0.3722933232784271,-0.2577251195907593,0.012785416096448898,0.28397342562675476,-0.012723595835268497,0.10344699025154114,-0.021794628351926804,0.06141490116715431,0.03584130108356476,-0.13336333632469177,0.017361419275403023,-0.05987590551376343,0.11159206181764603,-0.20796100795269012,0.1315438449382782,-0.027474937960505486,0.2175254076719284,-0.006005002185702324,-0.06250870227813721,-0.07263020426034927,0.03698926791548729,0.03645048663020134,0.04640272259712219,0.018261825665831566,-0.1256125420331955,0.05255761742591858,-0.05095202848315239,-0.02976020984351635,-0.01512167975306511,-0.015093406662344933,0.094912089407444,0.21121419966220856,-0.03874887898564339,-0.01983172819018364,-0.08586584031581879,-0.0003052474348805845,-0.0694751963019371,0.07190626114606857,0.4111197292804718,0.07373970001935959,0.09197184443473816,-0.19753658771514893,0.12979857623577118,-0.6459820866584778,-0.5720007419586182,-0.1354013830423355,0.22230589389801025,-0.2723308205604553,0.13843059539794922,0.4484373927116394,0.2528391480445862,0.06365983933210373,0.2086210697889328,-0.4577498435974121,0.7593903541564941,-0.3885628879070282,0.0205439031124115,0.22429399192333221,0.0779416412115097,0.04950624704360962,0.2991504967212677,0.00930554885417223,0.09707895666360855,0.0013954807072877884,0.011695214547216892,0.048072971403598785,-0.08755678683519363,-0.3841555118560791,-0.17308445274829865,-0.34793126583099365,-0.10004879534244537,-0.21286584436893463,-0.14034707844257355,-0.13714627921581268,0.14018093049526215,-0.0017405037069693208,-0.13758139312267303,-0.3780730962753296,-0.17326496541500092,-0.19599099457263947,-0.10926090180873871,0.025876792147755623,0.1735110580921173,0.27243033051490784,-0.01854783110320568,-0.20077435672283173,-0.0068585858680307865,-0.002641295548528433,-0.02141694165766239,0.09043454378843307,0.281474232673645,-0.13554640114307404,-0.0258374884724617,-0.03630852326750755,-0.004501096438616514,0.0063237277790904045,0.024364888668060303,0.2379990518093109,-0.0010178697993978858,-0.009471239522099495,-0.03905807435512543,-0.016934795305132866,0.04120903089642525,0.28907302021980286,0.055118270218372345,0.07077566534280777,0.05497370660305023,-0.014332804828882217,-0.10197880864143372,0.1836102306842804,0.14943267405033112,0.3884602189064026,-0.21351556479930878,-0.5087134838104248,0.9871515035629272,-0.09996167570352554,-0.26167377829551697,-0.13678498566150665,-0.3662171959877014,-0.36572080850601196,-0.7684251666069031,-0.43598413467407227,-0.28284141421318054,-0.4434433579444885,-0.1548311859369278,-0.19252577424049377,-0.11322587728500366,0.029056690633296967,0.0066870152950286865,-0.02449573203921318,0.04201837629079819,0.09133275598287582,0.011887965723872185,-0.04603629186749458,0.0084959976375103,0.016569864004850388,-0.03711017593741417,-0.021170232445001602,0.03145203739404678,-0.5313494801521301,-0.019821593537926674,-0.009134401567280293,0.02063639648258686,-0.038024380803108215,-0.017982913181185722,-0.10405439883470535,-0.025734279304742813,-0.01951049268245697,0.12136051803827286,0.14585216343402863,-0.1479896903038025,-0.18124733865261078,0.029913945123553276,0.025945674628019333,-0.0854698121547699,-0.009390084072947502,0.11098513007164001,-0.518515408039093,-0.04070407524704933,-0.02755674719810486,0.030949478968977928,-0.1043134480714798,-0.0035584282595664263,-0.23790469765663147,0.00870740320533514,0.02603970468044281,-0.1810065060853958,-0.2672331929206848,-0.055532198399305344,0.10961871594190598,-0.06349091231822968,-0.07673555612564087,0.3083307147026062,-0.03736181557178497,-0.26486608386039734,0.07020790874958038,0.20608071982860565,-0.012427843175828457,-0.09820346534252167,0.15847715735435486,-0.12298165261745453,-0.09113717824220657,-0.6810177564620972,0.19561825692653656,-0.041003093123435974,0.6167045831680298,0.44070497155189514,-0.18108153343200684,0.44684895873069763,-0.3130282163619995,0.054508406668901443,1.0582139492034912,-0.4798634648323059,-0.14097805321216583,-0.20061230659484863,-0.1865980625152588,0.3591606020927429,-0.14022059738636017,-0.2609485685825348,-0.8013168573379517,-0.07741641998291016,0.028828563168644905,0.07045774161815643,0.18155184388160706,-0.0066310940310359,0.13878798484802246,-0.00624920753762126,-0.2564297318458557,-0.22991396486759186,-0.27301666140556335,-0.45846059918403625,-0.33590394258499146,-0.422265887260437,-0.023030756041407585,0.44096091389656067,-0.07451847940683365,-0.05665534734725952,0.1203356683254242,0.16174055635929108,0.23009563982486725,0.43583253026008606,0.12910568714141846,-0.12738536298274994,-0.21744920313358307,-0.6379098892211914,-0.7015710473060608,-0.4834064543247223,-0.5912650227546692,-0.3036538064479828,-0.25178998708724976,-0.24710237979888916,-0.23866687715053558,-0.08961404860019684,-0.1182250827550888,-0.00585385924205184,0.280125230550766,0.08665774017572403,-0.04068869724869728,-0.08736516535282135,-0.21697373688220978,-0.5978307723999023,-0.504111647605896,-0.3283722400665283,-0.1269793063402176,-0.16479243338108063,0.044693369418382645,0.0356956385076046,0.05645473673939705,-0.00006608452531509101,-0.023778213188052177,-0.10066159069538116,-0.11828906089067459,-0.004474705085158348,-0.03841462358832359,-0.02770276367664337,0.18459053337574005,0.1636761873960495,0.18246081471443176,0.1468886137008667,-0.05094387009739876,0.0586710199713707,-0.02867904119193554,-0.005479359533637762,-0.045212291181087494,-0.09128447622060776,-0.10207618027925491,-0.05249984934926033,0.04556049406528473,0.05159609392285347,0.05046744644641876,0.32707980275154114,0.4788300693035126,0.379094660282135,0.10090207308530807,-0.1703677475452423,0.1283402442932129,0.13161605596542358,0.0007561211823485792,-0.038851723074913025,-0.043274469673633575,-0.05747801810503006,-0.1268094778060913,0.029804591089487076,0.11350779235363007,0.02260824292898178,0.12085363268852234,0.3195890784263611,0.22898834943771362,0.1557117998600006,-0.014602633193135262,-0.1283201277256012,-0.044528380036354065,-0.09057354182004929,0.023825552314519882,0.10750237852334976,-0.0072875432670116425,0.1274176985025406,-0.08466555923223495,0.07937423884868622,0.12190279364585876,0.006199373863637447,-0.13457152247428894,0.03277480602264404,-0.19066452980041504,-0.16441377997398376,-0.07109346240758896,-0.09685570001602173,-0.10641944408416748,0.07414482533931732,0.06752923876047134,0.046968646347522736,-0.07850167155265808,0.03930317237973213,0.04720952734351158,-0.11299929767847061,-0.043732210993766785,-0.13358066976070404,-0.19225762784481049,-0.26491063833236694,-0.32573872804641724,-0.06039944291114807,0.04780087247490883,-0.10267180949449539,0.04602742940187454,0.07706791162490845,-0.13114237785339355,-0.07547048479318619,-0.013403339311480522,-0.06065303459763527,0.04405929893255234,-0.052144404500722885,0.05497080832719803,0.08358821272850037,-0.25934332609176636,-0.46487703919410706,0.3184129297733307,-0.2541140615940094,0.06550249457359314,-0.9792975783348083,0.20548784732818604,0.4139692783355713,-0.543626070022583,0.6707324385643005,-0.28099745512008667,0.21344809234142303,-0.13801024854183197,-0.3859212398529053,0.274306058883667,-0.2485988587141037,0.1591070145368576,0.020525312051177025,-0.0918540358543396,-0.24835911393165588,0.08910388499498367,0.04167104884982109,0.12491048127412796,0.034984733909368515,0.07145992666482925,0.019355496391654015,-0.008294234052300453,0.03892936185002327,-0.06939069926738739,0.006034403573721647,-0.004406637046486139,-0.0019323183223605156,0.01059870608150959,-0.06203922629356384,-0.016011346131563187,0.15513263642787933,0.08602838218212128,0.14357523620128632,-0.004989658948034048,0.09340058267116547,0.13371850550174713,-0.0038275732658803463,0.10566467046737671,-0.13114629685878754,-0.017213592305779457,0.2756953239440918,-0.0063188690692186356,0.0034102611243724823,0.0112687386572361,0.08611716330051422,0.13305795192718506,0.14951008558273315,0.15760865807533264,0.051185350865125656,0.12340163439512253,0.06880316138267517,-0.043764736503362656,0.010108236223459244,-0.10576707869768143,-0.010381779633462429,0.16643962264060974,-0.11313866823911667,-0.11349516361951828,0.09037727117538452,0.10690227895975113,0.0382913239300251,-0.22383354604244232,0.08063573390245438,-0.24612915515899658,0.047020893543958664,-0.06717436760663986,-0.30235370993614197,0.1488400101661682,-0.2263934165239334,0.1085430309176445,-0.18057870864868164,-0.19727058708667755,0.09676363319158554,0.19016273319721222,-0.08923330157995224,-0.03844260424375534,-0.22532761096954346,-0.07755331695079803,0.1349029541015625,0.12075551599264145,-0.06554099917411804,-0.06282762438058853,-0.2033509910106659,0.1390240490436554,-0.08096180856227875,-0.12220007926225662,0.10053126513957977,-0.02061540074646473,0.13218189775943756,0.02678871899843216,-0.10353381186723709,0.18333198130130768,0.20847852528095245,0.2712290585041046,-0.01905515231192112,0.1460798978805542,0.1058867946267128,0.29028069972991943,0.059251733124256134,-0.18856830894947052,-0.23595283925533295,0.05863330140709877,-0.032137006521224976,-0.28209808468818665,-0.2747672498226166,-0.4181523621082306,-0.15004189312458038,-0.17604504525661469,0.04984063655138016,-0.2127775400876999,-0.07497396320104599,-0.049077108502388,0.03152367100119591,0.18986964225769043,0.033802784979343414,-0.00824055913835764,0.07427021116018295,0.047758590430021286,-0.008294505067169666,-0.16114094853401184,0.1155378594994545,0.11177919805049896,0.20665651559829712,-0.02358386479318142,-0.028272166848182678,0.08694232255220413,0.12736010551452637,-0.0623522587120533,0.06183062493801117,-0.1483299881219864,0.023755580186843872,0.018509529531002045,-0.05129425972700119,-0.009900073520839214,-0.3150345981121063,0.1912730187177658,-0.02130773849785328,-0.18031439185142517,-0.2627871036529541,-0.160079225897789,0.062332261353731155,-0.06704641133546829,0.05296133831143379,0.025143666192889214,-0.07619310915470123,0.25557181239128113,0.029553262516856194,0.016634026542305946,0.14034847915172577,0.0032966765575110912,0.10724584013223648,0.005086308810859919,0.08477643132209778,-0.09073960781097412,0.702524721622467,0.4644775688648224,-0.3566669821739197,0.1372753083705902,-0.020634211599826813,-0.163183331489563,-0.23935562372207642,0.18903741240501404,-0.19731411337852478,0.4703565537929535,0.5463599562644958,-0.2045356035232544,0.047417037189006805,0.009969782084226608,0.06971447914838791,-0.12378799915313721,-0.19097782671451569,-0.21693280339241028,-0.2589065134525299,-0.07956534624099731,-0.17721369862556458,-0.557661235332489,-0.27306586503982544,-0.35605764389038086,-0.07294179499149323,-0.0960906445980072,0.12597504258155823,0.09857965260744095,-0.2034037709236145,0.09065602719783783,0.12753650546073914,0.025793714448809624,0.1503097116947174,-0.14582030475139618,0.2333795130252838,-0.08419734239578247,-0.060915034264326096,-0.05903495103120804,-0.01030380092561245,0.1353440284729004,0.19310615956783295,-0.006945648696273565,-0.1750470995903015,-0.21036593616008759,-0.10054508596658707,-0.08559667319059372,-0.06958219408988953,0.16192543506622314,0.13002678751945496,0.24774591624736786,0.01452065259218216,0.1118716299533844,-0.06081298738718033,0.11297023296356201,-0.02991662360727787,0.17928366363048553,0.03998050093650818,-0.010744246654212475,0.04805383458733559,0.017304543405771255,0.07162431627511978,-0.16959679126739502,-0.010151918977499008,0.07515290379524231,-0.13004404306411743,-0.09087517112493515,0.011356727220118046,0.07822834700345993,-0.16013899445533752,0.14574100077152252,0.06973199546337128,-0.6343467235565186,1.1563565731048584,0.08353161066770554,-0.13355590403079987,0.5026214718818665,-0.41432714462280273,0.1887974590063095,-0.29834118485450745,0.1141490638256073,-0.53211510181427,0.15846315026283264,0.10870472341775894,0.12486780434846878,0.1774640679359436,0.3445271849632263,-0.05754121020436287,-0.11640852689743042,-0.12009456753730774,-0.00636874558404088,-0.2821061313152313,-0.14912180602550507,0.1902201771736145,0.3152145445346832,0.298249214887619,-0.2619076073169708,-0.7266103625297546,0.5206311345100403,0.3390776813030243,0.056066177785396576,-0.2646602392196655,0.5537583231925964,0.1629459261894226,0.02214275486767292,0.05798112973570824,-0.13302356004714966,0.03730650246143341,-0.1480991542339325,0.5275893807411194,0.024999642744660378,0.01294876728206873,0.09024709463119507,-0.3228118419647217,0.6341437697410583,0.024493765085935593,-0.11834608018398285,-0.026723027229309082,0.06934374570846558,0.04350724071264267,-0.06621510535478592,-0.20125211775302887,-0.01603136956691742,0.04561859741806984,-0.06665641814470291,0.038134828209877014,-0.20027843117713928,0.2825993001461029,0.19090315699577332,-0.08138420432806015,0.21655690670013428,-0.39700284600257874,0.4427136480808258,0.13004383444786072,0.026644129306077957,-0.045880354940891266,0.06120926886796951,0.07783989608287811,-0.08216369897127151,-0.009930325672030449,-0.14997996389865875,0.2619743049144745,-0.06069760024547577,-0.12624624371528625,-0.6859816312789917,-0.009562650695443153,-0.011937391944229603,-0.12368524074554443,0.28622564673423767,0.5724385976791382,-0.5523308515548706,0.06484918296337128,0.055271703749895096,0.24193516373634338,-0.4254406690597534,-0.5313566327095032,0.03519267216324806,-0.15176233649253845,0.04262729734182358,-0.02561837062239647,-0.17559093236923218,-0.48760682344436646,-0.006638453342020512,-0.15462762117385864,-0.36459672451019287,0.07297243922948837,-0.13683080673217773,-0.05446488782763481,0.091749407351017,0.0450870543718338,0.2787313163280487,-0.01145215518772602,-0.24902690947055817,-0.24672096967697144,0.19827544689178467,-0.14838480949401855,0.4649215042591095,0.0548030361533165,0.04908818379044533,0.09778626263141632,0.0030611115507781506,0.10717415809631348,0.1234927549958229,0.07511717826128006,0.051418982446193695,0.08642467856407166,0.08343217521905899,0.11535068601369858,0.06849636137485504,0.09593953937292099,0.10041673481464386,-0.06584716588258743,0.012560782954096794,0.09447995573282242,0.043152760714292526,0.047295644879341125,0.010788343846797943,0.0661705806851387,0.02746499702334404,0.05694764479994774,0.01029098592698574,0.028963759541511536,-0.0009266799315810204,-0.06266168504953384,-0.017525190487504005,-0.05017755925655365,-0.021711084991693497,-0.022092310711741447,0.016030708327889442,-0.049751777201890945,-0.07426431030035019,-0.036918219178915024,-0.11440236121416092,0.18543316423892975,0.020264793187379837,-0.007652764208614826,-0.6635867953300476,0.03216080367565155,0.00425709318369627,-0.12819716334342957,0.10236714780330658,0.0003494204138405621,-0.45971113443374634,0.2882113456726074,0.0023314314894378185,-0.5513501167297363,0.263873815536499,-0.003388656536117196,0.3028467297554016,0.19917821884155273,0.17997772991657257,0.014990870840847492,-0.07963327318429947,-0.04370827227830887,0.08868584036827087,0.15148498117923737,-0.5362670421600342,0.005349664483219385,0.14170248806476593,-0.01839422434568405,-0.018509481102228165,-0.06973829120397568,-0.21880505979061127,0.11430514603853226,0.35531070828437805,-0.2954336404800415,-0.23198197782039642,0.10118480771780014,0.159632608294487,-0.06658240407705307,-0.19030418992042542,-0.3390890657901764,-0.1285533756017685,-0.058797404170036316,0.05361052602529526,0.06528189778327942,-0.22795307636260986,-0.12294267863035202,-0.11348304897546768,-0.2322019636631012,0.07724365592002869,-0.014381651766598225,-0.2171270251274109,-0.3053445816040039,-0.17526985704898834,0.08758040517568588,0.2417694479227066,0.03873268887400627,0.07765887677669525,0.04851336404681206,0.05646035820245743,0.06622540205717087,0.009654810652136803,0.132493793964386,0.07938162237405777,0.18336482346057892,0.26938992738723755,-0.006260387133806944,-0.12601390480995178,0.07473454624414444,0.11423515528440475,0.2762608230113983,-0.05733027681708336,0.11541180312633514,-0.17210955917835236,0.013927029445767403,0.036119457334280014,0.02891574427485466,-0.29244524240493774,0.3784309923648834,-0.05993751809000969,0.27991512417793274,-0.0024591616820544004,-0.1010165810585022,0.2616114914417267,-0.40185511112213135,0.47512197494506836,-0.22504307329654694,-0.22111107409000397,0.26988479495048523,-0.5120104551315308,-0.11227373033761978,-0.242213174700737,0.01657462678849697,-0.19669270515441895,-0.17894484102725983,-0.26100367307662964,-0.10693240165710449,-0.36942827701568604,0.032962311059236526,0.12037555873394012,0.11498025804758072,0.0059073977172374725,0.03131097927689552,-0.48010846972465515,0.14144740998744965,0.18950101733207703,0.37691110372543335,0.39004629850387573,0.2015138566493988,0.10491805523633957,0.041167475283145905,-0.23727653920650482,-0.17075619101524353,-0.371473491191864,-0.07480859011411667,0.09655021876096725,0.12322432547807693,0.14040103554725647,-0.06760908663272858,-0.3355966806411743,-0.208912193775177,-0.11913318932056427,-0.03308669477701187,0.02710512839257717,-0.16903522610664368,-0.165619358420372,-0.010815135203301907,-0.06654273718595505,-0.013085032813251019,0.09404943138360977,0.10553745180368423,0.25593510270118713,0.09675195813179016,-0.061353325843811035,-0.08487610518932343,-0.023970017209649086,0.2565165162086487,0.15461353957653046,0.13611243665218353,0.004600468557327986,-0.10861854255199432,0.0177668035030365,0.13937708735466003,0.19817349314689636,0.13850748538970947,0.005158665589988232,0.17984454333782196,0.07558054476976395,0.03403772786259651,-0.6854771971702576,0.42024731636047363,-0.15418660640716553,-0.0802234411239624,0.324046790599823,0.11829441040754318,0.747896671295166,-0.794215738773346,0.5823867321014404,-0.05551894009113312,0.1999250203371048,-0.19427435100078583,0.03650625795125961,-0.1805737167596817,-0.45538729429244995,0.008163204416632652,0.008481793105602264,0.0180277731269598,-0.01628345623612404,-0.002738992450758815,-0.029271621257066727,0.019263984635472298,0.033361535519361496,0.012879685498774052,-0.007010284345597029,0.05192197859287262,0.015175938606262207,0.007862118072807789,0.0369228757917881,0.024895580485463142,-0.008348978124558926,0.0009070470696315169,0.006708980537950993,-0.09966959804296494,-0.039824776351451874,-0.06119247153401375,0.07813551276922226,-0.06198201701045036,-0.006591565907001495,-0.2458835393190384,-0.19851243495941162,-0.10323115438222885,0.07082777470350266,0.1586536169052124,-0.15367984771728516,0.0704454630613327,-0.003241791622713208,0.07606291770935059,0.05500819906592369,-0.050017088651657104,0.07771353423595428,0.004663651343435049,-0.06812624633312225,-0.00004919073762721382,-0.19149303436279297,-0.03770611062645912,-0.03707480430603027,0.03438280522823334,-0.14025521278381348,-0.1993817389011383,-0.33526915311813354,-0.34104934334754944,0.15736599266529083,-0.07692517340183258,-0.05056700110435486,-0.2341209501028061,-0.19888849556446075,0.3299802243709564,-0.29436197876930237,-0.0031985228415578604,0.32418885827064514,0.1230841800570488,-0.004216838628053665,0.30517101287841797,0.1301756352186203,-0.007662015501409769,0.050480421632528305,-0.583082914352417,-0.005072384141385555,1.337060570716858,0.2821480333805084,0.000041551706090103835,0.16042523086071014,0.5776487588882446,-0.1235814020037651,0.15870440006256104,-0.012794717215001583,-0.0009976581204682589,-0.02001352608203888,0.005411243531852961,0.03166307881474495,-0.011098748072981834,-0.4045509994029999,-0.023707620799541473,-0.05388614535331726,0.019799932837486267,0.04990697652101517,0.014043440110981464,-0.03978167474269867,-0.04648750275373459,-0.010167661122977734,0.07124944776296616,-0.03379467502236366,-0.08936098217964172,0.35800501704216003,0.022153373807668686,0.05004030466079712,-0.014175458811223507,-0.11008729040622711,-0.13598854839801788,-0.16048599779605865,0.12652960419654846,0.18369460105895996,-0.01670665107667446,-0.2856692671775818,-0.04850314185023308,-0.2387312799692154,0.025951599702239037,-0.06151397526264191,-0.08720141649246216,0.08871292322874069,0.2966393530368805,-0.11770328879356384,-0.05260413512587547,-0.0056878444738686085,0.04809010773897171,0.10604429244995117,0.009098059497773647,0.0875672996044159,-0.10182923823595047,-0.12318035960197449,0.03194734454154968,0.20233328640460968,-0.011410952545702457,0.11268788576126099,-0.022053180262446404,-0.008151931688189507,0.020951857790350914,-0.022030001506209373,-0.11461832374334335,0.02306418865919113,-0.00980471447110176,0.30351564288139343,-0.004260116722434759,-0.39984357357025146,0.40214404463768005,0.020682839676737785,0.4162098467350006,-0.00858832336962223,0.5327888131141663,0.11612158268690109,0.18631941080093384,-0.07476914674043655,-0.32249006628990173,-0.3899204134941101,-0.36959829926490784,-0.3457287847995758,0.4948616325855255,-0.35605674982070923,0.013303061947226524,0.03611919656395912,0.04166872799396515,0.018714720383286476,-0.017400497570633888,-0.06138398125767708,-0.10747620463371277,-0.15515415370464325,-0.18403930962085724,-0.16202682256698608,-0.08181114494800568,0.04543749615550041,0.19526676833629608,0.3030231297016144,0.289614200592041,0.141128271818161,-0.024749064818024635,-0.0731729120016098,-0.12823350727558136,-0.1825253665447235,-0.21694348752498627,-0.21946896612644196,-0.1741168051958084,-0.10034686326980591,-0.02843654528260231,0.055264148861169815,0.11473559588193893,0.07372374087572098,-0.01248160284012556,-0.06927917152643204,-0.07811976224184036,-0.03418045863509178,0.029284005984663963,0.07594531029462814,0.10598748177289963,0.09321319311857224,0.05954822152853012,0.04225454106926918,0.061634063720703125,0.09315130859613419,0.11669133603572845,0.17497843503952026,0.2441142350435257,0.18554426729679108,0.06109184771776199,0.009936608374118805,0.0027079146821051836,0.0005456148646771908,-0.12538273632526398,0.006682108373559555],"sample_rate":48000}},{"max_value":1,"model":{"version":"0.7.0","metadata":{"date":{"year":2026,"month":7,"day":7,"hour":5,"minute":56,"second":9},"loudness":-18.894852179883788,"gain":0.45657402516040896},"architecture":"WaveNet","config":{"layers":[{"input_size":1,"condition_size":1,"head":{"out_channels":1,"kernel_size":16,"bias":true},"channels":8,"kernel_sizes":[6,6,6,6,6,6,6,6,6,6,6,6,6,6,15,15,6,6,6,6,6,6,6],"dilations":[1,3,7,17,41,101,239,1,3,7,17,41,101,239,1,13,1,3,7,17,41,101,239],"activation":[{"type":"LeakyReLU","negative_slope":0.01},{"type":"LeakyReLU","negative_slope":0.01},{"type":"LeakyReLU","negative_slope":0.01},{"type":"LeakyReLU","negative_slope":0.01},{"type":"LeakyReLU","negative_slope":0.01},{"type":"LeakyReLU","negative_slope":0.01},{"type":"LeakyReLU","negative_slope":0.01},{"type":"LeakyReLU","negative_slope":0.01},{"type":"LeakyReLU","negative_slope":0.01},{"type":"LeakyReLU","negative_slope":0.01},{"type":"LeakyReLU","negative_slope":0.01},{"type":"LeakyReLU","negative_slope":0.01},{"type":"LeakyReLU","negative_slope":0.01},{"type":"LeakyReLU","negative_slope":0.01},{"type":"LeakyReLU","negative_slope":0.01},{"type":"LeakyReLU","negative_slope":0.01},{"type":"LeakyReLU","negative_slope":0.01},{"type":"LeakyReLU","negative_slope":0.01},{"type":"LeakyReLU","negative_slope":0.01},{"type":"LeakyReLU","negative_slope":0.01},{"type":"LeakyReLU","negative_slope":0.01},{"type":"LeakyReLU","negative_slope":0.01},{"type":"LeakyReLU","negative_slope":0.01}],"bottleneck":8,"head1x1":{"active":false,"out_channels":1,"groups":1},"layer1x1":{"active":true,"groups":1},"groups_input":1,"groups_input_mixin":1,"conv_pre_film":{"active":false,"shift":true,"groups":1},"conv_post_film":{"active":false,"shift":true,"groups":1},"input_mixin_pre_film":{"active":false,"shift":true,"groups":1},"input_mixin_post_film":{"active":false,"shift":true,"groups":1},"activation_pre_film":{"active":false,"shift":true,"groups":1},"activation_post_film":{"active":false,"shift":true,"groups":1},"layer1x1_post_film":{"active":false,"shift":true,"groups":1},"head1x1_post_film":{"active":false,"shift":true,"groups":1},"gating_mode":["none","none","none","none","none","none","none","none","none","none","none","none","none","none","none","none","none","none","none","none","none","none","none"],"secondary_activation":[null,null,null,null,null,null,null,null,null,null,null,null,null,null,null,null,null,null,null,null,null,null,null],"slimmable":null}],"head":null,"head_scale":0.00668210852291632},"weights":[-0.7548799514770508,0.017807843163609505,0.9159985184669495,0.6684339642524719,-0.8220419883728027,-1.0460972785949707,0.8462918400764465,1.1019927263259888,0.0050069778226315975,0.13440218567848206,-0.14874272048473358,-0.1439538449048996,0.2119678109884262,0.08447114378213882,0.0006505305063910782,-0.0026723486371338367,0.004312942735850811,0.006446416024118662,-0.0001625156874069944,0.0031891169492155313,-0.019288385286927223,-0.0823839008808136,0.19502903521060944,0.17139355838298798,-0.15109997987747192,-0.13828696310520172,-0.09579518437385559,-0.05260629206895828,0.14719292521476746,0.138429194688797,-0.17441466450691223,-0.08992502093315125,0.02245698682963848,0.13779155910015106,-0.14356280863285065,-0.14988943934440613,0.1974501609802246,0.10075993090867996,0.06496762484312057,0.13765746355056763,-0.15308400988578796,-0.17592018842697144,0.16022157669067383,0.16173096001148224,-0.06212453544139862,-0.11749999225139618,0.17993828654289246,0.12265931069850922,-0.15266816318035126,-0.13881759345531464,0.019345462322235107,-0.17440149188041687,0.2127029001712799,0.28068482875823975,-0.1625707596540451,-0.14173516631126404,0.0315454825758934,-0.006423120386898518,-0.01638166978955269,-0.08132430166006088,0.11146535724401474,0.13397648930549622,0.0009978491580113769,0.0003943429619539529,0.001791648450307548,0.0031350827775895596,0.0004473247390706092,-0.00038660436985082924,0.0651804581284523,0.03220420330762863,-0.026872629299759865,0.052016500383615494,-0.15513530373573303,-0.18792115151882172,-0.02609141729772091,0.03756801038980484,0.0440782867372036,0.08536042273044586,-0.0891437828540802,-0.17605836689472198,-0.013700656592845917,0.09109848737716675,-0.04562287777662277,0.009818893857300282,0.15629346668720245,0.18877731263637543,-0.05329155921936035,0.04870720952749252,-0.06761250644922256,-0.06553465873003006,0.1508438140153885,0.15163689851760864,0.07280495017766953,0.03751114755868912,0.06377910077571869,0.09657794237136841,-0.08480150252580643,-0.13429905474185944,-0.04075225442647934,-0.05833875387907028,-0.004785052500665188,0.011210842058062553,-0.11312932521104813,-0.12658430635929108,0.03929100185632706,-0.07979991286993027,0.23234787583351135,0.32566702365875244,-0.2521819472312927,-0.2281024008989334,-0.005987777840346098,-0.001521195867098868,-0.007990884594619274,-0.007841118611395359,-0.00003769234899664298,-0.0012439026031643152,0.022160204127430916,0.04225488379597664,-0.14641788601875305,-0.36417412757873535,0.2581966817378998,0.2128034085035324,0.050862330943346024,0.019258197396993637,-0.24291156232357025,-0.24197115004062653,0.2600243091583252,0.22713792324066162,0.0809093788266182,-0.17236682772636414,0.23713797330856323,0.2284628301858902,-0.1833367645740509,-0.24761006236076355,-0.0017005152767524123,-0.09023836255073547,0.14905929565429688,0.3034829795360565,-0.27676478028297424,-0.2628574073314667,0.0024817490484565496,0.07300779223442078,-0.21499139070510864,-0.33306533098220825,0.14048552513122559,0.12708733975887299,0.03052845224738121,0.15330325067043304,-0.17294205725193024,-0.37623852491378784,0.2482738047838211,0.2114611715078354,-0.00001603478449396789,-0.00017624124302528799,-0.00008861235255608335,-0.0002500522241462022,-0.00040306264418177307,-0.0001899042254080996,0.000006168351774249459,0.000009571259397489484,0.000006591818419110496,0.000009972356565413065,0.000014101330634730402,0.0000097954443845083,-0.00002373040115344338,0.00017943870625458658,0.00008347122638951987,0.0002831190940923989,0.0004721808945760131,0.00020395578758325428,0.00003058848960790783,0.00016945296374615282,0.000087911328591872,0.0002298999606864527,0.00036485877353698015,0.00017904890410136431,0.000003692248583320179,-0.0001750993833411485,-0.00008445585990557447,-0.00026236000121571124,-0.0004306635237298906,-0.00019359246653039008,0.00006207953992998227,-0.00017832015873864293,-0.00007786375499563292,-0.00030808296287432313,-0.0005275052972137928,-0.00021352969633881003,-0.000008852562132233288,0.00017601287981960922,0.00008387939305976033,0.0002671227266546339,0.0004405744548421353,0.00019561516819521785,-0.00009107392543228343,0.00016886848607100546,0.0000684379119775258,0.0003137160383630544,0.0005487221642397344,0.00021049891074653715,-0.003625184530392289,0.02120370790362358,-0.03848693147301674,-0.08386997878551483,0.06472769379615784,0.04657093062996864,-0.0000598516890022438,-0.0007060168427415192,0.001112297992222011,0.0024691151920706034,-0.0019060266204178333,-0.0013267038157209754,0.005046820733696222,-0.024021197110414505,0.04513171315193176,0.09918005764484406,-0.07530298829078674,-0.053183019161224365,0.0032211982179433107,-0.019716981798410416,0.03565514087677002,0.07715842872858047,-0.059814680367708206,-0.0435640849173069,-0.004835143685340881,0.022702932357788086,-0.0427498035132885,-0.09351301193237305,0.07093465328216553,0.05041270703077316,-0.006409992463886738,0.025752514600753784,-0.0499277338385582,-0.10995495319366455,0.08261163532733917,0.05755709111690521,0.004508482292294502,-0.023136433213949203,0.042747046798467636,0.0938156321644783,-0.07181784510612488,-0.05099146440625191,0.00870251189917326,-0.026951974257826805,0.05611457675695419,0.12302260100841522,-0.09006181359291077,-0.06186964362859726,-0.061069972813129425,-0.16241595149040222,-0.16563206911087036,-0.15873077511787415,-0.28260791301727295,-0.20053879916667938,-0.0006641463260166347,0.001121673034504056,0.0014800303615629673,0.0009203060762956738,0.0037390650250017643,0.002810704056173563,0.08710642158985138,0.19746710360050201,0.20034697651863098,0.1638585478067398,0.30671682953834534,0.22343452274799347,0.09081148356199265,0.14303246140480042,0.15488408505916595,0.14538347721099854,0.2928421199321747,0.21729736030101776,-0.0608513280749321,-0.20620153844356537,-0.18566463887691498,-0.17242254316806793,-0.2974398732185364,-0.22036834061145782,-0.07029274851083755,-0.19151706993579865,-0.2023383378982544,-0.18359540402889252,-0.3165757656097412,-0.22857895493507385,0.06705951690673828,0.18574345111846924,0.1789766103029251,0.15223564207553864,0.28424981236457825,0.20638567209243774,0.07760421931743622,0.20851972699165344,0.22162456810474396,0.1872442364692688,0.3938962519168854,0.31070783734321594,-0.0006954327109269798,-0.00027171059628017247,0.00021239346824586391,0.0004165931895840913,0.00045460532419383526,0.00040123710641637444,0.0000016535700524400454,0.0000016412299146395526,-3.9347077063212055e-7,-0.0000028998740617680596,-0.000007551286216767039,-0.000006733225745847449,0.00096696283435449,0.00037931097904220223,-0.00028444366762414575,-0.0005624049226753414,-0.000589767238125205,-0.000528160308022052,0.0005607506609521806,0.00021839843248017132,-0.0001761616294970736,-0.000344176689395681,-0.0003856742405332625,-0.0003372389473952353,-0.0008176070987246931,-0.0003167389950249344,0.000248739670496434,0.0004826791991945356,0.0005121402791701257,0.00045206365757621825,-0.0011835505720227957,-0.0004645980952773243,0.0003421054861973971,0.0006796456873416901,0.0006957240984775126,0.0006267449934966862,0.000859173946082592,0.0003370451449882239,-0.0002543310110922903,-0.0005028454470448196,-0.0005333364242687821,-0.0004734336689580232,0.0012983977794647217,0.0005078522372059524,-0.0003706493880599737,-0.0007355920388363302,-0.0007422119961120188,-0.0006702003302052617,-0.052572064101696014,-0.00017726983060128987,-0.05128291994333267,-0.24382664263248444,0.13481520116329193,0.1878741979598999,0.00265897368080914,-0.00005425287599791773,0.0013300166465342045,0.005620885640382767,-0.0005914233042858541,0.0013359736185520887,0.01068771630525589,-0.0668477788567543,0.13633641600608826,0.1753329634666443,-0.2208506315946579,-0.17233559489250183,-0.052379220724105835,0.07084422558546066,0.04943379759788513,0.09975234419107437,-0.20167571306228638,-0.11277061700820923,0.0505455806851387,0.004285311326384544,-0.1435166299343109,-0.2304840385913849,0.16701282560825348,0.08361546695232391,0.09853918105363846,-0.08876964449882507,-0.18317054212093353,-0.2544298768043518,0.16671518981456757,0.19197644293308258,0.05495443940162659,-0.07541670650243759,0.11874078959226608,0.22550907731056213,-0.14045512676239014,-0.04363585636019707,-0.02723371982574463,-0.07087808847427368,0.19719040393829346,0.14442262053489685,-0.1422957181930542,-0.15871720016002655,0.1372741013765335,0.31991297006607056,0.22956182062625885,-0.007576850708574057,-0.06504515558481216,-0.0005081469425931573,-0.0186175424605608,0.2557455599308014,-0.26755788922309875,-0.11593803018331528,0.13827498257160187,0.0002042093256022781,-0.061636652797460556,0.4242440164089203,-0.000589777366258204,-0.5800734758377075,0.20542845129966736,0.33094698190689087,-0.1407814919948578,0.0020781904458999634,0.14202487468719482,0.2383873164653778,-0.002048060530796647,0.24443143606185913,-0.02913874387741089,-0.217545285820961,-0.05174167826771736,0.00022484154033008963,-0.025936787948012352,-0.05079835653305054,0.002196338027715683,-0.007011216599494219,-0.05371475592255592,0.2537422478199005,0.5081183910369873,0.0022067741956561804,-0.11846297979354858,-0.4093748927116394,-0.0011154491221532226,-0.2993091940879822,0.15026475489139557,-0.03670549765229225,0.3231561779975891,-0.004307628609240055,-0.13753755390644073,0.435684472322464,0.002387690357863903,-0.03805600106716156,0.24156348407268524,-0.018923025578260422,-0.4658121168613434,0.001020728494040668,0.23134122788906097,-0.0964549332857132,-0.0033868621103465557,0.5601752400398254,0.46370720863342285,0.27922216057777405,0.2190174013376236,0.0009169051772914827,0.0668669268488884,0.3496244251728058,0.004380360711365938,0.025490717962384224,-0.14568276703357697,-0.16443191468715668,0.4890412390232086,0.00004773344335262664,-0.16523301601409912,0.16400738060474396,-0.0010966049740090966,-0.3406420052051544,-0.34411460161209106,-0.14691361784934998,0.3841201364994049,-0.006146465428173542,-0.0679091140627861,-0.11300475150346756,0.0032465001568198204,-0.3868781328201294,-0.20325787365436554,0.08783912658691406,-0.11758057773113251,-0.04760842025279999,-0.06757280975580215,-0.185882106423378,0.04235190525650978,0.11033987998962402,0.10282180458307266,0.03775911033153534,0.016970500349998474,0.012380972504615784,0.010228902101516724,0.01829051971435547,-0.06339302659034729,-0.04806763306260109,-0.04793141409754753,-0.07857712358236313,-0.046000368893146515,0.02852187119424343,-0.14938469231128693,-0.22039121389389038,-0.23947900533676147,-0.233442023396492,-0.1642443686723709,0.044923968613147736,-0.14862924814224243,-0.0641840472817421,-0.041799113154411316,-0.09406254440546036,-0.09403501451015472,-0.10605578124523163,0.1359824687242508,0.04290085658431053,0.06929910182952881,0.0855742022395134,0.01850961521267891,-0.10770975053310394,0.4064357280731201,0.37600943446159363,0.32093510031700134,0.27537068724632263,0.16318434476852417,0.07341481000185013,-0.10441485792398453,-0.12067429721355438,-0.01898331381380558,-0.025216270238161087,-0.005641824100166559,0.024162547662854195,-0.17424370348453522,-0.16064704954624176,-0.12327578663825989,-0.19652719795703888,-0.1325657069683075,0.11775511503219604,-0.07392431050539017,-0.10367219895124435,-0.04377082362771034,-0.01684793271124363,0.11869454383850098,-0.05610962212085724,0.013136001303792,0.01252106111496687,0.015373066067695618,0.018303904682397842,0.0005571179208345711,-0.08391907066106796,-0.1734481006860733,-0.12211542576551437,-0.16096901893615723,-0.0754055306315422,-0.26309603452682495,0.2130233347415924,0.06545376777648926,0.056131135672330856,0.019663825631141663,-0.10768057405948639,-0.21444885432720184,0.24034307897090912,-0.03799956664443016,0.011777783744037151,0.03366600722074509,-0.028492620214819908,0.20454195141792297,-0.14841240644454956,0.0474528968334198,-0.028815820813179016,-0.0598461739718914,0.12928850948810577,0.2577294111251831,0.1786392629146576,-0.18462558090686798,0.01260574720799923,-0.03985597938299179,-0.023767901584506035,-0.22580648958683014,0.11495807021856308,-0.0001916561886901036,0.017588865011930466,-0.03922181576490402,-0.11930100619792938,-0.18369926512241364,0.17084118723869324,0.04226787015795708,0.1450013816356659,-0.009307680651545525,-0.035911787301301956,0.0389430895447731,-0.03480871766805649,0.01183994859457016,0.045094285160303116,0.011577608995139599,0.03105366788804531,0.0222257561981678,0.051130231469869614,-0.21690146625041962,-0.16828908026218414,-0.09218975901603699,-0.1506681591272354,-0.10459420084953308,0.13610714673995972,0.09526118636131287,0.010016467422246933,0.11354508996009827,0.08408743143081665,0.04935144633054733,-0.10641633719205856,-0.036333948373794556,-0.01665365882217884,-0.004475449211895466,-0.11470849812030792,-0.09487228095531464,0.11233474314212799,-0.021107926964759827,0.031102929264307022,0.05504787340760231,0.015473141334950924,-0.06171998754143715,-0.13400951027870178,0.17332613468170166,0.058366574347019196,0.0930604487657547,0.1536240577697754,0.07034216821193695,-0.18257959187030792,0.05978773534297943,0.025564823299646378,0.11530985683202744,0.029202986508607864,-0.024219665676355362,-0.07319577038288116,-0.037070441991090775,-0.04061523452401161,-0.02126186527311802,-0.006004908587783575,0.052034586668014526,-0.07608852535486221,0.011658867821097374,0.011582039296627045,0.004165802150964737,-0.009420462884008884,-0.027140146121382713,-0.008051691576838493,-0.004600381013005972,0.03327951952815056,0.030792785808444023,0.0923948884010315,0.05859905481338501,0.2676341235637665,0.033588726073503494,-0.0027107931673526764,0.016323193907737732,-0.07439839839935303,-0.05667756870388985,0.016336217522621155,-0.0002681981131900102,0.012247593142092228,0.005033314228057861,0.010676639154553413,-0.002651858376339078,-0.09183431416749954,-0.08814584463834763,-0.05949859321117401,-0.022987691685557365,0.017640670761466026,0.12109384685754776,0.051741428673267365,0.02411317080259323,0.009396341629326344,0.020845336839556694,-0.020999504253268242,-0.03043258562684059,0.10262832045555115,0.03714699298143387,0.025359001010656357,0.02205594815313816,0.003818315686658025,-0.04554292559623718,0.11673139780759811,-0.032721612602472305,0.009269436821341515,-0.009265989065170288,0.04164068028330803,0.04334365203976631,0.13397277891635895,0.02581511251628399,-0.012444494292140007,-0.009118680842220783,-0.010654793120920658,-0.04080536216497421,-0.03267078474164009,-0.014543292112648487,0.06556696444749832,0.10299912840127945,0.07114215195178986,0.12845122814178467,-0.040555138140916824,0.013211701065301895,-0.020299211144447327,0.025282004848122597,0.007458903826773167,-0.02315516397356987,-0.036690905690193176,0.021966909989714622,0.026185618713498116,-0.0028318327385932207,0.01851804554462433,-0.020754873752593994,0.140000581741333,-0.0824461504817009,-0.02430596761405468,0.008858923800289631,0.07322660833597183,0.04832206293940544,0.13511626422405243,0.028996778652071953,-0.004314313642680645,0.04631512984633446,0.01603478379547596,0.004351123236119747,-0.0962875708937645,0.042097754776477814,0.013355681672692299,0.03802110627293587,-0.015206386335194111,0.01075112447142601,-0.14303667843341827,-0.09122232347726822,-0.07866062223911285,-0.08114886283874512,-0.07274623215198517,-0.05594751611351967,-0.17926201224327087,-0.005491176154464483,-0.003547141794115305,-0.025187315419316292,-0.001949321012943983,-0.044908761978149414,0.006712697446346283,-0.001900776056572795,0.013558491133153439,-0.07709337770938873,-0.015453971922397614,-0.1569625288248062,0.3388635516166687,-0.042921584099531174,0.07573367655277252,-0.03470446541905403,0.01850452832877636,-0.13607648015022278,0.29230186343193054,-0.06979865580797195,-0.0792321115732193,0.024991648271679878,-0.005430319812148809,-0.005641614086925983,-0.10212036967277527,-0.029297400265932083,-0.03253331407904625,0.026697898283600807,-0.012186666019260883,-0.015858551487326622,0.042909566313028336,-0.03238586708903313,-0.14253109693527222,-0.07822247594594955,-0.08482451736927032,-0.14931915700435638,0.1734514981508255,-0.09001656621694565,-0.07080774754285812,0.03865831717848778,-0.05539899691939354,-0.028108594939112663,0.06882406771183014,0.021986423060297966,0.032041680067777634,0.02780056744813919,-0.034172773361206055,-0.1418461948633194,-0.06034580245614052,0.02078898437321186,0.023524614050984383,0.017409948632121086,0.028042634949088097,0.06245318427681923,0.06941711157560349,-0.03223540261387825,-0.0053006913512945175,-0.018659895285964012,0.047973573207855225,0.1642248034477234,0.0014910015743225813,-0.015314774587750435,-0.05927928537130356,-0.10566384345293045,-0.0024616029113531113,0.13062743842601776,0.024790124967694283,0.05912909284234047,0.08723703771829605,0.13356563448905945,0.03538423404097557,-0.1822703629732132,-0.07233648002147675,0.12496347725391388,0.11453764140605927,0.11662524193525314,0.0646454244852066,-0.07296254485845566,-0.06352652609348297,-0.07523732632398605,-0.10597065091133118,-0.15678592026233673,-0.034482453018426895,0.20601588487625122,0.0893300399184227,-0.0974358543753624,-0.10660877078771591,-0.15344056487083435,-0.021515948697924614,0.24718451499938965,0.10795927047729492,-0.13717645406723022,-0.021497035399079323,-0.05887841060757637,-0.09724429994821548,-0.12542204558849335,-0.02934354357421398,0.028946606442332268,0.03737689182162285,0.04146777465939522,0.03619309514760971,0.02388056367635727,0.03625134751200676,-0.17264308035373688,-0.06933832168579102,-0.043290410190820694,-0.034263357520103455,0.051364414393901825,0.0072159538976848125,-0.06469810754060745,-0.06229042634367943,0.019483348354697227,0.05716312676668167,0.12593567371368408,-0.08879189938306808,-0.033207014203071594,-0.05699150264263153,-0.12666356563568115,-0.06199605390429497,-0.11803214251995087,0.06684589385986328,-0.02152918465435505,0.01767231523990631,-0.045708391815423965,-0.03003852441906929,0.05937330797314644,0.06051841378211975,-0.06119519844651222,-0.0339924655854702,-0.07900828868150711,-0.1512318104505539,-0.02065637893974781,-0.19450660049915314,0.06582098454236984,-0.0014734454452991486,0.005602090619504452,-0.04681814834475517,0.0660654753446579,-0.12120010703802109,0.02141023427248001,0.055188290774822235,0.0669931024312973,-0.012183957733213902,-0.26734113693237305,0.18744781613349915,-0.012330182828009129,0.04467908293008804,-0.33259207010269165,0.17095577716827393,0.11829648166894913,-0.01758119836449623,-0.05523940920829773,0.5075262784957886,-0.0321262963116169,-0.31942784786224365,0.262942373752594,-0.25297659635543823,0.15607532858848572,-0.04238848760724068,-0.16516269743442535,-0.12939102947711945,0.15445999801158905,0.32130226492881775,-0.08683253824710846,-0.13005447387695312,-0.0005103668081574142,-0.12871743738651276,0.10734415799379349,-0.026296693831682205,0.05939668044447899,-0.027441829442977905,-0.15361306071281433,0.10368653386831284,-0.205475851893425,-0.14048263430595398,0.1795395463705063,0.04137733206152916,-0.2298261523246765,0.019923541694879532,0.3521275520324707,0.28913936018943787,0.20195943117141724,0.13842631876468658,0.2335781753063202,0.027409693226218224,0.3103909194469452,-0.21723495423793793,-0.30626529455184937,-0.25873395800590515,0.14910301566123962,-0.2135966420173645,-0.21460089087486267,-0.24557659029960632,-0.12234468758106232,0.02887393720448017,0.36933860182762146,0.03771360591053963,0.18962757289409637,0.04817574843764305,0.11692899465560913,0.08035910129547119,0.2826607823371887,0.08186300098896027,0.0101593853905797,0.21928463876247406,0.11469052731990814,0.10423999279737473,-0.0731426253914833,0.2810981273651123,0.1273547112941742,-0.03614770621061325,-0.18278053402900696,-0.158174529671669,0.1332216113805771,0.06530648469924927,0.1584358811378479,0.28316256403923035,-0.08842045813798904,0.07282578200101852,-0.09418036788702011,0.03128288686275482,0.07623590528964996,-0.11161315441131592,0.07778453826904297,-0.14593008160591125,-0.07672026753425598,-0.14035296440124512,-0.06297445297241211,0.021170228719711304,-0.0013266927562654018,-0.00027122264145873487,-0.1023169606924057,-0.05612946301698685,0.08664245903491974,0.03986038267612457,0.042035333812236786,-0.007981621660292149,0.07011326402425766,-0.034627851098775864,0.06093362346291542,0.03194811940193176,0.021904001012444496,-0.02639632299542427,-0.018212173134088516,0.13112638890743256,-0.048350147902965546,-0.0462803915143013,0.0437493771314621,0.004144436214119196,-0.015398774296045303,0.15524820983409882,-0.10164882242679596,-0.034017447382211685,0.026374682784080505,0.008476462215185165,0.0069929989986121655,-0.18254899978637695,-0.11090993881225586,-0.009173105470836163,-0.10036125034093857,-0.09310916811227798,-0.08938979357481003,-0.06102174520492554,-0.03167388215661049,-0.018131179735064507,-0.02454851195216179,-0.04176924377679825,-0.015018168836832047,0.181207537651062,-0.10227983444929123,-0.04315492510795593,-0.13118281960487366,-0.03052564524114132,-0.1275804489850998,0.09795676916837692,-0.017389722168445587,-0.12365944683551788,0.0057123270817101,0.00847681239247322,-0.061974894255399704,0.003272960428148508,0.024540506303310394,0.04704781994223595,0.08850231766700745,0.03989991173148155,0.04625241458415985,-0.0638161301612854,-0.03153988718986511,-0.07142636179924011,-0.0810658261179924,0.0032409869600087404,-0.014479173347353935,0.3320162892341614,0.04927852004766464,0.06315937638282776,0.030174843966960907,0.031348709017038345,0.03806300461292267,-0.005286128725856543,0.04166603833436966,-0.002359177218750119,-0.021976441144943237,-0.07078375667333603,-0.02508528344333172,-0.16388869285583496,-0.04712418094277382,-0.02507130056619644,-0.08090538531541824,-0.03390604630112648,0.025189803913235664,-0.06879924237728119,0.019211499020457268,-0.06884749233722687,0.031765442341566086,-0.0027378087397664785,-0.06757195293903351,0.034175433218479156,-0.012195439077913761,-0.022992640733718872,0.012084920890629292,-0.04151604324579239,-0.05329335853457451,0.021673740819096565,-0.02365146577358246,0.058330047875642776,0.03151627257466316,0.01883913390338421,-0.052705731242895126,-0.2327698916196823,-0.06543418765068054,-0.024161001667380333,-0.09192946553230286,-0.0573837086558342,-0.011293777264654636,0.09267839044332504,0.09251172095537186,-0.007377521134912968,0.07472702860832214,0.12240371853113174,0.1007891371846199,0.020002707839012146,-0.009182359091937542,0.0341750793159008,-0.017444808036088943,-0.007367949932813644,0.03090389259159565,0.08300440013408661,-0.11186317354440689,-0.0474470779299736,0.06278165429830551,-0.008692520670592785,-0.0555780865252018,-0.17800700664520264,0.04784122109413147,0.06862898170948029,0.1346421092748642,0.02818203717470169,-0.06307122111320496,-0.3162418305873871,-0.11920611560344696,-0.009549826383590698,-0.09545987099409103,-0.05775022506713867,-0.0021423751022666693,0.3182241916656494,-0.15903255343437195,-0.1140815019607544,-0.2134762704372406,-0.09779659658670425,-0.04998528212308884,0.3581136167049408,-0.0119693074375391,-0.030351407825946808,-0.0974377691745758,-0.06684356182813644,-0.08207032084465027,-0.05477145314216614,0.06228889152407646,0.0876820757985115,0.07522418349981308,0.0725431889295578,0.04323224350810051,-0.03844676539301872,-0.13915416598320007,-0.1182972863316536,-0.23533281683921814,-0.14749915897846222,-0.12303514778614044,0.07785256952047348,0.054960254579782486,0.2163027971982956,0.11963989585638046,0.20320561528205872,0.12712614238262177,-0.15736983716487885,0.029797930270433426,0.07455699145793915,-0.1402280479669571,-0.12192021310329437,-0.10986198484897614,0.154873326420784,-0.1155298501253128,-0.06962914764881134,-0.14287640154361725,-0.11023660004138947,-0.028778865933418274,0.08028267323970795,0.10896790027618408,0.11930088698863983,0.09219665825366974,0.0931774154305458,-0.010958828963339329,-0.3724963366985321,0.06237760931253433,0.10073348134756088,0.11430344730615616,0.10001446306705475,-0.0030717006884515285,-0.2210674285888672,-0.012416655197739601,-0.01013458613306284,0.01423416193574667,-0.012272459454834461,-0.05560198426246643,0.039201054722070694,0.014805753715336323,0.028481176123023033,-0.0016903462819755077,-0.004241887480020523,-0.02305949665606022,0.05425093322992325,0.09412325173616409,0.07791611552238464,0.05775846168398857,0.07721370458602905,0.08738205581903458,-0.07774394750595093,-0.07719732075929642,-0.10289599001407623,-0.02804415673017502,0.012803804129362106,0.026729675009846687,-0.033759139478206635,-0.07413674145936966,-0.017073631286621094,-0.040167875587940216,-0.10543473064899445,-0.09072871506214142,0.08241423964500427,-0.0060792299918830395,0.018406739458441734,0.05055023729801178,0.028328269720077515,0.018362782895565033,-0.0041388338431715965,-0.05925576761364937,-0.03477168455719948,-0.03083072602748871,0.01804053969681263,0.06087183207273483,-0.0436338447034359,-0.028560752049088478,0.0037417798303067684,-0.05762296915054321,-0.0007069677812978625,0.01005159504711628,-0.016237692907452583,-0.0750928595662117,0.0180340725928545,-0.011708304286003113,-0.11400528252124786,-0.04026346281170845,-0.061384327709674835,-0.002761176787316799,0.08534783869981766,0.03619174286723137,-0.04901373013854027,-0.015195293352007866,-0.015489719808101654,0.016988446936011314,-0.04115789756178856,0.03614263981580734,-0.0471087321639061,-0.00026982746203429997,-0.2514612376689911,-0.0020978576503694057,-0.0326879620552063,0.05287126824259758,-0.08021772652864456,0.03450080379843712,0.04323797672986984,0.010361935012042522,0.02017338015139103,0.04906176030635834,0.009944711811840534,-0.03893696144223213,0.07923627644777298,-0.004424493294209242,-0.021838968619704247,0.016843587160110474,0.09356648474931717,-0.08845779299736023,-0.08002486079931259,-0.051174044609069824,0.03382455185055733,0.04499160125851631,-0.026803918182849884,0.08615460991859436,-0.05267894268035889,-0.031127480790019035,0.04442550987005234,0.0015528816729784012,-0.11547771841287613,0.02318206988275051,-0.10669314861297607,-0.0080001475289464,0.004065584857016802,0.0024658478796482086,-0.04074782505631447,0.003923818003386259,0.08775579184293747,-0.004944896791130304,0.01616220362484455,-0.010182816535234451,-0.015005548484623432,0.03037857636809349,0.006674858741462231,0.00328895915299654,-0.05707967281341553,-0.020165322348475456,0.021013474091887474,-0.057190168648958206,-0.01278198603540659,0.012234623543918133,0.008088922128081322,0.031839340925216675,0.0018634377047419548,0.02190377563238144,-0.07000746577978134,0.06684278696775436,0.04839251935482025,-0.01910114660859108,0.034095022827386856,0.06621565669775009,0.05040007084608078,0.027078162878751755,-0.030666368082165718,-0.030420392751693726,0.003188448492437601,-0.08898947387933731,0.058549679815769196,0.015076537616550922,0.04194236174225807,0.03342363238334656,-0.006468255538493395,0.01962161250412464,-0.12695655226707458,0.047365106642246246,0.07038258016109467,0.03162128105759621,0.008176712319254875,0.0623403824865818,-0.09138556569814682,0.053522102534770966,0.07065360248088837,0.03091040812432766,0.05070492625236511,0.051271144300699234,0.1056777611374855,0.010514470748603344,-0.010386966168880463,0.01755683869123459,-0.0045540048740804195,0.008636565878987312,-0.027316680178046227,-0.009209542535245419,0.02040603570640087,0.03079337440431118,0.020173797383904457,-0.04118404909968376,-0.10028167814016342,0.025196922942996025,-0.0408051572740078,-0.056915607303380966,-0.03452733904123306,0.03888712823390961,0.08264267444610596,-0.038166824728250504,0.000993074500001967,-0.012359444051980972,-0.022631224244832993,-0.03148825094103813,-0.01990615203976631,0.03460574522614479,0.05256134644150734,0.010387399233877659,0.0535641610622406,0.03807370737195015,0.06797255575656891,-0.030927259474992752,-0.07002001255750656,-0.03106136992573738,-0.028377462178468704,0.018650779500603676,0.023372231051325798,0.011030793190002441,-0.04038717597723007,-0.003204713109880686,-0.02533390000462532,-0.008808291517198086,-0.02804907225072384,0.053674742579460144,-0.02237500436604023,-0.08041902631521225,0.007455911953002214,-0.05835448578000069,0.03382477909326553,-0.06523070484399796,-0.18767805397510529,-0.0610322579741478,0.026371857151389122,0.08370992541313171,-0.19690537452697754,0.008082780987024307,-0.4455471932888031,-0.0590539388358593,0.0006546349031850696,-0.1491190791130066,-0.15339034795761108,0.22412259876728058,0.3096560835838318,0.00889525655657053,0.333398699760437,-0.12780442833900452,0.012982232496142387,-0.2013053148984909,-0.19567368924617767,0.05804067850112915,0.16942697763442993,0.0374067984521389,-0.16427552700042725,-0.045246098190546036,0.04911958426237106,0.1425551325082779,-0.16596047580242157,-0.13595901429653168,0.002253484446555376,0.0393487848341465,0.25607219338417053,0.0941464900970459,0.1671973615884781,-0.16815948486328125,0.006676332093775272,0.29061055183410645,0.27773770689964294,0.11213115602731705,-0.18141528964042664,-0.04504602029919624,0.043764401227235794,-0.09202698618173599,-0.0910334512591362,-0.10846175253391266,0.0016861649928614497,-0.2208246886730194,0.0993097573518753,-0.17798453569412231,-0.011584935709834099,0.15104371309280396,0.08742488920688629,0.2839585840702057,0.2610078752040863,0.07239755243062973,0.0770919993519783,-0.0207850132137537,-0.11590151488780975,0.057124264538288116,0.11093252897262573,0.11851439625024796,0.15062417089939117,0.02066066861152649,-0.1184733510017395,0.021056456491351128,0.07379969209432602,0.12689699232578278,0.02638637274503708,-0.08369829505681992,0.10820037871599197,-0.19633083045482635,0.13786207139492035,0.13026045262813568,-0.01872869022190571,0.13731394708156586,0.05052326247096062,-0.1390991508960724,0.0449356846511364,0.06102776154875755,0.019843395799398422,0.07683592289686203,-0.005542530678212643,0.09973753243684769,0.10464472323656082,0.1538628488779068,0.17892131209373474,0.05847182124853134,-0.4533456265926361,-0.002212751191109419,-0.0404864065349102,-0.13541768491268158,0.02080073580145836,0.06597097218036652,-0.04562690854072571,-0.04220006614923477,-0.10541395097970963,-0.056712258607149124,-0.0062498776242136955,0.024247461929917336,0.1930696964263916,0.03687816858291626,0.04555731266736984,0.16157014667987823,0.20202207565307617,0.04383951798081398,-0.41050687432289124,0.019489625468850136,-0.09388217329978943,-0.00412762863561511,0.02492550201714039,0.01004097517579794,0.009138030931353569,0.17341752350330353,0.1394692361354828,0.20277246832847595,0.15730851888656616,-0.006616128142923117,-0.4598403871059418,-0.11364107578992844,-0.12485779821872711,-0.02497672103345394,0.032711632549762726,-0.035828862339258194,-0.029492322355508804,-0.28399500250816345,-0.17435507476329803,-0.07488586008548737,-0.06560434401035309,-0.0601862408220768,0.25255319476127625,-0.004155733156949282,-0.005524205043911934,-0.03054940141737461,-0.009414475411176682,0.0015204326482489705,0.1712779402732849,-0.03543740510940552,-0.00873145367950201,-0.03433716669678688,0.04218321666121483,0.008349155075848103,-0.06255273520946503,0.05474770441651344,0.010953766293823719,0.03132166713476181,0.09642353653907776,-0.02560373954474926,0.12138016521930695,0.04659748449921608,-0.00468648923560977,0.023159893229603767,-0.008219113573431969,0.004944945685565472,-0.1296796053647995,0.017704596742987633,0.026078397408127785,0.02306561917066574,-0.04423171281814575,-0.0970432460308075,-0.011391903273761272,0.08600054681301117,0.11809247732162476,0.10746988654136658,0.06913261115550995,0.12420342117547989,0.25705862045288086,-0.05046335980296135,-0.04567549005150795,-0.03613978624343872,-0.04943995550274849,-0.05779070034623146,-0.15741775929927826,0.02050604112446308,0.07403683662414551,0.056997187435626984,0.10006911307573318,0.030151966959238052,-0.04683827981352806,-0.00826642382889986,0.004201174713671207,-0.024483826011419296,0.018550941720604897,0.04662703722715378,0.11106283217668533,-0.014951154589653015,0.003807586617767811,-0.0032009826973080635,-0.01669790782034397,-0.047081876546144485,0.05999179184436798,0.029862336814403534,-0.03718432039022446,0.03171633556485176,0.03025844693183899,0.015856323763728142,0.041972190141677856,0.07967371493577957,0.04695696383714676,0.04108943045139313,0.012473206035792828,0.037869032472372055,0.0029433260206133127,0.016305236145853996,-0.04779890552163124,-0.03729432821273804,-0.01462350133806467,-0.0681341141462326,0.0802639052271843,0.006056786049157381,-0.010827743448317051,-0.00016314530512318015,0.06768131256103516,-0.056205011904239655,0.019132157787680626,-0.04530983045697212,-0.004516604356467724,-0.019093547016382217,-0.02625083364546299,-0.11159922927618027,-0.19540126621723175,0.006222607102245092,-0.04656297713518143,-0.06465420871973038,0.01520112156867981,0.03948993980884552,-0.031397439539432526,-0.03503912687301636,-0.06701748073101044,0.008197124116122723,-0.015919089317321777,0.026915641501545906,-0.011389084160327911,0.09945474565029144,0.06980720907449722,0.05642909184098244,0.08622429519891739,0.076048843562603,-0.08758247643709183,0.026757877320051193,-0.06649710237979889,-0.11014094948768616,-0.03718284144997597,-0.16793498396873474,0.19459208846092224,0.08466850221157074,0.09787972271442413,0.142878919839859,0.15472303330898285,0.18645156919956207,-0.11897879838943481,-0.020882459357380867,0.06217091530561447,0.006826831493526697,0.014117916114628315,0.07098405808210373,-0.17135114967823029,0.017206912860274315,0.03872668743133545,-0.07075213640928268,-0.041748903691768646,0.11775217205286026,-0.04205989092588425,0.00943971797823906,0.09705781936645508,0.10258358716964722,-0.01189772691577673,-0.06346258521080017,-0.0023818793706595898,0.17277230322360992,0.16523292660713196,0.2017550766468048,0.1927516609430313,0.0767371878027916,0.023020122200250626,0.01719929277896881,0.11548160761594772,0.04323723539710045,0.0024153313133865595,-0.03707437589764595,-0.1925017237663269,0.019310370087623596,-0.016147634014487267,0.0005506057059392333,-0.0010808345396071672,0.015727519989013672,-0.08512046188116074,-0.08101841062307358,-0.0006365141016431153,0.02475152723491192,0.10289152711629868,-0.008623218163847923,0.09176988154649734,0.18281535804271698,0.13395746052265167,0.2245025932788849,0.09877518564462662,-0.00785850826650858,-0.2563641369342804,-0.09139607101678848,0.09121934324502945,0.034716203808784485,-0.047881826758384705,-0.07991133630275726,0.11649197340011597,-0.002882306696847081,0.09260354936122894,0.05298797786235809,0.006486608646810055,-0.054563574492931366,-0.24539372324943542,0.09767524898052216,0.1355973482131958,0.026783080771565437,-0.03706497699022293,-0.0980948656797409,-0.14191877841949463,0.13516806066036224,0.036724478006362915,-0.06808838248252869,-0.04164658114314079,-0.028583653271198273,0.13789843022823334,0.04402901604771614,0.007846959866583347,-0.0012902437010779977,0.08591867983341217,-0.0009013473172672093,-0.027808260172605515,0.014269632287323475,-0.1431436538696289,-0.018975891172885895,0.03457453101873398,-0.058620385825634,0.07716859877109528,-0.048544395714998245,0.05203970521688461,0.032694391906261444,0.014180274680256844,0.039040762931108475,0.06420121341943741,-0.00861353613436222,-0.0028521481435745955,-0.009576588869094849,0.008669796399772167,0.049218326807022095,0.13060571253299713,-0.01745769754052162,-0.007322206627577543,-0.07038173079490662,-0.09048069268465042,-0.13213345408439636,-0.00024040418793447316,-0.025263691321015358,0.126008540391922,0.06554046273231506,0.07489430904388428,0.18687662482261658,0.0013149420265108347,-0.013677039183676243,-0.05462319031357765,-0.08378932625055313,-0.12960456311702728,-0.22648006677627563,-0.007348573766648769,0.03313279524445534,-0.049953121691942215,-0.22899900376796722,-0.07710424810647964,-0.11857976019382477,0.05687253177165985,0.07087570428848267,0.08240554481744766,0.042660683393478394,-0.035251814872026443,-0.013089008629322052,0.061116285622119904,-0.04166154935956001,-0.004238567780703306,-0.01654609479010105,0.015801820904016495,0.0033188327215611935,-0.08287011086940765,0.011430783197283745,-0.03159549459815025,-0.010631067678332329,-0.014013754203915596,-0.09000283479690552,-0.1468392312526703,0.026971425861120224,-0.02451620064675808,0.02200583927333355,0.015938222408294678,0.02107556164264679,-0.09066759794950485,0.004771049600094557,-0.04892238974571228,0.0072062090039253235,0.0987776592373848,0.026732701808214188,0.3055591583251953,-0.08783766627311707,-0.07066556811332703,-0.06192990019917488,0.0011958781396970153,-0.018031280487775803,0.1331528127193451,0.03903800621628761,0.016606388613581657,-0.004028975963592529,0.06890162080526352,-0.014953045174479485,-0.02607048489153385,-0.0007507422124035656,0.03156875818967819,0.03933873772621155,0.02134166657924652,0.10712537914514542,-0.04408484324812889,-0.006854533683508635,-0.006833018735051155,-0.005323932506144047,-0.008218111470341682,-0.005698281805962324,-0.006231279112398624,0.000007296564035641495,0.00022664949938189238,0.00025932499556802213,0.00008365428220713511,0.00031883976771496236,0.00007298912532860413,0.006752699613571167,0.0067825098522007465,0.006783133372664452,0.007934032008051872,0.005681130103766918,0.0051883310079574585,-0.009585910476744175,-0.008387087844312191,-0.009204107336699963,-0.01170333195477724,-0.008050361648201942,-0.0074797263368964195,0.005580956116318703,0.004265609662979841,0.005145971197634935,0.0058724298141896725,0.004681779071688652,0.004461917094886303,-0.008467977866530418,-0.0075408825650811195,-0.006598236970603466,-0.010526947677135468,-0.006961657200008631,-0.007375170011073351,-0.0074722180142998695,-0.006283429451286793,-0.008006630465388298,-0.008363664150238037,-0.0064750369638204575,-0.005648094695061445,0.0030261031351983547,0.0033411511685699224,0.0019675225485116243,0.003295683301985264,0.003247667569667101,0.004075868055224419,0.01241864450275898,-0.4931049644947052,-0.07259286195039749,0.04886313155293465,0.027169685810804367,0.09329257160425186,0.13544954359531403,-0.011038720607757568,-0.2221064418554306,-0.013452582061290741,0.07152330130338669,-0.004225313197821379,0.026891930028796196,-0.11645789444446564,-0.29571130871772766,0.00030208483804017305,0.2822149693965912,-0.08975162357091904,-0.05943550541996956,0.03660813346505165,0.23563551902770996,-0.042107727378606796,0.17449602484703064,0.00007462881330866367,0.0037967783864587545,0.12946872413158417,0.060916170477867126,-0.016717730090022087,-0.07955820858478546,0.034144528210163116,-0.1393279731273651,-0.00040220178198069334,-0.12352914363145828,0.26964253187179565,-0.06497105211019516,-0.22893917560577393,-0.09319993108510971,0.08413597196340561,-0.16529370844364166,0.0006684838444925845,0.3334961235523224,0.1343080997467041,0.1734253466129303,0.3468582034111023,0.23599644005298615,-0.05953719839453697,-0.10095912963151932,0.001061402028426528,-0.16707313060760498,0.2095334380865097,-0.05368562415242195,0.1187538132071495,-0.15139901638031006,-0.05557114630937576,0.22046001255512238,-0.0012933847028762102,0.4062792956829071,-0.06228446587920189,-0.07082805037498474,0.2636495530605316,0.3386761248111725,0.14516399800777435,-0.12221050262451172,-0.001241627149283886,0.1706751435995102,0.22624553740024567,0.2879227101802826,0.24441257119178772,0.15028180181980133,0.319021075963974,-0.061112288385629654,-0.0018924062605947256,-0.09203436225652695,0.09505967795848846,-0.11861269921064377,-0.185679629445076,-0.021536679938435555,-0.278659850358963,0.017048858106136322,-0.0006269962759688497,0.047320522367954254,0.008549266494810581,0.11407056450843811,0.11534658819437027,-0.10769577324390411,-0.06441430747509003,-0.12298295646905899,0.13459992408752441,0.04504479467868805,0.1807921677827835,0.09779617190361023,0.0434720478951931,-0.0158541277050972,-0.34551921486854553,-0.07057620584964752,-0.03475862368941307,0.04798716679215431,0.12686589360237122,-0.03899812698364258,0.05615074932575226,-0.06868131458759308,-0.0275192279368639,-0.0886080265045166,-0.006647612899541855,0.02390013076364994,0.19372496008872986,0.06234966218471527,0.18472130596637726,0.28983432054519653,-0.018154671415686607,-0.1271459460258484,-0.16712602972984314,-0.005022608675062656,-0.10979241877794266,-0.013465547934174538,-0.022135518491268158,-0.04450388252735138,0.24320048093795776,0.050411224365234375,0.11115536093711853,0.08531852066516876,0.15358340740203857,0.05508299544453621,-0.36738231778144836,-0.009174467995762825,0.045577969402074814,0.09252431988716125,0.03668375313282013,-0.006028450094163418,-0.26783230900764465,0.06292896717786789,-0.03467533737421036,0.0034535035956650972,0.04635203257203102,0.13058632612228394,0.16411730647087097,-0.02850566804409027,0.051101572811603546,0.05187256634235382,0.016129538416862488,0.03301844000816345,0.053452007472515106,-0.005881095305085182,0.043918099254369736,0.081228107213974,0.029887912794947624,0.04785296320915222,-0.10728934407234192,0.02324356697499752,0.044003311544656754,0.012859837152063847,-0.0009472137317061424,-0.013537500984966755,-0.13089217245578766,0.019297245889902115,0.03434792533516884,0.008306189440190792,0.009892625734210014,0.09963943809270859,-0.044961340725421906,-0.010494977235794067,-0.03379515931010246,-0.0701756402850151,-0.05224255099892616,0.04111623764038086,0.22281518578529358,-0.03397544100880623,-0.03575358912348747,-0.03380725905299187,0.006050659343600273,-0.04044969752430916,0.051805779337882996,-0.05258705094456673,-0.06100256368517876,-0.044479161500930786,-0.10552918165922165,-0.020848695188760757,-0.12528903782367706,0.0004754015535581857,-0.004815997090190649,-0.04557403177022934,0.0679246038198471,0.1133536621928215,0.03579087182879448,0.042680878192186356,-0.0297082532197237,0.007548456080257893,-0.010031134821474552,-0.01643989235162735,-0.046346697956323624,-0.02463540993630886,0.041213225573301315,-0.02085982635617256,0.059503935277462006,0.04270106926560402,-0.1796436458826065,0.025560716167092323,0.012718260288238525,-0.014646732248365879,-0.007503984495997429,0.02554333582520485,0.21513766050338745,0.016504717990756035,0.004814406391233206,0.021455267444252968,-0.006128875073045492,-0.0019500447669997811,0.11153445392847061,-0.03148152679204941,-0.006934403441846371,-0.027234338223934174,-0.03530457243323326,-0.039778511971235275,-0.20036441087722778,-0.06671994924545288,0.008834827691316605,-0.04263157770037651,-0.003783029969781637,-0.08810071647167206,-0.02832910791039467,-0.046853452920913696,-0.03312975540757179,-0.03355713188648224,-0.04099380970001221,-0.0031627460848540068,0.009231887757778168,0.030478976666927338,-0.003340602619573474,0.015585501678287983,0.01952952891588211,-0.020057842135429382,0.13496556878089905,-0.03326098993420601,-0.012666515074670315,0.02330051176249981,-0.012083111330866814,0.05132133886218071,-0.04002883657813072,-0.045421380549669266,-0.022541558369994164,0.025245001539587975,-0.002955315401777625,-0.01892124116420746,-0.10716849565505981,-0.07868024706840515,-0.06166598200798035,0.020997706800699234,0.03613949194550514,0.03894265368580818,-0.09437885880470276,0.03688259795308113,0.012112181633710861,0.033906951546669006,0.013756606727838516,-0.10550317913293839,0.0738268718123436,0.05837879702448845,-0.024318931624293327,0.00016881311603356153,-0.026422811672091484,-0.09265757352113724,-0.28448858857154846,0.0019746844191104174,0.018126212060451508,-0.010962246917188168,-0.011289291083812714,0.12569090723991394,-0.1076204776763916,0.0003195816243533045,-0.04126090928912163,-0.00226703193038702,0.007083583623170853,-0.06764212995767593,0.1777525693178177,0.07719006389379501,0.09143523871898651,0.058873120695352554,-0.06247549131512642,-0.13294056057929993,0.05625695362687111,-0.05550843104720116,0.04881623014807701,0.03300231695175171,0.044261086732149124,0.08232757449150085,-0.08781344443559647,-0.044325802475214005,0.030122386291623116,0.09650982171297073,0.05300409346818924,-0.022333942353725433,0.18493248522281647,-0.14438337087631226,-0.10358372330665588,-0.0890614464879036,0.032373860478401184,0.03524152562022209,-0.03582054004073143,0.05059579759836197,0.003676885273307562,0.14136582612991333,0.07904700189828873,0.05578973516821861,0.056464217603206635,0.1486518830060959,0.10814792662858963,0.11745711416006088,0.08321025967597961,0.010033540427684784,0.1124073937535286,0.04537045583128929,0.031109189614653587,0.06600017845630646,0.09040525555610657,0.044237006455659866,-0.1732775866985321,-0.025298964232206345,0.13597498834133148,-0.05103980004787445,0.05656501278281212,-0.04495888948440552,-0.01623568870127201,0.14821776747703552,0.15965481102466583,0.09890196472406387,0.09272243827581406,-0.05672270432114601,-0.026903314515948296,-0.005791469011455774,-0.04502847418189049,0.029369322583079338,0.03078445792198181,0.05266719311475754,-0.013635344803333282,-0.03763711825013161,-0.05679352581501007,0.027924437075853348,0.04742934927344322,0.021518470719456673,0.12297078222036362,0.0025129816494882107,0.04413415864109993,0.03619345277547836,0.01969323679804802,-0.001990068703889847,0.017702259123325348,-0.021195702254772186,0.04006161913275719,-0.024809887632727623,-0.06537167727947235,0.02159147895872593,0.04804021120071411,0.04119306802749634,0.07692751288414001,-0.02613353729248047,-0.029236264526844025,0.008943070657551289,-0.0013181399554014206,-0.012449194677174091,-0.02926885522902012,-0.015540980733931065,-0.026357410475611687,-0.05917095020413399,-0.13852041959762573,0.04627120867371559,0.0702446922659874,-0.01177975907921791,0.009935694746673107,0.05002828687429428,0.06828908622264862,-0.009350846521556377,-0.07049643993377686,-0.001980709144845605,0.0503697469830513,0.07261250913143158,-0.03539067879319191,0.05172598361968994,0.055801212787628174,0.18037532269954681,0.1686721295118332,0.043188758194446564,-0.12056384980678558,0.06704796850681305,-0.008785086683928967,-0.0743999034166336,-0.03923220559954643,0.010037411004304886,-0.04663849249482155,0.12789428234100342,0.019258247688412666,-0.035753048956394196,-0.04370439797639847,-0.21624508500099182,-0.04278641939163208,-0.002722750650718808,0.0430607870221138,0.03581596165895462,0.06471781432628632,0.1768796145915985,-0.23501616716384888,-0.10473419725894928,-0.013088353909552097,-0.04692726954817772,-0.052274834364652634,0.0014225925551727414,0.23240099847316742,0.09131767600774765,0.16048240661621094,0.16979669034481049,0.1900549829006195,0.3303672671318054,-0.18883591890335083,-0.03678417578339577,-0.04585656896233559,0.05673292279243469,0.06693476438522339,0.012435147538781166,-0.2918672263622284,-0.04975353926420212,-0.09966310858726501,-0.21175962686538696,-0.08099691569805145,-0.022364487871527672,0.1616506576538086,-0.10852085053920746,-0.03592764213681221,-0.08136879652738571,-0.06331749260425568,-0.15094614028930664,0.1746264398097992,-0.004807074088603258,0.011693138629198074,-0.006859445013105869,0.011138102039694786,-0.05846397578716278,-0.028644513338804245,0.060520920902490616,0.08471290022134781,0.020108003169298172,0.07800396531820297,0.14392441511154175,-0.19327285885810852,-0.10602517426013947,-0.09077849239110947,-0.07738184183835983,-0.19355933368206024,-0.2108963429927826,-0.050487734377384186,-0.0038717163261026144,-0.0031575094908475876,0.013178003951907158,0.12790203094482422,-0.0034008913207799196,0.20905059576034546,-0.1365600973367691,-0.005111745558679104,-0.0953434482216835,-0.14837560057640076,-0.12468454986810684,0.18767298758029938,-0.11055340617895126,-0.03910667821764946,-0.00041796950972639024,-0.1806180328130722,-0.10165421664714813,-0.32169100642204285,-0.05200819671154022,-0.07598333805799484,0.09251277893781662,0.0004187760641798377,-0.005976271815598011,-0.06804194301366806,-0.032135508954524994,0.02999281883239746,0.0702698677778244,0.08757149428129196,0.046435777097940445,0.051556047052145004,0.0907299742102623,-0.07742563635110855,0.06850039958953857,0.08366823196411133,0.043533314019441605,0.1254122108221054,-0.28861066699028015,0.2293320894241333,-0.21278879046440125,-0.08577723801136017,0.2472379505634308,0.21081838011741638,-0.33888566493988037,-0.12020322680473328,-0.04782036319375038,0.08570853620767593,0.2768477499485016,0.337164968252182,-0.061846401542425156,0.07264354079961777,-0.06764167547225952,-0.0941615179181099,-0.28152114152908325,0.028873853385448456,0.05405958741903305,-0.058864157646894455,-0.018444150686264038,0.00871324259787798,0.1400570422410965,0.25325414538383484,0.09716688841581345,0.15888386964797974,-0.024455294013023376,-0.23297500610351562,0.1544819325208664,0.033420220017433167,-0.09338241070508957,0.030505573377013206,-0.00946092139929533,-0.014014467597007751,0.15851981937885284,0.24144631624221802,-0.20149704813957214,0.1137620285153389,-0.04575859755277634,-0.1457318812608719,-0.13299526274204254,0.024115556851029396,-0.19086924195289612,-0.31429237127304077,0.37362056970596313,-0.012172974646091461,-0.02733311615884304,0.0015937917632982135,0.1253741979598999,0.10006780177354813,0.4010906219482422,-0.10727895796298981,0.1604304313659668,-0.047232918441295624,0.18450893461704254,0.07491259276866913,0.09557420760393143,-0.02562135085463524,0.2693359851837158,-0.5120986104011536,-0.01583816111087799,0.1072922796010971,-0.05906987190246582,-0.08148976415395737,-0.1970372349023819,0.2596651017665863,0.027919284999370575,-0.08944259583950043,-0.18561266362667084,0.015442960895597935,-0.11898442357778549,-0.10906720161437988,0.0025404319167137146,0.1552012413740158,-0.018171997740864754,0.03415990620851517,-0.050290338695049286,0.005408022552728653,0.08421151340007782,0.06778514385223389,0.04764275625348091,-0.017832450568675995,-0.03269554302096367,-0.03399684280157089,-0.01309263240545988,-0.05248691514134407,-0.057691801339387894,-0.0009864834137260914,-0.013922791928052902,-0.0056369914673268795,-0.0043753222562372684,0.011868189089000225,0.10030238330364227,0.027522016316652298,0.02265270985662937,-0.020143024623394012,-0.05503638833761215,-0.05609014630317688,0.025452731177210808,-0.043417442589998245,0.08168230205774307,-0.022225625813007355,-0.025452017784118652,-0.13381744921207428,0.01979975961148739,-0.024681823328137398,-0.10697515308856964,-0.030428603291511536,-0.07001166045665741,-0.0345819890499115,0.09824936836957932,0.019718805328011513,-0.033992085605859756,-0.011504006572067738,-0.14251327514648438,-0.07842311263084412,0.07073665410280228,0.03239504247903824,0.011153138242661953,0.013779014348983765,-0.03161222115159035,-0.10119658708572388,-0.014342566020786762,-0.020318828523159027,-0.02921302430331707,-0.0474020391702652,-0.10978882014751434,0.016741454601287842,0.11828430742025375,-0.09406358003616333,-0.013447713106870651,-0.04015401378273964,0.0406034030020237,0.0023571786005049944,0.039698150008916855,-0.08395660668611526,-0.026529403403401375,0.05626143887639046,0.03995903581380844,-0.018208477646112442,0.059024084359407425,0.050304900854825974,0.04422974959015846,-0.10622940957546234,-0.06032836064696312,0.001043235301040113,0.10569018870592117,-0.0009037451236508787,0.014313207007944584,0.02737700194120407,0.07726913690567017,-0.07083835452795029,-0.14515632390975952,-0.052686065435409546,0.047402091324329376,-0.03864744305610657,-0.1118963286280632,0.02077142708003521,0.2783970832824707,-0.06101173534989357,0.01798113062977791,-0.016794342547655106,-0.08948641270399094,0.00698865344747901,0.1215139627456665,-0.13715346157550812,0.0003237476630602032,0.12327128648757935,0.07762657105922699,-0.12652945518493652,-0.02892555110156536,0.0355188250541687,0.03656548634171486,-0.050724197179079056,0.13280059397220612,0.13619959354400635,0.01456465944647789,-0.26569461822509766,-0.11353333294391632,0.06894540786743164,-0.04688173905014992,-0.05490180477499962,-0.012077504768967628,0.04292398691177368,0.06010068580508232,0.061589859426021576,-0.002388894325122237,0.057388659566640854,0.009058928117156029,-0.06522930413484573,-0.03745445981621742,0.17208169400691986,0.08145944029092789,0.07384664565324783,0.03897374868392944,0.07354336977005005,-0.02747298590838909,0.13076023757457733,-0.17668882012367249,-0.08265113085508347,-0.01969902776181698,0.13792388141155243,0.020537948235869408,-0.006850145757198334,0.17541980743408203,0.09030021727085114,0.11941760778427124,-0.32751038670539856,-0.05329245701432228,0.029048429802060127,0.011713108979165554,-0.011916158720850945,-0.06656092405319214,-0.3165319561958313,0.09934385865926743,-0.12655280530452728,-0.10046789795160294,0.037671856582164764,0.07191607356071472,-0.01868751272559166,-0.07961075752973557,-0.054441824555397034,-0.2101818472146988,-0.17444533109664917,-0.2684151828289032,0.0529094897210598,0.024646282196044922,-0.03665778413414955,0.05356729403138161,0.09283161163330078,0.11637480556964874,-0.03818994015455246,-0.062163397669792175,-0.041791681200265884,-0.045491091907024384,0.0034904254134744406,0.0074484809301793575,0.08668365329504013,-0.07604583352804184,-0.18262386322021484,-0.22031821310520172,-0.214461088180542,-0.39172881841659546,-0.3601244390010834,-0.002311011077836156,-0.06692080199718475,0.053014855831861496,0.06481669098138809,0.06766000390052795,0.08260802924633026,0.0599726103246212,-0.04910551384091377,-0.18953092396259308,-0.2822708785533905,-0.25740373134613037,-0.1764930933713913,-0.031173978000879288,-0.11699815094470978,-0.1668640524148941,-0.14919966459274292,-0.2046099156141281,-0.5966482162475586,0.04149305447936058,0.13353130221366882,0.07385963946580887,0.07083891332149506,0.15573155879974365,0.02135123312473297,-0.03556191548705101,-0.007129501551389694,0.08003389090299606,-0.03440149500966072,-0.04203537851572037,-0.07087360322475433,0.02879207581281662,0.17560754716396332,0.08447819948196411,-0.05548914521932602,-0.1780754178762436,0.07143814116716385,-0.023582985624670982,-0.04859776794910431,-0.12626467645168304,-0.14959082007408142,-0.07273468375205994,-0.09219329059123993,-0.033890362828969955,0.04799703136086464,0.03208395838737488,0.046533893793821335,-0.0008694710559211671,0.053746551275253296,-0.009721102192997932,-0.015580636449158192,-0.01884401962161064,-0.04720013216137886,0.03656887263059616,0.03945392742753029,-0.03526652231812477,0.06431730091571808,0.19387482106685638,0.14829666912555695,0.11528918892145157,-0.1313699334859848,-0.08259693533182144,0.03619033843278885,0.12425974756479263,0.013592761941254139,0.04455165937542915,-0.19094732403755188,0.05633489415049553,-0.11595761775970459,0.17678199708461761,0.18983978033065796,-0.03202684968709946,0.10915473848581314,0.01953699439764023,0.03467562794685364,-0.08951390534639359,-0.04934179037809372,-0.06096513941884041,-0.2839028835296631,0.0953756794333458,-0.027920864522457123,0.056521836668252945,-0.018813861533999443,0.0342743843793869,0.07161104679107666,0.013400206342339516,-0.013700505718588829,-0.012937995605170727,0.040759991854429245,0.08398362994194031,-0.02195744402706623,-0.006658677477389574,-0.02565731480717659,0.012691276147961617,-0.04217996075749397,-0.14884258806705475,0.2550143897533417,-0.025188857689499855,-0.029745938256382942,0.08724062144756317,0.06225482001900673,-0.01049082912504673,-0.05263785272836685,0.029161864891648293,-0.0716046392917633,-0.198161318898201,-0.11606881022453308,-0.13392767310142517,-0.15403985977172852,0.025789162144064903,-0.04905437305569649,-0.05467614158987999,-0.0008546194876544178,-0.008122098632156849,0.2505233585834503,-0.01280535664409399,0.03529337793588638,-0.04248777776956558,-0.028410648927092552,-0.022337114438414574,0.32148921489715576,-0.030401472002267838,-0.003289290703833103,-0.05003892630338669,-0.11073797196149826,-0.12755689024925232,-0.27536943554878235,0.026777122169733047,-0.05157560855150223,-0.005763600114732981,0.03545381873846054,0.07554244250059128,-0.17845962941646576,-0.062015730887651443,-0.06686098873615265,-0.034893620759248734,-0.0335395373404026,-0.008047572337090969,0.07333753257989883,-0.027083905413746834,-0.1250748485326767,-0.10983973741531372,-0.09217098355293274,-0.17230531573295593,-0.07809583842754364,0.008840592578053474,-0.07253742963075638,-0.017067790031433105,0.025557314977049828,0.03759511932730675,-0.06618718802928925,0.03530338406562805,0.004704905208200216,-0.1253780722618103,-0.12896408140659332,-0.07257267087697983,-0.27070358395576477,0.03443664312362671,-0.044989097863435745,-0.08554453402757645,-0.11601632088422775,-0.10409897565841675,-0.08910096436738968,-0.026957863941788673,0.09983944892883301,0.03260442242026329,0.0009163750219158828,0.10622909665107727,0.2801874279975891,