{"version":"0.7.0","metadata":{"date":{"year":2026,"month":7,"day":7,"hour":5,"minute":54,"second":8},"loudness":-18.72456769470876,"gain":0.4605589814465845,"name":"bassman-v2-clean+fuzz-nocab","modeled_by":"delt","gear_type":"amp_cab","gear_make":"T3K-Null","gear_model":"T3K-Null","tone_type":"bass","trainer":"TONE3000"},"architecture":"SlimmableContainer","config":{"submodels":[{"max_value":0.5,"model":{"version":"0.7.0","metadata":{"date":{"year":2026,"month":7,"day":7,"hour":5,"minute":54,"second":7},"loudness":-18.60922746185964,"gain":0.4466321013284092},"architecture":"WaveNet","config":{"layers":[{"input_size":1,"condition_size":1,"head":{"out_channels":1,"kernel_size":16,"bias":true},"channels":3,"kernel_sizes":[6,6,6,6,6,6,6,6,6,6,6,6,6,6,15,15,6,6,6,6,6,6,6],"dilations":[1,3,7,17,41,101,239,1,3,7,17,41,101,239,1,13,1,3,7,17,41,101,239],"activation":[{"type":"LeakyReLU","negative_slope":0.01},{"type":"LeakyReLU","negative_slope":0.01},{"type":"LeakyReLU","negative_slope":0.01},{"type":"LeakyReLU","negative_slope":0.01},{"type":"LeakyReLU","negative_slope":0.01},{"type":"LeakyReLU","negative_slope":0.01},{"type":"LeakyReLU","negative_slope":0.01},{"type":"LeakyReLU","negative_slope":0.01},{"type":"LeakyReLU","negative_slope":0.01},{"type":"LeakyReLU","negative_slope":0.01},{"type":"LeakyReLU","negative_slope":0.01},{"type":"LeakyReLU","negative_slope":0.01},{"type":"LeakyReLU","negative_slope":0.01},{"type":"LeakyReLU","negative_slope":0.01},{"type":"LeakyReLU","negative_slope":0.01},{"type":"LeakyReLU","negative_slope":0.01},{"type":"LeakyReLU","negative_slope":0.01},{"type":"LeakyReLU","negative_slope":0.01},{"type":"LeakyReLU","negative_slope":0.01},{"type":"LeakyReLU","negative_slope":0.01},{"type":"LeakyReLU","negative_slope":0.01},{"type":"LeakyReLU","negative_slope":0.01},{"type":"LeakyReLU","negative_slope":0.01}],"bottleneck":3,"head1x1":{"active":false,"out_channels":1,"groups":1},"layer1x1":{"active":true,"groups":1},"groups_input":1,"groups_input_mixin":1,"conv_pre_film":{"active":false,"shift":true,"groups":1},"conv_post_film":{"active":false,"shift":true,"groups":1},"input_mixin_pre_film":{"active":false,"shift":true,"groups":1},"input_mixin_post_film":{"active":false,"shift":true,"groups":1},"activation_pre_film":{"active":false,"shift":true,"groups":1},"activation_post_film":{"active":false,"shift":true,"groups":1},"layer1x1_post_film":{"active":false,"shift":true,"groups":1},"head1x1_post_film":{"active":false,"shift":true,"groups":1},"gating_mode":["none","none","none","none","none","none","none","none","none","none","none","none","none","none","none","none","none","none","none","none","none","none","none"],"secondary_activation":[null,null,null,null,null,null,null,null,null,null,null,null,null,null,null,null,null,null,null,null,null,null,null],"slimmable":null}],"head":null,"head_scale":0.006706953458149328},"weights":[-0.6344109773635864,-1.3307844400405884,-0.8902525305747986,0.10974487662315369,-0.08283107727766037,0.043384160846471786,-0.747938334941864,-0.8065463304519653,-0.4135803282260895,0.0418088398873806,-0.18929891288280487,0.09734255820512772,-0.8175070285797119,-1.0424754619598389,-0.45869436860084534,0.0323699451982975,-0.047929588705301285,0.03234602510929108,-0.5562987923622131,-1.0485262870788574,-0.3310030996799469,-0.1680975705385208,0.1711563915014267,-0.14582084119319916,0.532772421836853,0.983368992805481,0.5937408208847046,-0.043080419301986694,-0.024246850982308388,-0.06876439601182938,0.7060503363609314,0.8536186218261719,0.6792507767677307,-0.04078986495733261,0.055350784212350845,0.04720126837491989,0.852867841720581,0.9995816349983215,0.5621703863143921,0.012985902838408947,-0.07776708900928497,0.03268284350633621,-0.04983947426080704,-0.1238272488117218,-0.5622854232788086,0.0005484640714712441,0.11839786916971207,0.00838685967028141,-0.03910338133573532,0.027098504826426506,-0.5193887948989868,-0.014711124822497368,0.01619596593081951,0.12782396376132965,-0.09735238552093506,-0.15275026857852936,-0.5956262350082397,-0.006712182890623808,-0.004615279380232096,0.03815131261944771,0.6264656782150269,-0.0921231359243393,0.6767082810401917,-0.9521662592887878,0.410187691450119,0.14941905438899994,0.01579303853213787,0.44161921739578247,0.38162845373153687,-0.6519924998283386,1.0135546922683716,0.4442862272262573,0.12367474287748337,-0.412273645401001,-0.1270485371351242,-0.2699662148952484,-0.24467480182647705,0.09877219051122665,0.32545462250709534,0.07316748797893524,-0.2221740484237671,0.10568978637456894,0.19757138192653656,0.19951659440994263,0.11941415816545486,-0.0795302465558052,0.19760935008525848,0.059003885835409164,0.002674295799806714,-0.17077788710594177,0.2050675004720688,-0.12910498678684235,-0.05915772169828415,0.05000600963830948,0.006655158009380102,-0.0865466371178627,-0.11071125417947769,0.4454921782016754,-0.6327860951423645,-0.11969741433858871,-0.19388996064662933,-0.2957359850406647,-0.014371328055858612,-0.1281653642654419,-0.179587721824646,-0.08756130188703537,0.11433841288089752,0.04810917750000954,0.3093901574611664,0.2166362702846527,-0.6297128200531006,-0.14715152978897095,0.3146299123764038,-0.14913707971572876,0.14622703194618225,0.2813508212566376,-0.22181326150894165,-0.11898350715637207,0.40362969040870667,-0.011653346940875053,0.3839518129825592,-0.04584990441799164,-0.33148741722106934,-0.13916458189487457,0.25848954916000366,-0.035696882754564285,-0.09344203770160675,0.2480573058128357,-0.38510826230049133,0.31795352697372437,0.48321038484573364,0.08706691861152649,-0.6568850874900818,-0.1981729418039322,0.7752609848976135,-0.2772158086299896,-0.001978263957425952,-0.5709383487701416,0.017548691481351852,0.30785611271858215,0.24364261329174042,-0.3580937385559082,-0.8104566335678101,0.11639680713415146,0.33633938431739807,-0.07937395572662354,0.28074681758880615,0.08956555277109146,-0.1405644714832306,0.006437758915126324,-0.20216834545135498,0.07045458257198334,0.08031131327152252,-0.1994093656539917,0.09373209625482559,-0.046089742332696915,0.10656894743442535,0.3918613791465759,0.20374011993408203,0.0009231253643520176,0.09973550587892532,0.16276831924915314,-0.04042971506714821,0.04953509941697121,-0.00046223311801441014,-0.5946735143661499,-0.3263576328754425,-0.39057549834251404,-0.17704880237579346,0.18485264480113983,0.22170835733413696,0.025050921365618706,0.26810353994369507,0.16764193773269653,0.19249196350574493,-0.06296191364526749,-0.2375556081533432,-0.15153394639492035,-0.29838916659355164,-0.3639596104621887,0.013150299899280071,0.06122942641377449,-0.24799637496471405,0.04575732350349426,0.04275430366396904,0.007850428111851215,0.08549408614635468,-0.13756290078163147,0.05182801932096481,0.42330604791641235,0.07755208760499954,-0.08325015008449554,0.3462318181991577,0.12479863315820694,0.185690239071846,0.09242561459541321,0.19516175985336304,0.30492836236953735,-0.07907858490943909,-0.2329387217760086,-0.2985118627548218,0.09678748995065689,-0.07368343323469162,0.1377343386411667,-0.4315459728240967,0.14325392246246338,-0.4494401216506958,-0.16983050107955933,-0.33239904046058655,-0.4604593813419342,-0.11463167518377304,0.09332244843244553,0.14749766886234283,0.28499671816825867,0.16265226900577545,0.2936965227127075,0.16128486394882202,-0.054527852684259415,0.4264638125896454,-0.06505436450242996,-0.02082240767776966,-0.02568131498992443,0.018206637352705002,0.02698649652302265,-0.30061712861061096,0.016826489940285683,0.022259891033172607,0.09123397618532181,0.03754327446222305,0.16547586023807526,0.5548695921897888,0.031534504145383835,-0.004789050202816725,0.027989445254206657,0.016327770426869392,-0.004708276595920324,-0.5415099859237671,-0.33736807107925415,-0.20203779637813568,-0.2585701048374176,-0.09971113502979279,-0.11364340037107468,0.6330415606498718,0.0487968847155571,-0.05704956501722336,0.13529738783836365,-0.03985391929745674,0.18335357308387756,-0.31731945276260376,0.2683567702770233,-0.051432713866233826,0.12707094848155975,0.13293829560279846,0.09797856211662292,-0.4991864264011383,-0.13598908483982086,0.010421699844300747,-0.19412463903427124,-0.24516434967517853,0.0036086959298700094,0.32758665084838867,0.14619700610637665,-0.20664772391319275,0.011742763221263885,-0.036215655505657196,0.0739029124379158,-0.19601009786128998,0.06293489784002304,0.36960315704345703,0.28234490752220154,0.1296185404062271,-0.008455163799226284,-0.3112821578979492,-0.4923991560935974,0.220005065202713,0.07270760089159012,-0.011301154270768166,-0.1640118807554245,-0.5016250014305115,0.5115583539009094,-0.6004075407981873,-0.34888985753059387,0.14931714534759521,0.301602303981781,0.15157513320446014,0.2528569996356964,0.2560822069644928,0.23240022361278534,-0.2603507936000824,-0.34186697006225586,0.4221312701702118,0.3639583885669708,0.13525508344173431,-0.09589598327875137,-0.07950349152088165,-0.19717951118946075,0.24806013703346252,0.011746838688850403,0.060685187578201294,0.17607712745666504,0.18807218968868256,0.26497626304626465,0.3262040615081787,-0.2674441635608673,-0.23757949471473694,0.05740382522344589,0.012635469436645508,0.1535559743642807,-0.03602646663784981,-0.08333122730255127,-0.03982601687312126,-0.01220323983579874,-0.008864648640155792,-0.02653152123093605,0.47953715920448303,0.07359384745359421,0.09955577552318573,0.08206138014793396,0.19875411689281464,0.14840108156204224,-0.11416792124509811,0.0678982362151146,0.021394014358520508,0.020961852744221687,-0.019754953682422638,-0.030803795903921127,0.42602264881134033,0.13383758068084717,-0.09769967198371887,-0.021417822688817978,-0.08627374470233917,-0.18358156085014343,-0.15590563416481018,-0.050519466400146484,-0.11588935554027557,0.0735134556889534,0.04386935755610466,0.03703344985842705,-0.23195959627628326,0.02870417945086956,0.10485635697841644,0.15857425332069397,0.06439037621021271,0.06869766116142273,-0.00854044035077095,-0.3357624411582947,-0.24045638740062714,0.30598771572113037,-0.23477455973625183,0.074121855199337,0.004477686248719692,-0.43093040585517883,-0.33121418952941895,-0.042820658534765244,0.3835010528564453,-0.1400682032108307,0.454349160194397,-0.04498497024178505,-0.19293540716171265,-0.22507068514823914,-0.23099176585674286,-0.06737031042575836,0.21941381692886353,-0.06432704627513885,0.2226409912109375,0.20840252935886383,0.03185797482728958,0.1545877605676651,0.05666032060980797,-0.11481625586748123,-0.38456156849861145,-0.3113900423049927,-0.21650560200214386,-0.1554946005344391,0.018110502511262894,0.07157600671052933,-0.1279183030128479,-0.05624644458293915,0.11009462177753448,-0.02110576257109642,0.5237426161766052,0.06559643894433975,0.28064247965812683,0.21278469264507294,0.21430416405200958,0.3234475553035736,-0.07853356748819351,0.06011052802205086,-0.11626608669757843,-0.23590624332427979,-0.26738426089286804,-0.38087522983551025,-0.10573018342256546,-0.023408202454447746,-0.18105751276016235,-0.15583012998104095,-0.1467723548412323,-0.27210310101509094,-0.743243932723999,-0.04678051918745041,-0.18017438054084778,-0.14250192046165466,-0.14650094509124756,-0.17595274746418,-0.18965914845466614,0.020481642335653305,0.0652826726436615,0.05007132515311241,0.10799583792686462,0.08114377409219742,0.05613912642002106,0.03512293100357056,0.1274583488702774,0.10204572975635529,0.1462276726961136,0.12576065957546234,-0.7834023833274841,0.09483751654624939,0.33158719539642334,0.13215889036655426,-0.07350406050682068,-0.06859081983566284,-0.23732557892799377,0.659078061580658,-0.2885323166847229,-0.396150141954422,0.30298537015914917,0.3138714134693146,0.10417604446411133,-0.3039173483848572,-0.333268404006958,0.5263980627059937,-0.6105826497077942,0.18655824661254883,-0.3836264908313751,0.009795988909900188,0.0029901578091084957,-0.02126969024538994,0.0009592684218659997,-0.045575253665447235,-0.8337875008583069,0.06632985919713974,0.0797818973660469,0.008023894391953945,-0.1397879719734192,0.09662633389234543,-0.5048801898956299,0.012984032742679119,0.008107011206448078,-0.007341508287936449,-0.09640960395336151,0.01838895119726658,0.3102762997150421,-0.001050701946951449,0.004399261437356472,0.008327160961925983,-0.01301625743508339,0.047706443816423416,-0.9182563424110413,-0.016711445525288582,-0.011805271729826927,0.03530125319957733,-0.014938353560864925,-0.10163629800081253,0.7202349305152893,0.0019660452380776405,0.0006068010115996003,0.035330962389707565,0.032392337918281555,-0.12293340265750885,-0.17977656424045563,0.01157226413488388,-0.002895019482821226,-0.014930122531950474,0.05168291553854942,0.11487630754709244,1.268880844116211,-0.010222665965557098,0.0377461276948452,0.0617641918361187,-0.2061099410057068,-0.6237465739250183,-0.17236356437206268,0.007994430139660835,0.031099939718842506,0.0029647250194102526,-0.11093305051326752,-0.254433274269104,0.1542978733778,-0.074241042137146,0.17587342858314514,-0.18135273456573486,-0.31162479519844055,-0.36737024784088135,0.11268104612827301,0.2340533435344696,0.39945313334465027,0.8460258841514587,0.5072040557861328,-0.6959313154220581,-0.9925392270088196,-0.08689271658658981,-0.03153495118021965,-0.3095010817050934,0.19229091703891754,-0.2364119291305542,0.07650000602006912,-0.23657137155532837,-0.14434108138084412,0.007584508042782545,0.06466716527938843,0.045306604355573654,-0.09617272019386292,-0.10873285681009293,-0.05434255301952362,-0.10370347648859024,-0.1480940580368042,0.06421428918838501,-0.20112957060337067,-0.08406590670347214,-0.2863423228263855,-0.06222236528992653,0.2193787842988968,0.2898584306240082,0.11189574748277664,-0.12393224239349365,0.15363706648349762,-0.08529099076986313,-0.11851101368665695,-0.033604539930820465,0.2068055123090744,-0.0015232379082590342,-0.029558857902884483,-0.06851329654455185,0.05532359704375267,0.18848299980163574,0.14040200412273407,0.13268662989139557,0.0450017973780632,-0.1456204503774643,0.03836403787136078,0.04961021989583969,0.2942814230918884,0.06595195829868317,0.12568777799606323,0.11984839290380478,-0.045981939882040024,-0.18892961740493774,-0.003829183289781213,-0.14212878048419952,0.13286717236042023,-0.03181407228112221,-0.13286466896533966,-0.05058373883366585,-0.20456579327583313,0.056219521909952164,-0.08567988872528076,0.02347857505083084,-0.04453367367386818,-0.4381611943244934,-0.2816484868526459,0.37982022762298584,-0.20036086440086365,-0.11958140134811401,0.08313757181167603,-0.7857558727264404,0.3767149746417999,-0.2663489878177643,-0.050019875168800354,-0.45656391978263855,0.706017017364502,-0.525840163230896,-0.05445611849427223,0.32842642068862915,-0.5291497111320496,-0.32477784156799316,-0.15930531919002533,-0.19445155560970306,0.18161895871162415,0.4401701092720032,0.047655317932367325,0.22490860521793365,0.032460980117321014,-0.1822931319475174,-0.08290407806634903,0.12377599626779556,0.13903440535068512,0.2758196294307709,0.18773049116134644,-0.10409069806337357,-0.21456444263458252,0.0038021174259483814,-0.17210452258586884,0.2206052839756012,0.194843128323555,-0.5433946251869202,-0.7279394268989563,0.029229138046503067,-0.033019375056028366,0.09741547703742981,0.0968138724565506,-0.2901729941368103,-0.29101812839508057,0.0385875403881073,0.40667054057121277,-0.03499560430645943,-0.1040285974740982,0.10591980814933777,0.19119787216186523,0.0792355015873909,0.13743577897548676,0.28867873549461365,0.39791202545166016,-0.10068264603614807,0.08448267728090286,-0.0285964235663414,-0.02978382632136345,0.14456325769424438,-0.20965458452701569,0.15199555456638336,-0.3381592333316803,-0.10854169726371765,0.10121729969978333,0.18335366249084473,-0.053292226046323776,0.32291528582572937,0.5598446726799011,0.1919015794992447,-0.06548318266868591,-0.012698102742433548,-0.20738093554973602,0.2018253207206726,0.07892989367246628,0.1696542352437973,0.25687918066978455,0.34360232949256897,-0.33242174983024597,-0.06326752156019211,-0.22401000559329987,-0.1893010139465332,0.03174598142504692,0.3478431701660156,-0.9685912132263184,-0.5610841512680054,-0.17007343471050262,-0.24851448833942413,-0.360115647315979,0.05154445767402649,0.07988545298576355,0.3277338147163391,-0.04582339525222778,0.007258575409650803,-0.00006722310354234651,-0.09187780320644379,-0.06643712520599365,-0.21105703711509705,-0.48759186267852783,-0.01464094128459692,-0.0018247287953272462,0.19855235517024994,0.159174844622612,0.18932746350765228,-0.336215615272522,0.11797050386667252,0.19027486443519592,0.19881927967071533,0.01946927420794964,0.08525152504444122,-0.2158084362745285,-0.024205371737480164,-0.08878131955862045,-0.11127764731645584,-0.17914330959320068,-0.21862547099590302,-0.18368679285049438,0.009762177243828773,0.11796750128269196,0.18495577573776245,0.19357523322105408,0.2850131392478943,0.18614909052848816,0.17163461446762085,0.1767524927854538,0.054531000554561615,0.07845334708690643,0.18570932745933533,-0.014884489588439465,0.2864060699939728,0.16170665621757507,0.14583426713943481,0.06779944896697998,0.07941600680351257,-0.5450738072395325,-0.2030409723520279,0.021553346887230873,0.15606780350208282,0.041686106473207474,-0.16482141613960266,0.14777953922748566,0.196819469332695,0.3492065966129303,0.19692853093147278,-0.03853515163064003,0.023872297257184982,-0.3589194118976593,-0.3337234556674957,-0.7038597464561462,0.7244259119033813,0.09565817564725876,0.17133395373821259,0.12522797286510468,0.34583809971809387,-0.07559996098279953,-0.21217523515224457,0.1940089762210846,-0.4794328212738037,-0.9348535537719727,0.3584725558757782,0.3689134418964386,-0.2064925879240036,0.04147404059767723,0.39122527837753296,0.17143158614635468,-0.14650028944015503,-0.26885345578193665,-0.3797241151332855,-0.10595680773258209,-0.2729184627532959,0.14526225626468658,0.028109682723879814,0.06335533410310745,0.1609657108783722,-0.1211085170507431,0.025607066228985786,-0.6423826813697815,-0.06434354186058044,-0.08855391293764114,-0.08787570893764496,-0.06262797862291336,-0.027435071766376495,0.05194614827632904,0.11677184700965881,0.12411198765039444,0.2699613571166992,0.19184891879558563,0.18077360093593597,-0.641991138458252,-0.10653768479824066,-0.0803542360663414,-0.03925357386469841,-0.02770320139825344,-0.037862423807382584,-0.2867013216018677,-0.0017000667285174131,0.3547268211841583,0.0676003023982048,0.10947529226541519,0.21076712012290955,-0.4896569550037384,0.10190847516059875,0.025252649560570717,-0.09555496275424957,-0.00704067712649703,-0.02383519522845745,0.15605954825878143,0.10416620224714279,0.06669776141643524,0.02832869254052639,-0.038970962166786194,0.029329445213079453,0.350535124540329,-0.1953827440738678,-0.26642194390296936,-0.0803285762667656,-0.06980414688587189,-0.21682442724704742,0.32395654916763306,0.6950638890266418,0.22533223032951355,0.2724795639514923,-0.3016028106212616,0.6712316870689392,0.5701633095741272,-0.23805630207061768,-0.2263360470533371,0.21484510600566864,0.8361648917198181,-0.2765505909919739,0.6182700991630554,0.5263808965682983,-0.2199239581823349,0.22541898488998413,0.21591167151927948,0.578635573387146,-0.7180376648902893,-0.2646878659725189,-0.36820366978645325,-0.23937936127185822,-0.1225157231092453,0.4033852815628052,-0.08376490324735641,0.31926873326301575,0.4349161386489868,0.3136075735092163,0.06724788248538971,-0.27057069540023804,0.10283738374710083,-0.12843173742294312,-0.07123306393623352,-0.045654043555259705,0.1470126211643219,0.20356933772563934,-0.6649680733680725,0.26717180013656616,0.40068259835243225,0.18619371950626373,0.06066158413887024,-0.3656739592552185,-0.08641530573368073,-0.37804773449897766,-0.5239108204841614,-0.2562968134880066,-0.1310444176197052,0.2974461019039154,-0.15233725309371948,0.19737114012241364,0.13735641539096832,0.0031686818692833185,-0.0446404293179512,-0.2200237661600113,0.31597700715065,0.0626290887594223,0.0944698229432106,-0.11321844160556793,-0.13538070023059845,-0.2554975152015686,0.3476782441139221,-0.08325350284576416,-0.037251345813274384,0.17833973467350006,0.16529911756515503,0.3537697196006775,0.1323971003293991,-0.035058777779340744,-0.05810505151748657,-0.11465981602668762,-0.07365989685058594,-0.36529865860939026,-0.1446014791727066,0.05664690583944321,-0.013046660460531712,0.2557125687599182,-0.7758724093437195,-0.14110280573368073,-0.4233701229095459,-0.3156670331954956,0.3612104058265686,0.0397244431078434,-0.7159998416900635,0.5465277433395386,0.48185938596725464,0.5680423974990845,-0.5401384234428406,0.37387990951538086,-0.4524340331554413,0.5791033506393433,-0.7519748210906982,-0.24347005784511566,-0.3952530026435852,-0.22732126712799072,0.022833017632365227,0.3483332693576813,-0.08510387688875198,0.1720595359802246,0.2120639532804489,0.050932977348566055,-0.13212896883487701,-0.30905506014823914,-0.0430956594645977,0.047769639641046524,0.08909773826599121,0.16105042397975922,0.07110477983951569,0.0019043036736547947,0.20220844447612762,0.16235262155532837,-0.017429431900382042,-0.2313859462738037,-0.2780154049396515,0.042602621018886566,-0.15394845604896545,-0.07485952973365784,0.0882766991853714,0.29082757234573364,0.29603561758995056,0.048414845019578934,-0.3398161828517914,-0.08546715974807739,-0.1880698800086975,-0.14307789504528046,0.014510865323245525,0.12933723628520966,-0.32739242911338806,0.020896704867482185,0.14146187901496887,0.3347943425178528,0.09650608152151108,-0.07095983624458313,-0.13292792439460754,-0.0498715415596962,-0.11313378810882568,-0.34814491868019104,-0.1660524606704712,0.2605540156364441,-0.2466161698102951,0.14576312899589539,0.3189457356929779,0.3464527428150177,0.18227219581604004,-0.2557981610298157,0.06123141199350357,0.46180716156959534,0.42684805393218994,0.058539364486932755,0.1443851888179779,0.5455598831176758,-0.09305749088525772,0.2159101963043213,-0.07302907854318619,0.021422090008854866,-0.05293639749288559,-0.6095359921455383,0.2422890067100525,-0.5202937722206116,-0.20686782896518707,-0.06486465036869049,-0.17227722704410553,-0.2902764081954956,-0.07343798875808716,-0.009681257419288158,-0.03398273512721062,0.008687402121722698,0.04593624547123909,-0.007435949053615332,-0.08144661039113998,0.0042408183217048645,0.005177697166800499,-0.01999724470078945,-0.020382437855005264,0.038487281650304794,-0.4157995879650116,0.024542134255170822,0.06660417467355728,0.03628776967525482,-0.0585295706987381,-0.022847261279821396,-0.010970300063490868,-0.035508718341588974,-0.052799005061388016,0.22310437262058258,0.002722831442952156,-0.3665686845779419,-0.15829439461231232,-0.011937851086258888,-0.028797980397939682,-0.10248683393001556,0.13795900344848633,0.30004411935806274,-0.29221662878990173,0.12374846637248993,0.19657334685325623,-0.011847492307424545,-0.41051074862480164,-0.22944247722625732,-0.12037476152181625,0.0028764300514012575,0.1863166242837906,-0.27413609623908997,-0.2385120540857315,0.18302692472934723,-0.005696734879165888,0.023612627759575844,0.0405074879527092,0.25291863083839417,-0.11594836413860321,-0.21494624018669128,0.010468248277902603,-0.02577645517885685,-0.3491724729537964,-0.20620495080947876,0.45564889907836914,-0.1352802813053131,-0.19407890737056732,-1.1506192684173584,0.5314287543296814,0.1530124843120575,0.4146517813205719,0.41977012157440186,0.050636716187000275,0.5587259531021118,-0.0672319307923317,-0.17030566930770874,0.7233125567436218,-0.4208567142486572,0.18385250866413116,-0.010232344269752502,-0.06197870150208473,0.20893575251102448,0.03815288469195366,-0.19305410981178284,-0.6501384973526001,0.08762872219085693,0.13922561705112457,0.03752191364765167,0.16316378116607666,0.07679924368858337,0.1471775323152542,0.2363804429769516,0.04868067800998688,-0.02050464227795601,-0.14424201846122742,-0.39859938621520996,-0.6632665991783142,-0.7549549341201782,-0.4836335778236389,0.30581557750701904,-0.07256270200014114,-0.050300054252147675,-0.029794994741678238,-0.2104082852602005,-0.058938298374414444,-0.01142683532088995,-0.17836697399616241,0.034963011741638184,-0.09311729669570923,-0.11322079598903656,0.02218122035264969,-0.027034366503357887,-0.21055267751216888,-0.13762612640857697,0.21689939498901367,0.03274310752749443,0.046790048480033875,-0.03525939956307411,-0.06854791939258575,0.062263842672109604,0.13483862578868866,0.14395923912525177,0.2031216025352478,0.10918032377958298,-0.02597634494304657,-0.38786178827285767,-0.6164973378181458,-0.6919824481010437,-0.3522338271141052,0.24356409907341003,-0.1385139524936676,-0.0376131571829319,0.05311073362827301,0.035803597420454025,0.06969524919986725,-0.02233785204589367,-0.02773824706673622,0.04987669736146927,-0.06449337303638458,-0.0012935117119923234,0.2900274395942688,0.17197854816913605,0.2289353907108307,0.2867039442062378,-0.011388703249394894,0.06464658677577972,0.09251055866479874,0.19814154505729675,0.20342561602592468,0.14139506220817566,0.14306215941905975,0.31903401017189026,0.11925454437732697,0.16510671377182007,0.37895703315734863,0.3780995309352875,0.45169857144355774,0.3051150143146515,0.1931440383195877,-0.06516271084547043,-0.20093107223510742,-0.052588142454624176,-0.2519267797470093,-0.22373932600021362,-0.1215607300400734,-0.15539862215518951,-0.2472945749759674,-0.09895355999469757,-0.0872405543923378,-0.12487945705652237,-0.14648674428462982,-0.0032319906167685986,-0.07617110759019852,0.057903558015823364,-0.000201221409952268,-0.17220965027809143,-0.12574143707752228,-0.08925975114107132,-0.08358942717313766,-0.007545008789747953,-0.1188725009560585,0.05646657571196556,-0.0588766485452652,0.07198748737573624,0.16052423417568207,0.0811128243803978,-0.06755226105451584,0.06630700826644897,-0.10227115452289581,0.049888890236616135,-0.19755978882312775,-0.32455095648765564,-0.19619853794574738,-0.18011049926280975,-0.1706160604953766,-0.16937735676765442,-0.37180250883102417,-0.06947661936283112,-0.13544802367687225,-0.2169908583164215,-0.13832677900791168,-0.17031559348106384,-0.23475967347621918,-0.07310071587562561,-0.0028690823819488287,0.15841834247112274,0.1646503359079361,0.03265557438135147,0.09297522902488708,0.14243024587631226,-0.045743122696876526,-0.000055996420996962115,0.2528705298900604,0.1887892633676529,0.25323641300201416,0.13735327124595642,0.245967835187912,0.1380578577518463,-0.048329874873161316,0.007847285829484463,1.4939790964126587,0.4530778229236603,0.32187598943710327,-0.6369383335113525,0.012175620533525944,-0.2955881357192993,-0.5977414846420288,-0.035699762403964996,-0.24039000272750854,-0.014138837344944477,0.5123487114906311,-0.3023621439933777,0.0957389697432518,-0.1945125311613083,0.15555442869663239,0.7509937286376953,-0.15466253459453583,0.568082332611084,-0.3003823459148407,-0.207095205783844,0.0840153843164444,0.037433505058288574,0.05434760823845863,-0.08408203721046448,-0.1210109144449234,0.014908760786056519,0.007914029993116856,-0.07682441174983978,-0.2771914601325989,-0.1445089429616928,-0.11091307550668716,-0.1076560840010643,-0.29363304376602173,0.20711837708950043,0.07622383534908295,0.3685808479785919,0.13406528532505035,0.06265423446893692,0.2385551780462265,-0.020453643053770065,0.28725218772888184,-0.062341123819351196,0.07499147951602936,0.0919768288731575,0.12259542942047119,-0.0016095921164378524,0.03747135400772095,0.023014482110738754,0.19672322273254395,-0.16809803247451782,0.14402459561824799,-0.08104211091995239,0.01725374348461628,0.4174215495586395,-0.04295053333044052,0.1521730273962021,-0.2142147719860077,0.03928186371922493,0.3628542423248291,-0.034221991896629333,-0.05750854313373566,-0.19064635038375854,-0.2612322270870209,-0.08656913787126541,-0.40048331022262573,0.09800338745117188,-0.20807097852230072,0.00542221125215292,-0.04543566703796387,-0.25937870144844055,0.213546484708786,-0.03963707759976387,0.11932307481765747,-0.29408589005470276,-0.14403536915779114,0.11526526510715485,0.015295113436877728,-0.03946403041481972,-0.021653402596712112,-0.004430675413459539,-0.051971692591905594,0.034229811280965805,-0.03924969956278801,-0.11227212101221085,0.12001873552799225,-0.28122735023498535,0.019413651898503304,-0.1039419174194336,-0.030149312689900398,0.01658746972680092,-0.14452317357063293,-0.07276187092065811,-0.006659778766334057,-0.039694644510746,-0.08338984102010727,0.290645569562912,0.38440144062042236,0.13415703177452087,0.2591736614704132,0.10780397057533264,0.40762558579444885,0.2833334803581238,-0.01150678750127554,0.04377191513776779,0.21878884732723236,0.2320244461297989,0.0794895812869072,-0.5885359644889832,-0.2600073516368866,-0.07940049469470978,-0.15547022223472595,-0.023261137306690216,-0.1931905299425125,-0.15088343620300293,-0.08003385365009308,-0.1051139160990715,0.08773523569107056,-0.034798044711351395,-0.02712843008339405,0.002418629825115204,0.010975987650454044,0.04699830338358879,0.06208999827504158,-0.18389995396137238,0.0471501499414444,-0.04469730705022812,0.09740879386663437,-0.03185048699378967,-0.18678514659404755,0.08558186888694763,-0.14180877804756165,0.12079212814569473,0.03559845685958862,0.030749516561627388,-0.019297385588288307,-0.07231611013412476,-0.10796721279621124,0.19840873777866364,-0.3824123740196228,0.09095437079668045,-0.5618542432785034,-0.09174228459596634,-0.2915535569190979,-0.3870188593864441,0.12464717775583267,-0.21422404050827026,0.11231865733861923,-0.1359846591949463,-0.08280975371599197,0.21176303923130035,0.1736307442188263,0.262555330991745,-0.07890144735574722,0.08981092274188995,0.2623187005519867,-0.005183981265872717,-0.5662861466407776,0.16217966377735138,0.5080588459968567,-0.16152308881282806,-0.28049880266189575,0.06831291317939758,-0.14328303933143616,0.16670909523963928,0.15371617674827576,0.15051491558551788,0.2583048343658447,0.4702857732772827,-0.10342223942279816,-0.08228066563606262,-0.000838297070004046,0.24446944892406464,0.10923509299755096,-0.024329237639904022,-0.1987619251012802,-0.39918220043182373,-0.17994536459445953,0.004152020439505577,0.0938534066081047,0.14091692864894867,-0.29738423228263855,-0.3082734942436218,0.13276690244674683,0.002914974233135581,0.20660655200481415,-0.06478449702262878,0.12612760066986084,0.17505678534507751,0.18231624364852905,0.47158366441726685,-0.02082638069987297,0.17426066100597382,-0.19714678823947906,-0.19312934577465057,-0.22427695989608765,0.3159286677837372,0.1820276528596878,0.2096363753080368,0.06914796680212021,-0.1801322102546692,-0.450997531414032,0.027952710166573524,-0.06554549187421799,-0.14101757109165192,0.07027480006217957,0.006980693433433771,0.094957135617733,-0.144198939204216,0.07563714683055878,-0.029371637850999832,0.22670647501945496,0.026891294866800308,0.15539653599262238,-0.12149333208799362,-0.16402383148670197,0.04662235826253891,0.15189069509506226,0.13592925667762756,-0.48340436816215515,0.2192244827747345,0.2798285484313965,0.07654359936714172,0.08823610842227936,0.15303266048431396,0.22885508835315704,0.3419453501701355,-0.05094001442193985,-0.03972430154681206,-0.6149625778198242,0.5303225517272949,0.1920420378446579,-0.23362284898757935,0.2257678210735321,0.2336517870426178,0.07395442575216293,0.6363613605499268,0.040140118449926376,-0.730936586856842,0.2638256549835205,-0.4435788691043854,0.2327853888273239,0.3271070718765259,0.29592156410217285,-0.10654415935277939,-0.20194287598133087,-0.0803385004401207,-0.08964123576879501,-0.20400308072566986,0.006168434862047434,-0.48151469230651855,-0.8721402287483215,-0.8205041289329529,-0.8004199862480164,-1.006064534187317,-0.3499056398868561,0.132502943277359,0.13238148391246796,-0.07913725823163986,-0.03889717534184456,-0.08183129131793976,-0.30463144183158875,0.009021885693073273,-0.18480828404426575,-0.19751816987991333,0.09553884714841843,0.4092502295970917,0.0935056060552597,-0.10334174335002899,-0.13409437239170074,0.05129336565732956,0.03900042548775673,0.42776861786842346,0.6197507381439209,-0.08510952442884445,-0.07762052863836288,-0.1421099454164505,-0.031185170635581017,0.05768860876560211,0.1736651062965393,0.01913130097091198,0.10885793715715408,0.08828745037317276,-0.44555214047431946,-0.20684146881103516,0.4146999716758728,0.13557039201259613,0.02105618827044964,-0.3369073271751404,-0.7044230699539185,0.04977027326822281,0.700016438961029,-0.03342888876795769,0.2101917266845703,0.31153061985969543,0.12563690543174744,-0.5541029572486877,0.10765586793422699,0.11298179626464844,-0.18518076837062836,0.048840392380952835,-0.20115268230438232,-0.11786773055791855,-0.1890343576669693,-0.2020430713891983,-0.13190332055091858,-0.16360101103782654,-1.2188647985458374,-0.44814854860305786,-0.5684075951576233,0.48382046818733215,0.27333885431289673,-0.3821955919265747,-0.16465681791305542,-0.014085540547966957,-0.24991008639335632,-0.0845949798822403,-0.06382965296506882,-0.29730936884880066,-0.28353777527809143,0.19257867336273193,-0.8962288498878479,-0.002939068479463458,-0.10853470116853714,0.07471919059753418,0.10121051967144012,-0.15571141242980957,0.33163565397262573,-0.1545713096857071,-0.12596404552459717,-0.0013795626582577825,0.11770134419202805,-0.23865750432014465,-0.5737023949623108,0.03272005915641785,0.02648974396288395,-0.17630983889102936,0.5256216526031494,-0.05916604772210121,0.12191080302000046,0.07751011848449707,-0.13376767933368683,-0.048676520586013794,1.8367018699645996,-0.09986255317926407,0.5622444748878479,0.1708090901374817,-0.15713554620742798,-0.3629734218120575,-0.4197733402252197,-0.0682261660695076,-0.34742093086242676,-0.013139852322638035,-0.07919272035360336,0.10680163651704788,0.20528438687324524,-0.28932422399520874,0.212777778506279,0.005848926492035389,-0.07752882689237595,0.10133139044046402,-0.10141415148973465,0.14045128226280212,-0.030109155923128128,-0.07997280359268188,0.21456056833267212,0.01690317876636982,-0.1321471631526947,-0.004377004690468311,-0.09389854222536087,0.36713701486587524,-0.009410113096237183,0.10671896487474442,-0.5498107075691223,0.21198616921901703,0.11410485953092575,-0.22465915977954865,-0.17080068588256836,0.1798795759677887,-0.8523966073989868,0.9152957201004028,0.3881475627422333,-0.13431230187416077,1.0073539018630981,0.26187416911125183,-0.02758263796567917,-0.04541247710585594,-0.22306068241596222,-0.13713450729846954,-0.2462950050830841,0.01209206972271204,-0.2418113797903061,0.18244214355945587,-0.8090786933898926,0.044902730733156204,0.00569380447268486,0.10639100521802902,-0.018223557621240616,0.03568306192755699,-0.11839407682418823,0.022808723151683807,0.024368388578295708,0.03183211386203766,0.10719481110572815,-0.09803719818592072,-0.5409247875213623,-0.16400901973247528,-0.21207259595394135,-0.4883505403995514,-0.20061388611793518,0.0010308395139873028,-0.1068854108452797,0.04380520433187485,-0.1792103797197342,-0.11920742690563202,-0.006482396740466356,-0.23369215428829193,0.27073022723197937,0.005073247477412224,0.0414767786860466,0.03243415057659149,-0.07540557533502579,-0.0922733023762703,0.34997880458831787,-0.11672326922416687,-0.2976774275302887,-0.2575472891330719,-0.20457671582698822,0.08167599141597748,-0.043191246688365936,0.15627850592136383,0.19666773080825806,0.15447655320167542,0.08130709826946259,-0.024127287790179253,-0.11930552124977112,0.44056686758995056,0.35294538736343384,0.28848159313201904,0.24594153463840485,-0.06707029044628143,0.42064177989959717,0.1244444027543068,0.26253700256347656,-0.1529364436864853,-0.4013550579547882,0.2473231554031372,-0.09119178354740143,0.30544647574424744,-0.13660968840122223,-0.4086310863494873,0.19010908901691437,-0.5827326774597168,0.5953810214996338,-0.34571582078933716,-0.15046820044517517,-0.5824590921401978,-0.5039901733398438,-0.19585619866847992,-0.5268813967704773,-0.07336632907390594,-0.07704810798168182,-0.03695793077349663,-0.3894869089126587,-0.08045648038387299,-0.5353686213493347,0.049583882093429565,0.14599394798278809,0.062168020755052567,0.12225227057933807,0.13237938284873962,-0.05744890123605728,-0.16681966185569763,-0.09316517412662506,-0.07122943550348282,-0.02481260895729065,-0.006913532502949238,-0.4438653290271759,-0.21999263763427734,-0.13301686942577362,0.04445954039692879,-0.13794048130512238,-0.09846106916666031,-0.36301761865615845,0.13193421065807343,0.09487400949001312,-0.1767471730709076,-0.33466559648513794,-0.22558251023292542,0.1859787255525589,0.0806821882724762,-0.059622786939144135,0.050166890025138855,0.11187689751386642,-0.12783148884773254,-0.0870383009314537,0.027369985356926918,0.07961472123861313,-0.05872894823551178,0.03416645526885986,0.1222178190946579,0.08405124396085739,-0.023969683796167374,-0.10807982087135315,0.12360166758298874,0.09794405847787857,0.1671983152627945,-0.06372306495904922,-0.0028081166092306376,0.05850042775273323,0.025669211521744728,-0.03102892078459263,0.03215187042951584,0.06274586915969849,0.067878857254982,0.0021643424406647682,0.047811832278966904,-0.32948023080825806,0.3721078038215637,-0.022856539115309715,-0.3039635121822357,0.2683001458644867,-0.029780063778162003,0.7377724647521973,-0.8262590169906616,0.2463657557964325,0.1815454661846161,0.2886084020137787,0.043241024017333984,-0.3075069785118103,-0.23219512403011322,-0.5207957029342651,-0.005349715240299702,-0.02009890414774418,0.01808270812034607,0.08615478873252869,0.040608618408441544,-0.12264364957809448,0.007681494113057852,0.015396179631352425,0.0256742425262928,-0.07078203558921814,0.18983323872089386,0.1561076045036316,-0.09986015409231186,-0.10745014250278473,-0.09136553853750229,-0.03836103901267052,-0.03156481310725212,-0.28161025047302246,0.09929930418729782,-0.05303187295794487,-0.03548713028430939,-0.08630209416151047,-0.1822233349084854,-0.17703218758106232,-0.17738789319992065,-0.1810671091079712,-0.09415828436613083,0.13717810809612274,-0.12819044291973114,0.07734475284814835,-0.08943909406661987,-0.3367312252521515,-0.13080112636089325,0.010205277241766453,-0.26093488931655884,0.1347716748714447,-0.1218700036406517,-0.050727732479572296,0.0028677075169980526,-0.137445867061615,0.08145828545093536,-0.07761839032173157,0.043265681713819504,-0.21113324165344238,-0.22012624144554138,-0.32927921414375305,-0.06735222786664963,0.03821369633078575,0.021188752725720406,-0.3965512812137604,-0.21315506100654602,-0.37569138407707214,0.10218071937561035,0.5602898597717285,0.09824412316083908,0.3063976764678955,0.21611222624778748,-0.09052781760692596,0.28644540905952454,0.1071915477514267,0.02971067652106285,-0.05909160152077675,-0.8764747381210327,0.36257830262184143,0.2862420678138733,-0.2120780646800995,0.03725912421941757,0.8755468726158142,0.21278877556324005,-0.1574813574552536,0.21555069088935852,-0.029283978044986725,0.10058309882879257,0.10455042123794556,-0.0808306410908699,0.08552036434412003,0.2666388750076294,0.20268812775611877,-0.1471446305513382,-0.19168232381343842,0.09209004789590836,0.2849521338939667,-0.1799209713935852,0.034542035311460495,-0.22741739451885223,-0.06301016360521317,0.19147200882434845,0.21719999611377716,0.04659789800643921,-0.13642092049121857,-0.04583798348903656,-0.03869067505002022,0.06810608506202698,-0.03210378810763359,-0.24165774881839752,-0.29114747047424316,0.06219533458352089,0.07699022442102432,-0.04173869267106056,-0.08944093436002731,0.263236939907074,-0.03204656019806862,0.054834239184856415,0.029840167611837387,-0.08609195798635483,-0.1445583552122116,0.03207104280591011,0.1727779656648636,0.07615140825510025,0.18050920963287354,0.08962790668010712,0.030100541189312935,0.05576098710298538,0.14719945192337036,-0.09709522873163223,0.061107199639081955,-0.03242756798863411,0.21196773648262024,-0.0452897883951664,-0.1300068199634552,-0.08154207468032837,-0.03116479143500328,0.00034433091059327126,0.046280935406684875,0.061930689960718155,-0.05206931382417679,-0.04540363326668739,0.2814461588859558,-0.014397120103240013,-0.01973932795226574,0.23048555850982666,0.0027262154035270214,0.4162098467350006,-0.00858832336962223,0.5327888131141663,0.11612158268690109,0.18631941080093384,-0.07476914674043655,-0.32249006628990173,-0.3899204134941101,-0.36959829926490784,-0.3457287847995758,0.4948616325855255,-0.35605674982070923,-0.0523194894194603,0.18764503300189972,-0.12824633717536926,0.11539196968078613,-0.019861552864313126,-0.006950338836759329,-0.10056108981370926,-0.16599079966545105,-0.09075231850147247,-0.10006065666675568,-0.18401706218719482,-0.07323871552944183,0.2162521928548813,0.20605690777301788,0.24297823011875153,0.1079072654247284,-0.08014778047800064,0.012718216516077518,0.13432371616363525,-0.18102946877479553,0.02432904578745365,-0.10619528591632843,-0.08750306814908981,0.06424393504858017,-0.25509732961654663,0.031357672065496445,0.33877867460250854,0.10334459692239761,-0.12417023628950119,-0.1483910083770752,0.009176641702651978,-0.09360639750957489,0.02085457369685173,0.1100338026881218,-0.1381484717130661,0.091465525329113,0.15470078587532043,0.09414258599281311,-0.17053672671318054,0.11207076162099838,0.13934800028800964,0.13638389110565186,0.05413403734564781,0.11413728445768356,-0.18114596605300903,-0.15671509504318237,0.12366565316915512,-0.0441318117082119,-0.1894901692867279,0.006706953308237237],"sample_rate":48000}},{"max_value":1,"model":{"version":"0.7.0","metadata":{"date":{"year":2026,"month":7,"day":7,"hour":5,"minute":54,"second":8},"loudness":-18.72456769470876,"gain":0.4605589814465845},"architecture":"WaveNet","config":{"layers":[{"input_size":1,"condition_size":1,"head":{"out_channels":1,"kernel_size":16,"bias":true},"channels":8,"kernel_sizes":[6,6,6,6,6,6,6,6,6,6,6,6,6,6,15,15,6,6,6,6,6,6,6],"dilations":[1,3,7,17,41,101,239,1,3,7,17,41,101,239,1,13,1,3,7,17,41,101,239],"activation":[{"type":"LeakyReLU","negative_slope":0.01},{"type":"LeakyReLU","negative_slope":0.01},{"type":"LeakyReLU","negative_slope":0.01},{"type":"LeakyReLU","negative_slope":0.01},{"type":"LeakyReLU","negative_slope":0.01},{"type":"LeakyReLU","negative_slope":0.01},{"type":"LeakyReLU","negative_slope":0.01},{"type":"LeakyReLU","negative_slope":0.01},{"type":"LeakyReLU","negative_slope":0.01},{"type":"LeakyReLU","negative_slope":0.01},{"type":"LeakyReLU","negative_slope":0.01},{"type":"LeakyReLU","negative_slope":0.01},{"type":"LeakyReLU","negative_slope":0.01},{"type":"LeakyReLU","negative_slope":0.01},{"type":"LeakyReLU","negative_slope":0.01},{"type":"LeakyReLU","negative_slope":0.01},{"type":"LeakyReLU","negative_slope":0.01},{"type":"LeakyReLU","negative_slope":0.01},{"type":"LeakyReLU","negative_slope":0.01},{"type":"LeakyReLU","negative_slope":0.01},{"type":"LeakyReLU","negative_slope":0.01},{"type":"LeakyReLU","negative_slope":0.01},{"type":"LeakyReLU","negative_slope":0.01}],"bottleneck":8,"head1x1":{"active":false,"out_channels":1,"groups":1},"layer1x1":{"active":true,"groups":1},"groups_input":1,"groups_input_mixin":1,"conv_pre_film":{"active":false,"shift":true,"groups":1},"conv_post_film":{"active":false,"shift":true,"groups":1},"input_mixin_pre_film":{"active":false,"shift":true,"groups":1},"input_mixin_post_film":{"active":false,"shift":true,"groups":1},"activation_pre_film":{"active":false,"shift":true,"groups":1},"activation_post_film":{"active":false,"shift":true,"groups":1},"layer1x1_post_film":{"active":false,"shift":true,"groups":1},"head1x1_post_film":{"active":false,"shift":true,"groups":1},"gating_mode":["none","none","none","none","none","none","none","none","none","none","none","none","none","none","none","none","none","none","none","none","none","none","none"],"secondary_activation":[null,null,null,null,null,null,null,null,null,null,null,null,null,null,null,null,null,null,null,null,null,null,null],"slimmable":null}],"head":null,"head_scale":0.006706953458149328},"weights":[-0.6011527180671692,-0.01614370569586754,0.4092065095901489,0.7097075581550598,-0.8115407228469849,-0.42938491702079773,0.5810136795043945,1.057112693786621,0.023506952449679375,0.14015139639377594,0.031249145045876503,0.13665175437927246,0.29053643345832825,0.117669977247715,0.0015169557882472873,0.003984665498137474,0.003410609206184745,0.004715584218502045,0.008200041949748993,0.0041779703460633755,-0.01943351700901985,-0.07829306274652481,-0.01845848560333252,-0.09332223981618881,-0.1835387796163559,-0.102582186460495,-0.09249468892812729,-0.1014009639620781,-0.028989581391215324,-0.15846674144268036,-0.3062865734100342,-0.13726535439491272,0.03998607397079468,0.16712555289268494,0.036723941564559937,0.16899631917476654,0.33559349179267883,0.14670363068580627,0.04698618873953819,0.1146557480096817,0.035689763724803925,0.10605080425739288,0.21047493815422058,0.12906447052955627,-0.05489649251103401,-0.12569840252399445,-0.017498979344964027,-0.15154136717319489,-0.24904362857341766,-0.14478516578674316,-0.012450847774744034,-0.20864462852478027,0.008010291494429111,-0.09595564752817154,-0.3331044614315033,-0.1863722950220108,0.00046561023918911815,-0.0014966193120926619,-0.055359676480293274,0.10401292890310287,0.23212067782878876,-0.001126277493312955,0.0019946887623518705,-0.0003881813900079578,0.0002548291813582182,0.003777117468416691,0.004597030114382505,-0.00015186116797849536,0.06340475380420685,0.024141650646924973,0.02229873463511467,-0.09492944180965424,-0.19069121778011322,-0.017595568671822548,0.005335906520485878,0.02959914319217205,0.08637076616287231,-0.1153726726770401,-0.24160555005073547,-0.04243572801351547,-0.0485108345746994,0.09409692883491516,-0.09109516441822052,0.22105219960212708,0.3143528699874878,0.04235481098294258,-0.05543626472353935,0.03434548154473305,-0.07939256727695465,0.10275963693857193,0.21380439400672913,0.0008709853864274919,0.0880981832742691,0.02816225029528141,0.09251365065574646,-0.09375413507223129,-0.20403553545475006,0.005901641678065062,-0.0017334867734462023,-0.06636326014995575,0.045785028487443924,-0.22204095125198364,-0.28928372263908386,0.02981087937951088,0.01694997400045395,0.01039471197873354,0.0973370298743248,-0.028054580092430115,-0.25481319427490234,-0.12372643500566483,0.002402814570814371,0.0014416503254324198,0.0004445131926331669,0.0004013637371826917,-0.0062627061270177364,-0.00006733740883646533,-0.004563398193567991,-0.0184500589966774,-0.0479707308113575,0.014286981895565987,0.18183328211307526,0.07567242532968521,0.03001759946346283,-0.03834869712591171,-0.11924760788679123,0.0713980570435524,0.2977564334869385,0.14796003699302673,0.038745589554309845,-0.03861287236213684,0.12157722562551498,-0.09223286807537079,-0.2738567888736725,-0.16568824648857117,0.0043147411197423935,0.00804287102073431,0.05399177595973015,-0.033004604279994965,-0.21292434632778168,-0.10272246599197388,-0.0003178556216880679,-0.013020901940762997,-0.0863378569483757,0.02803662233054638,0.20840878784656525,0.08389697223901749,0.028277486562728882,0.0314277783036232,-0.0932762622833252,0.02753753401339054,0.3355342745780945,0.15884730219841003,0.0000482748873764649,-0.00007887985702836886,0.000016709338524378836,-0.00009467642667004839,-0.000551030330825597,-0.0003174656012561172,-0.00000259321132034529,-0.000007197467766673071,-0.000004712945155915804,-0.000007130387075449107,-0.00001801794678613078,-0.000013266178939375095,-0.000014068458767724223,0.00008753215661272407,0.00002731414497247897,0.00009759802924236283,0.0003912817337550223,0.0002539113920647651,-0.00006307666626526043,0.00007045923121040687,-0.00005051982225268148,0.0000843894449644722,0.0006407047621905804,0.0003417522239033133,0.0000729311432223767,-0.00006108159141149372,0.00008290431287605315,-0.00007405035285046324,-0.0007258616969920695,-0.00035833133733831346,0.000018995377104147337,-0.00008580194844398648,-0.000021736195776611567,-0.00009680943912826478,-0.000408347841585055,-0.0002613105170894414,-0.000044458374759415165,0.00008102539868559688,-0.00000919989815884037,0.00009695957851363346,0.0005330873536877334,0.000312308082357049,-0.00007695638487348333,0.0000495031381433364,-0.00015991201507858932,0.00004873147918260656,0.0009361036936752498,0.0003788729663938284,-0.06936731934547424,0.09680324047803879,0.02411212958395481,-0.09086263179779053,-0.03508222848176956,0.06682723760604858,0.00015459991118405014,0.0034404166508466005,0.0014339096378535032,-0.0015947949141263962,0.00009413055522600189,0.004601859487593174,0.03921369090676308,-0.06266434490680695,-0.015907833352684975,0.06215747818350792,0.02451362833380699,-0.05311030521988869,0.08836629986763,-0.1167348325252533,-0.029169904068112373,0.10548936575651169,0.03966127708554268,-0.07435958832502365,-0.10461630672216415,0.1330084353685379,0.0331372432410717,-0.11744000762701035,-0.043647754937410355,0.08016641438007355,-0.04799991473555565,0.0710482969880104,0.017436441034078598,-0.07016849517822266,-0.027768108993768692,0.05576302111148834,0.06578370928764343,-0.09298709034919739,-0.023292221128940582,0.08759177476167679,0.03378859907388687,-0.06561174243688583,0.1385432481765747,-0.1668701469898224,-0.04128221794962883,0.14172224700450897,0.049069248139858246,-0.0924856886267662,0.0021894138772040606,-0.06961680203676224,-0.00894232839345932,-0.1014220342040062,-0.23310744762420654,-0.06945404410362244,-0.0008685048669576645,-0.002335758414119482,-0.0025547845289111137,-0.0025291068013757467,-0.006618546787649393,-0.002087025437504053,0.019719216972589493,0.06668712198734283,0.026188263669610023,0.06743047386407852,0.16769802570343018,0.06081718951463699,0.039440952241420746,0.05606679990887642,-0.0006534591666422784,0.10736829787492752,0.2823665738105774,0.10006804764270782,0.002847445197403431,-0.11790832132101059,-0.018150387331843376,-0.1331256926059723,-0.2687181532382965,-0.08085170388221741,-0.006350054871290922,-0.06428850442171097,-0.021348344162106514,-0.08259198069572449,-0.18532800674438477,-0.06059027835726738,0.006367836147546768,0.08625241369009018,0.01803140714764595,0.08966255933046341,0.21902737021446228,0.06733118742704391,0.008282254450023174,0.09693080186843872,0.0302182137966156,0.1405998170375824,0.35886916518211365,0.15408854186534882,0.027578094974160194,0.0359673872590065,-0.050842780619859695,-0.07723864912986755,0.194845050573349,-0.0911887139081955,0.001640971633605659,0.0024370092432945967,-0.0019196717767044902,-0.0022892404813319445,0.00697561027482152,-0.0032110020983964205,-0.018547048792243004,-0.027812698855996132,0.037521395832300186,0.05447853356599808,-0.14093650877475739,0.06485848128795624,-0.03290851041674614,-0.040490880608558655,0.05606188625097275,0.08871443569660187,-0.22257211804389954,0.10555625706911087,0.036866337060928345,0.04381050541996956,-0.060285795480012894,-0.09808070212602615,0.2444482445716858,-0.1173790767788887,0.020770523697137833,0.029585978016257286,-0.04126608371734619,-0.06077217310667038,0.15495195984840393,-0.07214682549238205,-0.026890207082033157,-0.03541772440075874,0.04924027621746063,0.07457667589187622,-0.18921774625778198,0.08815667033195496,-0.04474838823080063,-0.05041128769516945,0.06768719851970673,0.1162736713886261,-0.28652092814445496,0.14157719910144806,-0.14102692902088165,-0.010822709649801254,0.035356808453798294,0.02755901962518692,0.19168484210968018,0.10344699025154114,0.0006826540338806808,0.0022336586844176054,0.002940197940915823,0.003786962479352951,0.005763124208897352,0.0016329105710610747,0.09539540857076645,-0.016452498733997345,0.018631914630532265,-0.05671098083257675,-0.18438763916492462,-0.05791962146759033,0.06946290284395218,0.06717649102210999,-0.04138462245464325,-0.1451978236436844,-0.26773273944854736,-0.05995863303542137,-0.078044094145298,-0.008989904075860977,-0.03171847388148308,0.05184955149888992,0.2463855892419815,0.03408624976873398,-0.033438436686992645,-0.0570162758231163,-0.04066523537039757,0.025587331503629684,0.1775338351726532,0.08212309330701828,0.1432931274175644,-0.037807513028383255,0.010763243772089481,-0.044281940907239914,-0.1913818120956421,0.0000593061740801204,0.10283898562192917,-0.049635615199804306,0.0710039958357811,-0.14242669939994812,-0.2395249754190445,-0.09700053930282593,0.10842329263687134,0.39460915327072144,0.21477925777435303,-0.007782024331390858,0.003403429640457034,-0.08148716390132904,-0.000436729023931548,0.2164607048034668,-0.2884506583213806,0.03595472872257233,0.11695045232772827,0.0003764200664591044,-0.09861443936824799,0.2913229167461395,0.1397363841533661,-0.45699962973594666,0.11532405018806458,0.34979405999183655,0.01515003852546215,0.0026966179721057415,0.12391272932291031,-0.14651013910770416,0.2829982340335846,0.05022742971777916,0.022917794063687325,-0.3950512111186981,0.07988021522760391,-0.0014689798699691892,-0.18235693871974945,-0.155446857213974,-0.4127972722053528,-0.0860343798995018,-0.07879304140806198,0.31944724917411804,0.19116897881031036,0.0004459470510482788,0.015319925732910633,-0.10397954285144806,0.04561387374997139,-0.11925136297941208,0.25590577721595764,-0.13950292766094208,0.16162343323230743,-0.000454416818683967,0.03291270509362221,0.35113099217414856,-0.035322729498147964,0.005619922187179327,0.1938137412071228,-0.061664775013923645,0.04504598304629326,0.00016712681099306792,-0.1169152557849884,-0.14695458114147186,-0.257014662027359,0.2781089246273041,0.10720306634902954,0.23298855125904083,0.349211722612381,0.00010928232950391248,0.23777678608894348,-0.08337043970823288,0.3547593355178833,-0.06671372801065445,-0.30867061018943787,-0.29089364409446716,0.3201605975627899,0.00014095903316047043,0.24493606388568878,0.27119624614715576,0.06547313183546066,-0.3573145866394043,-0.3819420337677002,-0.20666560530662537,0.4016677141189575,-0.0013852545525878668,-0.038519781082868576,0.12261621654033661,-0.08070418983697891,-0.4613971412181854,-0.23246650397777557,0.1544262319803238,-0.13645362854003906,0.0024757198989391327,-0.15325070917606354,-0.16392028331756592,0.09051042795181274,0.1506374180316925,0.06873877346515656,-0.0928533598780632,0.03707033768296242,-0.04887068644165993,0.13694509863853455,0.024743955582380295,-0.09900735318660736,-0.0632813572883606,-0.15355230867862701,-0.08352376520633698,-0.19267888367176056,-0.009247584268450737,-0.010626125149428844,0.11309545487165451,0.041041407734155655,0.1040465459227562,0.020277908071875572,0.015034019947052002,-0.06503894925117493,0.10341773182153702,0.011968281120061874,0.028739094734191895,-0.11305323988199234,-0.07646885514259338,0.017440063878893852,-0.17585209012031555,-0.029446497559547424,-0.16005128622055054,0.05017036572098732,-0.026446308940649033,0.0493520088493824,0.0063778492622077465,0.028671368956565857,0.0253911130130291,0.07096409052610397,0.040314968675374985,-0.07018841058015823,0.1956414133310318,-0.03218286111950874,0.14156381785869598,-0.16470058262348175,0.015582534484565258,-0.11566043645143509,0.22367654740810394,-0.06319363415241241,0.17322883009910583,-0.18402522802352905,0.00527510279789567,-0.037676673382520676,-0.10070177167654037,-0.027410859242081642,-0.022355036810040474,0.07629676908254623,-0.09599214047193527,0.0136973662301898,0.022634834051132202,0.012523595243692398,0.039841458201408386,0.030156368389725685,-0.04416945204138756,0.009555235505104065,-0.02411653846502304,0.009421862661838531,0.05412071570754051,-0.06234762445092201,-0.050103895366191864,0.07861414551734924,0.09777871519327164,0.08346660435199738,0.10159721225500107,-0.044313330203294754,0.1689860224723816,-0.01951371133327484,0.034189604222774506,0.019026247784495354,-0.05695834010839462,0.10335918515920639,-0.14493580162525177,0.07185186445713043,-0.017758099362254143,-0.02290031500160694,0.14580732583999634,0.09990210831165314,-0.04655870422720909,-0.25355079770088196,-0.05783002823591232,-0.11149315536022186,-0.043727826327085495,-0.13161000609397888,0.1261223405599594,-0.03133567422628403,-0.009718409739434719,-0.045316945761442184,-0.06677289307117462,-0.0820918008685112,0.17196229100227356,0.02361220121383667,0.09143362939357758,-0.003914444707334042,-0.025573501363396645,0.09163035452365875,-0.04442543536424637,-0.054613493382930756,0.0007031214772723615,-0.051153555512428284,0.030590197071433067,-0.023420505225658417,0.01097323652356863,0.03436040133237839,0.0049401759169995785,0.01935146376490593,0.06318037956953049,0.0616706945002079,0.11447598040103912,0.0058632283471524715,0.04578764736652374,0.05154960975050926,-0.03214676305651665,-0.08501577377319336,0.0616491474211216,-0.011554647237062454,-0.009843863546848297,0.04573959857225418,-0.09460250288248062,-0.0037578491028398275,-0.0547977052628994,-0.0005674120038747787,-0.001585099147632718,0.022055337205529213,0.031439464539289474,0.02033255808055401,-0.019927356392145157,0.05650780722498894,-0.009023347869515419,-0.03618903085589409,0.028897982090711594,-0.04647153243422508,0.06322048604488373,0.07646489888429642,0.07265089452266693,0.12140927463769913,0.0945872887969017,-0.08084575086832047,0.10262793302536011,0.03275088220834732,-0.018823254853487015,-0.01355441939085722,0.05778580904006958,0.006509678903967142,0.006533825304359198,-0.008612065576016903,0.007359908893704414,0.0022336156107485294,-0.01985311694443226,0.006718333810567856,0.005663810297846794,0.0013918043114244938,0.0159322377294302,-0.0027782078832387924,-0.023184161633253098,0.012370472773909569,-0.029357310384511948,-0.020355554297566414,0.021823270246386528,0.02349439635872841,-0.02000829391181469,0.01668284647166729,0.02538001351058483,0.03075890615582466,-0.014355150051414967,-0.006250752601772547,0.07464858889579773,0.0124893793836236,0.03094760701060295,0.015614544972777367,-0.003913826774805784,-0.003678068518638611,0.03732890635728836,0.017430393025279045,0.021429425105452538,-0.023283326998353004,0.04485663026571274,0.04283921793103218,-0.04880087822675705,0.015019792132079601,0.0238764900714159,-0.03312745690345764,0.047061849385499954,0.03854282945394516,-0.07401441037654877,0.008822189643979073,0.004512178711593151,0.00028220185777172446,-0.00006281369860516861,0.00034686707658693194,0.00033192132832482457,0.00015107481158338487,0.0005408529541455209,-0.000025247147277696058,0.00009894486720440909,0.0000756778972572647,0.0000023189643343357602,0.00021726632257923484,0.00001417582097928971,0.000048135159886442125,0.0001807934168027714,-0.000025157827622024342,0.00009947892976924777,0.00010544805991230533,-0.00005098576002637856,-0.0017501801485195756,-0.001696066465228796,-0.0023936452344059944,-0.002654415788128972,-0.0026508953887969255,-0.002811033744364977,0.0004189983883406967,-0.00007693633961025625,0.0004269935889169574,0.00020858325297012925,0.000248497148277238,0.0005867654108442366,0.00010387445945525542,-0.00008460169919999316,-0.00006865672185085714,-0.000013687255886907224,-0.00009007673361338675,0.00006368246977217495,0.0009746873402036726,0.00167763140052557,0.0007953627500683069,0.0008895619539543986,0.001136499224230647,0.0002605854533612728,0.0009274110198020935,0.001956298016011715,0.0008864714181981981,0.0010728718480095267,0.0013597070937976241,0.0003562364145182073,-0.11548849195241928,-0.07143659144639969,-0.05761506035923958,-0.002888290211558342,-0.1312108337879181,-0.21125662326812744,0.03672241047024727,-0.010955819860100746,-0.0536884106695652,0.03692590817809105,-0.07167240232229233,0.06271693855524063,0.025207536295056343,-0.026152320206165314,-0.006266911048442125,-0.010378762148320675,0.019374791532754898,-0.08757985383272171,-0.08086755871772766,0.03378460928797722,-0.07901755720376968,-0.09796545654535294,-0.03648759052157402,0.14206477999687195,-0.15883633494377136,-0.1622128039598465,-0.05365778133273125,0.0887848511338234,-0.15129278600215912,-0.12580260634422302,0.02258782833814621,0.007080831564962864,0.04798337444663048,0.09686455130577087,-0.052330173552036285,-0.08398810029029846,-0.0628562867641449,-0.18077747523784637,-0.12195646017789841,-0.23920932412147522,-0.07883724570274353,0.17379949986934662,-0.025854870676994324,-0.02337123453617096,0.08626751601696014,-0.11783437430858612,0.1236150711774826,0.07643101364374161,-0.05099339783191681,-0.003324180608615279,0.01988549716770649,-0.10259038209915161,-0.002953639952465892,0.06300875544548035,0.1140923872590065,0.08999647200107574,0.055533964186906815,0.09692639112472534,0.07333948463201523,0.039907075464725494,0.0439608059823513,0.022454513236880302,0.04129721224308014,0.06826747208833694,0.038605254143476486,0.08009384572505951,0.06763888895511627,-0.010963307693600655,-0.04518866539001465,0.07807768881320953,-0.018259670585393906,-0.10575155168771744,-0.1375880092382431,-0.05015752837061882,-0.0037846220657229424,-0.06432387232780457,-0.10765935480594635,-0.022958572953939438,-0.006954725831747055,0.0017822585068643093,0.009109258651733398,-0.012445984408259392,-0.007018261589109898,-0.007312168832868338,0.1378626674413681,0.08072088658809662,0.023897448554635048,0.16083715856075287,0.05109379068017006,-0.14250245690345764,0.18837286531925201,0.10258052498102188,0.11552861332893372,0.23316116631031036,0.09184375405311584,0.007578609976917505,-0.15908022224903107,0.001453024917282164,-0.03892792388796806,-0.12481126189231873,-0.0886329784989357,0.10271275043487549,0.028185201808810234,0.03749685734510422,0.10241973400115967,0.0889916718006134,0.04635057970881462,-0.05818040296435356,0.012153776362538338,0.010571755468845367,0.04390791803598404,0.02330273948609829,-0.0053968168795108795,0.07083439826965332,0.12792839109897614,0.04149996489286423,0.002462363336235285,0.10059335827827454,0.05173255875706673,-0.04823799058794975,-0.03504132851958275,-0.011152513325214386,-0.07153459638357162,-0.11607872694730759,0.01923595741391182,0.07766193151473999,-0.047333307564258575,0.03913749381899834,-0.014108803123235703,-0.09698931872844696,-0.03117007575929165,0.06235603243112564,-0.0010405478533357382,-0.0038992296904325485,-0.04572939872741699,-0.02738887071609497,-0.055446967482566833,-0.23154526948928833,0.14296045899391174,0.042423512786626816,0.017268020659685135,0.05076059326529503,-0.03370219096541405,-0.17599424719810486,-0.018462058156728745,0.0547814778983593,0.14854104816913605,-0.07526551187038422,-0.023120379075407982,0.19801928102970123,-0.009388587437570095,0.022128069773316383,-0.01679382473230362,0.34843969345092773,0.4500054717063904,-0.022908831015229225,-0.00047705150791443884,0.5745810866355896,0.18483825027942657,-0.1909775584936142,0.2840556502342224,-0.07808800786733627,0.013477138243615627,-0.032583411782979965,0.0001429765106877312,0.084839828312397,-0.034890055656433105,0.2524905800819397,-0.3403920829296112,-0.03748399764299393,-0.11758599430322647,0.007741374429315329,0.005096332170069218,0.06371313333511353,-0.2976507842540741,-0.023691782727837563,-0.23781538009643555,0.2609350383281708,-0.18207038938999176,0.023288819938898087,-0.00027919866261072457,0.062443654984235764,-0.19643832743167877,-0.3610593378543854,0.1391303390264511,0.26301687955856323,0.11669998615980148,0.031814735382795334,-0.006070259492844343,0.1021389290690422,-0.10750840604305267,-0.16639815270900726,-0.10280194133520126,0.07712394744157791,0.1454050987958908,-0.02542775310575962,0.005388868041336536,-0.01733759604394436,0.16256259381771088,-0.0634055808186531,0.19281482696533203,0.19100618362426758,0.255381315946579,-0.033134981989860535,-0.0018043344607576728,0.33441027998924255,-0.1257060319185257,-0.051005709916353226,0.1806577742099762,0.34503936767578125,0.06137801706790924,0.1006840169429779,-0.000033863958378788084,0.35509979724884033,0.11269132792949677,-0.11747561395168304,-0.08380357176065445,-0.10689778625965118,0.1635570228099823,0.05410657078027725,0.0002664334897417575,0.2630251944065094,0.04176933318376541,0.08423824608325958,-0.08203034847974777,0.0054385303519666195,0.04596181958913803,-0.09236494451761246,0.06028714403510094,-0.1644093245267868,-0.10422302037477493,-0.17765624821186066,-0.10638073831796646,-0.00726994639262557,0.008073758333921432,0.024179089814424515,-0.10279380530118942,-0.07043004035949707,0.010142144747078419,0.023731984198093414,0.04355625808238983,0.07318836450576782,0.0016486782114952803,0.0590716153383255,0.002666718792170286,0.06401779502630234,0.05814788490533829,0.031304772943258286,0.03997119516134262,-0.0038732485845685005,-0.025244882330298424,-0.08781991899013519,-0.07385007292032242,-0.08071093261241913,-0.02564127929508686,-0.03964750096201897,-0.061434898525476456,-0.038016434758901596,0.013532640412449837,-0.015796756371855736,-0.010949372313916683,-0.04888436943292618,-0.10076210647821426,-0.049828849732875824,-0.08089648187160492,-0.10338850319385529,-0.07067368179559708,-0.11165855824947357,0.04009758308529854,-0.026189716532826424,-0.1714196503162384,-0.12698273360729218,-0.010146335698664188,0.007658864371478558,0.16185857355594635,0.09458106011152267,-0.11957637220621109,-0.023114001378417015,-0.006016819272190332,0.13559594750404358,-0.06779450923204422,-0.17659051716327667,-0.0728265717625618,-0.03680932894349098,-0.0555301159620285,0.012235431000590324,-0.15626876056194305,-0.03582035005092621,0.1199398934841156,0.10987832397222519,0.08689703047275543,0.2081518918275833,-0.15331150591373444,-0.08133310824632645,0.05105147883296013,0.049346935003995895,0.07964702695608139,0.2538456618785858,0.25649699568748474,0.18938803672790527,0.17115366458892822,0.002568179974332452,-0.08756205439567566,-0.13584913313388824,-0.0641947016119957,-0.07703621685504913,-0.08796190470457077,-0.03582186996936798,0.06988414376974106,-0.10750424116849899,-0.07440457493066788,0.005154659505933523,0.008006625808775425,-0.09731438010931015,-0.02852746658027172,-0.16789215803146362,0.1274513453245163,0.08715052902698517,0.05847720429301262,-0.08781633526086807,-0.2353523075580597,-0.12599751353263855,0.19292815029621124,0.23475952446460724,0.15542566776275635,0.06685928255319595,-0.047310348600149155,0.012992996722459793,0.0363970510661602,0.015456147491931915,0.06061501428484917,0.041673481464385986,0.0022867261432111263,0.018054721876978874,-0.003412939142435789,0.029092323035001755,-0.05806569755077362,-0.0009786414448171854,-0.01143612153828144,0.0117633156478405,0.041735902428627014,0.060993537306785583,0.001355244079604745,0.007131639402359724,0.07120980322360992,0.04039792716503143,0.04493267461657524,0.060204993933439255,0.006018793676048517,-0.03517157584428787,0.0903879851102829,0.018510770052671432,0.01344110257923603,-0.01558432076126337,0.02488677017390728,0.029855823144316673,-0.03745837137103081,-0.03854922950267792,0.07688022404909134,0.06768631190061569,0.03275354579091072,-0.0026244272012263536,0.06650124490261078,0.0038294217083603144,0.03518015891313553,0.028198009356856346,-0.035608429461717606,-0.030673537403345108,0.08479563146829605,0.004997367970645428,0.000056703116570133716,-0.0007554058684036136,-0.033769264817237854,-0.03325388580560684,0.051756277680397034,0.011703739874064922,-0.04044443741440773,-0.05521334707736969,-0.07409049570560455,-0.05134733021259308,-0.03331279009580612,-0.2581784725189209,0.003385012038052082,-0.1058211624622345,-0.07101152092218399,-0.06143657863140106,0.035501595586538315,-0.14233778417110443,-0.04199177399277687,0.05792852118611336,-0.09504318237304688,-0.061355262994766235,-0.11512135714292526,-0.3127334713935852,-0.1003868505358696,-0.025326784700155258,-0.08204691857099533,-0.06921274960041046,-0.09984666854143143,0.12341709434986115,0.037906233221292496,0.23703280091285706,0.011624176986515522,0.007105720229446888,0.23723842203617096,-0.156295046210289,0.04167904704809189,0.09651712328195572,0.0519542433321476,-0.061170194298028946,0.08341159671545029,-0.14496544003486633,-0.04287788271903992,-0.1654348224401474,-0.15690888464450836,-0.05590585991740227,-0.2586783468723297,0.23317240178585052,-0.021842418238520622,-0.06577242910861969,0.01936977542936802,0.06408782303333282,-0.026447772979736328,0.27492499351501465,0.09491455554962158,0.0923420786857605,0.09211660921573639,0.08565536886453629,0.047316212207078934,-0.03628332540392876,-0.08174349367618561,-0.05612891912460327,-0.11537057161331177,-0.10037174075841904,-0.07864464074373245,-0.023632513359189034,0.007749519776552916,0.012031585909426212,-0.030407723039388657,-0.06741216033697128,0.026294296607375145,0.07861869782209396,0.09019821882247925,0.04347405955195427,0.054767291992902756,0.00952850840985775,0.10122068226337433,0.03757639601826668,0.020190227776765823,0.05199657380580902,0.03544438257813454,0.0060852342285215855,-0.0341632105410099,-0.16971203684806824,0.12417852878570557,0.1202564537525177,0.08226250112056732,0.04052015393972397,0.08135957270860672,-0.02795727364718914,0.007172237150371075,-0.016107017174363136,-0.03214353322982788,-0.004619669169187546,0.024246210232377052,0.21659882366657257,-0.06486589461565018,-0.11897880584001541,-0.06756629794836044,0.002001858549192548,0.005253703333437443,0.19998012483119965,-0.09128653258085251,-0.027662569656968117,-0.00642568152397871,-0.11291179060935974,-0.13508924841880798,-0.08139165490865707,0.13294710218906403,-0.01147738378494978,0.008133906871080399,-0.06697311252355576,-0.06427618116140366,0.021618707105517387,0.04292004927992821,-0.06882268935441971,-0.0821601152420044,-0.028917865827679634,-0.09610407799482346,-0.18211139738559723,0.01190738845616579,-0.032657939940690994,0.013957817107439041,-0.10508854687213898,0.029846888035535812,0.08105816692113876,-0.019760243594646454,0.04797504097223282,0.006144828628748655,0.008691433817148209,-0.005940367467701435,0.03069981373846531,0.0457783043384552,-0.04153662547469139,-0.08636033535003662,0.04190978780388832,-0.1536441147327423,-0.031826846301555634,-0.07415930926799774,-0.011252682656049728,-0.00545340683311224,-0.04525803402066231,0.06616324931383133,0.06590698659420013,-0.13482218980789185,-0.0945463702082634,-0.10162890702486038,-0.12940898537635803,-0.011216279119253159,-0.03805769234895706,-0.037667520344257355,0.05489465966820717,-0.03740762546658516,-0.10018009692430496,-0.0940215215086937,0.11350920796394348,-0.004462535493075848,0.11688747256994247,-0.0846150666475296,-0.0013764625182375312,-0.07302576303482056,0.05413211137056351,-0.09981788694858551,-0.10157738626003265,0.024833526462316513,0.007732693571597338,-0.007719095796346664,0.2653125524520874,0.065571628510952,0.10470154881477356,0.05363765358924866,0.07589277625083923,0.27479496598243713,-0.11100349575281143,0.11914317309856415,-0.00011155906395288184,-0.0031484265346080065,0.004135205410420895,-0.06745483726263046,0.2950745224952698,-0.051217883825302124,-0.13175393640995026,-0.1787433922290802,0.04397105053067207,-0.12950235605239868,0.0331600047647953,-0.07114355266094208,0.044301241636276245,0.043155770748853683,0.009010126814246178,0.17639648914337158,-0.27647221088409424,0.13756301999092102,0.16295252740383148,0.09244967252016068,-0.09215757250785828,0.04741480201482773,-0.2954025864601135,0.0903504267334938,0.06590750813484192,0.11381537467241287,0.04244846850633621,-0.048326265066862106,-0.013122009113430977,-0.20217762887477875,-0.03748898208141327,-0.07986282557249069,-0.01952764019370079,-0.13043826818466187,0.016055326908826828,-0.043436724692583084,0.025748010724782944,0.04987277463078499,0.08679789304733276,0.14250701665878296,0.08178304880857468,0.031191138550639153,-0.005039575509727001,0.04845898225903511,0.043861936777830124,0.2553534507751465,0.0192230436950922,0.03404702618718147,-0.05601914972066879,-0.04756302759051323,-0.01909949816763401,-0.08022032678127289,-0.10862548649311066,0.08818260580301285,0.04393181949853897,0.15739229321479797,0.09208652377128601,0.12996506690979004,-0.037216752767562866,0.01923954300582409,0.06129806116223335,-0.06789276748895645,-0.025902805849909782,0.203200101852417,0.051399052143096924,-0.01536222081631422,-0.013466007076203823,-0.07397445291280746,-0.05355857312679291,0.11234939843416214,0.008005350828170776,0.013792230747640133,-0.0003770034236367792,-0.10369301587343216,0.08485690504312515,-0.1833489090204239,0.0833098441362381,0.1768314093351364,-0.06014449521899223,0.10857993364334106,0.3000919818878174,0.024508627131581306,0.07547006756067276,0.09728999435901642,-0.6385036706924438,-0.046217817813158035,0.048687029629945755,0.10712979733943939,0.11444356292486191,0.14494100213050842,0.20679344236850739,0.31695038080215454,0.12941063940525055,-0.011770812794566154,0.1886747032403946,-0.10942903906106949,-0.2104525864124298,-0.10113045573234558,0.2453673928976059,-0.06217686086893082,-0.12298930436372757,-0.3680769205093384,-0.2972612679004669,0.04245598241686821,-0.24247987568378448,-0.0632045790553093,0.3157595694065094,0.0012381250271573663,0.4462617337703705,-0.20780929923057556,-0.03540453687310219,0.057015031576156616,-0.1781638264656067,-0.06055853143334389,0.23334111273288727,0.021650876849889755,-0.059647418558597565,-0.3264898657798767,-0.06566570699214935,-0.04706510156393051,0.18567737936973572,0.02511928230524063,0.11241474002599716,0.16968528926372528,0.01766003854572773,-0.3139294981956482,0.06984712183475494,0.22532978653907776,0.19126640260219574,0.03100430965423584,0.026857225224375725,0.09470277279615402,0.10564988851547241,0.09730546176433563,0.1130770593881607,0.028362136334180832,0.28495708107948303,0.004577948711812496,0.23349714279174805,0.08464141935110092,-0.10868946462869644,-0.22277283668518066,0.080149345099926,0.1265375316143036,-0.031166769564151764,-0.0034877141006290913,-0.056963108479976654,-0.0699489638209343,-0.0829344317317009,0.15845806896686554,-0.04200851917266846,0.0834011435508728,0.0664091482758522,-0.11865250766277313,0.04798541218042374,0.04556110501289368,-0.04642169550061226,0.06553210318088531,0.029360471293330193,0.11436982452869415,0.17069044709205627,0.13115647435188293,0.06098653003573418,0.05447769910097122,0.0007731569930911064,-0.20051246881484985,-0.11961575597524643,-0.15685024857521057,-0.015407920815050602,0.017764460295438766,0.3345372974872589,-0.22888851165771484,-0.09511534124612808,0.05139464512467384,-0.009088622406125069,0.056451261043548584,0.2453024536371231,-0.10182826220989227,-0.03777727112174034,-0.015242369845509529,0.004638601094484329,0.08633650094270706,-0.17487452924251556,0.008143465965986252,0.013931725174188614,-0.011182175949215889,-0.03609095886349678,-0.0539734810590744,-0.1712484061717987,0.16079095005989075,0.11311516165733337,0.1151009202003479,0.05612020939588547,0.12429701536893845,-0.0038815585430711508,-0.02231600321829319,0.10682126879692078,0.0563436821103096,0.01032613031566143,0.04352519288659096,-0.09734504669904709,-0.04802113026380539,-0.015779146924614906,0.008082374930381775,0.012949814088642597,0.009663756936788559,0.05132192000746727,0.19425109028816223,0.058557115495204926,-0.03684321790933609,-0.09889312833547592,-0.13431093096733093,-0.1961124837398529,0.19845841825008392,0.14368285238742828,0.1322028487920761,-0.010995141230523586,-0.014485624618828297,0.0842783972620964,0.3342640995979309,0.12540625035762787,0.08680959045886993,-0.08847709000110626,-0.061917196959257126,-0.05341922491788864,0.014071186073124409,0.15890493988990784,0.2565450966358185,0.0814305767416954,-0.011251697316765785,0.07628978788852692,0.07268259674310684,0.006718356627970934,0.005719620734453201,-0.008393669500946999,-0.12450094521045685,-0.19809389114379883,-0.14474542438983917,0.02032293751835823,-0.04221395030617714,-0.00933684129267931,0.10202386975288391,-0.05325440689921379,-0.23320281505584717,-0.1258888691663742,-0.11833547800779343,-0.19516369700431824,-0.17092669010162354,-0.11282128095626831,-0.4376060962677002,-0.20091886818408966,-0.10932105034589767,-0.012686784379184246,0.01779731549322605,0.05588001385331154,0.08149585872888565,0.06307858973741531,0.1465577781200409,0.0096437344327569,0.2684554159641266,0.03135543316602707,-0.003689925651997328,0.03826991841197014,0.18951515853405,-0.007350950501859188,0.1511455625295639,-0.08149980753660202,0.09564220160245895,0.020139675587415695,-0.12180976569652557,0.10778115689754486,0.11646129935979843,-0.05382281169295311,-0.009512046352028847,-0.05149349197745323,-0.06726988404989243,-0.06091175973415375,-0.005554066505283117,0.10588723421096802,0.07555009424686432,0.03757721185684204,0.03803000971674919,0.10487384349107742,0.19736669957637787,0.16504263877868652,-0.0010599450906738639,-0.06112203374505043,-0.08542598783969879,0.02729356661438942,0.008821632713079453,-0.013323725201189518,-0.0478801392018795,-0.0018813288770616055,0.05541998893022537,-0.048148974776268005,-0.12406602501869202,0.24562892317771912,0.05200754106044769,0.04052448272705078,0.013276994228363037,-0.061277903616428375,-0.06428249925374985,0.1644589751958847,0.09249699115753174,0.08327069133520126,0.034595176577568054,0.016181321814656258,0.05774606019258499,0.17756107449531555,-0.049188416451215744,-0.17938819527626038,-0.1603427529335022,-0.203773632645607,-0.14701487123966217,0.08659111708402634,0.050499077886343,0.009792745113372803,-0.06704721599817276,-0.056404463946819305,-0.05240638181567192,0.1621513068675995,-0.0034047539811581373,0.07820816338062286,0.11103168874979019,0.005244042724370956,-0.032274141907691956,-0.1491975039243698,0.02020895667374134,-0.016919003799557686,-0.033637285232543945,-0.10399255156517029,-0.03967641666531563,-0.15385469794273376,0.009246299974620342,0.03204113245010376,-0.09591816365718842,0.07952083647251129,0.1450461894273758,0.07080689817667007,0.04752357676625252,0.05318139120936394,0.05569913610816002,0.006782963871955872,-0.0389200784265995,0.07612030953168869,0.027491427958011627,0.05003747716546059,0.14029355347156525,0.15321741998195648,0.1244368776679039,0.10765738785266876,0.00806658435612917,0.17969246208667755,0.0749305933713913,-0.01757606491446495,-0.005490802228450775,-0.19539828598499298,-0.08627450466156006,-0.05293655768036842,-0.12167447805404663,-0.046887096017599106,-0.01684506982564926,0.08975184708833694,-0.0018641040660440922,0.02359173633158207,-0.05650128796696663,0.08304722607135773,-0.059790946543216705,-0.08611132949590683,0.20252220332622528,0.08086296916007996,0.05906245484948158,0.12662914395332336,0.1662733405828476,-0.008266833610832691,0.01989852264523506,0.09707499295473099,0.11683274805545807,-0.008838595822453499,-0.05685547739267349,-0.1302689164876938,0.03863454982638359,0.014476526528596878,-0.009166199713945389,0.059188831597566605,0.08547726273536682,-0.19717903435230255,0.055421292781829834,-0.05132124945521355,-0.072880819439888,-0.03076046332716942,-0.03240332379937172,0.019095003604888916,0.010728173889219761,-0.1508442908525467,-0.14265680313110352,-0.06617182493209839,0.03729259595274925,0.11197634041309357,-0.18551021814346313,0.035253748297691345,0.010977961122989655,0.05848037078976631,-0.018211249262094498,0.01823234371840954,-0.18297557532787323,-0.13507148623466492,-0.1379968822002411,-0.050745707005262375,-0.07817181944847107,0.33053985238075256,-0.34850960969924927,-0.050994858145713806,-0.000035186945751775056,-0.1007852628827095,0.0031719037797302008,0.26197800040245056,0.04834587499499321,0.12869882583618164,0.10111787170171738,0.00837142113596201,-0.060199886560440063,-0.11277410387992859,-0.1995328962802887,0.020758168771862984,0.06103566661477089,0.04237421974539757,0.03260588273406029,0.016900043934583664,0.07890322059392929,0.13231509923934937,-0.03703818842768669,-0.023827852681279182,0.16318227350711823,-0.0847734585404396,0.17076578736305237,0.05730616673827171,-0.004293627105653286,-0.10572250187397003,-0.15199129283428192,-0.2148880660533905,0.2787407636642456,0.054811351001262665,-0.06340481340885162,-0.03215582296252251,0.007902341894805431,-0.09052740037441254,-0.04335837438702583,-0.033346790820360184,-0.08857858926057816,-0.05834214761853218,-0.1762876808643341,-0.026167666539549828,0.11870212107896805,0.12055820971727371,-0.006453815381973982,0.17186877131462097,0.01848689652979374,0.008480694144964218,-0.1262650340795517,-0.04334242269396782,0.001697324332781136,-0.1503836065530777,-0.1427725851535797,-0.0533754900097847,-0.028297333046793938,-0.038759034126996994,0.02869945950806141,-0.014008797705173492,0.0594782829284668,-0.006156237330287695,-0.06908515095710754,0.015187765471637249,-0.047693461179733276,-0.011776774190366268,-0.10117655247449875,0.09799835085868835,-0.003872229717671871,-0.010807857848703861,0.07139195501804352,-0.0022932349238544703,-0.08296611160039902,-0.09328418970108032,-0.022878289222717285,-0.014391100034117699,-0.053802717477083206,0.028366632759571075,-0.010203397832810879,-0.20178689062595367,-0.04004396125674248,-0.009381195530295372,-0.02142328955233097,-0.017035437747836113,0.04124273359775543,-0.17426982522010803,0.0460263267159462,0.07486186921596527,0.011540052480995655,0.05047721043229103,0.134273961186409,-0.03877224773168564,0.0067291357554495335,-0.0014182919403538108,-0.033020518720149994,-0.008282736875116825,-0.09386719763278961,0.08241046965122223,0.060698214918375015,0.006530615501105785,-0.014348727650940418,0.07770694047212601,0.05506967008113861,0.10683668404817581,-0.048717427998781204,-0.03804672136902809,-0.02296859584748745,-0.0396934375166893,0.07121499627828598,0.13822655379772186,-0.01580333709716797,-0.03408912569284439,-0.0006918656290508807,0.024781666696071625,0.08576571941375732,-0.04397548735141754,0.05847325176000595,0.04665367305278778,0.09764561802148819,0.04345332086086273,0.08458591252565384,0.008036614395678043,0.004940565675497055,0.03040546551346779,0.04409290850162506,0.033713217824697495,-0.05532694607973099,0.23742792010307312,0.012006334960460663,0.020386476069688797,-0.01693963073194027,-0.05916113778948784,-0.02921903505921364,0.16688859462738037,-0.058500926941633224,0.026558510959148407,0.26948490738868713,0.10288266092538834,0.06392907351255417,0.00505679938942194,0.18477436900138855,-0.4566921591758728,-0.05747751519083977,-0.2353573739528656,0.8413338661193848,0.07118729501962662,0.037849001586437225,-0.0751265287399292,-0.5166690349578857,0.05271799862384796,0.15530957281589508,0.28560271859169006,-0.3671583831310272,-0.029515493661165237,0.010037614963948727,0.21230646967887878,0.15264365077018738,0.40164056420326233,-0.26688167452812195,-0.02322436310350895,0.33496493101119995,0.005255228374153376,-0.015945903956890106,-0.16151778399944305,-0.2005854845046997,-0.10622212290763855,-0.08996114134788513,0.13138887286186218,0.1409173160791397,-0.2726055979728699,0.0050619239918887615,-0.02682245709002018,-0.06846386194229126,-0.033714111894369125,-0.20818965137004852,-0.36869364976882935,0.2877768576145172,0.21774576604366302,-0.21890385448932648,-0.24535802006721497,-0.13533996045589447,-0.1906411498785019,0.08486984670162201,0.3511420488357544,-0.1435908079147339,0.45115604996681213,0.1584058403968811,0.14315615594387054,0.15579329431056976,0.19254451990127563,0.2060139775276184,0.024738801643252373,0.1569390594959259,0.15026235580444336,0.26504257321357727,0.05822385847568512,-0.13763834536075592,-0.03253364562988281,0.3003539443016052,0.3964309096336365,0.38142290711402893,0.1848420798778534,0.21720393002033234,0.4301249384880066,-0.14337749779224396,-0.17530520260334015,0.012881655246019363,0.0726553350687027,-0.25899437069892883,-0.21244178712368011,-0.05900073051452637,-0.023152435198426247,-0.07426730543375015,0.13526350259780884,0.04525328800082207,-0.06433755159378052,0.06399200856685638,0.01776709221303463,-0.08829063922166824,-0.11636539548635483,-0.23003707826137543,0.20379309356212616,-0.04835420474410057,-0.012551874853670597,0.06754262000322342,-0.030935633927583694,-0.03073001094162464,0.03532148152589798,-0.06443899124860764,-0.1225508525967598,-0.07340125739574432,-0.0175718292593956,-0.14445103704929352,0.2753875255584717,-0.07611127942800522,-0.027104226872324944,-0.07303715497255325,-0.008514643646776676,-0.05590052902698517,-0.045846372842788696,-0.03222283348441124,0.0409637875854969,0.12101522088050842,-0.07925234735012054,-0.01376266498118639,-0.10982169955968857,0.040036916732788086,-0.10159651190042496,0.04299509525299072,0.25993889570236206,0.2243409901857376,0.11181484162807465,-0.10011658072471619,-0.06592812389135361,-0.05944937840104103,-0.08766186237335205,0.012574688531458378,-0.062298040837049484,0.03115706518292427,0.14499425888061523,0.021229689940810204,-0.06470704078674316,0.0036737218033522367,-0.012912387028336525,0.11627601087093353,0.15878963470458984,0.13674160838127136,0.11383525282144547,0.060105860233306885,-0.03225290775299072,-0.02552265115082264,0.06651701778173447,-0.013604778796434402,-0.02123153582215309,-0.14676517248153687,-0.1277613341808319,0.03630486875772476,0.05498169735074043,-0.0019660245161503553,-0.0981498658657074,-0.0857071578502655,0.001485888147726655,0.08795446902513504,-0.016105154529213905,0.03697428107261658,-0.09537927061319351,-0.10861518234014511,-0.14971964061260223,-0.04610095173120499,-0.02232436276972294,0.007351685781031847,0.032838981598615646,0.0950891301035881,-0.26601409912109375,0.044140540063381195,0.02904404327273369,0.009981940500438213,0.056890975683927536,-0.037892647087574005,0.30662956833839417,0.008497906848788261,-0.036034803837537766,0.007321297191083431,0.0043927691876888275,-0.09370725601911545,-0.04948006942868233,-0.01469186507165432,-0.021376080811023712,0.014030191116034985,-0.0154154347255826,0.11428742855787277,-0.351896196603775,-0.00429119635373354,0.0211875569075346,-0.07493101805448532,0.12763828039169312,0.23983967304229736,-0.030116761103272438,0.008821012452244759,0.013774770312011242,0.047978274524211884,0.046571604907512665,0.08821814507246017,0.05990265682339668,0.01931283064186573,0.0368557833135128,0.08519074320793152,0.18529154360294342,-0.0028466475196182728,-0.058015141636133194,-0.04367789626121521,-0.009743821807205677,-0.10793282091617584,0.0953444167971611,0.1598624438047409,0.27718496322631836,0.020469041541218758,0.009398261085152626,-0.009993157349526882,-0.06626130640506744,-0.0023402515798807144,0.2819899916648865,-0.0438414141535759,-0.08239223062992096,-0.06148770824074745,-0.050041697919368744,0.0910848006606102,0.09459003806114197,-0.01353964302688837,0.0572546012699604,0.013825671747326851,-0.05672532692551613,-0.015558445826172829,0.05660063773393631,-0.06131163612008095,-0.03238815814256668,-0.018242942169308662,-0.06163039803504944,-0.15131457149982452,0.31592756509780884,0.07817637920379639,0.06913314759731293,0.07368866354227066,0.07265808433294296,-0.11251037567853928,0.12998901307582855,-0.022597437724471092,-0.05965038388967514,-0.005767081864178181,-0.035090357065200806,-0.016140421852469444,-0.06250642240047455,0.10095272213220596,0.1376972198486328,0.11458838731050491,0.06799252331256866,0.14343751966953278,0.1736343950033188,-0.02317473664879799,-0.009210918098688126,0.0011646294733509421,-0.006303179077804089,-0.014339328743517399,0.22204731404781342,-0.011875429190695286,-0.028491947799921036,0.033393438905477524,0.043281957507133484,-0.050125982612371445,0.13534735143184662,-0.07571694254875183,-0.03373262286186218,-0.03872811794281006,-0.055441007018089294,-0.03593844175338745,0.009866106323897839,-0.03391540050506592,-0.03538047522306442,-0.07194571197032928,-0.0999944880604744,-0.02062302641570568,-0.05224469304084778,-0.020779969170689583,-0.11226168274879456,-0.07614219188690186,-0.02121676690876484,-0.11141590774059296,0.16275690495967865,-0.0553932711482048,0.06638149917125702,0.007709254510700703,0.00013289906200952828,-0.010709023103117943,-0.059999335557222366,-0.01133135985583067,0.01627090759575367,0.038099341094493866,0.010830563493072987,0.0870937928557396,0.11590045690536499,0.05106957256793976,0.050000954419374466,0.08717623353004456,-0.021004602313041687,0.07898493856191635,-0.04870465025305748,-0.040254030376672745,-0.07231400907039642,0.013005980290472507,0.05952996388077736,0.08421400934457779,0.11889906227588654,0.061826709657907486,-0.04507199674844742,0.055711161345243454,-0.05399361625313759,0.07282879203557968,-0.0656508132815361,0.025745971128344536,-0.10888704657554626,0.011716519482433796,0.11801078915596008,-0.004699443466961384,0.042145393788814545,-0.04853450879454613,0.01222001202404499,-0.048669978976249695,-0.06616945564746857,-0.08341540396213531,-0.14985887706279755,-0.06729063391685486,-0.016764884814620018,-0.0992138460278511,-0.045026157051324844,-0.040366269648075104,-0.19138936698436737,0.036337777972221375,0.03940385580062866,0.08299935609102249,0.10826996713876724,-0.055456288158893585,-0.1935669630765915,-0.00622391514480114,-0.06486502289772034,0.0038745098281651735,-0.03199499100446701,-0.011242663487792015,-0.15986701846122742,0.10930195450782776,-0.0009105636272579432,0.021322233602404594,-0.009039407595992088,0.09071115404367447,-0.007960619404911995,0.005687353666871786,0.011605595238506794,0.05517415329813957,0.00564991170540452,0.002856650622561574,0.03182756528258324,-0.028414692729711533,0.04509695991873741,-0.0003772029303945601,0.04131921008229256,-0.04239164665341377,0.0598912313580513,-0.01332083996385336,-0.0047080679796636105,0.0032631889916956425,-0.027567073702812195,0.020288145169615746,0.05231359973549843,-0.06286964565515518,-0.04914488643407822,-0.014208471402525902,-0.05060027167201042,-0.0933397188782692,-0.18153803050518036,-0.03488985449075699,-0.04653032496571541,-0.07281431555747986,0.014489073306322098,-0.054901544004678726,0.17796552181243896,-0.00336109078489244,-0.036214426159858704,0.02797119691967964,0.007381648290902376,0.10255397856235504,0.07365460693836212,0.13045231997966766,0.22564668953418732,0.2602517604827881,0.04461148381233215,0.048437196761369705,-0.17496313154697418,0.07331002503633499,-0.15517361462116241,-0.18756625056266785,-0.03523273766040802,-0.16607704758644104,0.23654353618621826,0.22423262894153595,-0.013534123077988625,0.0754520371556282,0.18386432528495789,-0.07081009447574615,-0.013657115399837494,-0.037567388266325,-0.1513737142086029,-0.20260857045650482,-0.10621755570173264,-0.056439969688653946,0.07225176692008972,-0.1198413148522377,0.194029301404953,0.22813169658184052,-0.03892610967159271,0.18147757649421692,-0.2175174206495285,0.03501494228839874,-0.08594772964715958,-0.008236097171902657,-0.06122373417019844,0.06609860807657242,-0.0558500774204731,-0.059584833681583405,-0.06764421612024307,0.1115361899137497,0.2115565836429596,0.028531961143016815,-0.2749609649181366,-0.1118520200252533,-0.11504442989826202,-0.305602490901947,-0.07792836427688599,-0.02807275392115116,0.05142715945839882,-0.052400924265384674,-0.02080075442790985,-0.08548182249069214,-0.031424395740032196,-0.012279285117983818,-0.02217535302042961,-0.03146564960479736,0.02080262452363968,0.01798875816166401,-0.0531826950609684,-0.03160860389471054,-0.26058468222618103,0.09040864557027817,-0.017947223037481308,0.028656061738729477,0.059887271374464035,0.055072348564863205,-0.16464120149612427,0.09334194660186768,0.12553459405899048,-0.003261212958022952,0.09376029670238495,0.043886449187994,-0.1427629441022873,-0.016664594411849976,-0.029482197016477585,-0.01880471408367157,-0.03596601262688637,-0.10688796639442444,0.06066422536969185,-0.08829896152019501,-0.03660895302891731,0.051352810114622116,-0.05864527449011803,-0.04742761328816414,0.06010722741484642,-0.0570085309445858,-0.05726044997572899,-0.049370039254426956,-0.05061834305524826,-0.07944785058498383,-0.40515679121017456,-0.011541123501956463,-0.0340186282992363,-0.015172118321061134,-0.002866949187591672,0.09244252741336823,-0.05845101922750473,0.10530818998813629,0.1549130380153656,0.184920534491539,0.06192852929234505,0.17991690337657928,0.16997495293617249,0.06677712500095367,0.1343405395746231,-0.26478269696235657,0.07358206063508987,0.19746556878089905,0.06100882962346077,-0.48816409707069397,0.4315037429332733,-0.2633208930492401,-0.2106155902147293,0.0504637248814106,0.36512458324432373,-0.39571842551231384,-0.10546154528856277,0.10203692317008972,0.1489565670490265,0.34312230348587036,0.29841381311416626,-0.20803198218345642,-0.31797951459884644,0.2513754367828369,0.04087326303124428,-0.27570170164108276,0.0965334102511406,0.004399723839014769,-0.05552562326192856,0.2583726942539215,-0.10762874782085419,0.14666086435317993,0.21326012909412384,0.18800042569637299,0.03969401866197586,0.059208713471889496,0.02493135817348957,0.06832097470760345,0.0587867870926857,-0.0216994509100914,0.16371728479862213,-0.0009062631870619953,0.11573799699544907,-0.25433123111724854,0.026224873960018158,-0.07867269217967987,0.0017054484924301505,-0.06771639734506607,-0.04805782809853554,-0.02764563448727131,-0.0355585478246212,0.019598113372921944,0.15291377902030945,0.15934965014457703,-0.18113143742084503,0.13153806328773499,0.12967449426651,0.11628364771604538,-0.014970741234719753,0.2897612452507019,-0.2917040288448334,0.18343186378479004,-0.04811200499534607,0.2921673357486725,0.11076536774635315,-0.12338841706514359,0.10203251987695694,0.4014725685119629,-0.1718241274356842,-0.16298291087150574,0.1273723542690277,-0.24259820580482483,0.0012939757434651256,-0.27571940422058105,0.36698824167251587,0.010878886096179485,0.02573254331946373,-0.18750448524951935,0.07994446158409119,-0.17076431214809418,-0.1423816978931427,0.0300728902220726,0.06628802418708801,-0.02033359743654728,0.013536076061427593,-0.022546609863638878,-0.07792537659406662,-0.05357910692691803,-0.024650389328598976,-0.07984609156847,-0.14049239456653595,0.04551408812403679,0.06039205938577652,-0.12777231633663177,-0.005347336642444134,-0.09112545847892761,0.05425088107585907,-0.029656024649739265,-0.056836530566215515,-0.2102215439081192,-0.1425725668668747,-0.05188197270035744,0.17481540143489838,0.02353021688759327,0.08920972049236298,0.027206676080822945,-0.10654517263174057,0.10866326838731766,0.06275530904531479,-0.0519067719578743,-0.12928104400634766,0.059642840176820755,0.0008696203585714102,0.02003815397620201,-0.12285448610782623,-0.032548531889915466,-0.08562040328979492,0.0485466867685318,0.11611820012331009,-0.02871900051832199,-0.2983244061470032,-0.03924055024981499,0.17480896413326263,0.3153066039085388,0.13691025972366333,0.06052377074956894,-0.16347531974315643,0.04126601293683052,0.1365915685892105,0.1724979281425476,0.007492521777749062,0.06298241019248962,0.0167679600417614,-0.015526948496699333,0.030033694580197334,-0.0694170594215393,0.18612101674079895,0.03142036870121956,-0.1985815316438675,0.0468582920730114,-0.06685538589954376,0.08802855014801025,0.000028650758395087905,-0.060110628604888916,0.08254076540470123,-0.03908976539969444,-0.020636875182390213,0.04187510535120964,0.05984635278582573,0.014235270209610462,0.021374637261033058,-0.022172441706061363,-0.029958924278616905,-0.1263623982667923,-0.12069486826658249,-0.03932792320847511,-0.003332069842144847,-0.00896080955862999,0.04613804444670677,-0.09038513898849487,0.11639198660850525,-0.019533002749085426,-0.050999417901039124,0.002890395000576973,-0.08423864841461182,0.08686182647943497,-0.11986100673675537,-0.09006296098232269,-0.09112619608640671,-0.020213868468999863,-0.0525437593460083,0.127014622092247,-0.19332531094551086,0.05426282808184624,-0.18183815479278564,-0.012428701855242252,-0.004529384430497885,0.05449474975466728,-0.13958695530891418,0.009246439673006535,-0.010453551076352596,0.07850605249404907,0.013640027493238449,0.09249222278594971,0.08673347532749176,0.15142783522605896,-0.25503993034362793,0.11398500949144363,0.014315623790025711,-0.0538056343793869,-0.03810986876487732,-0.13441786170005798,0.13228574395179749,0.03193139657378197,-0.05891933664679527,0.09106127917766571,0.1006154716014862,-0.22748711705207825,-0.05151514708995819,0.04457623139023781,0.06970658153295517,-0.06222441792488098,-0.08936004340648651,-0.13269922137260437,-0.025417745113372803,-0.03658372536301613,-0.18113544583320618,0.06920024007558823,-0.024624411016702652,0.2140180468559265,-0.05903339385986328,-0.0057539851404726505,-0.07569333910942078,-0.02141454629600048,-0.023537341505289078,0.12418932467699051,-0.05048590525984764,0.008611900731921196,0.10667231678962708,-0.0839790552854538,0.04926101490855217,0.2469416707754135,-0.19798974692821503,0.002607822883874178,0.08182034641504288,-0.34370285272598267,0.018931973725557327,0.11760348826646805,-0.07408364117145538,-0.09149512648582458,-0.1374301016330719,-0.04531308263540268,0.06692270189523697,0.05454220995306969,-0.054450035095214844,0.09785080701112747,-0.020391767844557762,0.018680060282349586,-0.08816725015640259,0.031088173389434814,0.10554398596286774,0.0855032280087471,0.04015012085437775,0.013636746443808079,0.03194311633706093,0.19517458975315094,-0.1360171139240265,0.025027483701705933,-0.026225678622722626,-0.03318485617637634,-0.11743729561567307,-0.14717108011245728,-0.03837935999035835,0.046605415642261505,-0.1381976157426834,0.08770888298749924,0.08333144336938858,0.11779529601335526,0.10019753128290176,-0.1257334053516388,-0.1270480901002884,-0.0774179995059967,0.002901481231674552,0.03849231079220772,-0.031895238906145096,-0.14896546304225922,-0.031759656965732574,-0.026756295934319496,0.040263839066028595,0.1932564228773117,-0.00504583865404129,0.08359836041927338,0.02166345901787281,-0.050846949219703674,-0.0385579951107502,-0.20738306641578674,0.19361470639705658,0.03765043988823891,0.018254682421684265,0.045550692826509476,-0.11924780905246735,0.04030107706785202,-0.17852570116519928,0.0348082035779953,-0.009974446147680283,-0.04434116184711456,0.04240353778004646,-0.12305182963609695,0.11725036054849625,0.057687852531671524,0.09310968220233917,0.03926895558834076,-0.11546342074871063,-0.23592542111873627,0.006940177176147699,-0.010148320347070694,-0.12237412482500076,-0.19999568164348602,-0.016060154885053635,-0.08288253843784332,0.011722764931619167,0.019314931705594063,0.1332036703824997,0.031497012823820114,-0.09312760829925537,0.0844479352235794,-0.13995997607707977,-0.0368819460272789,-0.06104551628232002,-0.03727300092577934,-0.020639756694436073,0.03517381474375725,-0.05462082102894783,-0.02174116112291813,-0.05437953397631645,0.12054822593927383,0.1746421605348587,0.25856995582580566,-0.23567739129066467,0.10097847133874893,-0.3106614351272583,0.18010812997817993,0.26110270619392395,0.1365101933479309,-0.006174249574542046,0.0013517845654860139,0.07909487187862396,0.10439202934503555,-0.08326470106840134,0.06666778773069382,-0.1865611970424652,-0.04406982287764549,-0.17110250890254974,-0.15783648192882538,0.10118693113327026,0.05905831977725029,0.0958305150270462,-0.12936045229434967,-0.18739645183086395,-0.21633008122444153,0.13107065856456757,0.1406557261943817,-0.06569100171327591,0.12521818280220032,0.01624714769423008,-0.12163471430540085,-0.22673168778419495,-0.05156628414988518,0.10505913943052292,-0.06730948388576508,0.21396219730377197,0.0733800008893013,-0.1320946365594864,0.03538870811462402,-0.12035354226827621,-0.013581033796072006,-0.0028291279450058937,0.17367282509803772,-0.00022931507555767894,-0.09554553776979446,-0.2481209635734558,0.0297807939350605,0.19763463735580444,0.2819729149341583,-0.03626656159758568,-0.01055460050702095,-0.12069477140903473,0.04677104204893112,0.030962171033024788,-0.12711213529109955,-0.17699071764945984,-0.09179586917161942,-0.05711223930120468,-0.03397270664572716,0.06187308952212334,-0.039454568177461624,-0.00956178829073906,-0.03484370931982994,-0.11385662853717804,-0.046075351536273956,0.007668925449252129,0.030569609254598618,0.07623105496168137,0.10661876946687698,0.16120168566703796,-0.014873870648443699,0.09088330715894699,0.06281083822250366,0.033433448523283005,0.05379850044846535,0.15631672739982605,0.016522059217095375,-0.03632543981075287,-0.03145495802164078,-0.00005374577813199721,-0.060457974672317505,0.16273172199726105,0.012005320750176907,-0.11358646303415298,-0.014927923679351807,-0.0582052618265152,-0.006014585494995117,-0.21748676896095276,-0.024067901074886322,-0.07316511869430542,-0.10200131684541702,-0.037294548004865646,-0.10329441726207733,-0.11838888376951218,0.02031826227903366,0.0007893170695751905,-0.03195693716406822,-0.07356398552656174,-0.05842520669102669,0.07896057516336441,0.0023027854040265083,0.07336638867855072,0.043343886733055115,0.06009678170084953,0.06550594419240952,0.17477519810199738,0.009676025249063969,-0.05152131989598274,0.010367958806455135,-0.0382981114089489,-0.00571917649358511,0.26315802335739136,-0.016342930495738983,-0.0757938101887703,-0.08352547138929367,-0.08133666217327118,-0.11626029759645462,-0.1562916785478592,0.006067528389394283,-0.06049032881855965,-0.05876430869102478,-0.01732531748712063,0.03940076008439064,