{"version":"0.7.0","metadata":{"date":{"year":2026,"month":6,"day":27,"hour":2,"minute":15,"second":49},"loudness":-14.988638884341185,"gain":0.00035392611649461675,"name":"Bypass","modeled_by":"delt","gear_make":"Deimos Labs experiment","gear_model":"Deimos Labs experiment","tone_type":"utility","trainer":"TONE3000"},"architecture":"SlimmableContainer","config":{"submodels":[{"max_value":0.5,"model":{"version":"0.7.0","metadata":{"date":{"year":2026,"month":6,"day":27,"hour":2,"minute":15,"second":48},"loudness":-14.945956236636107,"gain":0},"architecture":"WaveNet","config":{"layers":[{"input_size":1,"condition_size":1,"head":{"out_channels":1,"kernel_size":16,"bias":true},"channels":3,"kernel_sizes":[6,6,6,6,6,6,6,6,6,6,6,6,6,6,15,15,6,6,6,6,6,6,6],"dilations":[1,3,7,17,41,101,239,1,3,7,17,41,101,239,1,13,1,3,7,17,41,101,239],"activation":[{"type":"LeakyReLU","negative_slope":0.01},{"type":"LeakyReLU","negative_slope":0.01},{"type":"LeakyReLU","negative_slope":0.01},{"type":"LeakyReLU","negative_slope":0.01},{"type":"LeakyReLU","negative_slope":0.01},{"type":"LeakyReLU","negative_slope":0.01},{"type":"LeakyReLU","negative_slope":0.01},{"type":"LeakyReLU","negative_slope":0.01},{"type":"LeakyReLU","negative_slope":0.01},{"type":"LeakyReLU","negative_slope":0.01},{"type":"LeakyReLU","negative_slope":0.01},{"type":"LeakyReLU","negative_slope":0.01},{"type":"LeakyReLU","negative_slope":0.01},{"type":"LeakyReLU","negative_slope":0.01},{"type":"LeakyReLU","negative_slope":0.01},{"type":"LeakyReLU","negative_slope":0.01},{"type":"LeakyReLU","negative_slope":0.01},{"type":"LeakyReLU","negative_slope":0.01},{"type":"LeakyReLU","negative_slope":0.01},{"type":"LeakyReLU","negative_slope":0.01},{"type":"LeakyReLU","negative_slope":0.01},{"type":"LeakyReLU","negative_slope":0.01},{"type":"LeakyReLU","negative_slope":0.01}],"bottleneck":3,"head1x1":{"active":false,"out_channels":1,"groups":1},"layer1x1":{"active":true,"groups":1},"groups_input":1,"groups_input_mixin":1,"conv_pre_film":{"active":false,"shift":true,"groups":1},"conv_post_film":{"active":false,"shift":true,"groups":1},"input_mixin_pre_film":{"active":false,"shift":true,"groups":1},"input_mixin_post_film":{"active":false,"shift":true,"groups":1},"activation_pre_film":{"active":false,"shift":true,"groups":1},"activation_post_film":{"active":false,"shift":true,"groups":1},"layer1x1_post_film":{"active":false,"shift":true,"groups":1},"head1x1_post_film":{"active":false,"shift":true,"groups":1},"gating_mode":["none","none","none","none","none","none","none","none","none","none","none","none","none","none","none","none","none","none","none","none","none","none","none"],"secondary_activation":[null,null,null,null,null,null,null,null,null,null,null,null,null,null,null,null,null,null,null,null,null,null,null],"slimmable":null}],"head":null,"head_scale":0.006561064478493273},"weights":[1.788765549659729,-0.6490100622177124,-1.2341746091842651,0.02069590613245964,0.139352947473526,0.3645075857639313,0.3437991440296173,0.6621888279914856,-0.35688358545303345,-0.028687559068202972,0.11197242885828018,0.25155720114707947,-0.08449560403823853,-0.09889409691095352,0.6601718068122864,-0.04555195942521095,0.2701176106929779,0.2261321097612381,0.13583073019981384,-0.1833621710538864,0.8511825799942017,-0.03406030312180519,0.063296839594841,-0.19096823036670685,-0.14931458234786987,-0.19456952810287476,0.2833096385002136,-0.04651113972067833,-0.04858822748064995,-0.09203898906707764,-0.14946424961090088,-0.035283852368593216,-0.2616821825504303,-0.05734722316265106,0.011196144856512547,-0.006595792714506388,-0.018995098769664764,0.1504795253276825,-0.3613138198852539,-0.1901939958333969,-0.1631268858909607,-0.3236425518989563,-0.4274345338344574,-0.3965110778808594,0.5733437538146973,-0.16022831201553345,-0.0582115612924099,-0.2242143452167511,-0.0700303465127945,0.13883763551712036,-0.4035918414592743,-0.2148429900407791,-0.1806502789258957,-0.11458553373813629,-0.1481059342622757,-0.03646951541304588,-0.5857686996459961,0.2748374938964844,0.29463669657707214,0.3107996881008148,-0.48740044236183167,0.7425650954246521,0.7071914076805115,-0.8303381204605103,0.7768590450286865,0.44445720314979553,0.11105556041002274,0.132333442568779,0.004381401464343071,0.08315146714448929,0.26772770285606384,-0.3717152178287506,0.30152279138565063,-0.3478851616382599,0.010483093559741974,0.036537643522024155,-0.023740768432617188,0.07537265866994858,0.07938962429761887,0.12115449458360672,-0.030663618817925453,-0.1013026013970375,-0.15744353830814362,0.026109447702765465,-0.13021743297576904,-0.1709749549627304,0.12762705981731415,0.1343756914138794,0.030423790216445923,0.0819181352853775,0.17793415486812592,0.14512427151203156,0.31939759850502014,-0.07787889987230301,0.05804060772061348,0.0256792139261961,-0.06507164984941483,0.05236928164958954,-0.03274758160114288,-0.05843628942966461,-0.15654423832893372,-0.20107556879520416,-0.01230598520487547,-0.1316593438386917,0.06788589060306549,-0.19926515221595764,0.24563702940940857,0.18587100505828857,-0.04404565691947937,0.1422233134508133,-0.26496830582618713,0.00516968360170722,0.14142127335071564,-0.11143870651721954,0.011205940507352352,-0.028527386486530304,0.4750022888183594,-0.2373141497373581,0.11540118604898453,-0.20924599468708038,0.1321217566728592,-0.16874848306179047,-0.24693110585212708,0.07605249434709549,0.16224846243858337,-0.019220443442463875,-0.025161484256386757,0.22057880461215973,-0.018840068951249123,0.27054542303085327,0.24111032485961914,0.13435053825378418,-1.0312559604644775,0.9986212849617004,0.4211297631263733,-0.4810532033443451,0.3719152510166168,-0.015499585308134556,0.016370179131627083,0.15219703316688538,0.00690895551815629,-0.34946608543395996,-0.4028831720352173,-0.17280562222003937,0.4891129434108734,-0.39032718539237976,0.3746432960033417,0.040556225925683975,-0.002554143313318491,0.029009519144892693,0.04126669466495514,0.03375394269824028,0.10504290461540222,-0.13659299910068512,-0.20824667811393738,-0.09775464236736298,-0.23493722081184387,0.05819482356309891,0.16237255930900574,0.14710600674152374,0.025454947724938393,0.09855075925588608,0.13797952234745026,-0.02654806338250637,0.05898204445838928,-0.023317724466323853,0.0036540990695357323,0.0010267870966345072,0.005717120133340359,-0.032514557242393494,-0.8408663868904114,0.05861255154013634,0.14391010999679565,0.12092043459415436,-0.011082480661571026,0.029437920078635216,0.48758143186569214,-0.07563963532447815,-0.028255965560674667,-0.028236066922545433,0.0029699832666665316,0.005575415212661028,-0.01927843503654003,-0.029154619202017784,-0.11352131515741348,-0.09798665344715118,-0.05651043727993965,-0.016357161104679108,-0.039734359830617905,0.11943028122186661,0.0999467596411705,0.020605484023690224,0.11559798568487167,0.04316356033086777,0.040699031203985214,-0.023452531546354294,0.04330892860889435,0.018782105296850204,0.032463233917951584,0.00971181970089674,-0.04077135771512985,0.19986799359321594,-0.052764225751161575,0.0279155895113945,-2.0325286388397217,-0.7679358124732971,-0.014431241899728775,-0.6331638693809509,-0.543512225151062,-0.1728992760181427,0.031760282814502716,-0.06595546752214432,-0.027060801163315773,-0.5137293338775635,0.017796054482460022,0.1054522842168808,0.2654772102832794,-0.1563984453678131,0.5141898393630981,-0.014415709301829338,-0.027728766202926636,0.018087992444634438,-0.022639181464910507,-0.049816470593214035,-0.06856024265289307,-0.32691267132759094,-0.257608562707901,0.030440134927630424,-0.2504538297653198,-0.2265658676624298,0.08236299455165863,0.06402131170034409,-0.016271553933620453,0.08848235756158829,-0.020584728568792343,-0.015863485634326935,-0.007821612060070038,-0.005524143576622009,-0.0073852017521858215,0.01525351032614708,0.001356828841380775,-0.012720069848001003,-0.024458983913064003,0.01155233383178711,0.011905234307050705,0.011330990120768547,0.011141457594931126,0.012548287399113178,0.014244066551327705,-0.004847274627536535,-0.006654822733253241,-0.008586768060922623,-0.004016044549643993,-0.004093221388757229,-0.00522593455389142,0.008875494822859764,0.00542741734534502,-0.011757861822843552,-0.008590244688093662,0.01892203837633133,0.12616947293281555,0.08782467991113663,-0.17843133211135864,-0.12217997759580612,-0.0030279415659606457,-0.0344710648059845,0.15350212156772614,0.0274965837597847,0.09152228385210037,-0.015196746215224266,0.0076492950320243835,-0.018152836710214615,-0.000720877549611032,0.022040946409106255,-0.01720668561756611,-0.09611823409795761,-1.036253571510315,-0.00540514150634408,-0.7839503288269043,-0.15979823470115662,0.016250886023044586,-0.3998090922832489,0.02349543198943138,0.0025002541951835155,-0.08608396351337433,-0.40972086787223816,0.0067870295606553555,-0.2443937063217163,-0.19105897843837738,-0.5163702368736267,0.5394549369812012,0.014988811686635017,0.008623403497040272,0.0008057667873799801,0.005928819067776203,0.011548488400876522,0.32101327180862427,0.189523383975029,0.1644277721643448,0.04740096628665924,0.0988680049777031,0.14262241125106812,-0.05653180181980133,-0.0006333354394882917,-0.001344179967418313,-0.009335282258689404,-0.009411626495420933,-0.011296529322862625,-0.37899306416511536,-0.01005861721932888,-0.002036234363913536,-0.010781792923808098,-0.006627791095525026,0.007074045017361641,-0.015572194010019302,0.015473611652851105,0.014987307600677013,0.015743156895041466,0.015492437407374382,0.014493356458842754,0.016454029828310013,-0.00665627233684063,-0.006453029811382294,-0.006125249434262514,-0.006872436031699181,-0.006731909234076738,-0.007114762905985117,-0.009606578387320042,-0.00622199010103941,-0.0005621562013402581,-0.00037008774233981967,-0.010156907141208649,0.3253189027309418,-0.12118340283632278,-0.06586699187755585,-0.01693904399871826,0.0327913761138916,-0.015146639198064804,-0.03383363038301468,-0.02474767342209816,-0.007654186338186264,-0.003252224065363407,-0.022312631830573082,-0.09715618193149567,0.1288536936044693,-0.057000983506441116,-0.012296431697905064,0.13990570604801178,0.035070013254880905,-0.0012336565414443612,0.0894148051738739,0.28031665086746216,0.01969071850180626,-0.11170060932636261,-0.061215680092573166,-0.010418429039418697,0.10311652719974518,0.027005141600966454,-0.002625934313982725,-0.1144065111875534,-0.20388120412826538,-0.2242422103881836,0.3103104531764984,-0.0021579726599156857,-0.0075479717925190926,-0.008506188169121742,-0.006281743757426739,-0.0014095965307205915,-0.48323437571525574,-0.03763044625520706,-0.15879413485527039,-0.19156703352928162,-0.13316337764263153,-0.06193782389163971,-0.13944494724273682,-0.004216263070702553,-0.012837514281272888,-0.014881104230880737,-0.010363196022808552,0.004680325277149677,0.15547513961791992,-0.0029971629846841097,0.004375614691525698,0.0003301719552837312,-0.005295136012136936,-0.003152829362079501,0.20360246300697327,-0.06338914483785629,0.09987803548574448,0.04506397247314453,-0.04544176161289215,-0.020309096202254295,0.17903225123882294,-0.0033007394522428513,0.003440061816945672,-0.011881104670464993,-0.028259439393877983,-0.0027846936136484146,-0.4950115978717804,0.013683535158634186,0.005043060518801212,0.017279889434576035,0.009790233336389065,0.0042685470543801785,0.4403998851776123,0.2025308609008789,-0.0021512419916689396,0.2269178181886673,0.18737152218818665,0.06851792335510254,0.01546962559223175,0.019801635295152664,0.0018381808185949922,0.03800696134567261,0.02891038917005062,0.014671656303107738,-0.547622799873352,0.008627821691334248,0.06320570409297943,-0.012936756014823914,0.04078327864408493,0.1327175796031952,0.35084882378578186,0.11840397864580154,0.247340127825737,0.2766093313694,0.30884215235710144,-0.20017515122890472,-0.1330326944589615,-0.23563387989997864,0.16204112768173218,0.2302168309688568,-0.43170785903930664,-0.1376795619726181,-0.4394829571247101,0.037936870008707047,0.002445502206683159,-0.0025381760206073523,0.0042020706459879875,0.008573697879910469,0.0030590759124606848,0.009865663945674896,0.01351258996874094,0.01400226540863514,0.012889892794191837,0.013491405174136162,0.013579350896179676,-0.023144742473959923,0.0012166870292276144,0.010646874085068703,0.006129944697022438,0.0068513681180775166,0.004481840878725052,0.0077523961663246155,0.039377160370349884,0.007847546599805355,0.01827250048518181,-0.005469629541039467,-0.013000979088246822,0.010714001953601837,0.011542626656591892,0.007984299212694168,0.0069750635884702206,0.012328355573117733,0.01410168968141079,0.009653308428823948,0.0005821519298478961,0.0072141001001000404,0.00609880406409502,0.0027391507755964994,0.0021871922072023153,-0.03872297331690788,-0.01592005416750908,-0.024558985605835915,0.018344856798648834,-0.046922165900468826,0.45206591486930847,-0.18676835298538208,-0.07540115714073181,-0.11553485691547394,0.08367329835891724,-0.2259456366300583,-0.13124598562717438,-0.01939726062119007,-0.00930293370038271,-0.01264740340411663,-0.00166338833514601,-0.03176721930503845,-0.27168774604797363,-0.012134651653468609,-0.009444301016628742,0.24043747782707214,0.00040329963667318225,-0.003226400585845113,1.198555827140808,0.04885120689868927,0.04395093768835068,0.527171790599823,0.011619025841355324,-0.0055412123911082745,0.07679599523544312,0.08799348026514053,0.025515327230095863,0.430056095123291,0.26219403743743896,-0.31159454584121704,0.010424507781863213,-0.0328083299100399,-0.014743446372449398,0.016636863350868225,0.0040793451480567455,0.05284585431218147,-0.3649846315383911,-0.16713960468769073,-0.15179970860481262,-0.20919805765151978,-0.21858231723308563,0.11569611728191376,0.04847286269068718,0.10637488961219788,-0.0670773983001709,0.011071412824094296,0.1623826026916504,0.25829559564590454,0.04847193881869316,-0.014331737533211708,0.007804360240697861,-0.021957706660032272,-0.09869024157524109,-0.19435244798660278,0.5292697548866272,0.08647272735834122,0.05925906077027321,-0.004976185970008373,0.11714217066764832,0.20494166016578674,-0.14197595417499542,-0.027575569227337837,-0.052085697650909424,-0.11319992691278458,-0.048602841794490814,-0.07972437143325806,0.0713697150349617,-0.03864869102835655,-0.032973628491163254,0.04813196137547493,0.04334370419383049,0.16618400812149048,0.7494131326675415,-0.2779174745082855,-0.003866832237690687,-0.12208589166402817,-0.2111862748861313,-0.14694158732891083,-0.28381022810935974,-0.008175997994840145,-0.045875102281570435,0.09953378140926361,0.07591076195240021,0.09422396868467331,0.3924442529678345,0.21716636419296265,-0.22010940313339233,0.03469124063849449,-1.2166389226913452,0.24335834383964539,0.15983819961547852,-0.08760213106870651,0.597026526927948,-0.1455180048942566,0.5560287237167358,-0.2881290912628174,-0.04150112718343735,-0.06863565742969513,-0.08523040264844894,-0.207668274641037,-0.1328088492155075,-0.2215310037136078,0.17406347393989563,-0.04586394503712654,-0.008250467479228973,-0.03742514178156853,-0.11736743897199631,-0.20638440549373627,-0.13874739408493042,-0.1148495003581047,-0.05583004653453827,0.0030180092435330153,-0.0753212422132492,-0.0014939926331862807,-0.117728590965271,0.0713251531124115,0.08448250591754913,0.1578025072813034,0.1591121107339859,0.1907297819852829,-0.1374012678861618,-0.017593251541256905,0.010754264891147614,-0.06765302270650864,-0.020363982766866684,0.26662972569465637,-0.15546444058418274,-0.03225330635905266,0.04152952879667282,-0.2535078227519989,-0.24124494194984436,0.06456241756677628,-0.02804662100970745,-0.060511860996484756,-0.03080657310783863,0.00449569383636117,0.03199981153011322,0.039896655827760696,0.16162629425525665,-0.009542001411318779,0.0636633038520813,0.08138985186815262,0.048521436750888824,-0.040992386639118195,0.3617362678050995,0.022632353007793427,0.13190917670726776,0.19123780727386475,0.04024158790707588,0.17190887033939362,0.04722357541322708,-0.004985225386917591,0.01014520414173603,0.06105653569102287,-0.04492194205522537,-0.013569623231887817,-0.2605248987674713,0.37101811170578003,-0.033827587962150574,-0.06248850375413895,0.6767504811286926,-1.3874671459197998,0.14586056768894196,0.1994331330060959,-0.3868667185306549,0.23770548403263092,-0.5199724435806274,-0.3492863178253174,-0.12189525365829468,-0.18431662023067474,-0.16469238698482513,-0.01548777986317873,0.09300919622182846,0.2152688205242157,0.07508429884910583,0.0465659536421299,0.030266016721725464,0.013849439099431038,0.0635392814874649,0.005136926658451557,0.3500339984893799,0.18314562737941742,0.139198437333107,0.029466602951288223,0.19341248273849487,0.1552661657333374,-0.05978525057435036,-0.017997879534959793,0.03701166436076164,-0.012058419175446033,-0.017997464165091515,0.0348169207572937,-0.19683252274990082,0.016087589785456657,0.012828577309846878,0.042995959520339966,0.027615422382950783,0.016881518065929413,-0.6598914265632629,0.045077450573444366,0.06779522448778152,0.15474693477153778,0.09582992643117905,0.06959684938192368,0.3753467798233032,-0.035999998450279236,0.022331614047288895,-0.018559180200099945,0.08957626670598984,0.06515022367238998,-0.5362402200698853,-0.05161553993821144,-0.04493588209152222,-0.010167115367949009,0.014671064913272858,-0.02712707221508026,0.6372188329696655,-0.14810340106487274,-0.1769615113735199,-0.011982358992099762,0.05099014565348625,-0.10749895870685577,-0.17877981066703796,0.24251788854599,-0.08141523599624634,0.11888431757688522,-0.16946594417095184,-0.11383450776338577,-0.23623715341091156,-0.07156846672296524,-0.1877458393573761,0.3652271330356598,0.1770256608724594,-0.6878005266189575,1.0511926412582397,0.37314167618751526,-0.38296395540237427,0.024640709161758423,-0.3303980529308319,0.44842350482940674,-0.452149897813797,0.031707730144262314,0.06228141859173775,0.07310588657855988,0.134999081492424,-0.0022645348217338324,0.33820733428001404,-0.10842419415712357,-0.0803963914513588,0.019001586362719536,-0.12290285527706146,-0.055223189294338226,-0.5139022469520569,-0.18887624144554138,-0.14381617307662964,0.006369813811033964,-0.17973364889621735,-0.074798084795475,-0.19054466485977173,-0.05370549112558365,-0.058803144842386246,-0.13308334350585938,0.137197345495224,0.11966604739427567,-0.06222742423415184,0.02154504507780075,0.018182488158345222,-0.012665601447224617,0.016867125406861305,0.020552339032292366,-0.31914597749710083,0.05056263133883476,0.024874497205018997,0.01031885202974081,0.029057621955871582,0.022271791473031044,0.17782801389694214,0.03890598565340042,0.015374414622783661,0.05572248995304108,-0.011564411222934723,0.0043717739172279835,-0.060637928545475006,-0.11892237514257431,0.08775867521762848,0.11072071641683578,-0.14275038242340088,-0.04134974628686905,0.4613794684410095,-0.19570259749889374,0.14211703836917877,0.14358815550804138,-0.2491850107908249,-0.06677665561437607,-0.3347923159599304,-0.034426428377628326,0.026203438639640808,-0.2052241712808609,-0.07835707813501358,-0.050499096512794495,0.23393183946609497,0.184014692902565,0.019075457006692886,0.005143997725099325,-1.6843435764312744,-0.05742224305868149,0.5425392985343933,-0.48277896642684937,-0.12089215219020844,0.44524505734443665,0.4562195837497711,0.04198570176959038,0.4747931659221649,0.42446720600128174,0.039666082710027695,-0.0528443306684494,0.2886050343513489,0.5367581248283386,-0.1143207997083664,-0.01177193969488144,0.0003922413452528417,0.012743063271045685,-0.0030510127544403076,-0.0012315555941313505,-0.1471557915210724,-0.0030517657287418842,0.009467286057770252,0.06733327358961105,0.014071022160351276,0.018619032576680183,0.23273985087871552,-0.07693921029567719,-0.014999324455857277,-0.06290188431739807,-0.04947022348642349,-0.042095839977264404,-0.11343064904212952,0.0033210255205631256,0.014990873634815216,0.005901347380131483,0.020656423643231392,-0.00591995008289814,-0.07657987624406815,-0.014434650540351868,0.012578709982335567,-0.001623491640202701,0.016353806480765343,-0.0497405044734478,0.09883767366409302,0.04704716429114342,0.04418905824422836,0.0009818712715059519,0.08128724992275238,0.09880051016807556,-0.020488489419221878,-0.002408052561804652,-0.0019508680561557412,-0.0013603647239506245,-0.0023797464091330767,0.005531134083867073,0.2793205678462982,0.04435492679476738,0.04230833798646927,0.03816163167357445,0.04720670357346535,0.040683895349502563,-0.1010957732796669,-0.1083233505487442,-0.112217977643013,-0.11204319447278976,-0.11487043648958206,-0.11610343307256699,-0.14443446695804596,-0.17539799213409424,0.07575749605894089,-0.13031268119812012,-0.083605095744133,0.0003622948133852333,0.025534693151712418,-0.1954314410686493,0.043063241988420486,-0.19443342089653015,-0.26793330907821655,0.030388526618480682,0.07256510108709335,0.01052170805633068,0.20285984873771667,0.06188791245222092,-0.36600327491760254,0.35306429862976074,-0.001614753040485084,-0.020871812477707863,-0.011757271364331245,-0.019343160092830658,-0.025890622287988663,-0.01841239631175995,-0.32835641503334045,0.00788998045027256,0.018551815301179886,0.01709931530058384,0.007149389013648033,-0.012654637917876244,0.3656803369522095,-0.17498043179512024,-0.12906427681446075,-0.1614835560321808,-0.19152845442295074,-0.1733321249485016,-0.22661086916923523,0.0028047156520187855,0.0035450258292257786,0.013788962736725807,-0.0017795126186683774,0.0029740536119788885,0.02446170151233673,0.0057906522415578365,0.020538542419672012,0.03583969920873642,0.0032739194575697184,0.021474283188581467,0.483921617269516,-0.0033107346389442682,-0.031237533316016197,0.0030014202930033207,-0.0317540317773819,-0.058353669941425323,0.30181485414505005,0.00584568502381444,0.0046987817622721195,-0.04464469105005264,0.02978690154850483,0.02096959948539734,0.3380546569824219,-0.08310496062040329,-0.0861603245139122,-0.1337125599384308,0.015286930836737156,0.06797546148300171,-0.397033154964447,0.27043282985687256,0.2642879784107208,0.03550322353839874,0.184967502951622,0.03369026258587837,0.3799814283847809,-0.2711676359176636,0.14426280558109283,0.20516355335712433,-0.043201591819524765,0.8682384490966797,0.25325629115104675,-0.07475907355546951,-0.15598778426647186,-0.173336461186409,-0.17950312793254852,-0.6842275857925415,-0.006102615501731634,-0.03181946650147438,-0.3517514765262604,-0.16616466641426086,-0.09856349974870682,-0.4918760657310486,0.3472066819667816,-0.011354532092809677,-0.01491735689342022,-0.0261674914509058,0.01640414260327816,-0.03300882875919342,-0.7184406518936157,-0.05542745068669319,-0.09984799474477768,-0.11279041320085526,-0.06301058083772659,-0.1394650936126709,-0.32852795720100403,0.0378149151802063,0.08586333692073822,0.03799411281943321,0.18881219625473022,0.036362744867801666,0.07379918545484543,0.02653634361922741,0.022482693195343018,0.020284024998545647,0.014093887060880661,0.027032453566789627,0.3567273020744324,0.1328458935022354,0.09441129118204117,0.0982908084988594,0.12104503810405731,0.12191612273454666,0.0887540951371193,-0.09193628281354904,-0.05189967900514603,-0.08316956460475922,-0.10627025365829468,-0.10545285046100616,-0.15304969251155853,0.01238861121237278,0.018381837755441666,0.02335967868566513,0.010029613971710205,0.023908471688628197,0.5804033279418945,0.06881114840507507,0.12342305481433868,0.12867778539657593,0.1106731966137886,0.1444651335477829,-0.13316456973552704,-0.05196420103311539,-0.10809659212827682,-0.07748568058013916,-0.11992379277944565,-0.09124716371297836,-0.30223071575164795,0.22963790595531464,-0.22522605955600739,-0.25556474924087524,-0.43617939949035645,-0.00022529243142344058,0.06587458401918411,0.30523329973220825,-0.006462957244366407,-0.28199446201324463,0.1791703999042511,-0.4878135323524475,-0.1703634113073349,-0.2998508810997009,0.013673365116119385,0.18007245659828186,-0.08877278119325638,-0.24717970192432404,-0.4078710973262787,0.03244335576891899,0.020812928676605225,0.061881519854068756,0.041723910719156265,0.03643335774540901,0.02241421863436699,0.04463508725166321,0.03238629177212715,0.02784159407019615,0.019071290269494057,0.03218728303909302,0.06630375236272812,-0.005693656392395496,0.1054571270942688,-0.3615274429321289,0.04126034304499626,0.048786163330078125,0.17157769203186035,0.05514048412442207,0.04157543182373047,0.021085841581225395,0.09118129312992096,-0.0008436321513727307,0.08221632987260818,0.032211724668741226,0.15226362645626068,0.06207118183374405,0.0014847272541373968,-0.014468131586909294,0.5356857776641846,0.030153313651680946,0.010717996396124363,0.01831495203077793,-0.017235439270734787,0.007037952076643705,-0.0362173356115818,0.004232472274452448,0.005506343673914671,-0.07273693382740021,-0.018441392108798027,-0.029133645817637444,0.054328687489032745,-0.07756298035383224,-0.11678539961576462,-0.09864553809165955,0.02308422513306141,0.025802599266171455,0.03460799902677536,0.04355418309569359,0.03755222260951996,0.002003795001655817,0.042215656489133835,0.03485365957021713,-0.009106827899813652,0.01966261677443981,0.04273485392332077,-0.0536155104637146,-0.039226382970809937,0.17521291971206665,0.1694507747888565,0.03935766592621803,0.05108427628874779,0.06398037821054459,0.06484343111515045,0.06873371452093124,0.08111841976642609,0.05627750605344772,0.07273359596729279,0.060519441962242126,0.06281296163797379,0.051017891615629196,0.09609705954790115,0.026813236996531487,-0.08473987132310867,-0.02370428666472435,-0.01924176886677742,-0.006317625287920237,-0.022359853610396385,-0.005735764279961586,-0.01101910974830389,-0.010752529837191105,-0.05745810270309448,-0.028625400736927986,-0.04740368202328682,-0.07787572592496872,-0.06158718094229698,-0.02788073942065239,-0.04157615080475807,0.00012195608724141493,-0.02763388678431511,-0.04630500450730324,-0.02270365320146084,-0.067208431661129,-0.038212850689888,-0.028192652389407158,-0.05924701690673828,-0.06156933680176735,0.025070272386074066,-0.009048492647707462,-0.0013688075123354793,0.0434025377035141,-0.07786822319030762,-0.06451509892940521,-0.07055950164794922,0.18789993226528168,-0.050194934010505676,-0.08475484699010849,-0.1591372936964035,-0.04282057285308838,-0.05013516917824745,-0.05134933441877365,-0.12161561846733093,0.02193993143737316,0.024686837568879128,-0.014036207459867,0.06605055928230286,-0.007448221556842327,-0.16654565930366516,-0.04256973788142204,-0.36500850319862366,0.019518988206982613,0.010853337123990059,-0.07542050629854202,0.0323881134390831,0.015597650781273842,0.07548469305038452,0.0045841108076274395,0.016782231628894806,0.013465228490531445,-0.011268915608525276,0.010725816711783409,-0.02919457107782364,0.0019242436392232776,-0.04867178574204445,-0.23762445151805878,-0.3035268187522888,-0.2015034705400467,0.15645264089107513,-0.11629883199930191,0.04898242652416229,0.9423597455024719,-0.06609977036714554,0.19626428186893463,-0.17572037875652313,0.1036994531750679,-0.1830022782087326,-0.41721051931381226,-0.3700096905231476,0.18573430180549622,0.00887791346758604,0.06124507635831833,-0.12500406801700592,0.04997940734028816,0.010672162286937237,0.02870948240160942,0.002871736651286483,0.028898140415549278,0.01848396472632885,0.011819104664027691,0.024823948740959167,0.03989492729306221,0.03801257163286209,0.018751835450530052,0.044356703758239746,0.028974901884794235,0.021655350923538208,0.021410737186670303,-0.172989159822464,0.010130880400538445,0.04589150473475456,0.002652547089383006,0.03608839586377144,0.025151057168841362,0.01297901663929224,0.0338132344186306,0.04570884257555008,0.05589757487177849,0.02348075993359089,0.05456967651844025,0.03564373403787613,0.031998030841350555,0.049497488886117935,0.15504276752471924,-0.004386719316244125,-0.010635321028530598,-0.017383260652422905,-0.022878242656588554,-0.006353544071316719,-0.02281360514461994,-0.016113191843032837,-0.03584466129541397,0.004400367382913828,-0.017563074827194214,-0.03125031292438507,-0.04664013162255287,-0.0406787134706974,-0.03029586374759674,-0.08786577731370926,-0.003292826935648918,-0.07133681327104568,-0.01455045398324728,-0.0536544993519783,-0.10586225241422653,-0.03363645821809769,-0.016230052337050438,-0.07827592641115189,-0.05343069136142731,-0.0015209077391773462,-0.037420570850372314,-0.06503672897815704,-0.005562418606132269,0.02420288883149624,-0.44800546765327454,0.00015263352543115616,-0.09601832181215286,-0.014736865647137165,-0.0703883171081543,-0.1458982676267624,-0.043803270906209946,-0.0182220209389925,-0.10185746103525162,-0.07825160026550293,0.005512352101504803,-0.053896933794021606,-0.08699978142976761,-0.010125027038156986,0.0316164530813694,0.11021219938993454,0.021134724840521812,0.018616249784827232,0.050134215503931046,0.03463944047689438,0.012970531359314919,0.03186045214533806,0.047833122313022614,0.05749610811471939,-0.006739072967320681,0.03146989271044731,0.0007164113339968026,0.06744259595870972,0.031410299241542816,0.009856798686087132,-0.06479930877685547,-0.004754020832479,-0.038718290627002716,-0.031047455966472626,-0.07488305866718292,-0.10583149641752243,-0.018118811771273613,-0.01524006761610508,-0.06780296564102173,-0.015879083424806595,-0.08939971774816513,-0.036974526941776276,-0.06809496134519577,-0.06144455447793007,-0.05268292501568794,0.5173356533050537,-0.004092009738087654,-0.051006875932216644,-0.04089854285120964,-0.10002630203962326,-0.14773599803447723,-0.022425837814807892,-0.011923094280064106,-0.09202876687049866,-0.01934722065925598,-0.11962036788463593,-0.05561864376068115,-0.09902174025774002,-0.07838808745145798,-0.06112169474363327,-0.41193652153015137,0.017502620816230774,0.024826696142554283,0.033265337347984314,0.040713559836149216,0.007952526211738586,0.028308307752013206,0.06372886151075363,0.051526423543691635,0.03388087823987007,0.007365899626165628,0.03349529951810837,0.016021039336919785,0.02376188151538372,0.009051625616848469,0.09163818508386612,-0.09663179516792297,0.1341126561164856,0.12566348910331726,-0.08937463909387589,-0.2856506407260895,0.5109484195709229,-0.04520665109157562,-0.05802424997091293,0.003801647573709488,-0.06991588324308395,0.020537879317998886,0.28507161140441895,-0.1287345588207245,0.13616590201854706,0.45123785734176636,-0.1235334575176239,0.07376393675804138,0.22554485499858856,-0.03485275059938431,-0.083346888422966,0.061876773834228516,-0.035574283450841904,-0.08105109632015228,-0.4579627811908722,-0.08921406418085098,-0.15988971292972565,0.040155328810214996,-0.16160328686237335,0.0358201339840889,0.004842289257794619,0.1368955373764038,0.23679348826408386,-0.08428701758384705,0.1665535420179367,0.16037097573280334,0.1601564735174179,-0.030300835147500038,-0.1321181058883667,0.13914670050144196,-0.18669676780700684,-0.25386130809783936,-0.08241729438304901,-0.04753212630748749,-0.09532064199447632,0.20807737112045288,0.024446142837405205,-0.009932026267051697,-0.06713610887527466,0.08410956710577011,0.013506288640201092,-0.09390048682689667,0.1180022805929184,0.06340823322534561,0.13472233712673187,-0.11015759408473969,-0.07104848325252533,-0.07078341394662857,-0.00008088022150332108,-0.13040445744991302,0.40892910957336426,-0.031016523018479347,-0.17852836847305298,-0.02973320335149765,0.029908662661910057,0.06671766936779022,-0.5067970156669617,0.09295442700386047,0.20665252208709717,0.001785986591130495,0.03547091782093048,0.17679017782211304,0.30890849232673645,0.19142085313796997,0.2608224153518677,0.12306465208530426,-1.3825910091400146,0.9435842633247375,0.8902453780174255,-0.19798770546913147,0.4673784375190735,0.05497382581233978,0.3319491446018219,-0.3986465036869049,0.016241615638136864,-0.5452248454093933,0.27412351965904236,0.17546258866786957,0.24623186886310577,0.3848641514778137,0.5553123950958252,0.000385792285669595,-0.025458892807364464,-0.11275233328342438,-0.12117893993854523,0.06411951780319214,-0.05036420747637749,-0.039492785930633545,-0.1570787876844406,-0.03826458752155304,-0.16087202727794647,-0.07974972575902939,0.4581148624420166,-0.04128227382898331,-0.05170539394021034,0.24825261533260345,0.24343940615653992,0.08480831980705261,-0.03252264857292175,0.053673647344112396,-0.0066200727596879005,0.02423121966421604,0.04559354484081268,-0.0623849481344223,0.030120518058538437,-0.024090923368930817,-0.007578189019113779,0.0065178172662854195,-0.053002387285232544,0.06910588592290878,-0.0707826092839241,-0.07044349610805511,-0.03843875229358673,-0.024971436709165573,-0.027662258595228195,-0.14495927095413208,-0.013461073860526085,0.03505261614918709,0.026141099631786346,0.005240506026893854,-0.11665688455104828,-0.05190424621105194,0.6016077995300293,-0.07262253016233444,-0.040566764771938324,0.03566582500934601,0.0024928622879087925,0.10621986538171768,-0.370528906583786,-0.10421762615442276,-0.10225755721330643,-0.1414082646369934,-0.15196040272712708,-0.22011414170265198,-0.11681874841451645,0.2863102853298187,-0.06692330539226532,-0.4788326025009155,-1.323433518409729,-0.0036108747590333223,0.14290617406368256,-0.3266129493713379,0.24026626348495483,0.29742783308029175,-0.05948730558156967,-0.11110754311084747,0.06352216005325317,0.08495689183473587,0.11092432588338852,0.13764064013957977,0.1615440547466278,-0.0463811494410038,0.08360558748245239,-0.11850634962320328,-0.0578516349196434,-0.04034774750471115,-0.021655958145856857,-0.03616558015346527,-0.4089994728565216,-0.04968449845910072,-0.1972993016242981,-0.010004105977714062,-0.04838629066944122,-0.07105285674333572,0.35546255111694336,0.18347179889678955,-0.06815697252750397,0.062416400760412216,0.015099695883691311,0.08698821067810059,0.2652547359466553,-0.09800361096858978,-0.09470219165086746,0.058611057698726654,-0.06068939343094826,-0.04810795187950134,-0.5196536183357239,0.056501179933547974,0.03223346173763275,0.013095558620989323,0.008395585231482983,0.04894566535949707,-0.0788838341832161,0.2338455468416214,0.21074092388153076,-0.10837029665708542,0.08687002956867218,0.170624241232872,0.06151594594120979,0.000032513285987079144,0.02194862626492977,0.008439796976745129,-0.06524936109781265,0.04833720996975899,0.0848473384976387,-0.007966842502355576,0.0011773597216233611,-0.010794791392982006,0.016943147405982018,-0.0028896352741867304,-0.01735544577240944,-0.008876895532011986,-0.0280626080930233,-0.03875155746936798,-0.036004688590765,-0.05753292515873909,-0.06917286664247513,0.2648320198059082,0.0233977772295475,-0.04519973322749138,-0.8576251268386841,0.09007368236780167,0.013560927473008633,-0.1240391656756401,0.33772483468055725,-0.05201732739806175,-0.32842758297920227,0.3387417495250702,0.03591030091047287,-0.3596686124801636,0.1870124638080597,-0.06713390350341797,0.4539467692375183,0.315772145986557,0.07670832425355911,-0.02615666389465332,-0.052725404500961304,-0.13928721845149994,0.05588601157069206,0.02543814480304718,-0.5077000856399536,-0.12057260423898697,-0.07704605907201767,-0.11655303090810776,-0.05221365764737129,-0.07235291600227356,-0.02491184137761593,-0.05467277765274048,0.016754135489463806,0.12131180614233017,-0.12143924832344055,-0.07420550286769867,-0.1061231940984726,-0.027376864105463028,-0.026869947090744972,-0.07579711824655533,-0.011230036616325378,-0.05441160872578621,-0.06583891808986664,0.0777062252163887,0.08252040296792984,0.04355689510703087,0.14813245832920074,-0.004583815578371286,0.4700991213321686,0.0814051702618599,0.08022447675466537,0.13656531274318695,0.08378272503614426,0.07826307415962219,-0.050213441252708435,-0.032378554344177246,-0.14528220891952515,-0.17795981466770172,0.002964030485600233,-0.15873119235038757,0.5923332571983337,0.11651501059532166,-0.0820452943444252,0.016671383753418922,-0.013166048564016819,0.036387551575899124,-0.2252010703086853,0.13205598294734955,0.1462475061416626,0.26220619678497314,-0.007332609500735998,0.22520361840724945,0.4336213171482086,-0.2228241264820099,0.13001205027103424,0.21817871928215027,-0.17871403694152832,-0.015176595188677311,0.3700683116912842,0.10582742094993591,0.007759463973343372,-0.34230467677116394,0.1928941309452057,-0.36156344413757324,-0.11362720280885696,-0.3637348413467407,-0.12243393063545227,-0.3395785689353943,-0.49945545196533203,-0.3884540796279907,-0.41531991958618164,0.09059661626815796,0.09073477238416672,0.09713164716959,0.15300515294075012,0.14510096609592438,-0.4896266460418701,0.06422919034957886,0.05590205639600754,0.07340938597917557,0.12297400087118149,0.10971256345510483,0.5694354176521301,-0.05535046383738518,-0.06297241151332855,-0.050460703670978546,-0.0752481147646904,-0.08675573766231537,-0.4446980357170105,-0.11929624527692795,-0.026950567960739136,0.028958382084965706,-0.16555099189281464,-0.04164969548583031,0.08715426176786423,-0.03383377566933632,0.01873844303190708,0.029955673962831497,-0.1688079982995987,-0.016727251932024956,0.015223227441310883,0.13670580089092255,0.04999601095914841,-0.01589479111135006,0.03383389487862587,0.05411585047841072,-0.2857520878314972,0.06117880716919899,0.06926847249269485,0.058801546692848206,0.10276035219430923,0.07426048070192337,0.5201658010482788,0.04514786973595619,0.04597578942775726,0.04258901625871658,0.06127706542611122,0.025849608704447746,-0.1643022745847702,-0.03849111497402191,-0.04939398914575577,-0.03982234001159668,-0.08557026088237762,-0.08010777086019516,0.09060974419116974,-0.6340118050575256,-0.08129255473613739,-0.3813687264919281,-0.332633376121521,0.034175265580415726,0.11578575521707535,-0.12575984001159668,0.1991651952266693,0.08786918222904205,0.42242392897605896,-0.20030948519706726,-0.12713289260864258,-0.6900542974472046,0.08649086952209473,-0.026755109429359436,-0.21989353001117706,-0.23958802223205566,-0.36387914419174194,0.009793832898139954,0.017202943563461304,0.014520158991217613,0.015441957861185074,0.004518709145486355,0.009324496611952782,0.023335590958595276,-0.00013460239279083908,0.002948109759017825,0.019118424504995346,0.012039054185152054,0.021169789135456085,0.01577245630323887,0.005170763935893774,0.002686699153855443,0.006584203336387873,0.0037890253588557243,0.01508346013724804,-0.03838575258851051,-0.048588160425424576,-0.046645715832710266,-0.034530505537986755,-0.0859486535191536,-0.4312460124492645,-0.0585065558552742,-0.07663076370954514,-0.08194967359304428,-0.06382554024457932,-0.15037138760089874,0.0857853963971138,-0.005425670184195042,-0.011096478439867496,-0.023905713111162186,-0.019025780260562897,-0.039733655750751495,-0.5519424676895142,-0.03295256569981575,-0.04918793588876724,-0.04923906922340393,-0.04269937425851822,-0.10462167114019394,0.4781295657157898,-0.04389981925487518,-0.07237408310174942,-0.07523499429225922,-0.06685128062963486,-0.16070565581321716,-0.28202614188194275,-0.0024411382619291544,-0.011355056427419186,-0.017321065068244934,-0.017514334991574287,-0.034395210444927216,-0.13882452249526978,-0.01610453799366951,0.26157045364379883,0.2560156583786011,-0.005100379232317209,-0.08306053280830383,0.2768063545227051,0.021321196109056473,0.052011311054229736,-0.5125213861465454,0.006502226460725069,0.369223028421402,-0.0391959510743618,0.00034383058664388955,-0.21615326404571533,0.09546363353729248,-0.11619850993156433,0.48053503036499023,0.13629703223705292,-0.14437448978424072,-0.026993459090590477,-0.08590438961982727,-0.11605829000473022,-0.2768147885799408,-0.2593221068382263,-0.06941007822751999,-0.019035905599594116,-0.04569735378026962,-0.08227286487817764,-0.1404511034488678,0.453603059053421,0.015784302726387978,-0.0029832597356289625,0.0043126679956912994,-0.011804929934442043,0.021296655759215355,-0.21056392788887024,0.006954167038202286,-0.033350858837366104,-0.022039571776986122,-0.02191222459077835,-0.1830945909023285,-0.4641014635562897,0.018607623875141144,-0.006060482934117317,-0.0023806190583854914,-0.01721029542386532,-0.06808461993932724,0.16852809488773346,0.007410249672830105,0.01170077733695507,0.006468500010669231,-0.0009031739318743348,0.03315858542919159,-0.45233285427093506,0.09788355231285095,0.11565817147493362,0.11181578040122986,0.08508726954460144,0.10691847652196884,0.4882141947746277,0.04525386542081833,0.057727232575416565,0.05589848756790161,0.0544452890753746,0.05660349130630493,-0.46727725863456726,-0.012456916272640228,-0.011866629123687744,-0.008069640956819057,0.005357634276151657,-0.004560423549264669,0.10337633639574051,0.24646179378032684,0.2179122418165207,-0.08546718209981918,-0.7238386869430542,-0.0000012333626955296495,0.2514612674713135,0.4162098467350006,-0.00858832336962223,0.5327888131141663,0.11612158268690109,0.18631941080093384,-0.07476914674043655,-0.32249006628990173,-0.3899204134941101,-0.36959829926490784,-0.3457287847995758,0.4948616325855255,-0.35605674982070923,-0.039632398635149,0.053851958364248276,-0.06445860117673874,0.029201215133070946,-0.03194653242826462,-0.011035336181521416,-0.040824152529239655,-0.07709962129592896,-0.07902801036834717,-0.13733358681201935,-0.16894260048866272,-0.23436239361763,-0.1367073804140091,-0.14969885349273682,-0.6251745223999023,-0.02019866183400154,0.01709192804992199,-0.06867175549268723,0.07739925384521484,-0.03960420563817024,0.03229881823062897,-0.04674108698964119,0.03261931240558624,0.057343848049640656,-0.019645433872938156,0.09923454374074936,0.13074013590812683,0.021686650812625885,-0.028732093051075935,-0.09390311688184738,-0.40319162607192993,0.019782552495598793,-0.0035556359216570854,0.0013911754358559847,-0.009820233099162579,0.005982661619782448,0.0020999473053961992,0.05826350301504135,-0.0002304333756910637,0.01697671413421631,0.07710389792919159,0.019955875352025032,0.020577527582645416,0.19068817794322968,0.12478915601968765,0.1919441819190979,0.9316874146461487,-0.00426552863791585,-0.12190660834312439,0.006561064331842053],"sample_rate":48000}},{"max_value":1,"model":{"version":"0.7.0","metadata":{"date":{"year":2026,"month":6,"day":27,"hour":2,"minute":15,"second":48},"loudness":-14.988638884341185,"gain":0.00035392611649461675},"architecture":"WaveNet","config":{"layers":[{"input_size":1,"condition_size":1,"head":{"out_channels":1,"kernel_size":16,"bias":true},"channels":8,"kernel_sizes":[6,6,6,6,6,6,6,6,6,6,6,6,6,6,15,15,6,6,6,6,6,6,6],"dilations":[1,3,7,17,41,101,239,1,3,7,17,41,101,239,1,13,1,3,7,17,41,101,239],"activation":[{"type":"LeakyReLU","negative_slope":0.01},{"type":"LeakyReLU","negative_slope":0.01},{"type":"LeakyReLU","negative_slope":0.01},{"type":"LeakyReLU","negative_slope":0.01},{"type":"LeakyReLU","negative_slope":0.01},{"type":"LeakyReLU","negative_slope":0.01},{"type":"LeakyReLU","negative_slope":0.01},{"type":"LeakyReLU","negative_slope":0.01},{"type":"LeakyReLU","negative_slope":0.01},{"type":"LeakyReLU","negative_slope":0.01},{"type":"LeakyReLU","negative_slope":0.01},{"type":"LeakyReLU","negative_slope":0.01},{"type":"LeakyReLU","negative_slope":0.01},{"type":"LeakyReLU","negative_slope":0.01},{"type":"LeakyReLU","negative_slope":0.01},{"type":"LeakyReLU","negative_slope":0.01},{"type":"LeakyReLU","negative_slope":0.01},{"type":"LeakyReLU","negative_slope":0.01},{"type":"LeakyReLU","negative_slope":0.01},{"type":"LeakyReLU","negative_slope":0.01},{"type":"LeakyReLU","negative_slope":0.01},{"type":"LeakyReLU","negative_slope":0.01},{"type":"LeakyReLU","negative_slope":0.01}],"bottleneck":8,"head1x1":{"active":false,"out_channels":1,"groups":1},"layer1x1":{"active":true,"groups":1},"groups_input":1,"groups_input_mixin":1,"conv_pre_film":{"active":false,"shift":true,"groups":1},"conv_post_film":{"active":false,"shift":true,"groups":1},"input_mixin_pre_film":{"active":false,"shift":true,"groups":1},"input_mixin_post_film":{"active":false,"shift":true,"groups":1},"activation_pre_film":{"active":false,"shift":true,"groups":1},"activation_post_film":{"active":false,"shift":true,"groups":1},"layer1x1_post_film":{"active":false,"shift":true,"groups":1},"head1x1_post_film":{"active":false,"shift":true,"groups":1},"gating_mode":["none","none","none","none","none","none","none","none","none","none","none","none","none","none","none","none","none","none","none","none","none","none","none"],"secondary_activation":[null,null,null,null,null,null,null,null,null,null,null,null,null,null,null,null,null,null,null,null,null,null,null],"slimmable":null}],"head":null,"head_scale":0.006561064478493273},"weights":[-0.9106793999671936,-0.2690232992172241,-0.43646666407585144,1.3662633895874023,-1.634619951248169,-0.022567013278603554,0.5556790828704834,1.5217596292495728,-0.011044582352042198,0.02441718429327011,-0.003692223224788904,0.03083404339849949,-0.032303839921951294,0.013965226709842682,0.004556944593787193,0.0020808440167456865,0.0025016048457473516,0.015621567144989967,-0.007918542250990868,0.0017332567367702723,0.0016902392962947488,-0.0023883916437625885,-0.0020647961646318436,0.021007757633924484,-0.004233787767589092,-0.02268611267209053,-0.030394187197089195,0.014093337580561638,0.008371477946639061,-0.031244246289134026,0.07214530557394028,-0.02674652822315693,-0.012316162697970867,0.03870512545108795,0.00020283782214391977,0.03020407445728779,-0.08047743141651154,0.03669872134923935,-3.410922886359913e-7,-0.00025002259644679725,-0.0012077472638338804,0.00012516346760094166,-0.00040850279037840664,-0.0017636750126257539,-0.0052803694270551205,-0.007545762695372105,0.006692911498248577,-0.03119349479675293,0.03393863886594772,-0.022989723831415176,0.036877114325761795,-0.05290180817246437,0.03549056500196457,0.043536074459552765,0.11347822844982147,-0.05908652022480965,0.013077164068818092,-0.0085952403023839,0.004037092439830303,-0.05231134220957756,-0.08293315023183823,0.139998197555542,-0.000858483777847141,-0.0002546680625528097,-0.004106411710381508,-0.0017645987682044506,-0.028223857283592224,0.03407153859734535,0.00033657069434411824,-0.004127718508243561,-0.008896557614207268,0.009419836103916168,-0.015516183339059353,-0.004038993269205093,-0.009842313826084137,0.03276827186346054,0.013221567496657372,0.07755396515130997,0.1207040399312973,-0.2129712998867035,-0.01825273036956787,0.055516719818115234,-0.01415857020765543,-0.01892949268221855,-0.09328105300664902,0.24176456034183502,-0.0019717179238796234,-0.0011013655457645655,-0.0008930015028454363,0.000819381617475301,-0.0019467914244160056,-0.004336569923907518,0.01771552301943302,0.01135603804141283,0.01020994782447815,0.02935759723186493,0.0666595920920372,-0.0892317071557045,-0.016866136342287064,-0.027624139562249184,-0.022486114874482155,0.036215342581272125,0.13449789583683014,-0.17821040749549866,-0.009571063332259655,0.016869263723492622,0.008009778335690498,0.01114185806363821,-0.020792653784155846,-0.019826523959636688,-0.0034154015593230724,0.005152157042175531,0.004982396494597197,0.004554023500531912,0.00012405442248564214,-0.009561734274029732,-0.005832078866660595,0.006096547935158014,0.005552854388952255,0.004829456564038992,-0.0016042368952184916,-0.013934914954006672,0.02065855823457241,-0.030825739726424217,-0.010733832605183125,-0.006048980168998241,0.041391681879758835,0.02053731493651867,-0.0037049956154078245,0.01430231798440218,0.009456602856516838,0.000046599740016972646,-0.04215458407998085,-0.021178685128688812,0.00022682892449665815,0.0006818666588515043,0.0007621196564286947,0.0008786947000771761,0.001059063128195703,-0.00023275200510397553,0.007579136174172163,-0.010319038294255733,-0.006527382414788008,-0.007494093384593725,0.005239982157945633,0.012310509569942951,0.02082274667918682,-0.017584625631570816,0.003076037624850869,-0.021891942247748375,0.050457730889320374,0.005501793697476387,-0.030920321121811867,0.003351545659825206,0.04900122433900833,0.025711078196763992,0.03969862312078476,0.24812261760234833,-0.00340316747315228,0.0012484574690461159,0.01310350839048624,0.013387605547904968,0.011845043860375881,0.07208893448114395,-0.003916132729500532,0.002779804402962327,0.01814260333776474,0.018262941390275955,0.014607665129005909,0.08551215380430222,0.003915769048035145,0.014247347600758076,-0.051227863878011703,-0.07974214106798172,-0.0713191106915474,-0.339144766330719,-0.026544945314526558,-0.02204177714884281,0.02197546325623989,0.055357545614242554,0.07879748940467834,0.39206379652023315,0.0013421524781733751,0.001624839031137526,0.0020529155153781176,0.0017053504707291722,0.0016071000136435032,0.005899777170270681,0.01399796549230814,-0.002090123714879155,-0.024122875183820724,-0.02890961617231369,-0.033115237951278687,-0.1644953340291977,0.029116762802004814,-0.03004401922225952,-0.05613173916935921,-0.03518737107515335,-0.11671990156173706,-0.38863474130630493,0.014314779080450535,0.043961990624666214,0.007911753840744495,-0.07311836630105972,-0.1735129952430725,0.16806139051914215,0.004082741215825081,0.030765553936362267,0.007167270872741938,-0.04122529551386833,-0.11060738563537598,0.08887994289398193,0.007562167011201382,0.031047970056533813,0.00954494345933199,-0.01961529441177845,-0.08277174085378647,0.0637609213590622,-0.06051485240459442,-0.040317025035619736,-0.01733122020959854,0.13541872799396515,0.26819753646850586,-0.22922775149345398,0.027521809563040733,0.046212516725063324,-0.006581307388842106,-0.09206635504961014,-0.2905086874961853,0.24213232100009918,-0.001458736602216959,0.0019276337698101997,0.000660580350086093,-0.0012798720272257924,-0.007525453809648752,0.0033679823391139507,-0.005741632077842951,-0.04188423976302147,0.013771762140095234,0.07227762788534164,0.13121061027050018,-0.13489006459712982,-0.043399300426244736,-0.09360720962285995,0.04641556367278099,0.1554257720708847,0.17598406970500946,-0.26368004083633423,0.02157999947667122,-0.027305658906698227,0.030614066869020462,0.06718222051858902,0.18243472278118134,-0.12651444971561432,0.007226601708680391,0.004064873326569796,-0.007692699786275625,0.055347904562950134,0.156771719455719,-0.10829434543848038,-0.0071923863142728806,-0.024025078862905502,-0.01566506363451481,-0.00026950452593155205,0.06708718836307526,-0.0010602823458611965,0.1117604598402977,-0.019101936370134354,-0.04749760404229164,-0.12041252851486206,-0.17579586803913116,0.2272682785987854,-0.0056535471230745316,-0.1262659728527069,0.001883315620943904,0.10034069418907166,0.2937944233417511,-0.16695909202098846,0.002215829212218523,-0.0009707844583317637,-0.001268696621991694,0.0010011339327320457,0.008176191709935665,0.0034646561834961176,0.008836493827402592,0.07766742259263992,0.006127337459474802,-0.0802937000989914,-0.18180759251117706,0.10193400084972382,0.03772217035293579,0.05317007377743721,0.02294601872563362,-0.12754149734973907,-0.1817868947982788,0.30913108587265015,0.016143081709742546,-0.003853457048535347,-0.06653279066085815,-0.07058229297399521,-0.0325726717710495,0.29554086923599243,0.005838743411004543,-0.002667321590706706,-0.01673848181962967,-0.0206109918653965,-0.014329600147902966,0.10130046308040619,0.008274766616523266,-0.0037104252260178328,-0.021419106051325798,-0.026295725256204605,-0.018353117629885674,0.1276615411043167,-0.03329974412918091,0.009258678182959557,0.07205323874950409,0.08202991634607315,0.0300211850553751,-0.3948573172092438,0.03529852628707886,-0.024213438853621483,-0.1158643290400505,-0.08237806707620621,-0.03670099750161171,0.45850250124931335,0.0007080009672790766,0.0006805812590755522,-0.00012688538117799908,-0.0005327457329258323,0.00013329873036127537,0.009131710045039654,-0.012521072290837765,0.0061614178121089935,0.03730612248182297,0.04202479124069214,0.028026359155774117,-0.20154643058776855,-0.022556722164154053,-0.006662061903625727,0.10800206661224365,0.07206551730632782,0.05381770804524422,-0.45072701573371887,-0.05838986113667488,0.014034937135875225,0.08231042325496674,-0.09532494097948074,-0.20934899151325226,0.2108984887599945,-0.02044014073908329,0.00508531229570508,-0.054091520607471466,-0.0553986094892025,-0.1634550243616104,0.09555865824222565,0.012943509966135025,0.011525489389896393,0.018141230568289757,0.040045835077762604,-0.041584212332963943,-0.06216790899634361,-0.04520152136683464,0.06314443796873093,-0.0857778862118721,-0.04649479687213898,0.15393082797527313,-0.13843169808387756,0.04428129643201828,0.018093166872859,-0.007753758691251278,-0.0886981338262558,-0.21198375523090363,0.1058787927031517,0.0001967265852726996,0.0014431641902774572,0.0010927420808002353,0.002034195698797703,-0.0037725241854786873,0.0011067971354350448,0.04964178800582886,-0.07213923335075378,-0.0163401048630476,0.054523687809705734,0.17822198569774628,-0.03669624775648117,-0.018364759162068367,-0.08441156893968582,0.05253540724515915,-0.009947117418050766,0.24545776844024658,-0.17862480878829956,0.054846230894327164,0.31516021490097046,0.11696235090494156,-0.11000240594148636,-0.23472382128238678,0.22027945518493652,-0.055697351694107056,0.1933383047580719,-0.11940097063779831,-0.1340516358613968,0.0006156063172966242,-0.17463228106498718,-0.5032920837402344,0.5263170003890991,-0.2593710720539093,-0.5727876424789429,0.06135650351643562,0.19283735752105713,0.11128281056880951,-0.058165617287158966,-0.08801436424255371,-0.01731109619140625,-0.08858931809663773,-0.05397304520010948,0.06354139745235443,-0.0629228875041008,0.056087903678417206,0.18255724012851715,0.34181636571884155,-0.3126749098300934,0.19794556498527527,0.10128064453601837,-0.03012014366686344,0.44965624809265137,0.007485415320843458,-0.29622882604599,-0.027857374399900436,-0.5335286259651184,-0.3781965374946594,-0.03232535719871521,0.17162856459617615,-0.07205671072006226,0.03855738043785095,0.031611599028110504,-0.224576935172081,0.28926533460617065,0.049932677298784256,-0.033965203911066055,0.22356203198432922,-0.08028236776590347,0.11269575357437134,-0.02609727531671524,0.12320709973573685,-0.2010173350572586,-0.029423857107758522,0.38082194328308105,0.024211088195443153,0.07941241562366486,0.18214651942253113,-0.4526972472667694,-0.162534698843956,-0.10305818915367126,-0.5186996459960938,-0.2265862375497818,-0.1470808982849121,-0.18111202120780945,-0.0920422375202179,-0.371261328458786,-0.5007526874542236,0.23332223296165466,-0.46167388558387756,-0.24473679065704346,-0.2684718072414398,-0.10443218797445297,0.16934846341609955,0.024320421740412712,-0.24149414896965027,0.01123901642858982,-0.01249040849506855,-0.42141059041023254,-0.24877780675888062,0.06775054335594177,-0.02985180914402008,-0.037643760442733765,-0.11260275542736053,-0.015380002558231354,0.02795526012778282,0.10219778120517731,-0.10450303554534912,-0.1818140596151352,-0.19045324623584747,-0.1744934469461441,-0.13911166787147522,-0.0691981315612793,0.06602911651134491,0.09487897157669067,0.10482098907232285,0.03790263459086418,0.086967334151268,0.10472029447555542,-0.000030459090339718387,-0.0025177316274493933,-0.03743516281247139,-0.1066269800066948,-0.13065694272518158,-0.35781827569007874,0.08330119401216507,0.09511367976665497,0.03906348720192909,0.04592658579349518,0.13535180687904358,0.39081770181655884,-0.04733917489647865,-0.11947312951087952,-0.044386688619852066,-0.04654023423790932,-0.15373951196670532,-0.44168680906295776,-0.03887419402599335,-0.054702915251255035,-0.10316503047943115,-0.11475817859172821,-0.14986693859100342,-0.060264602303504944,-0.1538422703742981,-0.1572381556034088,-0.07147979736328125,-0.049615584313869476,-0.03334847092628479,0.02208542451262474,0.04500366002321243,0.02339765429496765,-0.004502347204834223,0.005135929211974144,0.0447692945599556,0.4535695016384125,-0.12512288987636566,-0.08505133539438248,-0.042723193764686584,-0.049058422446250916,0.02364949882030487,-0.0673488900065422,0.046382661908864975,0.017310962080955505,0.05918324738740921,0.1075722724199295,0.12906993925571442,-0.03792581334710121,-0.011924532242119312,0.01666317507624626,-0.00285820453427732,-0.0023579467087984085,-0.09646136313676834,-0.10823231935501099,0.019768308848142624,0.005155848804861307,0.06692693382501602,-0.008314879611134529,-0.018362008035182953,0.1444893181324005,-0.06305169314146042,-0.004837404005229473,-0.033322326838970184,-0.09295643866062164,0.028094181790947914,-0.0504780150949955,-0.019282320514321327,0.0028832927346229553,-0.0741814523935318,0.016302742063999176,0.056374672800302505,-0.14923346042633057,-0.1305544376373291,-0.02659076452255249,-0.056695517152547836,-0.031594641506671906,-0.07433871924877167,-0.09242802113294601,-0.057579994201660156,-0.022217851132154465,-0.04217512905597687,-0.08670423924922943,-0.04055313766002655,-0.00321833323687315,-0.05554842948913574,0.07978090643882751,-0.07596191018819809,-0.13159434497356415,-0.01898014545440674,-0.13498377799987793,0.03754078596830368,0.15491223335266113,0.050568632781505585,0.16529309749603271,0.06878478080034256,0.009204749017953873,0.027178997173905373,-0.02269003354012966,-0.036209139972925186,0.012627150863409042,-0.04464208334684372,-0.4099332094192505,0.056953005492687225,0.055589281022548676,0.09999062120914459,0.043429821729660034,0.06413425505161285,0.36924201250076294,-0.016908954828977585,-0.062330517917871475,0.039560023695230484,-0.1112428829073906,-0.10609613358974457,-0.2616690397262573,-0.0902446061372757,-0.013488671742379665,0.041512489318847656,-0.08263908326625824,-0.16133911907672882,-0.27317485213279724,0.012740531004965305,-0.0794285386800766,-0.14515255391597748,-0.03246437385678291,-0.04812164232134819,-0.16491948068141937,0.00404656957834959,0.07018998265266418,0.06692567467689514,0.011677171103656292,-0.04973062872886658,0.1766539067029953,0.0018411790952086449,0.001707921619527042,0.0017681816825643182,0.0019408330554142594,0.002305114408954978,0.0029679816216230392,-0.0010690696071833372,-0.0016032230341807008,-0.001104019582271576,-0.0011181057197973132,-0.0007839756435714662,-0.00016838371811900288,0.0015078062424436212,0.0016670993063598871,0.001329832593910396,0.0012940455926582217,0.0014877797802910209,0.001753792748786509,0.000030291361326817423,0.00040381576400250196,0.00013591772585641593,-0.000041649615013739094,-0.000650482252240181,-0.0017761141061782837,0.0004900346975773573,0.000020353223590063863,0.00034941802732646465,0.0005861459067091346,0.0013461958151310682,0.0028177087660878897,0.0027434274088591337,0.003706663614138961,0.0028648022562265396,0.0028684574645012617,0.0025035797152668238,0.0016199367819353938,0.0027035747189074755,0.0038828293327242136,0.0029208241030573845,0.0029402864165604115,0.0021377955563366413,0.0005000943783670664,0.0004148669249843806,0.0008814261527732015,0.0005358996568247676,0.00033896349486894906,-0.00040628237184137106,-0.0020220011938363314,0.010183244943618774,0.011058550328016281,0.012428314425051212,0.014850110746920109,0.015677345916628838,0.011742426082491875,-0.010697285644710064,-0.004618332255631685,-0.00032730886596255004,0.0009002762380987406,-0.0035597195383161306,-0.005110179074108601,0.011267105117440224,0.006866505369544029,0.003946666605770588,0.008082058280706406,0.01400529034435749,0.007993879728019238,0.004400894045829773,-0.0007011446869000793,-0.003314605914056301,-0.007146535906940699,-0.0072805495001375675,0.0003867191553581506,-0.00006661778752459213,0.004210812505334616,0.006955769378691912,0.0103917783126235,0.01070732343941927,0.0038867818657308817,0.01580963470041752,0.007210606709122658,0.0017905310960486531,0.0027832600753754377,0.012999480590224266,0.009529066272079945,0.014162188395857811,0.005481023341417313,0.0001280036522075534,-0.000297517137369141,0.007893414236605167,0.008431286551058292,0.005945416167378426,-0.00015648701810277998,-0.0031789313070476055,-0.006010645069181919,-0.005994709674268961,0.0022351795341819525,-0.12495853751897812,-0.06771069020032883,-0.08398595452308655,-0.05739102140069008,-0.14347688853740692,-0.2126009613275528,0.07384765148162842,0.014000002294778824,-0.017131740227341652,0.03635686635971069,-0.06153854355216026,0.07743368297815323,0.0020077514927834272,0.001629436039365828,-0.07956330478191376,-0.040120679885149,0.03171708434820175,-0.27756205201148987,0.022169042378664017,0.08881670236587524,0.04177441820502281,0.08848947286605835,-0.07437538355588913,0.35988983511924744,-0.0850205197930336,-0.13671232759952545,-0.008863292634487152,-0.000955447496380657,-0.06959912925958633,-0.18754450976848602,-0.021196328103542328,0.00913116056472063,0.03378167003393173,-0.019586805254220963,-0.12479326128959656,-0.2444324642419815,-0.05027570575475693,-0.15835560858249664,-0.0962601974606514,-0.14373736083507538,-0.10736270248889923,-0.05826641991734505,-0.06631679087877274,-0.016117163002490997,-0.010734979063272476,-0.02535814419388771,0.007931391708552837,0.11234351247549057,0.008378056809306145,0.011989003047347069,0.01644490845501423,0.02594519406557083,0.0512792132794857,-0.012809989973902702,-0.0067922077141702175,-0.012284671887755394,-0.015792764723300934,-0.03058776445686817,-0.03137190267443657,-0.022774184122681618,0.02860490418970585,0.027758928015828133,0.02296098880469799,0.05637459456920624,0.039822403341531754,-0.04554696008563042,-0.0060248421505093575,-0.0023515268694609404,-0.012469358742237091,-0.021976923570036888,-0.046344418078660965,0.08255677670240402,0.003372413804754615,0.00544035155326128,0.01528952457010746,0.031217139214277267,0.03509599342942238,-0.08448213338851929,0.031820498406887054,0.035807184875011444,0.027623550966382027,0.06063351780176163,0.05044678598642349,-0.004001398105174303,0.02062482386827469,0.030697355046868324,0.030139517039060593,0.06677068024873734,0.06094786524772644,0.03705914318561554,0.0007003893260844052,0.00235387752763927,-0.003528160974383354,-0.0102121252566576,-0.04650205373764038,0.04132300615310669,-0.19204336404800415,-0.023896092548966408,0.0025601759552955627,-0.1241779699921608,-0.22661903500556946,0.046415284276008606,0.03856943920254707,0.10282506048679352,0.04100949689745903,0.14926664531230927,0.18249520659446716,0.20382048189640045,-0.14445440471172333,-0.1039041057229042,-0.15160807967185974,-0.11804261803627014,-0.2664982080459595,-0.2433270514011383,-0.06582963466644287,0.0334816612303257,0.09165535867214203,0.04301387444138527,0.12677235901355743,-0.023073751479387283,0.012096473947167397,-0.09043555706739426,-0.11389629542827606,-0.15806446969509125,-0.1747007668018341,0.1180991530418396,-0.08047506958246231,-0.20987370610237122,-0.1367148458957672,-0.18780726194381714,-0.21504129469394684,-0.14567053318023682,-0.18341557681560516,-0.0687471479177475,-0.1956099420785904,-0.16379833221435547,-0.09448986500501633,-0.3274620771408081,0.04701836034655571,0.007975079119205475,-0.07298395782709122,-0.049650147557258606,0.08905986696481705,-0.18715360760688782,0.093144491314888,-0.05505884066224098,0.15887126326560974,-0.020214490592479706,-0.0191801805049181,0.06021958217024803,-0.06910815834999084,0.04319696128368378,0.4575454592704773,0.40991249680519104,0.9147300124168396,-0.0011362502118572593,0.0009062670869752765,0.7452725172042847,0.07714436203241348,-0.789812445640564,0.012851397506892681,-0.1572915017604828,-0.3082587718963623,-0.00003617740367189981,-0.006110461428761482,-0.20177526772022247,-0.025018811225891113,0.35486799478530884,0.12251070141792297,-0.17056648433208466,-0.06327559798955917,-0.001197730889543891,-0.008621920831501484,-0.054585859179496765,-0.02397466078400612,0.1841549426317215,-0.4555586576461792,-0.2371714562177658,-0.44410786032676697,-0.000149634201079607,-0.002986458595842123,-0.34600114822387695,-0.059493761509656906,0.5942798852920532,0.01354654598981142,0.1346251517534256,0.3582521378993988,0.03458177298307419,-0.004419729579240084,0.003968429286032915,0.0996653139591217,-0.25388237833976746,-0.11561644077301025,-0.037554383277893066,0.05642542243003845,-0.023717787116765976,0.004172436892986298,-0.04853228107094765,-0.05122556537389755,0.14897064864635468,-0.018994851037859917,0.00549312774091959,0.2861942946910858,0.0002558304404374212,-0.004960822872817516,0.16314996778964996,-0.02454020082950592,-0.1763911247253418,-0.2282223403453827,0.1778995543718338,0.09245813637971878,0.0013695453526452184,0.011430040933191776,0.19358894228935242,0.06605513393878937,-0.06060445308685303,0.022754527628421783,0.15066783130168915,0.16621115803718567,0.011992059648036957,-0.000956973759457469,0.28561505675315857,0.12668529152870178,0.054147299379110336,0.014534473419189453,-0.01750919781625271,0.3315596580505371,-0.14631350338459015,0.16446620225906372,-0.12875911593437195,-0.03015008568763733,-0.22411222755908966,0.007827798835933208,0.013021460734307766,0.013531029224395752,0.017441269010305405,0.04266127943992615,-0.011122206225991249,-0.031047457829117775,-0.017801208421587944,-0.0014357420150190592,-0.007759269792586565,0.0028484449721872807,-0.014070993289351463,0.003924919292330742,-0.007545590400695801,0.0028997024055570364,0.017246922478079796,0.02774795889854431,-0.08788397908210754,0.013387559913098812,0.0056282104924321175,0.007518602069467306,0.0056967162527143955,-0.023934518918395042,0.05256602168083191,-0.018685627728700638,-0.0068219867534935474,-0.004949862603098154,-0.003990102559328079,0.019405100494623184,-0.032692305743694305,0.028745563700795174,0.011427302844822407,0.002442432101815939,0.00924444105476141,-0.01854724995791912,0.00552807841449976,0.019252905622124672,0.00617274921387434,-0.007288708817213774,0.0005341875366866589,-0.019668608903884888,0.01767626404762268,-0.025607982650399208,-0.019429165869951248,-0.002419005846604705,-0.007810077164322138,-0.03241908922791481,0.05730089172720909,0.031278345733881,0.02856946364045143,0.021389229223132133,0.02218315191566944,0.02303328551352024,0.021604005247354507,0.005986060947179794,0.002678302815183997,-0.0019601164385676384,-0.000797352462541312,0.003046586876735091,0.00587804801762104,0.002350002294406295,-0.003941748291254044,-0.008689495734870434,-0.00906278844922781,-0.0044043711386621,-0.007834738120436668,-0.0029312041588127613,0.0010611616307869554,0.006075967103242874,0.00474853441119194,0.0013839706080034375,0.001444262801669538,0.0028910196851938963,-0.0014116469537839293,-0.006798998452723026,-0.005488579627126455,-0.001607333542779088,-0.0017434190958738327,-0.0018444497836753726,0.0008142215083353221,0.0071549140848219395,0.003971724305301905,-0.00041064099059440196,-0.00194317486602813,-0.006048998795449734,-0.001294955494813621,0.0038239515852183104,0.0007239255937747657,-0.0033791190944612026,-0.006573263555765152,-0.0009282323298975825,0.004280372057110071,0.007463893387466669,0.0055740633979439735,0.00478764483705163,0.006818496156483889,0.002072190633043647,0.002715971553698182,0.002901084953919053,0.002194320084527135,0.0025902066845446825,0.0006020833970978856,-0.0008512296481058002,-0.00003182877480867319,-0.0004826358344871551,-0.0005850027082487941,-0.0005054525681771338,-0.002811603946611285,0.0005999215645715594,0.0003980686014983803,0.0019813019316643476,0.0012829552870243788,0.0013356426497921348,-0.004206393379718065,0.0014605895848944783,0.0007871202542446554,0.0006783541175536811,0.0010599911911413074,0.0008226688369177282,0.005087152123451233,-0.00162211200222373,-0.0007966405828483403,-0.00111865415237844,-0.001341139548458159,-0.0008196552516892552,-0.0044117155484855175,0.0024155457504093647,0.0008722408092580736,0.002472236752510071,0.002028418704867363,0.0013035834999755025,0.003914559725672007,0.0020040227100253105,0.0005894857458770275,0.0017778354231268167,0.0015386876184493303,0.0012031446676701307,0.004168141167610884,-0.00003665204349090345,-0.0002822017704602331,-0.0005503386491909623,-0.000817561405710876,-0.0008299842593260109,0.003372287144884467,0.00855170376598835,0.008603395894169807,0.006255646701902151,0.009339101612567902,0.008384750224649906,0.012692110612988472,-0.002912485506385565,-0.005851988680660725,-0.004967024549841881,-0.005202031694352627,-0.001820478937588632,0.0019570051226764917,0.00016917190805543214,0.003926956094801426,-0.001525886938907206,0.0022896272130310535,0.0003979285538662225,0.002784933429211378,0.0014105424052104354,0.0020386436954140663,0.003826925065368414,0.0010097203776240349,0.0006320465472526848,-0.0031618215143680573,-0.002337771002203226,-0.0036970963701605797,-0.005129216704517603,-0.0028502934146672487,-0.0015863956650719047,0.0018850758206099272,0.004721812438219786,0.008430243469774723,0.006860947702080011,0.006852603051811457,0.0008368781418539584,-0.0026556479278951883,0.0026308640372008085,0.007388240657746792,0.005195250269025564,0.005862018093466759,0.0005503526772372425,-0.005091575905680656,-0.0028666919097304344,-0.002170704072341323,-0.0012532442342489958,-0.005169596057385206,-0.0037919641472399235,-0.0038059595972299576,0.010428777895867825,0.016385553404688835,0.007055719383060932,0.010185735300183296,0.011959830299019814,0.01263469085097313,-0.00801081582903862,-0.007541263476014137,-0.01239144615828991,-0.012148941867053509,-0.006682251114398241,-0.010898473672568798,0.0027972087264060974,0.010109445080161095,-0.00006357910751830786,0.0038222044240683317,0.005509672220796347,0.013428593054413795,0.0029182620346546173,-0.001112106954678893,0.0077351597137749195,0.004501884803175926,0.0001081598675227724,0.000786641554441303,-0.004272044636309147,-0.0009308477747254074,-0.008689887821674347,-0.006895388476550579,-0.0017559451516717672,-0.002880699001252651,0.006592953577637672,0.0064871832728385925,0.012651635333895683,0.013303817249834538,0.004107890650629997,0.010410541668534279,0.008067114278674126,0.007997888140380383,0.014628688804805279,0.01397362444549799,0.005332252010703087,0.01203137543052435,-0.0022313916124403477,-0.009157402440905571,0.0016344118630513549,-0.0012746144784614444,-0.00777919078245759,-0.00601245416328311,-0.021404506638646126,-0.002628557849675417,0.08134736865758896,-0.09387309104204178,-0.03154782950878143,0.008397957310080528,-0.0010868432000279427,0.0327012799680233,0.042264118790626526,-0.01840212754905224,0.028655584901571274,0.1888248473405838,0.009450468234717846,-0.037807442247867584,-0.04082394763827324,-0.028050698339939117,-0.09622625261545181,-0.30622977018356323,0.004648364614695311,-0.017690367996692657,0.08639784157276154,-0.08297010511159897,-0.05764736980199814,-0.005556363146752119,0.026624752208590508,0.06980184465646744,0.11848331242799759,0.03347891941666603,0.10020039975643158,0.15613201260566711,0.022809771820902824,-0.0005131628131493926,0.03242650255560875,0.05381800979375839,-0.044407207518815994,-0.1232457384467125,-0.0432109460234642,0.04798681288957596,0.028772912919521332,-0.08063174039125443,0.108030304312706,-0.18462951481342316,-0.01066538691520691,-0.011213262565433979,-0.027796143665909767,-0.004229160025715828,-0.01623700186610222,-0.028744107112288475,0.014226149767637253,0.015212060883641243,0.014904196374118328,0.01663065142929554,0.017609842121601105,0.01876666024327278,-0.016580235213041306,-0.01626996137201786,-0.016396893188357353,-0.01709546335041523,-0.015329992398619652,-0.014834998175501823,0.004072729963809252,0.0070117139257490635,0.006460793316364288,0.01010675635188818,0.009889211505651474,0.010090220719575882,0.004158665891736746,0.001082892413251102,-0.0001374142011627555,-0.001397586427628994,-0.0013518797932192683,-0.0013363470789045095,-0.007199408952146769,-0.004144836682826281,-0.00254227127879858,-0.0018372468184679747,-0.0017429491272196174,-0.0022363762836903334,0.015922952443361282,0.013345918618142605,0.010394182987511158,0.010540896095335484,0.009030495770275593,0.011504960246384144,0.01929778978228569,0.018167290836572647,0.01721109077334404,0.017807073891162872,0.016107933595776558,0.01701563037931919,-0.00199424521997571,-0.005430241581052542,-0.006228675600141287,-0.008060673251748085,-0.00775326369330287,-0.008019893430173397,0.006723149213939905,0.005472106859087944,0.005524720065295696,0.00588713213801384,0.006645756773650646,0.009984670206904411,-0.0027877679094672203,-0.003844358492642641,-0.003808039240539074,-0.004306203685700893,-0.003559891367331147,-0.0017898030346259475,0.0030925634782761335,0.0024196284357458353,0.0009393994114361703,0.002494543557986617,0.003752610646188259,0.008249901235103607,0.0005590455257333815,0.0015402677236124873,0.0020860652439296246,0.002176509005948901,0.0012599917827174067,-0.0027596657164394855,-0.0012993721757084131,-0.0023840749636292458,-0.002998707350343466,-0.0032796808518469334,-0.0021071129012852907,0.0012073711259290576,0.0035490060690790415,0.005056462716311216,0.00535269221290946,0.00618904922157526,0.004338882397860289,0.0010843065101653337,0.004134212154895067,0.005711989477276802,0.005544892977923155,0.006188610102981329,0.0048433332704007626,0.0017986670136451721,-0.002500420669093728,-0.0018441610736772418,-0.0011467295698821545,-0.0017448934959247708,-0.0024854417424649,-0.005601455923169851,-0.08962881565093994,-0.046414073556661606,-0.03831387311220169,-0.040359824895858765,-0.02798241376876831,0.010101674124598503,-0.04452897235751152,-0.0515846386551857,0.0032281919848173857,-0.000867089198436588,0.003142554545775056,-0.0008436768548563123,0.00014491684851236641,-0.7593165636062622,-0.004441359546035528,-0.001999654807150364,0.09320835769176483,-0.012093772180378437,0.0003462787135504186,-0.0001567110448377207,0.00027107694768346846,0.37362200021743774,-0.0076875239610672,-0.0006733552436344326,0.0029086084105074406,0.01262736413627863,0.0004170410393271595,0.005545933265239,-0.002803099574521184,-0.16915003955364227,-0.008343225345015526,0.0008588762138970196,-0.08753892779350281,0.0062907240353524685,0.0009077807189896703,-0.002639014972373843,0.0009008678607642651,0.5172416567802429,-0.011041419580578804,-0.0015325024724006653,-0.11256885528564453,0.0744083821773529,-0.021156271919608116,0.05037546902894974,0.0005639312439598143,-0.20814406871795654,0.019631676375865936,0.03970213606953621,0.07169338315725327,-0.014446018263697624,0.014805765822529793,-0.010869886726140976,0.008726639673113823,0.167301744222641,-0.02533920295536518,-0.024604788050055504,-0.08221954852342606,-0.010519256815314293,-0.00036568715586327016,-0.0017390106804668903,-0.00043395673856139183,-0.07975126802921295,-0.0020837849006056786,0.00039998485590331256,-0.011220046319067478,-0.012377338483929634,-0.0007667492027394474,-0.008825366385281086,0.007272121496498585,-0.08134427666664124,0.014043259434401989,0.0006282265530899167,0.06452256441116333,0.0046773734502494335,-0.00894488487392664,0.017056437209248543,-0.0013641681289300323,-0.01001176331192255,0.02815018780529499,0.01580708846449852,0.19813545048236847,-0.033355630934238434,-0.10289625823497772,0.07847131043672562,0.16531147062778473,0.1076192781329155,0.10701253265142441,0.029659995809197426,0.0032366649247705936,0.0018987101502716541,-0.0035725771449506283,0.0009074658155441284,0.0011645967606455088,-0.0009079544106498361,0.00009619927004678175,-0.008318426087498665,-0.006963382940739393,0.0010667843744158745,-0.002506497548893094,-0.003466462017968297,0.008324431255459785,0.010553215630352497,0.0042073410004377365,0.005234852898865938,0.007700752932578325,0.0017840798245742917,-0.0034375630784779787,-0.0034771529026329517,0.002501979935914278,-0.0011157518019899726,-0.0010754575487226248,0.0014674015110358596,-0.010534387081861496,-0.009914370253682137,-0.012978808023035526,-0.005279982928186655,-0.00796648021787405,-0.007673134561628103,-0.0022411372046917677,0.002386930864304304,0.007331195753067732,-0.00017824048700276762,0.002664306666702032,-0.0009646740509197116,-0.0018513863906264305,0.006295381113886833,0.006153009831905365,-0.002924134023487568,0.0022097276523709297,0.0026595008093863726,-0.006773537024855614,-0.01122061163187027,-0.004914667457342148,-0.006743303965777159,-0.006375530734658241,-0.004526905249804258,-0.009813537821173668,-0.00921022891998291,-0.0008107960456982255,0.003310120664536953,-0.012088986113667488,0.2448175549507141,-0.024024562910199165,-0.01735752262175083,-0.01660388708114624,-0.041989684104919434,-0.03942715749144554,0.09137336164712906,0.00046306668082252145,-0.0024877595715224743,-0.00007363546319538727,-0.00015143048949539661,-0.0005653660045936704,0.21282315254211426,-0.012394089251756668,-0.013783234171569347,-0.009822281077504158,-0.018694888800382614,-0.011594248935580254,-0.1657412350177765,-0.016661865636706352,-0.02627274952828884,-0.020794115960597992,-0.02661150135099888,-0.10551077872514725,0.04584045335650444,-0.015485472977161407,-0.009226497262716293,0.005119004752486944,0.0032369683030992746,0.02777843549847603,-0.0871826782822609,-0.010911830700933933,-0.030310900881886482,-0.03099525347352028,-0.02528984099626541,-0.008719275705516338,-0.34566888213157654,0.0025821335148066282,0.002830531680956483,0.00046185104292817414,-0.010907587595283985,-0.0037907969672232866,-0.18792906403541565,0.040844257920980453,0.02290906384587288,0.06824389100074768,0.008318128064274788,0.07555853575468063,0.1798035055398941,-0.04310547560453415,0.10518160462379456,0.10176263004541397,-0.030661921948194504,0.05900802090764046,-0.06421532481908798,-0.005457255057990551,-0.018266141414642334,-0.043011121451854706,-0.0036438743118196726,-0.04019918665289879,0.05830627679824829,0.061900850385427475,0.03804808482527733,0.07001876831054688,0.014420700259506702,0.08399038016796112,0.06608150899410248,0.051029570400714874,-0.0095309317111969,0.01721918396651745,0.004932153970003128,-0.04132544621825218,0.07040411978960037,0.02548113837838173,-0.07051876187324524,-0.0528210774064064,0.024591831490397453,-0.04926464706659317,-0.13554738461971283,-0.045749299228191376,0.04206462576985359,0.05178111791610718,-0.10397958755493164,-0.07727118581533432,-0.1415451169013977,0.02749016135931015,0.02549620345234871,-0.012826921418309212,0.0450579896569252,0.00907163042575121,0.23328091204166412,-0.005802467465400696,0.01709374412894249,0.00009735576168168336,0.0063720992766320705,0.0008820603252388537,0.13183262944221497,0.0020012424793094397,-0.018379222601652145,-0.00005762864020653069,-0.03021840937435627,0.023441867902874947,0.10006433725357056,0.00323627726174891,-0.003637730609625578,-0.008253168314695358,-0.02487361989915371,-0.06296354532241821,0.03255366161465645,-0.020519385114312172,-0.02158517949283123,-0.015317033044993877,-0.010485906153917313,-0.0052679493092000484,-0.12142960727214813,0.005345870275050402,0.03240979462862015,-0.020343216136097908,0.09944088757038116,0.11854076385498047,0.0215029064565897,-0.019777342677116394,0.006410922389477491,-0.028977831825613976,0.004266652278602123,-0.04310517758131027,-0.12559272348880768,-0.017734931781888008,0.010841382667422295,-0.009790826588869095,-0.010617919266223907,-0.09053751826286316,-0.1390206217765808,0.009195116348564625,0.024922391399741173,0.011106397025287151,0.03868305683135986,0.06409860402345657,0.08011233806610107,0.0005783954402431846,0.0002828534634318203,0.0008435167837888002,0.0010012463899329305,-0.00008188100036932155,0.000771307444665581,-0.0005986675387248397,0.0000026588948003336554,0.00007923061639303342,-0.00004960013393429108,-0.00004946278568240814,-0.0001275491958949715,0.0026795268058776855,0.0018815372604876757,0.0035974972415715456,0.005300145596265793,0.0008191025699488819,0.004060220904648304,-0.00010450524132465944,0.00026988782337866724,-0.00029111409094184637,-0.0006871427758596838,0.0006681169616058469,-0.0002631839597597718,-0.010570057667791843,-0.010133977979421616,-0.010978136211633682,-0.011952496133744717,-0.011716604232788086,-0.010640261694788933,-0.00038044838584028184,-0.0005657259607687593,-0.0004887524410150945,0.0002324345987290144,-0.0008236132562160492,0.0001492310839239508,-0.00011586143227759749,-0.00038273510290309787,-0.0004788186924997717,0.000041069619328482077,-0.0003644975367933512,0.00025689974427223206,-0.0010944238165393472,-0.0006073492113500834,-0.000820435001514852,-0.0014387135161086917,0.00017333807772956789,-0.0005596061819233,0.0027155831921845675,-0.020213279873132706,-0.023541944101452827,-0.023089883849024773,0.0016417497536167502,-0.09240791201591492,0.004302648361772299,0.012555070221424103,0.021202391013503075,0.030690161511301994,0.05118710175156593,0.08568347990512848,-0.020286357030272484,-0.045792900025844574,-0.040578484535217285,-0.03442694991827011,-0.04964694380760193,-0.364030122756958,0.002117738127708435,0.01645241491496563,0.01489169429987669,0.01484849862754345,-0.0024010413326323032,0.14743776619434357,0.07243648916482925,0.10318118333816528,0.08696737140417099,0.08007985353469849,0.1102055162191391,0.0326959453523159,0.03280223160982132,0.0014834918547421694,-0.011509506963193417,-0.016521580517292023,-0.06919170916080475,-0.107023224234581,0.005304394755512476,-0.010877498425543308,-0.04447131231427193,-0.047001905739307404,-0.0910286009311676,-0.15086308121681213,0.027211414650082588,0.03853701800107956,0.018932033330202103,0.03287740424275398,0.04177919402718544,0.3099853992462158,0.0863511860370636,0.010684099048376083,0.047222238034009933,-0.0072968024760484695,0.013854878954589367,0.02531561255455017,-0.02765914984047413,0.07428042590618134,0.08073605597019196,0.07340396195650101,0.11089836806058884,0.16571170091629028,-0.018231667578220367,-0.005407311022281647,-0.04725080728530884,-0.09425975382328033,-0.05657074972987175,-0.2522154152393341,0.08259746432304382,-0.031193295493721962,-0.0014283315977081656,-0.012369328178465366,-0.020814934745430946,-0.11953575909137726,0.06243344396352768,-0.04766063019633293,0.014596572145819664,0.15135177969932556,-0.04446516931056976,0.11825481057167053,0.007872948423027992,-0.09739065915346146,-0.05224614217877388,0.022737374529242516,-0.031504660844802856,-0.034533943980932236,-0.029219230636954308,0.008107460103929043,0.016274504363536835,-0.037226784974336624,-0.1453341692686081,-0.2017560750246048,0.012136231176555157,0.0745411366224289,0.01519440021365881,-0.0304411631077528,0.04232646897435188,-0.012788787484169006,0.004631515592336655,0.00028500001644715667,0.00042033352656289935,-0.0001457764010410756,0.0010169222950935364,0.0024234645534306765,0.0004369032976683229,-0.002694121329113841,-0.0027859590481966734,-0.0033994726836681366,-0.002508800011128187,-0.0016341779846698046,0.00486894091591239,0.0024829148314893246,0.002928438363596797,0.0031946366652846336,0.004684311803430319,0.006112133152782917,-0.0038387468084692955,-0.00011699042079271749,-0.0006689242436550558,-0.00017667945940047503,-0.0012523657642304897,-0.002343659522011876,-0.006273285485804081,-0.009245975874364376,-0.009215233847498894,-0.009459109976887703,-0.009472706355154514,-0.007341291755437851,-0.002476814668625593,0.0018386907177045941,0.0012939514126628637,0.002462495118379593,0.001722301123663783,-0.0013364290352910757,-0.0009779810206964612,0.00246383692137897,0.0018259547650814056,0.003207618137821555,0.0024332937318831682,-0.00003379767440492287,-0.0011812741868197918,-0.0007786636706441641,-0.0027036366518586874,-0.002041157800704241,-0.002721936209127307,-0.0034357046242803335,-0.049179308116436005,-0.07121548801660538,0.1602470427751541,0.07591398805379868,-0.026602162048220634,0.22947728633880615,0.16200409829616547,-0.04725331813097,-0.0033409215975552797,-0.0693880021572113,1.405070185661316,-0.08920560032129288,-0.0001552796456962824,0.04961533099412918,-0.9837302565574646,-0.0013741712318733335,0.02462504245340824,0.13048504292964935,-0.35998374223709106,-0.25326234102249146,0.004049969837069511,-0.11990103870630264,0.1459389477968216,-0.015259449370205402,-0.005173956509679556,0.33077606558799744,0.10243228822946548,0.1389017552137375,-0.0012449065688997507,-0.07698337733745575,-0.07167255133390427,0.0032192629296332598,0.022786293178796768,0.06348805129528046,-0.2120865136384964,-0.1668936014175415,0.0020657514687627554,-0.17234213650226593,0.05807573348283768,-0.01567959040403366,-0.0475972518324852,0.17244865000247955,0.37418171763420105,0.26275569200515747,-0.005368230398744345,-0.2740168273448944,-0.2544681429862976,0.041472285985946655,0.04241287708282471,0.2304857075214386,-0.2882503271102905,0.3081611394882202,0.005312253255397081,-0.01747874729335308,0.13159912824630737,-0.03526519238948822,-0.00768544664606452,-0.2091938555240631,0.12189865857362747,0.11295582354068756,-0.003536416683346033,0.019485099241137505,-0.2537023723125458,0.009599979035556316,-0.021754642948508263,0.1283893883228302,0.2266615778207779,0.16663019359111786,0.0028100782074034214,0.3007669746875763,-0.10944019258022308,-0.002569378586485982,-0.02958580106496811,0.1517949253320694,-0.11924678832292557,-0.2567695677280426,-0.00002523477996874135,-0.18790967762470245,-0.12668566405773163,0.01073953602463007,0.10736117511987686,-0.027630727738142014,0.16569344699382782,0.11248549073934555,-0.2358824908733368,-0.0831134170293808,-0.1573030650615692,0.2374153584241867,-0.021574964746832848,-0.012912564910948277,-0.013820565305650234,-0.019260002300143242,-0.014688572846353054,-0.2655232548713684,0.016090750694274902,0.016796573996543884,0.005699531175196171,0.003947331104427576,0.013809564523398876,-0.16941429674625397,0.006189148407429457,-0.00589769659563899,-0.01586518995463848,-0.0005845577106811106,-0.006561523303389549,-0.37453144788742065,0.012777785770595074,0.0027009048499166965,0.0014388773124665022,0.008133431896567345,0.015737006440758705,0.1959061622619629,0.009521459229290485,0.015333307906985283,0.0154408635571599,0.0044695050455629826,0.010069194249808788,-0.17872989177703857,0.0061776177026331425,-0.004509435500949621,-0.008227568119764328,0.004592844285070896,0.0038415505550801754,0.125315323472023,-0.008104810491204262,-0.004062254913151264,-0.002495185472071171,-0.018113253638148308,-0.022564146667718887,0.2833508551120758,0.019279778003692627,0.024329781532287598,0.013151082210242748,0.010715431533753872,0.021711217239499092,0.14185446500778198,0.0008079685503616929,-0.00020929583115503192,-0.000558085972443223,0.0003786023298744112,-0.001457499573007226,0.0015676092589274049,-0.0020801511127501726,-0.002429649233818054,-0.0025083376094698906,-0.001900420873425901,-0.004069963004440069,-0.0006089321104809642,0.002633107593283057,0.0019905404187738895,0.0013677295064553618,0.005078371614217758,0.00029249649378471076,0.00386474234983325,-0.0019379040459170938,-0.0017347796820104122,-0.0014977911487221718,-0.0018114481354132295,-0.0009118790621869266,-0.003262750105932355,-0.0035607016179710627,-0.004751699976623058,-0.004910447634756565,-0.0044160564430058,-0.0066048214212059975,-0.0013299421407282352,0.006795677822083235,0.007781862281262875,0.007514658849686384,0.007715429645031691,0.00871344655752182,0.006865816190838814,-0.0011341513600200415,-0.0008612871752120554,-0.00029040846857242286,-0.0007602670812048018,0.000701611046679318,-0.005259331315755844,-0.003823293838649988,-0.003996504470705986,-0.004432068206369877,-0.004692733753472567,-0.0037231585010886192,-0.007231992669403553,-0.006866075564175844,0.019849805161356926,0.010453770868480206,-0.04522804543375969,-0.032556094229221344,0.08452069759368896,0.06130553409457207,0.04296071454882622,-0.006690177600830793,0.02625691518187523,-0.012923479080200195,0.12171385437250137,-0.052648961544036865,-0.07026783376932144,-0.059422459453344345,-0.028029531240463257,-0.05718079209327698,-0.07189957797527313,0.07006753236055374,0.03044138476252556,0.08250492811203003,-0.01025673933327198,0.08109726011753082,0.24892129004001617,0.1295696496963501,0.07757898420095444,0.03507649526000023,0.08517684042453766,0.09425470978021622,0.08256286382675171,0.028988363221287727,0.04699483513832092,-0.09436841309070587,0.003943304065614939,-0.0920347198843956,-0.1612289994955063,0.01234724372625351,-0.06377477943897247,0.01954159326851368,-0.05426560342311859,-0.024575520306825638,-0.01941749081015587,0.022361217066645622,0.0439346544444561,-0.05998558551073074,0.06864788383245468,0.02400970831513405,0.19586941599845886,0.0004842944035772234,0.002578540937975049,0.0028347852639853954,0.0005745706148445606,0.0005026509752497077,0.0006248045829124749,-0.003914054483175278,-0.0021178547758609056,-0.003366143209859729,-0.004320524167269468,-0.004355364013463259,-0.005095109809190035,0.0061072008684277534,0.008399568498134613,0.00791262462735176,0.0029653324745595455,0.0027435794472694397,0.0044402070343494415,-0.001391236437484622,-0.003585878061130643,-0.003836747258901596,-0.0019038397585973144,-0.0013584437547251582,-0.002033910248428583,-0.0055566770024597645,-0.0032716523855924606,-0.0022029075771570206,-0.003982835449278355,-0.003386522177606821,-0.004386528395116329,0.008187562227249146,0.00579465227201581,0.004773770924657583,0.006364096887409687,0.006043677683919668,0.008431052789092064,0.0005346829420886934,-0.0011207853676751256,-0.001260812976397574,0.00009265884727938101,0.0008564166491851211,0.0003522810875438154,-0.0030395505018532276,-0.005242363549768925,-0.0053857979364693165,-0.002828710712492466,-0.0022752347867935896,-0.0030594663694500923,-0.034974247217178345,0.011817620135843754,0.0392981618642807,-0.031139828264713287,0.008098860271275043,-0.07184331119060516,0.007238016463816166,0.02086767368018627,-0.008886776864528656,-0.004963395185768604,0.024561991915106773,0.10534985363483429,-0.03421836718916893,-0.05312614142894745,-0.019318178296089172,-0.020111484453082085,-0.046788424253463745,-0.15891316533088684,0.019434751942753792,0.0403950996696949,0.05641527101397514,-0.015308579429984093,0.08900557458400726,-0.08162928372621536,0.032684747129678726,0.06472887843847275,-0.014342261478304863,0.12541070580482483,0.05502522736787796,-0.032720137387514114,-0.07256047427654266,0.02812003903090954,-0.044368065893650055,0.03745196387171745,-0.06921292096376419,-0.0670492947101593,-0.026830555871129036,-0.030469680204987526,-0.037607960402965546,-0.02820182964205742,0.0018117115832865238,-0.11091379076242447,0.043301764875650406,-0.014373947866261005,0.030564626678824425,0.09858846664428711,0.020747216418385506,-0.07109121978282928,-0.06617230921983719,-0.014306088909506798,-0.0017049117013812065,-0.019610051065683365,-0.0031264398712664843,-0.07961511611938477,-0.045181240886449814,-0.032389696687459946,0.018059484660625458,0.01564260572195053,0.04712968319654465,0.1063372790813446,0.012312226928770542,-0.009568101726472378,-0.003722182009369135,0.00534733384847641,-0.010222467593848705,-0.12611158192157745,0.004406230989843607,0.04327781870961189,-0.04222507029771805,0.03726600855588913,0.017117708921432495,0.20393259823322296,-0.021801764145493507,0.03844510391354561,0.032539770007133484,0.032572634518146515,0.012094378471374512,0.17372480034828186,-0.1412021964788437,-0.055863335728645325,0.024752724915742874,-0.030403628945350647,-0.07233903557062149,-0.23737098276615143,-0.010983211919665337,0.018026158213615417,-0.04405787214636803,0.009145988151431084,0.03584406152367592,0.07217293977737427,0.04238264635205269,-0.006517773028463125,0.12134640663862228,0.04741084575653076,0.059919990599155426,0.05582437291741371,0.042972538620233536,0.017337530851364136,0.02164682187139988,0.027118293568491936,0.019709398970007896,0.08008633553981781,0.009922263212502003,0.0014261751202866435,0.028331968933343887,0.041289784014225006,0.01209527999162674,0.2119297832250595,-0.024667833000421524,-0.023127298802137375,-0.040536560118198395,-0.000060999849665677175,-0.03714822232723236,-0.058483634144067764,-0.03542916849255562,-0.024705667048692703,-0.05498743802309036,-0.052861712872982025,-0.06750135868787766,0.03922060504555702,-0.002862499328330159,0.019707996398210526,0.025078466162085533,-0.042726069688797,0.0419720821082592,0.03952229022979736,-0.010082696564495564,-0.010433277115225792,0.008268349803984165,-0.001699073938652873,0.0300406813621521,-0.057113222777843475,0.03349948301911354,0.04788382351398468,0.03339826688170433,0.03662129119038582,0.057676658034324646,-0.0003906490164808929,-0.016871362924575806,-0.014095639809966087,0.01490783877670765,0.018450288102030754,-0.01783175766468048,0.010076994076371193,-0.0817682072520256,-0.01688220351934433,-0.04264092817902565,-0.01996815949678421,-0.05128125101327896,-0.11461909860372543,-0.049532677978277206,-0.06967420876026154,0.023041876032948494,0.029190458357334137,-0.020567018538713455,0.11518801748752594,0.008339612744748592,-0.03241005539894104,-0.0692540630698204,-0.006407196633517742,-0.03913012892007828,-0.18013708293437958,0.06379295140504837,0.05560065433382988,-0.10463757067918777,0.07532994449138641,-0.029272668063640594,-0.0355590395629406,0.10423832386732101,0.11009350419044495,0.18928369879722595,0.02455962635576725,0.14415405690670013,0.23021045327186584,-0.1509484499692917,-0.11019550263881683,0.0032360327895730734,-0.13256442546844482,-0.17677041888237,-0.00996071845293045,0.04021395370364189,0.006284390110522509,-0.0004053087322972715,0.00026626026374287903,0.04764385521411896,-0.10716727375984192,0.062089622020721436,0.07672122865915298,0.1449076533317566,0.04690329730510712,0.1498318314552307,-0.004899564199149609,-0.13985319435596466,-0.04512270167469978,0.10887888073921204,-0.04074002802371979,0.057789698243141174,0.10813329368829727,0.067233607172966,0.007555020973086357,0.04315562546253204,-0.0008561628637835383,1.0080150365829468,-0.0003552788693923503,-0.7233176827430725,1.007996916770935,-0.030845437198877335,-0.795253336429596,0.18074801564216614,-0.013594438321888447,-0.35695990920066833,-0.009937706403434277,0.18403875827789307,0.13077205419540405,-0.06196668744087219,0.20655564963817596,0.10564945638179779,0.0002749237755779177,0.03574199974536896,-0.0025749141350388527,-0.005636059679090977,-0.09255610406398773,-0.03600449487566948,0.027883591130375862,-0.25536760687828064,-0.012513568624854088,-0.2521107494831085,-0.010490051470696926,0.19491703808307648,-0.19031675159931183,0.1391712874174118,0.2528708279132843,-0.18834933638572693,0.020008327439427376,-0.2053791880607605,0.012577584944665432,-0.14331446588039398,0.05831313133239746,-0.14459030330181122,0.09196998178958893,0.1945548951625824,-0.02457474172115326,-0.21821841597557068,-0.019930431619286537,0.08064496517181396,-0.19227127730846405,-0.09015457332134247,0.09298766404390335,-0.2232362926006317,0.004927662666887045,0.13528287410736084,0.004295263439416885,0.1648862212896347,0.06681077927350998,0.12623699009418488,-0.3149213194847107,0.29546448588371277,0.007046174723654985,0.17116472125053406,0.0072377645410597324,-0.1373032033443451,0.27245432138442993,0.1389317661523819,-0.06631486117839813,0.048527274280786514,0.013195790350437164,-0.04568614065647125,0.009416867047548294,-0.2747737467288971,0.3956746459007263,0.04658588767051697,0.053628310561180115,-0.14196592569351196,0.03765304759144783,-0.1850503534078598,-0.1282636970281601,-0.04151676222681999,0.16960670053958893,-0.07936949282884598,0.04894421249628067,-0.04176310449838638,0.07322429120540619,-0.05697132647037506,-0.0010233711218461394,-0.06674422323703766,-0.1143556535243988,0.04304886236786842,0.04200618714094162,0.028946183621883392,0.08616047352552414,0.0668346956372261,0.08090639859437943,-0.054245851933956146,-0.06862392276525497,-0.06442538648843765,-0.12214402109384537,-0.0334610715508461,-0.15146590769290924,0.0033304926473647356,-0.07225111126899719,-0.008871696889400482,-0.04135550558567047,0.04514414817094803,-0.057408276945352554,0.06454206258058548,-0.04519892856478691,0.05686026066541672,0.0667254701256752,0.0961601510643959,-0.14767947793006897,-0.002705591730773449,-0.021283946931362152,-0.06358803808689117,0.02486024610698223,-0.0022910411935299635,-0.08123081922531128,-0.04329300299286842,-0.038633447140455246,-0.04684361442923546,-0.0928492471575737,-0.022626472637057304,0.30307722091674805,0.002152900444343686,0.01556062139570713,-0.001728162751533091,-0.015004852786660194,0.0514896884560585,0.2812384366989136,-0.07775118201971054,0.010858723893761635,-0.05505593866109848,-0.06400824338197708,-0.013029440306127071,0.14356714487075806,0.016756540164351463,-0.028400301933288574,-0.055698152631521225,-0.02467450685799122,0.018245898187160492,0.15823157131671906,-0.002474201377481222,-0.05160251632332802,0.04151349514722824,-0.09145836532115936,0.024761615321040154,-0.05470957234501839,-0.130060076713562,-0.02733786217868328,-0.11126883327960968,-0.12294864654541016,-0.0572337731719017,-0.21399015188217163,0.05376473814249039,0.10149943828582764,0.004727994091808796,0.12721547484397888,0.010564410127699375,0.2246943861246109,0.017035452648997307,0.02475854568183422,-0.07578404992818832,0.009355353191494942,-0.03369597718119621,-0.1587381213903427,-0.016685187816619873,-0.04409804195165634,0.010108280926942825,-0.07694300264120102,0.05953817069530487,0.014187260530889034,0.07660580426454544,0.06827423721551895,0.13354669511318207,0.02652147226035595,0.06782697886228561,-0.000662746315356344,-0.0009030563523992896,-0.00126130401622504,0.00004649292168323882,-0.0003661237424239516,-0.0017415346810594201,0.00007777697464916855,-0.0032509639859199524,-0.004918482154607773,-0.004397188313305378,-0.0045183817856013775,-0.0048660277388989925,-0.005854850169271231,0.004846975672990084,0.0038003334775567055,0.006118090823292732,0.007266212720423937,0.003345571691170335,0.003674361389130354,0.005139588378369808,0.00537319527938962,0.004718603566288948,0.005175103433430195,0.00588606670498848,0.005648039747029543,-0.0028422526083886623,-0.0036001629196107388,-0.002868061186745763,-0.002607152331620455,-0.004629445727914572,-0.002298035193234682,0.0038742877077311277,0.006054453086107969,0.0048260437324643135,0.004841916263103485,0.006164777558296919,0.004394283518195152,-0.0001968626893358305,-0.0004008692631032318,-0.0018453641096130013,-0.003649485297501087,0.0007064692908897996,-0.002246946096420288,-0.0034305034205317497,-0.0028660036623477936,-0.004276783671230078,-0.005750814452767372,-0.0033797293435782194,-0.006849283818155527,0.003342389827594161,-0.020063526928424835,-0.012158269062638283,-0.011666713282465935,0.009195384569466114,0.19528843462467194,-0.050193823873996735,-0.04242723062634468,-0.057581350207328796,-0.08634060621261597,-0.06277047842741013,0.005544158164411783,0.03998569771647453,0.06056753173470497,0.04029085859656334,0.06630275398492813,0.03393182530999184,0.09360715001821518,0.026427563279867172,0.024450859054923058,0.015309132635593414,0.013786808587610722,0.005489381030201912,-0.18314406275749207,-0.017925260588526726,-0.02841985411942005,-0.026095964014530182,-0.028341220691800117,-0.025524111464619637,0.17800268530845642,0.004804863128811121,0.014181581325829029,0.028734471648931503,0.02902383543550968,0.03441018983721733,0.011648009531199932,0.014871791936457157,0.018686480820178986,0.004916267469525337,0.01617496646940708,-0.0027639931067824364,-0.23042398691177368,-0.02076544240117073,-0.023519210517406464,-0.04101969301700592,-0.028979498893022537,-0.06237991899251938,-0.18142683804035187,-0.10427004098892212,0.030157705768942833,-0.01132533885538578,-0.04266872629523277,0.02197852171957493,0.034459199756383896,-0.009699266403913498,0.006989712826907635,-0.020532749593257904,0.019029533490538597,-0.0006930454983375967,0.015727253630757332,0.003223555628210306,-0.04541333392262459,-0.04513345658779144,-0.03818101808428764,-0.03285163268446922,0.0631958618760109,-0.0007357568247243762,-0.10409633815288544,-0.03933298960328102,-0.05099226534366608,0.004866359755396843,0.08975278586149216,0.09416323900222778,0.04363914951682091,0.06970880925655365,0.06659594178199768,0.06718232482671738,-0.010146979242563248,-0.019450785592198372,0.051165785640478134,0.010173414833843708,0.0030144541524350643,-0.010477820411324501,-0.022244539111852646,0.000425460486439988,-0.05479112267494202,-0.0498659573495388,-0.027050308883190155,-0.0025364847388118505,-0.046862486749887466,0.026476813480257988,0.07650598138570786,0.039738863706588745,0.027166740968823433,0.06455981731414795,0.11698339879512787,-0.004773998167365789,-0.00597583269700408,-0.004199171904474497,-0.012023656629025936,-0.009734311141073704,-0.029683828353881836,-0.01738361082971096,-0.01307193748652935,-0.011817828752100468,-0.02475447580218315,-0.027885809540748596,-0.01949804089963436,0.017866654321551323,0.015688104555010796,0.01945181004703045,0.025929033756256104,0.031168920919299126,-0.021979888901114464,0.02302710711956024,0.022239798679947853,0.020882921293377876,0.02673761546611786,0.02540283463895321,0.024732673540711403,-0.00819177832454443,-0.009218028746545315,-0.006984931416809559,-0.02066211774945259,-0.020234491676092148,-0.017206810414791107,0.01931666024029255,0.017735660076141357,0.019018741324543953,0.03191104158759117,